{"hk_disentangled_rnn": {"choice_net_multipliers": [0.8294575214385986, 1.7432595491409302, 1.1228315830230713, 1.2643513679504395, 0.090999536216259], "choice_net_sigma_params": [0.9929783344268799, 0.006391806062310934, 0.04948398843407631, 0.269945353269577, 0.9916747808456421], "latent_inits": [-0.008547685109078884, -0.03698562830686569, -1.397899866104126, 0.7465508580207825, -0.013823839835822582], "latent_multipliers": [1.0, 1.0, 1.0, 1.0, 1.0], "latent_sigma_params": [0.0029991930350661278, 0.0023862640373408794, 0.029014952480793, 0.008670796640217304, 0.001927884528413415], "update_net_latent_multipliers": [[1.2868531942367554, 1.9783973693847656, 0.5732678771018982, 1.3057880401611328, 1.3868529796600342], [1.0493801832199097, 1.218149185180664, 0.8772075176239014, 1.2627522945404053, 1.0889759063720703], [0.8720114231109619, 1.2013039588928223, 0.230589359998703, 0.7514373660087585, 1.209328055381775], [0.9997202157974243, 1.582417368888855, 0.9216599464416504, 1.224408745765686, 1.027015209197998], [0.8886181116104126, 1.7495224475860596, 1.0744131803512573, 1.4024561643600464, 1.2573392391204834]], "update_net_latent_sigma_params": [[0.32938459515571594, 0.06249059736728668, 0.995862603187561, 0.5052894949913025, 0.8748677968978882], [0.8553233742713928, 0.006555663421750069, 0.9859961867332458, 0.07147323340177536, 0.9203957915306091], [0.7854017019271851, 0.08336422592401505, 0.9896491765975952, 0.9378142356872559, 0.054931968450546265], [0.5865518450737, 0.0919080600142479, 0.9551205635070801, 0.025369560346007347, 0.5727575421333313], [0.9219641089439392, 0.03511941060423851, 0.9512418508529663, 0.5555076599121094, 0.10646484047174454]], "update_net_obs_multipliers": [[1.2090864181518555, 1.3964097499847412, 1.2945241928100586, 1.084140419960022, 1.1653598546981812], [1.1319565773010254, 1.5053353309631348, 1.146010398864746, 1.3886162042617798, 0.968437135219574]], "update_net_obs_sigma_params": [[0.19461949169635773, 0.014000806026160717, 0.031245935708284378, 0.09641773998737335, 0.03865772485733032], [0.41872361302375793, 0.026616692543029785, 0.12876498699188232, 0.26172369718551636, 0.1544821411371231]]}, "hk_disentangled_rnn/~predict_targets/choice_net": {"input_biases": [-0.0417538583278656, -0.021362053230404854, 0.018350347876548767, -0.054057929664850235], "input_weights": [[-0.21272899210453033, -0.04676615074276924, -0.7204048037528992, 0.4199923872947693], [-0.5198627710342407, -1.452062726020813, 0.5676159262657166, 1.6057955026626587], [0.4516523778438568, -0.27675703167915344, -0.05513389781117439, 0.37143972516059875], [0.8358020186424255, -0.19276459515094757, 0.671846330165863, -0.4306747317314148], [-0.3592369556427002, -0.14038079977035522, -0.36096078157424927, -0.2821978032588959]], "output_biases": [0.023812338709831238, -0.023812342435121536], "output_weights": [[-0.07536092400550842, 0.5952062010765076], [-0.6149021983146667, 1.318644404411316], [0.3250804841518402, -0.4602974057197571], [0.33500367403030396, -0.45728006958961487]]}, "hk_disentangled_rnn/~update_latents/update_net": {"input_biases": [0.012786084786057472, -0.028229407966136932, -0.007104409392923117, 0.050817739218473434, -0.020040422677993774, 0.02681194432079792, 0.04773605614900589, -0.049875643104314804, -0.059981733560562134, -0.03685386851429939, 0.12348935008049011, -0.07458482682704926, 0.06785061210393906, -0.016982197761535645, 0.050336696207523346, 0.4018162488937378], "input_weights": [[-0.11768856644630432, 0.9690109491348267, 0.2343578189611435, -0.6254816651344299, -0.6069412231445312, 0.245378315448761, 0.5969173908233643, -0.13376688957214355, 0.240076944231987, 0.06270711123943329, 0.4829869270324707, 0.3575619161128998, -0.05075019970536232, 0.3586532175540924, -0.3210916519165039, 0.07784030586481094], [-0.8896390795707703, -0.05330748111009598, -0.379623144865036, -0.26416364312171936, 0.10488210618495941, 0.15005429089069366, -0.14598113298416138, -0.6804659366607666, -0.3803279399871826, 0.05849340558052063, -0.40976864099502563, -0.40180376172065735, -0.07799050211906433, -0.011615154333412647, -0.1871296465396881, 0.596485435962677], [0.13539615273475647, 0.19918926060199738, -0.22045542299747467, -0.2940792143344879, 0.61301589012146, -0.21279007196426392, 0.3722870647907257, -0.07035455107688904, -0.18258196115493774, 0.3518385589122772, 0.019036905840039253, 0.04506070166826248, 0.029391935095191002, 0.668871283531189, -0.26644203066825867, 0.08035848289728165], [-0.25891175866127014, -0.008813373744487762, -0.009406041353940964, -0.7860033512115479, 0.13991360366344452, 0.3518383204936981, 0.7476926445960999, -0.4755665957927704, -0.04527891054749489, -0.304572194814682, -0.09678012877702713, -0.637256920337677, -0.5597284436225891, 0.4531264901161194, 0.29955044388771057, -0.3589435815811157], [-0.017196113243699074, -0.47181832790374756, -0.3104412853717804, -0.09314250200986862, -0.003712213598191738, -0.7654142379760742, 0.16617360711097717, 0.5799300670623779, 0.3330458700656891, -0.11419226974248886, -0.20677067339420319, 0.1514824628829956, 0.3438321053981781, 0.16861465573310852, -0.2550174295902252, 0.18828079104423523], [-0.26383328437805176, -0.15672510862350464, -0.07702978700399399, 0.23427976667881012, -0.369278222322464, 0.4543122947216034, 0.6731567978858948, 0.04521172121167183, 0.15951935946941376, -0.04746254161000252, 0.7803469896316528, 0.2035350203514099, -0.3036394417285919, -0.1371704339981079, -0.4024803340435028, -0.19982826709747314], [0.46882274746894836, 0.04593108221888542, 0.03514496237039566, 0.1053352952003479, 0.47064274549484253, -0.13298438489437103, 0.12095782905817032, 0.17092572152614594, -0.34747251868247986, 0.15646301209926605, 0.3185245096683502, 0.4542011320590973, -0.16567106544971466, -0.49663713574409485, 0.0055419462732970715, 0.17058856785297394]], "layer_0_biases": [0.029644522815942764, -0.0002608263457659632, -0.015134580433368683, 0.0876883864402771, -0.0018330347957089543, 0.11703311651945114, 0.06113586202263832, -0.009539083577692509, -0.04777934402227402, -0.040772728621959686, 0.14776545763015747, -0.0033657189924269915, 0.08742530643939972, -0.0015717566711828113, -0.012011426500976086, 0.30686435103416443], "layer_0_weights": [[-0.0004644632281269878, 0.00046474620467051864, -2.257616688439157e-05, -0.0008372660377062857, 6.525262961076805e-06, 0.0007318973075598478, -8.24926100904122e-05, 3.618512346292846e-05, 0.00011035349598387256, 8.168628482962959e-06, 1.9413997506489977e-05, 9.474815669818781e-06, 0.0004601258260663599, 6.125148047431139e-06, -0.00012013385276077315, 0.0005641838652081788], [-0.0004953359602950513, 7.632869528606534e-05, 4.657737463276135e-06, -0.0014197344426065683, 1.2620072084246203e-05, 0.0007128469878807664, -0.0005158948479220271, -9.168645192403346e-06, 0.0001591552427271381, -1.662870272411965e-05, -0.0007951488369144499, -6.321921773633221e-06, -0.00035763109917752445, 7.522999567299848e-06, -0.00020245906489435583, -0.0004332372918725014], [-0.0007366661448031664, 0.0006265105330385268, -8.460879143967759e-06, -0.0010225091828033328, 9.536694960843306e-06, 0.0009529779781587422, -0.00037932931445539, 6.853497325209901e-06, 5.402675742516294e-05, 1.082960170606384e-05, -0.00034341291757300496, 1.3216772458690684e-05, 9.196908649755642e-06, 9.580679034115747e-06, -5.8822835853789e-05, -0.00013980994117446244], [0.00010931440920103341, 0.00015508254000451416, -1.0677916179702152e-05, 0.00047766181523911655, -4.840780547965551e-06, -0.00013953933375887573, 0.000196613313164562, 5.825047264806926e-05, -3.200473292963579e-05, 7.747862400719896e-05, 0.00035537127405405045, -6.010099241393618e-06, 0.00021166348597034812, -2.1665516669600038e-06, 8.221541793318465e-05, 0.00029643476591445506], [0.000749274855479598, -0.002385728294029832, -3.427787305554375e-05, 0.0015667220577597618, -1.2640469321922865e-05, -0.0009053898975253105, 0.0006113143754191697, 1.2049362339894287e-05, 0.00012429359776433557, 1.1562487088667694e-05, 0.00095760403200984, -2.221213435404934e-05, 0.0005148114869371057, -9.390829291078262e-06, -4.465572146727936e-06, 0.0008819199865683913], [-0.0005777268670499325, 0.0005058936076238751, -3.015398033312522e-05, -0.0007767289644107223, 6.225601282494608e-06, 0.0007846375810913742, -0.00037312693893909454, 8.02120575826848e-06, -1.0677447789930739e-05, -9.335038157587405e-06, -0.0006127700326032937, 1.02818103187019e-05, -0.0002850104938261211, 4.850089226238197e-06, 3.0470215278910473e-05, -0.0007252641371451318], [-0.0005162933375686407, 0.002373987575992942, -5.672327461070381e-06, -0.0013953610323369503, 1.038034497469198e-05, 0.0005615793634206057, -0.0005518962279893458, 1.082199378288351e-05, 6.319687236100435e-05, 8.190037988242693e-06, -0.0011493434431031346, 2.104379382217303e-05, -0.000733060936909169, 6.516274879686534e-06, -5.139434142620303e-05, -0.0013270210474729538], [-0.00033064885064959526, 0.0016138080973178148, -6.762466455256799e-06, -0.00063502904959023, 4.537357199296821e-06, 0.0004874888400081545, -0.00011148456542287022, 3.9552553062094375e-05, 5.280545155983418e-05, 1.299176801694557e-05, -0.000132670029415749, 1.5428926417371258e-05, -2.5234907297999598e-05, 4.38333154306747e-06, -6.588534597540274e-05, -2.3144588340073824e-05], [-0.0007858894532546401, 0.001887769321911037, -8.450756467937026e-06, -0.0014019761001691222, 1.08645672298735e-05, 0.0009740067180246115, -0.000455930334283039, -5.8147281379206106e-05, -2.71869375865208e-05, -2.5176686335726117e-07, -0.0007785189663991332, 1.7978307369048707e-05, -0.0004093050374649465, 8.65997662913287e-06, -2.776634573820047e-05, -0.0005875932401977479], [0.00019764734315685928, -0.0009769242024049163, 6.327449227683246e-06, 0.00034230705932714045, -4.495335815590806e-06, -0.00022974814055487514, 0.0002609703515190631, 1.2018957022519317e-05, 0.00022489811817649752, 1.9227467419113964e-05, 0.0002541601425036788, -5.6903618315118365e-06, 0.00022177680511958897, -3.59950558959099e-06, -0.0001671805657679215, 2.7741512894863263e-05], [-0.0008319031912833452, 0.0025018095038831234, 1.4786878637096379e-05, -0.001744503970257938, 1.3023814972257242e-05, 0.0010630161268636584, -0.0005501570412889123, 4.8905090807238594e-05, 7.337345596170053e-05, 1.0601706890156493e-05, -0.0011798174818977714, 2.3061880710883997e-05, -0.0006017686682753265, 1.0524934623390436e-05, -8.463857375318184e-05, -0.0013085135724395514], [-0.0004080243525095284, 0.0011544894659891725, -3.016690789081622e-05, -0.001014300505630672, 7.63325715524843e-06, 0.0004848157986998558, -0.00013393208791967481, 2.4363926058867946e-05, 8.450279710814357e-05, -3.114046194241382e-06, -0.00040350633207708597, 1.3900808880862314e-05, -7.938771159388125e-05, 5.189555395190837e-06, -0.00012410548515617847, -0.0005023781559430063], [-4.0860319131752476e-05, -0.000586031237617135, 1.7324999134871177e-05, 0.0006179430638439953, -4.626614554581465e-06, -9.524378401692957e-05, 6.134357681730762e-05, -6.64863955535111e-06, -1.4083128007769119e-05, 1.3028421562921721e-05, 0.0003364973817951977, -7.872066817071754e-06, 0.00022789457580074668, -3.150573093080311e-06, 1.2013579180347733e-05, 0.00025495074805803597], [7.569141598651186e-05, -9.39341916819103e-05, 1.6374313418054953e-05, -0.00038272669189609587, 2.265109969812329e-06, -0.00012174890434835106, -0.00013629256864078343, -2.427529398119077e-05, -6.422914884751663e-05, -1.2585784133989364e-05, -0.00031835580011829734, 6.0586107792914845e-06, -0.00029100332176312804, 1.7168871879746916e-09, -0.00016632641199976206, -0.0003683337999973446], [-0.00021307698625605553, -0.0007328884094022214, -5.1223473747086246e-06, 0.0003674696199595928, -1.6707039094399079e-06, 0.00016554811736568809, 8.286243246402591e-05, -8.06702155387029e-06, -2.7308256903779693e-05, 2.5953959266189486e-06, 0.0005104275769554079, -6.423686954803998e-06, 0.000315389217576012, 9.722770073494758e-07, 0.00020542055426631123, 0.0007884734659455717], [0.0006819486152380705, -0.001319359173066914, -2.1254409148241393e-05, 0.0015659865457564592, -1.0786137863760814e-05, -0.0008907768642529845, 0.00036483744042925537, 1.9166918718838133e-05, 9.869190762401558e-06, -1.2109268027415965e-05, 0.0005598424468189478, -2.1892888980801217e-05, 7.929070125101134e-05, -9.506206879450474e-06, 0.00013616270734928548, 0.00016539098578505218]], "layer_1_biases": [-0.016484608873724937, -0.0008090261253528297, 0.015515328384935856, 0.0781310498714447, -0.0021690253634005785, 0.021802669391036034, 0.0751485824584961, -0.0009365288424305618, -0.0018802682170644403, -0.0023242272436618805, 0.14419640600681305, -0.0037542094942182302, 0.06702680140733719, -0.0022685544099658728, 0.04793926700949669, 0.3027926981449127], "layer_1_weights": [[-2.808523959174636e-06, 0.00038741945172660053, -0.0003578058094717562, -0.0008147156913764775, 6.517611836898141e-06, 0.0007132843602448702, -7.50918552512303e-05, 3.7719489682785934e-06, 2.6668433292798e-06, -7.61395710924262e-07, 2.2526723114424385e-05, 9.104334822040983e-06, 0.0004868515534326434, 5.831654107169015e-06, -0.0005654130945913494, 0.0006226863479241729], [1.6103544112411328e-05, 2.447635415592231e-05, -0.00046595800085924566, -0.0014464992564171553, 1.2185277228127234e-05, 0.0007444519433192909, -0.0005046481965109706, 7.562643531855429e-06, 1.1019622434105258e-05, 2.5856686534098117e-06, -0.0007663026335649192, -8.398346835747361e-06, -0.00035629112971946597, 7.821454346412793e-06, -0.0011702142655849457, -0.0004004505171906203], [-5.219127160671633e-06, 0.0005766375688835979, -0.0005712685524486005, -0.0010266604367643595, 9.495389349467587e-06, 0.0009559844620525837, -0.0003773736534640193, 7.935559551697224e-06, 7.611989076394821e-06, -1.0747793567134067e-05, -0.00034114407026208937, 1.3296860743139405e-05, 1.2091941243852489e-05, 9.82589517661836e-06, -0.0007744206232018769, -0.0001297558774240315], [-3.5816337913274765e-06, 0.00014231415116228163, -6.875021426822059e-06, 0.0005755834863521159, -5.191550826566527e-06, -7.310984074138105e-05, 0.0001910100254463032, -2.1518708308576606e-06, -3.616136837081285e-06, 2.225450771220494e-06, 0.00036343952524475753, -7.83269751991611e-06, 0.0002015315112657845, -2.4294631657539867e-06, 0.0004846761003136635, 0.0002816195192281157], [1.2265992154425476e-05, -0.002380291698500514, 0.0005413043545559049, 0.0015760171227157116, -1.2660757420235313e-05, -0.0009305234416387975, 0.0006109673995524645, -9.439109817321878e-06, -1.3228849638835527e-05, -2.25794406105706e-06, 0.0009532908443361521, -2.2024705685907975e-05, 0.0005106109892949462, -1.004431123874383e-05, 0.001284899888560176, 0.0008609145297668874], [-4.112132955924608e-06, 0.0005544951418414712, -0.0003816214739345014, -0.0005780346691608429, 4.518658897723071e-06, 0.0006798667600378394, -0.0003113058628514409, 4.932704541715793e-06, 5.741974746342748e-06, -4.341119620221434e-06, -0.000571727636270225, 6.715253221045714e-06, -0.0002991846122313291, 3.4364795737928944e-06, -0.0005096049280837178, -0.000703726545907557], [-2.5996107524406398e-06, 0.002421000273898244, -0.000182611052878201, -0.0013374475529417396, 9.769541065907106e-06, 0.0004890223499387503, -0.0005424240371212363, 6.684127583866939e-06, 1.1719926078512799e-05, 2.592514192656381e-06, -0.0011363956145942211, 2.0595147361746058e-05, -0.0007322814199142158, 6.044022939022398e-06, -0.0011578788980841637, -0.0013250875053927302], [-4.477833044802537e-06, 0.0015288153663277626, -0.00018779266974888742, -0.0006237552734091878, 4.749165782413911e-06, 0.00048186458298005164, -0.00012511518434621394, 2.730047754084808e-06, 3.823616680165287e-06, -1.4695973504785798e-06, -0.00015100024756975472, 1.5964456906658597e-05, -2.6300956960767508e-05, 4.2052379285451025e-06, -0.0004672565555665642, -2.802251219691243e-05], [-1.022714604914654e-05, 0.001892397878691554, -0.0004625144647434354, -0.0014062505215406418, 1.0821804607985541e-05, 0.0009624711237847805, -0.0004646519955713302, 9.096544090425596e-06, 1.3008739188080654e-05, 1.6875562778295716e-06, -0.0007828680681996047, 1.7483882402302697e-05, -0.00040442199679091573, 9.470466466154903e-06, -0.001245665131136775, -0.0005767546244896948], [3.778662176046055e-06, -0.0009402030846104026, 0.00010050581477116793, 0.00034857637365348637, -4.547671778709628e-06, -0.00022679225367028266, 0.0002623297041282058, -2.868582441806211e-06, -7.463630026904866e-06, -5.769270956079708e-06, 0.00026190525386482477, -6.4332243709941395e-06, 0.00020254706032574177, -3.543908860592637e-06, 0.00038802120252512395, 2.5858680601231754e-05], [2.2660098863980238e-07, 0.002548723015934229, -0.0004909572307951748, -0.0014789323322474957, 1.1125013770652004e-05, 0.0010486935498192906, -0.0005611474625766277, 8.698499186721165e-06, 1.236232401424786e-05, 1.3813197483614204e-06, -0.001143291941843927, 2.101645259244833e-05, -0.0006265061674639583, 8.501854608766735e-06, -0.001257002935744822, -0.001295527908951044], [-2.7264818527328316e-06, 0.0010515731992200017, -0.00024475084501318634, -0.0010149080771952868, 7.640996955160517e-06, 0.0004892793367616832, -7.329561049118638e-05, 4.737543349619955e-06, 4.436911240190966e-06, 1.0486029168532696e-05, -0.0004071913135703653, 1.3837900951330084e-05, -4.657007229980081e-05, 5.298723863234045e-06, -0.0007239324040710926, -0.0004913341836072505], [1.1662596079986542e-05, -0.0005229825037531555, 6.857496919110417e-05, 0.0006643356173299253, -4.739536962006241e-06, -0.00037134086596779525, 0.0005060304538346827, 1.29746615584736e-06, -8.025818942769547e-07, -1.5885132143012015e-06, 0.0003736578219104558, -9.215829777531326e-06, 0.0001783201441867277, -2.9006748718529707e-06, 0.00037826685002073646, 0.0002221157483290881], [5.131001216795994e-06, -0.00010023110371548682, 0.00013569444126915187, -0.00040019131847657263, 2.561194150985102e-06, -9.549087553750724e-05, -0.00013135468179825693, 1.264443341142396e-07, 1.8809707853506552e-06, -4.688958597398596e-06, -0.00031369755743071437, 6.305071110546123e-06, -0.00027349559240974486, 2.428990910630091e-07, -0.00028548648697324097, -0.00036131872911937535], [5.769472863903502e-06, -0.0007474204176105559, -0.00025766631006263196, 0.0003698007494676858, -1.6541544027859345e-06, 0.00015130580868571997, -4.199639442958869e-05, 2.412823050690349e-06, -5.394208812958823e-08, -1.1985381206613965e-05, 0.0005100120324641466, -6.482069693447556e-06, 0.00031556253088638186, 1.6125285355883534e-06, 0.00032511100289411843, 0.0007834990392439067], [6.149841738078976e-06, -0.0012695074547082186, 0.0004166363214608282, 0.0018916742410510778, -1.3851188668922987e-05, -0.0010303443996235728, 0.0004120526136830449, -8.115314813039731e-06, -1.1916342373297084e-05, -1.143353983934503e-05, 0.0007378150476142764, -3.559317337931134e-05, 8.58307903399691e-05, -1.1026419088011608e-05, 0.0014535943046212196, 0.00022894484573043883]], "layer_2_biases": [-0.0445900522172451, -0.046847864985466, 0.03293931484222412, 0.05747818201780319, -0.0021415953524410725, 0.043894387781620026, 0.1322910636663437, -0.05019736662507057, -0.08522648364305496, -0.0010920607019215822, 0.12265396118164062, -0.004018366802483797, -0.023578815162181854, -0.06387754529714584, 0.037068553268909454, 0.21306349337100983], "layer_2_weights": [[-2.367886963838828e-06, 0.00011225016351090744, -0.0003633817832451314, -0.0008087432361207902, 6.831947757746093e-06, 0.0007081696530804038, -8.299199544126168e-05, 6.58200974612555e-07, 0.00012056983541697264, -2.436933527860674e-06, 1.1833185453724582e-05, 9.079198207473382e-06, 9.379821221955353e-07, 3.0546270863851532e-06, -0.0005570320645347238, 0.0006165943923406303], [-0.00014926513540558517, -0.00014679899322800338, -0.00044264268944971263, -0.001468807109631598, 1.2419159247656353e-05, 0.0007702081347815692, -0.0004966238047927618, -2.0397414118633606e-05, 0.00013313861563801765, 2.726668299146695e-06, -0.0007445868686772883, -6.508341357402969e-06, 7.4448316809139214e-06, -2.3961514671100304e-05, -0.0011935773072764277, -0.0003704502887558192], [-9.078180482902098e-06, 7.472333527402952e-05, -0.0005754362791776657, -0.0010133611503988504, 9.477827006776351e-06, 0.000992857152596116, -0.0003596713941078633, 2.277520798088517e-05, -1.654159859754145e-05, -9.250335097021889e-06, -0.00032862622174434364, 1.3094641872157808e-05, 4.216710658511147e-05, 6.854710136394715e-06, -0.0007659810362383723, -9.900985605781898e-05], [-4.9221616791328415e-06, 0.00014509740867652, -9.59053504629992e-05, 0.0006532010738737881, -5.5056248129403684e-06, 6.713331094942987e-05, 0.00018856007955037057, 2.2541737052961253e-05, -6.842421134933829e-05, -2.9565871955128387e-06, 0.0003709399898070842, -8.85608733369736e-06, 9.31737304199487e-06, 1.777593934093602e-05, 0.0005367071134969592, 0.000267522205831483], [-1.0522404409130104e-05, -5.229654925642535e-05, 0.0005372195737436414, 0.0015821170527487993, -1.2468186469050124e-05, -0.0009476534323766828, 0.0006014466634951532, 8.883012196747586e-05, 8.75919358804822e-05, -4.047243692184566e-06, 0.0009471055236645043, -2.2000318494974636e-05, -1.2064478141837753e-05, -2.628122274472844e-05, 0.00129403593018651, 0.0008440605597570539], [2.164615216315724e-05, 1.2200781384308357e-05, -0.00031106919050216675, -0.0005431997124105692, 4.075556716998108e-06, 0.000621739833150059, -0.00028870327514596283, -2.241519723611418e-05, -2.3311069526243955e-05, 2.276368604725576e-06, -0.0005549683119170368, 6.02039062869153e-06, 4.3531257688300684e-05, 1.7312953787040897e-05, -0.0004857771273236722, -0.0006959267193451524], [-3.2188563636736944e-05, 7.281079888343811e-06, -0.00015363964485004544, -0.0012701235245913267, 8.743486432649661e-06, 0.00038735437556169927, -0.0005140926805324852, 3.443677633185871e-05, 3.264890983700752e-05, 3.1527092687611002e-06, -0.0011172821978107095, 2.068096182483714e-05, -1.2236049769853707e-05, 2.0642546587623656e-06, -0.0011084225261583924, -0.0013232968049123883], [-4.693742084782571e-06, 0.00013998689246363938, -0.00018286310660187155, -0.0006124053034000099, 4.626548616215587e-06, 0.0004630363255273551, -0.00013273576041683555, -1.9914978111046366e-05, -2.9367834940785542e-05, -8.767877943682834e-07, -0.0001624396099941805, 1.3910218513046857e-05, -4.239603003952652e-05, 1.13075848275912e-05, -0.0004576039791572839, -3.2970765460049734e-05], [2.9628768970724195e-05, -0.0001461017527617514, -0.0004515880427788943, -0.0014152973890304565, 1.1527061360538937e-05, 0.0009687285055406392, -0.0004792112158611417, 1.3312661394593306e-05, -3.672674938570708e-05, 3.3458902635175036e-06, -0.0007868800312280655, 1.7777018001652323e-05, -1.7323673162650266e-08, -5.5108783271862194e-05, -0.001266451901756227, -0.0005708569660782814], [-3.2725890832807636e-06, 2.2864756829221733e-05, 0.00010527348786126822, 0.00034600115031935275, -3.300782736914698e-06, -0.00022328925842884928, 0.000261578185018152, 0.00010731824295362458, 0.00012524312478490174, -4.75371552965953e-06, 0.0002584241156000644, -6.121003025327809e-06, 2.674930101420614e-06, -8.995961252367124e-06, 0.0003888505743816495, 2.6630706997821108e-05], [-3.165736052324064e-05, 5.2998762839706615e-05, -0.0003741244727279991, -0.0012888509081676602, 9.450286597711965e-06, 0.0006388921174220741, -0.0005206360947340727, 3.860739161609672e-05, 5.074941509519704e-05, 1.5175678527157288e-06, -0.001098103472031653, 1.9512899598339573e-05, 1.1558639926079195e-05, 2.2037474423086678e-07, -0.001115930499508977, -0.0012821393320336938], [-3.950079644710058e-06, 0.00013249013863969594, -0.0002560768334660679, -0.0010063162771984935, 7.668194484722335e-06, 0.0004911290016025305, -7.129898585844785e-05, 4.870484917773865e-05, 5.07034819747787e-05, -1.8771434042719193e-06, -0.0004120842204429209, 1.3655173461302184e-05, 8.836929737299215e-06, 5.033175511925947e-06, -0.0006993626593612134, -0.00048644462367519736], [1.2255114597792272e-05, -1.5374471331597306e-05, 0.00017213905812241137, 0.0007412644918076694, -5.029732164985035e-06, -0.0004269244964234531, 3.8210375350899994e-05, -4.090794027433731e-05, -5.017927469452843e-05, -7.380604074569419e-07, 0.0003879298164974898, -9.672889973444398e-06, 4.7573589654348325e-06, 2.107895397784887e-06, 0.0005611004889942706, 0.00019023324421141297], [2.327674883417785e-05, -5.66050766792614e-05, 0.0001330576342297718, -0.00041178829269483685, 2.7617222713161027e-06, -8.180639269994572e-05, -0.0001198450627271086, -2.015087829931872e-06, -5.5722175602568313e-05, 1.4255891755965422e-06, -0.00030999869341030717, 6.470353127951967e-06, -4.24270547227934e-06, -3.85310486308299e-05, -0.0002929506008513272, -0.00035442065563984215], [3.507644942146726e-05, -2.5960889615816996e-05, -0.00012378870451357216, 0.00040572232683189213, -1.920253907883307e-06, 8.296586747746915e-05, -0.00014543301949743181, -1.7545758964843117e-05, -0.00017162406584247947, -8.19621254777303e-06, 0.0004937649937346578, -6.920176019775681e-06, 1.8058102568829781e-06, -7.127472053980455e-05, 0.0003435154794715345, 0.0007588185835629702], [-0.0001040758506860584, -6.30277136224322e-05, 0.00047738521243445575, 0.0021774901542812586, -3.569986074580811e-05, -0.0011758145410567522, 0.0004939881619066, -0.00010683148866519332, -5.119419438415207e-05, 3.683969751477889e-08, 0.0009285606793127954, -6.494189437944442e-05, -5.1702913879125845e-06, -6.636678153881803e-05, 0.0017072877380996943, 0.0003116783336736262]], "layer_3_biases": [-0.0010574625339359045, 0.002437759656459093, 0.022223742678761482, 0.026552714407444, -0.0021638567559421062, 0.022409727796912193, 0.042853984981775284, -0.001695467159152031, -0.002077245619148016, -0.07314145565032959, 0.10947370529174805, -0.004343140870332718, 0.08873295783996582, -0.002248289529234171, 0.0708853229880333, 0.31075015664100647], "layer_3_weights": [[-2.0887418941129e-05, 0.0005555956740863621, -0.0003690820012707263, -0.0007884260267019272, 6.977290013310267e-06, 0.00070200051413849, -9.983042400563136e-05, 3.938306690542959e-06, 3.2666312108631246e-06, 3.3234750844712835e-06, -8.536619134247303e-06, 9.179089829558507e-06, 0.0005841813399456441, 5.334368324838579e-06, -0.0005658047157339752, 0.0006183937075547874], [-5.107464858156163e-06, 0.00015919809811748564, -0.00041448415140621364, -0.0015280721709132195, 1.2446527762222104e-05, 0.0007955022156238556, -0.0004841566551476717, 7.402781648124801e-06, 1.087584769265959e-05, 4.2169162043137476e-05, -0.0007185378926806152, -2.7011699330614647e-06, -0.0003465910267550498, 8.298665306938346e-06, -0.0012142929481342435, -0.000340828497428447], [-7.365421424765373e-06, 0.0006163628422655165, -0.0005614121328108013, -0.000988460029475391, 9.132051673077513e-06, 0.001049197744578123, -0.0003028007922694087, 7.331359029194573e-06, 7.125083357095718e-06, -1.1625251318037044e-05, -0.00031954445876181126, 1.2824931218347047e-05, 3.1225481507135555e-05, 9.29397083382355e-06, -0.000754761800635606, -6.693512113997713e-05], [-2.3492427771998337e-06, -5.873707414139062e-05, -0.00017396242765244097, 0.0007047762046568096, -5.629560746456264e-06, 8.087734022410586e-05, 0.00018812100461218506, -2.0965683233953314e-06, -4.14479109167587e-06, 1.9569268260966055e-05, 0.0003687033604364842, -9.431471880816389e-06, 0.0001835323782870546, -1.543385678814957e-06, 0.0005656526191160083, 0.00024858780670911074], [1.5091222849150654e-05, -0.0022736757528036833, 0.0005407546414062381, 0.0015957308933138847, -1.2397988939483184e-05, -0.0009805276058614254, 0.0005938467220403254, -9.459417924517766e-06, -1.3512966688722372e-05, 2.4456359824398533e-05, 0.0009417942492291331, -2.203408075729385e-05, 0.000496237596962601, -1.1860076483571902e-05, 0.001297224429436028, 0.0008169914945028722], [-4.8635160965204705e-06, 0.00030374652124010026, -0.0002443169360049069, -0.0005142420413903892, 3.248927669119439e-06, 0.000433822424383834, -0.0002435780770611018, 2.973509936055052e-06, 4.481904397835024e-06, 6.795941658310767e-07, -0.0005232267430983484, 3.971673777414253e-06, -0.00030024576699361205, 3.0866301585774636e-06, -0.00043486119830049574, -0.0006767796585336328], [6.723390924889827e-06, 0.0022945296950638294, -8.175322000170127e-05, -0.001166139729321003, 7.866418854973745e-06, 0.0002254175051348284, -0.00045310184941627085, 4.858382908423664e-06, 9.305602361564524e-06, 2.5052266209968366e-05, -0.0010728411143645644, 2.2511652787216008e-05, -0.0007209396571852267, 5.2715895435540006e-06, -0.0009953820845112205, -0.0012980424799025059], [-4.4866515054309275e-06, 0.001691937679424882, -0.00021934573305770755, -0.0005882310215383768, 4.745942078443477e-06, 0.0004427931271493435, -0.00014367517724167556, 2.84145494333643e-06, 3.8134826354507823e-06, 4.207256097288337e-06, -0.00018091897072736174, 1.3383982150116935e-05, -3.527274384396151e-05, 3.910500709025655e-06, -0.00045158303692005575, -3.381392525625415e-05], [-9.005872925627045e-06, 0.001945529249496758, -0.0004512042796704918, -0.0015747634461149573, 1.144950419984525e-05, 0.0009616402676329017, -0.0005363445961847901, 8.875202183844522e-06, 1.2769954992108978e-05, -2.4265780211862875e-06, -0.000779006106313318, 1.778308978828136e-05, -0.00039940705755725503, 1.0838480193342548e-05, -0.0012511304812505841, -0.0005415795603767037], [8.802619049674831e-06, -0.000735388370230794, 0.0001106619238271378, 0.00036763219395652413, -3.0971700653026346e-06, -0.00022298247495200485, 0.00025046468363143504, -2.952474687845097e-06, -6.2953131418908015e-06, 2.034385033766739e-05, 0.00025264895521104336, -5.8942805480910465e-06, 0.00022887472005095333, -4.275091214367421e-06, 0.00037262478144839406, 5.16591853738646e-06], [-4.009909389424138e-06, 0.002384483115747571, -0.00022013169655110687, -0.0011919615790247917, 8.020763743843418e-06, 0.0003995094739366323, -0.00046909545199014246, 5.838300694449572e-06, 9.953808330465108e-06, -4.280400389689021e-06, -0.0010531323496252298, 1.9133769455947913e-05, -0.0006397020188160241, 6.339432275126455e-06, -0.001009975210763514, -0.00125483691226691], [-3.79594748665113e-05, 0.0012886438053101301, -0.0002623446052893996, -0.0009656931506469846, 7.658375579921994e-06, 0.0004955848562531173, -0.00010256133100483567, 4.6913073674659245e-06, 4.314609213906806e-06, 9.596579729986843e-06, -0.0004122512473259121, 1.3458466128213331e-05, -1.5815560345799895e-06, 6.040534117346397e-06, -0.0007201829575933516, -0.0004766650381498039], [3.0004353902768344e-05, -0.0005562027217820287, 0.00016905345546547323, 0.0007306985789909959, -5.053241238783812e-06, -0.0004263398004695773, 6.300830136751756e-05, 1.1964310715484316e-06, -1.557913037686376e-06, -3.5316968478582567e-06, 0.00038306100759655237, -9.70263408817118e-06, 0.0002800376096274704, 1.9937385786761297e-06, 0.0005592674133367836, 0.00018388283206149936], [1.9646191503852606e-05, 6.539585592690855e-05, 0.00016239711840171367, -0.0003735627979040146, 2.648549525474664e-06, -4.917259866488166e-05, -0.00011363510566297919, 4.356556075890694e-07, 1.7458005459047854e-06, 3.483119871816598e-05, -0.00030583981424570084, 6.467632829298964e-06, -0.00028018755256198347, -2.079325440718094e-07, -0.0003005823236890137, -0.00034691032487899065], [-5.971808150206925e-06, -0.000916744174901396, -7.154720515245572e-05, 0.0004246704338584095, -2.189126462326385e-06, 6.584358925465494e-05, -6.206187390489504e-05, 4.887869522463006e-07, 2.476894906067173e-06, -1.870284540927969e-05, 0.00048367929412052035, -7.076659585436573e-06, 0.0002864428097382188, 2.5306919724243926e-06, 0.0003536549920681864, 0.0007286267355084419], [1.6210748071898706e-05, -0.0027764562983065844, 0.0005492169293574989, 0.002362567000091076, -7.03697805874981e-05, -0.0012587758246809244, 0.0005850456072948873, -1.0234262845187914e-05, -1.4402071428776253e-05, 7.430808909703046e-05, 0.001086547039449215, -8.816108311293647e-05, 0.00015182864444795996, -1.3333636161405593e-05, 0.0018625049851834774, 0.0003638268681243062]], "layer_4_biases": [0.06674790382385254, -0.0035735005512833595, 0.015502163209021091, -0.0021976735442876816, -0.0030215634033083916, -0.009365958161652088, 0.05940775200724602, 0.0019551736768335104, -0.0028662735130637884, -0.067092664539814, 0.08557160198688507, -0.004623570945113897, 0.23976223170757294, 0.011704559437930584, 0.061755336821079254, 0.389432430267334], "layer_4_weights": [[-0.0004306802002247423, 0.00016334168321918696, -0.0003709729353431612, 2.547985559431254e-06, 6.310187018243596e-06, 1.2952827091794461e-05, -0.00011549401824595407, 3.3455711673013866e-05, 2.0101244899706217e-06, 6.7810183281835634e-06, -1.981353125302121e-05, 8.582647751609329e-06, 0.0006024578469805419, 0.0005946390447206795, -0.0005676688742823899, 0.000621994084212929], [-0.0005710095865651965, -9.15312411962077e-05, -0.0003991974226664752, -1.3829831914335955e-05, 1.2473712558858097e-05, 9.762585477801622e-07, -0.0004732052329927683, -0.00012140981561969966, 1.0785113772726618e-05, -2.9163511499064043e-05, -0.0006893746322020888, 4.160790467722109e-06, -0.0003403814334888011, 0.0008133921655826271, -0.0012309430167078972, -0.0003074614505749196], [-0.0007455816376022995, 0.0004984703846275806, -0.0005650863167829812, -1.013523888104828e-05, 8.782920303929131e-06, 1.5412040283990791e-06, -0.00027649544063024223, -6.369155016727746e-05, 6.960555310797645e-06, 1.0118763384525664e-05, -0.00030990582308731973, 1.269650056201499e-05, 3.915881097782403e-05, 0.0009772306075319648, -0.0007518024067394435, -3.976842708652839e-05], [-0.00011631773668341339, 0.00025575439212843776, -0.00013207625306677073, 6.80272614772548e-06, -5.403073373599909e-06, 2.1031186406617053e-05, 0.00018376688240095973, 0.00012936961138620973, -3.5779407880909275e-06, 6.78218611938064e-06, 0.0003496106655802578, -9.491111995885149e-06, 0.00017068182933144271, -8.984641317510977e-05, 0.0005643444019369781, 0.00022056391753721982], [0.0008409799775108695, -0.0020625812467187643, 0.000560424814466387, 2.669553032319527e-05, -1.2794456779374741e-05, 0.0001272043737117201, 0.0005907444865442812, 9.250635775970295e-05, -1.4731705050508026e-05, -3.975547315349104e-06, 0.0009377834503538907, -2.219222551502753e-05, 0.0004895064630545676, -0.0009810376213863492, 0.001302239135839045, 0.0007985036354511976], [-0.00033166565117426217, 0.0006788591272197664, -0.00027209107065573335, -7.98408109403681e-06, 2.7798500923381653e-06, 2.9292888939380646e-05, -0.00021121097961440682, -0.00011567888577701524, 4.449852895049844e-06, -1.5720430383225903e-05, -0.000499991059768945, 5.438533207779983e-06, -0.00029772755806334317, 0.0002958755358122289, -0.0004069088608957827, -0.0006644487148150802], [-0.0003196297911927104, 0.0022800122387707233, -5.108809273224324e-05, -1.6502828657394275e-05, 7.849110261304304e-06, -2.6714333216659725e-05, -0.00043079452007077634, -0.00017943154671229422, 1.0224433935945854e-05, 3.509673842927441e-05, -0.0010676721576601267, 2.0302355551393703e-05, -0.0007242630235850811, 0.00038557720836251974, -0.0009815330849960446, -0.001291406573727727], [-0.0003374603402335197, 0.0011850298615172505, -0.00030469128978438675, -6.609678166569211e-06, 4.7895259740471374e-06, -1.4825061953160912e-05, -0.00015335535863414407, 0.00010993579780915752, 3.865359758492559e-06, 2.0696979845524766e-05, -0.0001955954940058291, 9.72934049059404e-06, -3.865349572151899e-05, 0.0003895213594660163, -0.000445595447672531, -3.6761732189916074e-05], [-0.0008121277787722647, 0.0015154203865677118, -0.0004726522311102599, -1.8700782675296068e-05, 1.1851320778077934e-05, -1.2167964086984284e-05, -0.000538631051313132, 4.754431574838236e-05, 1.2940937267558184e-05, 1.4550154219250544e-06, -0.0008010025485418737, 1.8629589249030687e-05, -0.0003845366882160306, 0.0010416178265586495, -0.0012627412797883153, -0.0005500522674992681], [0.00020738229795824736, -0.0009483025060035288, 0.00011455091589596123, 1.084780706150923e-05, -5.4033284868637566e-06, 0.00012430456990841776, 0.0002476931258570403, 7.27305086911656e-05, -9.02640022104606e-06, 9.923207926476607e-07, 0.00025793089298531413, -7.797719263180625e-06, 0.00021316194033715874, -0.00024835727526806295, 0.0003712487523443997, 2.1348259906517342e-05], [-0.0003394832892809063, 0.00247902306728065, -0.00013921037316322327, -1.5851732314331457e-05, 7.51275592847378e-06, 5.51943521713838e-05, -0.0004217329842504114, -0.00018098899454344064, 9.61623572948156e-06, 3.2665029721101746e-05, -0.0010096034966409206, 1.965154842764605e-05, -0.0006373407086357474, 0.00039802127867005765, -0.0009253969183191657, -0.001234410097822547], [-0.0004308728384785354, 0.0007872794521972537, -0.00025976565666496754, 4.675094373851607e-07, 7.076451311149867e-06, 6.968426896492019e-05, -0.00010426132939755917, 0.00018113560508936644, 2.9334131568248267e-07, -5.427947371572373e-07, -0.0004039461782667786, 1.1727116543625016e-05, 1.5819105101400055e-05, 0.0005503913853317499, -0.0007071076543070376, -0.0004704595485236496], [0.00036806819844059646, -0.0003508783702272922, 0.00023378977493848652, 1.788561166904401e-05, -6.36554568700376e-06, -5.643706754199229e-05, 0.00011944861034862697, -8.345911192009225e-05, -3.3152315381812514e-07, 4.57437408840633e-06, 0.00035227887565270066, -9.307507752964739e-06, 0.00028853744152002037, -0.00045315109309740365, 0.0006028840434737504, 0.00015595689183101058], [5.2548024541465566e-05, -0.00038994589704088867, 0.00010806676436914131, -4.006607468909351e-06, 2.605769850561046e-06, -9.10835569811752e-06, -9.63671991485171e-05, -0.00010554611071711406, 1.7830886918090982e-06, 1.543114922242239e-05, -0.0003022611781489104, 6.048927843949059e-06, -0.0003039170987904072, -5.000823421141831e-06, -0.0003136895829811692, -0.00034215173218399286], [5.5220923968590796e-05, -0.000636691867839545, -5.1382121455390006e-05, 7.234995678118139e-07, -2.4422170099569485e-06, -5.72510325582698e-05, 2.702779784158338e-05, -0.00018396606901660562, 4.234771949995775e-06, -6.232128271221882e-06, 0.0004759786243084818, -7.333196208492154e-06, 0.0002726899110712111, -8.015430648811162e-05, 0.0004033257137052715, 0.0007084077224135399], [0.001114470069296658, -0.0008526218007318676, 0.0006396744283847511, 2.4956825654953718e-05, -2.1176902009756304e-05, -0.00020073444466106594, 0.0007130736485123634, -0.001234423485584557, -1.6086863979580812e-05, 3.1342016882263124e-05, 0.0013140715891495347, -8.538174006389454e-05, 0.00021469178318511695, -0.0014552990905940533, 0.0021008397452533245, 0.00047536802594549954]], "output_biases": [-1.30832040309906, -0.03559001907706261], "output_weights": [[0.14437176287174225, -0.19187630712985992], [-0.1297868937253952, 0.6245530843734741], [0.23613297939300537, -0.12549814581871033], [-0.23992595076560974, -0.4030131995677948], [0.01254293043166399, 0.33020535111427307], [-0.3290877640247345, 0.26439017057418823], [-0.08356531709432602, -0.11353089660406113], [-0.08532547205686569, 0.2054404467344284], [0.11688089370727539, 0.27614617347717285], [0.10550206899642944, 0.030491435900330544], [-0.5412354469299316, -0.1560298204421997], [0.5284602046012878, 0.5195325613021851], [-0.425530344247818, -0.04905613139271736], [-0.16591349244117737, 0.25664687156677246], [-0.23953820765018463, -0.31457042694091797], [-0.8963667750358582, -0.05571892485022545]]}, "hk_disentangled_rnn/~update_latents/update_net_1": {"input_biases": [0.0717194676399231, -0.004563495516777039, 0.057663917541503906, 0.006087661720812321, -0.02823314629495144, 0.0023500905372202396, -0.020730625838041306, -0.07007196545600891, 0.044384974986314774, -0.003627010388299823, 0.05244132876396179, -0.026324041187763214, -0.0019465581281110644, -0.0695388913154602, -0.017687993124127388, 0.041177570819854736], "input_weights": [[0.47929611802101135, -0.11240526288747787, -0.16327926516532898, -0.18009769916534424, 1.1041585206985474, 0.19912979006767273, 0.028858639299869537, 0.8163594007492065, 0.012326302006840706, 1.1098947525024414, -0.35644349455833435, 0.22831261157989502, -0.36469292640686035, 0.37485018372535706, 0.1566450148820877, 0.4139068126678467], [-0.21255715191364288, 0.629143238067627, -0.3124256730079651, -0.3721563220024109, -0.6017786860466003, -0.7853455543518066, 0.24756519496440887, -0.15438885986804962, -0.3469753861427307, 0.32642820477485657, -0.5742931962013245, -0.1407555490732193, -0.21547196805477142, 0.8776877522468567, 0.2721213400363922, 0.3180186152458191], [0.7241349816322327, -0.211728036403656, 0.13353800773620605, -0.2325010597705841, -0.6018631458282471, 0.35145866870880127, 0.127433642745018, 0.2687797248363495, -0.5963943600654602, 0.2986137866973877, 0.18945428729057312, -0.38159623742103577, -1.042136311531067, -0.1204950213432312, -0.3831653594970703, -0.26778513193130493], [0.14086614549160004, -0.5140359997749329, -0.46682611107826233, 0.44728267192840576, -0.056851282715797424, 0.8031027317047119, -0.2408699244260788, -0.6724919676780701, -0.5201373100280762, -0.0061233993619680405, -0.13418911397457123, -0.5904244184494019, -0.05376778170466423, -0.2359398454427719, -0.16131262481212616, -0.03798649460077286], [0.19562384486198425, -0.5694094300270081, -0.08010713756084442, 0.5896994471549988, -0.22386009991168976, -0.49927398562431335, -0.5002664923667908, 0.012884469702839851, 0.6918166279792786, -0.09283740818500519, -0.1735805720090866, 0.3437729477882385, 0.14477156102657318, 0.5408888459205627, 0.29669180512428284, 0.5955104827880859], [-0.32940998673439026, -0.13863810896873474, -0.04486018046736717, -0.3340173661708832, -0.3913511037826538, 0.40846672654151917, -0.398674875497818, 0.4939579665660858, -0.22429734468460083, -0.014415712095797062, 0.3146195411682129, 0.7977679967880249, 0.0839996337890625, -0.10582418739795685, -0.11945230513811111, -0.07669869810342789], [-0.6963009834289551, 0.06034072861075401, -0.6509260535240173, -0.5640615820884705, -0.5203772187232971, 0.5239747762680054, -0.45162031054496765, -0.12644782662391663, -0.18585310876369476, 0.317184180021286, -1.222063660621643, 0.16585952043533325, -0.7016337513923645, 0.04093975946307182, -0.04422891139984131, -0.12050431966781616]], "layer_0_biases": [0.19071362912654877, 0.04907151684165001, -0.0086029302328825, -0.04115493223071098, -0.1391708105802536, 0.03618456795811653, -0.0023778723552823067, -0.0411740280687809, -0.06803327798843384, 0.05840247496962547, 0.0707562193274498, -0.04969489574432373, 0.019260218366980553, -0.10881844162940979, 0.004539467394351959, -0.056201908737421036], "layer_0_weights": [[0.0026130457408726215, -0.009902341291308403, -0.010703038424253464, -0.005591037217527628, 5.2259380026953295e-05, 0.005431723315268755, -0.008258763700723648, -0.004099383018910885, -0.004570923279970884, 0.006627732887864113, 0.0027881371788680553, -0.00375193078070879, -0.015667714178562164, 4.3039828597102314e-05, -0.009561470709741116, -0.003778106765821576], [-0.003162860404700041, -0.0014700166648253798, 0.0020187310874462128, 0.003422568319365382, -6.138892786111683e-05, -0.0059760939329862595, 0.007001698948442936, 0.0014030883321538568, 0.00163821573369205, -0.003854572307318449, -0.001617180067114532, 0.0015853724908083677, 0.009713837876915932, -6.571128324139863e-05, 0.02455892041325569, -7.611999899381772e-05], [0.0006856413674540818, -0.0005902783595956862, -0.006380726117640734, -0.005360333248972893, 6.303922418737784e-05, 0.0035813869908452034, 0.0005289939581416547, -0.005139234475791454, -0.008936971426010132, 0.008744671940803528, 0.0005675825523212552, -0.006609281990677118, -0.0003413273661863059, 1.4888564692228101e-05, 0.01218211930245161, -0.003524686209857464], [0.00236719474196434, 0.001062115072272718, -0.004331908654421568, -0.0022027345839887857, -1.8414995793136768e-05, 0.005801626946777105, 0.0014650012599304318, -0.00117497646715492, -0.0013213790953159332, 0.0020056581124663353, 0.0008375995676033199, -0.0010995022021234035, -0.007833568379282951, 1.3910334928368684e-05, -0.02007117122411728, 0.00021577680308837444], [0.0005863311234861612, -0.00626391964033246, 0.013295852579176426, -0.015868447721004486, 7.61986302677542e-05, -0.003790909657254815, -0.01357999350875616, 0.004065685905516148, 0.007086161524057388, 0.0188469048589468, 0.0005879180389456451, 0.005139126442372799, -0.010802611708641052, 1.5322924582505948e-06, -0.0032900909427553415, 0.016003182157874107], [0.0012467108899727464, 0.0030228097457438707, 0.022456122562289238, -0.006845448166131973, 0.00010423712956253439, 0.0006621612701565027, -0.0034398434218019247, 0.00046246123383753, 0.0009411480859853327, 0.0048871152102947235, 0.0011257611913606524, 0.0008907165029086173, 0.0054203965701162815, 8.813705790089443e-06, -0.009790102951228619, 0.002683417173102498], [-0.0012623850489035249, -0.004517049062997103, 0.00020902180403936654, -0.0016048583202064037, -1.5267121852957644e-05, -0.0017006376292556524, 0.0035510435700416565, -0.0015058985445648432, -0.0022372009698301554, 0.002445126185193658, -0.00027684448286890984, -0.001755189266987145, 0.0028206552378833294, -4.586107752402313e-05, 0.015611054375767708, -0.002291891723871231], [0.0006418639095500112, -0.008676017634570599, -0.006398407742381096, -0.009133301675319672, 9.215810860041529e-05, -0.0009449983481317759, -0.01092100515961647, -0.0006880225264467299, -0.0009366148733533919, 0.011351518332958221, 0.001443506684154272, -0.0008903202251531184, -0.012941951863467693, 6.253218452911824e-05, 0.008520065806806087, 0.008619237691164017], [0.0008905406575649977, 0.007267641369253397, -0.008208613842725754, -0.0013258486287668347, -4.8186822823481634e-05, 0.0006879399297758937, -0.013658439740538597, 0.0002390339650446549, -0.0012401704443618655, 0.006623893044888973, -0.0011437640059739351, -0.0005114193190820515, -0.00534775061532855, -7.597453077323735e-06, -0.007927227765321732, -0.0024870706256479025], [-3.5911358281737193e-05, -0.011310805566608906, 0.0018040358554571867, -0.0026937946677207947, 3.923353142454289e-05, -0.004739035852253437, -0.013079822063446045, 0.005202499218285084, 0.009267487563192844, 0.0013088500127196312, 0.0015976100694388151, 0.005890950094908476, -0.010633662343025208, 1.5248920135491062e-05, -0.003347552614286542, 0.0064881849102675915], [0.0015966942301020026, -0.0048943860456347466, -0.005824873223900795, -0.011943629942834377, 5.167898052604869e-05, 0.00810196716338396, 0.015363306738436222, -0.008018369786441326, -0.013101644814014435, 0.014963020570576191, 0.001361581962555647, -0.009825380519032478, -0.005999978631734848, 3.287300933152437e-05, 0.010055855847895145, 0.007088641170412302], [-3.196454417775385e-05, -7.727902993792668e-05, -0.004167798440903425, -0.005106127355247736, 4.340842133387923e-05, -0.0010779887670651078, -0.00192044407594949, 0.0014873214531689882, 0.0011472390033304691, 0.003746799658983946, -0.00012565658835228533, 0.0011036626528948545, -0.006040546111762524, 5.594087633653544e-05, 0.004981356672942638, 0.012782152742147446], [-0.0002771863073576242, 0.001626238808967173, 0.001991305500268936, -0.0073067680932581425, -7.225544686662033e-05, 0.0008584971656091511, 0.0164254829287529, 0.0003153960278723389, 0.00017879175720736384, 0.008174451068043709, -0.0011722975177690387, 0.0003220956714358181, -0.0008274604915641248, -3.573385765776038e-05, 0.0027631924021989107, 0.015189019963145256], [-0.0007906556711532176, -0.00824172142893076, -0.01637549139559269, 0.006226641591638327, -2.7992498871753924e-05, -0.0027546435594558716, -0.0010952143929898739, 0.003970385529100895, 0.007249435409903526, -0.008693943731486797, 3.067810757784173e-05, 0.004881156142801046, -0.010642586275935173, 3.422412555664778e-05, -0.0040731425397098064, 0.004462741781026125], [-0.0004148741136305034, -0.0012399187544360757, -0.004971989896148443, 0.000725185323972255, -4.332729440648109e-05, -0.0022315618116408587, -0.0016598873771727085, 0.0025572990998625755, 0.004280828405171633, -0.0008731536217965186, -0.0006328819436021149, 0.003138806438073516, -0.004219462629407644, -1.2960746062162798e-05, -0.0030599867459386587, 0.0042389617301523685], [0.0006988068344071507, -0.005762859713286161, -0.011478472501039505, -0.00014442266547121108, -1.1584101230255328e-05, -0.00037712196353822947, -0.003411982674151659, 0.0031898654997348785, 0.005978000350296497, -0.00175431405659765, 0.0007295866380445659, 0.004293485078960657, -0.01353489886969328, 1.648005491006188e-05, -0.010327229276299477, 0.006876509636640549]], "layer_1_biases": [0.13408783078193665, 0.0472092479467392, 0.060952018946409225, 0.003870659274980426, -0.0037144788075238466, -0.030746882781386375, -0.005781106650829315, -0.007654108107089996, -0.008751741610467434, -0.015078596770763397, 0.05784127116203308, 0.014475103467702866, 0.02876405231654644, -0.02391074039041996, -0.10484329611063004, 0.020902324467897415], "layer_1_weights": [[0.001288586063310504, -0.011736049316823483, -0.004594291560351849, -0.00993684958666563, -0.0038192709907889366, 5.7163462770404294e-05, 6.323450361378491e-05, 1.5854244338697754e-05, 0.009753911755979061, 0.01075521856546402, 0.0016391915269196033, 0.000523261958733201, 0.009216681122779846, 2.1906436813878827e-05, 0.002294518519192934, -0.02704649791121483], [-0.002196461195126176, 0.0007808894151821733, -0.002215086482465267, 0.009393135085701942, -0.0021493914537131786, -4.619561877916567e-05, -7.663389988010749e-05, -3.6329718568595126e-05, -0.002902114298194647, -0.017904695123434067, -0.0007913749432191253, -0.003563488135114312, -0.008292946964502335, -2.4259017664007843e-05, 0.00010871735139517114, 0.01945067010819912], [0.00019274858641438186, 0.001034408574923873, 0.00040705830906517804, -0.0002978704869747162, -0.0007576728239655495, 1.3447895071294624e-05, 7.298817945411429e-05, 4.444003479875391e-06, 0.00499247619882226, 0.0049158185720443726, -0.00016173970652744174, 0.002825757022947073, 0.005678755231201649, 5.044615591032198e-06, -0.011286868713796139, -0.00841932836920023], [0.0014768406981602311, -0.00048779562348499894, 0.0008081148262135684, -0.0014398848870769143, 0.0022270360495895147, 3.2167859899345785e-05, 3.421706787776202e-05, 1.1352599358360749e-05, 0.006885875482112169, 0.0046586766839027405, 0.0002787122502923012, 0.010671582072973251, 0.0012876398395746946, 5.061244792159414e-06, -0.004476957954466343, -0.015175438486039639], [0.00031630831654183567, -0.01240288745611906, -0.016348637640476227, -0.013736460357904434, 0.0010270447237417102, 5.367019184632227e-05, 6.42215454718098e-05, 1.0107503840117715e-05, 0.00389387016184628, -0.015364817343652248, 0.0009227478294633329, -0.0030202351044863462, 0.022932298481464386, -5.617384431388928e-06, 0.016865931451320648, -0.0038652722723782063], [0.0007119995425455272, -0.0001499215286457911, 0.005287557374686003, -0.008736267685890198, 0.0028372721280902624, 5.772992881247774e-05, 8.875875209923834e-05, -4.291242021281505e-06, -0.003357050009071827, 0.015768999233841896, 0.0003077106666751206, -0.005645694676786661, 0.014413965865969658, 2.3909446099423803e-05, -8.384944521822035e-05, -0.0074172718450427055], [-0.0009939781157299876, -0.005348623264580965, -0.003522609593346715, 0.00472527788951993, -0.00271192891523242, -1.1052729860239197e-05, -1.7671036403044127e-05, -1.2972887816431466e-05, 0.006387657485902309, -0.009210350923240185, 0.00018485829059500247, -0.00044077562051825225, -0.002881761174649, -1.2866352335549891e-05, 0.0014720706967636943, 0.0014762330101802945], [0.00033184129279106855, -0.006829709745943546, -0.01083419006317854, -0.01477118581533432, -0.0034606591798365116, 2.699724427657202e-05, 5.0757374992826954e-05, 2.0212377421557903e-05, -0.008039865642786026, 0.010175374336540699, 0.0008046837756410241, -0.010919229127466679, 0.013720678165555, 3.20181243296247e-05, 0.0045744022354483604, -0.006519694812595844], [0.000971523579210043, 0.004555910360068083, 0.0010670376941561699, 0.00018034910317510366, 0.0036089399363845587, -4.993429683963768e-06, 1.3538657185563352e-05, 1.3343065802473575e-05, 0.007450199220329523, -0.008098212070763111, -0.0005916193476878107, 0.00748071726411581, 0.004740075208246708, -3.209254600733402e-06, 0.0030785195995122194, 0.003310053376480937], [-0.0001663865550654009, -0.011864741332828999, -0.010337811894714832, -0.011179162189364433, -0.004154352471232414, 2.000270615098998e-05, 3.103940252913162e-05, 1.0154401024919935e-05, -0.0029435139149427414, -0.005466981325298548, 0.0013904545921832323, -0.011976593174040318, 0.00844329223036766, 1.4461217006100924e-06, 0.019158201292157173, -0.001950288424268365], [0.000478823552839458, -0.0018169032409787178, -0.006060116458684206, -0.007121358998119831, -0.0018856392707675695, 2.7046424293075688e-05, 0.00010413362906547263, 7.680228918616194e-06, -0.006388685666024685, 0.02053956128656864, -0.00020315074652899057, 0.002191986655816436, 0.008621481247246265, 2.1924015527474694e-05, -0.022793158888816833, -0.023802872747182846], [0.0001049162310664542, 0.0045341914519667625, -0.006774693261831999, -0.009545207023620605, 0.00032389588886871934, 3.580572229111567e-05, 7.514041499234736e-05, 2.1454347006510943e-05, -0.018834030255675316, 0.0035845832899212837, -0.00036337165511213243, -0.005981266498565674, 0.006207369267940521, 2.7386451620259322e-05, -0.006035510450601578, 0.0049085719510912895], [-0.0003823639126494527, 0.0035736914724111557, -0.0069967289455235004, -0.000158345588715747, 0.002744197379797697, -1.0015667612606194e-05, -1.5713269476691494e-06, -6.291983822848124e-07, -0.011348061263561249, -0.004353927448391914, -0.0012619257904589176, 0.006376058794558048, 0.0016880116891115904, -7.2540383371233474e-06, -0.011265757493674755, 0.0024664560332894325], [-0.0004852943529840559, -0.004966322332620621, -0.008760505355894566, -0.0009075016132555902, -0.00398478377610445, -7.258334335347172e-06, -3.16301520797424e-05, 5.40052951691905e-06, -0.005690156482160091, -0.008660132065415382, 0.00044743105536326766, -0.00210726005025208, -0.00931470189243555, 1.281736899727548e-06, 0.009852473624050617, 0.0036957208067178726], [-0.00025100234779529274, -0.0010724354069679976, -0.003844409016892314, 0.0003627515980042517, -0.0003418705309741199, -3.273666152381338e-05, -0.0001120753659051843, 7.534891892646556e-07, -0.0024215509183704853, -0.009490782395005226, -0.0002723450306802988, 0.000895992387086153, -0.002173491520807147, -1.9065932065132074e-05, 0.00616015400737524, 0.005812886171042919], [0.000461580726550892, -0.0044504255056381226, -0.008508960716426373, -0.005882862489670515, -0.0015956666320562363, 9.813600627239794e-06, 1.0019929504778702e-05, 1.0341360393795185e-05, -0.004044161178171635, -0.004914701450616121, 0.0005716743762604892, -4.2855281208176166e-05, -0.0004288142663426697, 3.917682988685556e-06, 0.008894173428416252, -0.0026228029746562243]], "layer_2_biases": [0.15114209055900574, 0.019663255661725998, 0.023737607523798943, 0.00783004704862833, -0.01211518980562687, -0.04852524772286415, -0.06963971257209778, -0.019122181460261345, 0.02806924097239971, -0.031928788870573044, -0.06939584016799927, -0.03866972029209137, -0.0061811646446585655, -0.02276078425347805, -0.11735557019710541, 0.062433477491140366], "layer_2_weights": [[0.0005848840228281915, -0.014782524667680264, 2.0100260371691547e-05, -0.011526526883244514, 5.665341632266063e-06, -0.004411704838275909, -0.0023377540055662394, 6.759197731298627e-06, -0.00011082470155088231, -0.016528822481632233, 3.841999205178581e-05, 0.007045104168355465, -0.0096419183537364, 0.00502078328281641, 0.004392546135932207, -0.00034464060445316136], [-0.00156649190466851, 0.010053754784166813, 5.970060738036409e-05, 0.00897287018597126, -1.6287465768982656e-05, 0.0012743078405037522, 0.003443752648308873, -2.261975714645814e-05, 0.0002342932129977271, 0.011980141513049603, -5.804117608931847e-05, -0.003664707764983177, 0.0010872762650251389, -0.0004545460396911949, 0.00691828690469265, -0.00011466784781077877], [-1.13810456241481e-05, 0.0017073083436116576, 0.0019682932179421186, -0.0008640531450510025, -6.695448064419907e-06, -0.006824713200330734, -0.0103275952860713, 2.3333307126449654e-06, -0.0015632055001333356, -0.005394279025495052, 1.5475252439500764e-05, 0.001774038653820753, -0.009200762026011944, 0.002149194711819291, -0.012834947556257248, 0.0015314987394958735], [0.0009849191410467029, -0.00040147421532310545, 0.0004442731151357293, -0.0017668681684881449, 1.1912053196283523e-05, -0.0019693926442414522, -0.013857239857316017, 6.2091708059597295e-06, -0.0009310363093391061, -0.00012062170571880415, -1.910887294798158e-05, -0.0008282823255285621, -0.0021563030313700438, 0.005994478240609169, -0.00869013275951147, 0.00019170994346495718], [0.00015446514589712024, -0.011919154785573483, -0.002732642227783799, -0.014414261095225811, 4.1608571336837485e-05, 0.004973376635462046, 0.0036460820119827986, 8.284545401693322e-06, 0.0029964647255837917, -0.024117486551404, 2.5382645617355593e-05, -0.011269068345427513, 0.016496844589710236, -0.0008041411056183279, 0.013562178239226341, -0.0015319283120334148], [0.0004011581477243453, -0.012463198974728584, -0.0008223436889238656, -0.00717698410153389, 6.743411631759955e-06, 0.0010676945094019175, -0.0012868087505921721, -6.065332854632288e-06, 0.0002182330354116857, -0.01663161627948284, 7.582980288134422e-06, 0.001910403952933848, 0.02647768147289753, -0.006433526519685984, -0.007789912633597851, 0.0002619131118990481], [-0.0007298203418031335, 0.0009419595007784665, -0.001026335870847106, 0.0025996104814112186, -5.909166702622315e-06, -0.00105030438862741, -0.0017120849806815386, -8.417923709203023e-06, 0.0011167576303705573, 0.001259133918210864, -2.2031626940588467e-05, -0.0010474910959601402, 0.0005261254846118391, 0.0034591779112815857, 0.00790940411388874, -0.0010611464967951179], [-8.27810654300265e-05, -0.01092887669801712, 0.0005281138583086431, -0.013300015591084957, 5.616297585220309e-06, -0.0010859696194529533, 0.017020076513290405, 1.294440335186664e-05, 0.0002310577838215977, -0.01936202496290207, 5.946528835920617e-05, 0.00046694185584783554, -0.011114484630525112, -0.005489739123731852, 0.008551325649023056, 0.0007441295310854912], [0.0009097113506868482, 0.006588995922356844, 0.0013665786245837808, -0.000174190106918104, 1.7833612218964845e-05, -0.0012612834107130766, -0.011484838090837002, 1.4733732314198278e-05, -3.310352622065693e-05, 0.0006515444256365299, -3.1439849408343434e-05, -0.0046113962307572365, -0.010095534846186638, 0.001991039840504527, -0.009030577726662159, 0.0009294351912103593], [-0.0003275139897596091, -0.01347370631992817, -0.0006369741167873144, -0.011313115246593952, 1.3201840374676976e-05, 0.006017807871103287, 0.018909877166152, 3.364342774148099e-06, 0.00031434674747288227, -0.012954561039805412, 3.472153912298381e-05, 9.456497355131432e-05, 0.0025325061287730932, -0.0028113077860325575, 0.02393399365246296, -4.262303627911024e-05], [-0.00017553540237713605, -0.004656631965190172, 0.002418932970613241, -0.007336227688938379, -7.385538992821239e-06, -0.009435421787202358, -0.006521774455904961, -7.450296948263713e-07, -0.003469350514933467, -0.01426418125629425, 5.935925219091587e-05, 0.00218526110984385, -0.009651636704802513, 0.0016361713642254472, -0.01507623866200447, 0.002546040341258049], [4.84982920170296e-05, 6.337241211440414e-05, 0.0016569975996389985, -0.006441975478082895, 6.797340574848931e-06, -1.643611176405102e-05, 0.019596436992287636, 1.5055109543027356e-05, -0.0012902836315333843, -0.0069758412428200245, 4.5995831897016615e-05, -0.003152879187837243, -0.009941866621375084, -0.007080377079546452, -0.008539924398064613, 0.001441188040189445], [-0.00046824017772451043, 0.0078046368435025215, 0.000922194158192724, 0.000611653842497617, 1.6256146409432404e-05, -0.00048192599206231534, -0.00967237539589405, -1.1271064067841507e-05, -0.0017264888156205416, 0.001581608667038381, -6.718311487929896e-05, -0.010936775244772434, 0.004302650690078735, 0.0009045430342666805, -0.008562793955206871, 0.001242477330379188], [-0.0003733388730324805, 0.0008048583986237645, -0.0001485268003307283, -0.0010991247836500406, -2.229289520983002e-06, 0.004699270706623793, 0.015191939659416676, 2.9176890166127123e-06, -0.00019524763047229499, 0.00810057669878006, 4.93604748044163e-05, -0.0005349460407160223, -0.017872624099254608, 0.0022966156248003244, 0.019176475703716278, -0.0007114746258594096], [-1.3839569874107838e-05, 0.0020658450666815042, -0.00042811394087038934, -6.210556875885231e-06, 9.110237442655489e-06, 0.0031822046730667353, 0.0036505497992038727, 3.1136430607148213e-06, 0.000426762766437605, 0.003356410190463066, -3.646034747362137e-05, -0.0036365280393511057, -0.0037848735228180885, 0.0014126569731160998, 0.00866508949548006, -0.0005548262852244079], [1.6957321349764243e-05, -0.0014848971040919423, 0.001339576905593276, -0.004970426671206951, 8.301602065330371e-06, 0.0037624321412295103, 0.005605286918580532, 1.5457741255886503e-06, -0.0019255195511505008, 0.0002645591739565134, 4.099242141819559e-05, -0.002583011519163847, -0.010453612543642521, 0.0015793710481375456, 0.011889367364346981, 0.001108522992581129]], "layer_3_biases": [0.3337489366531372, 0.005501516629010439, 0.029684536159038544, -0.06481438130140305, -0.014099291525781155, 0.020282385870814323, 0.0605585053563118, -0.07086651772260666, 0.03628625348210335, -0.022985847666859627, 0.016936710104346275, -0.0172521211206913, 0.033318713307380676, 0.042872827500104904, -0.009667115285992622, 0.02615688554942608], "layer_3_weights": [[0.0003415748942643404, 0.006493770517408848, 0.0008874977356754243, -0.0027669176924973726, 1.2209626220283099e-05, -0.007221823092550039, 0.0021831977646797895, 4.7554254706483334e-05, -0.0005747383693233132, 0.015565585345029831, 0.0005813990137539804, 0.0017641327576711774, 0.0009270975715480745, -0.0008264040807262063, 0.0107706468552351, -0.01283812802284956], [-0.0009650232968851924, -0.013616586104035378, 0.0006148960674181581, 0.0003264523984398693, -3.4279604733455926e-05, 0.0005456863436847925, 0.0032477565109729767, -5.4079453548183665e-05, -0.0007156861247494817, -0.013689875602722168, -0.005788786802440882, -0.005841259378939867, 0.0011200002627447248, -0.00024109109654091299, -0.0052058021537959576, 0.001995606580749154], [0.00030188134405761957, -0.0026388128753751516, 0.0013275117380544543, -0.0030294470489025116, 1.9550239812815562e-05, 0.001272988854907453, -0.009218762628734112, 1.7912396288011223e-05, -0.00087456323672086, -0.006654845084995031, -0.0024062711745500565, -0.0002490260812919587, 0.001034208806231618, -5.711540507036261e-05, 0.006507883779704571, -0.0023025714326649904], [0.000499546411447227, 0.004901025909930468, 0.0010268237674608827, 0.0007960024522617459, -3.22816995321773e-05, 0.00825898814946413, -0.014459555968642235, -1.9213872292311862e-05, -0.0015279795043170452, 0.0077102305367589, 0.006701293867081404, 0.0009375209920108318, 0.0012117231963202357, -0.0005989241763018072, -0.0016356040723621845, 0.004017385188490152], [0.0005520258564502001, 0.012891089543700218, -0.0023457445204257965, 0.0154129508882761, 3.35319600708317e-05, 0.0018442082218825817, -0.010205215774476528, 1.905536191770807e-05, 0.002312500961124897, 0.016837019473314285, -0.002940631937235594, -0.0090900594368577, -0.0018368756864219904, 3.5842054785462096e-05, -0.029444478452205658, -0.001675463397987187], [-2.618899816297926e-05, 0.014035769738256931, -0.0008560886490158737, -0.0009009168716147542, 2.951064016087912e-05, 5.410431549535133e-05, 0.0035874955356121063, -8.347697075805627e-06, 0.00040900090243667364, 0.020723475143313408, 0.0007391964318230748, 0.0045807440765202045, -0.00011191102385055274, -0.0002825571864377707, -0.010548949241638184, -0.0007652121130377054], [-0.00026164756854996085, -0.008367277681827545, -0.0012585408985614777, -0.001844151527620852, -6.286247298703529e-06, -0.001499728299677372, -0.00015448428166564554, -1.417641033185646e-05, 0.001341194030828774, -0.001243630307726562, -0.002893970347940922, -0.0040470934472978115, -0.0011342671932652593, 0.0002759014896582812, 0.0061444854363799095, -0.005112648010253906], [0.00011239779269089922, 0.008664161898195744, 0.0006642117514275014, 0.009521014988422394, 6.842936272732913e-05, -0.012875811196863651, 0.004270392004400492, 4.600585816660896e-05, 0.00010243655560771003, 0.003543552476912737, -0.006756328511983156, -0.0012532835826277733, 0.00025640989770181477, 0.00022635383356828243, 0.0003078789741266519, -0.01092703640460968], [0.000951486814301461, 0.0018355819629505277, 0.0019038185710087419, -0.0003510320093482733, -2.0767731257365085e-05, 0.007977730594575405, -0.012517900206148624, -2.029256575042382e-05, -0.000976709881797433, -0.006314241327345371, 0.0012798190582543612, -0.0018398702377453446, 0.0010225398000329733, -0.0005445427959784865, -0.014582077041268349, 0.007862859405577183], [-0.0002709540422074497, 0.006938597187399864, 0.0007879470358602703, 0.007425847463309765, 2.0118717657169327e-05, -0.013564846478402615, 0.013031748123466969, 2.1723148165619932e-05, -0.001179117476567626, 0.013523858971893787, -0.004731812048703432, -0.002646187786012888, 0.0016347654163837433, -0.0003785068984143436, -0.012599252164363861, -0.007828323170542717], [-0.0004130059096496552, 0.007320325821638107, 0.00257461192086339, 0.0069530257023870945, 3.755124635063112e-05, 0.0008344667730852962, -0.015627281740307808, 1.996833634620998e-05, -0.0033233261201530695, 0.003912939690053463, -0.0008877908694557846, 0.0003007194900419563, 0.003164764726534486, -0.0005170548683963716, 0.017427433282136917, -0.009210972115397453], [5.7967728935182095e-05, 0.011594993062317371, 0.0011312071001157165, 0.012517551891505718, 3.5868349641532404e-06, -0.0031648450531065464, 0.0016791485249996185, -1.2898468071398383e-07, -0.0007661946001462638, -0.011088082566857338, -0.0035007137339562178, -0.0013129196595400572, 0.0005989288911223412, 0.0004036691680084914, 4.388211891637184e-05, -0.0003623689990490675], [-0.0006383811705745757, 0.004150220658630133, 0.0019820015877485275, 0.01565922424197197, -7.288211054401472e-05, 0.011420066468417645, -0.020334094762802124, -9.250082075595856e-05, -0.003232591785490513, 4.6945613576099277e-05, 0.0010744243627414107, -0.006442807614803314, 0.002947757486253977, -0.0008576635736972094, -0.009317494928836823, 0.007387902121990919], [-0.00015286165580619127, -0.0027652201242744923, -0.0007684538140892982, 0.006097262725234032, 8.436131793132517e-06, -0.007640358060598373, 0.009116015397012234, 4.6986908273538575e-05, 0.0006230975268408656, -0.006461698561906815, 0.0007917566690593958, -0.0025361659936606884, -0.0010709933703765273, 0.0005359731731005013, 0.009117532521486282, -0.004236599430441856], [0.00022120543872006238, -0.0021034693345427513, -0.0011059907265007496, 0.00473479088395834, -2.510633748897817e-05, 0.000510718091391027, 0.0016822773031890392, -7.309407374123111e-05, 0.00111254898365587, -0.0008532785577699542, 0.0008150942157953978, -0.0033421653788536787, -0.001357103232294321, 0.00030033898656256497, -0.003953804727643728, -0.0005833324394188821], [0.00020318145107012242, 0.004620248451828957, 0.0007418149616569281, 0.008842670358717442, -1.979690932785161e-05, -0.0034652247559279203, 0.0025723290164023638, -2.542026891205751e-07, -0.0011487385490909219, 0.0044265990145504475, 0.001193199772387743, -0.0027221657801419497, 0.0008711974951438606, -0.00017225946066901088, -0.004205790814012289, -0.001497988123446703]], "layer_4_biases": [0.2973596453666687, -0.010010714642703533, 0.015175840817391872, -0.0171294417232275, 0.0018484556348994374, 0.061939191073179245, -0.09414330124855042, -0.16154508292675018, -0.036896225064992905, 0.008669372648000717, 0.015363641083240509, 0.004266949370503426, -0.019742734730243683, 0.029042312875390053, -0.045304860919713974, 0.043834809213876724], "layer_4_weights": [[-0.0008289838442578912, 0.01354909222573042, 0.006719648372381926, -0.01338278315961361, -0.0033625385258346796, -0.0012716192286461592, -0.02413063496351242, 9.237640369974542e-06, -0.0036863500718027353, -0.00965365394949913, -0.004905968904495239, -0.011654239147901535, 0.014126302674412727, -0.0009240595391020179, 0.00284908851608634, -0.010229061357676983], [0.0003535368596203625, -0.014259453862905502, -0.01711186394095421, 0.01618822105228901, 0.0018312586471438408, -0.00040956944576464593, 0.012685862369835377, -4.901855572825298e-05, 0.009850991889834404, 0.012688158079981804, 5.884865458938293e-05, 0.0015988164814189076, -0.007084633689373732, -0.0003331926418468356, 0.011171548627316952, 0.002603919478133321], [0.00011924290447495878, 0.004708241671323776, 0.0003192085132468492, 0.001330988947302103, 0.0014090650947764516, -4.104272011318244e-05, -0.017760345712304115, 1.831204463087488e-05, 0.010252227075397968, 0.009596837684512138, 0.0008140939171425998, -0.0025492811109870672, 0.004254000261425972, 0.00011799682397395372, 0.005889531224966049, 0.0011803001398220658], [-0.0005885212449356914, 0.011269238777458668, 0.006185443606227636, -0.004051726311445236, 0.0008685921202413738, -0.0014058685628697276, -0.014168448746204376, -2.9409682611003518e-05, -0.01351314689964056, -0.008554725907742977, 0.0056207189336419106, 0.0011626890627667308, 0.008450506255030632, -0.0005553619703277946, -0.017773207277059555, 0.0007436706218868494], [0.000841800298076123, -0.005331289488822222, -0.02174486592411995, -0.011558976955711842, 0.0005326677928678691, 0.0015087604988366365, 0.006983047351241112, 1.844867438194342e-05, 0.012119625695049763, -0.025506941601634026, 0.0007802407490089536, 0.0006769394385628402, 0.004122443962842226, 0.0006047096103429794, -0.0027291246224194765, -0.011698410846292973], [-0.00021746520360466093, -0.0035018830094486475, 0.006019074469804764, -0.017642948776483536, 0.00038827076787129045, 0.00045716713066212833, -0.0006474698311649263, 4.3347761675249785e-05, -0.004972200375050306, -0.023130783811211586, 0.00024896548711694777, 0.005355476401746273, -0.008913489989936352, 0.0003325121651869267, -0.020962651818990707, -0.0018201631028205156], [0.0002565509348642081, -0.010541921481490135, -0.009439588524401188, 0.0043443432077765465, 4.23141973442398e-05, 0.0009068005019798875, 0.0026808406691998243, -4.660279046220239e-06, 0.006304620299488306, -0.0002716708113439381, -0.001250112080015242, -0.0041252681985497475, -7.477147300960496e-05, 0.0002400870725978166, 0.014239929616451263, -0.005797209683805704], [-0.00011045923019992188, 0.009095246903598309, 0.0009149365359917283, -0.006731214001774788, -0.002625182271003723, -0.0001637495297472924, -0.002800266956910491, 7.577053474960849e-05, 0.014967993833124638, 0.00580982118844986, -0.00894568208605051, -0.007750153075903654, 0.009087027981877327, -0.0001628527679713443, 0.015044005587697029, -0.005059463437646627], [0.0006624527159146965, 0.008933046832680702, -0.002237779088318348, 0.002442706609144807, 0.00166459905449301, -0.001099526765756309, -0.01091673318296671, -3.815048694377765e-05, 0.008556406944990158, 0.015555482357740402, 0.004913330543786287, 0.0033512592781335115, 0.0016404639463871717, -0.00044792916742153466, -0.014749773778021336, 0.003909450024366379], [-0.00014339380140881985, 0.0007876415038481355, -0.0015333446208387613, -0.00668993080034852, -0.004893632605671883, -0.000946578336879611, 0.00775323947891593, 1.890111161628738e-05, 0.0054771010763943195, -0.010165693238377571, -0.009506763890385628, -0.008355946280062199, 0.0033247864339500666, -0.0005143749876879156, 0.008390448056161404, -0.008509973995387554], [-0.001354600884951651, 0.012104437686502934, 0.004363333806395531, -0.005321397911757231, 0.0025277112144976854, -0.0021108496002852917, -0.017124241217970848, 1.7786115904527833e-06, -0.0040687089785933495, -0.002849929966032505, 0.0008265642682090402, -0.003290023421868682, 0.016192298382520676, -0.0007849308894947171, 0.004139855038374662, -0.0010595273924991488], [0.00015991654072422534, 0.009930076077580452, -0.0044149975292384624, -0.0004145669809076935, 0.0009296968928538263, -0.00018163671484217048, 0.0059926011599600315, 4.9193447921425104e-05, 0.008722485974431038, 0.013594825752079487, -0.0022548700217157602, 0.0019923020154237747, 0.0033942852169275284, -9.716935664982884e-07, 0.008720973506569862, 0.004505152348428965], [-0.00014521813136525452, -5.551299182116054e-05, -0.013145540840923786, 0.0054620299488306046, 0.005241679027676582, -0.0010642342967912555, 0.007911570370197296, -7.627953891642392e-05, -0.007130723912268877, -0.005545355845242739, 0.008097933605313301, 0.008530721999704838, 0.0036806990392506123, -0.0004123303515370935, -0.008593123406171799, 0.005095787346363068], [-0.0001283581805182621, 0.0051112547516822815, -0.00044784112833440304, 0.0063432506285607815, -0.0033959585707634687, 5.767367474618368e-05, 0.01209044735878706, 2.6332041670684703e-05, -0.005743876565247774, 0.0036190226674079895, -0.0049880812875926495, -0.006872006691992283, 0.008045083843171597, -0.0002179154398618266, 0.02128244750201702, -0.0035110602620989084], [0.0006212254520505667, -4.083963722223416e-05, -0.006356650032103062, 0.002155646216124296, 5.2165349188726395e-05, 0.001076583517715335, 0.011202942579984665, -6.410140485968441e-05, -0.0010537226917222142, -0.0006401089485734701, 0.00031052634585648775, 0.0001893874432425946, 0.0028712472412735224, 0.0003520558529999107, 0.009152378886938095, -0.002685770858079195], [8.142404112732038e-05, 0.009759334847331047, -0.00047991101746447384, 0.00017159721755888313, -0.0017793726874515414, -0.0006092149997130036, 0.0070230066776275635, -2.8478578315116465e-05, -0.005594303365796804, -0.003014305140823126, -0.002086405176669359, -0.002643100917339325, 0.00930642057210207, -0.0003604866797104478, 0.006741186138242483, -0.0022149563301354647]], "output_biases": [0.5383031368255615, 0.012176277115941048], "output_weights": [[0.8777009844779968, -0.05356937646865845], [1.0556354522705078, 0.3283849060535431], [0.10985499620437622, 0.2953535318374634], [-1.1664338111877441, 0.2751420736312866], [0.8545712828636169, -0.0801243707537651], [0.29419073462486267, -0.20131008327007294], [0.9000155329704285, -0.6777747273445129], [0.5399975776672363, -0.10414319485425949], [0.25284895300865173, -0.36330002546310425], [0.6189148426055908, 0.4602716863155365], [-0.1456124484539032, -0.1453126072883606], [0.11872924119234085, -0.23834218084812164], [-0.23162637650966644, 0.3709017038345337], [0.09499064087867737, -0.0898609533905983], [0.47278356552124023, -0.8987302184104919], [0.5365177392959595, 0.2777611017227173]]}, "hk_disentangled_rnn/~update_latents/update_net_2": {"input_biases": [0.011661763302981853, 0.03618910163640976, -0.10427452623844147, -0.06598221510648727, 0.02795875445008278, -0.054802704602479935, 0.08102984726428986, -0.053852397948503494, -0.03813406452536583, -0.04523703083395958, 0.05253741145133972, 0.07349296659231186, -0.003168960800394416, -0.04789913445711136, 0.039774730801582336, -0.07086547464132309], "input_weights": [[-0.38763195276260376, 0.7396174073219299, 0.46333369612693787, 0.590233325958252, -0.1189044713973999, 0.7629483938217163, 0.40765753388404846, 0.6849938631057739, 0.9544378519058228, 1.2708344459533691, -0.6475565433502197, -0.5373691320419312, 0.05248848721385002, 0.14502102136611938, -0.7105952501296997, -0.03099924512207508], [-0.085612952709198, -0.21307744085788727, -0.24767106771469116, 0.06517985463142395, -0.628756046295166, 0.06927041709423065, 0.0962136909365654, 0.12202825397253036, -0.42165371775627136, 0.18325021862983704, 0.9064390659332275, -0.11365385353565216, 1.023264765739441, 0.5949239134788513, 0.3167869448661804, 0.19215747714042664], [-0.1454150378704071, -0.3159010410308838, -0.3120918273925781, -0.7445706725120544, 0.554230809211731, -0.45736581087112427, -0.16394945979118347, 0.3392883837223053, 0.1957070380449295, 0.42788833379745483, -0.04918229207396507, -0.8033145070075989, 0.05404338613152504, 0.3986031711101532, 0.033000264316797256, 0.005080211441963911], [-0.8835746049880981, 0.022113537415862083, -0.4244253933429718, -0.3668845295906067, 0.08907558023929596, 0.1672627180814743, -0.29092463850975037, 0.021420208737254143, 0.03184381127357483, 0.18322867155075073, -0.3512497842311859, -0.08314091712236404, -0.5112534761428833, -0.07268441468477249, 0.3925655484199524, 0.18725840747356415], [0.5096330046653748, -0.0405595563352108, -0.9041547775268555, 0.2272266000509262, 0.2631235420703888, -0.09087444096803665, -0.2192939817905426, 0.6861795783042908, 0.04575574770569801, -0.5054726004600525, -0.06636030972003937, 0.5478518605232239, -0.2687471807003021, 0.41231510043144226, 0.2419794201850891, 0.015711359679698944], [0.44280558824539185, -0.017843985930085182, -0.12344887852668762, -0.359161913394928, -0.09750370681285858, -0.04018399119377136, 0.25141212344169617, 0.2818470299243927, 0.22583381831645966, -0.49239757657051086, 0.5287453532218933, 0.4255135655403137, -0.20018638670444489, -0.22416596114635468, -0.11133565753698349, 0.20281940698623657], [0.7332342863082886, -0.4327183663845062, -0.09283849596977234, -0.1639791876077652, -0.7036484479904175, -0.12096983939409256, -0.22171449661254883, 0.06154010444879532, 1.1527557373046875, -0.09748154878616333, -0.5685938000679016, 0.6888477206230164, 0.03581942617893219, 0.3090723752975464, -0.421578586101532, -0.44297322630882263]], "layer_0_biases": [-0.012513690628111362, -0.0019944459199905396, -0.003263695165514946, -0.0019530460704118013, -0.27970531582832336, -0.008702853694558144, 0.08066035807132721, -0.003949106205254793, -0.07779480516910553, -0.005011784378439188, 0.0705299973487854, 0.08367498964071274, -0.004623448941856623, -0.0035552841145545244, 0.08219663798809052, -0.04321112483739853], "layer_0_weights": [[4.64756740257144e-05, -2.1891131837037392e-05, 1.2764975508616772e-05, 2.653079354786314e-05, 1.5121306205401197e-05, 1.033410444506444e-05, -0.000539461150765419, 8.282778253487777e-06, 4.614169665728696e-05, 1.3256139027362224e-05, -0.0002757492184173316, -0.00028855769778601825, 2.3155632788984803e-06, -8.653032273286954e-05, -0.00024004417355172336, 0.00032516400096938014], [-1.2569249520311132e-05, 6.169048901938368e-06, -3.131777020826121e-06, -6.58187900626217e-06, 3.859182925225468e-06, -5.406353466241853e-06, 0.00014537792594637722, -4.226768851367524e-06, -4.262351012584986e-06, -4.864266429649433e-06, 0.00010890394332818687, 0.00015722448006272316, -7.0855026024219114e-06, 1.868119215941988e-05, 0.00011945066216867417, -7.190692122094333e-05], [-2.3679216610617004e-05, 3.990299319411861e-06, -1.719049691928376e-06, -6.907464921823703e-06, 1.1067123523389455e-05, -2.628411721161683e-06, -8.10969213489443e-05, -2.2004012407705886e-06, 5.27688825968653e-06, -1.3216294973972254e-05, 0.00029015878681093454, 0.0003210189752280712, -5.574609076575143e-06, 1.0596060747047886e-05, 0.000289032090222463, -0.00011284643551334739], [7.119862743820704e-07, 2.1013565856264904e-06, 1.0122750637719946e-07, -1.8933278056465497e-07, 2.569545540609397e-05, -5.815567419631407e-06, -7.276099495356902e-05, -6.040054813638562e-06, 1.106701347453054e-05, -2.552938440203434e-06, 0.00032488847500644624, 0.00015788126620464027, -1.8128741430700757e-05, 3.081640534219332e-05, 0.00020889603183604777, -2.9304219424375333e-05], [3.0178711313055828e-05, -2.1076577922940487e-06, 4.081428869540105e-06, 1.2065266901117866e-06, -4.31617590948008e-05, 2.550295675973757e-06, -0.0002970587811432779, 4.043914032081375e-06, -0.00015883904416114092, 2.2691130652674474e-05, -0.0005375153850764036, -9.443805174669251e-05, -1.3781173947791103e-05, -1.93735340872081e-05, -0.0002487354795448482, 9.13304538698867e-05], [-3.1268777092918754e-05, 6.4903001657512505e-06, -5.722196874557994e-06, -1.9216080545447767e-05, 1.0765281331259757e-05, -7.29810017219279e-06, 0.00035808622487820685, -6.300779659795808e-06, 1.132248780777445e-05, -6.183264758874429e-06, 0.00040517226443625987, 0.00020572742505464703, -6.324943569779862e-06, 2.022071203100495e-05, 0.00025513823493383825, -9.831856732489541e-05], [-8.706157132110093e-06, 8.884640919859521e-06, -1.6096723811642732e-06, -5.0029129852191545e-06, -7.079575539137295e-07, -3.0369355954462662e-06, 3.521971666486934e-05, -2.503214318494429e-06, 1.6826912769829505e-06, -9.921240234689321e-06, 0.00011552275827853009, 5.8798224927159026e-05, -6.581093657587189e-06, 2.9261836971272714e-06, 4.7964713303372264e-05, -3.165851012454368e-05], [1.7256705177715048e-05, 2.0792950294890034e-07, 2.62686603491602e-06, 2.2458352759713307e-05, 1.5599376638419926e-05, 2.697391437322949e-06, 0.000143121273140423, -4.888071998720989e-06, -4.7934267968230415e-06, 2.9359240215853788e-05, 0.000392876478144899, 0.00014623002789448947, -9.305304956797045e-06, -2.3239010261022486e-05, 0.00022424642520491034, 0.00012272044841665775], [5.24025563208852e-06, -8.134253221214749e-06, -4.77573053103697e-07, 5.750827767769806e-06, -1.7295415091211908e-05, -1.2111752312193858e-06, 0.0003444313770160079, -5.07633615143277e-07, 5.0508369895396754e-05, 1.5989109670044854e-05, 0.00010404433123767376, 4.2877600208157673e-05, 1.6079457054729573e-05, -6.912199751241133e-05, 0.00010798571020131931, 3.0108662031125277e-05], [-2.089547888317611e-05, 1.668647200858686e-05, -1.0638627827574965e-05, -3.6544373870128766e-05, 4.346772038843483e-05, -1.2176709788036533e-05, 0.00030673525179736316, -1.076285116141662e-05, 2.803427560138516e-05, -1.1182965863554273e-05, 0.0006761457188986242, 0.00041501791565679014, -1.118911040975945e-05, 7.145372364902869e-05, 0.0004648035974241793, -0.00012801970297005028], [1.1445156360423425e-06, 1.0208093954133801e-05, -4.5347763943937025e-07, -7.1301378739008214e-06, 3.187280526617542e-06, -2.0762738131452352e-05, -0.00020511860202532262, -9.489901458437089e-06, 2.235523243143689e-05, 2.4900773496483453e-05, 0.0002469980390742421, -5.919171599089168e-05, -4.8020342546806205e-06, -1.3918959666625597e-05, 1.1868712135765236e-05, 2.9299841116880998e-05], [2.4912307708291337e-05, -1.256438554264605e-05, 7.433854079863522e-06, 1.729121504467912e-05, -1.2759361197822727e-05, 9.744953786139376e-06, 0.0001561946264700964, 9.17086344998097e-06, -1.3698077054868918e-05, 1.8565568097983487e-05, -0.00045952192158438265, -0.000401793688070029, 1.6300458810292184e-05, -2.0672581740655005e-05, -0.00037424388574436307, 0.00024507640046067536], [-2.0508823581621982e-05, 1.4182515769789461e-05, -3.607511416703346e-06, -1.2500993761932477e-05, 6.786307494621724e-06, -8.379071005037986e-06, -4.034099038108252e-05, -9.146086995315272e-06, 2.0877550923614763e-05, -2.4248591216746718e-05, 0.0008078152895905077, 0.0002597975835669786, -1.2086902643204667e-05, 1.945384792634286e-05, 0.00041735052946023643, -7.540690421592444e-05], [-4.6464479964924976e-05, 2.444058964101714e-06, 3.4718036658887286e-06, 4.4776074901164975e-06, 1.9789160887739854e-06, -4.774087301484542e-06, -0.00019731804786715657, -7.128906418074621e-06, -2.3907688955659978e-05, 3.6728567920363275e-06, 0.00048340047942474484, 0.00016173120820894837, -7.965997610881459e-06, -5.918586339248577e-06, 0.0002563992456998676, -5.296645213093143e-06], [3.4395823149679927e-06, 2.3996537947823526e-06, 1.6419081205754082e-08, -1.4681075981570757e-06, -4.5234482968226075e-05, 2.276560962855001e-06, 9.045660408446565e-05, 1.790930923561973e-06, -4.07484476454556e-05, -2.3820955448172754e-06, -0.00018000329146161675, 3.0550196242984384e-05, -1.272008830710547e-06, 1.175185175839033e-07, -0.00011812068260041997, 1.1282264495093841e-05], [-7.138121873140335e-06, 2.05773676498211e-06, -4.4968969632463995e-06, -2.2888591502123745e-06, 9.093263884096814e-07, -4.6226400627347175e-06, 0.00018145047943107784, -1.1210609955014661e-05, 4.7447335305150773e-07, -1.9651099592010723e-06, 0.0001183794520329684, 0.00014829009887762368, 7.195115472313773e-07, 2.5650482712080702e-05, 0.0001005172380246222, -5.772211807197891e-06]], "layer_1_biases": [-0.03884102776646614, 0.10144606232643127, -0.002475251443684101, -0.012560081668198109, -0.0023239166475832462, -0.0035362320486456156, 0.3052119314670563, -0.00388167193159461, -0.03620292991399765, -0.005011966917663813, 0.08416710048913956, -0.023469220846891403, -0.003104441100731492, -0.021884948015213013, 0.049503590911626816, -0.005986331030726433], "layer_1_weights": [[6.587382085854188e-05, -0.000159311544848606, 1.6496063835802488e-05, 3.0657010938739404e-05, 3.313430397611228e-06, 8.850002814142499e-06, -0.0005464652786031365, 8.287521268357523e-06, -6.022199613653356e-06, 1.4728959286003374e-05, -0.0002826630079653114, -2.7834010325022973e-05, 1.3293451047502458e-05, -2.350369504711125e-05, -0.0002481466217432171, 7.480914064217359e-06], [-9.564899301039986e-06, 5.803397289128043e-05, -2.7815865450975252e-06, -4.6897571337467525e-06, 7.04395759498766e-08, -4.578263087751111e-06, 0.00015642811194993556, -4.220087248540949e-06, 9.519611921859905e-06, -5.081102244730573e-06, 0.0001147239890997298, -4.6072687837295234e-05, -2.407588453934295e-06, 1.3382775250647683e-05, 0.00012455157411750406, -2.5566532713128254e-06], [5.0474267482059076e-05, 0.0003139779146295041, -6.689634574286174e-06, -1.2840607269026805e-05, 3.776184939852101e-06, -2.3482009510189528e-06, -0.00012606872769538313, -2.3291977413464338e-06, 7.846924745535944e-06, -1.4802660189161543e-05, 0.0002895914949476719, 6.855554602225311e-06, -1.3095725989842322e-05, 1.1418024769227486e-05, 0.0002891122712753713, -1.1860141739816754e-06], [6.97057694196701e-05, 0.0001599067181814462, -7.524177476625482e-07, -4.306360068540016e-08, 2.3295481241802918e-06, -5.74161640543025e-06, -9.371108171762899e-05, -6.008554464642657e-06, 9.450929496779281e-07, -2.289147232659161e-06, 0.0003320923133287579, -5.567327434619074e-07, -1.015450106933713e-05, 9.986182476495742e-07, 0.00021504955657292157, -6.858543656562688e-06], [-0.00012529456580523401, -0.00019680330296978354, 4.484848432184663e-06, -9.67239543570031e-07, 1.7072471791834687e-06, 3.712095121954917e-06, -0.0003016399859916419, 3.947502136725234e-06, 2.8853794447059045e-06, 2.135680006176699e-05, -0.0005463019479066133, 5.481639163917862e-05, -4.223358700983226e-06, -2.374115319980774e-05, -0.0002555256651248783, 6.7124110501026735e-06], [8.48929412313737e-05, 0.00016578838403802365, -5.246620276011527e-06, -1.2754332601616625e-05, -2.02133765014878e-06, -6.708414275635732e-06, 0.0002503459982108325, -6.235956789168995e-06, 6.2545668697566725e-06, -5.42511179446592e-06, 0.0004135583294555545, 1.3005280379729811e-05, -5.919937848375412e-06, 2.6680614610086195e-05, 0.00026179931592196226, -8.297657586808782e-06], [1.67726229847176e-05, -2.0188334019621834e-05, -6.22768493485637e-06, -1.090944806492189e-05, 1.3437105508273817e-06, -1.981190962396795e-06, 1.282356879528379e-05, -1.8505625121179037e-06, 4.129902663407847e-06, -1.0408002708572894e-05, 6.684192339889705e-05, 5.163947935216129e-05, -9.472430974710733e-06, 9.056898306880612e-06, 1.606134719622787e-05, -2.045589781118906e-06], [-9.987637895392254e-05, 0.00017434923211112618, 7.298347554751672e-06, 8.825789336697198e-06, -1.2873981631855713e-06, -4.491652362048626e-06, 0.0001480310456827283, -4.830753368878504e-06, -2.732958137130481e-06, 1.554402115289122e-05, 0.00039848528103902936, -1.2757272997987457e-05, 3.925321834685747e-06, -2.2730031560058706e-05, 0.00022693094797432423, -7.612076842633542e-06], [-0.00018855457892641425, -2.3839033019612543e-05, 2.7062797016697004e-06, -2.1361012159104575e-07, -4.283499947632663e-06, -1.471481937187491e-06, 0.00034555024467408657, -5.048575530963717e-07, 2.3427307951351395e-06, 1.6616864741081372e-05, 0.00010009157995227724, -4.713618636742467e-06, -8.655632882437203e-06, -9.416064131073654e-06, 0.000101724814157933, 1.6809069336432003e-07], [-0.0001527129643363878, 0.0003046243218705058, -2.010794560192153e-05, -1.4204095350578427e-05, -3.8017390124878148e-06, -1.133234218286816e-05, 0.00033601204631850123, -1.0675262274162378e-05, 7.918111805338413e-06, -1.1651897693809588e-05, 0.000687111692968756, 2.9423665182548575e-05, -5.020672233513324e-06, 4.480521965888329e-05, 0.0004715107206720859, -1.5977024304447696e-05], [-6.496562127722427e-05, 5.0127557187806815e-05, -1.6105193481052993e-06, -7.2814787017705385e-06, 1.0705623481044313e-06, -1.846814848249778e-05, -0.00021847602329216897, -9.986931218008976e-06, 1.8176654066337505e-06, 2.5298736545664724e-06, 0.00020653678802773356, 1.294144294661237e-05, 3.2887937777559273e-06, 2.6168906970269745e-06, -8.23648520054121e-07, 2.9049131171632325e-06], [0.0002060712140519172, -0.0004517197667155415, 9.976741239370313e-06, 1.3163656149117742e-05, -1.0429062058392446e-06, 1.0354749974794686e-05, 0.00014025255222804844, 1.072396662493702e-05, -2.212899380538147e-05, 2.0245810446795076e-05, -0.0006208073464222252, -0.00010947479313472286, 1.3828564078721683e-05, -1.6416481230407953e-05, -0.0004972766619175673, 1.102629175875336e-05], [-0.00015664096281398088, 0.0003834156086668372, -9.85662882158067e-06, -1.555739072500728e-05, 3.357991317898268e-06, -8.425872692896519e-06, -3.1803749152459204e-05, -8.996398719318677e-06, 1.4307574929262046e-05, -2.5223926058970392e-05, 0.0008220486342906952, 3.105244104517624e-05, -9.798480277822819e-06, 2.9403285225271247e-05, 0.0004278667620383203, -1.6383664842578582e-05], [-2.8683538403129205e-05, 0.0002065325970761478, 1.3391141919782967e-06, -1.6503219740116037e-05, 2.2437809832354105e-07, -7.059705239953473e-06, -0.00021952384850010276, -7.023842499620514e-06, 3.5956111332779983e-07, 2.5381825707881944e-06, 0.0004899802734144032, 2.8058941097697243e-05, -4.674603587773163e-06, -7.4217246037733275e-06, 0.00026084535056725144, -9.019827302836347e-06], [-1.6483007129863836e-05, -0.00014678866136819124, -2.144235168088926e-06, -1.5187913504632888e-06, -7.824543217793689e-07, 2.7555754513741704e-06, 4.8309109843103215e-05, 2.6471325327293016e-06, 3.538296596161672e-06, -1.3579859796664095e-06, -0.0002338804624741897, 7.891962923167739e-06, 1.0501351425773464e-05, -4.1495411551295547e-07, -0.00016345141921192408, 2.838470436472562e-06], [-1.5756331777083687e-05, 8.050260657910258e-05, -3.546443849700154e-06, -2.1047167138021905e-06, -1.998586412810255e-06, -1.2361109838820994e-05, 0.0001635616790736094, -1.0060833119496237e-05, 4.602740773407277e-06, -1.029805616781232e-06, 0.00012154217984061688, 2.546721589169465e-06, 4.76540265026415e-07, 1.5361741816377616e-06, 0.00010280674905516207, -2.9066013667033985e-06]], "layer_2_biases": [-0.0030761067755520344, -0.018544206395745277, -0.18915997445583344, -0.035400647670030594, -0.002476669382303953, -0.003334528300911188, 0.09408195316791534, -0.00381764629855752, 0.02919907122850418, -0.003947095014154911, 0.142124742269516, 0.09143652021884918, -0.002391162561252713, 0.04951643943786621, 0.08995766937732697, -0.005357626359909773], "layer_2_weights": [[2.6181471184827387e-05, -8.612902456661686e-05, 3.2406380341853946e-05, 4.506455661612563e-05, 3.2722950891184155e-06, 8.945945410232525e-06, -0.0005538471159525216, 8.334519407071639e-06, -3.477899736026302e-05, 1.3872811905457638e-05, -0.0002886720758397132, -0.00027343505644239485, 1.4264253877627198e-05, -0.00021178513998165727, -0.00025502147036604583, 7.810380338924006e-06], [-1.6211577531066723e-05, 2.8478494641603902e-05, 5.7947574532590806e-05, -1.2159784091636539e-05, 1.6112259970668674e-07, -3.390364099686849e-06, 0.00019563610840123147, -2.7860737645823974e-06, 4.6967157686594874e-05, -4.869807526119985e-06, -1.5334251656895503e-05, 8.899374370230362e-05, -3.0896464409124746e-07, -3.3374899430782534e-06, 3.244384424760938e-05, -4.078824531461578e-07], [-9.514621524431277e-06, 4.9753161874832585e-05, -2.5902096240315586e-05, -3.0776169296586886e-05, 3.977965207013767e-06, -2.4028865936998045e-06, -7.727152114966884e-05, -2.351542661926942e-06, 0.0007152065518312156, -1.8089354853145778e-05, 0.00029256357811391354, 0.0003299403178971261, -1.0634797945385799e-05, 0.000315813347697258, 0.00027893250808119774, -1.3360939874473843e-06], [1.2652400300794397e-06, -0.00010255581582896411, 5.091076673124917e-06, -1.5029556834633695e-06, 2.343900632695295e-06, -5.668043741025031e-06, -6.86214116285555e-05, -5.9964845604554284e-06, 0.00011004416592186317, -2.8492797810031334e-06, 0.00034019400482065976, 0.00015163636999204755, -1.2102392247470561e-05, 0.00016353745013475418, 0.00022255571093410254, -7.152083981054602e-06], [8.454972885374445e-06, 2.2467786038760096e-05, 1.7228492652066052e-05, 1.0925975402642507e-05, 1.2541590876935516e-06, 3.4540239539637696e-06, -0.0003133128338959068, 3.5618600122688804e-06, 0.0001339875889243558, 3.857094270642847e-05, -0.0005561366560868919, -9.444918396184221e-05, -2.316005748070893e-06, -0.00015958269068505615, -0.00026399106718599796, 1.0305810974386986e-05], [-8.320452252519317e-06, -7.645262667210773e-05, 3.8828671677038074e-05, 6.142479833215475e-05, -1.9571698430809192e-06, -6.614837730012368e-06, 0.0004089394642505795, -6.178772764542373e-06, -3.5247390769654885e-05, -6.764783847756917e-06, 0.00042275903979316354, 0.00019930140115320683, -4.395428732095752e-06, 0.00017812855367083102, 0.0002700305776670575, -8.147109838319011e-06], [-1.0099876817548648e-05, 5.449229138321243e-05, -1.4541375094268005e-05, -9.083471923077013e-06, 1.4088816442381358e-06, -1.0822909644048195e-06, -7.804222695995122e-05, -7.271133313224709e-07, 2.4886412575142458e-05, -1.0231710803054739e-05, -2.6794550649356097e-05, -1.7366803149343468e-05, -1.8962622334584012e-06, -8.469187014270574e-05, -4.0195751353167e-05, -4.997164637643436e-07], [2.8082366043236107e-05, 8.705272921361029e-05, 7.245516826515086e-07, -0.00020448169379960746, -1.3388525985646993e-06, -4.556990006676642e-06, 0.0001523349346825853, -4.857830390392337e-06, -4.951253504259512e-05, 3.078399095102213e-05, 0.0004048086702823639, 0.00014348968397825956, 4.050661118526477e-06, 0.00015138305025175214, 0.00023103035346139222, -7.594258931931108e-06], [7.664028089493513e-06, -8.860012167133391e-05, -1.4895273352522054e-06, 2.968841727124527e-05, -4.306437404011376e-06, -1.482517632211966e-06, 0.0003484365588519722, -5.026614644521032e-07, -0.00032516990904696286, 1.2037635315209627e-05, 9.606839012121782e-05, 5.0732742238324136e-05, -3.887262664648006e-06, -8.367086365979048e-07, 9.593355207471177e-05, 4.230954289141664e-07], [-5.326962855178863e-05, 0.00015267559501808137, -2.9082297260174528e-05, 4.0510008147975896e-06, -3.7698268897656817e-06, -1.125486505770823e-05, 0.00031096028396859765, -1.057496865541907e-05, -4.427763997227885e-05, -1.2474329196265899e-05, 0.0006994414725340903, 0.0003911425010301173, -7.009807632130105e-06, 0.00031421150197274983, 0.00048081946442835033, -1.2707726455118973e-05], [-1.5377639783764607e-06, 5.5522454204037786e-05, -2.9395803267107112e-06, -2.418293479422573e-05, -1.70257852261102e-08, -1.0914146514551248e-05, -0.0002296145394211635, -8.145789252012037e-06, 8.873673505149782e-05, 1.708612580841873e-05, 0.00016394429258070886, -8.185473416233435e-05, -4.0686963984626345e-06, -1.8148261005990207e-05, -1.5000684470578562e-05, 1.5151406387303723e-06], [2.2491813069791533e-05, -0.00012021490692859516, 7.264173473231494e-05, 0.00011124030424980447, -1.4100087355473079e-06, 1.0390137504145969e-05, 8.417126082349569e-05, 1.0556524102867115e-05, -0.00037533274735324085, 2.122934347426053e-05, -0.0006235660403035581, -0.00047707106568850577, 1.7589412891538814e-05, -0.0004489636339712888, -0.0004992189933545887, 1.12794732558541e-05], [-1.9817662177956663e-05, 6.520349415950477e-05, -2.97938004223397e-05, -2.1991985704516992e-05, 3.6283706776885083e-06, -8.236017492890824e-06, -2.019309249590151e-05, -8.78909122548066e-06, 5.368805432226509e-05, -2.4237022444140166e-05, 0.0008381386287510395, 0.00024287981796078384, -1.6356294509023428e-05, 0.0003200038045179099, 0.0004418477474246174, -1.6327354387613013e-05], [4.702060323324986e-06, -8.015909429559542e-07, -2.9037189960945398e-05, -2.2077430912759155e-05, 1.5816398502010998e-07, -7.054278739815345e-06, -0.0002398009382886812, -7.058384653646499e-06, 4.0048516893875785e-06, -4.5000574573350605e-06, 0.00049691362073645, 0.00015342720143962651, -4.701574198406888e-06, 0.00018026508041657507, 0.00026684231124818325, -8.65755009726854e-06], [-1.387887493820017e-07, -0.00020385722746141255, -2.1888121409574524e-05, -5.968439381831558e-06, -8.807378435449209e-07, 3.367054432601435e-06, 1.789056113921106e-05, 3.3967573926929617e-06, -0.0001611531333765015, 3.2204311537498143e-06, -0.0002984106249641627, -0.0001050613573170267, 2.8924316666234517e-06, -0.00014112741337157786, -0.0002013484772760421, 4.779306436830666e-06], [-7.207304406620096e-06, 1.9888731912942603e-05, -4.147880645177793e-06, -1.9977491319878027e-05, -1.2454465831979178e-06, -1.1550417184480466e-05, 0.0001810765388654545, -5.14384964844794e-06, 1.4531965462083463e-05, -6.935476449143607e-06, 0.00012426046305336058, 0.0001767182839103043, -3.0091639473539544e-06, 0.00010977355850627646, 0.00010345843475079164, -3.109696535830153e-06]], "layer_3_biases": [-0.009169651195406914, 0.0827297493815422, -0.049181751906871796, -0.007317038252949715, -0.004636560566723347, -0.003425017697736621, 0.14111141860485077, -0.004303864669054747, 0.011825946159660816, -0.09412101656198502, 0.0489165335893631, 0.13410648703575134, -0.003662440227344632, 0.08016450703144073, 0.1019320860505104, -0.0031039174646139145], "layer_3_weights": [[2.753294029389508e-05, -0.0001793323754100129, -0.00022008188534528017, 2.8061116609023884e-05, -1.5498926586587913e-05, 9.20666479942156e-06, -0.000570831703953445, 8.981668543128762e-06, -2.548367228882853e-05, 0.00012691311712842435, -0.0002974398375954479, -0.00026536607765592635, 4.3439663386379834e-06, -0.00021624501096084714, -0.00026072264881804585, 0.0012377755483612418], [-8.545884156774264e-06, -4.000704575446434e-05, 7.755828119115904e-05, -4.183749751973664e-06, -1.2361368135316297e-05, -3.5682458019437036e-06, 0.0002056466182693839, -3.2525285860174336e-06, 4.182157863397151e-05, 1.812620394048281e-05, 2.6814161628863076e-06, 8.705091750016436e-05, -4.514715328696184e-06, 1.3805096386931837e-05, 4.80404996778816e-05, 0.002528992248699069], [-1.313345001108246e-05, 0.00029909462318755686, -2.4781382307992317e-05, -1.7196976841660216e-05, 7.558299785159761e-06, -2.657825461938046e-06, -7.242345600388944e-05, -2.7465960101835662e-06, 0.0008999170968309045, -3.2292176911141723e-05, 0.000297789549222216, 0.0003102511982433498, -8.89110378921032e-06, 0.0003069702652283013, 0.00023926016001496464, 0.0015774087514728308], [1.4103177363722352e-06, 0.00017657784337643534, 0.00022120459470897913, -5.659003932123596e-07, 2.53728521784069e-05, -5.6588437473692466e-06, -6.541146285599098e-05, -6.19455613559694e-06, 0.00010665736044757068, -3.0206672818167135e-05, 0.0003526188666000962, 0.000150548861711286, -8.982486860986683e-07, 0.00017631324590183794, 0.0002335871395189315, 0.001051311381161213], [3.3116382837761194e-05, -0.0002259098837384954, -7.65825534472242e-05, 1.7304902939940803e-05, -3.383318698979565e-06, 3.06881725009589e-06, -0.00032798750908114016, 2.8666711386904353e-06, 0.00011835052282549441, 3.920088056474924e-05, -0.0005597309209406376, -9.804044384509325e-05, 5.36195238964865e-06, -0.00016897983732633293, -0.00026620476273819804, 0.0033363455440849066], [-1.4523661775456276e-05, 0.00018677118350751698, 4.957612418365898e-06, -6.401771770470077e-06, 1.9798322682618164e-05, -6.6068068917957135e-06, 0.0003875291731674224, -6.245129043236375e-06, -3.385659510968253e-05, 4.2300907807657495e-06, 0.0004349717637524009, 0.0001978640939341858, 1.440739424651838e-06, 0.0001908499834826216, 0.0002804230898618698, 0.0006184886442497373], [-1.0580965863482561e-05, -0.00012167341628810391, -2.3603088266099803e-05, -8.324655937030911e-06, 2.0183301785436925e-06, -2.5302179551545123e-07, -6.653737364104018e-05, 1.3748571348060068e-07, 1.134668036684161e-05, -3.875200854963623e-05, -6.690552982036024e-05, -4.038255428895354e-05, -1.5082922800502274e-05, -9.528197551844642e-05, -5.7577082770876586e-05, 0.001273405971005559], [1.97794124687789e-05, 0.0001843440841184929, 