{"hk_disentangled_rnn": {"choice_net_multipliers": [0.0011978851398453116, 1.8234763145446777, 0.0022294064983725548, -0.0009689212311059237, 0.0011245071655139327], "choice_net_sigma_params": [0.9894679188728333, 0.005106086377054453, 0.99311763048172, 0.995032548904419, 0.9875475168228149], "latent_inits": [0.16362570226192474, -0.0046925838105380535, -2.2843878269195557, 1.6703916788101196, 0.03129591792821884], "latent_multipliers": [1.0, 1.0, 1.0, 1.0, 1.0], "latent_sigma_params": [0.0026214008685201406, 0.0019430455286055803, 0.04859846830368042, 0.007866120897233486, 0.0019345246255397797], "update_net_latent_multipliers": [[0.6592675447463989, 2.209665536880493, -0.00486027542501688, 1.9594000577926636, 1.365372657775879], [2.133417844772339, 1.4270437955856323, 0.0015493049286305904, 1.95795476436615, 0.06197904795408249], [0.011123989708721638, 1.1180522441864014, -0.007906589657068253, -0.0031238021329045296, 1.2183550596237183], [-0.032207753509283066, 1.6638624668121338, 0.0029213048983365297, 1.3693218231201172, 1.724676489830017], [0.3428233563899994, 2.136338233947754, 0.0010343011235818267, 1.9295735359191895, 1.6601340770721436]], "update_net_latent_sigma_params": [[0.965362548828125, 0.06903392821550369, 0.9950493574142456, 0.7075071334838867, 0.8975728750228882], [0.39024579524993896, 0.00674637034535408, 0.999000072479248, 0.5191351771354675, 0.9925951957702637], [0.9998781085014343, 0.08658726513385773, 0.9964419007301331, 0.9973769187927246, 0.08721602708101273], [0.9994351863861084, 0.12757034599781036, 0.9947754740715027, 0.12862485647201538, 0.30086690187454224], [0.9976255297660828, 0.033940572291612625, 0.9941802024841309, 0.79203200340271, 0.5522308945655823]], "update_net_obs_multipliers": [[1.396546483039856, 1.455505609512329, 1.3317303657531738, 0.8876217007637024, 1.2516229152679443], [1.365617036819458, 1.786149024963379, 1.2470401525497437, 1.3864436149597168, 1.062567949295044]], "update_net_obs_sigma_params": [[0.15053486824035645, 0.009968544356524944, 0.04863407835364342, 0.8202525973320007, 0.03787076845765114], [0.28514835238456726, 0.030564885586500168, 0.1679333597421646, 0.2238682508468628, 0.18573130667209625]]}, "hk_disentangled_rnn/~predict_targets/choice_net": {"input_biases": [-0.023553481325507164, -0.003420088440179825, 0.00020780043269041926, -0.07145540416240692], "input_weights": [[-0.2175450623035431, -0.05146591737866402, -0.7117399573326111, 0.4239599108695984], [-0.5404523611068726, -1.4690473079681396, 0.5844772458076477, 1.6218397617340088], [0.5542379021644592, -0.18962226808071136, -0.14119316637516022, 0.2831256091594696], [0.8106719255447388, -0.21132560074329376, 0.6875936388969421, -0.41119834780693054], [-0.3430047631263733, -0.12925633788108826, -0.3693186640739441, -0.2928454577922821]], "output_biases": [0.0056211017072200775, -0.005621118471026421], "output_weights": [[-0.14871986210346222, 0.6685647964477539], [-0.5979937314987183, 1.3017280101776123], [0.34850987792015076, -0.48372822999954224], [0.3135276138782501, -0.4358038902282715]]}, "hk_disentangled_rnn/~update_latents/update_net": {"input_biases": [0.0893445536494255, -0.09628754109144211, -0.07515911757946014, 0.12854546308517456, -0.052272994071245193, -0.041209958493709564, 0.03550538420677185, -0.09640044718980789, -0.13929201662540436, -0.09589764475822449, 0.1708405762910843, -0.15457569062709808, 0.11267165094614029, -0.08801472932100296, 0.13032416999340057, 0.43315380811691284], "input_weights": [[-0.4077180027961731, 1.174591302871704, 0.18202424049377441, -0.7629939913749695, -0.3025043308734894, 0.6021260023117065, 0.23911771178245544, 0.17424295842647552, 0.3791932463645935, 0.038840461522340775, 0.39912042021751404, 0.45740869641304016, -0.12057266384363174, 0.6301729083061218, -0.41893884539604187, 0.025739924982190132], [-0.8677549958229065, -0.07490336894989014, -0.3656768500804901, -0.23576682806015015, 0.09913419932126999, 0.13104546070098877, -0.16510111093521118, -0.6845840215682983, -0.41521018743515015, 0.055524975061416626, -0.33572864532470703, -0.43948620557785034, -0.017661992460489273, -0.025460051372647285, -0.15681599080562592, 0.6604344248771667], [0.23760347068309784, 0.08723633736371994, -0.1897018998861313, -0.1757921278476715, 0.5340942740440369, -0.31652265787124634, 0.45285695791244507, -0.19408266246318817, -0.3058706820011139, 0.23359797894954681, 0.024637356400489807, -0.07302489131689072, 0.003679826855659485, 0.5511555075645447, -0.13883072137832642, 0.035681355744600296], [-0.2692556083202362, 0.018251053988933563, 0.048020489513874054, -0.8317552804946899, 0.10232844948768616, 0.3603992760181427, 0.7709163427352905, -0.4337296187877655, 0.017805814743041992, -0.17406915128231049, -0.10449116677045822, -0.5601071715354919, -0.562468945980072, 0.47483840584754944, 0.2092338502407074, -0.372041255235672], [-0.03881482779979706, -0.4717017114162445, -0.3112771213054657, -0.05530214309692383, -0.06760285049676895, -0.7382803559303284, 0.2685956656932831, 0.5769351720809937, 0.3032068908214569, -0.10335638374090195, -0.16390766203403473, 0.11802469938993454, 0.3730906844139099, 0.19214309751987457, -0.2301328033208847, 0.21914911270141602], [-0.24840667843818665, -0.15914477407932281, -0.07029794156551361, 0.23872807621955872, -0.3629138469696045, 0.4381919205188751, 0.6268737316131592, 0.045573435723781586, 0.14693030714988708, -0.032354097813367844, 0.7721577882766724, 0.1925830990076065, -0.30918869376182556, -0.14054928719997406, -0.38725242018699646, -0.2199353575706482], [0.38123250007629395, 0.09560970216989517, 0.05315328761935234, 0.06228932738304138, 0.478545606136322, -0.05770641937851906, 0.12498487532138824, 0.2168721854686737, -0.29828324913978577, 0.12870758771896362, 0.350486695766449, 0.47341835498809814, -0.1370326280593872, -0.4247704744338989, -0.0286337211728096, 0.21643738448619843]], "layer_0_biases": [0.10152305662631989, -0.01397536788135767, -0.07417403161525726, 0.16458852589130402, -0.0038614163640886545, 0.051341183483600616, 0.06216143071651459, -0.04434141889214516, -0.126329705119133, -0.10159341990947723, 0.19990575313568115, -0.023466171696782112, 0.13118448853492737, -0.017996199429035187, -0.021182259544730186, 0.3464154303073883], "layer_0_weights": [[-0.00019166780111845583, -3.1803083402337506e-05, 6.421012949431315e-05, 0.0002548751945141703, 5.195796984480694e-05, 0.0002528541081119329, 1.8706368791754358e-05, 1.8658695353224175e-06, -2.1376070435508154e-05, 0.0001333196269115433, -0.0001848089013947174, 7.150878445827402e-06, -0.00022046928643248975, -2.4058610506472178e-05, 4.030247509945184e-05, -8.971341594588012e-05], [-6.0687598306685686e-05, 4.973974864697084e-05, -2.37187650782289e-05, -0.0005550174973905087, -0.00010860184556804597, 2.1200392438913696e-05, 0.00026406970573589206, 4.791224273503758e-05, 9.832576779444935e-07, 2.7569027224672027e-05, -0.00028741612914018333, -3.7453121422004187e-06, -0.00025156346964649856, -0.00010043026122730225, -1.4724079846928362e-05, -0.0003962902701459825], [-0.00012690720905084163, 5.6278939155163243e-05, -7.611759065184742e-05, -0.00045014554052613676, 3.6864781577605754e-05, -3.0986058845883235e-05, 0.00011940390686504543, 7.995826308615506e-05, -1.912401057779789e-05, -4.520329093793407e-05, -7.68747559050098e-05, -3.427508636377752e-05, -6.258979556150734e-05, 5.417926513473503e-05, 5.3226540330797434e-05, -4.528695353656076e-05], [-7.070422725519165e-05, -7.16902723070234e-05, 6.61631056573242e-05, 0.00021348727750591934, 2.12947343243286e-05, 1.916061228257604e-05, 7.932608241389971e-06, -6.050559022696689e-05, -1.4649715012637898e-05, 9.269462316296995e-05, 0.0002607644710224122, -7.294461829587817e-05, 0.0002102355647366494, -0.0001447500690119341, -7.573092716484098e-06, 0.00046398877748288214], [-2.8259886676096357e-05, 6.404059240594506e-05, 1.4637360436609015e-05, -8.018234075279906e-05, 5.8621801144909114e-05, 0.00013335174298845232, 8.06270691100508e-05, 2.420410055492539e-06, 3.069371814490296e-05, 8.667715883348137e-05, -0.00025509000988677144, 1.2558097296277992e-05, -0.0002844540576916188, -2.0760257029905915e-05, -9.616540410206653e-06, -0.00014295447908807546], [0.000518985849339515, 4.954164251103066e-05, -4.7851881390670314e-05, -0.00023397710174322128, -3.919980372302234e-05, -0.00044447247637435794, -0.0002442010154481977, 4.340208397479728e-05, 4.9868876885739155e-06, -0.00011569516209419817, -0.00012308356235735118, 1.144459474744508e-05, -8.026879368117079e-05, 3.099108289461583e-05, -1.613474523765035e-05, -0.0002761308860499412], [8.806509140413254e-05, 8.393456664634869e-05, -4.793274274561554e-05, -0.0003788858593907207, 1.117056035582209e-05, -0.00017998964176513255, -3.0836803489364684e-05, 5.0616610678844154e-05, 9.296059579355642e-05, -4.860974149778485e-05, -0.0008014048798941076, -1.996187165786978e-05, -0.0007841654005460441, 7.430289406329393e-05, -5.822527964483015e-05, -0.0010625357972458005], [0.00010600903624435887, -2.3025984773994423e-05, 3.094490239163861e-05, 0.0003198028134647757, -7.079462648107437e-06, -0.00016096013132482767, -9.447066986467689e-05, -3.2004969398258254e-05, -4.947417983203195e-05, -6.15587123320438e-05, -7.247526809806004e-05, -5.9503749071154743e-05, -6.434130045818165e-05, -0.00010609889432089403, 0.0001402476627845317, -8.750136476010084e-05], [-7.637316230102442e-06, -6.09310700383503e-06, -9.713994586491026e-06, 0.0004948479472659528, 1.1129361155326478e-05, 2.597586535557639e-05, 6.945279892534018e-05, 5.8748817536979914e-05, -0.0001335816050413996, -8.054184581851587e-05, 7.096041372278705e-05, 3.868004569085315e-05, 0.00010281542927259579, 4.67407880933024e-05, 5.562020305660553e-05, -7.111212471500039e-05], [-9.247916750609875e-05, -5.351872914616251e-06, -8.219757728511468e-05, -0.0002837323409039527, -9.37358163355384e-06, 7.525725959567353e-05, 0.000247003830736503, 1.3495588063960895e-05, -8.767612598603591e-05, -4.066781548317522e-05, -3.1722927815280855e-05, -6.544670031871647e-05, 4.068876296514645e-05, -6.852571459603496e-06, 0.00011428826837800443, -0.00013172597391530871], [0.0004561447130981833, -4.624785287887789e-05, -2.7234242224949412e-05, -0.00019842888286802918, -0.00011156839173054323, -0.00022091300343163311, -2.5545194148435257e-05, -4.151021130383015e-05, 6.395045784302056e-05, -0.00010600754467304796, -0.0002711982815526426, -5.71897835470736e-05, -0.00024622195633128285, -0.00011120380804641172, -6.0775386373279616e-05, -0.000368902605259791], [8.793901361059397e-05, 7.492873464798322e-06, 2.566472176113166e-05, -6.386118184309453e-05, -7.404397911159322e-05, -9.902974124997854e-05, -9.884173050522804e-05, -5.992610749672167e-05, 5.351171057554893e-05, 2.900083302392886e-07, -0.00012601068010553718, -3.0701943614985794e-05, -0.00011934765643673018, -8.002054528333247e-05, -6.5269174228888e-05, -0.00013430813851300627], [-0.00016100019274745136, -0.00017947776359505951, -2.6114523279829882e-05, 0.0005394936888478696, -6.827777542639524e-05, 0.0002639313170220703, 0.0003474256373010576, -5.046026853960939e-05, -0.0001177373924292624, -4.072446245118044e-05, 0.0005843332619406283, 2.9019747671554796e-05, 0.000622604857198894, -8.510587940691039e-05, 0.0001414644648320973, 0.0005337400361895561], [0.00043663254473358393, 2.022186163230799e-05, -4.263029040885158e-05, -0.00046086168731562793, -6.001619840390049e-05, 0.00019713684741873294, -0.0001450942363590002, -2.051075171038974e-05, 4.2263131035724655e-05, -6.685981497867033e-05, -0.00022183246619533747, 2.1647661924362183e-05, -0.00017263948393519968, 7.5268444561515935e-06, -3.486926289042458e-05, -0.00039049473707564175], [2.8400969313224778e-05, 8.84294422576204e-05, 2.8792934244847856e-05, 0.00031510580447502434, 0.00010887721145991236, -1.1038864613510668e-05, -0.0002667937951628119, -1.994014746742323e-05, -7.431187987094745e-05, 8.123002044158056e-05, 0.00011464379349490628, 3.900419324054383e-05, 9.15616619749926e-05, 3.818449840764515e-05, 6.976387521717697e-05, 0.00016201272956095636], [7.495631962228799e-06, 2.6218722268822603e-06, -0.00012179010082036257, -8.670699753565714e-05, -9.146433148998767e-05, 4.8964895540848374e-05, 0.00019963341765105724, -3.891252345056273e-05, 1.991969475056976e-05, -0.00012460003199521452, 0.00018310025916434824, 3.2424719393020496e-05, 0.00018566110520623624, -1.3078020856482908e-05, -5.9942423831671476e-05, 0.00023611045617144555]], "layer_1_biases": [-0.010640358552336693, -0.012404253706336021, -0.006735464092344046, 0.15374353528022766, -0.0037669192533940077, -0.03663941100239754, 0.08916381001472473, -0.00745012890547514, -0.027918091043829918, -0.026823313906788826, 0.2051118016242981, -0.02412984147667885, 0.12131603062152863, -0.01824696734547615, 0.12430326640605927, 0.35060250759124756], "layer_1_weights": [[2.4806975034152856e-06, -4.3305681174388155e-05, -4.0921028698903683e-07, 0.0002653574338182807, 3.1940071494318545e-05, -0.00012809662439394742, 0.00018933505634777248, -2.3100214093574323e-05, -3.9492209907621145e-05, 0.00014324163203127682, -0.00018942549650091678, -5.59260843147058e-06, -0.0002250329271191731, -2.141014556400478e-05, -5.642770338454284e-05, -7.980941154528409e-05], [-1.081766913557658e-05, 5.0454142183298245e-05, 8.858639375830535e-06, -0.0005691108526661992, -0.00011042347614420578, -1.1517655366333202e-05, 0.0002745477540884167, 5.0094720791094005e-05, 1.4583368965759291e-06, 2.8703720090561546e-05, -0.00027250219136476517, -3.428489662837819e-06, -0.00023969594622030854, -9.541166946291924e-05, -0.0002514648367650807, -0.00037973231519572437], [-6.626920367125422e-05, 5.645214696414769e-05, -3.5185385058866814e-06, -0.0004502636438701302, 3.661734444904141e-05, 6.329885218292475e-05, 0.00011855667253257707, 8.003645780263469e-05, -1.7582395230419934e-05, -4.477154652704485e-05, -7.59162285248749e-05, -3.593165456550196e-05, -6.152976857265458e-05, 5.356612746254541e-05, -4.405636718729511e-05, -4.447056562639773e-05], [7.469527918146923e-05, -8.594417886342853e-05, 5.612274890154367e-06, 0.0002850957971531898, -2.426121227472322e-06, -0.00013670610496774316, 0.0002213355473941192, -8.357707702089101e-05, -4.399189856485464e-05, 9.818416583584622e-05, 0.0002508721372578293, -4.803175761480816e-05, 0.00020523025887086987, -0.00011242043547099456, 0.00021319682127796113, 0.0004399848694447428], [-8.204026016755961e-06, 6.346344162011519e-05, 1.7186365539600956e-06, -7.622570410603657e-05, 5.8387078752275556e-05, -2.0140332708251663e-06, 7.890258711995557e-05, 1.49018376305321e-06, 3.031853339052759e-05, 8.575581159675494e-05, -0.00025916227605193853, 1.2462835002224892e-05, -0.00028722750721499324, -2.4464303351123817e-05, -0.00026451717712916434, -0.00014658838335890323], [-2.1860283595742658e-05, 3.312398257548921e-05, -9.196157407131977e-06, -0.00021471409127116203, -5.1645762141561136e-05, 7.265313615789637e-05, -0.00016008748207241297, 3.743104753084481e-05, -1.2991932635486592e-05, -0.00011268381786067039, -0.00012537774455267936, 1.6941366993705742e-05, -8.420734229730442e-05, 5.472632619785145e-05, -0.00012560094182845205, -0.0002893953933380544], [-5.824442996527068e-05, 6.642378866672516e-05, -2.0102681901335018e-06, -0.00023983579012565315, 1.046260786097264e-05, 0.00012384375440888107, 4.872901627095416e-05, 8.512518979841843e-05, 5.476023943629116e-05, -4.8237772716674954e-05, -0.0007766649941913784, 1.1874404663103633e-05, -0.0007614534697495401, 0.0001393848651787266, -0.0005196371348574758, -0.0010248954640701413], [6.840940477559343e-05, -2.297938226547558e-05, 5.594128651864594e-06, 0.00031844875775277615, -1.929538939293707e-06, -2.03647341550095e-05, -9.383233555126935e-05, -3.174961238983087e-05, -5.052887354395352e-05, -6.092638795962557e-05, -7.107399142114446e-05, -5.945264274487272e-05, -6.223128002602607e-05, -0.00010599196684779599, 0.0002507349126972258, -8.655167039250955e-05], [-5.36447114427574e-05, -4.83835356135387e-06, 3.7809936657140497e-06, 0.000497110711876303, 1.6546329788980074e-05, -2.632412542880047e-05, 7.075430767145008e-05, 5.95033161516767e-05, -0.00013329666398931295, -7.96714230091311e-05, 7.419240137096494e-05, 3.9203452615765855e-05, 0.00010514644236536697, 4.725359030999243e-05, 0.0002588592760730535, -6.848894554423168e-05], [-2.9948337214591447e-06, -7.036514944047667e-06, -7.167577678046655e-06, -0.0002828740980476141, -8.700888429302722e-06, -3.7668385630240664e-05, 0.00024574570124968886, 1.3868745554646011e-05, -8.69530049385503e-05, -4.007577445008792e-05, -3.073762491112575e-05, -6.824386218795553e-05, 4.2285821109544486e-05, -6.050485353625845e-06, 0.00012383979628793895, -0.00013140487135387957], [4.3604548409348354e-05, 5.038109520683065e-05, -1.5065232219058089e-05, -0.00011467079457361251, -9.400285489391536e-05, 4.646551315090619e-05, 8.387627167394385e-05, -6.552275590365753e-05, -2.049918293778319e-05, -9.02421961654909e-05, -0.00026462305686436594, -2.8064196158084087e-05, -0.00023887495626695454, -7.040394120849669e-05, -0.00015377374074887484, -0.00038738298462703824], [8.046213042689487e-05, 7.765722330077551e-06, -6.3286493059422355e-06, -6.780689000152051e-05, -7.629417814314365e-05, -1.511760365247028e-05, -9.811261406866834e-05, -5.947087629465386e-05, 5.358816633815877e-05, 5.166804157852312e-07, -0.000120441873150412, -3.0439052352448925e-05, -0.00011378153430996463, -7.906129758339375e-05, -3.0394197892746888e-05, -0.00012851219798903912], [0.0001390156103298068, -0.00016880054317880422, -5.533047078642994e-05, 0.0005104345618747175, -8.375834295293316e-05, -7.4651965405792e-05, 0.00031257112277671695, -0.00011435637134127319, -5.382986637414433e-05, -5.772814620286226e-05, 0.00051737210014835, 2.208831938332878e-05, 0.0005372145096771419, -0.00015584539505653083, 0.00042197894072160125, 0.0005278551252558827], [-4.026329770567827e-05, 2.091287387884222e-05, -1.2664847417909186e-05, -0.0004672361246775836, -6.257500353967771e-05, 0.00013808513176627457, -0.00013533615856431425, -2.61941477219807e-05, 4.2570904042804614e-05, -6.568289245478809e-05, -0.00021584938804153353, 2.1877571271033958e-05, -0.00016895760199986398, 9.804812179936562e-06, -0.0002346313267480582, -0.00038455132744275033], [1.1981405805272516e-05, 8.791736036073416e-05, 6.880472483317135e-06, 0.000319485436193645, 0.00010883092181757092, 6.169716016302118e-06, -0.0002734364534262568, -2.054126343864482e-05, -7.459067273885012e-05, 8.011613681446761e-05, 0.00010940525680780411, 3.885961996275e-05, 8.747016545385122e-05, 3.617026231950149e-05, 6.083189873606898e-05, 0.00015676028851885349], [2.3611368305864744e-05, 3.4520340705057606e-05, -2.2411442841985263e-05, -5.326170867192559e-05, -9.37611093831947e-06, -2.106973079207819e-05, 0.0001586855505593121, 3.7535312458203407e-06, 1.413856716681039e-05, -9.731121826916933e-05, 0.000165627381647937, 6.911497621331364e-06, 0.000163184420671314, 2.1125191778992303e-05, 7.627062586834654e-05, 0.00024370283063035458]], "layer_2_biases": [-0.0038003840018063784, -0.10837143659591675, -0.0020610119681805372, 0.13206204771995544, -0.004786086268723011, -0.008646138943731785, 0.15923771262168884, -0.09849318861961365, -0.1607334166765213, -0.048564087599515915, 0.19238007068634033, -0.023619644343852997, -0.014593054540455341, -0.11154133826494217, 0.11142729222774506, 0.2690456807613373], "layer_2_weights": [[3.041318905161461e-06, -4.2869243770837784e-05, 3.3774219332372013e-07, 0.00026950487517751753, 3.215734614059329e-05, -9.680263610789552e-05, 0.00018056305998470634, -2.3230608348967507e-05, -3.961739275837317e-05, 0.00014205186744220555, -0.00019355829863343388, -5.635507477563806e-06, -2.5200901291100308e-05, -2.1549585653701797e-05, -5.307166065904312e-05, -8.331106801051646e-05], [-1.2740419151668902e-05, 5.1134884415660053e-05, -5.760472049587406e-06, -0.0005808647838421166, -0.00011209028161829337, 1.823205457185395e-05, 0.00028432573890313506, 5.179388972464949e-05, 1.7850672975328052e-06, 2.9704995540669188e-05, -0.0002598254941403866, -3.1591853257850744e-06, -3.658538844319992e-05, -9.093157859751955e-05, -0.0002628558431752026, -0.0003663543611764908], [-6.618281622650102e-05, 5.6697073887335137e-05, 5.558471912081586e-06, -0.0004500045906752348, 3.661750815808773e-05, 3.1035760912345722e-06, 0.00011812763113994151, 8.019166125450283e-05, -1.7426160411559977e-05, -4.444011574378237e-05, -7.518487836932763e-05, -3.58692959707696e-05, 7.033817382762209e-05, 5.366967889131047e-05, -4.4767046347260475e-05, -4.3946492951363325e-05], [0.00013645540457218885, -0.0001916291657835245, 6.347287580865668e-06, 0.0003800376725848764, -3.4175502605648944e-06, -9.672251326264814e-05, 0.0002776213805191219, -0.00013840485189575702, -6.990670954110101e-05, 9.611478890292346e-05, 0.00024326604034285992, -7.468144303857116e-06, 1.2812776731152553e-05, -0.00010508461855351925, 0.00021983578335493803, 0.0004181085096206516], [-8.352310032933019e-06, 6.424608727684245e-05, 1.3346212881515385e-06, -7.272752554854378e-05, 5.811548908241093e-05, 1.3168166333343834e-05, 7.261572318384424e-05, 7.788495963723108e-07, 3.0275552489911206e-05, 8.496359077980742e-05, -0.00026263503241352737, 1.2370041076792404e-05, 3.732858749572188e-05, -2.7733020033338107e-05, -0.00026100387913174927, -0.00014951342018321157], [-2.271970697620418e-05, 3.427584306336939e-05, -2.3584764221595833e-06, -0.0002206561912316829, -5.188934301258996e-05, 0.00011807840201072395, -0.0001516312622698024, 3.789983384194784e-05, -1.2702765161520801e-05, -0.00011168680794071406, -0.00011992553481832147, 1.7108019164879806e-05, -3.22444066114258e-05, 5.615019836113788e-05, -0.00012992523261345923, -0.0002842467511072755], [-0.00012528197839856148, 6.888011557748541e-05, 2.1187081529205898e-06, -0.00010085193935083225, -6.569719971594168e-06, 8.586789772380143e-05, 0.00012865138705819845, 4.55842018709518e-05, 7.314867980312556e-05, -4.76184104627464e-05, -0.000739137816708535, 7.214560901047662e-05, 0.00010359605948906392, 0.0001214160438394174, -0.0004655828815884888, -0.0009737230138853192], [6.805801967857406e-05, -2.331848918402102e-05, 3.162378561682999e-06, 0.00031779444543644786, -1.9578501451178454e-06, -2.9721208193222992e-05, -9.290096204495057e-05, -3.187044057995081e-05, -5.005493949283846e-05, -6.042733002686873e-05, -7.025350350886583e-05, -5.940643677604385e-05, -4.522211838775547e-06, -0.00010593306069495156, 0.000248736614594236, -8.63180830492638e-05], [-5.378837886382826e-05, -3.964411916967947e-06, 3.122224541129981e-07, 0.0004959314246661961, 1.635039188840892e-05, -1.6605943528702483e-05, 7.216368248919025e-05, 5.992349178995937e-05, -0.00013309330097399652, -7.899202319094911e-05, 7.678249676246196e-05, 3.9393489714711905e-05, -7.312999628084071e-07, 4.787568104802631e-05, 0.00025590171571820974, -6.659061182290316e-05], [-3.080701844737632e-06, -6.5601047936070245e-06, 1.261037709809898e-06, -0.00028268402093090117, -8.64991670823656e-06, -8.446350875601638e-06, 0.0002445537829771638, 1.4010756785864942e-05, -8.673794945934787e-05, -3.95807292079553e-05, -3.014334106410388e-05, -6.879834836581722e-05, 8.513810462318361e-05, -5.606579179584514e-06, 0.00012250927102286369, -0.0001312417007284239], [1.8360422473051585e-05, 2.2346637251757784e-06, 4.673361218010541e-06, -6.293354817898944e-05, -5.077269452158362e-05, 7.362862675108772e-07, 0.0002434683992760256, -5.3619532991433516e-05, -1.1495337730593747e-06, -6.312899495242164e-05, -0.00025821119197644293, 3.881673933392449e-07, -4.6315788495121524e-05, 2.417667201370932e-05, -0.00013536699407268316, -0.0004039248451590538], [8.003572293091565e-05, 7.991661732376087e-06, -7.857534001232125e-06, -7.09142695995979e-05, -7.688874757150188e-05, -1.2396753845678177e-05, -9.692874300526455e-05, -5.907995000598021e-05, 5.360884824767709e-05, 7.195654916358762e-07, -0.00011609923967625946, -3.020925032615196e-05, 1.1380118849046994e-05, -7.825332431821153e-05, -3.5507917345967144e-05, -0.00012437337136361748], [0.00019715065718628466, -0.00013812308316119015, 2.0398440028657205e-05, 0.0003056784044019878, -0.00011831544543383643, -9.012551890918985e-05, 0.00023190569481812418, -0.00014835679030511528, -7.552853639936075e-05, -6.809694605180994e-05, 0.00046519452007487416, 8.320831693708897e-05, -4.4524396798806265e-05, -0.00014424673281610012, 0.000335592805640772, 0.0005108524346724153], [-4.103430183022283e-05, 2.1532538085011765e-05, -8.03094280854566e-06, -0.00047270776121877134, -6.332536577247083e-05, 0.0001434000878361985, -0.00012518565927166492, -2.8462520276661962e-05, 4.286575494916178e-05, -6.457804556703195e-05, -0.00021070124057587236, 2.2067315512686037e-05, -1.617475390958134e-05, 1.1867006833199412e-05, -0.0002391230227658525, -0.00037970050470903516], [-4.0961032937048e-05, 6.577461317647249e-05, 5.804743977932958e-06, 0.0002362983941566199, 7.883824582677335e-05, 1.723389868857339e-05, -9.466576739214361e-05, -3.489004484436009e-06, 4.752157110488042e-05, 8.56906408444047e-05, 9.927247447194532e-05, 3.374952939338982e-05, 2.8186845156596974e-05, 5.560811405302957e-05, 3.725535498233512e-05, 0.000130580403492786], [1.8583839391794754e-06, 8.906472066882998e-05, -2.619420001792605e-06, 3.190205234204768e-06, -1.4764079423912335e-05, 6.0735808801837265e-05, 6.548842793563381e-05, 1.223622075485764e-05, 4.9423175369156525e-05, -0.00014123020810075104, 0.0001613687927601859, 4.8887002776609734e-05, -0.00015090279339347035, -1.6722948714686936e-07, 5.841837264597416e-05, 0.0002346624678466469]], "layer_3_biases": [-0.011810106225311756, -0.009627602994441986, -0.0037155821919441223, 0.10132148861885071, -0.006203782744705677, -0.0376862995326519, 0.08313211053609848, -0.00937639083713293, -0.024500712752342224, -0.12378072738647461, 0.18827761709690094, -0.02298382669687271, 0.17082037031650543, -0.01605701446533203, 0.14275643229484558, 0.3752467632293701], "layer_3_weights": [[3.611394731706241e-06, -4.3576903408393264e-05, 3.602289311288587e-08, 0.00027410316397435963, 3.2348114473279566e-05, -8.661687024869025e-05, 0.00017103574646171182, -2.3512089683208615e-05, -3.971911428379826e-05, 0.00014072090561967343, -0.00019816109852399677, -5.68761379327043e-06, -0.0002312000433448702, -2.175552617700305e-05, -4.997520591132343e-05, -8.7092696048785e-05], [-1.466282265027985e-05, 5.175110345589928e-05, -5.981381491437787e-06, -0.0005945498123764992, -0.00011393982276786119, -2.0784362277481705e-05, 0.00029605228337459266, 5.33683632966131e-05, 2.111721869368921e-06, 3.077274959650822e-05, -0.0002452104527037591, -2.8473868951550685e-06, -0.00021631452545989305, -8.564533345634118e-05, -0.00027518608840182424, -0.0003512174589559436], [-6.610258424188942e-05, 5.701080954167992e-05, 5.870824679732323e-06, -0.0004385057254694402, 3.6639219615608454e-05, 6.253266474232078e-05, 0.00011774097220040858, 8.03979201009497e-05, -1.736463855195325e-05, -4.406326843309216e-05, -7.430696859955788e-05, -3.512890907586552e-05, -5.989944111206569e-05, 5.3875231969868764e-05, -4.6168679546099156e-05, -4.3395259126555175e-05], [0.00015590779366903007, -0.00015610347327310592, 7.024216301942943e-06, 0.0004764059849549085, 5.142609552422073e-06, -0.00012884735770057887, 0.00013254742952995002, -0.00015518943837378174, -1.640708615013864e-05, 9.283584222430363e-05, 0.00023617477563675493, 2.6718256776803173e-05, 0.00019679292745422572, -0.0001680679270066321, 0.0002189401420764625, 0.00039773204480297863], [-8.666548637847882e-06, 6.207027763593942e-05, 1.0854286074390984e-06, -6.871286313980818e-05, 5.771751602878794e-05, -6.606176611967385e-05, 6.320318789221346e-05, -1.540126390864316e-07, 2.9902788810431957e-05, 8.405283006140962e-05, -0.0002666145155671984, 1.2253232853254303e-05, -0.00029322030604816973, -3.128906973870471e-05, -0.0002573828387539834, -0.00015277534839697182], [-2.3602651708642952e-05, 3.371875573066063e-05, -1.9937451725127175e-06, -0.0002270729310112074, -5.221093670115806e-05, -2.666018008312676e-05, -0.0001413377613062039, 3.848921915050596e-05, -1.2520707969088107e-05, -0.00011061246186727658, -0.0001137574581662193, 1.7342459614155814e-05, -7.621442637173459e-05, 5.6937409681268036e-05, -0.0001339487498626113, -0.0002785413234960288], [-8.76508784131147e-05, 4.8212416004389524e-05, 2.9435761916829506e-06, 4.51343585154973e-05, 1.9481300114421174e-05, 6.087874135118909e-05, 0.00015565392095595598, 0.0001297308917855844, 3.8943027902860194e-05, -5.91872121731285e-05, -0.0006705662817694247, -3.787059540627524e-05, -0.0006475403788499534, 6.536557339131832e-05, -0.00037629372673109174, -0.0008848459110595286], [6.873902748338878e-05, -2.268085336254444e-05, 3.1190947993309237e-06, 0.00031582728843204677, -2.1191967789491173e-06, -1.4780371202505194e-05, -9.275567572331056e-05, -3.129576361970976e-05, -5.196857455302961e-05, -5.9755628171842545e-05, -6.92060639266856e-05, -5.95703641010914e-05, -5.960227645118721e-05, -0.00010573525651125237, 0.0002460503310430795, -8.595931285526603e-05], [-5.354348468245007e-05, -2.463458258716855e-06, 5.102663180878153e-07, 0.0004992906469851732, 1.5127354345167987e-05, -4.928825092065381e-06, 7.418465247610584e-05, 6.072640826459974e-05, -0.00013290684728417546, -7.810610986780375e-05, 7.97952088760212e-05, 4.002581044915132e-05, 0.00010947146802209318, 4.81913193652872e-05, 0.00025308801559731364, -6.450259388657287e-05], [-3.1568447411700618e-06, -7.965133590914775e-06, 1.2994677263122867e-06, -0.00028237656806595623, -8.552560757379979e-06, -7.383853699138854e-06, 0.00024313856556545943, 1.423950288881315e-05, -8.636273560114205e-05, -3.901971649611369e-05, -2.941467573691625e-05, -6.996417505433783e-05, 4.4169129978399724e-05, -5.03051478517591e-06, 0.00012067788338754326, -0.00013106375990901142], [-2.8290633053984493e-05, 2.1088042558403686e-05, 5.9352028074499685e-06, -3.8103560655144975e-05, -1.0625561117194593e-05, -3.0292081646621227e-05, 0.00024950873921625316, -6.121821115812054e-06, -1.0010682672145776e-05, -3.138003739877604e-05, -0.00025160051882267, 2.204404336225707e-05, -0.00022352040105033666, -3.696827434396255e-06, -0.00012193576549179852, -0.0004174973873887211], [7.91415004641749e-05, 8.259922651632223e-06, -7.59450085752178e-06, -7.491391443181783e-05, -7.750633812975138e-05, -1.633302053960506e-05, -9.509007213637233e-05, -5.861670433660038e-05, 5.3684743761550635e-05, 9.303432193519257e-07, -0.00011093726789113134, -2.9955630452604964e-05, -0.00010452427522977814, -7.725789328105748e-05, -4.1885185055434704e-05, -0.00011958064715145156], [0.00019635967328213155, -0.00013820388994645327, 2.0130393750150688e-05, 0.0003043849428649992, -0.00011811788135673851, -9.461608715355396e-05, 0.00023262047034222633, -0.00014842886594124138, -7.539259968325496e-05, -6.730499444529414e-05, 0.0004676340613514185, 8.331762364832684e-05, 0.00047411656123586, -0.00014349484990816563, 0.0003331007610540837, 0.0005126972682774067], [-4.16569018852897e-05, 2.231930375273805e-05, -7.980390364537016e-06, -0.0004796373541466892, -6.455584662035108e-05, 6.333736382657662e-05, -0.00011129867198178545, -2.502044299035333e-05, 4.357736906968057e-05, -6.344587745843455e-05, -0.0002048977476079017, 2.2085423552198336e-05, -0.00016103420057334006, 1.4659724911325611e-05, -0.00024378381203860044, -0.0003743268025573343], [2.0111072444706224e-05, 7.4337690421089064e-06, 6.165780177980196e-06, 0.00016732598305679858, 6.16243778495118e-05, 1.5048178738652496e-06, 4.5864275307394564e-05, 2.2248075765674002e-05, 8.73945391504094e-05, 8.762443030718714e-05, 8.947263995651156e-05, 5.343016528058797e-05, 7.13007029844448e-05, 6.326803941192338e-06, 1.832164343795739e-05, 0.00010549127910053357], [-2.969272543396073e-07, 7.661012205062434e-05, 5.527543180505745e-06, 3.1761668651597574e-05, 1.5534518752247095e-05, 5.4700649343430996e-05, 2.7055875762016512e-05, -6.670147740805987e-06, 7.587741856696084e-05, -0.00014349352568387985, 0.00016214800416491926, 5.4987882322166115e-05, 0.00015272693417500705, 3.314192144898698e-05, 4.8637357394909486e-05, 0.00020965478324797004]], "layer_4_biases": [0.12346847355365753, -0.015203756280243397, -0.0018233928130939603, -0.03428855165839195, -0.00989464670419693, -0.06157754734158516, 0.10784759372472763, -0.005631941370666027, -0.0285993330180645, -0.10640715062618256, 0.16982567310333252, -0.02498350478708744, 0.3319249749183655, -0.007858536206185818, 0.13308706879615784, 0.45995596051216125], "layer_4_weights": [[-0.00040074888966046274, -4.351900133769959e-05, 9.412524377694353e-07, 2.44409020524472e-05, 3.240744990762323e-05, -5.7658242440083995e-05, 0.00016668233729433268, -2.406471685389988e-05, -3.978909080615267e-05, 0.00013995182234793901, -0.00020124022557865828, -5.7571223806007765e-06, -0.0002333445881959051, -2.2396519852918573e-05, -4.7115023335209116e-05, -8.921268454287201e-05], [-0.00010623320849845186, 5.222947947913781e-05, -1.1229210940655321e-05, 3.4586413676152006e-05, -0.00011430108133936301, -3.974126229877584e-05, 0.00030552418320439756, 5.5966811487451196e-05, 2.458118387949071e-06, 3.177297185175121e-05, -0.0002345753600820899, -2.5941837975551607e-06, -0.0002075430384138599, -8.222439646488056e-05, -0.0002858713560272008, -0.00034100099583156407], [-0.00012979232997167856, 5.730933844461106e-05, 2.582546812845976e-06, -2.3516249711974524e-05, 3.663176903501153e-05, 7.086952973622829e-05, 0.00011706006625900045, 8.062206325121224e-05, -1.728090865071863e-05, -4.369816815597005e-05, -7.354835543083027e-05, -3.4499527828302234e-05, -5.920250987401232e-05, 5.408931610872969e-05, -4.7663968871347606e-05, -4.301031367504038e-05], [4.849453762290068e-05, -0.00022135645849630237, 3.061085749322956e-07, 7.20208918210119e-05, -0.00010138165089301765, -0.00010181095422012731, 0.00011610395449679345, -0.00014652621757704765, -4.221000199322589e-05, 9.027282794704661e-05, 0.00023036896891426295, 5.766435788245872e-05, 0.00019352523668203503, -0.0001609022874617949, 0.0002129768399754539, 0.00038053837488405406], [-3.1220726668834686e-05, 6.158881296869367e-05, 2.362337454542285e-06, -6.745036444044672e-06, 5.7249835663242266e-05, -7.263154111569747e-05, 5.739003245253116e-05, -1.2323827149884892e-06, 2.9726879802183248e-05, 8.33890080684796e-05, -0.00026954474742524326, 1.2195517228974495e-05, -0.0002955471572931856, -3.369515616213903e-05, -0.00025418063160032034, -0.0001548465806990862], [0.00045955946552567184, 3.393482984392904e-05, -2.046610205752586e-07, -7.210530020529404e-05, -5.223371772444807e-05, 7.126341370167211e-05, -0.00013698270777240396, 3.9538907003588974e-05, -1.230098496307619e-05, -0.00010986394045175985, -0.00010963268869090825, 1.7502425180282444e-05, -7.318538700928912e-05, 5.765788955613971e-05, -0.0001376730651827529, -0.0002751027059275657], [-1.9322744719829643e-06, 3.267350621172227e-05, -9.449178833165206e-06, -0.00015002103464212269, 4.674982119468041e-05, 2.521779970265925e-05, 0.0001459176855860278, 0.00010744720202637836, 1.3945089449407533e-05, -7.086869300110266e-05, -0.000632392824627459, -4.810362224816345e-05, -0.000604800705332309, 5.6388453231193125e-05, -0.0003358417598064989, -0.0008302166825160384], [0.00010316017869627103, -2.2531754439114593e-05, 1.1456333595560864e-05, 2.952463944438932e-07, -2.3120503556128824e-06, -3.5601122363004833e-05, -9.214075544150546e-05, -3.1286286684917286e-05, -5.170277290744707e-05, -5.922525087953545e-05, -6.79655495332554e-05, -5.958190013188869e-05, -5.856587449670769e-05, -0.0001056919209077023, 0.00024334329646080732, -8.554999658372253e-05], [-1.6403831978095695e-05, -1.6768472050898708e-06, 5.914573648624355e-07, 0.00015840829291846603, 1.483673167967936e-05, -2.699988726817537e-05, 7.536813791375607e-05, 6.136680894996971e-05, -0.0001325793709838763, -7.74357613408938e-05, 8.221542520914227e-05, 4.021969289169647e-05, 0.00011117477697553113, 4.877124592894688e-05, 0.0002498634858056903, -6.30712675047107e-05], [-9.51896290644072e-05, -9.30446640268201e-06, 1.0658256996975979e-06, 5.137600237503648e-05, -8.437583346676547e-06, -3.306881626485847e-05, 0.00024251489958260208, 1.4701686268381309e-05, -8.542078285245225e-05, -3.857204501400702e-05, -2.869211311917752e-05, -7.345173071371391e-05, 4.5319033233681694e-05, -4.238024757796666e-06, 0.00011854806507471949, -0.00013102777302265167], [4.5342560042627156e-05, 4.77742069051601e-05, 6.084002507122932e-06, -3.345715595060028e-05, 1.026018708216725e-05, -3.213773425159161e-06, 0.00021419858967419714, 4.031195567222312e-05, 2.001404936891049e-05, -7.700333298998885e-06, -0.00024833573843352497, 2.8782069421140477e-05, -0.00021818943787366152, 2.522290924389381e-05, -0.00011041149991797283, -0.00043283638660795987], [7.302510493900627e-05, 8.531612365914043e-06, 9.345603189103713e-07, 7.085675315465778e-05, -7.799003651598468e-05, -1.997633444261737e-05, -9.37132936087437e-05, -5.811840310343541e-05, 5.383688767324202e-05, 1.0612577625579434e-06, -0.00010673175711417571, -2.977429721795488e-05, -0.00010093950550071895, -7.638417446287349e-05, -4.788914156961255e-05, -0.00011606219777604565], [-6.353156095428858e-06, 2.454988680256065e-05, 4.113983959541656e-05, -3.3458312827860937e-05, -9.658382623456419e-05, -0.00014221506717149168, 0.0002570869692135602, -0.00011958774121012539, 6.345296424115077e-05, -7.209750037873164e-05, 0.0004165946738794446, 6.912348908372223e-05, 0.00041083840187639, -0.00010817814472829923, 0.00026758963940665126, 0.0004868116229772568], [0.0004042570944875479, 2.2847651052870788e-05, -9.660951718615252e-07, -3.1795792892808095e-05, -6.504343764390796e-05, 6.806311284890398e-05, -0.00010616051440592855, -2.285744449181948e-05, 4.38308525190223e-05, -6.258921348489821e-05, -0.0002009306917898357, 2.2254514988162555e-05, -0.0001581183896632865, 1.612503911019303e-05, -0.00024817377561703324, -0.00037104106741026044], [2.471356674504932e-05, -1.2343922207946889e-05, -1.1862044857480214e-06, 1.350165439362172e-05, 6.881475087539002e-07, -3.5982880035589915e-06, 0.00010004689829656854, 7.681413990212604e-06, 0.0001107209172914736, 8.629765216028318e-05, 8.331461140187457e-05, -6.5501312747073825e-06, 6.692369061056525e-05, 2.235383726656437e-05, 1.676847750786692e-05, 8.237263682531193e-05], [1.665686613705475e-05, 6.259045767365023e-05, -7.423273018503096e-06, 8.999089186545461e-05, 3.330958861624822e-05, 6.335064972518012e-05, 1.1229997653572354e-05, -3.2631637623126153e-06, 6.910836964379996e-05, -9.358958777738735e-05, 0.000159106872160919, 6.567743548657745e-05, 0.00015336745127569884, 4.788896694662981e-05, 4.8710287956055254e-05, 0.00016017523012124002]], "output_biases": [-1.3315513134002686, -0.09663593024015427], "output_weights": [[0.12255442142486572, -0.3088463842868805], [-0.09768341481685638, 0.8521847128868103], [0.2180492877960205, 0.061992842704057693], [-0.2621826231479645, -1.5945712327957153], [-0.012273390777409077, 0.17505870759487152], [-0.26683565974235535, 0.3774051070213318], [0.028019146993756294, -0.07190197706222534], [-0.10886518657207489, 0.25121936202049255], [0.14634665846824646, 0.7335970401763916], [0.11136537045240402, 0.03372897580265999], [-0.44667699933052063, -0.1394534409046173], [0.5515812039375305, 0.8427475690841675], [-0.382860004901886, -0.12880343198776245], [-0.11069203168153763, 0.39424076676368713], [-0.23172299563884735, -0.5021633505821228], [-0.8777592182159424, -0.10988152772188187]]}, "hk_disentangled_rnn/~update_latents/update_net_1": {"input_biases": [-0.0007487008697353303, -0.015710124745965004, 0.05904552340507507, 0.012818551622331142, -0.07310900837182999, 0.016844850033521652, -0.02644517831504345, -0.09829210489988327, 0.05804260075092316, -0.013516574166715145, 0.04854194074869156, -0.038314733654260635, 0.003208343405276537, -0.11716275662183762, -0.0215414110571146, 0.025653626769781113], "input_weights": [[0.4554598033428192, -0.13863320648670197, -0.18156979978084564, -0.17620587348937988, 1.2035983800888062, 0.22479334473609924, 0.027634577825665474, 0.8280746340751648, 0.02276858314871788, 1.1157370805740356, -0.369693785905838, 0.22697468101978302, -0.3643898665904999, 0.37863531708717346, 0.16149935126304626, 0.41274404525756836], [-0.39889228343963623, 0.6198731660842896, -0.3346954882144928, -0.37806734442710876, -0.6898860335350037, -0.8103933334350586, 0.2477789670228958, -0.1697547733783722, -0.35413533449172974, 0.3226501941680908, -0.6207106113433838, -0.14420832693576813, -0.22146986424922943, 0.9315295815467834, 0.27605584263801575, 0.31036630272865295], [0.8991851210594177, -0.2330467849969864, 0.13986361026763916, -0.21946072578430176, -0.7358838319778442, 0.3070138692855835, 0.12838664650917053, 0.2769676148891449, -0.5750198364257812, 0.2832362949848175, 0.2469424456357956, -0.369502991437912, -1.0514678955078125, -0.10007303953170776, -0.3754216432571411, -0.26098352670669556], [0.3732531666755676, -0.5984345078468323, -0.5434527397155762, 0.47710514068603516, 0.20563837885856628, 0.9978794455528259, -0.23556457459926605, -0.6994147896766663, -0.5775902271270752, 0.010821258649230003, -0.1106649711728096, -0.6161476373672485, -0.06687406450510025, -0.203349307179451, -0.15131914615631104, -0.03758496418595314], [0.399372398853302, -0.566692054271698, -0.07233262062072754, 0.5827912092208862, -0.24414964020252228, -0.4987978935241699, -0.49488601088523865, 0.04574171081185341, 0.684694230556488, -0.08685868978500366, -0.16242249310016632, 0.35193586349487305, 0.1278451383113861, 0.5684110522270203, 0.29696303606033325, 0.6026356220245361], [-0.41745761036872864, -0.1510470062494278, -0.05405072495341301, -0.3219604194164276, -0.4326411187648773, 0.40773850679397583, -0.41181227564811707, 0.5065706968307495, -0.24419116973876953, -0.00465882895514369, 0.32220882177352905, 0.7812526822090149, 0.09614485502243042, -0.08879881352186203, -0.1257360428571701, -0.06626009196043015], [-0.7981100678443909, 0.09598293900489807, -0.6248213648796082, -0.5741497874259949, -0.5338017344474792, 0.5001804828643799, -0.45413485169410706, -0.1472541093826294, -0.18166877329349518, 0.32410353422164917, -1.2657856941223145, 0.16831818222999573, -0.6947966814041138, 0.03840040788054466, -0.04729503020644188, -0.10573220998048782]], "layer_0_biases": [0.1308039128780365, 0.024906693026423454, -0.0337328240275383, -0.04696356877684593, -0.17192234098911285, 0.05478544160723686, -0.0045704604126513, -0.024685651063919067, -0.06301621347665787, 0.08468160778284073, 0.06573733687400818, -0.05703829228878021, -0.03170525282621384, -0.14905403554439545, -0.011130504310131073, -0.057305220514535904], "layer_0_weights": [[0.0021270648576319218, -0.011568734422326088, -0.010616261512041092, -0.01333982590585947, 9.876306285150349e-05, 0.001709182863123715, -0.005724211689084768, 0.01648954302072525, -0.004850132390856743, 0.009161392226815224, 0.0011089484905824065, -0.0042479694820940495, -0.012977894395589828, 3.0302033337648027e-05, -0.0028054050635546446, -0.0025310527998954058], [-0.0014748235698789358, 0.0046783313155174255, -0.00010093591117765754, -0.00014482483675237745, -0.00017211461090482771, -0.0032073436304926872, 0.005285398568958044, -0.0013491086428985, 0.0003713362675625831, -0.003853085683658719, -0.000554621045012027, 0.00023258832516148686, 0.009026638232171535, -6.534419662784785e-05, 0.014331955462694168, -8.537476969650015e-05], [0.0005553989321924746, 0.0011364175006747246, -0.0022823514882475138, -0.011427977122366428, -2.9588287361548282e-05, 0.0017675197450444102, 0.010783808305859566, 0.002733712550252676, -0.0069779520854353905, 0.00885139312595129, 0.0009031167137436569, -0.006400456186383963, -0.00040083593921735883, -0.00015554475248791277, 0.011462016962468624, -0.002723048208281398], [0.0011997809633612633, -0.00178121670614928, -0.00901816412806511, -0.0014505076687783003, 0.00010993067553499714, 0.00630972208455205, 0.002549774944782257, 0.007313655689358711, -0.0012751728063449264, 0.002909224247559905, 0.0007726309122517705, -0.000977615942247212, -0.012191384099423885, 7.132648897822946e-05, -0.012178485281765461, 0.0015255145262926817], [-0.00024761297390796244, -0.006979415658861399, 0.0043771942146122456, -0.0014616631669923663, 0.00011477681255200878, -0.0037203168030828238, -0.009272025898098946, -0.00044098193757236004, 0.005905222147703171, 0.016551589593291283, -0.00127593579236418, 0.005467010196298361, -0.0289828609675169, 6.888873758725822e-05, 0.00807773508131504, 0.01632215455174446], [0.0006879941211082041, -0.006191804073750973, 0.018981166183948517, 0.00993017852306366, 0.00012380594853311777, 0.0012763736303895712, -0.007218607235699892, -0.008821769617497921, 0.001991604221984744, 0.0033026100136339664, -6.318619853118435e-05, 0.0019462385680526495, -0.010336427018046379, 2.584184221632313e-05, -0.004839335568249226, 0.0010962033411487937], [-0.0003452865348663181, -0.0019902687054127455, -0.003945718519389629, -0.0064553627744317055, -0.00012924005568493158, -0.0007276220712810755, 0.004771099891513586, 0.006172797176986933, -0.003497494850307703, 0.003755589947104454, -5.4825213737785816e-05, -0.0033111809752881527, -0.0017219153232872486, -3.0603896448155865e-05, 0.011933086439967155, 0.00038591824704781175], [-0.00013635536015499383, -0.006092214956879616, 0.004415114875882864, -0.012502811849117279, -6.363164720823988e-05, -0.005071443039923906, -0.006868297699838877, -0.006432131864130497, -0.000344053260050714, 0.011124277487397194, -0.00038783380296081305, -0.0004712742811534554, 0.0007216420490294695, -7.45013021514751e-05, 0.013287072069942951, 0.007873550988733768], [0.000211973165278323, 0.010071510449051857, -0.006184268277138472, -0.001502640196122229, 0.0001134114500018768, -0.002242887858301401, 0.0029105141293257475, 0.0029786783270537853, -0.00020271878747735173, 0.0034207399003207684, -6.932390533620492e-05, 8.225312194554135e-05, -0.002759219380095601, 7.554006879217923e-05, -0.002711152657866478, -0.004042637534439564], [-0.00058832170907408, -0.009094487875699997, 0.0013393035624176264, -0.0008509156759828329, -1.3800552551401779e-05, -0.008217978291213512, -0.01865127496421337, 0.0006573552964255214, 0.006782089360058308, 3.2969288440654054e-05, -0.0009818751132115722, 0.006064885761588812, -0.004204093478620052, -1.4057009138923604e-05, 0.003207947127521038, 0.007076694164425135], [0.0012505585327744484, -0.008822646923363209, -0.00018258362251799554, -0.018874825909733772, -4.565846757031977e-05, 0.01066495943814516, 0.016057884320616722, -0.0019730671774595976, -0.010494698770344257, 0.018715014681220055, 0.0013739920686930418, -0.00963435135781765, -0.007091420236974955, -0.00012421247083693743, 0.010165146552026272, 0.008187220431864262], [-0.0005599897122010589, 0.0017478569643571973, 0.006691426504403353, -0.0033035315573215485, -8.357097249245271e-05, -0.001467961585149169, -0.0013663090066984296, -0.014305747114121914, 0.0019466672092676163, 0.005791342351585627, -0.0006015368271619081, 0.0019038653699681163, 0.006396372336894274, -0.00017713896522764117, 0.0022058491595089436, 0.008753946982324123], [-0.0003129722608719021, 0.001296063419431448, -0.002119021490216255, -0.002321862615644932, 6.83829202898778e-05, 0.008118215948343277, 0.012493736110627651, -0.007395156659185886, -0.00010623959678923711, 0.007389371749013662, -8.205315680243075e-06, -1.2044994946336374e-05, -0.008758025243878365, 2.0454766854527406e-05, 0.0020183546002954245, 0.01419522799551487], [-0.0007325498736463487, -0.0033500308636575937, -0.01262284629046917, -0.0025681364350020885, -5.6355456763412803e-05, -0.0027989307418465614, -0.010198323987424374, 0.004113670904189348, 0.005491167772561312, -0.006580405868589878, -0.0008565214811824262, 0.004871285054832697, 0.0059753600507974625, -1.437482023902703e-05, -0.006930594798177481, 0.007608120329678059], [-0.0005244202329777181, 0.0011917748488485813, -0.00566152622923255, 0.00040915884892456234, 3.196314719389193e-05, -0.0011252155527472496, -0.0028953864239156246, 0.0008750433917157352, 0.003017361043021083, -0.0012504375772550702, -0.0005915442598052323, 0.0027302547823637724, -0.0003651775768958032, 4.6380759158637375e-05, -0.002722132718190551, 0.004684481769800186], [-0.00013859277532901615, -0.003176262369379401, -0.00862586684525013, -0.0017654566327109933, 5.2207553380867466e-05, -0.0009437497355975211, -0.00795669760555029, 0.0024004285223782063, 0.004400402307510376, -0.001252812915481627, -0.0004241444112267345, 0.003980638924986124, -0.0029495051130652428, 2.7014975785277784e-05, -0.006455502938479185, 0.007580706384032965]], "layer_1_biases": [0.07982325553894043, 0.020088007673621178, 0.04843604192137718, 0.004220634698867798, -0.01834588311612606, -0.02150992676615715, -0.009410114958882332, -0.01879897713661194, -0.010021679103374481, -0.046659018844366074, 0.050878360867500305, 0.028063714504241943, 0.036828141659498215, -0.05438373610377312, -0.14939981698989868, 0.02256273292005062], "layer_1_weights": [[0.0015818194951862097, -0.009316840209066868, -0.0030799151863902807, -0.006472298875451088, 8.053702913457528e-05, 2.4394361389568076e-05, -1.662258910073433e-05, 5.0941102927026805e-06, 0.008249645121395588, 0.015234127640724182, 0.0006437297561205924, -0.005176699720323086, 0.004647965542972088, 1.2951947610417847e-05, 0.002066834596917033, -0.01531700324267149], [-0.0012310583842918277, -0.001541859470307827, -0.010713345371186733, 0.0009353016503155231, -0.0001570765016367659, -0.00011594517854973674, -6.382518768077716e-05, -9.072500688489527e-05, 0.0014701971085742116, -0.012469829991459846, -0.0004769576480612159, -0.0005266861990094185, -0.0068917605094611645, -7.049333362374455e-05, -0.00016938938642852008, 0.009014693088829517], [0.000625263957772404, 0.0011158328270539641, -0.00436139153316617, -0.0004388238303363323, -1.926556979015004e-05, -0.0001552849425934255, -0.0001771138922777027, -0.00015400320990011096, 0.008130470290780067, -0.00044617781531997025, 0.00013869794202037156, 0.0037219843361526728, -0.0017464124830439687, -0.0001411331322742626, -0.019155366346240044, -0.001811833237297833], [0.0009306935244239867, 0.002200562506914139, 0.0037730166222900152, -0.00022166117560118437, 0.0001072985032806173, 8.432468166574836e-05, 6.069886148907244e-05, 6.553479033755139e-05, -0.0017881781095638871, 0.006489937659353018, 0.00039813510375097394, 0.005983247887343168, 0.0007818733574822545, 7.794436533004045e-05, -0.0024982565082609653, -0.009142974391579628], [-0.0004011218261439353, -0.015200607478618622, -0.0036318039055913687, -0.01864086650311947, 0.00011016652570106089, 0.0001452773722121492, 5.0783317419700325e-05, 8.030356548260897e-05, -0.011938976123929024, -0.0037435279227793217, -0.000977362273260951, -0.0026159619446843863, 0.01897308975458145, 7.292271038750187e-05, 0.021994663402438164, 0.0018499157158657908], [0.00040315240039490163, -0.00523339444771409, 0.015589309856295586, -0.004738558549433947, 8.276361768366769e-05, 9.169827535515651e-05, 4.339286533650011e-05, 6.892839883221313e-05, -0.0063987611792981625, 0.011657387018203735, -3.522301631164737e-05, -0.00021328369621187449, 0.020946718752384186, 2.302693246747367e-05, 0.009343503043055534, -0.002244899282231927], [-0.0003193018783349544, -0.007746139075607061, -0.012019253335893154, -0.005105235613882542, -0.00010355565609643236, -5.5504740885226056e-05, -2.8126287361374125e-05, -5.4805175750516355e-05, 0.004959676414728165, -0.004682754632085562, -1.795837852114346e-05, -0.0008297356544062495, -0.0004632017808035016, -3.252025635447353e-05, 0.000809976365417242, -0.00129792804364115], [-4.679452467826195e-05, -0.0035893672611564398, -0.005532409995794296, -0.008058156818151474, -6.272993778111413e-05, -6.72650639899075e-05, -6.873935490148142e-05, -5.775949830422178e-05, 0.0031524787191301584, -0.0013283963780850172, -0.0001517034397693351, -0.00910246279090643, 0.004376667086035013, -7.525210821768269e-05, -0.0002062306011794135, -0.0017718992894515395], [0.0005533847725018859, 0.008902006782591343, 0.004744228441268206, 0.004815325606614351, 0.00011973907385254279, 8.190236985683441e-05, 7.213185745058581e-05, 8.664870983920991e-05, -0.0020608187187463045, -0.0040619890205562115, 2.3043956389301457e-05, 0.005869953893125057, -0.00915196631103754, 8.648851508041844e-05, -0.01137168612331152, 0.007145213894546032], [-0.0007382227340713143, -0.010266263037919998, -0.004553439095616341, -0.007952777668833733, -2.4639801267767325e-05, -9.930610758601688e-06, -5.1425693527562544e-05, -2.6390262064523995e-05, -0.0032012569718062878, -0.000883295142557472, -0.0006738005904480815, -0.01417518500238657, 0.004994308575987816, -2.7411293558543548e-05, 0.024014245718717575, 0.0015716576017439365], [0.0008691643015481532, -0.0009912364184856415, -0.008064018562436104, -0.00803375244140625, -5.4213338444242254e-05, -0.00012974545825272799, -0.00014195127005223185, -0.00011706791701726615, 0.007785264402627945, 0.005984811577945948, 0.00021569647651631385, 0.006045709364116192, 0.010668748989701271, -0.00013438926544040442, -0.02452424354851246, -0.017632080242037773], [-0.00041821590275503695, 0.009837320074439049, 0.0028894413262605667, 0.0005819416837766767, -9.7945005109068e-05, -0.00012355257058516145, -0.0001544350088806823, -0.00011807789996964857, -0.0032715233974158764, -0.0053165932185947895, -0.0006386210443452001, -0.0013477371539920568, 0.001038299989886582, -0.00017580344865564257, -0.00908683892339468, 0.002951123984530568], [-0.000281446089502424, 0.0061805713921785355, -0.003887234255671501, -0.003171586664393544, 6.982815102674067e-05, 3.526385989971459e-05, 1.378023353026947e-05, 3.4769833291647956e-05, -0.007574759423732758, -0.007652323693037033, -0.0005847386200912297, 0.009561133570969105, 0.0038604361470788717, 2.670521462277975e-05, -0.009914161637425423, -0.0029733083210885525], [-0.0007464679656550288, 0.0004866407543886453, -0.009852041490375996, 0.0001478886406403035, -5.097980101709254e-05, -3.589411062421277e-05, -3.664914038381539e-05, -3.7686735595343634e-05, -0.002089699497446418, -0.004369966685771942, -0.00047096802154555917, -0.008829716593027115, -0.009045911021530628, -2.3333348508458585e-05, 0.016542263329029083, -0.002422136487439275], [-0.000501691538374871, 0.001466733287088573, -0.003643887583166361, 2.5743540390976705e-05, 3.947739241993986e-05, 2.1312060198397376e-05, 4.8727550165494904e-05, 3.012091838172637e-05, -0.003896045731380582, -0.0048520443961024284, -0.0004767666687257588, -0.00113195413723588, -0.0036915913224220276, 3.386626849533059e-05, 0.005399825517088175, 0.00159068638458848], [-0.0002682345802895725, 0.001303484314121306, -0.003187014488503337, -0.0019113535527139902, 5.8788231399375945e-05, 4.594851998263039e-05, 1.462321506551234e-05, 2.761468931566924e-05, -0.004745830781757832, -0.0016748815542086959, -0.00038445304380729795, -0.004662005230784416, -0.0030777957290410995, 2.5359362552990206e-05, 0.010540489107370377, -0.0030249198898673058]], "layer_2_biases": [0.11652591824531555, 0.014138255268335342, 0.023284750059247017, 0.013461087830364704, -0.022600673139095306, -0.04054073244333267, -0.08858116716146469, -0.024587834253907204, 0.03409848362207413, -0.05181768536567688, -0.0812208354473114, -0.05578799545764923, 0.005516453646123409, -0.01578150875866413, -0.1491372138261795, 0.05654146522283554], "layer_2_weights": [[0.0011997519759461284, -0.009809085167944431, 0.00044385818182490766, -0.015198247507214546, 8.641459135105833e-05, 0.009173625148832798, -0.010885102674365044, 1.433496322533756e-06, -0.0008315319428220391, -0.007061335723847151, 2.6847501430893317e-05, -9.538985977997072e-06, -0.006693954113870859, 0.008796037174761295, -0.0020016231574118137, 0.000521508336532861], [-0.0011479657841846347, 0.004995687399059534, 0.0007587591535411775, 0.001230373396538198, -0.0001538239885121584, 0.0005751185817644, 0.003674474311992526, -8.665069617563859e-05, 0.00015674270980525762, 0.004755987785756588, -8.25922834337689e-05, 0.0032100933603942394, 0.002953488379716873, -0.0006768979365006089, 0.008832049556076527, 0.0003173760778736323], [0.0006478033610619605, 0.0003911031817551702, 0.0008967598550952971, -0.0029739937745034695, 1.221652655658545e-05, -0.002577600535005331, -0.006143950391560793, -0.0001540937664685771, -0.0003652925952337682, -0.004680286161601543, -0.00018313401960767806, -0.0006864833412691951, -0.0006839811103418469, 0.0013629220193251967, -0.012990214861929417, 0.000830473902169615], [0.0007347512291744351, 0.0015099479351192713, 9.18580626603216e-05, -4.7005069063743576e-05, 0.00010254767403239384, 0.00306427082978189, -0.0159508865326643, 6.424121238524094e-05, -0.0010712906951084733, 0.0015646317042410374, 7.569366425741464e-05, -0.008511633612215519, -0.004659077152609825, 0.0037112957797944546, -0.00959242694079876, 0.00013390193635132164], [-0.0006577229360118508, -0.010759362950921059, -0.0004921581712551415, -0.015085527673363686, 8.216945570893586e-05, -0.0008881649118848145, 0.006098493002355099, 9.132345439866185e-05, 0.00021375500364229083, -0.026007944718003273, 9.11857932806015e-05, -0.017895525321364403, 0.017621422186493874, -0.00045706937089562416, 0.018494779244065285, -0.00028024165658280253], [0.0004213198844809085, -0.007685815449804068, -0.0006461974699050188, 0.0005971933715045452, 4.891649950877763e-05, -0.0019989991560578346, 0.004045647569000721, 5.2058374421903864e-05, -0.0004538619832601398, -0.013200092129409313, 5.801493171020411e-05, 0.0018245375249534845, 0.019969968125224113, -0.0047201174311339855, -0.011663917452096939, 0.00026419584173709154], [-0.0004633788485080004, -0.0005098116816952825, -9.911111555993557e-05, -0.007661590352654457, -8.844624244375154e-05, 0.005968951154500246, -0.006421663798391819, -4.222615825710818e-05, 0.0005364598473533988, -0.002655263291671872, -3.976627340307459e-05, 0.0014415491605177522, 0.0017538197571411729, 0.003489522961899638, 0.008996997959911823, -0.00025550666032359004], [3.804897642112337e-05, -0.007769492454826832, -0.0006551154074259102, -0.008215483278036118, -5.4293406719807535e-05, -0.010661321692168713, 0.01873101107776165, -5.829305882798508e-05, 0.0015180733753368258, -0.012364890426397324, -6.894498801557347e-05, 0.0010408462258055806, -0.0053873732686042786, -0.003160133957862854, 0.009909272193908691, -0.0004753257962875068], [0.0005185710615478456, 0.0008239521412178874, 0.0005204191547818482, 0.0023638680577278137, 0.00010790148371597752, -0.00348128704354167, 0.0006006690673530102, 8.75415134942159e-05, 0.00014134705998003483, 4.4082476051698904e-06, 5.884021084057167e-05, -0.009444418363273144, -0.0034995735622942448, 0.001556535018607974, -0.00927823968231678, 6.161495548440143e-05], [-0.0007097618072293699, -0.008280185982584953, 6.444298196583986e-05, -0.00989896897226572, -1.884973607957363e-05, 0.0011114246444776654, 0.020367156714200974, -2.442490767862182e-05, 0.0003933368716388941, -0.007223788183182478, -1.0186687177338172e-05, 0.0001956814230652526, 0.0009623816004022956, 0.00023830268764868379, 0.024761255830526352, 4.826513304578839e-06], [0.0007839792524464428, 0.000878817867487669, 0.0007998286746442318, -0.00565860653296113, -6.70089284540154e-05, -0.007847476750612259, -0.019670262932777405, -0.00013972526357974857, -0.0016327662160620093, -0.010296490974724293, -0.00016548567509744316, -0.0027182765770703554, -0.004695899784564972, -0.0008298986940644681, -0.018712041899561882, 0.0013117429334670305], [-6.949901580810547e-05, 0.0016626062570139766, 0.0005135771352797747, 0.006661377847194672, -0.0001490844297222793, -0.017309855669736862, 0.014658556319773197, -0.00014241244934964925, -0.00020019062503706664, -0.0024580820463597775, -0.0001567172585055232, -0.0033018861431628466, -0.007205641362816095, -0.007784200832247734, -0.0029631154611706734, 0.0005410976009443402], [-0.000283449626294896, 0.008936571888625622, 0.0006125806248746812, 0.005531408358365297, 4.640622137230821e-05, -0.009792391210794449, -0.011875192634761333, 2.9042605092399754e-05, -0.0014153021620586514, -0.0017262573819607496, -9.968519407266285e-06, -0.01425149105489254, -0.0008273907005786896, -0.004267886281013489, -0.007834836840629578, 0.000666423758957535], [-0.0007126027485355735, 0.002724457997828722, 0.0006214499589987099, -0.0015512501122429967, -2.9305805583135225e-05, 0.002204868709668517, 0.006998093333095312, -2.4625616788398474e-05, -0.0005336524918675423, 0.01073010265827179, -5.489064278663136e-06, -0.0007235444500111043, -0.01889096572995186, 0.0023427114356309175, 0.026286764070391655, 6.341995322145522e-05], [-0.00047016821918077767, 0.000975702190771699, -0.00018153288692701608, 3.394423401914537e-05, 4.095491749467328e-05, -0.0001957389322342351, 0.0035201888531446457, 4.078312122146599e-05, 0.0002559944987297058, 0.0025365822948515415, 1.0017273780249525e-05, -0.005131199490278959, -0.005054844077676535, 0.000702684570569545, 0.013062025420367718, -0.0004797274013981223], [-0.0003570432891137898, 0.0008823093958199024, 0.0008453975315205753, -0.001309109851717949, 5.9535846958169714e-05, -0.0011486087460070848, 0.0058119711466133595, 3.255815681768581e-05, -0.0009985070209950209, 0.00269369687885046, 1.4774863302591257e-05, -0.006263439543545246, -0.011211437173187733, 0.0009872156661003828, 0.013971403241157532, 0.0004483090015128255]], "layer_3_biases": [0.3385246694087982, 0.007491954602301121, 0.031201107427477837, -0.11444731801748276, -0.014783465303480625, 0.027725016698241234, 0.06356830894947052, -0.07235170900821686, 0.039914533495903015, -0.04093015193939209, -0.014670494012534618, -0.031329572200775146, 0.033658407628536224, 0.027252838015556335, -0.03433305397629738, 0.010776698589324951], "layer_3_weights": [[0.00045382141252048314, 0.01662755198776722, 0.0012038603890687227, -0.01244040671736002, 4.475093010114506e-05, -0.00543441716581583, -0.0038578712847083807, -7.63466323405737e-06, -0.0014354480663314462, 0.0200990941375494, 0.0015991205582395196, -2.114906965289265e-05, 0.0018966317875310779, -0.0006640960345976055, 0.007202748209238052, -0.009323089383542538], [-0.0006845174939371645, -0.010257070884108543, 0.0009303020779043436, 0.006729133427143097, -0.00012747383152600378, -0.0002916333032771945, -0.002553479513153434, -9.052050154423341e-05, -0.0003169165283907205, -0.007779069244861603, -0.0012687499402090907, -8.419688674621284e-05, 0.0009279291843995452, -1.3638434211316053e-05, -0.0005855329218320549, 0.009276903234422207], [0.0004183301061857492, 0.0025782783050090075, 0.0003382677386980504, -0.002867598319426179, -9.854303789325058e-05, 0.00010037090396508574, -0.007182450499385595, -0.00014573548105545342, 0.0003041265590582043, 0.005195303820073605, -0.001731768250465393, -0.0001426019734935835, -0.00019206631986889988, 8.833081665216014e-05, 0.0061116330325603485, 0.0010158132063224912], [0.00037510928814299405, 0.004672258626669645, 0.00042496531386859715, 0.00291954237036407, 8.292876736959442e-05, 0.005268641747534275, -0.011510935612022877, 6.304095586529002e-05, -0.001403394853696227, 0.011195440776646137, 0.005919273477047682, 6.058859435142949e-05, 0.0007468003313988447, -0.0003705135313794017, 0.003489171853289008, -0.00033272584551014006], [-0.00022608324070461094, -0.00424996018409729, -0.0001858824834926054, 0.02104906179010868, 9.748189040692523e-05, 0.0004956931225024164, -0.009205290116369724, 9.314990893471986e-05, -0.0003680255904328078, 0.010832606814801693, 0.0009605655795894563, 8.632758544990793e-05, 0.0006539737805724144, -0.0007629214669577777, -0.03219693526625633, -0.005675100721418858], [0.00012470694491639733, 0.0038257278501987457, -0.0009421393624506891, -0.007198214065283537, 7.970932347234339e-05, 0.0021058476995676756, 0.009291086345911026, 6.187019607750699e-05, -4.49112594651524e-05, 0.005425089970231056, -0.00400330126285553, 5.208457150729373e-05, 0.0001721852459013462, -0.0003435785765759647, -0.013337523676455021, -0.011267248541116714], [-0.0003581704222597182, -0.004241747781634331, -0.0003025094629265368, 0.00119657046161592, -7.053434092085809e-05, -0.0013091042637825012, -0.004917812533676624, -4.346937930677086e-05, 0.0006431773072108626, 0.005785242188721895, 0.0008249960374087095, -3.829968045465648e-05, -0.00040189747232943773, 0.00020076139480806887, 0.0013294441159814596, 0.0018173273419961333], [0.00018409188487567008, 0.00888835545629263, -0.0002884324931073934, -0.004360598511993885, -4.368180452729575e-05, -0.010057254694402218, 0.012927481904625893, -5.839673394802958e-05, 0.0013882654020562768, -0.007433304563164711, -0.0071401349268853664, -6.777366797905415e-05, -0.0007148943259380758, 0.00022213126067072153, -0.0024902864824980497, -0.008928792551159859], [0.0006358093814924359, -0.001479974016547203, 0.0010126522975042462, 0.010158630087971687, 7.911884313216433e-05, 0.003712670411914587, -0.014339125715196133, 8.265745418611914e-05, -0.0006192694418132305, 0.0010478162439540029, 0.0034727598540484905, 7.135600026231259e-05, 0.00031974943703971803, 9.090065759664867e-06, -0.0037390515208244324, 0.006207006983458996], [-0.0004062645020894706, 0.002998331096023321, 0.0011776317842304707, 0.0009877682896330953, -1.226763561135158e-05, -0.010497515089809895, 0.011249739676713943, -2.6889103537541814e-05, -0.0008256588480435312, -0.0026202471926808357, -0.003671423066407442, -3.332687265356071e-05, 0.001926817581988871, -0.0007773938123136759, -0.013846109621226788, -0.006041490938514471], [0.00020739695173688233, 0.01378844864666462, 0.0010202230187132955, -0.008640666492283344, -0.00010894750448642299, -0.00018741688109003007, -0.007333762943744659, -0.00013484789815265685, -0.0015775096835568547, 0.007600286044180393, -0.003459068713709712, -0.00015072499809321016, 0.0016755122924223542, -0.0002054943615803495, 0.01616249792277813, -0.006813040003180504], [0.0002164037578040734, 0.005181518848985434, -3.0338060241774656e-05, 0.002270148601382971, -0.00014940898108761758, -0.00328228622674942, 0.009182944893836975, -0.00014140456914901733, 0.0006431624060496688, -0.01791156642138958, -0.00544361537322402, -0.0001187647067126818, -0.0006261456292122602, 0.00025644662673585117, 0.0012211200082674623, -0.004009614698588848], [-0.00014910995378158987, -0.0029788652900606394, 0.0012037592241540551, 0.014586848206818104, 1.7527489035273902e-05, 0.006541973911225796, -0.014706333167850971, 2.6949344828608446e-05, -0.00209051207639277, -0.003597186878323555, 0.0022255724761635065, 1.7732481865095906e-05, 0.0016339622670784593, -0.00041761432657949626, -0.0006192763685248792, 0.004056599922478199], [-0.0003699468506965786, 0.002523789182305336, 0.0002026526053668931, 0.003927730489522219, -3.5178065445506945e-05, -0.0066888416185975075, 0.007673186250030994, -2.665214014996309e-05, 0.00011247935617575422, -0.008598691783845425, 0.0026569096371531487, -1.8114242266165093e-05, -0.00013038549514021724, 2.9640495995408855e-05, 0.0060368194244802, 0.00023972253256943077], [-0.00010557663335930556, -0.001961240777745843, -0.0009720896487124264, 0.00831616297364235, 5.292321293381974e-05, -0.001146641094237566, 0.0009298215736635029, 3.297149305581115e-05, 0.0012076323619112372, -0.0040741488337516785, 0.0025443595368415117, 5.616465932689607e-05, -0.0015671500004827976, 0.0003746096626855433, -0.0019433842971920967, 0.0007816477445885539], [-9.036697883857414e-05, 0.0035419827327132225, 0.00021373787603806704, 0.006697965320199728, 3.2346113584935665e-05, -0.00419576233252883, 0.0032440407667309046, 2.6408109988551587e-05, -0.00012945302296429873, -0.003960737492889166, 0.0019183323020115495, 3.301971446489915e-05, 6.0640622905339114e-06, -0.0001314654655288905, -0.000651771028060466, -0.0011220929445698857]], "layer_4_biases": [0.32709938287734985, -0.03336196020245552, -0.008710084483027458, -0.012211278080940247, -0.03437760844826698, 0.06414588540792465, -0.10486418008804321, -0.15583182871341705, -0.042930930852890015, 0.007827765308320522, 0.016774827614426613, 0.003566205035895109, -0.02799997478723526, 0.023346131667494774, -0.024219676852226257, 0.030994903296232224], "layer_4_weights": [[-0.0005031567416153848, 0.01634269766509533, 0.01036133710294962, -0.009594083763659, -7.917391485534608e-06, -0.0012557368027046323, -0.023568401113152504, -2.2948423065827228e-05, -0.003679854329675436, -0.008005436509847641, -0.0032688784413039684, -0.010630232281982899, 0.013776437379419804, -0.0006014693062752485, 0.0010075884638354182, -0.005326571874320507], [6.912376557011157e-05, -0.010693900287151337, -0.01193967740982771, 0.011870693415403366, -0.00010530537110753357, -0.00042123085586354136, 0.011553733609616756, -0.00010757703421404585, 0.008226160891354084, 0.012162561528384686, -0.00042320784996263683, -0.0005318722105585039, 0.0013456041924655437, -0.000280058040516451, 0.018226351588964462, 0.002890444127842784], [0.00022695203369949013, 0.0054019358940422535, -0.003089857054874301, 0.0030718385241925716, -0.00012314596096985042, 0.0004421106423251331, -0.012476525269448757, -0.00014103211287874728, 0.008574304170906544, 0.0061881099827587605, 5.691337719326839e-06, -0.0027127957437187433, 0.005016246344894171, 8.329341653734446e-05, 0.014320487156510353, 0.00018204828666057438], [-0.0003139088221359998, 0.010948700830340385, 0.006837471853941679, -0.001536202966235578, 7.381709292531013e-05, -0.0011212375247851014, -0.011032674461603165, 6.790229235775769e-05, -0.01054184976965189, -0.005149646196514368, 0.0027384296990931034, 0.0033430445473641157, 0.0022498308680951595, -0.0003972829144913703, -0.020483314990997314, 0.005227986723184586], [-7.445758092217147e-05, 0.009226461872458458, -0.0186570193618536, -0.009592476300895214, 0.00010497382027097046, -0.0002785917022265494, 0.004812999628484249, 0.00011303543578833342, 0.009248016402125359, -0.017651362344622612, 0.00014149749767966568, 0.001165271271020174, 0.0007655847584828734, -0.00018793027265928686, -0.015650499612092972, -0.008529775775969028], [-3.800047124968842e-05, -0.0051546283066272736, 0.0036137511488050222, -0.017928915098309517, 7.366303907474503e-05, 0.00018437518156133592, -0.00044148543383926153, 7.245443703141063e-05, -0.007600915152579546, -0.01766016148030758, 0.0013262410648167133, 0.0050124223344028, -0.01350304763764143, 0.00025740021374076605, -0.02730151265859604, -0.006471465341746807], [3.7396977859316394e-05, -0.005072884261608124, -0.010380136780440807, 0.0033069439232349396, -5.1896106015192345e-05, 0.000288909679511562, -0.00017983927682507783, -5.065414006821811e-05, 0.005419679917395115, 0.0019110941793769598, -0.000883075874298811, -0.0040810308419167995, 0.004246878437697887, 2.2788357455283403e-05, 0.014250866137444973, -0.0024116875138133764], [6.55867625027895e-05, 0.0066918800584971905, -0.005313772242516279, -0.0004514759930316359, -5.058984606876038e-05, 0.0003279017983004451, -0.00046170642599463463, -5.527229586732574e-05, 0.012587708421051502, -0.00046031229430809617, -0.006021276582032442, -0.008797528222203255, 0.012052686884999275, -2.9278377041919157e-05, 0.019193308427929878, -0.009638430550694466], [0.0003153837169520557, 0.014460427686572075, 0.001507531269453466, 0.004001110326498747, 8.255787543021142e-05, -0.0006378928665071726, -0.006289307028055191, 7.933036977192387e-05, 0.007266221102327108, 0.009885760024189949, 0.0021258804481476545, 0.001665031653828919, 0.0005143927410244942, -0.00017733713320922107, -0.004229449667036533, 0.0040042586624622345], [-0.00025353097589686513, 0.002794085070490837, -0.0015980215976014733, -0.005337024573236704, -1.9801616872427985e-05, -0.001204906264320016, 0.006703369319438934, -2.0920864699291997e-05, 0.005991033278405666, -0.005759330932050943, -0.006024543661624193, -0.009110145270824432, 0.006294728256762028, -0.0006978610181249678, 0.008634877391159534, -0.007948103360831738], [-0.00013649175525642931, 0.003854196984320879, -0.004993123468011618, 0.0030400294344872236, -0.00011927466402994469, -0.0007192722405306995, -0.013606667518615723, -0.00012831231288146228, -0.0045903767459094524, -0.004725769627839327, 2.4513990865671076e-05, -0.001040796167217195, 0.014985913410782814, -0.0003361031413078308, 0.006649884860962629, -0.0006146306986920536], [0.00038296921411529183, 0.002918014070019126, -0.00252991053275764, 0.005095499102026224, -0.00016519981727469712, 0.00023103774583432823, 0.00808727741241455, -0.0001541560050100088, 0.003462213324382901, 0.0037306630983948708, -0.0020414995960891247, 0.0012629310367628932, 0.0048441230319440365, 4.537711902230512e-06, 0.010203400626778603, -0.0019556742627173662], [0.00034947259700857103, -0.0003355354710947722, -0.011308467015624046, 0.008741633966565132, 2.4374267013627104e-05, -0.0003658574423752725, 0.007913396693766117, 3.106147050857544e-05, -0.005949805490672588, -0.002210278296843171, 0.004034715238958597, 0.009039178490638733, 0.0006792772328481078, -0.0002050969924312085, -0.004938474390655756, 0.007137809414416552], [-0.00022158915817271918, 0.002971275942400098, 0.00031325442250818014, 0.007506838068366051, -4.6777870011283085e-05, -0.00036131191882304847, 0.009423078037798405, -3.5371082049096e-05, -0.003349404316395521, 0.0019466807134449482, -0.003969885874539614, -0.0049905925989151, 0.01213966403156519, -0.0003329151077196002, 0.014960108324885368, 0.0003105050418525934], [0.0001973699254449457, 0.0010087316622957587, -0.004275056067854166, 0.0037138708867132664, 4.2492309148656204e-05, 0.0010332323145121336, 0.008036680519580841, 2.96783255180344e-05, 0.0014724917709827423, -0.0009061394957825541, -0.0007030242122709751, 0.0003084029885940254, 0.002456901827827096, 0.00038137022056616843, 0.011642258614301682, -8.811803127173334e-05], [-0.00010229286999674514, 0.007810233626514673, 0.000585264409892261, 0.0033032172359526157, 1.703764974081423e-05, -0.00019485584925860167, 0.005398391280323267, 1.755147968651727e-05, -0.002001527464017272, -0.0017186388140544295, -0.0021657757461071014, -0.0019356153206899762, 0.007876668125391006, -0.00022136593179311603, 0.007283484563231468, 0.000580827530939132]], "output_biases": [0.9728156328201294, 0.01300670113414526], "output_weights": [[1.1693509817123413, -0.031504999846220016], [1.1740782260894775, 0.34494367241859436], [0.5292633771896362, 0.29099419713020325], [-1.3347944021224976, 0.3035292327404022], [0.9521260857582092, -0.08184155821800232], [0.26522138714790344, -0.191711887717247], [0.7808510661125183, -0.6948943734169006], [0.8160051107406616, -0.10923488438129425], [0.5554712414741516, -0.34355229139328003], [0.9810594916343689, 0.4744150936603546], [-0.5403531789779663, -0.11800109595060349], [0.6202003359794617, -0.2584885060787201], [-0.3354768455028534, 0.3896290063858032], [0.025109412148594856, -0.07719485461711884], [0.32015249133110046, -0.9516582489013672], [0.600080668926239, 0.2830548882484436]]}, "hk_disentangled_rnn/~update_latents/update_net_2": {"input_biases": [-0.0034793938975781202, 0.049244225025177, -0.12608501315116882, -0.12253126502037048, 0.25817403197288513, -0.09545136243104935, 0.02717159129679203, -0.09335710853338242, -0.08097522705793381, -0.08847904205322266, 0.07461590319871902, 0.10650553554296494, -0.37104201316833496, -0.03776156157255173, 0.06005886569619179, -0.10471127927303314], "input_weights": [[-0.3390979766845703, 0.6881200671195984, 0.48638492822647095, 0.5829087495803833, -0.093941830098629, 0.7775641083717346, 0.18855546414852142, 0.7026619911193848, 0.8556166887283325, 1.2867869138717651, -0.6851657629013062, -0.5479357242584229, -0.007275344803929329, 0.09183228015899658, -0.7450038194656372, -0.004757682792842388], [-0.09127563238143921, -0.20998510718345642, -0.25536009669303894, 0.015880899503827095, -0.42080140113830566, 0.037974607199430466, -0.0257504191249609, 0.0910005047917366, -0.4339311718940735, 0.1452871412038803, 0.919987142086029, -0.0889030247926712, 0.7146918773651123, 0.5972940325737, 0.32887619733810425, 0.1668451875448227], [-0.1380007266998291, -0.314436674118042, -0.30191829800605774, -0.7186295986175537, 0.5358866453170776, -0.45022737979888916, -0.15412822365760803, 0.34154212474823, 0.18435204029083252, 0.42801758646965027, -0.05286595597863197, -0.7739862203598022, 0.049318086355924606, 0.3908507823944092, 0.028567051514983177, 0.007773003075271845], [-0.8738418221473694, 0.021184202283620834, -0.40862733125686646, -0.36467716097831726, 0.08789931237697601, 0.16129286587238312, -0.3235834538936615, 0.014380188658833504, 0.028726164251565933, 0.17043209075927734, -0.3428117334842682, -0.08054868876934052, -0.4865979254245758, -0.061272941529750824, 0.3929516673088074, 0.17819219827651978], [0.5085073113441467, -0.04534539952874184, -0.8815029859542847, 0.2398671805858612, 0.24193835258483887, -0.07901187986135483, -0.19053295254707336, 0.6952289938926697, 0.048139605671167374, -0.4785621166229248, -0.07900209724903107, 0.5089950561523438, -0.2502846121788025, 0.3930171728134155, 0.2241739183664322, 0.02785835601389408], [0.4434373378753662, -0.024074874818325043, -0.11596743017435074, -0.33258888125419617, -0.11852071434259415, -0.03064521588385105, 0.2791045010089874, 0.2905372977256775, 0.2266836315393448, -0.4715080261230469, 0.5152348279953003, 0.39442920684814453, -0.18108968436717987, -0.23344150185585022, -0.12370814383029938, 0.2089911550283432], [0.7009845972061157, -0.4099775552749634, -0.10355200618505478, -0.18318650126457214, -0.6583390831947327, -0.13949908316135406, -0.2427731603384018, 0.039728324860334396, 0.9828436970710754, -0.12277412414550781, -0.5447906255722046, 0.6770633459091187, 0.03355303406715393, 0.32797831296920776, -0.39145466685295105, -0.4552948772907257]], "layer_0_biases": [-0.02908683754503727, -0.009144417941570282, -0.02324707619845867, -0.043248627334833145, -0.08484247326850891, -0.040036190301179886, 0.038479018956422806, -0.0315026231110096, -0.12102655321359634, -0.041336558759212494, 0.09368358552455902, 0.11324244737625122, -0.23579467833042145, -0.004496534820646048, 0.10229355096817017, -0.0765228271484375], "layer_0_weights": [[-1.4888397345202975e-05, 2.1947767891106196e-05, 8.10527490102686e-06, -1.0245019439025782e-05, 3.2229228963842615e-05, 0.00015011354116722941, 0.00021218943584244698, 0.00018555502174422145, -0.00011491067562019452, 7.283842569449916e-05, 0.00026622795849107206, 0.0003191352589055896, 3.053320324397646e-05, -1.6330088783433894e-06, 0.00027681412757374346, 8.34729871712625e-05], [8.29672262625536e-06, -1.457706639484968e-05, -3.7243342376314104e-05, -2.0609995772247203e-06, -4.1698447603266686e-05, -0.00011006413114955649, -0.00024825529544614255, -0.00014570927305612713, 0.00013783227768726647, -5.081592462374829e-05, -0.0002486164157744497, -0.00015727397112641484, 7.940676005091518e-05, 4.558503860607743e-05, -0.00021133745030965656, -6.856680556666106e-05], [-2.112057927661226e-06, -9.569063695380464e-05, -0.00024144923372659832, 5.0571889005368575e-05, -6.209385901456699e-05, -0.0001993196055991575, 0.00013525391113944352, -0.00018792097398545593, 6.826656317571178e-06, -0.0001901034265756607, -0.00037362304283306, -2.5584375180187635e-05, 1.2642453839362133e-05, 4.2896874219877645e-05, -0.00026690991944633424, -0.00012137925659772009], [-1.628966310818214e-05, 7.983112482179422e-06, -8.620422158855945e-05, -6.225358083611354e-05, -5.343763768905774e-05, -2.5522251235088333e-05, 0.00039487730828113854, -5.16742147738114e-05, 0.00017300184117630124, -2.8435031708795577e-05, -7.899617776274681e-05, 8.931377669796348e-05, 7.695487147429958e-05, 2.3737831725156866e-05, 1.7095018847612664e-05, -6.658645725110546e-05], [0.00012146566587034613, -0.00011904108396265656, 0.00013807034702040255, 0.0001260309509234503, -0.00012847674952354282, 4.347809590399265e-05, 0.0005366319674067199, 5.498300743056461e-05, -9.191589924739674e-06, 1.7553951693116687e-05, -5.082719781057676e-06, -0.00022017037554178387, -7.810586248524487e-05, -4.277314019418554e-06, -0.0001331761450273916, 9.894627874018624e-05], [-7.70186452427879e-05, 7.129323057597503e-05, -6.860933353891596e-05, 9.954339475370944e-06, 5.398890789365396e-05, -0.00015060520672705024, -0.0002878724772017449, -0.00010598330845823511, 1.2090191603419953e-06, -7.853056013118476e-05, -0.00021662452491000295, -0.00010512671724427491, 4.049901690450497e-05, 5.177811544854194e-05, -0.00015752554463688284, 5.055988731328398e-05], [-0.00012439048441592604, 0.00011438143701525405, -1.7768235920812003e-05, 7.408133387798443e-05, 1.4296030713012442e-05, -2.6328276362619363e-05, -0.0003939121961593628, -7.417712367896456e-06, -3.323030614410527e-05, -0.00010272649524267763, -0.00023455411428585649, 0.00020441494416445494, 6.750378088327125e-05, 1.8219418052467518e-05, -3.762971391552128e-05, -6.963787018321455e-05], [-4.1091476305155084e-05, 4.4378790335031226e-05, 1.5067591448314488e-05, 2.5094324882957153e-05, 2.4273283997899853e-05, -5.306014645611867e-05, -0.00023807860270608217, -2.402455356786959e-05, -1.2208214684505947e-05, -0.00010108613059855998, -0.00012245881953276694, 2.6989429898094386e-05, 5.7444114645477384e-05, 4.6014632971491665e-05, -5.370644430513494e-05, 3.9950646169018e-05], [-0.00019723220611922443, 0.00018895512039307505, -0.00021042565640527755, -0.00016954603779595345, 1.6066123862401582e-05, -0.00010954859317280352, -0.00013668097381014377, -0.00016909254190977663, 2.7654763471218757e-05, -2.4318622308783233e-05, 1.9796250853687525e-05, 2.5825460397754796e-05, 5.0255635869689286e-05, 2.2064979930291884e-05, 8.933207027439494e-06, -0.00012127785157645121], [-0.00015756393258925527, 0.00015182777133304626, -0.00021043258311692625, -0.00014205729530658573, -1.811329275369644e-05, 8.797076588962227e-06, -0.0002008839655900374, 3.6114292015554383e-05, -1.3486820535035804e-05, -4.333178367232904e-05, -0.00017898592341225594, -6.0365731769707054e-05, -1.891886131488718e-05, -1.625482582312543e-05, -0.00013494957238435745, 4.551216261461377e-05], [-4.31133339588996e-05, 3.37828641931992e-05, -2.6377063477411866e-05, 1.4269681742007378e-05, 6.758637755410746e-05, 3.860390279442072e-05, 0.00012620848428923637, 4.086631815880537e-05, 4.1120081732515246e-05, -5.926998346694745e-05, -2.252720332762692e-05, 3.518139692459954e-06, -4.4507683924166486e-05, -1.6857236914802343e-05, -3.0703395168529823e-05, 1.3059625416644849e-05], [3.844998718705028e-05, -3.271730383858085e-05, 5.492453055921942e-05, 1.3795373888569884e-05, 4.334606273914687e-05, 0.00021785424905829132, -0.00037104147486388683, 0.00023415390751324594, -0.0001260646531591192, 0.00015244749374687672, 0.0002686769003048539, 0.00018662968068383634, -2.7959356884821318e-05, -8.345067726622801e-06, 0.00022538563644047827, 8.979175618151203e-05], [-2.3497657821280882e-05, 1.8329945305595174e-05, -4.310244548832998e-05, -5.416028216131963e-05, 5.372544183046557e-05, -9.538458834867924e-05, 0.0009220491047017276, -0.00010131613089470193, 6.500665040221065e-05, -6.103629129938781e-05, -0.00012893870007246733, 0.00012665652320720255, -1.3650855180458166e-05, 1.8361039110459387e-05, -1.9422301193117164e-05, 1.3627265616378281e-05], [-5.437648724182509e-05, 5.560037971008569e-05, -3.4748081816360354e-05, -5.095182859804481e-05, -4.507585254032165e-05, -8.1410507846158e-06, 0.0003510088718030602, -9.827310350374319e-06, -4.3120224290760234e-05, -7.656407979084179e-05, 2.1228492187219672e-05, 0.00012745281856041402, 8.261841867351905e-05, 1.0349844160373323e-05, 5.667088407790288e-05, 1.730268559185788e-05], [0.0002354033204028383, -0.00021803569688927382, 0.0003057166177313775, 0.000183399926754646, 4.6689056034665555e-05, 9.291304013459012e-05, -0.0001812940463423729, 0.00018103419279213995, -7.136731710488675e-06, 2.8132852094131522e-05, 0.00011389169230824336, -0.00011743332288460806, -7.290671055670828e-05, -3.6898003600072116e-05, -4.12199879065156e-05, 0.00016939676424954087], [2.7387406589696184e-05, -3.649877180578187e-05, -1.914560198201798e-05, 9.932093234965578e-06, 6.452317029470578e-05, 7.946891128085554e-05, -0.00016712513752281666, 7.409433601424098e-05, -3.4577318729134277e-05, -7.854589057387784e-05, -0.00015076161071192473, 9.276290802517906e-05, -5.636400237563066e-05, -5.409679488366237e-06, 0.00032642524456605315, 6.68719076202251e-05]], "layer_1_biases": [-0.0579892061650753, 0.11856083571910858, -0.022944889962673187, -0.055780887603759766, -0.006964222993701696, -0.031320709735155106, 0.2763577401638031, -0.030633779242634773, -0.07827073335647583, -0.03993447124958038, 0.10854454338550568, -0.033150460571050644, -0.1672622263431549, -0.0076120467856526375, 0.07070744782686234, -0.02788674458861351], "layer_1_weights": [[-1.4571068277291488e-05, 0.000237541418755427, 8.369792340090498e-06, -1.0255289453198202e-05, 3.0477900509140454e-05, 0.00015021360013633966, 0.00020995247177779675, 0.0001856069138739258, -0.00011415022891014814, 7.282280421350151e-05, 0.00026466051349416375, -6.074150951462798e-05, 2.9990364055265673e-05, 2.4806849978631362e-05, 0.00027675044839270413, 8.233884000219405e-05], [8.056158549152315e-06, -0.00020812024013139307, -3.740222018677741e-05, -2.405614395684097e-06, -4.1226147004636005e-05, -0.00010980581282638013, -0.00024601578479632735, -0.00014551359345205128, 0.00013708775804843754, -5.07986442244146e-05, -0.00024760887026786804, 1.1806519978563301e-05, 7.89426703704521e-05, -5.507493824552512e-06, -0.0002127884654328227, -6.833480438217521e-05], [-3.4133136068703607e-06, -0.00021492318774107844, -0.00024122519243974239, 5.059039904153906e-05, -6.194825255079195e-05, -0.000199372079805471, 0.00013454155123326927, -0.0001878366165328771, 7.1523309088661335e-06, -0.00018981762696057558, -0.0003737460356205702, 6.090024908189662e-05, 1.2442593288142234e-05, -0.00011871818423969671, -0.00026844031526707113, -0.00012111339310649782], [-1.6841155229485594e-05, -2.4865783416316845e-05, -8.682612678967416e-05, -6.315659265965223e-05, -5.3171384934103116e-05, -2.546663563407492e-05, 0.00039724973612464964, -5.111888094688766e-05, 0.0001728879869915545, -2.7860767659149133e-05, -7.776789425406605e-05, 0.00016196978685911745, 7.648891187272966e-05, 3.600423224270344e-05, 1.5817684470675886e-05, -6.670291622867808e-05], [0.0001205342123284936, -0.00012617927859537303, 0.00013649673201143742, 0.00012899312423542142, -0.0001280454162042588, 4.432544665178284e-05, 0.0005362439551390707, 5.489187969942577e-05, -1.0617004591040313e-05, 1.6548381609027274e-05, -5.178195351618342e-06, -2.133972884621471e-05, -7.810151146259159e-05, -0.0001278586860280484, -0.00013067883264739066, 0.00010146568820346147], [-7.705679308855906e-05, -0.00016671336197759956, -6.846519681857899e-05, 9.91898741631303e-06, 5.505498847924173e-05, -0.00015065503248479217, -0.0002842048415914178, -0.00010621884575812146, 3.5067973840341438e-06, -7.806791109032929e-05, -0.00021475965331774205, 1.2735440577671397e-05, 3.996511804871261e-05, 3.083100455114618e-05, -0.00015931192319840193, 5.052051710663363e-05], [-8.69153518578969e-05, -8.870367310009897e-05, -9.130957187153399e-05, -0.00013941772340331227, 1.5199317431324744e-06, -1.2814676892958232e-06, -0.00046578075853176415, -5.01473004987929e-05, 7.009956607362255e-05, -2.398525430180598e-05, -0.00019619762315414846, 5.723540380131453e-05, 6.715441850246862e-05, 0.0001033209846355021, -0.00010621829278534278, -0.0001302279270021245], [-4.105380503460765e-05, -9.42827173275873e-05, 1.5167142009886447e-05, 2.5067869501071982e-05, 2.596034755697474e-05, -5.314718509907834e-05, -0.00023528235033154488, -2.3984948711586185e-05, -1.026158770400798e-05, -0.00010083991219289601, -0.0001203720603371039, 2.6403000447317027e-05, 5.693240018445067e-05, 1.2709771226582234e-06, -5.4824788094265386e-05, 3.978251334046945e-05], [-0.00019813615654129535, 1.7882521206047386e-05, -0.000209292586077936, -0.00016851701366249472, 2.015658719756175e-05, -0.00010923726222245023, -0.00013552041491493583, -0.00016909233818296343, 2.76795635727467e-05, -2.5316383471363224e-05, 1.9113784219371155e-05, 1.6440597391920164e-05, 4.982947211829014e-05, 0.00022097895271144807, 5.717796739190817e-06, -0.0001210024711326696], [-0.0001581143296789378, -0.0001688860502326861, -0.00021021123393438756, -0.00014165317406877875, -2.0498215235420503e-05, 8.85043391463114e-06, -0.0001916534238262102, 3.6112163797952235e-05, -1.4633610589953605e-05, -4.32628694397863e-05, -0.00017391510482411832, 0.000104326187283732, -1.8151173208025284e-05, 0.00016000524919945747, -0.00013735693937633187, 4.537749191513285e-05], [-3.754812860279344e-05, -2.293357283633668e-05, -8.422243809036445e-06, -2.1827114323969e-05, 4.486215766519308e-05, 3.63696672138758e-05, 0.00010707743058446795, 4.620366598828696e-05, 3.0280605642474256e-05, -1.8742861357168294e-05, -9.176544153888244e-06, 1.5649500255676685e-06, -2.9043974791420624e-05, 4.880575943388976e-05, -1.9780662114499137e-05, -1.3009674148634076e-05], [6.808339094277471e-05, 0.00027826213045045733, 9.666224650572985e-05, 0.00013489833509083837, 2.4737721105339006e-05, 0.00023525874712504447, 9.081950702238828e-05, 0.0002361339284107089, -0.00013762927846983075, 6.53077004244551e-05, 0.0004193428612779826, -6.185596430441365e-05, -1.2764274288201705e-05, -0.00010552661115070805, 0.0003394872765056789, 0.00032964025740511715], [-2.346295877941884e-05, -1.561111639603041e-05, -4.2684219806687906e-05, -5.6462667998857796e-05, 5.741614586440846e-05, -9.469937504036352e-05, 0.0009261106606572866, -0.00010204723366769031, 6.629333074670285e-05, -5.895199501537718e-05, -0.00012818688992410898, 7.114870095392689e-05, -1.360371334158117e-05, 2.397162825218402e-05, -1.900365896290168e-05, 1.32209361254354e-05], [-5.453078847494908e-05, 3.751251279027201e-05, -3.478029975667596e-05, -5.066720041213557e-05, -4.49299332103692e-05, -8.017719665076584e-06, 0.00035623571602627635, -9.739377674122807e-06, -4.3706982978619635e-05, -7.641851698281243e-05, 2.470634899509605e-05, 3.0020029953448102e-05, 8.215982234105468e-05, 4.9050617235479876e-05, 5.665882781613618e-05, 1.728006827761419e-05], [0.0002481438859831542, 5.587204941548407e-05, 0.00023019961372483522, -0.0001182501800940372, 3.6624107451643795e-05, 0.00012174722360214218, -0.00012649082054849714, 0.00014459415979217738, 3.1411886993737426e-06, 9.240795770892873e-05, 0.00016106432303786278, -7.165700662881136e-05, -6.437593401642516e-05, -0.00016009612591005862, 7.030221604509279e-05, 0.00011798037303378806], [3.286779974587262e-05, 0.0003875677357427776, -9.662226148066111e-06, -1.4727546613357845e-06, 6.424049206543714e-05, 7.714895764365792e-05, -0.00016749606584198773, 7.535523036494851e-05, -3.937670771847479e-05, -7.558734796475619e-05, -0.00013812328688800335, -1.3795139238936827e-05, -5.626638449029997e-05, -5.157919440534897e-05, 0.0003381238493602723, 6.284076516749337e-05]], "layer_2_biases": [-0.02051434852182865, -0.025662735104560852, -0.21670740842819214, -0.08203186094760895, -0.011542275547981262, -0.030314525589346886, 0.08057854324579239, -0.029972998425364494, -0.007888372987508774, -0.0371246300637722, 0.16788935661315918, 0.1142573356628418, -0.1309606283903122, 0.06798314303159714, 0.11288651823997498, -0.027778256684541702], "layer_2_weights": [[-1.4138088772597257e-05, -1.0001965165429283e-05, 8.844136573316064e-06, -1.0486880455573555e-05, 3.1193932954920456e-05, 0.00015055078256409615, 0.00020758215396199375, 0.0001858467294368893, -0.00010571810707915574, 7.296552212210372e-05, 0.0002624190237838775, 0.00032402630313299596, 2.9346978408284485e-05, 0.00024637606111355126, 0.0002752489235717803, 8.106541645247489e-05], [-6.783544085919857e-05, 4.6356541133718565e-05, -4.1501432860968634e-05, 2.4591814508312382e-05, -1.0959220162476413e-05, -0.00012890972720924765, -0.000485366239445284, -9.041814337251708e-05, -0.0001440598425688222, -6.587868847418576e-05, -0.00016410721582360566, -0.00011596723925322294, 8.732464630156755e-05, -0.0001318628783337772, -0.00013113229942973703, 3.2388317777076736e-05], [-4.7224407353496645e-06, 4.38925126218237e-05, -0.00024095037952065468, 5.065293953521177e-05, -6.223296077223495e-05, -0.00019944578525610268, 0.00013342784950509667, -0.00018774319323711097, 2.144051541108638e-05, -0.000189549449714832, -0.000373927439795807, -2.656685683177784e-05, 1.2235811482241843e-05, -0.00017754861619323492, -0.00026988322497345507, -0.00012107738439226523], [-1.7532234778627753e-05, 1.2534249435702804e-05, -8.762945071794093e-05, -6.42933082417585e-05, -5.286534724291414e-05, -2.543037226132583e-05, 0.00040188219281844795, -5.040824908064678e-05, 0.00017258315347135067, -2.7143320039613172e-05, -7.635056681465358e-05, 8.353378507308662e-05, 7.599964737892151e-05, 3.8565067939089204e-07, 1.5693774912506342e-05, -6.731320900144055e-05], [0.00012057873391313478, -1.2265971236047335e-05, 0.00013635809591505677, 0.00012923874601256102, -0.00012755078205373138, 4.43888820882421e-05, 0.0005348242120817304, 5.484751090989448e-05, -6.558673339895904e-05, 1.639194306335412e-05, -6.089609996706713e-06, -0.00021735190239269286, -7.801119500072673e-05, -0.00014799910422880203, -0.0001301993033848703, 0.00010105359251610935], [-7.717656990280375e-05, 7.474595622625202e-05, -6.841979484306648e-05, 9.813353244680911e-06, 5.336189133231528e-05, -0.00015063956379890442, -0.0002788380079437047, -0.00010635135549819097, -8.916099613998085e-05, -7.764852489344776e-05, -0.00021247725817374885, -0.00011311495472909883, 3.940784517908469e-05, -0.00014996227400843054, -0.00015944888582453132, 5.027881343266927e-05], [-4.955460099154152e-05, 4.937194535159506e-05, -6.192830187501386e-05, 8.057616469159257e-06, -0.00014705376815982163, -3.900369119946845e-05, 0.00010811844549607486, -1.761200837790966e-05, -3.6122532037552446e-05, -7.0325200795196e-05, -1.1426734090491664e-05, -5.930708084633807e-06, 5.453636549646035e-05, -2.1637504687532783e-05, -1.281451932300115e-05, 5.485137808136642e-05], [-4.10408028983511e-05, 4.916699981549755e-05, 1.5215806342894211e-05, 2.5012057449202985e-05, 2.3915865313028917e-05, -5.320211857906543e-05, -0.00023109460016712546, -2.392569513176568e-05, -0.00011452798207756132, -0.00010057866165880114, -0.00011793656449299306, 1.8649727280717343e-05, 5.6388827943010256e-05, -6.686986307613552e-05, -5.4502321290783584e-05, 3.9588590880157426e-05], [-0.0001987025170819834, 3.50911941495724e-05, -0.00020847485575359315, -0.00016790574591141194, 1.5899551726761274e-05, -0.00010904129158006981, -0.00013471324928104877, -0.00016910262638702989, 5.838572542415932e-05, -2.5971077775466256e-05, 1.878106741060037e-05, 2.49432214332046e-05, 4.9417445552535355e-05, 2.879049861803651e-05, 3.5665975701704156e-06, -0.00012045799667248502], [-0.00015872057701926678, -3.5674363516591256e-06, -0.00020993233192712069, -0.0001412265410181135, -1.7553515135659836e-05, 8.887531294021755e-06, -0.0001814918650779873, 3.612849468481727e-05, -1.500989128544461e-05, -4.315320256864652e-05, -0.00016796802810858935, -7.695547537878156e-05, -1.7394831957062706e-05, -0.0001431451237294823, -0.00013659214891958982, 4.533719038590789e-05], [-1.2846551726397593e-05, -1.422404693585122e-05, 1.633989450056106e-05, -5.614405745291151e-05, 1.5991558939276729e-06, 3.957766602979973e-05, 9.470686200074852e-05, 3.674953040899709e-05, 4.536806227406487e-05, -3.657723937067203e-07, 7.76322303863708e-06, 9.638549272494856e-06, -1.0565591765043791e-05, -9.817866157391109e-06, -6.9986267590138596e-06, -2.6760353648569435e-05], [6.780395051464438e-05, -1.7243128240806982e-05, 9.634099842514843e-05, 0.0001348291989415884, 1.9679493561852723e-05, 0.00023566550225950778, 8.81198575370945e-05, 0.00023559840337838978, -0.00014810351422056556, 6.544453935930505e-05, 0.00041766557842493057, 0.0001897752081276849, -1.2509164662333205e-05, 0.00026574620278552175, 0.00033886032178997993, 0.0003292313776910305], [-2.3550492187496275e-05, 4.635969889932312e-05, -4.244835872668773e-05, -5.811435403302312e-05, 5.111519931233488e-05, -9.412161307409406e-05, 0.0009302391554228961, -0.00010250248305965215, -8.396845805691555e-05, -5.7458662922726944e-05, -0.0001271366490982473, 0.00012399430852383375, -1.356736811430892e-05, 1.0537071830185596e-05, -1.8152821212424897e-05, 1.259222517546732e-05], [-5.470113319461234e-05, 4.117534263059497e-05, -3.481003295746632e-05, -5.033752313465811e-05, -4.470854401006363e-05, -7.873773938626982e-06, 0.00036240130430087447, -9.641556061978918e-06, -4.055323006468825e-05, -7.625779107911512e-05, 2.8624817787203938e-05, 0.0001189056783914566, 8.159456046996638e-05, 5.457858060253784e-05, 5.820538353873417e-05, 1.72676591319032e-05], [0.0002185057965107262, -0.00011376121256034821, 0.00015093543333932757, 3.3130454539787024e-05, 2.3785314624547027e-05, 0.00013807874347548932, -9.515794226899743e-05, 0.00011407404963392764, -3.107533848378807e-05, 0.00011883606930496171, 0.0001650559570407495, 3.0199784305295907e-05, -5.8212641306454316e-05, 9.092206892091781e-05, 0.00010735700925579295, 0.00015732552856206894], [3.491589814075269e-05, -6.865554951218655e-06, -6.410728019545786e-06, -5.105342097522225e-06, 6.415953976102173e-05, 7.62565468903631e-05, -0.00016722068539820611, 7.54741340642795e-05, -4.104739855392836e-05, -7.369516970356926e-05, -0.00013310278882272542, 7.710736099397764e-05, -5.615769259748049e-05, 0.00037886120844632387, 0.00034234285703860223, 6.125137588242069e-05]], "layer_3_biases": [-0.03211628273129463, 0.1056990921497345, -0.07921501249074936, -0.04499902203679085, -0.03541046008467674, -0.02951340563595295, 0.14702019095420837, -0.03001316636800766, -0.01380385085940361, -0.12875999510288239, 0.07637111842632294, 0.15631748735904694, -0.08753996342420578, 0.10250749439001083, 0.12728995084762573, -0.02310963161289692], "layer_3_weights": [[-1.3775963452644646e-05, 0.00023016553313937038, 9.120772119786125e-06, -1.0342449968447909e-05, 3.1026163924252614e-05, 0.00015050127694848925, 0.00020311024854891002, 0.00018578213348519057, -0.0001121855602832511, 7.285339961526915e-05, 0.0002602638560347259, 0.00032619829289615154, 2.8594560717465356e-05, 0.00024359097005799413, 0.0002733800793066621, 7.695883687119931e-05], [-6.798000686103478e-05, -0.00013546290574595332, -4.134337723371573e-05, 2.453017805237323e-05, -1.0197819392487872e-05, -0.0001288229104829952, -0.0004799059242941439, -9.044272155733779e-05, -8.658276783535257e-05, -6.545935320900753e-05, -0.0001612288469914347, -0.00012004594464087859, 8.666436769999564e-05, -0.0001284989557461813, -0.00012963396147824824, 3.540148100000806e-05], [-1.61998177645728e-05, -0.00021855885279364884, -0.0002419264637865126, 5.2185365348123014e-05, -6.21651197434403e-05, -0.00019964142120443285, 0.00012899402645416558, -0.0001859643671195954, 9.837438483373262e-06, -0.00018772461044136435, -0.0003719507367350161, -3.440746513660997e-05, 1.16862747745472e-05, -0.00018330318562220782, -0.000273115438176319, -0.00012023387535009533], [-1.8479790014680475e-05, -1.8475890101399273e-05, -8.880165842128918e-05, -6.58689605188556e-05, -5.248656452749856e-05, -2.5446384825045243e-05, 0.00040806244942359626, -4.9364443839294836e-05, 0.0001728144707158208, -2.6097504814970307e-05, -7.457456376869231e-05, 8.170810906449333e-05, 7.54162174416706e-05, 3.0405153665924445e-06, 1.6703388610039838e-05, -6.26358378212899e-05], [0.00012061754387104884, -0.00012967310613021255, 0.0001361682516289875, 0.00012955773854628205, -0.00012696455814875662, 4.446067032404244e-05, 0.0005331265856511891, 5.479891842696816e-05, -1.1435397937020753e-05, 1.6196214346564375e-05, -7.219585313578136e-06, -0.0002177217829739675, -7.792245742166415e-05, -0.00014968623872846365, -0.00013041456986684352, 0.00010376326099503785], [-7.734426617389545e-05, -0.0001575502974446863, -6.842388393124565e-05, 9.678211426944472e-06, 5.310553387971595e-05, -0.00015057885320857167, -0.0002723447687458247, -0.00010645796282915398, 5.371494808059651e-06, -7.718991400906816e-05, -0.00020954491628799587, -0.00011655309208435938, 3.875355832860805e-05, -0.00014653534162789583, -0.00015810650074854493, 5.29916251252871e-05], [-7.220057887025177e-05, -9.373324246553238e-06, -9.659164061304182e-05, -4.862918649450876e-05, 