{"hk_disentangled_rnn": {"choice_net_multipliers": [2.3300695829675533e-05, 1.790612816810608, 0.7471336126327515, 0.4707828760147095, 1.2864051313954405e-05], "choice_net_sigma_params": [0.9922041893005371, 0.00480142654851079, 0.995689868927002, 0.9958992600440979, 0.9934958815574646], "latent_inits": [0.187087282538414, -0.01642436347901821, -1.6939641237258911, 1.3616063594818115, 0.06069188565015793], "latent_multipliers": [1.0, 1.0, 1.0, 1.0, 1.0], "latent_sigma_params": [0.0030117682181298733, 0.0021705313120037317, 0.038569774478673935, 0.007755185477435589, 0.0022310391068458557], "update_net_latent_multipliers": [[1.2718435525894165, 2.127328872680664, -0.021306607872247696, 1.8548568487167358, 1.457769751548767], [1.374724268913269, 1.308765172958374, 0.029748577624559402, 1.519065499305725, 0.5138936042785645], [0.151128351688385, 1.2064793109893799, -0.00957239419221878, 0.10573261976242065, 1.2298163175582886], [0.2576134502887726, 1.746781826019287, 0.007421528454869986, 1.2703418731689453, 1.6574254035949707], [0.7893872261047363, 1.867120385169983, 0.011666649952530861, 1.8513691425323486, 1.3868122100830078]], "update_net_latent_sigma_params": [[0.9018123745918274, 0.07072490453720093, 0.9936985969543457, 0.5499448180198669, 0.8413574695587158], [0.8041057586669922, 0.005353838205337524, 0.9984820485115051, 0.20106494426727295, 0.9881041049957275], [0.9989680051803589, 0.0696098580956459, 0.9944866895675659, 0.9803403615951538, 0.069060318171978], [0.9920441508293152, 0.11179932951927185, 0.9972188472747803, 0.054180122911930084, 0.29560327529907227], [0.9373131394386292, 0.037316277623176575, 0.9925507307052612, 0.5753682255744934, 0.1955442726612091]], "update_net_obs_multipliers": [[1.3316746950149536, 1.4257999658584595, 1.3079078197479248, 1.0748939514160156, 1.208165168762207], [1.405799150466919, 1.6307899951934814, 1.1989258527755737, 1.3859573602676392, 1.0037391185760498]], "update_net_obs_sigma_params": [[0.17265397310256958, 0.012002100236713886, 0.039871569722890854, 0.27820998430252075, 0.03807735815644264], [0.2643650770187378, 0.031486839056015015, 0.16307947039604187, 0.22432544827461243, 0.1734289675951004]]}, "hk_disentangled_rnn/~predict_targets/choice_net": {"input_biases": [-0.034330934286117554, -0.014217893593013287, 0.01088379230350256, -0.060947563499212265], "input_weights": [[-0.2191694676876068, -0.05222221463918686, -0.7137794494628906, 0.42527204751968384], [-0.5442808270454407, -1.472656011581421, 0.5884751677513123, 1.6259821653366089], [0.5531429648399353, -0.19258782267570496, -0.13852757215499878, 0.28637441992759705], [0.8127117156982422, -0.21248546242713928, 0.6908081769943237, -0.4106435179710388], [-0.34458521008491516, -0.1293318122625351, -0.3708629906177521, -0.2932452857494354]], "output_biases": [0.016570717096328735, -0.016570737585425377], "output_weights": [[-0.16229477524757385, 0.6821379661560059], [-0.6046018600463867, 1.3083385229110718], [0.3602721691131592, -0.4954904317855835], [0.31782856583595276, -0.4401049017906189]]}, "hk_disentangled_rnn/~update_latents/update_net": {"input_biases": [0.05676974728703499, -0.07016132026910782, -0.009922049008309841, 0.09751912206411362, -0.04935728758573532, -0.015682438388466835, 0.07013321667909622, -0.08422519266605377, -0.10923288017511368, -0.06999149173498154, 0.15580172836780548, -0.12062586098909378, 0.10023902356624603, -0.05845982953906059, 0.09622930735349655, 0.4208686947822571], "input_weights": [[-0.3702690899372101, 1.0893131494522095, 0.19156982004642487, -0.7060073614120483, -0.4871998727321625, 0.5706369280815125, 0.4825957715511322, 0.056710198521614075, 0.33083099126815796, 0.061147868633270264, 0.4336431324481964, 0.4240350127220154, -0.08601222932338715, 0.5190902352333069, -0.3880563974380493, 0.04722234606742859], [-0.8384799361228943, -0.11100157350301743, -0.36604249477386475, -0.1958206295967102, 0.05551530420780182, 0.09949567168951035, -0.09041436016559601, -0.7349002361297607, -0.45428305864334106, 0.02970481663942337, -0.33056867122650146, -0.4780813753604889, -0.012532944791018963, -0.0588163323700428, -0.11859282851219177, 0.6514624953269958], [0.2173767387866974, 0.1100069060921669, -0.1772979497909546, -0.19924072921276093, 0.5407755374908447, -0.29828962683677673, 0.4422632157802582, -0.15782223641872406, -0.282112181186676, 0.3140372335910797, 0.030238239094614983, -0.04446922987699509, 0.016313469037413597, 0.5776535868644714, -0.1729753166437149, 0.03929901868104935], [-0.27768197655677795, 0.009827961213886738, -0.016226833686232567, -0.7973887920379639, 0.1423908919095993, 0.377174437046051, 0.7602673172950745, -0.4550703167915344, -0.02651113271713257, -0.2790782153606415, -0.07296979427337646, -0.6259106993675232, -0.5389466285705566, 0.47199127078056335, 0.2850417196750641, -0.334514856338501], [-0.041832540184259415, -0.45924755930900574, -0.32185181975364685, -0.07269725203514099, -0.02889215387403965, -0.7362986207008362, 0.23465676605701447, 0.5859522819519043, 0.31832778453826904, -0.11492890864610672, -0.1698729544878006, 0.1257784366607666, 0.37097659707069397, 0.1979067325592041, -0.23771114647388458, 0.21826034784317017], [-0.2367357611656189, -0.170966237783432, -0.05032827705144882, 0.24025993049144745, -0.37622976303100586, 0.4236241281032562, 0.6698449850082397, 0.028985148295760155, 0.14799992740154266, -0.018314862623810768, 0.7567977905273438, 0.20291832089424133, -0.33100229501724243, -0.15635572373867035, -0.39578408002853394, -0.23986735939979553], [0.4464552402496338, 0.05070767179131508, 0.0371367447078228, 0.10533066838979721, 0.4634086489677429, -0.11416342854499817, 0.1394704431295395, 0.17148616909980774, -0.34273311495780945, 0.13334347307682037, 0.34650760889053345, 0.44596508145332336, -0.13880547881126404, -0.4809088408946991, 0.0062325154431164265, 0.20748110115528107]], "layer_0_biases": [0.07223126292228699, -0.0028994965832680464, -0.0170141588896513, 0.13424599170684814, -0.0029568683821707964, 0.07509411871433258, 0.08623335510492325, -0.03043881244957447, -0.09670336544513702, -0.0678766518831253, 0.18124715983867645, -0.005709315184503794, 0.11906349658966064, -0.0036497293040156364, -0.014251267537474632, 0.3290271759033203], "layer_0_weights": [[0.00019797419372480363, 2.0293036868679337e-06, -8.166195038938895e-05, -3.8795507862232625e-05, 7.562997325294418e-06, -0.0002111683425027877, 5.638583024847321e-05, -1.9917440567951417e-06, 4.2097311961697415e-05, -8.135203825077042e-05, -0.000152682070620358, 2.0070285245310515e-05, -0.0001784258638508618, 1.4608416677219793e-05, -3.72364665963687e-05, -0.00024579500313848257], [-0.0003497044090181589, 3.4281288208148908e-06, -6.453722744481638e-05, -0.0010793214896693826, -5.983632490824675e-06, 0.0005039186216890812, -0.0003141801862511784, 1.9921282728319056e-05, -0.00031784045859239995, 1.5952657122397795e-05, -0.00034565202076919377, 2.6174247977905907e-06, -0.0002485233126208186, -1.0680625564418733e-05, 0.00023591269564349204, -0.0002865830610971898], [8.916850492823869e-05, 1.0597339496598579e-05, 2.7403149942983873e-05, -0.00012762965343426913, -7.13015140263451e-07, -0.0001482923107687384, 2.926839079009369e-05, -3.0551582312909886e-05, 3.876264236168936e-05, 6.119227327872068e-05, -0.00013332429807633162, -9.628933185013011e-06, -0.00013081342331133783, 1.8579298739496153e-06, -4.365886707091704e-05, -6.652646698057652e-05], [0.0002845125854946673, 7.083151558617828e-06, -1.2566579243866727e-05, 0.0003475839039310813, 6.506032150355168e-06, -0.00020937372755724937, 5.1640123274410143e-05, -2.33139144256711e-05, 9.332026093034074e-05, -3.55031224898994e-05, 7.730117067694664e-05, 2.896052501455415e-05, 5.820989827043377e-05, 1.1522125532792415e-05, -0.00014652589743491262, 9.659174793341663e-06], [0.00026962655829265714, -7.542275398009224e-06, -7.784675108268857e-05, 0.00028118756017647684, 7.280928002728615e-07, -0.00021304565598256886, 9.874397073872387e-05, 1.921672810567543e-05, 6.284795381361619e-05, -2.76566315733362e-05, 8.318338223034516e-05, 6.388089332176605e-06, 6.869308708701283e-05, -9.664938261266798e-06, -9.671904990682378e-05, 3.755303623620421e-05], [-5.344338933355175e-05, -1.0487429790373426e-05, 3.3913580409716815e-05, -0.00041060708463191986, -7.7775976023986e-06, 0.0003121294139418751, -3.2585910958005115e-05, 2.357500125071965e-05, -6.648429553024471e-05, 5.6416523875668645e-05, -6.013194433762692e-05, -3.2560441468376666e-05, -2.1251020370982587e-05, -3.873946752719348e-06, 0.00012447805784177035, -2.6807390895555727e-05], [-0.0005085678421892226, 5.869262054147839e-07, 3.4946209780173376e-05, -0.0003338573733344674, -5.69893063584459e-06, 0.0008197071147151291, -4.48852515546605e-05, 5.790534123661928e-05, -7.551797170890495e-05, 5.90349554840941e-05, -0.000152809196151793, -4.49538383691106e-05, -0.0001259570271940902, -8.313082616950851e-06, 8.857814100338146e-05, -0.00011209247895749286], [0.00010756726987892762, 1.1427366189309396e-05, 3.556005685823038e-05, -0.00039866537554189563, 5.47972967979149e-06, -0.00011094701039837673, -0.0001684012677287683, -5.026332655688748e-05, 9.657348527980503e-06, 4.24270037910901e-05, -0.0006358815007843077, 1.3895612028136384e-05, -0.0004712012887466699, 9.832407158683054e-06, -1.0476831448613666e-05, -0.0007795908604748547], [-6.991833652136847e-05, 1.1083314348070417e-05, 5.404248076956719e-05, -0.00026154296938329935, 1.2179122677480336e-05, -7.468971307389438e-05, -5.6333778047701344e-05, 1.995991806325037e-05, 2.6792517019202933e-05, 7.081073999870569e-05, -0.00018153847486246377, 6.089633188821608e-06, -0.00017281692998949438, 2.7716141630662605e-05, -2.253621642012149e-05, -0.0001286207843804732], [-0.00022897911549080163, -5.832948318129638e-06, 3.7877536669839174e-05, -0.0008553024381399155, -3.5827197280013934e-06, 0.0002691527479328215, 0.00010594689229037613, -4.152967085246928e-05, 6.946010398678482e-05, -1.922885530802887e-06, -0.00028642688994295895, -6.286606367211789e-05, -0.00019994459580630064, 7.5605530582834035e-06, -8.216192509280518e-05, -0.0002826812560670078], [-0.0004300904693081975, 2.658546691236552e-06, 6.0462887631729245e-05, -0.0006826627650298178, -4.105077550775604e-06, 0.0004338823491707444, -0.00010382910841144621, -1.5819451846255106e-06, -5.756024256697856e-05, 2.126412437064573e-05, -0.00022987437841948122, -3.5486198612488806e-05, -0.00019553738820832223, -1.5709024125953874e-07, 7.434574945364147e-05, -0.0001602799165993929], [-0.00020219376892782748, 5.992905698803952e-06, 7.484676461899653e-05, -0.0013777577551081777, 4.164830329500546e-07, 0.00035775534342974424, -1.8717008060775697e-05, -1.3164668416720815e-05, 0.00018003408331423998, 6.062441389076412e-05, -0.00034715692163445055, -2.1752985048806295e-05, -0.00030468442128039896, 8.62390243128175e-06, -4.7571968025295064e-05, -0.00016644161951262504], [3.866657061735168e-05, -1.3760131878370885e-05, -5.73137222090736e-05, -0.0006747727165929973, -1.1429257028794382e-05, -0.0001894816232379526, 0.0005786591209471226, 0.00015380098193418235, -1.7517168089398183e-05, -5.592881734628463e-06, -0.00054290855769068, -4.8688296374166384e-05, -0.0005146676558069885, -1.4760324120288715e-05, 2.3075649551174138e-06, -0.0004918227787129581], [-0.0003692142490763217, -2.4748114810790867e-05, 4.350050221546553e-05, -0.00033752660965546966, -2.125782884832006e-05, 0.00037650990998372436, -5.878542287973687e-05, 2.2953634470468387e-05, -7.659656694158912e-05, 5.763109584222548e-05, -0.0002780703653115779, -7.763694156892598e-05, -0.00023705318744760007, -2.1111307432875037e-05, 7.736305269645527e-05, -0.00031681288965046406], [0.000524184841196984, 9.255756594939157e-06, -8.186633931472898e-05, 0.0007778669823892415, 2.7368576411390677e-05, -0.0005031676264479756, 2.9897457352490164e-05, 1.281939239561325e-05, -4.06021936214529e-05, -2.322828004253097e-05, 0.00028318120166659355, 8.172254456439987e-05, 0.0002463017008267343, 8.017906111490447e-06, 2.309115870957612e-06, 0.00019999765208922327], [-0.00010352345270803198, -4.082438408659073e-06, 3.7887741200393066e-05, 7.495957106584683e-05, -3.7822894682904007e-06, 7.718140841461718e-05, -6.985924846958369e-05, 4.0092705603456125e-05, -0.00010578096407698467, 2.2469001123681664e-05, -5.9388778026914224e-05, -9.932829925674014e-06, -2.1262576410663314e-06, -1.491968214395456e-05, 7.035043381620198e-05, -1.3346170817385428e-05]], "layer_1_biases": [-0.0078105442225933075, -0.0027721154037863016, 0.016668472439050674, 0.12419871985912323, -0.00331575027666986, -0.00177723728120327, 0.10309744626283646, -0.002432020613923669, -0.007046906743198633, -0.004440938122570515, 0.17971354722976685, -0.006274609360843897, 0.10147765278816223, -0.004600128624588251, 0.09299284964799881, 0.328138530254364], "layer_1_weights": [[-1.6669102478772402e-05, 6.945998620722094e-07, 0.00026234082179144025, -9.718288310978096e-06, 7.447797997883754e-06, -4.280007033230504e-06, 5.315527960192412e-05, 5.621385298582027e-06, 5.085786324343644e-05, -1.3700197996513452e-05, -0.00015954949776642025, 1.9703275029314682e-05, -0.00018412878853268921, 1.1352921319485176e-05, -3.820499841822311e-05, -0.00024592637782916427], [5.459552266984247e-05, -1.6596088414644328e-07, 3.6811754398513585e-05, -0.0010963788954541087, -5.387025794334477e-06, 7.279835699591786e-06, -0.00030509004136547446, -2.6922289180220105e-05, -4.419501783559099e-05, -2.6667543352232315e-05, -0.000328169233398512, 4.792869276570855e-06, -0.00023741452605463564, -1.1555331184354145e-05, -0.000659720681142062, -0.0002724479418247938], [6.939190643606707e-05, 1.1369164894858841e-05, 0.00010424866923131049, -0.00012798064562957734, -3.238348540435254e-07, 5.4623233154416084e-06, 3.282816760474816e-05, -1.2006192264379933e-05, -2.6438123313710093e-05, 7.112418825272471e-05, -0.00013131329615134746, -9.845316526480019e-06, -0.00012965126370545477, 2.448756958983722e-06, -0.00010518475028220564, -6.475181726273149e-05], [-8.898882697394583e-07, 5.9482604228833225e-06, -1.9010891492143855e-06, 0.0004017612664029002, 6.756374204996973e-06, 1.0543793678152724e-06, 1.2536228496173862e-05, 1.5882073057582602e-05, 5.3990388551028445e-05, -5.809965296066366e-05, 6.092086550779641e-05, 3.2900075893849134e-05, 4.467133112484589e-05, 1.6494543160661124e-05, 0.00022161054948810488, -3.0798950319876894e-05], [2.567714091128437e-06, -7.5981670306646265e-06, -3.563968857633881e-05, 0.0002881508262362331, 1.099796008929843e-06, -6.399330686690519e-06, 9.524891356704757e-05, -1.4273341548687313e-05, -4.336446579600306e-07, -4.462726064957678e-05, 7.679167174501345e-05, 7.502045264118351e-06, 6.461101293098181e-05, -1.593084198248107e-05, 0.0001640907721593976, 3.206339533790015e-05], [1.7269995851165731e-06, -7.610452939843526e-06, -4.246489697834477e-05, -0.0003790068731177598, -5.508201866177842e-06, -1.6190513179026311e-06, -3.95991955883801e-05, 2.986475777788655e-08, -3.083467890974134e-05, 5.355982284527272e-05, -6.299722008407116e-05, -2.6142082788283005e-05, -2.6023721147794276e-05, -9.103688171308022e-06, -0.00021148011728655547, -4.741412340081297e-05], [-2.2987844658928225e-06, 2.798474497467396e-06, -2.012199729506392e-05, -0.0003010522050317377, -5.480521849676734e-06, 1.2335891369730234e-05, -7.12683322490193e-05, -1.070033795258496e-05, -4.810865721083246e-05, -4.599286512529943e-06, -0.00015354280185420066, -4.4680171413347125e-05, -0.00013077577750664204, -7.326429113163613e-06, -0.00020640144066419452, -0.00013066912651993334], [-2.3278167645912617e-05, 1.3877356650482398e-05, 8.301028719870374e-05, -0.0003982134803663939, 5.3832673074794e-06, 1.7230211597052403e-05, -0.00016876599693205208, 1.8790096873999573e-05, 2.9210752472863533e-05, 1.2822370081266854e-05, -0.0006368574104271829, 1.3649297216034029e-05, -0.00047249585622921586, 1.4287787962530274e-05, -0.0003689045552164316, -0.0007804101915098727], [5.454767233459279e-05, 1.2414183402142953e-05, 0.00012516642163973302, -0.00026473222533240914, 1.2410520866978914e-05, 3.2744414056651294e-05, -5.291833804221824e-05, 1.3763506103714462e-05, 9.313244845543522e-06, -3.6823562368226703e-06, -0.0001787568035069853, 2.6538177735346835e-06, -0.00017148617189377546, 1.8125196220353246e-05, -0.00021471625950653106, -0.00012662625522352755], [-2.8011525500915013e-05, -7.46053365219268e-06, -2.678635428310372e-05, -0.0008561034337617457, -3.6557387375069084e-06, -2.4919820589275332e-06, 0.00010870779806282371, 3.308462282802793e-06, 3.6565052141668275e-05, 1.4248345905798487e-05, -0.0002859381784219295, -6.4063337049447e-05, -0.00019805127521976829, 6.740757726220181e-06, -0.0005328522529453039, -0.00028125799144618213], [-5.848539512953721e-05, 5.051337666373001e-06, 0.00011109199840575457, -0.0005348206032067537, -4.376784545456758e-06, 1.0685637789720204e-05, -0.0001487630361225456, -3.1077022413228406e-06, -4.579746018862352e-05, -2.4129818484652787e-05, -0.00022639852249994874, -3.384826050023548e-05, -0.0001976520725293085, -8.571299076720607e-06, -0.0003777164383791387, -0.00019460546900518239], [-4.523817915469408e-05, 6.607814157177927e-06, 0.00019783040625043213, -0.0013822863111272454, -4.66417805000674e-06, 8.046210496104322e-06, -1.2795650945918169e-05, 1.1761974747059867e-05, -6.167365791043267e-05, 5.37862470082473e-05, -0.0003420943976379931, -3.394899613340385e-05, -0.00030096189584583044, -3.211587682017125e-06, -0.0009216871694661677, -0.00016241546836681664], [5.058802344137803e-06, -4.680345591623336e-05, 0.00015612096467521042, -0.0005964232259429991, -1.999099913518876e-05, 6.040190214662289e-07, 0.00018763770640362054, 6.753603884135373e-06, 2.403264443273656e-05, 4.618136881617829e-05, -0.0004882063658442348, -0.00011068856838392094, -0.0004333278047852218, -1.6254613001365215e-05, -0.0004378417506814003, -0.0004308066563680768], [-1.1615211406024173e-05, -2.418614167254418e-05, 7.465408998541534e-05, -0.00034454811247996986, -1.8697424820857123e-05, 6.416189080482582e-06, -5.5808646720834076e-05, -5.935986337135546e-06, -0.00014462716353591532, 7.55258442950435e-05, -0.00027160110766999424, -6.885539914947003e-05, -0.00023288436932489276, -2.0442930690478534e-05, -0.0002685911313164979, -0.00031167949782684445], [-8.532448555342853e-05, 1.0269553058606107e-05, -9.425500320503488e-05, 0.0007826424553059042, 2.856335777323693e-05, 2.8049241791450186e-06, 2.5267443561460823e-05, -3.096990621997975e-05, 5.88739276281558e-05, -2.4832013878040016e-05, 0.0002782508672680706, 8.342049113707617e-05, 0.00024269380082841963, -4.422679921844974e-06, 0.0005582235171459615, 0.00019584852270781994], [4.5467062591342255e-05, 4.6905179260647856e-06, -8.854929910739884e-05, 0.00030703734955750406, -4.42946975454106e-06, 3.2032928629632806e-06, -7.885141531005502e-05, -8.530851118848659e-06, -5.606935155810788e-05, -1.1043937320209807e-06, -8.138466364471242e-05, -9.539842722006142e-06, -1.3846365618519485e-05, -1.3073161426291335e-05, 0.00012076401617377996, -5.688626697519794e-05]], "layer_2_biases": [-0.011551969684660435, -0.0849875956773758, 0.03620234504342079, 0.10323866456747055, -0.00302530056796968, 0.0003144983493257314, 0.16305388510227203, -0.08249615132808685, -0.1332770735025406, -0.032308563590049744, 0.1604004055261612, -0.0064635868184268475, -0.01767801120877266, -0.08830849826335907, 0.08175710588693619, 0.24177616834640503], "layer_2_weights": [[-1.8547134459367953e-05, 5.1722217904170975e-05, 0.00026082980912178755, -5.9923190747213084e-06, 4.622024789568968e-06, -6.720492820022628e-05, 5.062618220108561e-05, 2.4321256205439568e-05, 4.0226812416221946e-05, 3.096096634180867e-06, -0.00016253560897894204, 2.008704177569598e-05, 2.2728127078153193e-05, 2.913494063250255e-05, -3.490387098281644e-05, -0.0002492804196663201], [3.134781218250282e-05, -0.00019028945825994015, 4.6037661377340555e-05, -0.0011110648047178984, -6.312300683930516e-06, 0.000844052352476865, -0.00029656424885615706, 1.2921414054289926e-05, -0.0003180653729941696, -5.650081220665015e-05, -0.0003129954857286066, 5.074830824014498e-06, 0.0002024206187343225, 3.496644421829842e-05, -0.000674810609780252, -0.0002603165339678526], [8.422633072768804e-06, 1.6431800759164616e-05, 9.916760609485209e-05, -0.00015674055612180382, -3.94662811231683e-06, -1.3281807696330361e-05, 5.508409230969846e-05, -8.245636126957834e-05, 2.5004148483276367e-05, 1.0276190550939646e-05, -0.0001146546783274971, -1.1670077583403327e-05, -6.719187513226643e-05, -1.2380046428006608e-05, -0.00011125420860480517, -3.9871032640803605e-05], [-8.592035010224208e-05, -1.3213399142841808e-05, -6.885712195980886e-07, 0.00043887828360311687, 6.3139100348053034e-06, -0.0002844413975253701, -4.356626232038252e-05, 2.6717405489762314e-05, 2.8130405553383753e-05, 1.0385216228314675e-05, 4.621312109520659e-05, 3.2988653401844203e-05, -4.377336517791264e-05, 2.2727546820533462e-05, 0.00024272890004795045, -6.830660277046263e-05], [8.845644333632663e-05, 9.15904383873567e-05, -3.937888686778024e-05, 0.000294188444968313, 6.359028361657693e-07, -7.486675895052031e-05, 9.195070015266538e-05, 4.946881381329149e-05, 6.138628668850288e-05, 2.5516510504530743e-05, 7.107777491910383e-05, 8.307549251185264e-06, -3.135352744720876e-05, -5.886700819246471e-06, 0.00016973685706034303, 2.7218717150390148e-05], [3.8232439692365006e-05, -0.00013448625395540148, -3.808635301538743e-05, -0.0003862773592118174, -5.381165919970954e-06, 0.00030589938978664577, -3.5668494092533365e-05, 1.323657670582179e-05, -0.00014205295883584768, -4.34462635894306e-05, -5.623696415568702e-05, -2.4574519557063468e-05, 2.7013644285034388e-05, 3.657550405478105e-05, -0.00021829640900250524, -4.1355815483257174e-05], [-0.00010439568723086268, -0.00014622791786678135, -2.4327717255800962e-05, -0.000260908534983173, -5.139095264894422e-06, 0.00012616750609595329, -8.587972115492448e-05, 7.383521733572707e-05, -0.0001581102842465043, -4.422478741616942e-05, -0.00015336243086494505, -3.877322524203919e-05, 0.00010603132977848873, 8.472116314806044e-05, -0.00018649439152795821, -0.00015026339679025114], [-2.12069098779466e-05, 8.426934800809249e-05, 8.39937711134553e-05, -0.0003978227323386818, 5.661596333084162e-06, 3.5804030630970374e-05, -0.00016855448484420776, -4.902481668977998e-05, 3.897234819305595e-06, -1.3588417459686752e-05, -0.0006378855323418975, 1.4087650924921036e-05, -6.97974392096512e-05, -2.158678944397252e-05, -0.0003685596748255193, -0.0007812196854501963], [3.643056334112771e-05, -4.720071592601016e-05, 0.00012663511733990163, -0.00026708320365287364, 1.0235845365968999e-05, 4.436776725924574e-05, -4.9999191105598584e-05, -4.779955997946672e-05, 2.4024573576753028e-05, -9.391538696945645e-06, -0.00017631877562962472, 5.742226221627789e-06, -4.3195788748562336e-05, -1.737494494591374e-05, -0.0002165209734812379, -0.00012495651026256382], [-9.010806934384163e-06, 7.582362013636157e-05, -2.6541039915173315e-05, -0.000856708618812263, -1.600053656147793e-05, 0.0004515971231739968, 0.00011118200200144202, -8.220613381126896e-05, 6.907484930707142e-05, 1.929126665345393e-05, -0.00028550252318382263, -6.318907981039956e-05, -4.221528797643259e-06, 1.5067815184011124e-05, -0.0005329700652509928, -0.0002797461347654462], [-9.370633779326454e-05, -0.00022883307246956974, 0.00011888680455740541, -0.00041435027378611267, -5.05753905599704e-06, 2.486012272129301e-05, -0.00015979060844983906, 0.0001124371265177615, -0.00026356769376434386, -4.4903681555297226e-05, -0.0002230025129392743, -2.7849995603901334e-05, 7.63017960707657e-05, -2.7311905341775855e-06, -0.0003101568727288395, -0.00022785291366744787], [8.479941243422218e-06, 0.00010607232979964465, 0.00020005967235192657, -0.0013859121827408671, -3.783149395530927e-06, 0.0005650926614180207, -8.097175850707572e-06, 7.904528501967434e-06, 0.00017747841775417328, -2.3932219846756198e-05, -0.000337745324941352, -5.163975220057182e-05, 7.289165660040453e-05, 2.16137614188483e-05, -0.0009253572206944227, -0.00015862817235756665], [-3.8516096537932754e-05, 1.807945750442741e-06, 0.00017189900972880423, -0.0002958047261927277, -2.3677592253079638e-05, -7.073736924212426e-05, 1.0005360309151001e-05, 6.7426190071273595e-06, 8.425761188846081e-05, -7.5010220825788565e-06, -0.00040024289046414196, -0.00015585642540827394, -1.7522648704471067e-05, 4.458661351236515e-05, -0.0003781596024055034, -0.0003869654319714755], [7.062677468638867e-05, -2.2701133275404572e-05, 7.78226021793671e-05, -0.00035062775714322925, -1.581597280164715e-05, 0.0005703212809748948, -5.336331742000766e-05, 1.7432865888622473e-06, -7.741883746348321e-05, -2.0957300876034424e-05, -0.0002659262390807271, -6.421755824703723e-05, 5.8333705965196714e-05, 2.4569681045250036e-05, -0.00027476769173517823, -0.0003069188678637147], [-1.5087464362295577e-06, -7.99964545876719e-05, -9.507981303613633e-05, 0.0009295546333305538, 1.98930902115535e-05, -0.000577781000174582, -6.75527480780147e-05, 6.020244109095074e-05, -8.536238601664081e-05, 2.0398243577801622e-05, 0.0002694214344955981, 7.881500641815364e-05, -5.593000605585985e-05, 7.820963219273835e-06, 0.0006402582512237132, 0.00016328939818777144], [3.901927630067803e-05, -0.00013456000306177884, -7.408328383462504e-05, 0.00046800688141956925, -1.7827071587817045e-06, -0.0005131897632963955, -6.050680167390965e-05, -7.125174306565896e-05, -0.0001569542509969324, -3.8654943637084216e-05, -7.793217082507908e-05, -4.623206677933922e-06, -3.2959412692434853e-06, -0.00018356581858824939, 0.00024707798729650676, -8.706151129445061e-05]], "layer_3_biases": [-0.0013528389390558004, -0.001815636409446597, 0.02836507372558117, 0.07318579405546188, -0.002996061695739627, -0.0017187722260132432, 0.07564752548933029, -0.003284538397565484, -0.006415753625333309, -0.09199344366788864, 0.14914065599441528, -0.006671549286693335, 0.13330282270908356, -0.004822821356356144, 0.11444111913442612, 0.3427239656448364], "layer_3_weights": [[3.816877551798825e-07, 6.063633577468863e-07, 0.0002584847388789058, -2.0598070022970205e-06, 4.261493813828565e-06, -4.614459612639621e-06, 4.783296390087344e-05, 5.547610726353014e-06, 2.1380501493695192e-05, -7.076749170664698e-05, -0.0001659512345213443, 1.895179411803838e-05, -0.00019047901150770485, 7.153269052651012e-06, -3.1452171242563054e-05, -0.0002531834179535508], [4.0455943235429e-06, -4.349049504526192e-06, 5.715673614758998e-05, -0.001128078904002905, -7.0826026785653085e-06, 7.64341439207783e-06, -0.0002866104186978191, -1.4322995411930606e-05, -4.237833127263002e-05, 1.61643711180659e-05, -0.00029523574630729854, 4.03264130000025e-06, -0.00021466186444740742, -1.5709885701653548e-05, -0.0006925472407601774, -0.0002458732924424112], [1.3089370440866333e-05, 5.910498657613061e-06, 9.176300227409229e-05, -0.0001911841391120106, -3.7457239159266464e-06, 7.895177077443805e-06, 6.150742410682142e-05, -8.960644777289417e-07, -4.339354927651584e-05, 7.084688695613295e-05, -9.498474537394941e-05, -1.4697092410642654e-05, -0.0001029369086609222, -1.4196364190866007e-06, -0.0001206126544275321, -1.5132825865293853e-05], [1.5137572972889757e-06, 6.928319635335356e-06, 8.611108341938234e-07, 0.00045172128011472523, 6.817135272285668e-06, -8.247416189988144e-06, -0.00010502331133466214, 1.1593036106205545e-05, 3.902280514012091e-05, -8.086395246209577e-05, 3.0827672162558883e-05, 3.201449726475403e-05, 1.990969030885026e-05, 7.0997975853970274e-06, 0.00025323915178887546, -0.00010373182158218697], [-5.727413372369483e-05, -7.517869562434498e-06, -4.368763620732352e-05, 0.00030092676752246916, 6.945803079361212e-07, -6.681972536171088e-06, 8.810567669570446e-05, -1.4995018318586517e-05, -4.383024133858271e-06, -1.964786133612506e-05, 6.447151099564508e-05, 8.914033060136717e-06, 5.5586700909771025e-05, -1.794453783077188e-05, 0.00017599278362467885, 2.1568674128502607e-05], [7.921785254438873e-06, -4.868701125815278e-06, -3.12002666760236e-05, -0.00039987245691008866, -4.932322099193698e-06, 1.5995195781215443e-06, -3.308161103632301e-05, -6.893591034895508e-06, -3.4397289709886536e-05, 4.8396384954685345e-05, -5.319182309904136e-05, -2.0495712306001224e-05, -1.94703861779999e-05, -8.565169082430657e-06, -0.0002300059568369761, -4.237287794239819e-05], [-4.285249360691523e-06, 6.818667316110805e-06, -3.152899444103241e-05, -0.00019241127301938832, -4.424980488693109e-06, 7.892990652180742e-06, -8.856267231749371e-05, -6.942042546143057e-06, -4.777425419888459e-05, 3.376724635018036e-05, -0.00014763735816814005, -2.909527756855823e-05, -0.00013557932106778026, -1.3899644727644045e-05, -0.00014766344975214452, -0.00017079045937862247], [-4.057105252286419e-05, 1.5463043382624164e-05, 8.308910764753819e-05, -0.00039789098082110286, 5.795695415145019e-06, 1.042182066157693e-05, -0.00016694399528205395, 1.8508400899008848e-05, 2.740511808951851e-05, -5.0989424380532e-06, -0.0006389454356394708, 1.4105650734563824e-05, -0.00047415288281627, 2.5049404939636588e-05, -0.0003671027079690248, -0.0007821012986823916], [4.307943891035393e-05, 1.1360382814018521e-05, 0.00012841730494983494, -0.0002704399230424315, 1.1103104952780996e-05, 2.2231501134228893e-05, -4.648750473279506e-05, 1.1148433259222656e-05, 7.827959962014575e-06, 7.650446059415117e-05, -0.00017346887034364045, 6.534777639899403e-06, -0.0001683846057858318, 1.4481741345662158e-05, -0.00021911037038080394, -0.00012280380178708583], [-2.5334534257126506e-06, -8.732139576750342e-06, -2.616536403365899e-05, -0.0008578253327868879, -1.5220366549328901e-05, -2.1226014723652042e-06, 0.00011432177416281775, -7.482963155780453e-07, -1.5000106031948235e-05, -3.1214287901093485e-06, -0.0002848938456736505, -6.278134242165834e-05, -0.00019478937610983849, 1.9095050447504036e-06, -0.0005336604081094265, -0.0002783068921416998], [1.0283335541316774e-05, 9.201378816214856e-06, 0.00012744158448185772, -0.00033039902336895466, -5.270473593554925e-06, 6.624917205044767e-06, -0.0001550573215354234, -1.0569277037575375e-05, -4.8531168431509286e-05, 3.613774970290251e-05, -0.00021911071962676942, -2.14783849514788e-05, -0.00019738257105927914, -1.4333048056869302e-05, -0.0002634049451444298, -0.0002570470387581736], [1.3692754691874143e-05, 1.0020889931183774e-05, 0.00020304891222622246, -0.0013905273517593741, -8.52037101140013e-06, 8.40110624267254e-06, -2.419673364784103e-06, 1.7817303159972653e-05, -6.080445382394828e-05, 5.26978365087416e-05, -0.00033253731089644134, -6.325638969428837e-05, -0.00029373567667789757, 2.2831423848401755e-05, -0.0009298746008425951, -0.0001545051345601678], [-2.8154643587186e-05, -3.300810567452572e-05, 0.00017307398957200348, -0.0002974233648274094, -2.3331933334702626e-05, -1.2029099707433488e-06, 1.1836089470307343e-05, 2.332723170184181e-06, -2.9100096071488224e-05, -8.91423951543402e-06, -0.00039871499757282436, -0.00015767617151141167, -0.0003591260174289346, -9.52017103372782e-07, -0.0003787769819609821, -0.00038486102130264044], [2.8025653591612354e-05, -2.34944345720578e-05, 8.193502435460687e-05, -0.0003581217606551945, -1.6844745914568193e-05, 5.567686002905248e-06, -4.940691724186763e-05, -1.4632291822636034e-05, -7.334479596465826e-05, 1.2444034837244544e-05, -0.0002593542158138007, -6.482817116193473e-05, -0.00022435506980400532, -1.4556189853465185e-05, -0.00028241894324310124, -0.0003015767433680594], [-2.7457066607894376e-05, 2.2745878595742397e-05, -9.495700214756653e-05, 0.0010978158097714186, 1.0033724720415194e-05, -1.2686303307418711e-05, -0.00011599707795539871, -1.3358579963096417e-05, -3.927727811969817e-05, -2.548035809013527e-05, 0.00025955119053833187, 7.222156273201108e-05, 0.0002226767537649721, -3.487713183858432e-05, 0.0007303989841602743, 0.00013185097486712039], [0.00011361393990227953, 4.644280124921352e-06, -4.44775796495378e-05, 0.0005573738599196076, 2.7711882921721553e-07, 1.7350865846310626e-06, -3.831365756923333e-05, -6.016984116286039e-06, -3.015317088284064e-05, 3.0335986593854614e-05, -6.58620847389102e-05, -2.0213810785207897e-06, -7.283406011993065e-05, -7.658285539946519e-06, 0.00031103973742574453, -0.00010595226922305301]], "layer_4_biases": [0.10459578037261963, -0.005419498309493065, 0.02294396609067917, -0.015206659212708473, -0.004414668772369623, -0.045666009187698364, 0.0934198722243309, -0.001139431493356824, -0.008758129552006721, -0.07668506354093552, 0.12636324763298035, -0.007426785305142403, 0.2883719205856323, -0.001279632211662829, 0.10504822432994843, 0.4239521324634552], "layer_4_weights": [[0.0002567266346886754, 3.717319486895576e-06, 0.0002555892278905958, -6.166552338982001e-05, 1.013585369946668e-05, 2.242302434751764e-05, 4.5486802264349535e-05, 9.153058272204362e-06, 0.00011260881001362577, -6.996391311986372e-05, -0.00016873612185008824, 2.717804818530567e-05, -0.0001930159196490422, 1.1059329153795261e-05, -2.925874105130788e-05, -0.00025608998839743435], [-0.00038751220563426614, 3.399505658308044e-06, 6.700311496388167e-05, 0.00010549060971243307, -3.9093929444788955e-06, 1.7064321582438424e-05, -0.00027819248498417437, -1.7062740880646743e-05, -4.517284833127633e-05, 1.2485345905588474e-05, -0.0002809416619129479, 3.7334091302909655e-06, -0.00020584547019097954, -3.2435091270599514e-05, -0.0007069265702739358, -0.00023621591390110552], [-1.7332347852061503e-05, -2.6041478307092802e-08, 8.498406532453373e-05, 6.641641812166199e-05, 5.95950155002356e-07, -7.064886176522123e-06, 7.02343531884253e-05, -3.857520823657978e-06, -5.294928268995136e-05, 7.198110688477755e-05, -7.605314021930099e-05, -1.6360154404537752e-05, -8.875546336639673e-05, -1.5061154044815339e-05, -0.00011898894445039332, 1.0282911716785748e-05], [0.00010229386680293828, 8.117480319924653e-06, 2.8214194571773987e-06, -8.433454786427319e-05, 8.112711839203257e-06, -1.0107018169946969e-05, -0.00015099298616405576, 1.1335268936818466e-05, 4.4559321395354345e-05, -6.853767263237387e-05, 1.565769525768701e-05, 3.345843288116157e-05, 8.744185834075324e-06, -4.331051513872808e-06, 0.00025448360247537494, -0.00013495446182787418], [0.00029013733728788793, -6.190760814206442e-06, -4.729551073978655e-05, -9.982893061533105e-06, 2.5181145701935748e-06, 7.240431295940652e-05, 8.494607754983008e-05, -1.2974534001841675e-05, -8.584095212427201e-07, -3.4941608646477107e-06, 5.913476343266666e-05, 1.0629852113197558e-05, 5.1870189054170623e-05, -3.774353672270081e-06, 0.0001809526002034545, 1.7569735064171255e-05], [-0.00015850293857511133, -3.533855078785564e-06, -2.6968175006913953e-05, 4.685125168180093e-05, -4.585576334648067e-06, 6.597605079150526e-06, -2.9349081160034984e-05, -7.1421818574890494e-06, -3.455132900853641e-05, 6.660813960479572e-05, -4.698026896221563e-05, -2.2187568902154453e-05, -1.5446516044903547e-05, -9.09970640350366e-06, -0.00023576035164296627, -3.731589822564274e-05], [-0.00013717261026613414, 3.1276067602448165e-06, -3.08585622406099e-05, 9.769113239599392e-05, -6.8583844949898776e-06, 8.546721801394597e-05, -8.38252526591532e-05, -2.7520005119185953e-07, -7.194403588073328e-05, 2.2903692297404632e-05, -0.00014804945385549217, -4.0378377889283e-05, -0.00013821777247358114, -1.0978203590639168e-07, -0.00014087338058743626, -0.0001871436252258718], [0.00010831696999957785, 1.5387717212433927e-05, 8.255133434431627e-05, -3.27622692566365e-05, 5.781401341664605e-06, -5.2672541642095894e-05, -0.0001658545807003975, 1.9319435523357242e-05, 2.902844971686136e-05, -1.9397262803977355e-05, -0.0006395428790710866, 1.5520785382250324e-05, -0.00047451062710024416, 2.4782084437902085e-05, -0.00036748626735061407, -0.0007833754061721265], [-7.236071542138234e-05, 3.5311073588673025e-05, 0.00013020519691053778, -3.621565156208817e-06, 9.162016795016825e-06, -7.851122063584626e-05, -4.256004831404425e-05, 1.052202787832357e-05, 7.281377747858642e-06, 3.941275645047426e-05, -0.00017095269868150353, 9.724105439090636e-06, -0.00016695066005922854, 2.166858030250296e-05, -0.00022108234406914562, -0.00012137992598582059], [-0.00023202726151794195, -2.350905015191529e-05, -2.4780498279142193e-05, 2.3885850168881007e-05, -7.987217031768523e-06, -1.801881990104448e-05, 0.00011618788266787305, -1.5639239791198634e-05, 5.951161801931448e-05, -6.1522509895439725e-06, -0.00028428659425117075, -7.433976861648262e-05, -0.00019369872461538762, -1.5064876606629696e-05, -0.0005340540665201843, -0.00027739626239053905], [-0.0001790701353456825, 7.268464287335519e-06, 0.00013514004240278155, 8.777444600127637e-05, -6.540070899063721e-06, 2.3056852569425246e-06, -0.00014552449283655733, -1.5844188965274952e-06, -5.962881914456375e-05, 1.0533291060710326e-05, -0.00021759403171017766, -2.230128120572772e-05, -0.00019783507741522044, -2.029201141340309e-06, -0.0002259863103972748, -0.00028689223108813167], [-0.00021624307555612177, 1.3153613508620765e-05, 0.00020637569832615554, 9.951050014933571e-05, -1.0656746781023685e-05, 8.407422865275294e-05, 2.6552809231361607e-06, 4.7894895942590665e-06, 6.000871871947311e-05, -1.8529723092797212e-05, -0.0003280913515482098, -8.543622243450955e-05, -0.000291084055788815, -5.20873754794593e-06, -0.0009341719560325146, -0.000151806088979356], [-8.460402023047209e-05, -4.671145143220201e-05, 0.0001685471215751022, 7.39126480766572e-05, -5.215367491473444e-05, 5.915844303672202e-05, -1.2146198969276156e-05, -3.819311677943915e-05, -4.567905853036791e-05, 1.721277840260882e-05, -0.000287223287159577, -0.00018684464157558978, -0.00026981529663316905, -1.2023788258375134e-05, -0.00023410427093040198, -0.00036408897722139955], [-0.00038985832361504436, -2.4152010155376047e-05, 8.597364649176598e-05, 0.00012023672024952248, -1.680789682723116e-05, 2.496317210898269e-05, -4.76555542263668e-05, -1.5709547369624488e-05, -0.00013729835336562246, 1.349430294794729e-05, -0.0002539955894462764, -8.164759492501616e-05, -0.00022114218154456466, -1.9082923245150596e-05, -0.0002880991669371724, -0.0002978367265313864], [0.000309019727865234, 2.7796322683570907e-05, -9.422479342902079e-05, -3.161918721161783e-05, 4.654132226278307e-06, -8.056969818426296e-05, -5.26873191120103e-05, -2.5761904907994904e-05, -6.096191646065563e-05, -2.582953129603993e-05, 0.0002547943440731615, 0.0001224570005433634, 0.0002161726588383317, 8.855034138832707e-06, 0.0008982748840935528, 0.00010036324965767562], [0.00024631168344058096, 6.283809398155427e-06, -5.938504273217404e-06, 7.107823330443352e-05, -3.286061428298126e-06, -2.265051080030389e-05, -4.884605459665181e-06, 1.0854794396664147e-07, -3.890476727974601e-05, 3.4700514106589253e-07, -4.030857598991133e-05, -2.3234274522110354e-06, -8.041312685236335e-05, 3.1153513191384263e-06, 0.00039686361560598016, -0.0001279545103898272]], "output_biases": [-1.3078968524932861, -0.07431219518184662], "output_weights": [[0.16397380828857422, -0.2139015942811966], [-0.10895319283008575, 0.7496019005775452], [0.23362329602241516, 0.008905327878892422], [-0.24126307666301727, -0.7355462312698364], [-0.00580828869715333, 0.22490397095680237], [-0.29766249656677246, 0.3127518594264984], [-0.0269759688526392, -0.09529302269220352], [-0.10271404683589935, 0.2443910390138626], [0.13312871754169464, 0.5650326013565063], [0.13257968425750732, 0.01036740280687809], [-0.4853343665599823, -0.1478883922100067], [0.5559602975845337, 0.7379345297813416], [-0.4003608226776123, -0.1026044636964798], [-0.13692724704742432, 0.315260112285614], [-0.24757854640483856, -0.4322909116744995], [-0.8820801377296448, -0.09649939090013504]]}, "hk_disentangled_rnn/~update_latents/update_net_1": {"input_biases": [0.04035940766334534, -0.007962685078382492, 0.05989931523799896, 0.011367284692823887, -0.04651268944144249, 0.008132255636155605, -0.024938706308603287, -0.08617961406707764, 0.04871771112084389, -0.006235869601368904, 0.04974549263715744, -0.034861184656620026, 0.0020873150788247585, -0.0923740342259407, -0.021482719108462334, 0.03568383678793907], "input_weights": [[0.47987744212150574, -0.12769824266433716, -0.1737155318260193, -0.18020665645599365, 1.1519336700439453, 0.2138187289237976, 0.030830981209874153, 0.8242896795272827, 0.01990717649459839, 1.1099493503570557, -0.35522526502609253, 0.23064297437667847, -0.36687588691711426, 0.37820330262184143, 0.16115321218967438, 0.41102147102355957], [-0.2921988070011139, 0.6216681003570557, -0.3249832093715668, -0.3746630847454071, -0.6464201211929321, -0.7973935008049011, 0.24867947399616241, -0.16380198299884796, -0.34966519474983215, 0.3220358192920685, -0.593837559223175, -0.1411844938993454, -0.21961115300655365, 0.903400719165802, 0.2751437723636627, 0.31221166253089905], [0.799392580986023, -0.222676619887352, 0.13776014745235443, -0.22768442332744598, -0.6569987535476685, 0.3305455148220062, 0.12909112870693207, 0.27912068367004395, -0.5862880349159241, 0.29157260060310364, 0.22109070420265198, -0.37288999557495117, -1.0485241413116455, -0.10780669003725052, -0.37886834144592285, -0.26460883021354675], [0.23654349148273468, -0.5597798824310303, -0.5029515624046326, 0.46522149443626404, 0.061692800372838974, 0.8941654562950134, -0.23929093778133392, -0.6866755485534668, -0.5452264547348022, 0.0020079277455806732, -0.11978139728307724, -0.6033498644828796, -0.05804327502846718, -0.22190579771995544, -0.15602536499500275, -0.0361727774143219], [0.28156641125679016, -0.5691722631454468, -0.07659346610307693, 0.5863195657730103, -0.2255437672138214, -0.49915018677711487, -0.4974546432495117, 0.03169189766049385, 0.6892400979995728, -0.0897965058684349, -0.16603265702724457, 0.348201721906662, 0.13724713027477264, 0.5544049143791199, 0.2975948750972748, 0.600035548210144], [-0.35368141531944275, -0.1470811814069748, -0.048195645213127136, -0.3253198266029358, -0.4112449288368225, 0.4061221480369568, -0.4064231514930725, 0.5030202269554138, -0.23703879117965698, -0.008010538294911385, 0.32235121726989746, 0.7894007563591003, 0.09036560356616974, -0.09484412521123886, -0.12385714799165726, -0.07026873528957367], [-0.7352089881896973, 0.0838785320520401, -0.635779619216919, -0.5703479647636414, -0.5297409892082214, 0.5089930891990662, -0.4530468285083771, -0.13966824114322662, -0.18437619507312775, 0.3210781514644623, -1.2429345846176147, 0.1646335870027542, -0.696460485458374, 0.03508978337049484, -0.04672846570611, -0.11314033716917038]], "layer_0_biases": [0.16361276805400848, 0.03790789842605591, -0.025403989478945732, -0.060224950313568115, -0.1526191085577011, 0.04661296680569649, -0.007490086834877729, -0.018613871186971664, -0.0706518292427063, 0.07466128468513489, 0.06711395829916, -0.06371793895959854, -0.011023692786693573, -0.12902063131332397, -0.005749496631324291, -0.05152347311377525], "layer_0_weights": [[0.00171425670851022, -0.015700185671448708, -0.007510368246585131, -0.01117034163326025, 0.00017897576617542654, 0.00027877313550561666, -0.006152699701488018, 0.012880874797701836, -0.0039016655646264553, 0.01041188184171915, 0.0011247042566537857, -0.003533758455887437, -0.007011108566075563, 4.272659498383291e-05, -0.00459781289100647, -0.004894878249615431], [-0.002587473252788186, 0.005278102587908506, 0.00209354842081666, 0.00018325365090277046, -2.4405333533650264e-05, -0.0039102924056351185, 0.005035486072301865, -0.0015283002285286784, 0.003083434421569109, -0.003462947905063629, -0.0011695545399561524, 0.002804939169436693, 0.007961747236549854, 2.3289097953238524e-05, 0.02000468596816063, -0.0006661233492195606], [0.000103802936791908, -0.0010181072866544127, -0.0032274113036692142, -0.011757982894778252, -6.17390833212994e-05, 0.0017551543423905969, 0.007603414356708527, 0.004309189971536398, -0.006021146662533283, 0.009359496645629406, 0.000617486541159451, -0.005160461645573378, 0.001955697312951088, -0.0001159457751782611, 0.014031417667865753, -0.004673449322581291], [0.0020082721021026373, -0.0010836527217179537, -0.007900523021817207, -0.0007788273505866528, -7.93261278886348e-06, 0.005556102842092514, 0.001813346752896905, 0.008175775408744812, -0.0021616800222545862, 0.003132521640509367, 0.0012029950739815831, -0.0017844048561528325, -0.00971907190978527, -4.2236875742673874e-05, -0.018624991178512573, 0.0008133020019158721], [-0.0007212552591226995, -0.0090448884293437, 0.008604452945291996, -0.010314909741282463, 8.900961256586015e-05, -0.00359084689989686, -0.005427774041891098, 0.0001707565679680556, 0.00699716666713357, 0.016965439543128014, -0.0008169946377165616, 0.006310633383691311, -0.0283762589097023, 3.1874147680355236e-05, 7.290916983038187e-05, 0.014578282833099365], [0.0012095554266124964, -0.004119315184652805, 0.019842322915792465, 0.004163021221756935, 8.852703467709944e-05, 0.0023851545993238688, -0.0034863504115492105, -0.010040492750704288, -0.00043782952707260847, 0.002861535642296076, 0.000790130696259439, -0.0006456717965193093, -0.010186701081693172, 3.604647645261139e-05, -0.010103457607328892, 0.003108557779341936], [-0.0013810747768729925, -0.0019661523401737213, 0.0007145754643715918, -0.006058609578758478, 1.948700264620129e-05, -0.0021279656793922186, 0.004120870027691126, 0.005689467303454876, -0.00011862205428769812, 0.0048446934670209885, -0.00041076019988395274, -0.00019850462558679283, 0.0004992720205336809, 2.2760581487091258e-05, 0.01289574895054102, -0.0025426014326512814], [-0.0005262023187242448, -0.009916650131344795, -0.0007629040046595037, -0.014208951033651829, 5.8115459978580475e-05, -0.004152684938162565, -0.0073186494410037994, -0.0053642503917217255, -0.0009754524799063802, 0.009547674097120762, -0.0008208378567360342, -0.001149117248132825, -0.0019402106991037726, 5.2667586714960635e-05, 0.01537500973790884, 0.0072446055710315704], [0.0006788576138205826, 0.005884865764528513, -0.008609228767454624, -0.0020766223315149546, -0.00010657038365025073, -0.0012005530297756195, 0.001501442864537239, 0.004837737884372473, 7.421899499604478e-05, 0.0037296770606189966, -0.00010850976104848087, 0.000876992882695049, -0.0018474054522812366, -5.796836194349453e-05, -0.0034464194905012846, -0.002200843533501029], [-0.0009208724950440228, -0.012567801401019096, 0.0022017278242856264, -0.0014440026134252548, 7.019710028544068e-05, -0.00731246592476964, -0.015553859993815422, -0.0011436960194259882, 0.007487548980861902, 6.872689846204594e-05, -0.0008040741086006165, 0.006275652442127466, -0.0070002940483391285, 4.995999552193098e-05, 0.0011306171072646976, 0.006286323070526123], [0.0006186259561218321, -0.005609971936792135, -0.003045654622837901, -0.019315605983138084, 6.50666406727396e-05, 0.008993791416287422, 0.011225550435483456, 0.0004324463661760092, -0.011918976902961731, 0.01721872016787529, 0.0008044390706345439, -0.011333866976201534, -0.005130207631736994, -3.058440051972866e-05, 0.010032308287918568, 0.00506170280277729], [-0.00019464259094092995, 0.0016481645870953798, -0.0018987240036949515, -0.005377454217523336, 4.082497252966277e-05, -1.2857689398515504e-05, -0.002229501726105809, -0.011800228618085384, -0.00031818781280890107, 0.00286878552287817, -0.001005969475954771, -5.123299706610851e-05, 0.0012623356888070703, -3.498181467875838e-05, 0.0066980780102312565, 0.011196835897862911], [-0.00046797198592685163, 0.006361088715493679, -0.003294959431514144, -0.004947727546095848, 2.264315980937681e-06, 0.0070853885263204575, 0.010990346781909466, -0.003974150400608778, -0.0012929794611409307, 0.006056665442883968, -0.00033118209103122354, -0.0013049192493781447, -0.011045832186937332, -4.3211603042436764e-05, -0.0010439916513860226, 0.01430200319737196], [-0.0008258847519755363, -0.0036384861450642347, -0.014509065076708794, 0.002248940523713827, 4.058050035382621e-05, -0.003916955552995205, -0.009755644015967846, 0.003908769693225622, 0.005337314680218697, -0.006756461225450039, -0.0012403613654896617, 0.004391665570437908, 0.0030710757710039616, 5.668415906256996e-05, -0.003955078776925802, 0.005623011849820614], [-0.0005110204801894724, 0.001157388323917985, -0.005669038742780685, 0.0011096217203885317, -1.5153634194575716e-05, -0.0015732258325442672, -0.002625553635880351, 0.0015863978769630194, 0.0032765064388513565, -0.0013837222941219807, -0.000792696257121861, 0.0029177749529480934, -0.002201853087171912, 6.144928192952648e-05, -0.003315049922093749, 0.004648561589419842], [0.0001271986257052049, -0.0041505759581923485, -0.010182708501815796, -0.0001339003792963922, 7.119208021322265e-05, -0.001047799363732338, -0.007594129536300898, 0.0030923124868422747, 0.0036770442966371775, -0.0016427870141342282, -0.00048763101221993566, 0.0030814309138804674, -0.005272200796753168, 7.874889706727117e-05, -0.007364526856690645, 0.006959364749491215]], "layer_1_biases": [0.10846153646707535, 0.016878576949238777, 0.0535641647875309, 0.020221279934048653, -0.01023408118635416, -0.027673937380313873, -0.009104780852794647, -0.012447183020412922, 0.006020324304699898, -0.05955119431018829, 0.05321794003248215, 0.020936407148838043, 0.039790041744709015, -0.03700198978185654, -0.12797078490257263, 0.02340930700302124], "layer_1_weights": [[0.0011514112120494246, -0.01182167511433363, -0.0012902136659249663, -0.0033039143308997154, -0.0003217862104065716, 1.0897811080212705e-05, -2.3190328647615388e-05, 1.1262945918133482e-05, 0.008647528477013111, 0.010218750685453415, 0.000551485107280314, -0.005859015975147486, 0.004247376695275307, 2.5104576707235537e-05, 0.0061523159965872765, -0.016567174345254898], [-0.0022175691556185484, 0.0010787853971123695, -0.006336181424558163, 0.0027504432946443558, 0.0009300478268414736, 1.9599108327383874e-06, 2.9080792955937795e-05, 3.845767423626967e-06, 0.00016812987450975925, -0.014074132777750492, -0.0008324155933223665, 0.0011481166584417224, -0.009385296143591404, 2.180111187044531e-05, -0.001978300977498293, 0.009813481941819191], [0.0001441812637494877, 0.0010342351160943508, 0.00038824844523333013, 0.0016759498976171017, 0.001100416760891676, -5.311406130203977e-05, 4.6003624447621405e-05, -7.69684265833348e-05, 0.006331116892397404, 0.002593624871224165, 0.00011556720710359514, 0.0022928151302039623, -0.0027158260345458984, -0.00010654012294253334, -0.019137844443321228, -0.003769167000427842], [0.0014671239769086242, -0.0013628402957692742, 0.0030033201910555363, 0.0024440826382488012, -0.0002127438347088173, -1.4814608221058734e-05, -5.570167922996916e-05, -3.496325734886341e-05, 0.0004688281915150583, 0.0035750821698457003, 0.0006650218274444342, 0.006922526750713587, 0.003234082367271185, -4.291546065360308e-05, -0.0007059557246975601, -0.011872069910168648], [-0.0008417508215643466, -0.016771657392382622, -0.013013294897973537, -0.013883961364626884, 0.0003106537915300578, 6.021887020324357e-05, 9.670757208368741e-06, 4.3095995351905e-05, -0.011114814318716526, -0.013704493641853333, -0.0005973218940198421, -0.003729009535163641, 0.01928737387061119, 3.0720155336894095e-05, 0.018053581938147545, 0.0016476894961670041], [0.000894176890142262, -0.0047283233143389225, 0.004621441010385752, -0.00583993224427104, 0.00021140264288987964, 6.628916889894754e-05, -8.040617103688419e-06, 5.053984932601452e-05, -0.00242259306833148, 0.014059348963201046, 0.00036626082146540284, -0.002013997407630086, 0.023395709693431854, 3.3814521884778515e-05, 0.006239654030650854, -0.0008804342360235751], [-0.0012835621600970626, -0.006808630656450987, -0.006916654296219349, 0.0004131552414037287, 0.0011794095626100898, 3.4010490708169527e-06, -1.2421544397511752e-06, -5.8007963161799125e-06, 0.0059786606580019, -0.008687511086463928, -0.00021040045248810202, 0.0006022958550602198, -0.0024182985071092844, 1.881821663118899e-05, 0.001315317233093083, -0.0023158721160143614], [-0.0002245431678602472, -0.0027476444374769926, -0.005913873668760061, -0.01413721777498722, -0.00029317187727428973, 2.5868164811981842e-05, 4.1694973333505914e-05, 5.5288699513766915e-05, -0.003127425443381071, 0.005321487784385681, -0.0006007581250742078, -0.01255714800208807, 0.0037809626664966345, 4.8398549552075565e-05, 0.0012269795406609774, 0.002661206526681781], [0.001030924846418202, 0.007245359476655722, 0.0043470305390655994, 0.006217312067747116, -0.0008637956925667822, 2.4160037355613895e-05, 8.212884131353348e-05, 2.283177536810399e-06, -0.005143674090504646, -0.0061709159053862095, 8.52970260893926e-05, 0.004080075770616531, -0.00795786827802658, -4.982828613719903e-05, -0.016083212569355965, 0.005254039075225592], [-0.0010380921885371208, -0.010272310115396976, -0.008585016243159771, -0.010646284557878971, -0.0011352600995451212, 1.029353188641835e-05, -4.349963546701474e-06, 3.844690945697948e-05, -0.005247333087027073, -0.004695767071098089, -0.0005807771813124418, -0.014536682516336441, 0.004054374061524868, 3.924843258573674e-05, 0.024221276864409447, 0.0031339083798229694], [0.00019209344463888556, -0.0027298724744468927, -0.0027950021903961897, -0.008813777007162571, 0.002617520745843649, -2.173287384721334e-06, -6.100317114032805e-05, -3.134042344754562e-05, 0.007063486613333225, 0.015020846389234066, -0.00010182684491155669, 0.004197472240775824, 0.010832264088094234, -2.908843453042209e-05, -0.01515085157006979, -0.016156967729330063], [7.891627319622785e-05, 0.00977947935461998, 0.00011551073839655146, -0.009599467739462852, -0.00016551159205846488, -3.072527306358097e-06, 6.35929754935205e-05, -7.601966899528634e-06, -0.009504049085080624, 0.003963246010243893, -0.000907963200006634, -0.005045061931014061, 0.0010276465909555554, -2.915201366704423e-05, -0.006376171950250864, 0.008055882528424263], [-0.0005711923586204648, 0.003485399531200528, -0.00467647984623909, -0.005754951853305101, 0.0017672402318567038, -3.3589510621823138e-06, -4.696164251072332e-05, -2.6773715944727883e-05, -0.007945907302200794, -0.0063078394159674644, -0.0005674056010320783, 0.010544013231992722, 0.0062305205501616, -3.388838013052009e-05, -0.005367794539779425, -0.0017191753722727299], [-0.0008160116849467158, -0.0007359153823927045, -0.006277046166360378, -0.004101004917174578, -0.0012489751679822803, -3.267058127676137e-05, -5.251342008705251e-05, 2.70504315267317e-05, -0.0035718013532459736, -0.006758550647646189, -0.0007792227552272379, -0.006577101536095142, -0.010770434513688087, 5.437263098428957e-05, 0.020152460783720016, -4.869959957432002e-05], [-0.0005197023274376988, 0.00039808134897612035, -0.0034979491028934717, -0.0013029087567701936, -0.0004103201499674469, 2.149489228031598e-05, 1.1955782611039467e-05, 3.0813422199571505e-05, -0.004944644868373871, -0.007550631649792194, -0.0005903004202991724, -0.00027907584444619715, -0.003835629904642701, 5.9273370425216854e-05, 0.006280668545514345, 0.0029770261608064175], [-0.00010516752081457525, -0.0012091455282643437, -0.0040758270770311356, -0.005326615646481514, -0.0010222865967079997, 2.0679064618889242e-05, -3.756800651899539e-05, 5.188809154788032e-05, -0.005340754985809326, -0.004002040717750788, -0.0004842421622015536, -0.004022977314889431, -0.0028226471040397882, 7.791983080096543e-05, 0.013808619230985641, -0.00197944906540215]], "layer_2_biases": [0.13323229551315308, 0.021659022197127342, 0.024944430217146873, 0.014239000156521797, -0.013976683840155602, -0.04803107678890228, -0.0879369005560875, -0.02187247946858406, 0.02880200371146202, -0.02943345159292221, -0.07655158638954163, -0.03946184366941452, -0.0010384684428572655, -0.01817905902862549, -0.133504256606102, 0.06132607161998749], "layer_2_weights": [[0.000784778269007802, -0.010630014352500439, 0.0004420764744281769, -0.012638580054044724, 6.0754711739718914e-05, -0.0021204028744250536, -0.00586098525673151, 7.231703420984559e-06, -0.00044580205576494336, -0.013886946253478527, 4.315042679081671e-05, 0.002526082331314683, -0.004638860933482647, 0.00964481383562088, 0.004336932674050331, 0.0005446424474939704], [-0.0018455807585269213, 0.0068069822154939175, 0.00026911069289781153, 0.0037691837642341852, -2.016937742155278e-06, 0.000988001236692071, 0.004782115109264851, 2.7094115466752555e-06, 9.541000508761499e-06, 0.009443603456020355, 1.2620697816601023e-05, 0.0009051102097146213, 0.0008542307768948376, -0.002719926182180643, 0.0076601686887443066, -0.00015565021021757275], [0.0002013354969676584, 0.000997838913463056, 0.00023272988619282842, -0.0017041111132130027, -7.438563625328243e-05, -0.00438721152022481, -0.00864657573401928, -7.163082773331553e-05, 0.00027643784414976835, -0.005653397645801306, -0.00010269058111589402, 3.1114763260120526e-05, -0.0059954263269901276, 0.0020144025329500437, -0.011494379490613937, 9.452322410652414e-05], [0.0010207254672423005, 0.0006816508830524981, 0.0009574114810675383, -0.002149369800463319, -2.3824992240406573e-05, -0.0015599296893924475, -0.015453374944627285, -3.0058654374442995e-05, -0.0017360650235787034, -0.00010257890971843153, -1.708083800622262e-05, -0.005899116396903992, -0.0011502520646899939, 0.004852520301938057, -0.008441442623734474, 0.0009089817176572978], [-0.0010253720683977008, -0.00831754319369793, -0.0012185857631266117, -0.01272384263575077, 8.845829142956063e-05, 0.004865831229835749, 0.006921411491930485, 3.6646371881943196e-05, 0.0011257437290623784, -0.02390950173139572, 4.861213164986111e-05, -0.018976999446749687, 0.015396391972899437, -0.0007016658782958984, 0.017538830637931824, -0.0007402749615721405], [0.0008755035814829171, -0.006441559176892042, -0.00015343015547841787, 5.7489585742587224e-05, 0.00010335461411159486, 7.576814095955342e-05, -0.0017552495701238513, 5.9868158132303506e-05, -0.00036084442399442196, -0.011145196855068207, 3.7109090044396e-05, -0.0003317384689580649, 0.021625619381666183, -0.006428692024201155, -0.012039147317409515, 0.0006001777364872396], [-0.0011834321776404977, 0.00016259567928500473, -0.0004660290142055601, -0.004861913155764341, 3.084893978666514e-05, -0.00021177082089707255, -0.001509595662355423, -6.312137884378899e-06, 0.00047101295785978436, -0.0005401811795309186, 3.684297189465724e-05, 0.0006634474266320467, 0.0021524548064917326, 0.002852143021300435, 0.011281459592282772, -0.0005745175876654685], [-0.0002082044811686501, -0.00863970909267664, -0.0005663849296979606, -0.006592640187591314, 3.628480408224277e-05, -0.0005581887671723962, 0.018696479499340057, 3.866359838866629e-05, 0.0012873199302703142, -0.016948483884334564, 1.8953365724883042e-05, 0.000415351300034672, -0.010215646587312222, -0.001713195932097733, 0.005558728240430355, -0.00019403187616262585], [0.0007952951127663255, 0.003063538344576955, 0.0007307194173336029, 0.001944660791195929, -6.515325367217883e-05, 7.977900531841442e-05, -0.005452974233776331, -1.8050758399112965e-06, 0.00029435878968797624, -0.0032291074749082327, -3.6511624784907326e-05, -0.009725634008646011, -0.009064389392733574, 0.0027599241584539413, -0.007901388220489025, 0.0001929322606883943], [-0.0009045668411999941, -0.008818102069199085, -0.0005331054562702775, -0.007503225468099117, 3.393246151972562e-05, 0.004831200931221247, 0.021801691502332687, 2.4525646949768998e-05, 0.0007703353185206652, -0.010073649697005749, 1.664755109231919e-05, -0.001013865345157683, 0.0010505353566259146, 0.0005581154837273061, 0.02307785488665104, -0.00024284272512886673], [-4.782418909599073e-05, -0.0023486334830522537, 0.000932953495066613, -0.0058295633643865585, 4.7190966142807156e-05, -0.007897952571511269, -0.015590283088386059, -3.881254087900743e-05, -0.002085163025185466, -0.009374815039336681, -8.144198545778636e-06, 0.0011231733951717615, -0.0027548731304705143, -6.301728717517108e-05, -0.01735313981771469, 0.0013668759493157268], [0.00023959492682479322, -0.0008397261262871325, 6.421223224606365e-05, 0.004340285435318947, -1.568833067722153e-05, -0.0003172179567627609, 0.013346985913813114, -2.0827965272474103e-05, 0.00020681445312220603, -0.0045645409263670444, -4.0951923438115045e-05, -0.0029241503216326237, -0.01004397589713335, -0.006896080914884806, -0.007727448828518391, 0.00024466088507324457], [-0.000718075199984014, 0.007534457836300135, 0.0007939701317809522, 0.00252361292950809, 2.711213892325759e-05, -0.0011143304873257875, -0.01043595653027296, -1.55768939293921e-05, -0.002100443234667182, 0.00249847280792892, -1.0981304512824863e-05, -0.010863160714507103, 0.0022156538907438517, -0.004899840801954269, -0.009847546927630901, 0.0008181877783499658], [-0.0007660835399292409, -0.0014004292897880077, 0.0001513456809334457, -0.0028721054550260305, 3.872216893796576e-06, 0.003761634463444352, 0.01539582945406437, 1.2428693480615038e-05, -0.0004923315136693418, 0.00715270871296525, 2.6012239686679095e-05, 0.0019479611655697227, -0.014835549518465996, 0.003960911650210619, 0.023450469598174095, -6.470693915616721e-05], [-0.0004539623041637242, -0.00035230678622610867, -0.000276180770015344, -0.0004763724282383919, -1.4914416169631295e-05, 0.0025632414035499096, 0.0061830575577914715, 3.2086903956951573e-05, 0.0001615477231098339, 0.0023465927224606276, 6.536933506140485e-05, -0.004206567537039518, -0.004010765813291073, 0.0010387024376541376, 0.010996263474225998, -0.00043382681906223297], [-0.0002585558104328811, -0.0021697261836379766, 0.0006273889448493719, -0.0028387655038386583, 2.0391842554090545e-05, 0.002688732696697116, 0.010192234069108963, 3.548325548763387e-05, -0.0009885273175314069, -0.0003748908929992467, 5.7754099543672055e-05, -0.0038683281745761633, -0.008273460902273655, 0.002526898868381977, 0.013597278855741024, 0.0004755519039463252]], "layer_3_biases": [0.33228638768196106, 0.001137438928708434, 0.03182327374815941, -0.08756715804338455, -0.014040783047676086, 0.03227313235402107, 0.06275570392608643, -0.07411569356918335, 0.035942986607551575, -0.02957758493721485, 0.010301530361175537, -0.03245358169078827, 0.0352620854973793, 0.033588238060474396, -0.029909545555710793, 0.023733342066407204], "layer_3_weights": [[0.0003233673342037946, 0.007068735547363758, 0.001307549187913537, -0.006590154021978378, 5.8976405853172764e-05, -0.0048932889476418495, -0.004018083680421114, 1.633520150789991e-05, -0.001190463430248201, 0.022511471062898636, 0.001893507898785174, 2.142279117833823e-05, 0.0016516310861334205, -0.0008695252472534776, 0.009113960899412632, -0.010302476584911346], [-0.0012150992406532168, -0.009206902235746384, 0.000502103241160512, 0.006093593779951334, -2.417006362520624e-05, -0.0008742587524466217, -0.0007109703146852553, 3.6957233078283025e-06, -0.0004298569692764431, -0.013241835869848728, -0.005593105219304562, 1.9282788343844004e-05, 0.0008137364056892693, -1.0456448762852233e-05, -0.0029935806524008512, 0.009447518736124039], [0.0002570814685896039, -0.0004883517976850271, -0.0003546345396898687, -0.0015073668910190463, -7.86928940215148e-05, 0.000875217723660171, -0.005646683741360903, -7.226719026220962e-05, 0.0010340209119021893, 0.0033760599326342344, -0.004144779406487942, -5.649353624903597e-05, -0.0009417845867574215, 0.00026988619356416166, 0.0066683595068752766, 0.0022962281946092844], [0.00045316401519812644, 0.003853414673358202, 0.001142936642281711, 0.0019169177394360304, -7.576837560918648e-06, 0.007591035682708025, -0.01164577342569828, -3.065355485887267e-05, -0.001859238720498979, 0.01368391141295433, 0.005202853120863438, -4.5733791921520606e-05, 0.0012690862640738487, -0.0005483169225044549, 0.00424934783950448, -0.0005560307181440294], [-0.0004965179832652211, 0.0057699247263371944, -0.0007629187894053757, 0.014329567551612854, 7.877982716308907e-05, 0.001608494552783668, -0.008218321017920971, 3.305369318695739e-05, 0.000562432745937258, 0.0069707781076431274, -0.0043944246135652065, 3.164986628689803e-05, -0.0002892504562623799, -0.0006323906127363443, -0.030988065525889397, -0.007356193382292986], [0.0005265471409074962, 0.0059936754405498505, -0.00026952996267937124, -0.009503028355538845, 8.194067777367309e-05, 0.0014108605682849884, 0.006985895801335573, 6.359108374454081e-05, -0.000322425999911502, 0.008854296989738941, 0.0007681403658352792, 2.403062353550922e-05, 0.000734606059268117, -0.0004614963836502284, -0.01381203904747963, -0.010981150902807713], [-0.0008687590016052127, -0.006101639941334724, -0.0008609305368736386, 0.0039157867431640625, 2.1421075871330686e-05, -0.001138684805482626, -0.0034140534698963165, 1.7127093769886415e-06, 0.0008794296882115304, 0.00220127054490149, -0.0038781561888754368, 1.0583154107735027e-05, -0.0007389899692498147, 0.0001689544296823442, 0.0024593223351985216, 0.0031150865834206343], [0.00015980895841494203, 0.006969871465116739, -0.00014455628115683794, -0.00022644083946943283, 3.356952947797254e-05, -0.012299338355660439, 0.007232803385704756, 3.318132439744659e-05, 0.0009872360387817025, -0.001735279569402337, -0.005832166876643896, 4.423085556481965e-05, -0.00045113221858628094, 0.00020015015616081655, -0.0040280502289533615, -0.00868935789912939], [0.0007675976376049221, 0.005438285414129496, 0.0012701668310910463, 0.005478542763739824, -4.738846473628655e-05, 0.0063117253594100475, -0.011989032849669456, -1.846139639383182e-05, -0.00044042477384209633, -0.0031335267703980207, -0.00042343171662651, 6.480637239292264e-05, 0.00030350001179613173, -0.00018738547805696726, -0.008320754393935204, 0.006048195995390415], [-0.0004928128328174353, 0.0038064606487751007, 0.0007044737576507032, 0.0026086680591106415, 2.745784331636969e-05, -0.012341270223259926, 0.009633696638047695, 2.01628208742477e-05, -0.0005988985649310052, 0.0010348781943321228, -0.0022643618285655975, 3.6557125895342324e-06, 0.001327255042269826, -0.0005979384877718985, -0.013876051642000675, -0.008521392941474915], [-0.00043744061258621514, 0.003041400806978345, 0.0012077088467776775, -0.002904249122366309, 4.995546623831615e-05, -0.0004608493472915143, -0.010586479678750038, -3.475544508546591e-05, -0.0021275170147418976, 0.014727630652487278, -0.003317966591566801, -4.0133032598532736e-05, 0.0021115795243531466, -0.0005163409514352679, 0.016057811677455902, -0.005022049881517887], [0.000586778623983264, 0.006400267127901316, -0.0003180567582603544, 0.0010623281123116612, -4.753255780087784e-06, -0.005623874720185995, 0.007571451831609011, -2.7367861548555084e-05, 0.0007742934976704419, -0.012745680287480354, -0.0030154434498399496, 2.128472442564089e-05, -0.0008318502805195749, 0.0005273181013762951, -0.0024169532116502523, -0.003684211988002062], [-0.0007067336118780077, -0.0009882351150736213, 0.001450083334930241, 0.01248349528759718, 3.181158535880968e-05, 0.007799758110195398, -0.015648845583200455, -1.0503340490686242e-05, -0.002842591842636466, -0.002999984659254551, -0.001210222952067852, -4.7208803152898327e-05, 0.002313358476385474, -0.00061160943005234, -0.0025979699566960335, 0.004883528221398592], [-0.00041372180567122996, -0.00044184320722706616, -0.0003117590968031436, 0.007949852384626865, 1.5698240531492047e-05, -0.007850772701203823, 0.006144375074654818, 1.966425588761922e-05, 0.000264609552687034, -0.005515066906809807, 0.0030759309884160757, -2.476094050507527e-05, -0.000618228514213115, 0.00029722877661697567, 0.008843502961099148, -0.0005241577164269984], [-0.0001376648579025641, -0.00044914407772012055, -0.0009405574528500438, 0.006341517437249422, 1.7216187188751064e-05, -0.0009116428554989398, 0.0007881435449235141, 4.6645138354506344e-05, 0.0009675683104433119, -0.0051981545984745026, 0.0007729303324595094, 3.391451173229143e-05, -0.001350135775282979, 0.0003984078939538449, -0.0032008111011236906, 0.0012243747478350997], [-2.6817619072971866e-05, 0.0033599359448999166, -2.5492410713923164e-05, 0.007625252474099398, 5.344648889149539e-05, -0.004463664721697569, 0.0016803806647658348, 4.6720502723474056e-05, -7.522445230279118e-05, -0.001278870040550828, 0.002393061527982354, -1.7756025272319675e-06, -0.00019389804219827056, 1.971878737094812e-05, 0.0001603105483809486, -0.002611833158880472]], "layer_4_biases": [0.3074275851249695, -0.03442569449543953, -0.0015336181968450546, -0.022736597806215286, -0.004674976225942373, 0.06117342785000801, -0.10102955251932144, -0.1608891636133194, -0.03626716881990433, 0.009231661446392536, 0.02170584350824356, 0.0048366328701376915, -0.02802702784538269, 0.025007275864481926, -0.042902544140815735, 0.029351459816098213], "layer_4_weights": [[-0.0004502053780015558, 0.012507051229476929, 0.009433114901185036, -0.009298802353441715, 4.090247239219025e-05, -0.00127875292673707, -0.02455737255513668, 4.5507491449825466e-05, -0.0029646148905158043, -0.007607012055814266, -0.0031474982388317585, -0.008698046207427979, 0.012955762445926666, -0.0007924099918454885, 0.0009170044213533401, -0.005045044235885143], [-7.095585169736296e-05, -0.01324405986815691, -0.012466545216739178, 0.013983231969177723, -8.406910637859255e-06, -0.00010167381697101519, 0.013752976432442665, 3.4973752462974517e-06, 0.008013305254280567, 0.013479001820087433, -0.0005200846353545785, 0.0005199312581680715, -0.003001769306138158, -0.0001123493057093583, 0.01465103030204773, 0.001556097762659192], [0.00011796953185694292, 0.004293129313737154, -0.0019818712025880814, 0.0015538795851171017, -8.745836566959042e-06, 0.0009370660409331322, -0.014828282408416271, -6.041847154847346e-05, 0.010018100962042809, 0.008548317477107048, 0.00048658312880434096, -0.00222638132981956, 0.0033344076946377754, 0.00042706102249212563, 0.009629299864172935, 0.001630330109037459], [-0.0004892791039310396, 0.012453528121113777, 0.007624360267072916, -0.0035933488979935646, -2.0645917174988426e-05, -0.0013121875235810876, -0.014368554577231407, -2.6719690140453167e-05, -0.010838561691343784, -0.006616710219532251, 0.004352597985416651, 0.0021214752923697233, 0.0033189444802701473, -0.0005638549337163568, -0.019002174958586693, 0.005768998991698027], [-0.0002748887345660478, 0.008413217030465603, -0.017624566331505775, -0.010641525499522686, 3.368080433574505e-05, 0.0001338342553935945, 0.00469247717410326, 5.1216953579569235e-05, 0.010600483044981956, -0.017693551257252693, 0.0008004248957149684, 0.0006374664371833205, 0.00085645099170506, -0.00011020773672498763, -0.007278143428266048, -0.008629808202385902], [0.000298657309031114, -0.005905706435441971, 0.0031448679510504007, -0.0184542965143919, 5.662440162268467e-05, 0.00018867108155973256, -0.0017324023647233844, 7.067263504723087e-05, -0.006446001119911671, -0.020619336515665054, 0.0011501401895657182, 0.004058642312884331, -0.011916973628103733, 0.00022048651590012014, -0.022552745416760445, -0.008531131781637669], [-0.0003784030268434435, -0.005654545500874519, -0.009645206853747368, 0.004353720229119062, -4.076242021255894e-06, 0.00022698719112668186, 0.0018672551959753036, 1.7193277017213404e-05, 0.004174055065959692, 0.0030560693703591824, -0.0006384018925018609, -0.0031774321105331182, 0.0019192169420421124, -1.0666954608495871e-07, 0.011009260080754757, -0.00428566662594676], [0.00016517145559191704, 0.006840401794761419, -0.004671444650739431, -0.005250084679573774, 2.4456991013721563e-05, 0.0001685482420725748, -0.0008025610586628318, 2.6039064323413186e-05, 0.012803050689399242, 0.002653924049809575, -0.00808530580252409, -0.007364783901721239, 0.012701609171926975, -3.170026320731267e-05, 0.018777092918753624, -0.006463579833507538], [0.0003461047017481178, 0.014014697633683681, 0.0018396452069282532, 0.003599318442866206, 1.9563773093977943e-05, -0.0006523220799863338, -0.008888526819646358, -3.6094712413614616e-05, 0.010799196548759937, 0.012157411314547062, 0.0034467747900635004, 0.0014407271519303322, 0.002582661574706435, -0.00028749805642291903, -0.008509812876582146, 0.007755866274237633], [-0.00026921703829430044, 0.0017434488981962204, -0.0007338970899581909, -0.00424210075289011, 1.489106762164738e-05, -0.0010888881515711546, 0.007563021965324879, 1.2788293133780826e-05, 0.004988020285964012, -0.0072809853591024876, -0.008017688989639282, -0.007767322473227978, 0.006435046438127756, -0.0007183890556916595, 0.01015262771397829, -0.00819273479282856], [-0.0009138237801380455, 0.005532561335712671, -0.0026682233437895775, -0.005969149060547352, -4.112212081963662e-06, -0.0011939656687900424, -0.01456459704786539, 1.331628482148517e-05, -0.006760625634342432, -0.004533029161393642, -0.0002009856834774837, -0.0015047274064272642, 0.012971162796020508, -0.0005525948363356292, 0.0016482078935950994, -0.0001262082514585927], [0.0007724189781583846, 0.003434621961787343, -0.0030576593708246946, -0.0017083020647987723, 2.263376700284425e-05, 0.00047415948938578367, 0.008549983613193035, -1.9391440218896605e-05, 0.0035825318191200495, 0.005152375437319279, -0.00411759689450264, 0.000657557335216552, 0.006411838345229626, 0.00025587837444618344, 0.010699539445340633, 0.0009423929732292891], [-0.0003178140614181757, 0.0016260648844763637, -0.011155126616358757, 0.002334513468667865, -1.1023080332961399e-05, -0.0006355582736432552, 0.007332200184464455, 2.4847711756592616e-05, -0.007023504003882408, -0.00455662002786994, 0.0051272111013531685, 0.006850398611277342, 0.0006507162470370531, -0.00030922601581551135, -0.007064685691148043, 0.006348556373268366], [-0.00021371695038396865, 0.004313339479267597, 0.00023863051319494843, 0.0072035714983940125, -5.8997120504500344e-06, -0.00026212254306301475, 0.012254533357918262, 1.2232370863785036e-05, -0.0050685834139585495, 0.0021995389834046364, -0.004880467429757118, -0.004689610097557306, 0.012692417949438095, -0.0003401823341846466, 0.018202761188149452, 0.000664308900013566], [0.0001684854069026187, 0.0021410195622593164, -0.0034845168702304363, 0.002958210650831461, 9.724514711706433e-06, 0.000941553502343595, 0.010400584898889065, 3.628604099503718e-05, 0.0004439737240318209, -0.0009340508258901536, -0.0007347357459366322, 0.0002366413245908916, 0.003705186303704977, 0.0003479488077573478, 0.009898261167109013, 0.0003543483617249876], [-3.673939863801934e-05, 0.008345316164195538, 0.0008617151761427522, 0.0009422723669558764, 6.808301804994699e-06, -8.910777978599072e-06, 0.00680392375215888, 4.168010491412133e-05, -0.0026905671693384647, -0.003164307214319706, -0.002660461002960801, -0.0020076162181794643, 0.009519080631434917, -0.00019131836597807705, 0.008833421394228935, 0.0011326102539896965]], "output_biases": [0.7308393120765686, 0.014401238411664963], "output_weights": [[1.054026484489441, -0.04446582496166229], [1.080790400505066, 0.3361978232860565], [0.31260940432548523, 0.2947480380535126], [-1.2465802431106567, 0.2880953550338745], [0.996221661567688, -0.0835251659154892], [0.3265886902809143, -0.19553710520267487], [0.8158036470413208, -0.6861740946769714], [0.6612928509712219, -0.1061522364616394], [0.4563407599925995, -0.3536197245121002], [0.8162595629692078, 0.465844988822937], [-0.37839868664741516, -0.13108867406845093], [0.37754374742507935, -0.24869239330291748], [-0.3206750750541687, 0.381683886051178], [0.015614009462296963, -0.08706928789615631], [0.4587612748146057, -0.9243056774139404], [0.5657131671905518, 0.2797200381755829]]}, "hk_disentangled_rnn/~update_latents/update_net_2": {"input_biases": [0.006967219058424234, 0.03988559544086456, -0.10965288430452347, -0.08585682511329651, 0.09334750473499298, -0.06851435452699661, 0.05202965438365936, -0.0672815591096878, -0.052520960569381714, -0.059938009828329086, 0.05894815921783447, 0.08279886096715927, -0.0849040299654007, -0.04635753855109215, 0.045163799077272415, -0.08187538385391235], "input_weights": [[-0.3727594017982483, 0.7231049537658691, 0.46085262298583984, 0.5852738618850708, -0.12002181261777878, 0.7657261490821838, 0.38043785095214844, 0.6895343661308289, 0.8999544978141785, 1.2775872945785522, -0.6598514318466187, -0.5390243530273438, 0.04053448885679245, 0.1252763271331787, -0.721550703048706, -0.022349761798977852], [-0.09270807355642319, -0.20821034908294678, -0.25325724482536316, 0.041292186826467514, -0.5540074706077576, 0.05321383848786354, 0.036901045590639114, 0.10564862191677094, -0.4255475699901581, 0.16386446356773376, 0.915955662727356, -0.1015857681632042, 0.9451436400413513, 0.6002210378646851, 0.325607568025589, 0.17856727540493011], [-0.1442195326089859, -0.31429383158683777, -0.31183966994285583, -0.7371488213539124, 0.5448371171951294, -0.45531657338142395, -0.15053214132785797, 0.34021833539009094, 0.1887889951467514, 0.4291630983352661, -0.04974691569805145, -0.7942542433738708, 0.05470479652285576, 0.3969341218471527, 0.03282996639609337, 0.006091703660786152], [-0.8858243227005005, 0.02228316105902195, -0.4216916561126709, -0.37139901518821716, 0.07693946361541748, 0.1613050103187561, -0.31503456830978394, 0.01489837933331728, 0.03132849186658859, 0.17620216310024261, -0.342877060174942, -0.08156456798315048, -0.4849587678909302, -0.061103008687496185, 0.39789870381355286, 0.18078511953353882], [0.5081951022148132, -0.040042415261268616, -0.9049010276794434, 0.2352786660194397, 0.24247775971889496, -0.08734646439552307, -0.18580685555934906, 0.6909337639808655, 0.04480573907494545, -0.48577412962913513, -0.07220525294542313, 0.5343085527420044, -0.2520028054714203, 0.4026201069355011, 0.23373693227767944, 0.02125447802245617], [0.4421716034412384, -0.017781049013137817, -0.12340212613344193, -0.349920392036438, -0.11220327764749527, -0.03874044120311737, 0.2786885201931, 0.2836397588253021, 0.23742544651031494, -0.48352962732315063, 0.5238440036773682, 0.4145643711090088, -0.19484306871891022, -0.22784405946731567, -0.11690648645162582, 0.2035205215215683], [0.7207798957824707, -0.4250771999359131, -0.09890009462833405, -0.1750463992357254, -0.6825724244117737, -0.12954582273960114, -0.24470502138137817, 0.051533158868551254, 1.0789545774459839, -0.11011660099029541, -0.5571184754371643, 0.689470112323761, 0.038597919046878815, 0.31900399923324585, -0.40690717101097107, -0.4496811628341675]], "layer_0_biases": [-0.017352204769849777, -0.018777837976813316, -0.006467944476753473, -0.009598403237760067, -0.22400887310504913, -0.01456671953201294, 0.056724075227975845, -0.007749930024147034, -0.09203390032052994, -0.014129864051938057, 0.07735421508550644, 0.09181791543960571, -0.025734197348356247, -0.010666819289326668, 0.08769997209310532, -0.053947821259498596], "layer_0_weights": [[0.00021993598784320056, 1.998815787374042e-05, 5.1550377975218e-05, 9.65193030424416e-05, 0.00010475407907506451, -5.056556256022304e-05, 0.0012284130789339542, -1.9041372070205398e-05, -1.7577056496520527e-05, 0.00011555931268958375, 0.0003853104717563838, 0.00033696350874379277, 1.9125629478367046e-05, 1.105290084524313e-05, 0.000369444111129269, 7.286782056326047e-05], [-0.0002457562368363142, 0.00011086031736340374, -4.145607090322301e-05, -0.0001054093663697131, 2.2897829694557004e-05, -4.1552069887984544e-05, -0.0003451320226304233, -5.6521410442655906e-05, -2.792809573293198e-05, -0.00014875268971081823, -0.000406732753617689, -0.0001773400726960972, 2.2286783860181458e-05, 8.167645864887163e-05, -0.00028798443963751197, -0.00011985449236817658], [-7.815231219865382e-05, 1.6391513781854883e-05, -8.577202606829815e-06, -5.145260729477741e-05, 1.5732450265204534e-05, 1.5310901289922185e-05, 0.0001422633940819651, 1.1444817573647015e-05, -6.8085223574598785e-06, -0.00010575072519714013, -3.634093081927858e-05, 0.00016712800425011665, -3.1156221211858792e-06, 1.3403279808699153e-05, 9.42793776630424e-05, -5.526381573872641e-05], [-0.00016261106065940112, 7.528276182711124e-05, -3.491292227408849e-05, -1.8377149899606593e-06, 3.814612500718795e-05, -1.5124691344681196e-05, -7.39201859687455e-05, -7.103024836396798e-05, -2.423422301944811e-05, -0.00010259868577122688, -0.0003672556485980749, -0.0001425140508217737, -1.2083435649401508e-05, -1.537343678137404e-06, -0.0002504279254935682, 4.875459126196802e-06], [-1.560937744216062e-05, -3.081615432165563e-06, 7.039540378173115e-06, 4.9780519475461915e-05, 2.1025384739914443e-06, 2.947074972325936e-05, -0.00035276601556688547, 2.71233784587821e-05, -5.57376624783501e-05, -5.18291381013114e-05, -0.00014762123464606702, -0.00011511464981595054, -2.393622708041221e-06, 1.073009059382457e-07, -0.00010418993042549118, 5.435081402538344e-05], [-0.00013817098806612194, 6.987289089011028e-05, -1.2128702110203449e-05, -0.00012807987513951957, -1.7869004295789637e-05, -5.343226803233847e-05, -0.0004125136765651405, -5.979512206977233e-05, -3.797701310759294e-06, -6.623578519793227e-05, -0.0002922021667473018, -9.663814125815406e-05, 5.514176791621139e-06, 3.9527687476947904e-05, -0.00020789529662579298, -0.00011485716822789982], [-0.0001411342091159895, 8.580366556998342e-05, 1.1371087566658389e-05, -9.949252125807106e-05, -9.651330401538871e-07, 3.3103447094617877e-07, -0.0002900140534620732, -1.1771610843425151e-05, 1.0800694099089014e-06, -7.347725477302447e-05, -0.00011293863644823432, -3.6269826523493975e-05, -1.2890182006231043e-05, 1.0365544085289002e-06, -7.734418613836169e-05, -4.479964900383493e-06], [-6.570984260179102e-05, 1.996722858166322e-05, -5.954771404503845e-05, -0.00014983094297349453, -6.2412177612714e-06, -4.579053711495362e-05, -0.0004375540011096746, -9.937046706909314e-05, 1.1743612049031071e-05, -6.727065920131281e-05, -0.0003419686108827591, -0.00022329579223878682, -4.897390226688003e-06, 1.694542334007565e-05, -0.00028776784893125296, -0.00017223897157236934], [-0.00014139748236630112, 0.000131404580315575, -5.46375013072975e-05, -7.85567972343415e-05, 5.3355382988229394e-05, -0.00019119487842544913, 0.0003375908127054572, -2.9999040634720586e-05, -3.977103915531188e-05, -8.023878035601228e-05, -6.680971273453906e-05, 0.00032981077674776316, 1.8457440091879107e-05, 8.391049777856097e-05, 0.00012719897495117038, -0.0003477057325653732], [-8.87641217559576e-05, 8.560970309190452e-05, 1.3786156159767415e-05, -0.00015598585014231503, 2.202359974035062e-05, -1.2676187907345593e-05, -0.0010271595092490315, -4.062386778969085e-06, 4.1987306758528575e-05, -7.598700904054567e-05, -0.00032911074231378734, -0.00019442770280875266, -2.1699517674278468e-05, 7.363475015154108e-05, -0.00028459797613322735, -5.1078877731924877e-05], [7.812103285687044e-05, -9.815848170546815e-05, 7.945734250824898e-05, 6.208317063283175e-05, -8.775784408499021e-06, 0.0001850410335464403, -0.0005847529391758144, 0.00016406438953708857, 4.307115523261018e-05, 9.10331291379407e-05, 0.0002493450592737645, 4.788598380400799e-05, -3.0483281079796143e-05, -8.382118539884686e-05, 0.0001349693920928985, 5.6858829339034855e-05], [0.00022202513355296105, 2.7464877348393202e-05, 1.021672142087482e-05, 0.00013680756092071533, 2.9303293558768928e-05, -6.193597073433921e-05, 0.00189122068695724, -4.109790825168602e-05, 4.036378231830895e-05, 6.801977724535391e-05, 0.0005037761875428259, 0.0004304441681597382, -5.204990156926215e-05, 2.6583464205032215e-05, 0.000460501410998404, 9.199772466672584e-05], [3.792459756368771e-05, -4.139231168664992e-05, 3.763681888813153e-05, 1.2749736924888566e-05, 3.44362597388681e-05, 1.9051025446970016e-05, -0.00035930960439145565, 2.223333694928442e-07, 1.6027634046622552e-05, 4.9039746954804286e-05, 8.207093924283981e-05, -4.861594788962975e-06, 3.164050212944858e-05, -3.142043715342879e-05, 1.4244799785956275e-05, -1.0193150501436321e-06], [1.86157958523836e-05, -3.642094497990911e-06, 7.563436156488024e-06, -5.780605351901613e-05, 2.1289482901920564e-05, -1.8710097720031627e-05, -0.00042009312892332673, -6.090752776799491e-06, 6.952956027816981e-05, 2.3072643671184778e-05, -3.278622170910239e-05, -9.392303763888776e-05, 1.241466361534549e-05, 1.6249289274128387e-06, -8.315242303069681e-05, -2.7118496745970333e-06], [0.00012551563850138336, -4.4786811486119404e-05, 2.214409687439911e-05, 7.9966957855504e-05, -3.261600431869738e-05, 9.040325676323846e-05, -0.00025941026979126036, 4.621688276529312e-05, 2.2793048628955148e-05, 9.501799650024623e-05, 5.8266279665986076e-05, -0.0002853715268429369, 1.9236005755374208e-05, -7.611893670400605e-05, -0.0001236914686160162, 8.689373498782516e-05], [-5.0539329095045105e-05, 1.3880787264497485e-05, 2.1390173060353845e-05, 1.6774334653746337e-05, -4.400510806590319e-05, 3.517264485708438e-05, -0.0010136398486793041, -4.88831392431166e-05, -1.2012488923573983e-06, 1.486179644416552e-05, -0.00033027425524778664, -0.0001602064148755744, 4.94877986056963e-06, 4.253543011145666e-05, -0.00035775196738541126, -0.00017016475612763315]], "layer_1_biases": [-0.0447891466319561, 0.1063975915312767, -0.005448323208838701, -0.023371094837784767, -0.0008286127122119069, -0.0074590472504496574, 0.28712400794029236, -0.007538714446127415, -0.04900573939085007, -0.013917529955506325, 0.09147227555513382, -0.016476575285196304, -0.014409222640097141, -0.01931813172996044, 0.05551689490675926, -0.00818669330328703], "layer_1_weights": [[0.00023056037025526166, 0.0003544281644281, 8.303012873511761e-05, 7.570675370516255e-05, -1.1943576282646973e-05, -3.7248693843139336e-05, 0.001224453211762011, -2.0163259250693955e-05, -6.093349838920403e-06, 0.00013120516086928546, 0.0003828515764325857, -4.3198255298193544e-05, -3.517541699693538e-05, -0.00017212530656252056, 0.00036834320053458214, -1.7595282770344056e-05], [-0.00021774372726213187, -0.00031647435389459133, -5.835413503518794e-06, -0.00014675121929030865, 1.898678601719439e-05, -4.5063021389069036e-05, -0.0003423775779083371, -5.638109360006638e-05, -3.0605759093305096e-05, -0.00015670557331759483, -0.00040529758553020656, -7.601195102324709e-05, 5.559952114708722e-06, 0.0001842210622271523, -0.0002880121464841068, -2.1352892872528173e-05], [-0.00010824670607689768, 4.7516325139440596e-05, -0.00010571040911599994, -3.355990338604897e-05, -2.0837022020714357e-05, 1.3245286027085967e-05, 0.00014357581676449627, 1.2387406968628056e-05, -3.7298011079656135e-07, -9.367330494569615e-05, -3.753570854314603e-05, 9.509933443041518e-05, -1.94775166164618e-05, 7.365807687165216e-05, 9.353415225632489e-05, 7.001030553510645e-06], [-0.00016089357086457312, -0.0003070100792683661, 1.804777275538072e-05, -1.177708873001393e-05, 1.1169084245921113e-05, -5.046704245614819e-05, -5.76518323214259e-05, -7.061554788378999e-05, 1.0838601156137884e-05, -0.00010116044722963125, -0.0003652418090496212, 2.1900475985603407e-05, 2.896641308325343e-05, 9.960969327948987e-05, -0.0002499291149433702, -2.070292248390615e-05], [-1.326209803664824e-05, -0.00010703157022362575, 2.543546088418225e-06, 4.957296187058091e-05, -2.1769677914562635e-05, 2.3337659513344988e-05, -0.0003549208049662411, 2.7162526748725213e-05, -2.9553040803875774e-05, -5.215343844611198e-05, -0.00015248132694978267, -3.343234857311472e-05, -2.2675260424875887e-06, -2.9154016374377534e-06, -0.00010583926632534713, 2.108518310706131e-05], [-0.00014853471657261252, -0.00023108493769541383, -1.3346930245461408e-05, -0.00015797435480635613, 1.4488064152828883e-05, -5.393892934080213e-05, -0.00037560463533736765, -5.976590182399377e-05, -3.4142040021833964e-06, -5.6129993026843295e-05, -0.0002893962955567986, 4.260407877154648e-05, 1.0809293598867953e-05, 0.00019747434998862445, -0.00020747394592035562, -3.2837954222486587e-06], [-9.483287431066856e-05, -8.636231359560043e-05, -0.00013146297715138644, -0.00010598543303785846, 1.361145496048266e-05, -1.2662728295254055e-05, -8.61998851178214e-05, -1.778472142177634e-05, -1.0665197805792559e-05, -5.0472779548726976e-05, -0.00010074391320813447, 2.140830474672839e-05, -1.0129438123840373e-05, 0.00013281549036037177, -7.277182885445654e-05, -1.2048417374899145e-05], [-9.730330930324271e-05, -0.00027504240279085934, -0.0001488042325945571, -0.00015709611761849374, 2.0565335944411345e-05, -8.19122142274864e-05, -0.0004346125351730734, -9.926762140821666e-05, -1.3209039025241509e-05, -5.833454633830115e-05, -0.00033901314600370824, 0.00012355862418189645, 6.984949322941247e-06, 0.00014556461246684194, -0.0002873930206988007, -6.484854384325445e-05], [-0.0001335885317530483, 7.501058280467987e-05, -9.215973113896325e-05, -5.4204756452236325e-05, -5.257454631646397e-07, -5.6691998906899244e-05, 0.000336887693265453, -2.9972467018524185e-05, -7.695761269133072e-06, -7.250316411955282e-05, -6.803065480198711e-05, -4.541119051282294e-05, -2.1292811652529053e-05, 9.92325076367706e-05, 0.00012487902131397277, -5.246930959401652e-05], [-6.731968460371718e-05, -0.0003003119200002402, -0.00013642330304719508, -0.00011620664736256003, 2.3376907847705297e-05, -4.087077286385465e-06, -0.0010167420841753483, -4.374104719317984e-06, 2.6940586394630373e-05, -8.113305375445634e-05, -0.0003228046407457441, 0.00018017739057540894, -4.3601157813100144e-05, 8.033786434680223e-05, -0.00028387102065607905, 2.5280696718255058e-05], [8.422404062002897e-05, 0.000162767872097902, 7.202464621514082e-05, 6.227756239240989e-05, -1.5242509107338265e-05, 0.00014703618944622576, -0.0005129911587573588, 0.00012819311814382672, 1.2805214282707311e-05, 0.00011235100828344002, 0.00023700860037934035, -1.985667950066272e-05, -1.3311574548424687e-05, -6.612630386371166e-05, 0.0001394640130456537, 2.443231460347306e-05], [0.00015149821410886943, 0.0005540029960684478, 0.0001651697384659201, 0.00014092653873376548, -8.949229595600627e-06, -6.861762813059613e-05, 0.0016367057105526328, -6.229891732800752e-05, 4.0666567656444386e-05, 0.00013125383702572435, 0.0007025331724435091, 6.895083788549528e-05, -5.299841723171994e-05, -0.00020235677948221564, 0.0006344799767248333, -3.188712435076013e-05], [3.468086651992053e-05, 2.9713413823628798e-05, 1.8507387721911073e-05, -8.942657245825103e-07, -1.419672480551526e-05, 3.1719998787593795e-06, -0.00035437443875707686, 2.908859073613712e-07, 2.5764906240510754e-05, 4.8887428420130163e-05, 9.035642142407596e-05, 2.55960021604551e-05, 9.102167496166658e-06, -3.465131885604933e-05, 1.789999078027904e-05, 8.838098437990993e-06], [1.8485447071725503e-05, -7.108756835805252e-05, 1.016992155200569e-05, -7.53990825614892e-05, 3.0088351195445284e-05, -1.4366667528520338e-05, -0.0004175086796749383, -5.7718502830539364e-06, 1.2901198715553619e-05, 2.3327202143264003e-05, -2.7805941499536857e-05, 9.660662908572704e-05, 2.649039015523158e-05, -7.2737284426693805e-06, -8.106395398499444e-05, -1.910766695800703e-05], [9.47464068303816e-05, -1.1186333722434938e-05, 9.307134314440191e-05, 5.619394141831435e-05, 7.909896339697298e-06, 6.89381267875433e-05, -0.00014969029871281236, 6.66128471493721e-05, 2.8465152354328893e-05, 0.00010325702169211581, 0.00011983755393885076, 1.0198337804467883e-05, 2.554405182308983e-05, -7.71327322581783e-05, -4.115356568945572e-05, 2.230405152658932e-05], [-5.660161696141586e-05, -0.00027387062436901033, -1.2128744856454432e-05, 2.14645333471708e-05, -1.923304080264643e-05, -8.733024151297286e-05, -0.001018258510157466, -3.418180858716369e-05, 2.463769487803802e-05, 2.9828690458089113e-05, -0.000332069379510358, -2.0654133550124243e-05, -1.7523068436275935e-06, -1.3612082511826884e-05, -0.0003589914122130722, 6.632312579313293e-05]], "layer_2_biases": [-0.006156704388558865, -0.012759837321937084, -0.19720318913459778, -0.051637157797813416, -0.0013472980353981256, -0.007199810352176428, 0.08252967894077301, -0.007490073796361685, 0.013613535091280937, -0.012469121254980564, 0.14996379613876343, 0.09762655198574066, -0.0127389095723629, 0.0542210228741169, 0.09665898978710175, -0.007881948724389076], "layer_2_weights": [[0.0001606528094271198, -0.000236052306718193, 0.00015727606660220772, 3.988431126344949e-05, -7.659456969122402e-06, -4.076387995155528e-05, 0.0012198364129289985, -2.2656960936728865e-05, -0.000532445905264467, 0.00012256389891263098, 0.000379509583581239, 0.0003451236698310822, -7.026147068245336e-05, 0.0003515697899274528, 0.00036605726927518845, -9.528955160931218e-06], [-0.0001518635981483385, 0.00016047857934609056, -0.00021018701954744756, -0.00014499037934001535, 1.9893672288162634e-05, -5.2501705795293674e-05, -0.0006833893130533397, -6.0841459344374016e-05, 0.00015565504145342857, -8.775439346209168e-05, -0.00032508469303138554, -0.00016316270921379328, -1.64118373504607e-05, -0.0002421156532363966, -0.00023961129772942513, -1.3849121387465857e-05], [-0.00011288226960459724, 6.097884397604503e-05, -0.00011344390077283606, -3.65079686162062e-05, -2.422874968033284e-05, 1.3601475984614808e-05, 0.00014227839710656554, 1.239187713508727e-05, 0.00021400309924501926, -7.32358603272587e-05, -3.886010745191015e-05, 0.00016627662989776582, -3.3739554055500776e-05, 8.596846600994468e-05, 9.254796168534085e-05, 1.0493420631974004e-05], [-0.00016158427752088755, 0.00016061779751908034, -2.170480183849577e-05, 7.08877487340942e-05, 1.0313842722098343e-05, -5.260971011011861e-05, -6.9055036874488e-05, -6.949075032025576e-05, 0.00021661144273821265, -0.00010561752424109727, -0.0003631447907537222, -0.0001498012716183439, -2.472973164913128e-06, -0.00026667595375329256, -0.0002489021571818739, -4.4220403651706874e-05], [-2.9386877940851264e-05, 1.0487881809240207e-05, 8.449769666185603e-06, 4.842452835873701e-05, -2.7735737603507005e-05, 2.3264381525223143e-05, -0.0003576267627067864, 2.64476675511105e-05, 0.00010585453128442168, -4.940450162393972e-05, -0.00015707069542258978, -0.00010405422654002905, -1.0076215630760998e-06, -9.93717840174213e-05, -0.00010831122199306265, 2.3372098439722322e-05], [-8.72215096023865e-05, 0.00014835257024969906, -0.00017253025725949556, -0.00010877900785999373, 1.1756160347431432e-05, -5.3737945563625544e-05, -0.0004114371840842068, -6.018737258273177e-05, 0.00013404486526269466, -7.515380275435746e-05, -0.00028619469958357513, -0.00010859763278858736, -7.965308213897515e-06, -0.00019793845422100276, -0.00020606302132364362, -1.000118936644867e-05], [-2.536681313358713e-05, 1.870479536592029e-05, -5.542603503272403e-06, -5.9108726418344304e-05, 1.7125434169429354e-05, -2.5314697268186137e-05, 9.367072379973251e-06, -2.2781401639804244e-05, -6.262088572839275e-05, -4.488034755922854e-05, 1.8211510905530304e-05, 8.521623385604471e-06, -1.316187535849167e-05, -1.1848896974697709e-05, 1.2499187505454756e-05, -1.2622562053365982e-06], [-7.913066656328738e-05, 0.00010089016723213717, -4.0201870433520526e-05, -0.00011646236089291051, 2.1117142750881612e-05, -8.227056241594255e-05, -0.00043094964348711073, -9.91693523246795e-05, 6.582542846444994e-05, -6.747673614881933e-05, -0.00033565162448212504, -0.00023511129256803542, 1.3328968634596094e-05, -0.00025250291218981147, -0.00028595057665370405, -7.036886381683871e-05], [-8.498650277033448e-05, 0.0001280086289625615, -8.288967364933342e-05, 5.279544348013587e-05, -2.358773826927063e-06, -5.993117156322114e-05, 0.00033644557697698474, -3.171665593981743e-05, -0.0002318837068742141, -9.103922639042139e-05, -6.888900679768994e-05, 0.0003227787383366376, 4.882408393314108e-05, 0.00014736887533217669, 0.00012319823144935071, -5.816362318000756e-05], [-7.134968473110348e-05, 6.567449599970132e-05, -0.0001572750770719722, -0.00016284498269669712, 2.352758929191623e-05, -4.609972165781073e-06, -0.0010092452866956592, -4.683941824623616e-06, 0.0002759067283477634, -8.875153434928507e-05, -0.0003157017345074564, -0.00021874897356610745, -5.0640937843127176e-05, -0.0002755421446636319, -0.0002812290331348777, 2.478313399478793e-05], [0.00010398346785223112, -8.992655784823e-05, 6.20349237578921e-05, 5.9288402553647757e-05, -4.064022141392343e-05, 0.00010536698391661048, -0.00043337588431313634, 8.2950406067539e-05, 0.0001300108415307477, 0.00012065617193002254, 0.00022795179393142462, 6.266745913308114e-05, -2.8647566068684682e-05, 0.0001313307147938758, 0.00014649431977886707, 1.9912749849027023e-05], [0.0002584907633718103, -0.00015277242346201092, -5.186571797821671e-05, -1.2653652447625063e-05, -6.282642971200403e-06, -6.959641905268654e-05, 0.0016340479487553239, -5.905096622882411e-05, -0.0006872637895867229, 0.0001485826214775443, 0.000699979776982218, 0.0005654051783494651, -1.993809019040782e-05, 0.0005457522347569466, 0.0006331574986688793, -3.361692506587133e-05], [3.8535934436367825e-05, -3.389265839359723e-05, 1.7188156562042423e-05, -6.884652520966483e-06, -9.692063031252474e-06, 3.916663445124868e-06, -0.00034948045504279435, 4.2159905433436506e-07, 0.0001778768200892955, 4.919568164041266e-05, 9.960540774045512e-05, -2.262792804685887e-05, -2.7587479962676298e-06, 1.3543422937800642e-05, 2.3354859877144918e-05, 7.525623459514463e-06], [1.857791176007595e-05, -1.927451194205787e-05, -8.387632988160476e-06, -7.500048377551138e-05, 2.9544762583100237e-05, -1.4577125512005296e-05, -0.00041483371751382947, -6.428578672057483e-06, 0.0001534022594569251, 2.3769005565554835e-05, -2.239238347101491e-05, -0.00010763270984170958, 2.6457402782398276e-05, -8.35175669635646e-05, -7.78022877057083e-05, -1.897646507131867e-05], [3.4761676943162456e-05, -8.159227581927553e-05, 5.421707101049833e-05, 9.952963608839127e-08, 1.8970782548421994e-05, 7.30013198335655e-05, -0.00010659939289325848, 7.289111090358347e-05, -1.598546077730134e-05, 8.15896419226192e-05, 0.00014064433344174176, -0.00011755695595638826, 2.6293917471775785e-05, -2.659969322849065e-05, -1.9574522411858197e-06, 1.232839986187173e-05], [-2.8847383873653598e-05, 3.081471732002683e-05, 2.671742913662456e-05, 8.86684483702993e-06, -6.881832632643636e-06, -6.088847294449806e-05, -0.0010125039843842387, 4.439375061338069e-06, 0.0003624132659751922, -3.632830339483917e-05, -0.0003319205134175718, -0.000157119138748385, 2.3625301764695905e-05, -0.00026130498736165464, -0.0003590316337067634, 0.0001096009582397528]], "layer_3_biases": [-0.015379417687654495, 0.08966582268476486, -0.05833660066127777, -0.01758950762450695, -0.02531888522207737, -0.007268693298101425, 0.13837938010692596, -0.008165178820490837, -0.0010480249766260386, -0.10562019795179367, 0.0574018768966198, 0.14034639298915863, -0.013103745877742767, 0.08643898367881775, 0.10952390730381012, -0.007684715092182159], "layer_3_weights": [[0.0001650579069973901, 0.0003443059395067394, 1.3605058484245092e-05, 8.646097558084875e-05, -1.7207363271154463e-05, -4.6972661948530003e-05, 0.0012149454560130835, -4.112841634196229e-05, -5.280283403408248e-06, 0.00026906508719548583, 0.0003763572603929788, 0.00034990464337170124, -4.559975059237331e-05, 0.00034789773053489625, 0.00036337878555059433, -2.7388818125473335e-05], [-0.00013723642041441053, -0.0002629566006362438, -0.00020942518312949687, -0.0001329778169747442, -4.599649764713831e-05, -5.1484959840308875e-05, -0.0006827953038737178, -6.17420591879636e-05, 1.5197658740362385e-06, -0.00017033860785886645, -0.00032150669721886516, -0.00016878762107808143, 3.265055420342833e-05, -0.0002371174341533333, -0.0002370033907936886, 1.1270607501501217e-05], [-9.464192407904193e-05, 4.356198769528419e-05, -0.00010828163067344576, -7.709356577834114e-05, 5.5822661124693695e-06, 1.5286355846910737e-05, 0.0001430045667802915, 1.454719949833816e-05, 1.0395700655863038e-06, -6.436093099182472e-05, -4.326373164076358e-05, 0.00016379269072785974, -5.098555448057596e-06, 8.294110739370808e-05, 8.881147368811071e-05, -6.694953754049493e-06], [-0.00015962286852300167, -0.00029770127730444074, 4.736975097330287e-05, 4.3207885028095916e-05, -5.8554625866236165e-05, -3.943045885534957e-05, -6.508084334200248e-05, -5.719079854316078e-05, 2.2704505227011396e-06, -0.00014190742513164878, -0.00036074762465432286, -0.0001534189359517768, -2.548721749917604e-05, -0.00026351053384132683, -0.0002471043262630701, 1.256689938600175e-05], [-1.7354408555547707e-05, -0.00011895303759956732, 1.0919273336185142e-05, 3.979554821853526e-05, -3.078360532526858e-05, 2.4002159989322536e-05, -0.00036052297218702734, 2.5344525056425482e-05, 9.811178642848972e-07, -4.915559111395851e-05, -0.00016274019435513765, -0.00010054964513983577, -1.3089725143800024e-05, -0.00010552648745942861, -0.00011226945935050026, 1.2779662029061e-05], [-0.0001255149400094524, -0.00021800240210723132, -0.0001735384576022625, -9.570659312885255e-05, -4.120101220905781e-05, -5.442125257104635e-05, -0.00040244372212328017, -6.329728057608008e-05, 1.3501785360858776e-06, -0.00015968209481798112, -0.0002821238595061004, -0.00011408107093302533, -2.2176069251145236e-05, -0.00019269036420155317, -0.00020323196076788008, 8.398686986765824e-06], [-3.190292773069814e-05, 2.4816520181047963e-06, 1.47781174746342e-05,