{"hk_disentangled_rnn": {"choice_net_multipliers": [1.1576485633850098, 1.5338376760482788, 1.1900395154953003, 1.4706900119781494, 0.6267307996749878], "choice_net_sigma_params": [0.6913686394691467, 0.006650195922702551, 0.02278122864663601, 0.010015258565545082, 0.7863085865974426], "latent_inits": [-0.03956800326704979, -0.004709871951490641, -1.1597397327423096, -0.163884237408638, 0.0029592786449939013], "latent_multipliers": [1.0, 1.0, 1.0, 1.0, 1.0], "latent_sigma_params": [0.0031272328924387693, 0.0033149821683764458, 0.01721096783876419, 0.004079386126250029, 0.002871333621442318], "update_net_latent_multipliers": [[1.2709635496139526, 1.5754172801971436, 0.996951699256897, 1.1772356033325195, 1.3610783815383911], [1.0230447053909302, 1.157713532447815, 1.006028652191162, 1.163141131401062, 1.1088167428970337], [1.0235780477523804, 1.0453078746795654, 0.7887804508209229, 1.0470465421676636, 1.1949876546859741], [0.9122072458267212, 1.0959571599960327, 0.9829319715499878, 1.1056536436080933, 1.0157220363616943], [0.9438417553901672, 1.4559268951416016, 1.2522677183151245, 1.3119616508483887, 1.23079252243042]], "update_net_latent_sigma_params": [[0.11623115837574005, 0.07638821005821228, 0.8830728530883789, 0.12715254724025726, 0.663236141204834], [0.4292299449443817, 0.0054726614616811275, 0.8327306509017944, 0.023257292807102203, 0.3328801989555359], [0.3714058995246887, 0.1134546622633934, 0.8281006217002869, 0.3013504445552826, 0.05538224056363106], [0.25055789947509766, 0.18365724384784698, 0.9154075980186462, 0.01156153716146946, 0.18015184998512268], [0.8029006123542786, 0.04228387773036957, 0.14696140587329865, 0.15918946266174316, 0.07506159693002701]], "update_net_obs_multipliers": [[1.1259642839431763, 1.315018653869629, 1.2983039617538452, 1.085587978363037, 1.1440187692642212], [1.137451171875, 1.409266471862793, 1.063645839691162, 1.3545639514923096, 0.9559160470962524]], "update_net_obs_sigma_params": [[0.12789587676525116, 0.02702685259282589, 0.021252578124403954, 0.028544079512357712, 0.039480194449424744], [0.28692710399627686, 0.03728385269641876, 0.07986640930175781, 0.07490916550159454, 0.13611547648906708]]}, "hk_disentangled_rnn/~predict_targets/choice_net": {"input_biases": [-0.030440811067819595, -0.012561475858092308, 0.010044407099485397, -0.0633867010474205], "input_weights": [[-0.31570765376091003, -0.12122152745723724, -0.6508821249008179, 0.49798473715782166], [-0.27572157979011536, -1.2747350931167603, 0.3978677988052368, 1.4163397550582886], [0.3243156373500824, -0.36760446429252625, 0.02981703169643879, 0.4672594666481018], [0.13305869698524475, -0.6413375735282898, 1.0874104499816895, 0.05879826098680496], [-0.44222378730773926, -0.19547511637210846, -0.3102080821990967, -0.22259213030338287]], "output_biases": [0.015103812329471111, -0.015103819780051708], "output_weights": [[0.16729795932769775, 0.35254719853401184], [-0.6330382823944092, 1.3367804288864136], [0.43182268738746643, -0.5670387744903564], [0.2930770218372345, -0.415353387594223]]}, "hk_disentangled_rnn/~update_latents/update_net": {"input_biases": [0.0015004955930635333, -0.016103064641356468, -0.008325440809130669, 0.03399350866675377, -0.010805119760334492, 0.034982260316610336, 0.036417994648218155, -0.04252944514155388, -0.04545450583100319, -0.018168015405535698, 0.09751035273075104, -0.05624867230653763, 0.02224137634038925, -0.008668826892971992, 0.03373991325497627, 0.31350675225257874], "input_weights": [[-0.01990511640906334, 0.8995754718780518, 0.3424338102340698, -0.5732219815254211, -0.6716547012329102, 0.12936706840991974, 0.6648686528205872, -0.23164679110050201, 0.17953814566135406, 0.03843294456601143, 0.5244468450546265, 0.3062550723552704, -0.02372225560247898, 0.3001273572444916, -0.269670307636261, 0.10608546435832977], [-0.9015762805938721, -0.0491674430668354, -0.38403645157814026, -0.26355794072151184, 0.10238871723413467, 0.1664573699235916, -0.13102713227272034, -0.6814661026000977, -0.38273894786834717, 0.05207110196352005, -0.3880106508731842, -0.40768224000930786, -0.051702048629522324, -0.002920731669291854, -0.18667548894882202, 0.6348276734352112], [0.114065982401371, 0.2210410088300705, -0.24473300576210022, -0.31083372235298157, 0.6341120004653931, -0.1870976835489273, 0.35090339183807373, -0.04610942304134369, -0.16707052290439606, 0.3826526403427124, 0.02140139602124691, 0.061344802379608154, 0.07206405699253082, 0.6924145221710205, -0.28543606400489807, 0.1267789751291275], [-0.2680005133152008, -0.002662380924448371, -0.012585596181452274, -0.792972981929779, 0.14256715774536133, 0.3577936291694641, 0.7454652190208435, -0.4711480140686035, -0.03702766075730324, -0.30603495240211487, -0.10588497668504715, -0.6302124857902527, -0.5674955248832703, 0.45579466223716736, 0.2940827012062073, -0.32410767674446106], [-0.016146834939718246, -0.45894497632980347, -0.3085060715675354, -0.1331021636724472, 0.01861264929175377, -0.7747882008552551, 0.10828735679388046, 0.5925199389457703, 0.38340064883232117, -0.10143563151359558, -0.27675068378448486, 0.20622828602790833, 0.2968814969062805, 0.16810479760169983, -0.2867033779621124, 0.1385112702846527], [-0.239582359790802, -0.1840486079454422, -0.10023345798254013, 0.2792505621910095, -0.39779528975486755, 0.4494825303554535, 0.7039784789085388, 0.012652885168790817, 0.11191809177398682, -0.09823916107416153, 0.8461183905601501, 0.14521503448486328, -0.23348532617092133, -0.142892524600029, -0.3669113218784332, -0.10924564301967621], [0.4655924439430237, 0.04961130768060684, 0.03368539363145828, 0.10592013597488403, 0.468790203332901, -0.12583157420158386, 0.13337421417236328, 0.1722320020198822, -0.3513474464416504, 0.16404464840888977, 0.34358543157577515, 0.45272916555404663, -0.15475262701511383, -0.49326634407043457, 0.003997913561761379, 0.2383100688457489]], "layer_0_biases": [0.018926149234175682, 0.001427974784746766, -0.015669623389840126, 0.07032234966754913, -0.0016569653525948524, 0.12488312274217606, 0.04844287037849426, -0.007690266706049442, -0.033364806324243546, -0.029126495122909546, 0.12195340543985367, 0.00010718878183979541, 0.04351756349205971, -0.0013816076098009944, -0.02797843888401985, 0.21649201214313507], "layer_0_weights": [[0.0009342195698991418, -0.003283068770542741, -1.876849523796409e-06, 0.0015697734197601676, -0.0018943249015137553, -0.0012750582536682487, 0.0006191591965034604, -5.571650490310276e-06, 4.515458567766473e-05, -1.389078306601732e-06, 0.0006781874690204859, -0.0019750650972127914, -5.211199550103629e-06, -0.001264373306185007, -2.278522742926725e-06, -1.3613307601190172e-05], [-0.0006302636465989053, 0.0058850934728980064, -1.0948873750749044e-05, -0.0030794793274253607, 0.0041517456993460655, 0.0006861923029646277, -0.0009844209998846054, 1.462966793042142e-05, 1.9806124328169972e-05, 4.975510819349438e-06, -0.0024905612226575613, 0.004786134231835604, -0.0009491515811532736, 0.0025572662707418203, 1.1861693565151654e-06, -0.002280164510011673], [-0.000243992981268093, 0.0007016207091510296, -1.0947098417091183e-05, -0.0008578102570027113, 0.0008831062586978078, -9.077900904230773e-05, -0.0006681237719021738, 6.341444532154128e-06, 2.859644519048743e-05, 3.948365247197216e-06, -0.0012018486158922315, 0.0015210551209747791, -0.0006061921012587845, 0.00039546634070575237, 1.6830899767228402e-05, -0.0014801090583205223], [0.0006434202077798545, -0.004745318088680506, 7.83691939432174e-06, 0.002814540406689048, -0.0033819873351603746, -0.0007239124388433993, 0.0009726059506647289, -5.299755684973206e-06, -3.5022146676055854e-06, 1.4996858226368204e-05, 0.002403675112873316, -0.004716631956398487, 0.0008740875637158751, -0.001941422582603991, 5.8872581575997174e-05, 0.002201919676735997], [0.0012388323666527867, -0.002885952591896057, 2.003714325837791e-05, 0.0025483339559286833, -0.002232598140835762, -0.0016778783174231648, 0.0008538108668290079, -2.1349589587771334e-05, -7.4382346610946115e-06, -4.308963980292901e-06, 0.001360077876597643, -0.0033383506815880537, 0.00026749641983769834, -0.0011159570422023535, 3.1788760679773986e-05, 0.0006156621966511011], [-0.000523934664670378, 0.0029333459679037333, -1.1765374438255094e-05, -0.0023815480526536703, 0.0018388089956715703, 0.0006713055190630257, -0.0009437791886739433, 1.2590462574735284e-05, 8.102847459667828e-06, 3.5579259929363616e-06, -0.0021517090499401093, 0.0024713226594030857, -0.0009168818360194564, 0.0010568390134721994, -2.5062721761059947e-05, -0.0020748013630509377], [-0.0018550368258729577, 0.0052155544981360435, -1.768166657711845e-05, -0.004218369722366333, 0.0034528288524597883, 0.002368337009102106, -0.0014011373277753592, 1.8701495719142258e-05, 4.523589723248733e-06, 3.0370715649041813e-06, -0.002621178515255451, 0.005060935392975807, -0.0007842591148801148, 0.0019206017022952437, -2.0530143956420943e-05, -0.0016773301176726818], [0.000584190827794373, -0.005616314709186554, 1.118638101615943e-05, 0.0027520505245774984, -0.003484626766294241, -0.0006852191872894764, 0.0009454686078242958, -5.487877842824673e-06, -2.2634216293226928e-05, -4.496866040426539e-06, 0.002286715665832162, -0.003963904920965433, 0.0008317768224515021, -0.002252863720059395, 2.7036685423809104e-05, 0.0021426770836114883], [-0.00014954643847886473, -0.00124464207328856, -7.803438961673237e-07, 0.00011436668137321249, -0.0006516733556054533, 0.000302724918583408, 0.00012883060844615102, -3.651368388091214e-06, 6.5236204136454035e-06, 2.0043434290073492e-07, 0.00046623445814475417, -0.00018179244943894446, 0.0002483043062966317, -0.000614980177488178, 1.967998969121254e-06, 0.0006608074181713164], [0.00011857461504405364, 0.0006700269877910614, 1.9487317786115455e-06, 0.00042246346129104495, 0.00024267466505989432, -0.00012841181887779385, 0.0001492704323027283, 2.9209254535089713e-06, -0.00017087868764065206, -1.0926688673862373e-06, 0.0003191515279468149, -0.0005389421130530536, 7.449335680576041e-05, 0.00039595819544047117, 0.0001237863616552204, 0.00020735591533593833], [-0.0016215044306591153, 0.003175900550559163, -1.2164612599008251e-05, -0.002929933834820986, 0.0021751965396106243, 0.0020280308090150356, -0.0009807697497308254, 2.1360307073337026e-05, -9.362257742395741e-07, 6.341783631569342e-08, -0.0015067904023453593, 0.0027305232360959053, -0.00044345788774080575, 0.0013581436360254884, 4.1467494156677276e-05, -0.0005995124811306596], [-0.000429371721111238, 1.539363438496366e-05, -1.3272692740429193e-05, 4.639507824322209e-05, -1.953947730726213e-06, 0.0006190852727741003, 0.0001329579681623727, 3.2480977552040713e-06, -1.3511284123524092e-05, -9.307128152613586e-07, 0.0006298472289927304, -0.0003589433035813272, 0.0003539899189490825, 0.00011294071737211198, -7.836270378902555e-05, 0.0009968833765015006], [0.0003408459306228906, -0.0015859422273933887, -3.3377557429048466e-06, 0.001838934374973178, -0.0010515114990994334, -0.00034121517091989517, 0.0005956371896900237, 5.091118509881198e-06, -1.0964366083499044e-05, -3.8016676171537256e-06, 0.0017045550048351288, -0.0019060379127040505, 0.0007062186487019062, -0.0004972666501998901, -3.366125383763574e-06, 0.00170379807241261], [-6.840746937086806e-05, 0.001925515360198915, 1.936714852490695e-06, -0.0007648869650438428, 0.001336160465143621, 6.375392695190385e-05, -0.00023823004448786378, 1.4991397847552435e-06, 1.161294221674325e-06, 4.429158479979378e-07, -0.0007551238522864878, 0.0015041091246530414, -0.00035212948569096625, 0.0008157799602486193, 9.58772434387356e-05, -0.0009521380416117609], [0.0010559502989053726, -0.002448505023494363, 8.914171303331386e-06, 0.0012248572893440723, -0.0013119525974616408, -0.001594717032276094, 0.000247167976340279, -1.0381066203990486e-05, -1.078876721294364e-05, -1.750546658740859e-07, -2.760788811428938e-05, -0.0009550072718411684, 8.38909181766212e-05, -0.001017764792777598, -0.0001565730053698644, -0.001121317851357162], [-0.0004929720307700336, 0.0021576862782239914, -7.348749022639822e-07, -9.552021947456524e-05, 0.0017512886552140117, 0.0008087375317700207, -0.00013748298806603998, -3.542442357229447e-07, 1.4604622265323997e-05, 1.0263582872482857e-08, 0.0005389119614847004, 0.0010392987169325352, 0.0006302046822384, 0.0013397198636084795, -1.4285031966210227e-06, 0.0013623010599985719]], "layer_1_biases": [-0.01713501662015915, 0.01175642479211092, 0.01323122438043356, 0.06104400008916855, -0.0031032643746584654, 0.02910810522735119, 0.061325911432504654, 0.005137854255735874, -0.0017926894361153245, -0.0016277097165584564, 0.118540458381176, -0.0044495766051113605, 0.02417231909930706, -0.0021015095990151167, 0.030622905120253563, 0.21728500723838806], "layer_1_weights": [[1.1971136700594798e-05, -0.0033828781452029943, 0.0011293364223092794, 0.0015519645530730486, -0.0018674369202926755, -0.001282603945583105, 0.0006569270044565201, -0.001277297968044877, -0.00010563004616415128, -2.36580012824561e-06, 0.0006979448953643441, -0.001860564574599266, -3.6837222978647333e-06, -0.0011078763054683805, 0.0013005490181967616, -0.00011037985677830875], [-1.331311523244949e-05, 0.0047125546261668205, -0.0009478030842728913, -0.0030790481250733137, 0.004302318207919598, 0.0007469300762750208, -0.001039505354128778, 0.0014098153915256262, 0.00249076378531754, 3.247465656386339e-06, -0.002523458329960704, 0.004967537242919207, -0.0009318480733782053, 0.0026540495455265045, -0.0023459710646420717, -0.0022535226307809353], [-1.0325868061045185e-05, 0.00039215170545503497, 1.3266840142023284e-05, -0.0008698315359652042, 0.0009640242788009346, -7.055280730128288e-05, -0.0006139789475128055, 0.0006450788932852447, 0.001059684669598937, 2.552076239226153e-06, -0.0012020623544231057, 0.0016807477222755551, -0.0006118983146734536, 0.0005731618730351329, -0.0006464097532443702, -0.001467989175580442], [6.786382982681971e-06, -0.004262835718691349, 0.0008619701839052141, 0.0028627736028283834, -0.0034165726974606514, -0.0007543829851783812, 0.0010491471039131284, -0.0014232222456485033, -0.0014540883712470531, -4.2573310565785505e-06, 0.002517421031370759, -0.004689349792897701, 0.0009222045773640275, -0.0018413428915664554, 0.002249737735837698, 0.0023025525733828545], [1.3070094610156957e-05, -0.0036755120381712914, 0.0015259450301527977, 0.002478505251929164, -0.0023262803442776203, -0.001677288906648755, 0.0009159600012935698, -0.001500102342106402, -0.0018715743208304048, -3.731275910467957e-06, 0.0013798967702314258, -0.0036881582345813513, 0.0002626555797178298, -0.001185513800010085, 0.0019678683020174503, 0.000608626171015203], [-7.251065653690603e-06, 0.0030152308754622936, -0.0007300413562916219, -0.0021145190112292767, 0.0019313611555844545, 0.0005204565241001546, -0.0008975261589512229, 0.001027726917527616, 0.0007191652548499405, 4.000748958787881e-06, -0.0018952371319755912, 0.0024239381309598684, -0.0007652562344446778, 0.001061753137037158, -0.0016766969347372651, -0.001809466048143804], [-1.8792745322571136e-05, 0.006376712117344141, -0.0020421920344233513, -0.004105497617274523, 0.0035782146733254194, 0.0023011397570371628, -0.0015148890670388937, 0.0023162313736975193, 0.0017433625180274248, 4.856049145018915e-06, -0.0026159335393458605, 0.005115294363349676, -0.0007290279027074575, 0.0018842066638171673, -0.003236620919778943, -0.0016005078796297312], [6.860307621536776e-06, -0.004656169097870588, 0.0008871365571394563, 0.0027074108365923166, -0.00353580922819674, -0.0006900830776430666, 0.0010018454631790519, -0.001383962924592197, -0.0010411525145173073, -4.039916348119732e-06, 0.002294171368703246, -0.0038752686232328415, 0.0008290312252938747, -0.0020821227226406336, 0.0021043927408754826, 0.002106554340571165], [-1.3803237379761413e-06, -0.00037930658436380327, -0.0001298154384130612, 0.00011803054076153785, -0.0005573221133090556, 0.0002921466075349599, 0.00013655981456395239, -4.881060522166081e-05, 0.0005274138529784977, -9.871836681440982e-08, 0.00043551248381845653, 0.0002195301785832271, 0.000248830794589594, -0.000494622450787574, 8.362829248653725e-05, 0.0006381534039974213], [1.5476674661840661e-06, -4.3767176975961775e-05, 0.00014779475168325007, 0.0004285869945306331, 0.00020095390209462494, -0.00013237942766863853, 0.00016674977086950094, -0.00021254003513604403, 6.18998019490391e-05, -4.858993634115905e-07, 0.00032648618798702955, -0.0006957377772778273, 0.00010418646706966683, 0.00042507515172474086, 0.00043725757859647274, 0.00019300877465866506], [-1.612849700904917e-05, 0.003838905831798911, -0.0018550069071352482, -0.002620335901156068, 0.00220113480463624, 0.002048824680969119, -0.0010023856302723289, 0.0016621715622022748, 0.0014215366682037711, 2.1858015770703787e-06, -0.0013095758622512221, 0.002724759979173541, -0.0002723749785218388, 0.0013418026501312852, -0.0020567048341035843, -0.0004300168948248029], [-4.164098754699808e-06, 6.554833089467138e-05, -0.0003914332774002105, 2.6599722332321107e-05, 1.660093585087452e-05, 0.0006275150808505714, 0.00011217947758268565, 8.540601265849546e-05, 0.0006087751244194806, 1.0203983720202814e-06, 0.0006225156830623746, -0.00039400713285431266, 0.0003603047225624323, 0.00019058125326409936, 0.00010903537622652948, 0.0008554222295060754], [2.135722525054007e-06, -0.0021980139426887035, 0.0003722421533893794, 0.0018391843186691403, -0.0009852696675807238, -0.00027084117755293846, 0.000472431507660076, -0.0007444791262969375, -3.877036942867562e-05, -1.0199522648690618e-06, 0.0017383020604029298, -0.0015732432948425412, 0.0007066145772114396, -0.00041488485294394195, 0.0014296879526227713, 0.0017268774099647999], [-4.215499984638882e-07, 0.0017168399645015597, -0.00014991282660048455, -0.00078483612742275, 0.0014619738794863224, 0.00011131961946375668, -0.0002615958801470697, 0.0004088489804416895, 0.0009066829807125032, 9.217552587870159e-07, -0.0007278993143700063, 0.0018220220226794481, -0.000319202255923301, 0.0009353627101518214, -0.0005422934773378074, -0.0008833557367324829], [1.2082401553925592e-05, -0.0027614349965006113, 0.0012506430502980947, 0.0011866154382005334, -0.0013122537638992071, -0.0017082570120692253, 0.0002687562955543399, -0.0009824156295508146, -0.0006871099467389286, -1.5189233408818836e-06, 1.709967909846455e-05, -0.0007977656205184758, 6.138049502624199e-05, -0.0009899820433929563, 0.0008936767117120326, -0.0005025264108553529], [-9.35301613935735e-06, 0.0009603319340385497, -0.0008012143662199378, 0.00012131138646509498, 0.002021430293098092, 0.0008353582816198468, -4.7286572225857526e-05, 0.0004844052600674331, -4.755999907501973e-05, 4.19344814872602e-07, 0.0007891590357758105, 0.0016994299367070198, 0.0007808452937752008, 0.0012079649604856968, 5.719492764910683e-05, 0.0017017057398334146]], "layer_2_biases": [-0.04945812001824379, -0.03882138058543205, 0.03028682991862297, 0.040454424917697906, 0.005667504854500294, 0.050720978528261185, 0.11832289397716522, -0.0451761819422245, -0.0705207884311676, -0.0007889714906923473, 0.09696042537689209, -0.005326888058334589, -0.02488129958510399, -0.061625007539987564, 0.02141234278678894, 0.12869617342948914], "layer_2_weights": [[1.2186473213660065e-05, -7.348937288043089e-06, 0.0011580530554056168, 0.0015464691678062081, -0.0023648932110518217, -0.0012841433053836226, 0.0006627735565416515, -1.3995382687426172e-05, 4.86115604871884e-05, -2.1948235371382907e-06, 0.0007031317218206823, -0.0018985533388331532, 1.7578199731360655e-06, -1.5719553630333394e-05, 0.0010502971708774567, -0.00012343782873358577], [-4.3862341954081785e-06, 6.84011829434894e-05, -0.0010029049590229988, -0.003079845570027828, 0.003980022855103016, 0.000774617656134069, -0.00107966351788491, 2.4595266950200312e-05, 1.947056034623529e-06, 3.5891362131224014e-06, -0.0025594173930585384, 0.005071019288152456, -1.2316383617871907e-05, 1.957236418093089e-05, -0.004288089461624622, -0.0022344356402754784], [-2.548204065533355e-06, 6.079282320570201e-05, 4.169140083831735e-05, -0.0008617937564849854, 0.0006748854648321867, 5.1010767492698506e-05, -0.0006049149669706821, 2.4597904484835453e-05, 1.3642650628753472e-05, 2.6003729090007255e-06, -0.0011978220427408814, 0.0017292264383286238, -5.497568054124713e-06, 9.359747309645172e-06, -0.0013672641944140196, -0.0014421247178688645], [-1.0395174285804387e-05, -1.0774307156680152e-05, 0.0008725730003789067, 0.0029045341070741415, -0.003491062903776765, -0.000753086875192821, 0.001103210379369557, -1.0723654668254312e-05, 2.8103848308091983e-05, -4.135525614401558e-06, 0.002611174015328288, -0.004572321195155382, 1.046807119564619e-05, 8.721505764697213e-06, 0.002583906054496765, 0.0023871043231338263], [1.9144599718856625e-05, -4.945112596033141e-05, 0.0014995336532592773, 0.00242786156013608, -0.002437968971207738, -0.0016618326772004366, 0.0009279216174036264, -4.071574949193746e-06, 1.0819950148288626e-05, -3.2858320082596038e-06, 0.0013901939382776618, -0.0036784394178539515, 4.21420872953604e-06, -2.4948489226517268e-05, 0.002367510460317135, 0.0005983495502732694], [3.359240508871153e-06, 3.080448732362129e-05, -0.0006787449819967151, -0.0020300603937357664, 0.0023971451446413994, 0.0004982087993994355, -0.0008636580314487219, 4.65481917899524e-07, 6.9781035563210025e-06, 3.4251702345500235e-06, -0.0018216994358226657, 0.0024679279886186123, -8.890875506040175e-06, 1.5986775906640105e-05, -0.0025478156749159098, -0.0017132327193394303], [-1.3662377114087576e-06, 5.605598198599182e-05, -0.002063128864392638, -0.0040230224840343, 0.004296574275940657, 0.0022298707626760006, -0.0015377667732536793, 1.3474415936798323e-05, 1.2009103556920309e-05, 4.697584699897561e-06, -0.0025901130866259336, 0.005314050242304802, -6.774987923563458e-06, 2.4503064196323976e-05, -0.003663113107904792, -0.001504642073996365], [6.353600838338025e-06, -3.571372144506313e-05, 0.0008749821572564542, 0.0026831605937331915, -0.003739094827324152, -0.000699464522767812, 0.0010286442702636123, -1.6164833141374402e-05, -1.3933957234257832e-05, -3.7428669656947022e-06, 0.002316987607628107, -0.0038061279337853193, 1.1221914974157698e-05, -1.4470229871221818e-05, 0.0029412084259092808, 0.0020943523850291967], [-8.216036803787574e-06, -3.6695105336548295e-06, -0.00013474236766342074, 0.0001482644584029913, -0.0005724338116124272, 0.0002876562939491123, 0.00013985995610710233, -3.0158389563439414e-07, 7.629641913808882e-06, -4.853614541389106e-07, 0.000451737898401916, 0.00018391714547760785, 9.351298331239377e-07, 1.039859762386186e-05, 0.0005661735194735229, 0.000655609299428761], [-1.033533749250637e-06, 6.302539986791089e-06, 0.00015105960483197123, 0.0004239061090629548, 3.061072857235558e-05, -0.00012110555690014735, 0.000179180788109079, -6.533096552630013e-07, 3.7525584417608115e-08, -7.745645120849076e-07, 0.00034391426015645266, -0.0006981016485951841, 8.762824563746108e-07, -7.268957347150717e-07, -0.0002840302768163383, 0.00011171133519383147], [-1.879880073829554e-05, 5.9137506468687207e-05, -0.0017160759307444096, -0.0024178612511605024, 0.002350965514779091, 0.0019479971379041672, -0.0009639998315833509, 1.6187897927011363e-05, 4.2264582589268684e-05, 2.4918958843045402e-06, -0.0011233511613681912, 0.002824631752446294, -3.5553359793993877e-06, 2.262484485981986e-05, -0.003107720986008644, -0.00020764242799486965], [-4.314618763601175e-06, 3.4608507121447474e-05, -0.0004069354909006506, 6.468321771535557e-06, -0.00015680116484872997, 0.0006472995155490935, 9.391469939146191e-05, 2.9011482638452435e-06, 1.2260659786988981e-05, -9.608647815184668e-07, 0.00061513960827142, -0.0003486062923911959, 2.9279735827003606e-06, 4.001813522336306e-06, -0.0006136075826361775, 0.0007568554719910026], [-6.581578873010585e-06, 1.844614598667249e-05, 0.0003342961717862636, 0.0017908152658492327, -0.0017526632873341441, -0.00021386829030234367, 0.0006416653632186353, -8.958036232797895e-07, -5.388180579757318e-05, -1.0351404853281565e-06, 0.001722373883239925, -0.0014894938794896007, 6.147066414996516e-06, 1.3072572073724587e-05, 0.0011284841457381845, 0.00173481076490134], [2.2369285943568684e-06, 5.7062989071710035e-06, -0.00016517192125320435, -0.0007892651483416557, 0.001449952251277864, 0.00012903813330922276, -0.00026841930230148137, 2.704578946577385e-06, 3.7934644296910847e-06, 8.723247901798459e-07, -0.0007038947660475969, 0.0018269333522766829, -3.6938010907761054e-06, -1.087209540173717e-07, -0.00092715845676139, -0.0008044259157031775], [-5.706764932256192e-05, -2.3035814592731185e-05, 0.0012615913292393088, 0.00118641450535506, -0.0016012046253308654, -0.0016268311301246285, 0.0003300094394944608, -1.2509810403571464e-05, -2.500661139492877e-06, -1.2479648603402893e-06, -4.794997948920354e-05, -0.0007646069279871881, -3.018665438503376e-06, -8.989084562927019e-06, 0.0010969401337206364, -0.000631369068287313], [-5.573064481723122e-05, 2.0333709471742623e-05, -0.0007757244165986776, 0.000281413464108482, 0.00020628176571335644, 0.0009020445286296308, 6.965252396184951e-05, 6.960534392419504e-06, 5.0156900215370115e-06, -1.086050701815111e-06, 0.001059059170074761, 0.002018492668867111, 8.604725735494867e-06, 1.2225787941133603e-05, -0.0005654782871715724, 0.0020412399899214506]], "layer_3_biases": [-0.0014910916797816753, 0.017181742936372757, 0.018861329182982445, 0.023093190044164658, 0.008818557485938072, 0.028612550348043442, 0.029570287093520164, 0.003358155954629183, -0.0027344604022800922, -0.062038861215114594, 0.08409956842660904, -0.004763221368193626, 0.02987111173570156, -0.0028495057485997677, 0.05417416989803314, 0.22794900834560394], "layer_3_weights": [[6.525272056023823e-06, -0.0030269590206444263, 0.0011701148469001055, 0.0008224307675845921, -0.0022869270760565996, -0.001290646381676197, 0.0006596382008865476, -0.0014315546723082662, -0.0002925157605204731, -1.0304464694854687e-06, 0.0007210792973637581, -0.0019002771005034447, 4.6677385398652405e-05, -0.0005425687995739281, 0.0012485516490414739, -0.00015965045895427465], [-6.568726348632481e-06, 0.004085085354745388, -0.0009609213448129594, -0.005018351133912802, 0.0035187574103474617, 0.0007478221086785197, -0.0011564688757061958, 0.0020243730396032333, 0.0024887355975806713, 3.7690572298743064e-06, -0.002595118945464492, 0.005069080740213394, -0.0009074879344552755, 0.002800748450681567, -0.0023785652592778206, -0.002207668498158455], [1.0745446843429818e-06, 0.0003262598183937371, 7.607333827763796e-05, -0.0014706889633089304, 0.0005189280491322279, -9.45584979490377e-05, -0.0004054372839163989, 0.00033710934803821146, 0.0010804381454363465, 2.5998763248935575e-06, -0.00116023572627455, 0.0017278767190873623, -0.0005670564132742584, 0.000893133576028049, -0.0006654853350482881, -0.0013772128149867058], [6.513836524391081e-06, -0.0038071286398917437, 0.0008699235622771084, 0.002665645442903042, -0.003339093178510666, -0.0007117758505046368, 0.0011750970734283328, -0.0019174549961462617, -0.001570228603668511, -3.802501851168927e-06, 0.002700082492083311, -0.004494649823755026, 0.0010193375637754798, -0.001497529330663383, 0.00232355366460979, 0.002434195950627327], [1.5178909961832687e-05, -0.003786010667681694, 0.0015051679220050573, 0.0026175351813435555, -0.002693894784897566, -0.0016898771282285452, 0.0009758833912201226, -0.0013527737464755774, -0.0018533843103796244, -2.6445070488989586e-06, 0.001409146934747696, -0.003492278279736638, 0.0002733792643994093, -0.0014393491437658668, 0.0019102207152172923, 0.0005704368813894689], [-4.493171218200587e-06, 0.002447091042995453, -0.0006460582371801138, -0.002572321565821767, 0.002194521017372608, 0.0004971804446540773, -0.0008075697114691138, 0.0012383540160953999, 0.00086756213568151, 1.318146587436786e-06, -0.0017121161799877882, 0.002523065311834216, -0.0006520788301713765, 0.0008364976965822279, -0.0015395325608551502, -0.0015416410751640797], [-2.03453419089783e-05, 0.006322101689875126, -0.0020343216601759195, -0.003906352911144495, 0.004624542780220509, 0.00213423278182745, -0.0015418216353282332, 0.0022170140873640776, 0.0019053685246035457, 7.228205959108891e-06, -0.0025090351700782776, 0.005441977176815271, -0.0005500680999830365, 0.0016182292019948363, -0.003042867174372077, -0.0012820955598726869], [6.788200607843464e-06, -0.0037353658117353916, 0.0008598773274570704, 0.0029849063139408827, -0.0033027408644557, -0.0006911176024004817, 0.0010648170718923211, -0.001946537639014423, -0.0012658522464334965, -2.710635271796491e-06, 0.002332791918888688, -0.003883595112711191, 0.0008281688205897808, -0.001544133760035038, 0.0020883583929389715, 0.0020534188952296972], [-1.3357562238525134e-06, 2.791033693938516e-05, -0.00014391828153748065, 0.0005126383621245623, -0.00024969823425635695, 0.00028027372900396585, 0.00011091706983279437, -0.00036886250018142164, 0.00039973060484044254, 8.754204827710055e-07, 0.00041791656985878944, 3.0929142667446285e-05, 0.0002521439455449581, -6.675513577647507e-05, 0.000131235909066163, 0.0005784315289929509], [5.813851089442323e-07, -0.0003181536158081144, 0.00017251867393497378, -0.0005170280928723514, -0.0002625765628181398, -0.00013904158549848944, 0.00020068185403943062, 4.494127642828971e-05, 1.8647613615030423e-05, -4.3367977923480794e-05, 0.00036143348552286625, -0.0005699990433640778, 4.043411900056526e-05, 0.0005398176144808531, 0.00039508231566287577, 0.000367229338735342], [-1.5454239473911002e-05, 0.003915154840797186, -0.0016815632116049528, -0.0035592438653111458, 0.00260530156083405, 0.0019284887239336967, -0.0009188679396174848, 0.0012168524553999305, 0.0013363081961870193, 3.1235094866133295e-06, -0.000978330266661942, 0.002782873809337616, -0.00012761664402205497, 0.001347505720332265, -0.0017817115876823664, 7.248160272865789e-06], [-7.16448676030268e-06, 0.0005979531561024487, -0.00042699213372543454, -0.0011741680791601539, 2.906304143834859e-05, 0.0006561069167219102, 7.518960774177685e-05, -0.00010893368744291365, 0.0004607781011145562, 7.176258804975078e-07, 0.0005988967604935169, -0.00021675277093891054, 0.0003348026948515326, 0.0006428519263863564, 6.948057853151113e-05, 0.0007884209626354277], [-4.243983767082682e-06, -0.0018722437089309096, 0.00030207858071662486, 0.0010615072678774595, -0.001727698603644967, -0.00018431372882332653, 0.0006458547431975603, -0.0009635241003707051, -0.0001752246607793495, -2.3511843210144434e-06, 0.001769827795214951, -0.0015881998697295785, 0.0006879492430016398, 1.4454430129262619e-05, 0.0013890041736885905, 0.001766591682098806], [2.8599401957762893e-07, 0.0012581046903505921, -0.00014462218678090721, -0.0008801402873359621, 0.0011612795060500503, 0.00014836555055808276, -0.00028835455304943025, 0.0008242843323387206, 0.0008982341969385743, -2.0623556338250637e-05, -0.000703816709574312, 0.0016904778312891722, -0.0003131147241219878, 0.001084157032892108, -0.0005748058902099729, -0.0007677089888602495], [1.0549983926466666e-05, -0.0028102733194828033, 0.00126801582518965, 0.0015168047975748777, -0.0017576940590515733, -0.0016527160769328475, 0.0003829339111689478, -0.001057887333445251, -0.0006260000518523157, 6.220928980837925e-07, -0.0001037992988131009, -0.0007586398278363049, -1.4010507584316656e-05, -0.0009644667734391987, 0.000866234302520752, -0.001002890756353736], [-7.865448424126953e-06, 0.0009892560774460435, -0.0007575761410407722, -0.0003879761206917465, 0.00017271535762120038, 0.0010030117118731141, 0.00018370240286458284, -9.405908349435776e-05, 0.00019317308033350855, -1.4990267118264455e-05, 0.0012739973608404398, 0.0015450383070856333, 0.0010053081205114722, 0.0006913932738825679, 0.0003483420005068183, 0.0023095805663615465]], "layer_4_biases": [0.058374326676130295, -0.0020432169549167156, 0.011584651656448841, -0.0028944984078407288, -0.006431312300264835, -0.004920997191220522, 0.046470291912555695, 0.01296219415962696, -0.0031396495178341866, -0.062233150005340576, 0.060752008110284805, -0.006701435428112745, 0.1606687605381012, 0.020996883511543274, 0.0450722798705101, 0.2995348870754242], "layer_4_weights": [[0.0010540182702243328, -0.00292930006980896, 0.0008884862763807178, 1.8394663129583932e-05, -0.0013685098383575678, 7.68759309721645e-06, 0.0006442248122766614, -0.0010709414491429925, -6.754729838576168e-05, -1.8886049701904994e-06, 0.0007223032298497856, -0.0014098940882831812, 0.00017522340931463987, -0.0012807493330910802, 0.0012207371182739735, -0.00019674729264806956], [-0.0006638853228650987, 0.006179252173751593, -0.0011063831625506282, -6.326210859697312e-05, 0.00487360218539834, 1.5210703168122564e-05, -0.0012263859389349818, 0.001496687880717218, 0.002378076547756791, 6.328430117719108e-06, -0.0026280295569449663, 0.0053740269504487514, -0.0008958555990830064, 0.0012285927077755332, -0.0023841899819672108, -0.0021662190556526184], [-7.25778445485048e-05, 0.0009717406355775893, -0.00018044729949906468, -8.244092896347865e-06, 0.0013720461865887046, 5.462142325995956e-06, -0.00039894095971249044, 0.0002613783872220665, 0.0010056898463517427, 1.775026134964719e-06, -0.001140323467552662, 0.00198823818936944, -0.0005492184427566826, 0.0002570950600784272, -0.0006825863965786994, -0.0013338668504729867], [0.0006325504509732127, -0.0045194365084171295, 0.0005648349761031568, 2.9362752684392035e-05, -0.003131363308057189, 4.46230615125387e-06, 0.0012404742883518338, -0.0013826965587213635, -0.0014376993058249354, -2.8423128242138773e-06, 0.0027871658094227314, -0.004147868603467941, 0.0010739939752966166, -0.001221435028128326, 0.002342985477298498, 0.0024804819840937853], [0.0013021861668676138, -0.0026914605405181646, 0.0019257947569712996, 2.463721284584608e-05, -0.002640989376232028, 1.0352896424592473e-05, 0.0010174136841669679, -0.0015495973639190197, -0.0018744082190096378, -2.7064907044405118e-06, 0.0014246840728446841, -0.0036883344873785973, 0.0002429776795906946, -0.0017079449025914073, 0.0019025806104764342, 0.0005642468458972871], [-0.00043770449701696634, 0.002608912531286478, -0.0009298379300162196, -9.790703188627958e-06, 0.0019862623885273933, 1.2675759535341058e-05, -0.0007810303359292448, 0.0009408697951585054, 0.000568091927561909, 4.230720605846727e-06, -0.0016306411707773805, 0.0023780723568052053, -0.0006389408954419196, 0.0008043464622460306, -0.0014812502777203918, -0.0014460564125329256], [-0.001717517152428627, 0.004605592228472233, -0.001979081192985177, -4.3118470784975216e-05, 0.003619829658418894, 4.2488267354201525e-05, -0.0015675734030082822, 0.002296712016686797, 0.0017477908404543996, -2.351056991756195e-06, -0.0025108985137194395, 0.004894194193184376, -0.0005545158637687564, 0.0023915015626698732, -0.003011374967172742, -0.001184982480481267], [0.0006606510723941028, -0.005049082450568676, 0.0008731720736250281, 2.796926310111303e-05, -0.0031585521064698696, 8.32768182590371e-06, 0.0011027778964489698, -0.0012951897224411368, -0.0008196097915060818, -4.097630153410137e-06, 0.002351713366806507, -0.003430918324738741, 0.0008634026744402945, -0.001161070540547371, 0.0020841418299824, 0.0020250254310667515], [-0.00014952398487366736, -0.0012411868665367365, -0.0002656272263266146, 1.8962425656354753e-06, -0.00013793808466289192, 8.59316423884593e-06, 0.00012289444566704333, 1.56197802425595e-05, 0.000561466091312468, -7.018859946583689e-07, 0.00044878569315187633, 0.00035250288783572614, 0.00022895776783116162, 0.00011446325515862554, 0.00015964568592607975, 0.000658621487673372], [0.0001740161533234641, 0.000919559970498085, 0.00014984674635343254, 4.952583367412444e-06, 0.0002959756529890001, 3.683038357849e-06, 0.00020129386393819004, -0.0002077145763905719, -7.540274964412674e-06, 2.2649119557627273e-07, 0.00035870360443368554, -0.00035579869290813804, 6.475394911831245e-05, -0.00023518240777775645, 0.0003828855697065592, 9.323540143668652e-05], [-0.0014003139222040772, 0.002393110655248165, -0.002153947949409485, -3.2838892366271466e-05, 0.00237241480499506, 3.0185248760972172e-05, -0.0008684960193932056, 0.0015717122005298734, 0.0012756537180393934, 2.0773886717506684e-06, -0.0008331617573276162, 0.0028339694254100323, -0.00011574214295251295, 0.001806272892281413, -0.0016887887613847852, 0.00020392729493323714], [-0.000403074111090973, 0.0005348780541680753, -0.0007180316024459898, -4.8187526857645935e-08, 0.0005045613506808877, 1.1785528840846382e-05, 5.1814786274917424e-05, 0.0002238675660919398, 0.0006306029390543699, -8.530123523087241e-07, 0.000582347100134939, 0.0001864960213424638, 0.00012333638733252883, 0.00039615834248252213, 5.282200800138526e-05, 0.0005575378309004009], [0.00011882249964401126, -0.001287650316953659, 0.0001907825208036229, 1.572939618199598e-05, -0.0005581665900535882, 7.20451544111711e-06, 0.0006884454051032662, -0.0007114948239177465, -2.9143371648387983e-05, -9.202106525663112e-07, 0.0017684107879176736, -0.0011344299418851733, 0.0006697265198454261, -0.0004944944521412253, 0.001342389383353293, 0.0017408821731805801], [-9.735154162626714e-05, 0.0020711158867925406, 0.0001978617365239188, -6.803199994465103e-06, 0.001723711029626429, 2.878970839503836e-08, -0.0003016848932020366, 0.00036495685344561934, 0.0008774183224886656, 5.415066425484838e-06, -0.000695692200679332, 0.0017300801118835807, -0.00042018972453661263, 0.0002218481822637841, -0.0005871616303920746, -0.0007884354563429952], [0.0010429901303723454, -0.0023905131965875626, 0.0010240277042612433, 1.1313246432109736e-05, -0.0011111160274595022, -1.0262728210364003e-05, 0.00040533574065193534, -0.00099709234200418, -0.0005089371697977185, -1.7514448700239882e-06, -7.206872396636754e-05, -0.0008394147153012455, -0.00028666973230428994, -0.0012865712633356452, 0.000862529210280627, -0.00035892592859454453], [-0.0006328922463580966, 0.0008409068686887622, -0.0010197436204180121, -7.543667015852407e-05, 0.0017945896834135056, 5.367468475014903e-06, 0.0003406029718462378, 0.00019915640586987138, 7.343824108829722e-05, -1.971089204744203e-06, 0.0016391425160691142, 0.0013678593095391989, 0.001121766516007483, 0.0005639642477035522, 0.000558431725949049, 0.002760971197858453]], "output_biases": [-1.1198410987854004, -0.023750701919198036], "output_weights": [[0.21137814223766327, -0.18161967396736145], [-0.1493123173713684, 0.5613411664962769], [0.22747696936130524, -0.2149297147989273], [-0.21306300163269043, -0.3450569212436676], [0.032674871385097504, 0.40862852334976196], [-0.36781635880470276, 0.2511592507362366], [-0.11570906639099121, -0.13286851346492767], [-0.04797648638486862, 0.22238488495349884], [0.17040251195430756, 0.22048377990722656], [0.07791885733604431, 0.031237568706274033], [-0.5548683404922485, -0.17361116409301758], [0.5398293137550354, 0.4543025493621826], [-0.3019255995750427, -0.023448696359992027], [-0.1681375652551651, 0.248664990067482], [-0.18576647341251373, -0.26996666193008423], [-0.7864073514938354, -0.044683098793029785]]}, "hk_disentangled_rnn/~update_latents/update_net_1": {"input_biases": [0.08784934878349304, 0.000646424014121294, 0.05761324241757393, 0.005713507533073425, -0.018190307542681694, -0.0043967245146632195, -0.01983502507209778, -0.06169590353965759, 0.03775138035416603, 0.0003333153435960412, 0.045181337743997574, -0.029018912464380264, -0.0038608014583587646, -0.05728083848953247, -0.0174622293561697, 0.04454270005226135], "input_weights": [[0.4581778049468994, -0.09706036746501923, -0.15645042061805725, -0.1782873421907425, 1.0291863679885864, 0.18760544061660767, 0.027162492275238037, 0.7932711839675903, 0.0037283250130712986, 1.1067821979522705, -0.36638107895851135, 0.2145339995622635, -0.36213418841362, 0.36868995428085327, 0.15188796818256378, 0.4123552441596985], [-0.12931613624095917, 0.6211417317390442, -0.30283305048942566, -0.3617522418498993, -0.4825218915939331, -0.7463156580924988, 0.24259811639785767, -0.12972906231880188, -0.33243703842163086, 0.33281469345092773, -0.5630061626434326, -0.14129884541034698, -0.2090039998292923, 0.8402940034866333, 0.2699775993824005, 0.3299041986465454], [0.6668353080749512, -0.1795402318239212, 0.12161914259195328, -0.2516842484474182, -0.46917784214019775, 0.37991148233413696, 0.13531534373760223, 0.2487078160047531, -0.5975466966629028, 0.3051774501800537, 0.14702348411083221, -0.4002319872379303, -1.0326721668243408, -0.13557055592536926, -0.3811584711074829, -0.2689228951931], [0.14679314196109772, -0.43905264139175415, -0.4112810790538788, 0.4454796314239502, -0.09954696148633957, 0.6916273832321167, -0.2610587179660797, -0.6546660661697388, -0.5185778141021729, 0.026546405628323555, -0.1725071668624878, -0.605334460735321, -0.03180386498570442, -0.2234838753938675, -0.1869174689054489, 0.010299240238964558], [0.15419964492321014, -0.5612398982048035, -0.08550342172384262, 0.5855477452278137, -0.21690621972084045, -0.49900031089782715, -0.499471515417099, -0.005650920327752829, 0.692351758480072, -0.09412654489278793, -0.18290267884731293, 0.3418349027633667, 0.1500474065542221, 0.536800742149353, 0.29772117733955383, 0.5958333611488342], [-0.4783481955528259, -0.08572971075773239, -0.07167748361825943, -0.3660306930541992, -0.3734605610370636, 0.37885594367980957, -0.3730909526348114, 0.3791141211986542, -0.16993550956249237, -0.04479734227061272, 0.17080773413181305, 0.7607731223106384, 0.07106088846921921, -0.11050412058830261, -0.09968341141939163, -0.09884888678789139], [-0.6434810161590576, 0.01614835485816002, -0.652315080165863, -0.5444729328155518, -0.5408951640129089, 0.520255982875824, -0.4511888027191162, -0.07916313409805298, -0.18819338083267212, 0.30714094638824463, -1.1470826864242554, 0.19738087058067322, -0.7020875811576843, 0.050811395049095154, -0.04138326644897461, -0.13191810250282288]], "layer_0_biases": [0.20381635427474976, 0.036839671432971954, -0.004776626359671354, -0.01561795361340046, -0.1323007196187973, 0.03514065966010094, -0.0035839572083204985, -0.02503795549273491, -0.042768996208906174, 0.021104373037815094, 0.06670170277357101, -0.036375124007463455, 0.03378146141767502, -0.09960945695638657, 0.01468916330486536, -0.026041822507977486], "layer_0_weights": [[0.0007113908068276942, -0.008621199987828732, -0.00010010891128331423, -0.006094576325267553, -7.7128070188337e-06, 0.006601311266422272, -0.006970724556595087, -0.0052562919445335865, -0.0056692129001021385, 0.0015241202199831605, 0.0019464717479422688, -0.004901136737316847, -0.007793016266077757, -5.647792931995355e-06, -0.010403869673609734, -0.0008459158707410097], [-0.0012620427878573537, 0.0003123705682810396, -0.0021173949353396893, 0.007748597767204046, -1.7804193703341298e-05, -0.008195195347070694, 0.013082809746265411, 0.004225053824484348, 0.008507046848535538, 0.0016233493806794286, -0.0017218035645782948, 0.006897683721035719, 0.00033850313047878444, 1.0430630027258303e-05, 0.025086501613259315, 0.007346286438405514], [0.0012762558180838823, -0.0017482670955359936, -0.0036775299813598394, -0.004248727113008499, -5.8057796792354566e-08, 0.0034570444840937853, 0.0008350724820047617, -0.0029805200174450874, -0.000670970999635756, 0.005813668016344309, 0.0011083632707595825, -0.0012229244457557797, -0.005184676498174667, 9.556661098031327e-06, 0.010094541124999523, 0.000504504656419158], [0.0004193677450530231, 0.0006865032482892275, 0.0001454628218198195, -0.002588909352198243, 7.151886165956967e-06, 0.007638466078788042, 0.0061342292465269566, -0.003334443550556898, -0.008843043819069862, -0.006272290367633104, 0.001184387132525444, -0.007061610464006662, -0.0013440370094031096, -6.178935109346639e-06, -0.01991233415901661, -0.0028545737732201815], [0.0007157110376283526, -0.004225069656968117, 0.009351460263133049, -0.016097543761134148, 2.7149913876201026e-05, -0.0020138141699135303, -0.011701321229338646, 0.001527932588942349, 0.00449674017727375, 0.01750827208161354, 0.0008283526403829455, 0.003106924705207348, -0.012013137340545654, 7.319947144424077e-06, -0.008572358638048172, 0.0024612201377749443], [0.0003453959943726659, 0.002159138210117817, 0.01424376480281353, -0.00763570424169302, -2.122531623172108e-05, 0.001572524313814938, -0.009195270016789436, -0.001282040379010141, -0.00371968699619174, 0.004701205063611269, 0.0010174663038924336, -0.0023697204887866974, 0.012964422814548016, -2.340574974368792e-05, -0.01319968793541193, -0.010513144545257092], [-0.0005148454220034182, -0.0021244771778583527, -0.00036600843304768205, 0.0022678093519061804, -9.465853509027511e-06, -0.0017911995528265834, 0.009383045136928558, 0.0001909288694150746, 0.003982644993811846, 0.004223962314426899, -0.00042083358857780695, 0.0028046024963259697, -0.0018080289009958506, -5.114364466862753e-05, 0.01641293801367283, 0.005347131751477718], [0.0015034067910164595, -0.00892077386379242, -0.0013909003464505076, -0.012192187830805779, 1.642718598304782e-05, -0.0024675128515809774, -0.022090472280979156, -3.46412489307113e-05, 0.006037783343344927, 0.015141220763325691, 0.0010879066539928317, 0.004193213768303394, -0.01319877803325653, -2.878153281926643e-06, 0.0035392872523516417, 0.002586242975667119], [0.0009434670791961253, 0.005377945024520159, -0.0072945402935147285, -0.005091882310807705, 4.1650182538433e-05, 0.0015774952480569482, -0.014574460685253143, -0.0006249704747460783, 0.001774403266608715, 0.005435362458229065, -6.792845670133829e-05, 4.843354327022098e-05, -0.009136095643043518, 6.290971941780299e-05, -0.006640174891799688, 0.0022633355110883713], [7.196288061095402e-05, -0.009342212229967117, 0.00447396095842123, -0.006475316360592842, -2.597691263872548e-06, -0.0049445233307778835, -0.017614098265767097, 0.0023488865699619055, 0.004069595597684383, 0.005635987035930157, 0.0002224229829153046, 0.003660955699160695, -0.008626156486570835, -6.343172572087497e-05, -0.006705231964588165, 0.0009416397078894079], [0.0016576711786910892, -0.005788140930235386, 6.296034371189307e-06, -0.007385558448731899, 1.5913568859105e-05, 0.006925771478563547, 0.013991743326187134, -0.004688112065196037, -0.004832045640796423, 0.0067312209866940975, 0.0021941890008747578, -0.004121649544686079, -0.003925917204469442, 4.056543548358604e-05, 0.0042517525143921375, -0.00017135718371719122], [0.001186816836707294, -0.00189466483425349, -0.00404063705354929, -0.007183745037764311, 2.343844244023785e-05, -0.0035002268850803375, -0.014196643605828285, 0.003009650856256485, 0.004806410986930132, 0.00847854744642973, 8.323015208588913e-05, 0.0033101444132626057, -0.010135692544281483, 1.0927134098892566e-05, 0.0009581579943187535, 0.0019895618315786123], [7.199450192274526e-05, 0.0015747754368931055, 0.001029065577313304, -0.0018961800960823894, 4.097281635040417e-05, 0.000252264755545184, 0.021204888820648193, 0.0018939116271212697, -0.0012831059284508228, 0.0004745960468426347, 0.00014907635340932757, -0.0006069872761145234, -0.0041448078118264675, 6.862785812700167e-05, 2.0420897271833383e-05, 0.002872031182050705], [-0.0007297897827811539, -0.006591052282601595, -0.007383846677839756, 0.004610840696841478, -7.519488917751005e-06, -0.003478181315585971, 0.0007245109882205725, 0.0024289742577821016, 0.002005648100748658, -0.006957478821277618, -0.0009145174408331513, 0.002247909549623728, -0.011684311553835869, -1.1831713891297113e-05, -0.004715260583907366, 0.0059660919941961765], [-0.00031260887044481933, -0.0006138830212876201, -0.003488412592560053, 0.0009011818328872323, 7.98995461082086e-06, -0.002480762079358101, 5.2652936574304476e-05, 0.002124170074239373, 0.0019983078818768263, -0.0011209319345653057, -0.0006517244619317353, 0.001457227161154151, -0.006560445297509432, 9.592252899892628e-05, -0.0011015667114406824, 0.003533796640112996], [-2.4357241272809915e-05, -0.005656733177602291, -0.0037546753883361816, -0.00169515167362988, 6.479417152149836e-06, -0.0001749008515616879, -0.001792894909158349, 0.001174052362330258, -0.0017385798273608088, -0.00436696782708168, 0.00028638142975978553, -0.0007538076606579125, -0.011082769371569157, -1.0070850748888915e-06, -0.012853682972490788, 0.0019602917600423098]], "layer_1_biases": [0.14210312068462372, 0.04135536402463913, 0.027487056329846382, 0.006324524991214275, 0.011361227370798588, -0.026827767491340637, -0.0058714235201478004, -0.0055365669541060925, 0.0032985443249344826, 0.02277129329741001, 0.054569557309150696, 0.036624398082494736, 0.017727725207805634, -0.020995451137423515, -0.09796616435050964, 0.017051171511411667], "layer_1_weights": [[0.00011854648619191721, -0.008880754001438618, -0.0013296983670443296, -0.01087331771850586, 0.00023760867770761251, -0.0037798122502863407, -4.894712765235454e-05, -0.00318707711994648, 0.0030840663239359856, 0.0018660486675798893, 0.0012362557463347912, 0.0003320601535961032, 0.00948098860681057, -0.005205349996685982, -0.00012730954040307552, -0.01750960946083069], [-0.000625830958597362, 0.000726332888007164, -0.0028676248621195555, 0.008262227289378643, -0.002921119099482894, 0.004573181737214327, 3.178508268320002e-05, 0.00039746190304867923, -0.0013588034780696034, -0.011467263102531433, -0.001165619702078402, -0.005524586886167526, -0.010680080391466618, 0.00351313385181129, 0.005104116629809141, 0.015400356613099575], [0.0009073663968592882, -0.0015733179170638323, -0.0018838889664039016, -0.004628845024853945, 0.0008066026493906975, -0.002812689170241356, 2.590257054180256e-06, -0.0005442659021355212, 0.0021588485687971115, -0.0017780228517949581, 0.0006451801746152341, 0.0037675383500754833, 0.005173180717974901, -0.0028879218734800816, -0.005875614006072283, -0.011491210199892521], [-0.00019653802155517042, 0.0010556828929111362, -6.167335959617049e-05, -0.002219948684796691, 0.003986384719610214, -0.004455673508346081, 2.9016337066423148e-05, 0.0014231924433261156, 0.001165685011073947, 0.002859301632270217, 0.00039442989509552717, 0.004575843922793865, 0.0032929060980677605, -0.0021736600901931524, -0.013475270941853523, -0.0069357710890471935], [0.0005945151206105947, -0.004528949037194252, -0.010744583792984486, -0.01287634577602148, -0.00025364532484672964, 0.0016876186709851027, -9.72470752458321e-06, 0.00235186330974102, -0.012122134678065777, -0.012336456216871738, 0.0005703815841116011, -0.004062293097376823, 0.021130019798874855, 0.0010297262342646718, 0.004554255865514278, -0.0005526470486074686], [0.00020071023027412593, 0.0023139845579862595, 0.007844086736440659, -0.003958976361900568, 0.0005123232258483768, -0.0014854243490844965, -0.00010874029976548627, 0.0010492622386664152, -0.0003188211703673005, 0.011176567524671555, 0.0007387320511043072, 0.0006399156409315765, 0.01029625441879034, -0.0004093074821867049, -0.0031651705503463745, -0.007844584994018078], [-0.00010084631503559649, -0.0028421441093087196, -0.0032273014076054096, 0.001256447285413742, -0.0012815934605896473, 0.0007219003164209425, 2.907999987655785e-05, -0.0010225997539237142, 0.001079237088561058, -0.010146488435566425, 9.278806101065129e-05, -0.0016986900009214878, -0.00387957994826138, 0.0002192439860664308, -0.00014669536903966218, 0.0016355905681848526], [0.0011236885329708457, -0.009098497219383717, -0.006301613990217447, -0.014438615180552006, -0.0023641798179596663, 0.0015966271748766303, -5.135718311066739e-05, -0.0013522644294425845, -0.005181716289371252, -0.00042468562605790794, 0.000789110898040235, -0.001754088094457984, 0.017436707392334938, -0.0017244856571778655, 0.014818686991930008, -0.010507427155971527], [0.0007713511004112661, 0.005217618774622679, -0.005090393126010895, -0.0021805770229548216, 0.0021876476239413023, -0.0011340193450450897, 0.00018801035184878856, 0.0017835480393841863, -0.0044408258982002735, -0.002737469505518675, 9.583950486558024e-06, 0.004821822978556156, 0.007276361808180809, -0.0010638649109750986, -0.0006281872629188001, -0.0004348690272308886], [0.00011682217882480472, -0.009460235945880413, -0.00506866117939353, -0.009528666734695435, -0.003280659904703498, 0.0029252818785607815, -6.43896491965279e-05, -0.0017791717546060681, -0.0075854649767279625, -0.0018987844232469797, 9.330719331046566e-05, -0.008639484643936157, 0.009204762056469917, 0.0013958343770354986, 0.02131260745227337, 0.0012850414495915174], [0.0008303135982714593, -0.005705228075385094, -0.0008016745559871197, -0.00927877239882946, 0.002056894591078162, -0.0049330866895616055, -1.6024700016714633e-05, 0.0003451844386290759, 0.005729272495955229, 0.001122884452342987, 0.0012110538082197309, 0.006157857831567526, 0.010743997059762478, -0.0040487549267709255, -0.016729608178138733, -0.02118268981575966], [0.0009272446040995419, -0.0019380964804440737, -0.004461520351469517, -0.0069433641619980335, -0.00019964130478911102, 0.0029103001579642296, -3.872644083457999e-05, 0.001559069030918181, -0.004900733008980751, 0.0029784725047647953, 0.0001734725956339389, -0.0005137001862749457, 0.010352012701332569, 0.000992712564766407, 0.010020333342254162, -0.0019525442039594054], [-9.587904060026631e-05, 0.0018944285111501813, -0.005552664864808321, 0.0011398725910112262, 0.0025638926308602095, -0.000562964123673737, 6.983713683439419e-05, 0.004650830756872892, -0.002487959573045373, -0.008414110168814659, -2.7494223104440607e-05, 0.002115273615345359, 0.0021565693896263838, 0.0022945909295231104, -0.016152286902070045, 0.005968933925032616], [-0.0006012742524035275, -0.006923099514096975, -0.006007027812302113, -0.0007622014963999391, -0.0020167306065559387, 0.002796689746901393, -8.301615889649838e-05, -0.001598882838152349, -0.0023654315154999495, -0.004252713173627853, -0.0006186270038597286, -0.00521383760496974, -0.00580703467130661, 0.0015097822761163116, 0.012255138717591763, 0.007867575623095036], [-0.00024095617118291557, -0.0006189386476762593, -0.004771191626787186, 0.0008717204909771681, -0.00018474497483111918, 0.002371519338339567, 5.429740485851653e-05, 0.0006661227089352906, -0.003174619283527136, -0.005914268549531698, -0.0004009586700703949, -0.001741645741276443, -0.00187107443343848, 0.0014934808714315295, 0.003772126045078039, 0.007059923373162746], [-0.0001990285818465054, -0.006266705691814423, -0.006066284608095884, -0.004977299366146326, -9.417274122824892e-05, 0.001206699525937438, -6.16344332229346e-05, -0.00017679489974398166, -0.0031928420066833496, -0.002420785604044795, 0.00018653628649190068, -0.0024531634990125895, 0.0021870331838726997, 0.0002047116431640461, 0.004812846891582012, 0.0018155223224312067]], "layer_2_biases": [0.15028730034828186, 0.009415831416845322, 0.02561400830745697, 0.008529843762516975, -0.004255720414221287, -0.02580149658024311, -0.059660639613866806, -0.0027709384448826313, 0.02513386681675911, -0.01780809462070465, -0.06831857562065125, -0.02139548398554325, -0.006915756966918707, -0.0005817090277560055, -0.11103803664445877, 0.06281577050685883], "layer_2_weights": [[-4.2537878471193835e-05, -0.006713747046887875, 0.00040859790169633925, -0.010610236786305904, -0.0012867682380601764, -0.0074711088091135025, 0.0009752645855769515, -0.004573321435600519, 0.000164328797836788, -0.009805001318454742, 6.724392278556479e-06, 0.003626913530752063, 0.0008470075554214418, 0.000444892852101475, 0.0037226302083581686, 3.4727614547591656e-05], [-0.00017122426652349532, 0.005965445190668106, 0.00048359716311097145, 0.008475219830870628, -6.101775579736568e-05, 0.005351552274078131, 0.0014963445719331503, 0.0017111656488850713, -0.0010365195339545608, 0.01274901069700718, -5.668453468388179e-06, -0.00021607040253002197, -0.0029712978284806013, 0.00023774309374857694, 0.009106387384235859, 0.0012994800927117467], [0.0008345497772097588, -0.00025776351685635746, 0.0010315877152606845, -0.004371238872408867, 0.0011832554591819644, -0.0046897460706532, -0.004777094349265099, -0.0013945482205599546, -0.00040832580998539925, -0.006172353867441416, 1.6569549188716337e-05, 0.0013076835311949253, -0.0051367804408073425, 0.0006709715235047042, -0.007431340403854847, 0.0006985822692513466], [-0.0006218285416252911, 0.00017299123283009976, 0.0014168345369398594, -0.0017210819059982896, 0.0017525894800201058, -0.0035423256922513247, -0.008877207525074482, 0.0008978992700576782, -0.0016522326041013002, -0.002683051861822605, 2.371365735598374e-05, -0.003430126002058387, 0.0006680968217551708, 0.0011500653345137835, -0.0127061503008008, 0.00025291420752182603], [0.000415830931160599, -0.01069678645581007, -0.0003739305539056659, -0.012671747244894505, 0.0019026607042178512, 0.0020541157573461533, 0.011664468795061111, 0.0010824265191331506, 0.0010774419642984867, -0.023423435166478157, -5.145217801327817e-05, -0.010854280553758144, 0.013649885542690754, -0.0019433631096035242, 0.008700627833604813, 0.0011884026462212205], [8.485583384754136e-05, -0.010570188984274864, -0.0018347330624237657, -0.003887258004397154, 0.0004339621518738568, -0.0005358998896554112, -0.0018091941019520164, 0.0007833284325897694, 0.0016575544141232967, -0.01104152575135231, -3.788512549363077e-05, -0.0021077950950711966, 0.02080230414867401, -0.00017464683332946151, -0.007448406890034676, -0.0008941898122429848], [0.00013890575792174786, 0.0005672975676134229, -0.00044092710595577955, 0.0011601330479606986, -1.0924429261649493e-05, 0.0004999248194508255, 0.0017209528014063835, -0.0009919303702190518, 0.0005025087739340961, 0.0038447475526481867, -1.4807971638219897e-05, 0.0005018048686906695, -0.0013406176585704088, 0.0010013338178396225, 0.006208337843418121, 5.002816760679707e-05], [0.0008957594982348382, -0.007776050828397274, 0.00014669087249785662, -0.014045890420675278, -0.0010209335014224052, -0.002028496703132987, 0.011215398088097572, -0.0026067527942359447, 0.0010096485493704677, -0.018600843846797943, 1.5864344504734618e-06, 0.002611427800729871, -0.001887239166535437, -0.0021963734179735184, 0.010561168193817139, 0.0008847838034853339], [0.0005682078190147877, 0.005289309658110142, 0.0010927142575383186, -0.0023647805210202932, 0.0016227843007072806, -0.0013631545007228851, 0.0019590731244534254, 0.001536435098387301, -0.00017658568685874343, -0.007829639129340649, 4.136568168178201e-05, -0.004582471214234829, -0.010570547543466091, -0.001295843510888517, -0.005766601301729679, 0.00059333979152143], [0.00013501057401299477, -0.008685199543833733, -0.0006210301071405411, -0.009141942486166954, -0.002733215456828475, 0.0018516184063628316, 0.018173381686210632, -0.0021713816095143557, 0.0005855269846506417, -0.009803496301174164, -0.00010634763020789251, 9.022063022712246e-05, 0.007273112423717976, -0.00237009534612298, 0.023815149441361427, 0.0006345701985992491], [0.0004718910495284945, -0.006523160729557276, 0.0015136043075472116, -0.009164595045149326, 0.0026220420841127634, -0.006083785090595484, -0.014671658165752888, -0.0013842659536749125, -0.0008699825848452747, -0.011973767541348934, 5.5063486797735095e-05, 0.00267243105918169, 0.00022585269471164793, 0.0022682370617985725, -0.015890896320343018, 0.0008764645317569375], [0.0006178991170600057, -0.0021371347829699516, 0.0008917329250834882, -0.006748374551534653, 0.0007189525058493018, 0.001487466273829341, 0.002680182224139571, 0.0015174009604379535, -0.00025316834216937423, -0.011005977168679237, 4.6442928578471765e-05, 0.00023130097542889416, -0.005119382403790951, -0.002050727605819702, -0.0006209426210261881, 0.0009768219897523522], [-0.0003655826731119305, 0.0009662277298048139, 0.0015566174406558275, 0.0009360135300084949, 0.0042706383392214775, 0.0032596751116216183, -0.011598900891840458, 0.004263850394636393, -0.0017145723104476929, -0.002122865291312337, 2.304526606167201e-05, -0.007972044870257378, 0.001977520063519478, 0.0013869861140847206, -0.013907051645219326, 0.0014296653680503368], [-0.0005394729669205844, 0.0028775392565876245, 0.0005383958923630416, -0.0007984297117218375, -0.002111736685037613, 0.0021243286319077015, 0.008979463949799538, -0.0015752402832731605, -0.0005823402316309512, 0.006182283628731966, -1.5684854588471353e-05, 0.0028227632865309715, -0.010434652678668499, -0.0009640929638408124, 0.016680095344781876, -9.243136446457356e-05], [-0.00010055916936835274, 0.001979969209060073, -0.00015415658708661795, 0.00019714112568181008, 5.370166400098242e-05, 0.0027738616336137056, 0.005671996623277664, 0.0008756532333791256, 0.00033971352968364954, 0.0009040423901751637, 2.275052793265786e-05, -0.0017740677576512098, -0.004568175878375769, -0.0002652358671184629, 0.007259024307131767, -0.00020535173825919628], [-0.000569762836676091, -0.0009000613354146481, 0.001439661718904972, -0.0041637844406068325, -0.0006819395930506289, 0.0010632030898705125, 0.004459987860172987, -0.0004488459671847522, -0.0016377042047679424, -0.0020075286738574505, -1.3028694411332253e-05, -0.0010788484942167997, -0.0037321376148611307, -0.001062803785316646, 0.009387284517288208, 0.0009637135663069785]], "layer_3_biases": [0.3203144967556, 0.008263486437499523, 0.030507979914546013, -0.054951928555965424, -0.014813343994319439, 0.02133379690349102, 0.04212510585784912, -0.0706414207816124, 0.03406203165650368, -0.016967805102467537, 0.01863812282681465, -0.008524497039616108, 0.03371814638376236, 0.0459134466946125, 0.0027133235707879066, 0.03005256876349449], "layer_3_weights": [[-0.00020619944552890956, 0.007210755255073309, 0.0005613458924926817, 0.007658974267542362, -8.784973033471033e-06, -0.001548000262118876, 0.007911530323326588, -5.2711216994794086e-05, 3.385399395483546e-05, 0.010013990104198456, 0.0003351711784489453, 0.0012835614616051316, 0.000542238587513566, -0.0002508056059014052, 0.010012653656303883, -0.012848990969359875], [8.587448974139988e-05, -0.007690902799367905, 0.0009049761574715376, 0.003776554251089692, 1.841902644628135e-06, -0.0044951350428164005, 0.0029807263053953648, 8.088892172963824e-06, -0.0015565573703497648, -0.006886570248752832, -0.005190358962863684, -0.007437251973897219, 0.001028873841278255, 0.0003322397533338517, -0.004675100091844797, 0.003936088178306818], [0.0009379235561937094, 0.003048989921808243, 0.000579602550715208, 0.0023866549599915743, 5.795105607830919e-06, 0.00015307971625588834, -0.0057281446643173695, 1.485500433773268e-05, 6.232774467207491e-05, 0.0005312078865244985, -0.0008070215699262917, -0.0030894880183041096, 0.00030419856193475425, 0.00039871546323411167, 0.00860618520528078, -0.005703791975975037], [-0.0007837957818992436, 0.0018905376782640815, 0.001880799187347293, -0.0007931269356049597, -6.161988608255342e-07, 0.006359821185469627, -0.02115245908498764, -3.4505103485571453e-06, -0.002630197908729315, -0.0008367178379558027, 0.004710278939455748, 0.004139304626733065, 0.0029285578057169914, -0.0012327434960752726, -0.0004769413499161601, 0.001938983448781073], [0.0009062161552719772, 0.014435631223022938, -0.00022730138152837753, 0.008037962950766087, 4.83884105051402e-06, -0.0009123249328695238, -0.016083313152194023, 7.805476343492046e-06, 0.0004920819774270058, 0.014268827624619007, -0.004100871738046408, -0.0005815004114992917, -0.0001755298289936036, 0.0004482769581954926, -0.03182047978043556, 0.0005103108705952764], [0.00020272507390473038, 0.007105738390237093, -0.001888528699055314, -0.008088133297860622, -8.978937330539338e-06, 0.0007329693180508912, -0.0006295430939644575, -2.0686011339421384e-05, 0.001718632411211729, 0.015900924801826477, 0.0005647663492709398, 0.0061955759301781654, -0.001288078841753304, -4.026286114822142e-05, -0.00923058483749628, 0.004689193330705166], [0.0003580304328352213, -0.0027823771815747023, -0.000647587759885937, 0.005705588962882757, -5.936662432759476e-07, -0.0032206240575760603, 0.0033849715255200863, 9.802429303817917e-06, 0.000858665385749191, -0.0010782862082123756, -0.004082681145519018, -0.005885198246687651, -0.001072186278179288, 0.000706101069226861, 0.0033536069095134735, -0.0017833135789260268], [0.0007347774808295071, 0.012692525051534176, 0.00016167301509995013, 0.007335845846682787, -4.4280654947215226e-06, -0.004794917069375515, 0.009683078154921532, 2.053804337265319e-06, 0.0010484467493370175, 0.01137611735612154, -0.003091606078669429, -0.0018647147808223963, -0.0007299375720322132, 0.0005888152518309653, -0.00757894292473793, -0.012170777656137943], [0.0005388780264183879, 0.005528787616640329, 0.0012964900815859437, -0.0011092558270320296, 1.6098925698315725e-05, 0.0041512055322527885, -0.011568794958293438, 3.275661219959147e-05, -0.0006713166367262602, -0.008171414025127888, 0.0013391157845035195, 0.0019099708879366517, 0.0009416945395059884, -0.0002101094287354499, -0.00907023623585701, 0.0010458796750754118], [-1.952705679286737e-05, 0.006458721589297056, 0.0006502886535599828, 0.008753027766942978, -1.0597295840852894e-05, -0.007237835321575403, 0.011908058077096939, -2.204753582191188e-05, -0.0010372172109782696, 0.01206105388700962, -0.004432556685060263, -0.00017340884369332343, 0.0009816560195758939, 0.00017022456449922174, -0.01865469291806221, -0.005857154726982117], [0.0003235903277527541, 0.00745354313403368, 0.0013342374004423618, 0.0032937126234173775, -1.3895693200538517e-06, 0.002227325225248933, -0.018113471567630768, 5.4301481213769875e-06, -0.0008523448486812413, 0.010595209896564484, 0.001789543777704239, -0.0033866746816784143, 0.0013033413561061025, -0.0005101687856949866, 0.0158841535449028, -0.00989568792283535], [0.0005073111969977617, 0.007635795511305332, 0.0006078130099922419, -0.00018889407510869205, 4.251870450389106e-06, -0.0003266941348556429, -0.0015944805927574635, 4.226732926326804e-06, 9.651708751334809e-06, 0.0028142761439085007, 0.0009628832922317088, -0.00022794882534071803, 8.287455420941114e-05, 0.0002431650209473446, -0.008455169387161732, -0.005601652432233095], [-0.00020075208158232272, 0.0017417147755622864, 0.0018880749121308327, 0.0011182245798408985, 5.820500064146472e-06, 0.005769777111709118, -0.03507198020815849, 5.03466981172096e-05, -0.002742213197052479, -0.0011682736221700907, 0.002262870315462351, -0.0015948173822835088, 0.002573549747467041, -0.0007279479177668691, -0.011486907489597797, 0.005912476684898138], [-0.0007351131062023342, -0.0038433887530118227, 0.0004392325645312667, 0.008421516977250576, -6.036040304024937e-06, -0.0022922134958207607, 0.012313570827245712, -1.7264468624489382e-05, -0.00034644504194147885, -0.0062489197589457035, 0.0005372407613322139, -0.0016578459180891514, 5.101977876620367e-05, 1.1678579312501824e-06, 0.0026492513716220856, -0.007374683860689402], [3.279878364992328e-05, -0.0010194878559559584, -0.0006105630309320986, 0.0035225108731538057, 9.628708539821673e-06, 0.0004898493061773479, 0.000983111560344696, 6.260305235628039e-05, 0.0009164478396996856, -0.005280697252601385, 0.0002567875199019909, -0.0009804136352613568, -0.0011112738866358995, 0.0003960698377341032, -0.00582656916230917, -0.001877739792689681], [-0.0005228316294960678, 0.0018373100319877267, 0.0009698003996163607, 0.006788546685129404, -6.298603693721816e-06, 0.000429834850365296, -0.0013251686468720436, -7.1010867941367906e-06, -0.001183371408842504, -0.0007450870471075177, 0.001899320399388671, 0.0016820479650050402, 0.001124153146520257, -0.0002672816626727581, -0.005404458846896887, -0.006002576090395451]], "layer_4_biases": [0.2732389569282532, -0.016339655965566635, 0.017971592023968697, -0.007363453041762114, 0.007784244138747454, 0.05980777367949486, -0.09515076130628586, -0.16621197760105133, -0.025171739980578423, 0.006711585912853479, 0.022247066721320152, -0.015355294570326805, 0.003489278256893158, 0.026045633479952812, -0.03682035952806473, 0.045571886003017426], "layer_4_weights": [[-0.000571695389226079, 0.01843305304646492, 0.0005350917926989496, -0.006091549526900053, -0.002539583947509527, -0.00031295782537199557, -0.01614767499268055, -6.154089987830957e-06, -0.0037420380394905806, -0.0016344902105629444, -0.0017620316939428449, -0.0024264268577098846, 0.011315231211483479, -0.00022374313266482204, 0.0029984714929014444, -0.008698424324393272], [0.0007740939036011696, -0.012815866619348526, -0.006928650662302971, 0.007251916453242302, 0.0004680508282035589, -0.0008689959067851305, 0.01483104471117258, 4.152617111685686e-05, 0.005383264739066362, 0.005427044816315174, -0.005015747155994177, -0.001764893066138029, -0.0011928000021725893, -8.209330553654581e-05, 0.013652486726641655, 0.0018063776660710573], [0.0005942779243923724, 0.009037050418555737, -0.0023496251087635756, -0.003742399625480175, 0.0001467311813030392, 0.00029970775358378887, -0.015727590769529343, 5.92914011576795e-06, 0.006644357927143574, 0.0059142825193703175, 0.0007097451016306877, 0.0019102751975879073, 0.011974403634667397, 0.0004664730513468385, 0.005216134712100029, -0.001992332050576806], [-0.0013312097871676087, 0.008345747366547585, 0.0027463810984045267, -0.0008913262281566858, 0.0026113351341336966, -0.001566238235682249, -0.012787040323019028, -4.054695352806448e-07, -0.009737007319927216, 0.0006642027292400599, 0.004888670053333044, 0.0061779324896633625, 0.005167853552848101, -0.0010072512086480856, -0.019035106524825096, 0.0013396231224760413], [0.0011069081956520677, 0.0017145014135167003, -0.00786622241139412, -0.014356701634824276, -0.00022872602858114988, 0.0002748355036601424, 0.00703452480956912, -1.6732057702029124e-05, 0.0062646702863276005, -0.01811652071774006, -0.002050969051197171, 0.005567783955484629, 0.0021191081032156944, 0.0005245420034043491, -0.003503047861158848, -0.004564110189676285], [0.000508250726852566, -0.007896977476775646, 0.009261023253202438, -0.006873000878840685, -0.0004671467759180814, 0.000964449078310281, -0.002617558930069208, -4.24001746068825e-06, -0.004609792493283749, -0.025196244940161705, 0.0002132551308022812, 0.001435178448446095, -0.015198313631117344, 0.0006155677838250995, -0.017466040328145027, 0.0023079151287674904], [0.0008693265845067799, -0.006017378997057676, -0.006296255625784397, 0.0019425732316449285, -0.0002923641004599631, 0.00122743658721447, 0.0036636849399656057, 1.213408904732205e-05, 0.005318631883710623, -0.0018295315094292164, -0.002870384370908141, -0.0012755220523104072, 0.0026108459569513798, 0.0007598829688504338, 0.01888677477836609, -0.003969924990087748], [0.0003525329811964184, 0.015346427448093891, -0.002293570665642619, -0.010641141794621944, -0.003529257606714964, 0.00013661899720318615, -0.002629638183861971, -5.255633368506096e-05, 0.01262006163597107, 0.002647734945639968, -0.0029741465114057064, -0.003379922127351165, 0.010301011614501476, 0.00019200898532290012, 0.010862990282475948, -0.00836198776960373], [-1.8633620129548945e-05, 0.01194269023835659, -0.0018651810241863132, -0.004833014216274023, 0.0014885388081893325, -0.0006651346920989454, -0.006506520789116621, 3.0229679396143183e-05, 0.009527117945253849, 0.01180777046829462, 0.003551511326804757, 0.004084375686943531, 0.009627322666347027, -0.00032622224534861743, -0.011794104240834713, 0.004586359951645136], [0.0002222506736870855, 0.0035534913185983896, -0.0005575063987635076, -0.004813111387193203, -0.004169035702943802, -0.0007997798966243863, 0.012054690159857273, -8.494043868267909e-05, 0.0016781180165708065, -0.006605969741940498, -0.006702137645334005, -0.005578436888754368, -0.00015073550457600504, -0.00013045166269876063, 0.006788765080273151, -0.008079691790044308], [-0.0005364008247852325, 0.01395511906594038, 0.00011553589138202369, -0.0064456770196557045, 0.0008948430768214166, -0.0008275719592347741, -0.02010227181017399, -6.246956218092237e-06, -0.0014188156928867102, 0.00041646018507890403, 0.0027748493012040854, 0.005177713930606842, 0.016445046290755272, -0.0005426192656159401, 0.0023675551638007164, -0.005081405863165855], [0.0001823997008614242, 0.011037210002541542, 0.00020503622363321483, -0.006382933352142572, -0.0015236729523167014, -3.270973320468329e-05, 0.0043369620107114315, -1.6119003703352064e-05, 0.0071434625424444675, 0.006701241713017225, 0.001130306045524776, 0.0012683423701673746, 0.0065711005590856075, 5.7399767683818936e-05, -0.0018137930892407894, -0.0014829325955361128], [-8.0551762948744e-05, -0.0017998665571212769, -0.00558121083304286, -0.001352788181975484, 0.0041084084659814835, -0.001041754730977118, 0.004373534582555294, 6.606984243262559e-06, -0.005592776462435722, -0.002481801901012659, 0.004153741057962179, 0.011013191193342209, 0.002934371819719672, -0.0004278011037968099, -0.010681509040296078, 0.002139016054570675], [-0.0009260079823434353, 0.007534330245107412, -0.004418050404638052, 0.0037919464521110058, -0.0015218096086755395, -0.0005116740358062088, 0.011829220689833164, -2.1772730178781785e-05, -0.001396847190335393, 0.012645329348742962, -0.0018914832035079598, -0.003708693664520979, 0.006600914057344198, -0.0005611995584331453, 0.013143842108547688, -0.006792445667088032], [0.00023616057296749204, 0.0015610931441187859, -0.0048706079833209515, -0.00042081382707692683, 0.00034482203773222864, 0.0009378877584822476, 0.011186358518898487, 2.951241549453698e-05, 0.001753761782310903, 0.0026859459467232227, 0.0002901434781961143, 0.0009115629945881665, 0.003172527067363262, 0.0003943937481380999, 0.008291481994092464, -0.002139697317034006], [-0.0007303014863282442, 0.00998712982982397, -0.0018829501932486892, -0.001004064572043717, -0.00038608635077252984, -0.0008762843208387494, 0.007268974091857672, 9.709419100545347e-05, -0.005536258220672607, 0.004019156098365784, 7.457562605850399e-05, 0.0007838530000299215, 0.006268056109547615, -0.0005203397595323622, -0.001440189778804779, -0.005284896586090326]], "output_biases": [0.38682103157043457, 0.012540137395262718], "output_weights": [[0.9555044770240784, -0.057853009551763535], [0.7349404692649841, 0.3059333860874176], [0.10406046360731125, 0.26993489265441895], [-0.8763487935066223, 0.2639365494251251], [0.34240755438804626, -0.07568760961294174], [0.1862991452217102, -0.19665281474590302], [0.8007739782333374, -0.66452556848526], [0.362863153219223, -0.10607769340276718], [0.0964978039264679, -0.36926916241645813], [0.40068233013153076, 0.4511294662952423], [0.23672476410865784, -0.15973451733589172], [-0.29897817969322205, -0.23272378742694855], [-0.24430283904075623, 0.3528631031513214], [0.31897249817848206, -0.0954868495464325], [0.37246304750442505, -0.8569750785827637], [0.6285291314125061, 0.25770002603530884]]}, "hk_disentangled_rnn/~update_latents/update_net_2": {"input_biases": [0.010548937134444714, 0.03937022015452385, -0.0945945680141449, -0.05864357203245163, 0.03948519751429558, -0.05064571276307106, 0.07357210665941238, -0.050738926976919174, -0.012417797930538654, -0.04546614736318588, 0.053127750754356384, 0.07101202011108398, -0.00251961057074368, -0.04368618503212929, 0.040230751037597656, -0.06965377926826477], "input_weights": [[-0.3858416676521301, 0.7375156283378601, 0.46302250027656555, 0.6009466648101807, -0.12905840575695038, 0.7692061066627502, 0.42983686923980713, 0.6916319131851196, 0.9420139789581299, 1.2779322862625122, -0.6497634053230286, -0.5446014404296875, 0.06990347802639008, 0.1456257402896881, -0.7132257223129272, -0.02570105716586113], [-0.07931745797395706, -0.21631327271461487, -0.22362910211086273, 0.07989101111888885, -0.6089580655097961, 0.08124392479658127, 0.05316769331693649, 0.13248270750045776, -0.3979608118534088, 0.18774278461933136, 0.8997381329536438, -0.1248631551861763, 1.016733169555664, 0.5919324159622192, 0.3098294138908386, 0.20044665038585663], [-0.14460395276546478, -0.3196122944355011, -0.3199460804462433, -0.7513844966888428, 0.5376800298690796, -0.4595392346382141, -0.14465667307376862, 0.33931395411491394, 0.2069355845451355, 0.4329031705856323, -0.0508284717798233, -0.8095877170562744, 0.0684501901268959, 0.3972618579864502, 0.02963532879948616, 0.005318209063261747], [-0.8823253512382507, 0.02034463733434677, -0.4348483383655548, -0.36270755529403687, 0.08286962658166885, 0.1695861667394638, -0.2727468013763428, 0.024645622819662094, 0.00616114679723978, 0.18679247796535492, -0.35193297266960144, -0.0833456963300705, -0.4981168806552887, -0.07507603615522385, 0.39508748054504395, 0.1911287009716034], [0.5170656442642212, -0.04701254144310951, -0.9017163515090942, 0.2306184619665146, 0.27217182517051697, -0.08615542948246002, -0.23131275177001953, 0.6906036138534546, 0.04619283229112625, -0.5060587525367737, -0.07189532369375229, 0.5491293668746948, -0.28096264600753784, 0.4060519337654114, 0.23943708837032318, 0.020738696679472923], [0.4520018994808197, -0.02918935939669609, -0.1244824230670929, -0.3599037230014801, -0.10752016305923462, -0.03696814924478531, 0.249394491314888, 0.28666117787361145, 0.2089737504720688, -0.48672881722450256, 0.5234637260437012, 0.42380696535110474, -0.1943301409482956, -0.23663610219955444, -0.11716321855783463, 0.21077293157577515], [0.7253454923629761, -0.4327397644519806, -0.17740918695926666, -0.173994243144989, -0.8438053727149963, -0.1387331634759903, -0.03973047807812691, 0.05143875256180763, 1.0938159227371216, -0.08259156346321106, -0.5575534105300903, 0.7122786641120911, 0.15530170500278473, 0.31819653511047363, -0.41041481494903564, -0.4524819552898407]], "layer_0_biases": [-0.012998025864362717, 0.004413802642375231, -0.006840195041149855, -0.001632216153666377, -0.2668159306049347, -0.008953007869422436, 0.06989574432373047, -0.004966303706169128, -0.06792806833982468, -0.005123450420796871, 0.07090522348880768, 0.08153211325407028, -0.00467340974137187, -0.003091749269515276, 0.08267655968666077, -0.04285551980137825], "layer_0_weights": [[3.809956297118333e-06, 0.0014065708965063095, -8.167749911081046e-05, 0.0002057818346656859, -1.9799846995738335e-05, -0.0003693097969517112, 0.000628549896646291, -0.00012977243750356138, -9.233850505552255e-06, 5.502521617017919e-06, -0.00024142472830135375, -0.00038151280023157597, 4.02551586375921e-06, -5.592181878455449e-06, -0.00024484950699843466, 2.9793372959829867e-05], [-7.87746103014797e-06, -0.0007686331518925726, 0.0012393295764923096, -0.0003213000309187919, 2.1551790268858895e-05, 0.0005454729543998837, -0.00025325914612039924, 0.0005358970956876874, 8.057291779550724e-06, -9.662823686085176e-06, 0.0006510552484542131, 0.0005144195747561753, -1.1677003385557327e-05, 7.570162779302336e-06, 0.0005266867810860276, -3.884457328240387e-06], [4.803960109711625e-06, 2.3145035811467096e-05, 0.0008805636316537857, 0.00031255080830305815, 2.2589189029531553e-05, 0.0007526488043367863, -0.001413742545992136, 6.995096919126809e-05, -8.457498665848107e-07, -4.263736173015786e-06, 0.00013801109162159264, -0.00013315989053808153, -4.893311142950552e-06, -2.0021766431455035e-06, 7.950160943437368e-05, 1.5521130990236998e-05], [-9.114379281527363e-06, -0.0014386540278792381, 0.0015652908477932215, -0.0003649032732937485, 1.4960718544898555e-05, 0.00043371637002564967, 4.730807995656505e-05, 0.0003505462082102895, 3.8896587284398265e-06, -6.859077075205278e-06, 0.000493398227263242, 0.0005201103631407022, -7.078527232806664e-06, 3.5611747080110945e-06, 0.00046414617099799216, 3.425820614211261e-05], [2.1364005533541786e-06, 0.0009090660605579615, -0.0010432926937937737, -1.4363388345373096e-06, 4.333437573222909e-06, -0.0029745602514594793, -0.00015782832633703947, -0.0031111601274460554, 8.25731985969469e-05, -2.8248698527022498e-06, 0.0010191117180511355, 0.00013899223995395005, -6.905762717224206e-08, -3.9898759496281855e-06, 0.0005564115126617253, 3.817617653112393e-06], [-1.0405495231680106e-05, -0.001161725725978613, 0.001630046870559454, -0.0003150630509480834, 1.708173476799857e-05, 0.0017378823831677437, -0.00021512588136829436, 0.0018565949285402894, 4.322030235925922e-06, -8.797917871561367e-06, 0.00032514557824470103, 0.0005017943913117051, -1.0696289791667368e-05, 5.84621011512354e-06, 0.00033306755358353257, -4.824798088520765e-05], [-2.62736102740746e-06, -0.00034271087497472763, 0.0011915594805032015, -0.000267441151663661, 6.865569957881235e-06, 0.0009857779368758202, -0.00023414740280713886, 0.0007374740671366453, -6.019847660354571e-07, -3.818448931269813e-06, 4.253763108863495e-05, 0.00020530504116322845, -4.863294634560589e-06, -9.85263000075065e-07, 0.0001358766749035567, -2.0494018826866522e-05], [-1.0796824426506646e-05, -0.0005741966306231916, 0.0014464668929576874, -0.0003759571409318596, -1.4543262295774184e-05, 0.0004179603129159659, 0.00019757653353735805, 0.0015361051773652434, 7.516565574405831e-07, -9.483593203185592e-06, 0.0006329643656499684, 0.0009633723529987037, 4.343603450251976e-06, 9.396367204317357e-06, 0.0006966050714254379, -4.209390681353398e-05], [-3.535296627887874e-06, 0.0009776153601706028, 0.00143690244294703, -7.769659714540467e-05, -1.757259087753482e-05, 0.0033587641082704067, -0.000721437856554985, 0.004531564190983772, -1.2150729844506714e-06, -4.9641575969872065e-06, -0.00044152920600026846, -1.7375003153574653e-05, 6.756738912372384e-06, 1.2680130566877779e-05, -0.00021949158690404147, -2.8502341592684388e-05], [-1.941074003752874e-07, -0.0018737647915259004, 0.00260842964053154, -0.00037300659460015595, 8.931024240155239e-06, 0.002680423203855753, -0.00043477723374962807, 0.0025670756585896015, 1.4294514585344587e-05, -7.755454134894535e-06, 0.00021980305609758943, 0.00048714244621805847, -5.835865067638224e-06, 3.7904180771874962e-06, 0.00027556647546589375, -2.8929556719958782e-05], [-1.2038050556384405e-07, -0.0014954068465158343, 0.00018967674986924976, -0.0003307423903606832, -1.1014024494215846e-05, -0.0004657758981920779, 0.0006223298260010779, -0.002033143537119031, -3.628167860370013e-06, 1.4922253512850148e-06, -0.00035333860432729125, 0.00011828089191112667, 1.4818676845607115e-06, 3.2451055176352384e-07, -7.759121217532083e-05, -4.285014711058466e-06], [5.632127226817829e-07, 0.0010956709738820791, -0.0008068414754234254, -1.701858673186507e-05, 1.645357951929327e-05, 0.0004990088054910302, 0.0003559056203812361, 0.0011825296096503735, -2.375262738496531e-06, 4.5124575080990326e-06, -0.00043409623322077096, -0.00043854553950950503, 5.792056526843226e-06, 3.579363863082108e-07, -0.00042029356700368226, -5.810970833408646e-06], [5.696296739188256e-06, -0.002457637805491686, 0.0011783449444919825, -0.00043374282540753484, -8.224439625337254e-06, 0.001101573114283383, 0.0002983553858939558, 0.0002375383919570595, 2.606376710900804e-06, 8.228111255448312e-06, -0.0007768683135509491, 5.676941145793535e-05, -2.8275453587411903e-06, -4.5440037865773775e-06, -0.0003272797621320933, -3.066011686314596e-06], [-4.969273049937328e-06, -0.0013550936710089445, -9.03187901712954e-06, -0.00026462486130185425, -1.0426479093439411e-05, 0.00034709120518527925, 0.000796155771240592, 0.0009663511300459504, 8.502482523908839e-05, 5.251037237030687e-06, -0.0005006559658795595, 0.0002367605484323576, 5.859737029823009e-06, -6.513376433758822e-07, -0.00017885002307593822, 1.8385042039881228e-06], [-1.4405941328732297e-06, -0.0005737220053561032, -0.0014305474469438195, -7.705375173827633e-05, 5.715573479392333e-06, -0.0016372638056054711, 0.00038871713331900537, -0.0018517582211643457, 2.115692404913716e-05, 4.591925971908495e-06, -9.00167378858896e-07, -1.0373303666710854e-05, 1.998008883674629e-06, 1.694534148555249e-06, -3.744809509953484e-05, -3.521924554661382e-06], [-5.065850928076543e-06, -0.00025311834178864956, 7.585947605548427e-05, -9.300823148805648e-05, 1.9395624804019462e-06, -0.0002999958232976496, -0.00015807490854058415, -0.0005508819012902677, -6.806615004961714e-08, -7.376726898655761e-06, 0.0007383332122117281, 0.0003184375527780503, -4.559609863008518e-07, -5.477294507727493e-06, 0.0005867566214874387, -2.2094092855695635e-05]], "layer_1_biases": [-0.039332181215286255, 0.10384902358055115, 0.0014125073794275522, -0.012027999386191368, -0.004247867036610842, -0.005021996796131134, 0.29017895460128784, -0.004641577135771513, -0.03143538907170296, -0.005178829189389944, 0.08431535214185715, -0.023663554340600967, -0.0018227545078843832, -0.0020556296221911907, 0.04982771351933479, -0.006499964743852615], "layer_1_weights": [[6.0457809013314545e-05, -8.66363407112658e-05, 0.0005613650428131223, 5.868725565960631e-06, -0.0011315011652186513, -0.00015214939776342362, 0.0006630489369854331, -0.000154644571011886, -5.061034968889544e-08, 5.365732249629218e-06, -0.00025153308524750173, -4.296571660233894e-06, -0.00020467840658966452, -6.0475563259387854e-06, -0.00023751067055854946, -0.0004583107365760952], [-6.975876203796361e-06, 0.0003919116861652583, -0.0014201884623616934, -6.618358838750282e-06, 0.0018738448852673173, 0.0006217507761903107, -0.00023921624233480543, 0.000554045254830271, 9.616896932129748e-06, -9.347195373266004e-06, 0.0006153198191896081, -4.09828317060601e-06, -0.00025621079839766026, 1.3850168443241273e-06, 0.0004840860783588141, 0.000990975764580071], [7.195113994384883e-06, -8.785691170487553e-05, 0.0004188670718576759, 3.5079000326732057e-07, 0.001661568763665855, -7.688559890084434e-06, -0.00040055278805084527, 4.240246198605746e-05, -1.0116610127397507e-07, -4.690475179813802e-06, 0.0001915740576805547, -6.6936299845110625e-06, -0.00024170447431970388, -1.8357545741309877e-06, 7.431548146996647e-05, 0.00036870554322376847], [1.2271202649571933e-05, 0.00027780450182035565, -0.0015888799680396914, -7.083554010023363e-06, 0.001917381421662867, 0.0004328163049649447, 0.00015879335114732385, 0.00032847755937837064, -1.9133915429847548e-07, -6.81360688759014e-06, 0.0005022730911150575, 5.312112534738844e-06, -0.0001564879494253546, 6.795529770897701e-06, 0.00045154933468438685, 0.0006203202065080404], [5.168715870240703e-05, 0.0006055830745026469, 0.0016244366997852921, 8.79343042470282e-06, -0.00041948872967623174, -0.0029124554712325335, -6.620494241360575e-05, -0.003087832825258374, -4.281670044292696e-06, -3.0724982025276404e-06, 0.0009838417172431946, -1.68417736858828e-05, 0.00013287302863318473, -5.6354847401962616e-06, 0.0005561811849474907, -0.006126686464995146], [-4.2327301343902946e-05, 0.000285241287201643, -0.0020950832404196262, -8.857396096573211e-06, 0.001976420171558857, 0.00179677817504853, -0.0001848422980401665, 0.001787340734153986, -6.350340697736101e-08, -9.074189620150719e-06, 0.0003945146163459867, 7.875154551584274e-06, -0.0003074173291679472, 8.939102372096386e-06, 0.00036283291410654783, 0.0033464946318417788], [-8.944520959630609e-05, -8.86898415046744e-05, -0.0011118550319224596, -4.446414550329791e-06, 0.0015616660239174962, 0.0007681214483454823, -0.00022333062952384353, 0.000693643931299448, 5.823605988553027e-07, -3.2298380574502517e-06, 3.499925924188574e-06, 6.335321813821793e-05, -5.5787346354918554e-05, 6.192731234477833e-06, 6.950316310394555e-05, 0.00147379154805094], [-8.330773562192917e-05, 0.0005847361171618104, -0.0024816100485622883, -7.819763595762197e-06, 0.0019265565788373351, 0.0016343488823622465, 0.0001839365140767768, 0.0014060374815016985, 5.689661861651985e-07, -9.13182429940207e-06, 0.0007283430313691497, 9.438420420337934e-06, -0.00026072998298332095, 1.0988919711962808e-05, 0.0007447532843798399, 0.0021112621761858463], [9.688184945844114e-05, -5.826058622915298e-05, -0.0015682512894272804, -8.197622491934453e-07, 0.0009802671847864985, 0.004341465886682272, -0.0007432021084241569, 0.004576037172228098, 7.918663982309226e-07, -4.540400823316304e-06, -0.00041849518311209977, 3.3374608392477967e-06, -0.001042540417984128, 1.715713551675435e-05, -0.0002310327981831506, 0.008285889402031898], [-6.514155393233523e-05, 0.00012760692334268242, -0.0025386852212250233, -6.8663553065562155e-06, 0.0033436636440455914, 0.0026623206213116646, -0.0003454767866060138, 0.0025895738508552313, 8.592791346018203e-06, -7.347923201450612e-06, 0.0002484099823050201, 3.975568324676715e-05, -0.00018565331993158907, 6.526370725623565e-06, 0.00025015356368385255, 0.0046858955174684525], [2.7935879188589752e-05, -0.0006154758157208562, -0.000553579069674015, -8.655998158246803e-07, 0.0006180857890285552, -0.0015478131826967, 0.0006453059613704681, -0.0021130286622792482, 9.448303472936459e-08, 5.19084960615146e-06, -0.0005233632982708514, 1.5320587465339486e-07, 0.000975110859144479, -6.81771297195155e-08, -0.0002277352032251656, -0.00389855750836432], [2.7424757718108594e-05, -0.00027615841827355325, 0.00017596800171304494, 3.527496573951794e-06, -0.0021474300883710384, 0.0010481956414878368, 0.0003918654110748321, 0.0011904817074537277, -3.7869892821618123e-07, 5.2684599722852e-06, -0.0005663463962264359, -7.774636287649628e-06, -0.00030706581310369074, -8.378695497412991e-07, -0.0004845607909373939, 0.0021936169359833], [-7.717554399278015e-05, -0.0007287926273420453, -0.0018474957905709743, -1.6092932355604717e-06, 0.0019051276613026857, 0.0003894105029758066, 0.0002494400250725448, 0.0002124141319654882, -4.3331756387487985e-06, 8.776220965955872e-06, -0.0007646037265658379, 9.606096682546195e-06, 0.0006108874222263694, 5.823470019095112e-06, -0.0003526473301462829, 0.0006970509421080351], [-1.5794450519024394e-05, -0.000378488446585834, -0.001806671847589314, -1.2946050276241294e-07, 0.0005694336723536253, 0.0011234248522669077, 0.0008712775306776166, 0.0009463242604397237, -2.274560301884776e-06, 5.098040674056392e-06, -0.00048734492156654596, 4.776509740622714e-06, 0.00022499413171317428, 2.205820237577427e-06, -0.0002033854543697089, 0.0014016801724210382], [7.199759238574188e-06, -9.827514440985397e-05, 0.0007057412876747549, 7.463384008588037e-07, -0.0013512693112716079, -0.0017193361418321729, 0.00035730929812416434, -0.0018029971979558468, -2.2097310647950508e-06, 4.862757123191841e-06, -0.0002166783669963479, -2.6301293587494e-07, 0.0006581819034181535, 6.969877404117142e-07, -0.00014465910498984158, -0.0033252891153097153], [3.5673522802426305e-07, 0.0005927683669142425, 9.487001807428896e-05, -4.096491011296166e-06, 0.00038920363294892013, -0.00048758010962046683, 0.00023747532395645976, -0.0005987167824059725, 4.4245541630516527e-07, -7.53450149204582e-06, 0.0007216278463602066, 3.841818397631869e-06, 0.0002261455520056188, -4.301162334741093e-06, 0.0005786556284874678, -0.0014857356436550617]], "layer_2_biases": [-0.0011730471160262823, -0.016668621450662613, -0.1839788556098938, -0.030535481870174408, -0.004779525101184845, -0.005242034327238798, 0.07450396567583084, -0.004863903392106295, 0.04656233638525009, -0.004173839930444956, 0.14196166396141052, 0.09003877639770508, -0.0019660620018839836, 0.05155736580491066, 0.08997822552919388, -0.007038133218884468], "layer_2_weights": [[0.0006585688097402453, -7.838695637474302e-06, 3.0440448881563498e-06, 5.625561243505217e-06, -0.0010087640257552266, -0.00014831592852715403, 0.0006826944882050157, -0.00014152986113913357, -0.0004085647815372795, 4.695349161920603e-06, -0.00026619384880177677, -0.0003017633280251175, -0.0002554613456595689, -0.00011173845268785954, -0.0002280200133100152, -0.00044712270027957857], [-0.0004756783018819988, 1.4407654816750437e-05, 1.6964710084721446e-05, -7.599793661938747e-06, 0.0018656128086149693, 0.0007255901000462472, -0.00026916421484202147, 0.000656519434414804, 0.0002126580075128004, -7.0553342084167525e-06, 0.0004887435352429748, 0.0003292676992714405, -0.00023075653007254004, 0.00019047119712922722, 0.00033945924951694906, 0.0011347155086696148], [0.0009065623744390905, -4.759869170811726e-06, 2.4330236556124873e-05, -3.4611437058629235e-06, 0.0016532393638044596, 5.476437581819482e-05, -0.0012716032797470689, 1.6558729839744046e-05, 0.00021100309095345438, -4.299433385313023e-06, 0.00018505241314414889, -0.0002755975001491606, -0.00015619264740962535, -0.00016038464673329145, 9.041332668857649e-05, 0.00033933643135242164], [-0.00010864150681300089, 2.1762552933068946e-06, -7.367254056589445e-06, -6.4892988120845985e-06, 0.001911725732497871, 0.0005406657001003623, 0.00011131564679089934, 0.00043622724479064345, -2.762878648354672e-05, -5.781970685347915e-06, 0.0005257445154711604, 0.0004744059406220913, -0.0001658608380239457, 0.0003001964942086488, 0.00044760387390851974, 0.0006747273146174848], [0.0008971893112175167, -2.0186163965263404e-05, 2.621954763526446e-06, 6.3134534684650134e-06, -0.0003139053878840059, -0.00267598032951355, -0.00016060050984378904, -0.002871438395231962, -0.0003138486354146153, 4.789046670339303e-07, 0.0008585505420342088, 0.00019999632786493748, 0.00016954931197687984, 0.0004932468291372061, 0.000493295316118747, -0.005857369396835566], [-0.0009065018384717405, 3.5311677493155e-05, 1.2192533176857978e-05, -5.867630534339696e-05, 0.0020873863250017166, 0.0017490475438535213, -0.00017276202561333776, 0.0017461247043684125, 0.0002815009211190045, -1.0257768735755235e-05, 0.0004708981141448021, 0.0004443174693733454, -0.0003204338136129081, 0.000276649312581867, 0.00039239475154317915, 0.003276426112279296], [-0.0008741831406950951, 5.77104174226406e-06, -6.089561793487519e-06, -4.985680334357312e-06, 0.0016107655828818679, 0.0007676221430301666, -0.00024156708968803287, 0.0006679271464236081, -6.165492231957614e-05, -1.0347293937229551e-06, 3.387249671504833e-05, 8.407865971093997e-05, -8.929822070058435e-05, -0.00017740002658683807, 1.8224647647002712e-05, 0.0014888397417962551], [-0.0012279730290174484, 9.778635285329074e-05, -7.338453542615753e-06, -5.1094142690999433e-05, 0.0019059896003454924, 0.0014655720442533493, 0.00020562874851748347, 0.0013927656691521406, 5.812004383187741e-05, -1.1364369129296392e-05, 0.0008143185405060649, 0.0010163788683712482, -0.0002543405571486801, 0.0005197396967560053, 0.000710459251422435, 0.0020835320465266705], [-0.0004561678506433964, 1.2465587133192457e-05, 2.8300669328018557e-06, -6.985459094721591e-06, 0.0009048733045347035, 0.00425410270690918, -0.0007878050673753023, 0.00454627675935626, 4.346484274719842e-05, -3.517836603350588e-06, -0.0003798434336204082, -0.00014170349459163845, -0.0010892405407503247, -0.0001988452859222889, -0.00023741915356367826, 0.008266209624707699], [-0.0002974023809656501, 5.558690827456303e-05, -6.907498573127668e-06, 2.8951377316843718e-05, 0.003313008463010192, 0.002678283955901861, -0.00018886543693952262, 0.0026342838536947966, -8.274856372736394e-05, -6.845142252132064e-06, 0.00030111527303233743, 0.00030920770950615406, -0.00015042729501146823, 2.8888258384540677e-05, 0.00023416444309987128, 0.0047830031253397465], [-0.0003029524814337492, 2.7001253783964785e-06, -4.154357156949118e-06, -1.1361319138813997e-06, 0.0006483736215159297, -0.001726105809211731, 0.0007106980192475021, -0.002080413978546858, -0.00012763617269229144, 5.969580740838865e-08, -0.00067794049391523, -2.159656651201658e-05, 0.0012739597586914897, -0.0004450866545084864, -0.0003410234930925071, -0.0034377228002995253], [-1.660012458160054e-05, 1.7768212501323433e-06, -9.757724910741672e-06, 1.0186513463850133e-05, -0.002136601135134697, 0.0009512045653536916, 1.1234158137085615e-07, 0.0011616075644269586, 7.79859419708373e-07, 4.705773335444974e-06, -0.0005634109256789088, -0.0004077051125932485, -0.0002733932342380285, -0.0002424168778816238, -0.0004521851660683751, 0.00213965168222785], [-0.0007751898374408484, 2.46751073973428e-06, -2.697232957871165e-06, -2.6231415176880546e-05, 0.0018771784380078316, 0.00040025380440056324, 0.00034386225161142647, 0.0002140496508218348, -0.00017147704784292728, 9.46820273384219e-06, -0.0007300684228539467, -3.475870471447706e-05, 0.0005929478793404996, -0.0005215528071857989, -0.0003644249518401921, 0.0007078013732098043], [-0.0007913877489045262, -2.579721694928594e-06, -1.585053360031452e-05, -6.922159627720248e-07, 0.0005537843098863959, 0.0010580829111859202, 0.0009348694584332407, 0.0010216005612164736, -0.00023087729641702026, 4.842913313041208e-06, -0.0004634385113604367, 0.00016921709175221622, 0.00015288559370674193, -0.00022938326583243906, -0.00018182107305619866, 0.001447786227799952], [-0.00031829404179006815, 1.3726186807616614e-05, -2.8604035833268426e-06, 4.372573584987549e-06, -0.0013036653399467468, -0.001666832366026938, 0.0003356429224368185, -0.0017118924297392368, -0.00016412635159213096, 4.47686988991336e-06, -0.0004041978099849075, -3.59656878572423e-05, 0.0007939644856378436, -0.00016153678006958216, -0.0002286703820573166, -0.00316640199162066], [-0.0005141369765624404, -3.2422040021629073e-06, -5.134006187290652e-06, 5.049530045653228e-06, 0.0005671100225299597, -0.0005992977530695498, -0.0002995129325427115, -0.0007114478503353894, 0.0001074080282705836, -5.938331469224067e-06, 0.0008241261821240187, 0.00039992653182707727, 0.00020067337027285248, 0.0004918771446682513, 0.000596673518884927, -0.0015852343058213592]], "layer_3_biases": [-0.009272756986320019, 0.08401114493608475, -0.04202653840184212, -0.0068908678367733955, 0.002490502782166004, -0.0047929054126143456, 0.11631859838962555, -0.004680928774178028, 0.026148099452257156, -0.09582547098398209, 0.04830370843410492, 0.13278119266033173, -0.004916573874652386, 0.08124516904354095, 0.10145298391580582, -0.006759126204997301], "layer_3_weights": [[4.086014541826444e-06, -0.00016133085591718554, 3.7966074160067365e-05, 4.614606950781308e-06, 0.00044398015597835183, -0.00019411704852245748, 0.0006378190591931343, -0.0002331656578462571, -0.0002916688099503517, 1.897451511467807e-05, -0.0003114165156148374, -0.00025963332154788077, 1.2199196135043167e-05, -0.0001459872000850737, -0.00021971961541566998, -0.0005495158839039505], [-5.934057753620436e-06, 0.0003299182280898094, 1.950033947650809e-05, -4.779294613399543e-06, -0.0014203666942194104, 0.000696905015502125, -0.00020353178842924535, 0.0006506771314889193, 0.00017291499534621835, -2.2700363842886873e-05, 0.0005353932501748204, 0.00029089435702189803, -4.289894604880828e-06, 0.00024238982587121427, 0.0003394358791410923, 0.0011453153565526009], [9.124334496846132e-07, 7.414993888232857e-05, 2.0005483747809194e-05, 1.983946276595816e-06, -0.0004061669169459492, 4.250624988344498e-05, -0.0010046592215076089, 4.381642065709457e-05, 0.0007214799989014864, -2.9696313958993414e-06, 0.00014967392780818045, -0.00028883342747576535, -5.435718776425347e-06, -9.981020411942154e-05, 0.0001530009030830115, 0.00042357869097031653], [-8.805108336673584e-06, 0.00035821489291265607, 1.0278057743562385e-05, -6.277559350564843e-06, -0.0011039420496672392, 0.0005956612876616418, 0.00014582532458007336, 0.0004527514392975718, 0.0001567371073178947, -5.25822088093264e-06, 0.0005739544867537916, 0.0004561867390293628, 5.617030751636776e-07, 0.0003437246778048575, 0.00044735698611475527, 0.0007180072134360671], [1.210024720421643e-06, 0.00047853676369413733, 2.5479559553787112e-05, 1.8667402628125274e-06, 0.0006086580688133836, -0.0025362272281199694, -0.00014408187416847795, -0.0027125715278089046, -0.00011560210987227038, 1.3939567224952043e-06, 0.0007101668161340058, 0.0001937567867571488, -1.057971843465566e-07, 0.0003894857654813677, 0.00042265839874744415, -0.0055244541727006435], [-9.332036825071555e-06, 0.0004533100000116974, 8.631272976344917e-06, -6.521826435346156e-06, -0.0007106399862095714, 0.0016837763832882047, -6.400859274435788e-05, 0.0016869184328243136, 0.00018586430815048516, -1.8659609850146808e-05, 0.0005801453371532261, 0.0003622565127443522, -2.7525909445103025e-06, 0.0003618345654103905, 0.0004319220606703311, 0.0032115632202476263], [1.2922999985676142e-06, -9.703517571324483e-05, -5.757373401138466e-06, -3.008997055076179e-06, -0.0010941061191260815, 0.000604514149017632, -8.674943092046306e-05, 0.0005938787944614887, -0.00014732268755324185, -2.2623440600000322e-05, 6.801253039157018e-05, 2.0918625523336232e-05, -5.249459263723111e-06, -0.00012847014295402914, -8.468357918900438e-06, 0.0013679900439456105], [-1.4765591913601384e-05, 0.0006817856337875128, -1.0567551726126112e-05, -9.104830496653449e-06, -0.002210466656833887, 0.001352611230686307, 0.00021462842414621264, 0.0011185866314917803, 6.537471199408174e-05, 1.7591235518921167e-05, 0.0009118302259594202, 0.0009218341438099742, 7.032807047835377e-08, 0.0006771296029910445, 0.0007584717241115868, 0.0018880505813285708], [2.0922018393321196e-06, -0.00013008821406401694, -1.8543560145189986e-05, -5.1625893320306204e-06, -0.0005397400818765163, 0.004277658648788929, -0.0006511628162115812, 0.00458050612360239, -3.7814275856362656e-05, 7.819333404768258e-06, 