{"hk_disentangled_rnn": {"choice_net_multipliers": [1.102677822113037, 1.1448032855987549, 1.159327745437622, 1.1601159572601318, 1.0063585042953491], "choice_net_sigma_params": [0.0478987954556942, 0.0017984986770898104, 0.02481154166162014, 0.048605214804410934, 0.00981233175843954], "latent_inits": [-0.12348946928977966, -0.00748745771124959, -0.39815232157707214, -0.02279737964272499, 0.03702434152364731], "latent_multipliers": [1.0, 1.0, 1.0, 1.0, 1.0], "latent_sigma_params": [0.007432460784912109, 0.010615038685500622, 0.038922667503356934, 0.02727757766842842, 0.03559345006942749], "update_net_latent_multipliers": [[1.07471764087677, 1.0600947141647339, 1.0217689275741577, 1.048265814781189, 1.0567173957824707], [0.954961895942688, 1.0063996315002441, 1.0275511741638184, 1.0222554206848145, 1.0243730545043945], [1.036567211151123, 1.0215948820114136, 1.0434120893478394, 1.000298261642456, 0.996086061000824], [0.9774730205535889, 1.0103613138198853, 0.9764679074287415, 1.0006811618804932, 0.9930312633514404], [1.0054774284362793, 1.1111193895339966, 1.049773931503296, 1.1706750392913818, 1.102760672569275]], "update_net_latent_sigma_params": [[0.016297275200486183, 0.015903418883681297, 0.0397602804005146, 0.0032382607460021973, 0.028662914410233498], [0.04385894164443016, 0.007539689540863037, 0.01647123694419861, 0.007952863350510597, 0.02872905693948269], [0.003961449954658747, 0.042602695524692535, 0.032951075583696365, 0.004446208477020264, 0.01637069694697857], [0.0020102502312511206, 0.007064372301101685, 0.03346548601984978, 0.042814429849386215, 0.014430207200348377], [0.026420636102557182, 0.044201742857694626, 0.038970477879047394, 0.04005863890051842, 0.0018474459648132324]], "update_net_obs_multipliers": [[1.0569877624511719, 1.0252970457077026, 1.08897066116333, 1.0242974758148193, 1.0547767877578735], [0.9625881910324097, 1.0924370288848877, 0.989863932132721, 1.1228774785995483, 1.0112838745117188]], "update_net_obs_sigma_params": [[0.04508001357316971, 0.006491482257843018, 0.018589425832033157, 0.04390466958284378, 0.0031784356106072664], [0.030019456520676613, 0.03187938407063484, 0.04172806814312935, 0.03939182683825493, 0.03129139170050621]]}, "hk_disentangled_rnn/~predict_targets/choice_net": {"input_biases": [-0.023781556636095047, -0.012543749064207077, 0.01033895742148161, -0.06177167966961861], "input_weights": [[-0.22843551635742188, -0.02020571008324623, -0.7541669607162476, 0.3783009350299835], [-0.009417752735316753, -0.9372915029525757, 0.05247095972299576, 0.998162567615509], [0.30866560339927673, -0.33814767003059387, -0.0019312095828354359, 0.42673248052597046], [0.2611909806728363, -0.38880300521850586, 0.8275627493858337, -0.24041806161403656], [-0.41891488432884216, -0.12330523133277893, -0.38581955432891846, -0.32008275389671326]], "output_biases": [0.015000413171947002, -0.015000405721366405], "output_weights": [[0.1912848949432373, 0.32856085896492004], [-0.3519981801509857, 1.0557385683059692], [0.26693400740623474, -0.4021495580673218], [0.024641280993819237, -0.14691706001758575]]}, "hk_disentangled_rnn/~update_latents/update_net": {"input_biases": [0.016481727361679077, -0.019417211413383484, -0.008977619931101799, 0.029895151033997536, -0.016116036102175713, -0.017123186960816383, 0.004192076623439789, 0.013908816501498222, -0.02488454058766365, -0.0169498473405838, -0.009174097329378128, -0.029916293919086456, -0.012238201685249805, -0.022588977590203285, 0.02701401524245739, 0.003980451263487339], "input_weights": [[0.013642231933772564, 0.8498743772506714, 0.34239915013313293, -0.5133982300758362, -0.7542382478713989, 0.048546385020017624, 0.6844637393951416, -0.3193833827972412, 0.10187361389398575, -0.04205026105046272, 0.6372299194335938, 0.22546325623989105, 0.030379699543118477, 0.2654832601547241, -0.20680934190750122, 0.2012537121772766], [-0.8755975961685181, -0.06114300712943077, -0.38487717509269714, -0.2597997486591339, 0.09068099409341812, 0.11690691113471985, -0.12999960780143738, -0.6656901836395264, -0.3728533089160919, 0.058379460126161575, -0.4720299243927002, -0.3920365869998932, -0.07211161404848099, -0.016669781878590584, -0.18525812029838562, 0.529274046421051], [0.30197930335998535, 0.047157492488622665, -0.013396651484072208, -0.14391978085041046, 0.38242900371551514, -0.40420085191726685, 0.2830564081668854, -0.1970311552286148, -0.39268019795417786, 0.277509868144989, 0.06180788204073906, -0.1276354044675827, 0.01172394584864378, 0.5408670902252197, -0.17332585155963898, 0.08954758197069168], [-0.2147616297006607, -0.05903937295079231, 0.04460635408759117, -0.721706211566925, 0.06034751981496811, 0.30775871872901917, 0.7371047735214233, -0.5211255550384521, -0.15061508119106293, -0.35971012711524963, 0.042430631816387177, -0.7391169667243958, -0.5339574217796326, 0.41619089245796204, 0.34718626737594604, 0.16816958785057068], [-0.06772476434707642, -0.42023059725761414, -0.3243772089481354, -0.15726590156555176, 0.029596304520964622, -0.6866560578346252, 0.08210683614015579, 0.6282992959022522, 0.3811988830566406, -0.10044295340776443, -0.19929572939872742, 0.20278364419937134, 0.2722177803516388, 0.18901072442531586, -0.2926178574562073, 0.17660368978977203], [-0.0009201142238453031, -0.31657785177230835, 0.12358686327934265, 0.40346473455429077, -0.6304247379302979, 0.1868361383676529, 0.7133477330207825, -0.3376742899417877, -0.14593571424484253, -0.12477786093950272, 0.9120392799377441, -0.02300126664340496, -0.2551737427711487, -0.22370438277721405, -0.3029840290546417, -0.19316455721855164], [0.4511985182762146, 0.07965926080942154, -0.004939213395118713, 0.0562271773815155, 0.5391993522644043, -0.11400780826807022, 0.2085133194923401, 0.09948636591434479, -0.2833283245563507, 0.24069029092788696, 0.29314833879470825, 0.5244953632354736, -0.15413372218608856, -0.4555705785751343, -0.0308820977807045, -0.0660434365272522]], "layer_0_biases": [0.03036481700837612, -0.00593518977984786, -0.031859371811151505, 0.0511474609375, -0.027790449559688568, 0.032120876014232635, 0.007841795682907104, -0.006018375977873802, -0.05867398530244827, -0.008647062815725803, -0.005401181522756815, -0.003992918878793716, 0.004056928213685751, -0.02113182283937931, -0.031161662191152573, -0.10231492668390274], "layer_0_weights": [[0.017502272501587868, 0.10740913450717926, -0.08686929941177368, -0.10779007524251938, -0.006705972366034985, -0.005820352118462324, 0.18436872959136963, 0.007293836213648319, 0.017407968640327454, 0.11820249259471893, -0.02422216534614563, 0.12415396422147751, 0.14903254806995392, 0.044741012156009674, 0.01712457649409771, 0.37078672647476196], [-0.05799208581447601, 0.08344287425279617, -0.14220395684242249, 0.046155527234077454, -0.017744340002536774, -0.1341831386089325, 0.09226612746715546, -0.18683956563472748, 0.06648072600364685, 0.10353295505046844, -0.13662822544574738, 0.09753269702196121, 0.018603838980197906, 0.13216735422611237, -0.031179122626781464, 0.09804997593164444], [-0.08176001161336899, 0.16356118023395538, -0.0762554183602333, -0.031518470495939255, -0.014677613973617554, -0.06628124415874481, 0.03941641375422478, -0.14963005483150482, 0.03729701787233353, 0.035742804408073425, 0.1681588739156723, 0.09239878505468369, -0.13753187656402588, 0.17752088606357574, -0.028029249981045723, 0.03703686222434044], [0.1608094573020935, -0.07574901729822159, -0.18853066861629486, 0.18614928424358368, -0.04622360318899155, -0.016044020652770996, 0.030636977404356003, 0.11352672427892685, -0.0855497270822525, 0.014039323665201664, 0.010392825119197369, -0.1345822960138321, -0.07704811543226242, -0.2312551587820053, -0.0511682853102684, -0.07774937897920609], [-0.07574545592069626, -0.14413298666477203, -0.08202002197504044, 0.26262179017066956, -0.20497176051139832, 0.10793392360210419, 0.1738990694284439, -0.08801644295454025, -0.051244743168354034, 0.11024262756109238, -0.047108232975006104, -0.1919061839580536, 0.09068803489208221, -0.10255539417266846, 0.15106259286403656, -0.07200363278388977], [0.2001856118440628, 0.001762521336786449, 0.06126914173364639, 0.00486186845228076, -0.05643666163086891, -0.03803640231490135, -0.011925541795790195, -0.19383399188518524, -0.04347025603055954, -0.11107252538204193, 0.006912729237228632, -0.2159290909767151, -0.10268724709749222, 0.21653132140636444, 0.11409471929073334, -0.1986163705587387], [-0.14966019988059998, -0.04636549577116966, -0.14359033107757568, -0.32486310601234436, -0.14254574477672577, -0.04561148211359978, 0.12031672149896622, 0.06663069128990173, -0.04132629930973053, -0.09370661526918411, 0.04481770843267441, 0.17702613770961761, 0.09123215079307556, -0.11366532742977142, -0.0363607183098793, 0.006759867072105408], [-0.10746048390865326, -0.09677644819021225, -0.01010625809431076, 0.01549933385103941, 0.001459769206121564, 0.07600956410169601, -0.07954126596450806, 0.00873168371617794, 0.1554887890815735, 0.1526564508676529, -0.028172262012958527, -0.013869117014110088, -0.011263413354754448, -0.10573024302721024, 0.15460866689682007, 0.02184191904962063], [-0.02509821020066738, -0.16945989429950714, -0.12739060819149017, 0.02029559202492237, -0.18930275738239288, -0.007767789997160435, -0.07342512160539627, -0.04432220757007599, -0.08843133598566055, -0.09925239533185959, -0.08419356495141983, -0.06712224334478378, -0.03415587544441223, -0.056176602840423584, 0.1415920853614807, 0.041649602353572845], [-0.006821490824222565, -0.0872640386223793, 0.19674564898014069, 0.2740260064601898, -0.069273941218853, 0.044809840619564056, 0.02642974629998207, -0.03913857415318489, -0.00521458126604557, 0.03577425330877304, -0.1731814295053482, -0.14866389334201813, -0.0005062914569862187, 0.28975582122802734, -0.0029712265823036432, 0.2368045300245285], [-0.04309111088514328, 0.06696251034736633, 0.05511491745710373, -0.04417027533054352, -0.025056734681129456, 0.2675401270389557, -0.04822687804698944, -0.10746391117572784, -0.04840875789523125, -0.06804455071687698, -0.1264074295759201, 0.04328317567706108, 0.08297386765480042, -0.05926177650690079, 0.021770011633634567, 0.43514150381088257], [-0.06337101757526398, -0.04426579177379608, -0.07086104899644852, -0.1795683205127716, -0.1433635801076889, -0.05578351765871048, -0.14007143676280975, -0.02801094762980938, -0.05495064705610275, 0.14925014972686768, 0.09237266331911087, 0.0030771135352551937, -0.15020941197872162, -0.04280341416597366, 0.0025837968569248915, 0.33661091327667236], [-0.18459641933441162, -0.11817386001348495, -0.11369326710700989, -0.005830549169331789, -0.08004473894834518, -0.16208918392658234, -0.11311734467744827, 0.013595360331237316, -0.17665661871433258, -0.029809990897774696, -0.13611730933189392, -0.004621843807399273, 0.14798159897327423, -0.01418660581111908, 0.09025806188583374, 0.0880141332745552], [-0.23155653476715088, 0.08707655966281891, -0.15649090707302094, -0.05433914065361023, 0.10451771318912506, 0.06140397861599922, 0.06251934170722961, 0.17448963224887848, -0.11642281711101532, -0.1333974450826645, 0.18091072142124176, -0.06467404216527939, 0.23239444196224213, 0.1141999363899231, -0.01649763621389866, -0.16685925424098969], [-0.02309315651655197, -0.027607949450612068, 0.07283486425876617, -0.0028782575391232967, -0.2328348606824875, -0.03321113809943199, -0.3276444971561432, -0.07872691750526428, -0.08358810096979141, -0.13475054502487183, 0.10088019073009491, 0.14346733689308167, -0.02928989566862583, -0.02174028940498829, 0.01712214946746826, -0.244252547621727], [-0.060199201107025146, -0.11698439717292786, 0.0017357603646814823, 0.10825217515230179, 0.17861615121364594, -0.11202553659677505, 0.2495385855436325, -0.019997041672468185, -0.0014507124433293939, -0.11083444952964783, -0.17752942442893982, -0.08458881080150604, 0.07450518012046814, -0.17965629696846008, 0.11153397709131241, -0.06304822862148285]], "layer_1_biases": [-0.01693953201174736, -0.011702780611813068, 0.011334730312228203, 0.041987113654613495, -0.03628839924931526, -0.05755038931965828, -0.001063309726305306, 0.0015040048165246844, -0.02350466325879097, -0.012133904732763767, 0.054309047758579254, -0.03000623919069767, -0.015966087579727173, -0.027291005477309227, -0.012601648457348347, 0.03338087722659111], "layer_1_weights": [[0.04448696970939636, -0.052122291177511215, -0.13721640408039093, -0.17258551716804504, 0.1269640475511551, 0.20393553376197815, 0.16828911006450653, 0.06941832602024078, -0.004363900516182184, -0.15369053184986115, 0.023098522797226906, 0.045844461768865585, -0.035108987241983414, -0.16140751540660858, -0.06470884382724762, -0.1224476620554924], [0.018445100635290146, -0.05720088258385658, -0.16971325874328613, -0.12062902003526688, -0.04688876122236252, 0.26454785466194153, 0.031158164143562317, 0.14850705862045288, 0.0833812803030014, 0.20674777030944824, 0.191002756357193, 0.06747731566429138, -0.16780124604701996, 0.05170905962586403, 0.009823419153690338, 0.14914382994174957], [-0.09665670990943909, 0.11191218346357346, -0.11860224604606628, 0.09918595850467682, 0.07548926770687103, 0.02437588758766651, -0.10188714414834976, 0.023467274382710457, -0.23542793095111847, -0.04341888427734375, 0.02633524127304554, 0.17145849764347076, 0.04209902510046959, -0.02269021049141884, -0.11594319343566895, -0.031078319996595383], [0.012169241905212402, 0.016807764768600464, -0.0692523941397667, -0.03353831171989441, 0.10921989381313324, -0.10106553882360458, 0.013074995018541813, 0.009859038516879082, 0.030602814629673958, 0.11483580619096756, -0.11302799731492996, 0.10909077525138855, -0.13581553101539612, -0.2078658491373062, 0.015226610004901886, -0.06612520664930344], [-0.31547287106513977, -0.07631678134202957, -0.19709721207618713, 0.17351266741752625, 0.041075803339481354, 0.017706045880913734, -0.07308575510978699, -0.20344293117523193, 0.10000938922166824, -0.14969541132450104, 0.06784190982580185, -0.10023020952939987, -0.05789882317185402, 0.23061147332191467, 0.16682109236717224, 0.020328344777226448], [0.06558110564947128, -0.05004877969622612, 0.04094444215297699, 0.2131366729736328, -0.006183145567774773, 0.2730962634086609, -0.06580570340156555, 0.17416159808635712, -0.1883821338415146, -0.07065871357917786, -0.05737670883536339, -0.08090207725763321, 0.04984600841999054, 0.022983860224485397, -0.028234411031007767, 0.16003940999507904], [0.16217608749866486, 0.08259981125593185, 0.009167931973934174, -0.12681525945663452, -0.052314579486846924, -0.18732188642024994, 0.0790717825293541, 0.10179287940263748, -0.08376231789588928, -0.21794620156288147, 0.04339130222797394, 0.056062113493680954, 0.06729013472795486, -0.08830077946186066, -0.18617622554302216, 0.06891341507434845], [-0.02182835154235363, 0.12424313277006149, -0.07602955400943756, -0.018685907125473022, -0.17379969358444214, 0.04858318716287613, -0.07974133640527725, -0.025058208033442497, 0.04620834067463875, 0.14687003195285797, 0.1839822381734848, -0.21896903216838837, -0.048793237656354904, -0.06264480203390121, 0.14564421772956848, -0.004019019193947315], [0.10934001952409744, -3.020997974090278e-05, -0.025391697883605957, -0.0912516713142395, 0.04338003322482109, 0.16315023601055145, -0.004551849327981472, -0.040352240204811096, 0.13906872272491455, 0.29843753576278687, -0.06858211755752563, 0.009139224886894226, -0.02115549147129059, 0.0082337511703372, -0.11758997291326523, 0.07990282773971558], [-0.21536105871200562, 0.026590542867779732, 0.0499919094145298, 0.11866877228021622, 0.21652352809906006, 0.11323840171098709, -0.0970333144068718, -0.09419605135917664, 0.009573535062372684, 0.1218724474310875, -0.027013065293431282, -0.0973062589764595, 0.16157999634742737, -0.08350266516208649, -0.05368888005614281, 0.22538191080093384], [0.1546112298965454, -0.08196449279785156, 0.05544694513082504, -0.17142343521118164, 0.22223033010959625, 0.03823288157582283, -0.08331935107707977, -0.003325433237478137, -0.044518258422613144, 0.3242642879486084, -0.10154145956039429, 0.13300064206123352, 0.12310881912708282, 0.11982867121696472, -0.08472375571727753, 0.18283620476722717], [0.14037896692752838, 0.02780498005449772, 0.022758321836590767, -0.17409002780914307, -0.191220223903656, -0.1090361550450325, -0.10831919312477112, 0.10334137827157974, 0.24828870594501495, 0.013326951302587986, 0.06821047514677048, -0.007052846718579531, 0.048250436782836914, -0.10807233303785324, -0.03829188272356987, -0.12858185172080994], [-0.08447229117155075, 0.004754240158945322, 0.11488538235425949, -0.0002360549260629341, -0.06863150745630264, 0.15250998735427856, 0.10135063529014587, -0.05861886963248253, 0.015551230870187283, 0.0843556821346283, 0.18298949301242828, -0.042335111647844315, 0.3080005347728729, -0.1790846586227417, 0.13339382410049438, 0.022351060062646866], [0.15709809958934784, 0.08250117301940918, -0.05833204463124275, 0.09638125449419022, 0.18210023641586304, 0.2639461159706116, 0.032608870416879654, 0.1410425454378128, 0.027466213330626488, -0.13635897636413574, 0.021635815501213074, 0.17028065025806427, 0.20637841522693634, -0.05482112243771553, -0.017791640013456345, 0.03710174188017845], [0.04286850243806839, -0.16007252037525177, 0.1630515307188034, 0.186719611287117, -0.1449761539697647, -0.18053752183914185, 0.11083629727363586, 0.047843385487794876, -0.2346097081899643, 0.0004576125065796077, -0.01866023987531662, -0.18205304443836212, -0.051682017743587494, 0.058328889310359955, -0.04410445690155029, 0.05742448940873146], [-0.13763722777366638, 0.07661759108304977, 0.11293505877256393, -0.034419506788253784, 0.20815801620483398, -0.0071886093355715275, -0.03447647765278816, -0.03206050768494606, -0.016439169645309448, 0.05119127780199051, -0.007590109016746283, 0.09329021722078323, 0.000281351909507066, -0.10569404065608978, 0.042434707283973694, -0.06851233541965485]], "layer_2_biases": [-0.03490087762475014, -0.04138387739658356, 0.01867447979748249, 0.02240469492971897, -0.01333703938871622, 0.023002073168754578, 0.050963569432497025, -0.04289943352341652, -0.07637808471918106, -0.010421318002045155, 0.009598230011761189, -0.03157137706875801, -0.026454726234078407, -0.058892443776130676, -0.00045472735655494034, 0.0002577438426669687], "layer_2_weights": [[0.24109506607055664, -0.03329412266612053, 0.17753957211971283, 0.11633831262588501, 0.14921323955059052, 0.2059839963912964, -0.09522570669651031, -0.20718660950660706, -0.026015600189566612, 0.0702112689614296, -0.02879955805838108, 0.04303895682096481, -0.07024385780096054, -0.12084225565195084, 0.0725686326622963, -0.13126274943351746], [-0.016621949151158333, -0.08736266940832138, 0.020051084458827972, -0.006165569648146629, 0.06683216243982315, 0.2573895752429962, -0.09317535161972046, -0.10710940510034561, 0.030583636835217476, 0.02374444529414177, 0.0245620459318161, 0.013695167377591133, -0.1378868967294693, -0.15448498725891113, 0.2519853711128235, -0.2557035982608795], [-0.16594016551971436, -0.0165281780064106, -0.060908492654561996, 0.06865786015987396, 0.16924570500850677, -0.0094477953389287, 0.09232961386442184, -0.018560901284217834, -0.1315804123878479, 0.007105381693691015, 0.0734216570854187, 0.09631870687007904, -0.09101913124322891, 0.01973993331193924, -0.0024547630455344915, -0.12877938151359558], [0.1029483824968338, 0.12046846002340317, 0.16577787697315216, 0.1329563856124878, 0.08751735091209412, 0.10364796221256256, 0.03247235342860222, 0.17270295321941376, 0.019104545935988426, -0.14087185263633728, -0.10118406265974045, 0.1327274888753891, -0.16323883831501007, 0.10320481657981873, 0.04241061210632324, 0.009134615771472454], [-0.06036907806992531, -0.23327350616455078, 2.107802538375836e-05, 0.06535396724939346, 0.09942780435085297, -0.14976750314235687, 0.18587715923786163, -0.04289476200938225, -0.016089992597699165, -0.19933201372623444, 0.1250992715358734, 0.179120734333992, -0.08284233510494232, -0.12951090931892395, -0.16010117530822754, 0.11885731667280197], [-0.02484324388206005, -0.23762792348861694, -0.0661042258143425, 0.0811784565448761, -0.06493724882602692, 0.02051326259970665, 0.09549377113580704, -0.04456344246864319, -0.055640846490859985, 0.004767897538840771, -0.015310191549360752, -0.13488033413887024, 0.08554219454526901, 0.09907216578722, 0.25149714946746826, -0.16558383405208588], [-0.04061770439147949, 0.0880604162812233, -0.02393931709229946, 0.07663092017173767, 0.09990469366312027, 0.079967200756073, 0.25046420097351074, -0.04188764467835426, 0.038662638515233994, 0.05831332877278328, -0.07569604367017746, 0.25417059659957886, -0.05858631804585457, -0.029608028009533882, -0.09455559402704239, -0.033058833330869675], [0.36056452989578247, -0.13187836110591888, -0.13406050205230713, -0.15420334041118622, -0.012633378617465496, -0.2386084496974945, 0.24828456342220306, -0.010788209736347198, -0.0354144349694252, -0.15052860975265503, 0.011946838349103928, -0.05235040932893753, -0.10781640559434891, 0.18441447615623474, 0.05682235211133957, -0.2683575749397278], [0.07587216794490814, 0.0395699068903923, -0.024957088753581047, -0.15810412168502808, 0.11708354204893112, -0.048461560159921646, -0.06108979880809784, -0.1825585961341858, 0.08409544825553894, -0.11300535500049591, -0.1273888796567917, -0.16456426680088043, -0.0003530226822476834, -0.07616142928600311, -0.02835344523191452, -0.13985534012317657], [0.14240503311157227, 0.08223826438188553, 0.2518950402736664, -0.16181431710720062, 0.11720933020114899, -0.15686509013175964, 0.024218449369072914, 0.00936990138143301, -0.055763550102710724, 0.038927532732486725, 0.14106664061546326, 0.056875765323638916, -0.16590656340122223, -0.06881855428218842, -0.04216141626238823, 0.0532512441277504], [0.11700727045536041, -0.13813301920890808, -0.09645310789346695, -0.18983308970928192, -0.012088802643120289, 0.20058013498783112, -0.12645664811134338, -0.07180191576480865, 0.01779712177813053, -0.16449670493602753, -0.07181131094694138, 0.03883586823940277, 0.05902108922600746, -0.22811700403690338, 0.13633796572685242, 0.0864008367061615], [0.1987961083650589, -0.05209062248468399, -0.12974058091640472, -0.1479940563440323, 0.00892773736268282, -0.038333117961883545, -0.0868268683552742, -0.02806277573108673, -0.09686139225959778, 0.02791503444314003, 0.18922138214111328, -0.0420399010181427, 0.0948345810174942, -0.10588512569665909, 0.16152150928974152, 0.009281677193939686], [-0.09572289139032364, 0.039858944714069366, -0.15686438977718353, -0.21822534501552582, 0.051376502960920334, -0.12908229231834412, -0.1865428388118744, -0.1193360686302185, 0.0012723313411697745, 0.02184484153985977, -0.0488499216735363, -0.057197410613298416, 0.03534058853983879, 0.026914013549685478, -0.2223738729953766, 0.003654913976788521], [-0.10061491280794144, -0.20139621198177338, -0.15288053452968597, -0.1360362023115158, 0.12971247732639313, 0.10718142986297607, -0.25133216381073, -0.3045591413974762, -0.1490199714899063, 0.27538684010505676, -0.07447438687086105, 0.08803652971982956, -0.1746249794960022, 0.03049554117023945, 0.004525043535977602, -0.09896308183670044], [-0.013967378996312618, 0.1482621133327484, -0.0651230737566948, 0.03895249217748642, -0.05734018608927727, -0.05227908492088318, -0.049742456525564194, -0.07136013358831406, -0.014366292394697666, -0.03291480615735054, -0.13951906561851501, -0.04005775228142738, -0.21198473870754242, 0.04291008785367012, 0.22606699168682098, -0.10159815102815628], [-0.031962890177965164, 0.09887608140707016, 0.012963104993104935, 0.04561150074005127, 0.08414167910814285, 0.03521248325705528, 0.0846032202243805, 0.12957626581192017, -0.17550040781497955, 0.16370871663093567, -0.15756376087665558, 0.06477435678243637, 0.17397481203079224, -0.07930868119001389, 0.0035480393562465906, 0.13999852538108826]], "layer_3_biases": [-0.003875014139339328, -0.02031724713742733, 0.0013420082395896316, 0.014635847881436348, -0.026929378509521484, -8.223423355957493e-05, 0.004824048839509487, -0.025766225531697273, -0.026704519987106323, -0.035559989511966705, 0.040459077805280685, -0.017798777669668198, -0.020515337586402893, -0.029276276007294655, 0.0001770382368704304, 0.12407788634300232], "layer_3_weights": [[0.07199884206056595, -0.15039098262786865, 0.1606413573026657, 0.1031486988067627, 0.08239477127790451, -0.06499646604061127, -0.034946538507938385, 0.11330749094486237, -0.028541697189211845, 0.08689938485622406, 0.050317250192165375, -0.23295162618160248, -0.06177251785993576, -0.06109347194433212, 0.0805865004658699, -0.11733503639698029], [0.1986609399318695, -0.04875887930393219, 0.027794739231467247, -0.06820371001958847, 0.15362095832824707, 0.02398388832807541, -0.034906525164842606, -0.11161201447248459, 0.19517971575260162, 0.08018362522125244, -0.345264196395874, 0.029031891375780106, 0.10983496159315109, 0.05291936919093132, -0.018640071153640747, 0.3606967329978943], [0.19709911942481995, -0.08249226212501526, 0.24950751662254333, 0.16684763133525848, 0.011388219892978668, 0.1243688091635704, 0.009991387836635113, -0.08179276436567307, -0.21593275666236877, -0.12642337381839752, 0.04258941859006882, 0.08871036767959595, -0.02409392036497593, 0.06373950839042664, 0.21384915709495544, -0.00011050948523916304], [0.29628875851631165, 0.04032915085554123, 0.19014890491962433, 0.08875671029090881, 0.1267121583223343, 0.09629037976264954, 0.03790966793894768, -0.10349547117948532, -0.1440223604440689, 0.11781654506921768, 0.14207054674625397, -0.15514837205410004, 0.10575412958860397, -0.0802401602268219, 0.3151217997074127, -0.01601480133831501], [-0.09313222020864487, 0.07681208103895187, 0.049384575337171555, -0.03098045103251934, 0.15681907534599304, -0.021454064175486565, 0.1657024323940277, 0.018309131264686584, -0.08751664310693741, -0.04303666576743126, 0.09860047698020935, -0.13959020376205444, -0.0008189789368771017, 0.1029493436217308, -0.05389168858528137, -0.12069302797317505], [0.12155921757221222, -0.13151443004608154, 0.07286670058965683, 0.13537044823169708, -0.02621203102171421, 0.017313703894615173, -0.016879675909876823, -0.12346429377794266, -0.0799826830625534, -0.05814644694328308, 0.09125695377588272, -0.11906754225492477, 0.13288772106170654, 0.0344233475625515, -0.018427953124046326, 0.27806395292282104], [-0.16845518350601196, -0.023042110726237297, -0.1800653040409088, -0.058211684226989746, 0.08866864442825317, 0.08324575424194336, -0.15643461048603058, -0.11491994559764862, 0.25423312187194824, -0.05848492309451103, -0.10761778801679611, 0.20491614937782288, 0.28827959299087524, -0.04275672510266304, -0.15898869931697845, -0.1411714404821396], [-0.05762208253145218, -0.04597872868180275, -0.0671699270606041, -0.030054941773414612, -0.11001445353031158, 0.1339683085680008, -0.07814662903547287, -0.34583765268325806, -0.09396277368068695, -0.09653589874505997, -0.08976602554321289, -0.07283928990364075, -0.18372862040996552, -0.18051372468471527, 0.08733265101909637, -0.05356355383992195], [-0.12387905269861221, -0.06809521466493607, 0.22987954318523407, 0.07367489486932755, -0.11509360373020172, 0.07771697640419006, -0.13880249857902527, 0.02741856314241886, 0.030731922015547752, -0.07924989610910416, -0.2372640073299408, 0.06000979617238045, -0.19525949656963348, -0.13252043724060059, -0.08966311812400818, -0.2959221601486206], [-0.007001327816396952, 0.20637112855911255, 0.04105447232723236, 0.1002533882856369, -0.09075458347797394, -0.031904518604278564, -0.06687507778406143, 0.16808657348155975, 0.15893706679344177, 0.011484921909868717, 0.1587289571762085, 0.24703723192214966, 0.10579973459243774, -0.1373554915189743, 0.14376328885555267, 0.463859498500824], [0.0355951189994812, 0.21471737325191498, -0.1541382074356079, 0.0015535943675786257, -0.12209868431091309, -0.053373780101537704, -0.09016699343919754, 0.0350862517952919, 0.028133830055594444, -0.1764240860939026, 0.005603373050689697, 0.27550604939460754, -0.06370605528354645, 0.020817603915929794, 0.034412041306495667, 0.19493357837200165], [0.03513990715146065, 0.025520460680127144, 0.13930174708366394, -0.08076901733875275, 0.07068607956171036, -0.027449116110801697, -0.10720419883728027, 0.17571614682674408, 0.025749046355485916, 0.03857332095503807, -0.05637368559837341, 0.02564660832285881, 0.1882544755935669, 0.025424841791391373, 0.038974445313215256, 0.12397528439760208], [-0.03116498701274395, 0.012213224545121193, 0.06351844221353531, -0.15349581837654114, 0.1101357489824295, 0.058847200125455856, -0.08180145174264908, -0.10317115485668182, 0.21232901513576508, -0.14523112773895264, 0.18100163340568542, 0.10578328371047974, 0.17212079465389252, -0.0034946033265441656, 0.13584117591381073, -0.20764027535915375], [-0.15344639122486115, 0.023094817996025085, -0.06677336245775223, -0.04002426564693451, -0.037898436188697815, 0.11324615776538849, -0.005122317001223564, 0.15537039935588837, 0.26097795367240906, 0.026036817580461502, 0.21474112570285797, 0.08135437220335007, 0.2017771154642105, 0.01113200094550848, -0.1390884667634964, -0.01203206367790699], [-0.004866848234087229, -0.033464983105659485, 0.056164491921663284, -0.020650113001465797, -0.14680686593055725, 0.05043189227581024, 0.039630018174648285, -0.2389313280582428, -0.09127877652645111, -0.00887827854603529, 0.24359317123889923, -0.022433167323470116, 0.027554895728826523, -0.17040938138961792, -0.01596248522400856, 0.43807339668273926], [-0.2935173809528351, -0.06953809410333633, 0.022087793797254562, 0.11427173018455505, -0.16636967658996582, -0.12762288749217987, 0.04403166100382805, 0.08808489143848419, 0.14023107290267944, -0.027010943740606308, 0.10171592235565186, 0.04003295674920082, 0.06414201110601425, 0.18985803425312042, -0.032183706760406494, 0.026499398052692413]], "layer_4_biases": [0.08493221551179886, -0.02777598239481449, 0.020234448835253716, -0.010177345015108585, -0.02724570408463478, 0.0070336610078811646, -0.005276939366012812, -0.012152071110904217, -0.03484508767724037, -0.0013836638536304235, 0.028963269665837288, 0.00945989415049553, 0.047011297196149826, -0.036447279155254364, 0.02007119730114937, 0.06522288918495178], "layer_4_weights": [[0.023821422830224037, 0.028877872973680496, -0.11181719601154327, -0.018485428765416145, 0.03152718022465706, 0.04242481663823128, 0.1474410593509674, -0.03263569623231888, -0.08524814248085022, 0.06475253403186798, -0.10773034393787384, -0.24264749884605408, 0.006088559981435537, 0.0793004035949707, -0.16374772787094116, -0.06288239359855652], [0.15768827497959137, -0.041482213884592056, -0.04989221319556236, -0.22795121371746063, 0.059366289526224136, 0.14519284665584564, -0.027482304722070694, 0.14571678638458252, 0.04504801332950592, 0.10086514800786972, 0.20904669165611267, -0.049555130302906036, 0.0761011391878128, 0.09900190681219101, 0.12260590493679047, -0.43992647528648376], [0.14960399270057678, 0.12222135066986084, -0.2505793273448944, -0.11782481521368027, 0.04990644007921219, -0.004560278262943029, 0.15212726593017578, -0.13934782147407532, 0.059575602412223816, 0.06468719244003296, 0.009292484261095524, 0.20715582370758057, 0.1001351848244667, 0.17113260924816132, 0.24435891211032867, 0.1508544534444809], [0.058177102357149124, 0.0028755434323102236, -0.038533084094524384, -0.09579433500766754, 0.030860617756843567, 0.10465525835752487, 0.04859660193324089, -0.04427900165319443, -0.19483645260334015, 0.024176502600312233, 0.11581580340862274, 0.15936698019504547, 0.06319928914308548, 0.03260981664061546, 0.08358295261859894, -0.0960121750831604], [0.2391469031572342, -0.04608675092458725, -0.03241888806223869, -0.09313331544399261, -0.05909465625882149, 0.01053401455283165, 0.14527903497219086, -0.13271300494670868, 0.02379138022661209, 0.2737341821193695, 0.10134100914001465, -0.1949072778224945, -0.16761554777622223, 0.22605539858341217, 0.05892718955874443, 0.23744098842144012], [-0.17687030136585236, -0.07236164063215256, -0.12449432909488678, 0.29918065667152405, 0.10179486870765686, -0.1362217664718628, 0.04578432813286781, 0.16315165162086487, 0.20293033123016357, -0.12242832034826279, -0.010145293548703194, -0.13597992062568665, 0.22536133229732513, -0.3609585464000702, -0.0028273933567106724, -0.09506576508283615], [-0.1522691547870636, -0.0003506618377286941, 0.07379764318466187, -0.014654777944087982, -0.01594877801835537, 0.03199358284473419, -0.10731726139783859, 0.08650635927915573, -0.13944339752197266, -0.030862033367156982, 0.04376596212387085, -0.17647534608840942, 0.22967003285884857, -0.04465414211153984, -0.048728808760643005, -0.08468709886074066], [-0.12993545830249786, 0.1009158343076706, 0.022168172523379326, 0.11585022509098053, -0.09124556928873062, -0.0810186117887497, 0.09962933510541916, -0.004038206767290831, -0.1531543731689453, -0.11268952488899231, -0.21014483273029327, 0.02735476940870285, 0.1489287167787552, 0.1187119334936142, -0.03852567449212074, -0.07135520875453949], [-0.1654435396194458, 0.015384163707494736, -0.031862612813711166, -0.02846403233706951, 0.000343885098118335, 0.09108097851276398, -0.06748641282320023, -0.08972267806529999, 0.04123452305793762, -0.19842292368412018, -0.08634108304977417, 0.0826495885848999, -0.09323441237211227, 0.12971127033233643, -0.20395071804523468, 0.14618539810180664], [0.03243701532483101, -0.07529240101575851, -0.07186443358659744, -0.16331566870212555, 0.03964697942137718, 0.029912983998656273, -0.0057876561768352985, 0.34291598200798035, 0.07539968937635422, -0.10529395937919617, 0.08069276064634323, 0.0846339762210846, 0.22549988329410553, 0.009799471125006676, 0.012032977305352688, -0.10303214192390442], [0.2850759029388428, 0.12011537700891495, 0.10442068427801132, -0.06466160714626312, 0.04512956738471985, 0.0632115975022316, 0.032297901809215546, -0.04725317656993866, 0.10431892424821854, -0.038327906280756, -0.04539458826184273, -0.04797491803765297, -0.015129521489143372, 0.1545356959104538, 0.09042754769325256, 0.30253908038139343], [-0.1323593556880951, -0.19854982197284698, -0.022852789610624313, -0.10908963531255722, 0.08621980994939804, 0.12890496850013733, -0.1336229294538498, 0.16562990844249725, -0.041927069425582886, -0.2950729429721832, 0.08958315849304199, -0.010157051496207714, -0.007071865722537041, -0.017946694046258926, 0.008989162743091583, -0.027679091319441795], [-0.01756810024380684, 0.0749485045671463, -0.051547061651945114, -0.07105929404497147, 0.17238019406795502, 0.10072379559278488, -0.12417270243167877, 0.06383136659860611, 0.1306527853012085, 0.050005581229925156, 0.014898302033543587, 0.021262118592858315, 0.13977093994617462, -0.12193401902914047, -0.04967107996344566, -0.02733241766691208], [-0.1667567938566208, 0.17896272242069244, 0.018954534083604813, -0.14411619305610657, 0.024363521486520767, -0.2742132544517517, 0.052816979587078094, -0.015764055773615837, -0.03661230579018593, -0.037828247994184494, 0.03519141301512718, -0.10179674625396729, 0.0910552442073822, -0.09802115708589554, -0.06123340502381325, -0.05822717770934105], [0.29432234168052673, -0.07886356115341187, -0.08373398333787918, 0.14628909528255463, -0.13973014056682587, 0.10128459334373474, -0.01472452748566866, -0.057382307946681976, -0.14145195484161377, 0.02984006144106388, 0.2965928018093109, -0.03537817671895027, -0.22382420301437378, -0.06189224123954773, 0.05629618465900421, -0.06145688146352768], [-0.17697489261627197, -0.013017360121011734, 0.17699462175369263, -0.00047875370364636183, -0.04753924533724785, -0.04533328488469124, -0.12558495998382568, -0.11125566065311432, -0.05673876777291298, -0.021972447633743286, 0.02643749676644802, 0.0377691350877285, 0.050440337508916855, 0.09478723257780075, 0.18798239529132843, 0.14414499700069427]], "output_biases": [-0.23823805153369904, -0.023289116099476814], "output_weights": [[0.22791285812854767, -0.14535483717918396], [-0.19349858164787292, 0.4913557767868042], [0.1616954654455185, -0.24814827740192413], [-0.03419950231909752, -0.17912240326404572], [0.28840190172195435, 0.36426520347595215], [-0.29743149876594543, 0.2185821682214737], [-0.18983377516269684, -0.226790651679039], [-0.09037349373102188, 0.28715208172798157], [0.02193121612071991, 0.2134280800819397], [0.3836504817008972, 0.010439530946314335], [-0.3736296594142914, -0.23857629299163818], [0.5575006604194641, 0.39980241656303406], [-0.15864422917366028, 0.013032308779656887], [-0.27619531750679016, 0.15916810929775238], [-0.1850050687789917, -0.1885167807340622], [-0.42377376556396484, -0.04764271527528763]]}, "hk_disentangled_rnn/~update_latents/update_net_1": {"input_biases": [0.02082119882106781, 0.01329111959785223, 0.06505855917930603, 0.04337311536073685, -0.015655022114515305, -0.04493492841720581, -0.04827332869172096, -0.06623177975416183, -0.020201023668050766, 0.009922969155013561, -0.02078813873231411, -0.033061400055885315, 0.018664512783288956, -0.07014982402324677, -0.040254995226860046, 0.038108378648757935], "input_weights": [[0.2891339957714081, -0.05869051814079285, -0.09337674826383591, -0.01884419657289982, 0.8237232565879822, 0.12104093283414841, -0.01228371076285839, 0.689103364944458, -0.14924944937229156, 0.9696715474128723, -0.40720638632774353, 0.20428310334682465, -0.282427042722702, 0.33812347054481506, 0.09843286126852036, 0.298736572265625], [-0.23759925365447998, 0.5243027806282043, -0.22105169296264648, -0.11852055042982101, -0.3585812449455261, -0.7293383479118347, 0.1388506144285202, -0.09334000200033188, -0.40164080262184143, 0.29121437668800354, -0.6666239500045776, -0.07565323263406754, -0.05441318824887276, 0.6216089725494385, 0.19200614094734192, 0.22010858356952667], [0.5905226469039917, -0.20575986802577972, 0.09512035548686981, -0.2688661515712738, -0.35044756531715393, 0.42412376403808594, 0.13690470159053802, 0.25044000148773193, -0.4876217842102051, 0.27391326427459717, 0.10183807462453842, -0.4378456473350525, -1.0172721147537231, -0.15253053605556488, -0.3717736303806305, -0.2523132860660553], [0.16795934736728668, -0.3936392366886139, -0.408555269241333, 0.3434213101863861, -0.04733454808592796, 0.6095160841941833, -0.23392044007778168, -0.5342983603477478, -0.4945638179779053, -0.000986651866696775, -0.2051452398300171, -0.5707398056983948, -0.0783606544137001, -0.1694207638502121, -0.15838369727134705, -0.01442848052829504], [0.18199972808361053, -0.5414977073669434, -0.08736713975667953, 0.5139182806015015, -0.20703358948230743, -0.4944935441017151, -0.4899277985095978, -0.003738648258149624, 0.7852655649185181, -0.09901712089776993, -0.1738538146018982, 0.3338179886341095, 0.1343734711408615, 0.537317156791687, 0.31305184960365295, 0.6096233129501343], [-0.5262885689735413, 0.040104977786540985, -0.0062651666812598705, -0.3845508396625519, -0.42045095562934875, 0.2819054424762726, -0.4347892701625824, 0.30635201930999756, -0.16037018597126007, 0.03279592841863632, 0.05829015374183655, 0.6676903367042542, 0.12798070907592773, -0.14738516509532928, -0.1531696319580078, -0.007179577834904194], [-0.429099440574646, -0.07703708857297897, -0.6594172120094299, -0.6618337035179138, -0.4985373020172119, 0.5733299851417542, -0.32095375657081604, 0.0201579537242651, -0.032978158444166183, 0.16453216969966888, -0.9806909561157227, 0.20175020396709442, -0.7967590689659119, 0.08831309527158737, 0.0385238453745842, -0.18207380175590515]], "layer_0_biases": [0.09836999326944351, 0.014168481342494488, 0.018341755494475365, 0.01118369959294796, -0.10028059780597687, 0.030181720852851868, -0.04246025159955025, -0.13011525571346283, -0.022047288715839386, 0.014572599902749062, 0.010568463243544102, -0.041229184716939926, 0.03614556044340134, -0.05416175723075867, -0.019512858241796494, -0.0017840876244008541], "layer_0_weights": [[0.05328499525785446, -0.031518347561359406, -0.03177715465426445, -0.17433160543441772, -0.176690936088562, -0.054173510521650314, 0.016307303681969643, 0.18332257866859436, 0.13809837400913239, -0.15954521298408508, -0.19362713396549225, 0.18777930736541748, 0.04399687051773071, -0.21177071332931519, -0.09919703751802444, 0.1632556915283203], [0.1958063840866089, -0.24864809215068817, -0.011459379456937313, 0.0038011830765753984, -0.07996129244565964, -0.13296902179718018, -0.15073585510253906, -0.10586735606193542, -0.1358455866575241, -0.13791359961032867, 0.03414455056190491, -0.33271750807762146, -0.20488634705543518, -0.18149076402187347, 0.11065447330474854, 0.1558198779821396], [0.020014625042676926, -0.15590812265872955, -0.027203742414712906, -0.27005332708358765, 0.025041745975613594, 0.23447732627391815, 0.07155929505825043, -0.06977427005767822, -0.006881874054670334, 0.10919919610023499, -0.25624823570251465, 0.17992502450942993, 0.136179119348526, -0.21940024197101593, 0.1191251203417778, 0.13666342198848724], [-0.09644128382205963, 0.08216580003499985, -0.21703626215457916, -0.18963825702667236, -0.1545887589454651, 0.22884918749332428, 0.001398131251335144, -0.21539248526096344, -0.29018789529800415, -0.06116917356848717, 0.28972989320755005, -0.2673181891441345, 0.05222777649760246, -0.16967003047466278, 0.016565857455134392, 0.11138655990362167], [-0.29363375902175903, 0.001328947488218546, 0.0944712832570076, -0.25428879261016846, -0.29193881154060364, 0.13915041089057922, 0.02806744910776615, 0.12376340478658676, -0.10348231345415115, 0.08525499701499939, 0.028123585507273674, -0.04069080576300621, -0.10534366965293884, -0.2608315646648407, 0.19270654022693634, -0.07266765832901001], [-0.07503251731395721, -0.031675681471824646, 0.16481734812259674, -0.023556675761938095, -0.01841695047914982, -0.23099051415920258, -0.0762895718216896, -0.16303537786006927, 0.13315866887569427, -0.05496465042233467, 0.022799095138907433, -0.009548142552375793, 0.06118851155042648, -0.08672639727592468, 0.10192213207483292, -0.30823975801467896], [-0.04687625914812088, -0.23384366929531097, -0.018973886966705322, 0.031355440616607666, 0.20767620205879211, -0.038705091923475266, -0.11412771046161652, 0.016147758811712265, 0.0636744350194931, 0.12206856906414032, -0.21288196742534637, -0.17535081505775452, -0.11001308262348175, -0.024065081030130386, 0.03866001218557358, 0.19255444407463074], [0.06570431590080261, 0.1530962586402893, -0.07018116861581802, -0.24373935163021088, 0.11175819486379623, -0.07431429624557495, 0.02341635711491108, 0.2694856822490692, -0.06540917605161667, 0.08767269551753998, -0.22774550318717957, 0.4514845907688141, -0.007805017288774252, 0.1162722110748291, -0.010025509633123875, 0.1342334896326065], [-0.07129618525505066, 0.1873859465122223, 0.018945472314953804, -0.07244648784399033, 0.060592953115701675, 0.006245284806936979, -0.11757165938615799, 0.19343897700309753, 0.07724372297525406, 0.009536249563097954, -0.16520407795906067, 0.12557870149612427, -0.2255876213312149, 0.03451601788401604, -0.13737532496452332, -0.010456517338752747], [-0.055467043071985245, -0.20630551874637604, -0.001997480634599924, -0.06174342334270477, -0.21377144753932953, -0.25613656640052795, 0.07818296551704407, 0.07729075849056244, -0.1273767501115799, -0.08096323162317276, 0.07169487327337265, 0.05487750470638275, -0.07829681783914566, -0.05650283396244049, 0.01056845672428608, -0.09200091660022736], [0.0633913055062294, 0.20661503076553345, 0.09710970520973206, -0.2344331294298172, -0.05493653565645218, 0.22000329196453094, 0.006799174472689629, 0.023003747686743736, 0.012858343310654163, 0.06779210269451141, -0.3338223993778229, 0.2522827684879303, 0.18922990560531616, 0.05524250492453575, 0.046120915561914444, -0.13495762646198273], [0.0614682212471962, -0.09562484920024872, -0.17070361971855164, -0.1625126302242279, 0.06865182518959045, -0.3741549551486969, 0.006293035112321377, 0.08583050221204758, -0.06536120176315308, -0.11076687276363373, -0.21537233889102936, 0.2989734709262848, -0.009690642356872559, -0.012529351748526096, 0.07448004186153412, -0.1720716655254364], [0.13978128135204315, -0.00035187587491236627, -0.03196581080555916, 0.044557053595781326, 0.0673593282699585, 0.19710540771484375, 0.039913374930620193, -0.2022361010313034, 0.04071204736828804, -0.1242731586098671, -0.12009937316179276, -0.08553002774715424, -0.17010293900966644, -0.02703852392733097, 0.04972035437822342, 0.1841336488723755], [0.09831465780735016, 0.11614558100700378, -0.12461446970701218, -0.02637607418000698, 0.12937447428703308, -0.12928226590156555, 0.09055216610431671, 0.3635924458503723, 0.015278481878340244, 0.07424735277891159, -0.1649577021598816, 0.14201441407203674, -0.03736617788672447, -0.09378964453935623, -0.04473300650715828, 0.0539497509598732], [-0.04619274660944939, -0.057602278888225555, -0.009384279139339924, 0.07270395755767822, 0.13301998376846313, -0.09895167499780655, -0.30236953496932983, 0.2120765894651413, 0.056505631655454636, 0.12840503454208374, 0.0019311790820211172, 0.09821458160877228, 0.2017909586429596, 0.0045568146742880344, -0.021915266290307045, 0.04046327620744705], [0.18497994542121887, -0.07007306069135666, -0.1292608082294464, -0.030004950240254402, -0.04903055354952812, -0.09964153915643692, -0.2518201768398285, 0.052818916738033295, 0.11049647629261017, -0.1186489462852478, 0.17601168155670166, 0.2409999966621399, -0.044345974922180176, -0.2066522091627121, -0.08294078707695007, -0.06835392862558365]], "layer_1_biases": [0.011923094280064106, 0.0764823704957962, 0.0404885932803154, 0.0440545417368412, 0.03692573681473732, -0.045002538710832596, -0.024840718135237694, -0.03864121064543724, -0.020797085016965866, 0.009261741302907467, -0.035085082054138184, 0.0641326829791069, 0.02387203462421894, -0.09533394873142242, -0.041772738099098206, 0.011496097780764103], "layer_1_weights": [[0.2910570502281189, 0.06469501554965973, -0.00031196881900541484, -0.16363182663917542, -0.2976648211479187, -0.21507616341114044, -0.07360046356916428, 0.14976085722446442, 0.10528645664453506, 0.10342298448085785, 0.0742548480629921, 0.22776314616203308, -0.10765562206506729, -0.010629063472151756, -0.056801218539476395, 0.11057148873806], [0.03591780737042427, -0.05142004042863846, -0.016283007338643074, 0.16486164927482605, -0.44256943464279175, -0.1318603754043579, -0.01531238853931427, -0.10858915746212006, 0.07497106492519379, -0.2131451517343521, 0.21214430034160614, 0.14705464243888855, -0.24115481972694397, 0.21867209672927856, -0.0007324574398808181, 0.1246282160282135], [0.12373720109462738, 0.0772201269865036, 0.0409366600215435, -0.20000189542770386, -0.39772677421569824, -0.09642304480075836, 0.07674094289541245, -0.09874369949102402, 0.06955377757549286, -0.18296639621257782, 0.03931960463523865, -0.24569149315357208, 0.19533146917819977, -0.02174132503569126, -0.13045243918895721, 0.052588336169719696], [-0.01801467500627041, 0.1406615972518921, -0.1104021817445755, -0.017100021243095398, -5.907733429921791e-05, -0.23841287195682526, -0.15016303956508636, -0.040736060589551926, 0.12763403356075287, 0.16290846467018127, -0.06150837987661362, 0.23333640396595, 0.09655354917049408, 0.0674058049917221, 0.014112207107245922, -0.14340196549892426], [-0.10948556661605835, 0.07159113138914108, 0.008337227627635002, -0.09833940118551254, 0.05666182190179825, 0.10350683331489563, -0.21891246736049652, 0.15575909614562988, 0.03595513105392456, -0.1760212481021881, 0.08885549008846283, -0.34302470088005066, 0.18757782876491547, 0.002952824579551816, 0.14852726459503174, 0.017269331961870193], [-0.1739462912082672, 0.01132156141102314, 0.1870485544204712, 0.19219769537448883, -0.05633639916777611, 0.15573695302009583, 0.09670158475637436, 0.18546614050865173, 0.33010178804397583, 0.17905569076538086, -0.061778515577316284, 0.3956850469112396, 0.2192094326019287, -0.019797952845692635, 0.02874123677611351, 0.001380773726850748], [-0.014506155624985695, 0.0337088368833065, 0.13248328864574432, -0.13181893527507782, 0.04078150540590286, -0.11262769997119904, -0.03326937556266785, 0.12823301553726196, -0.10700365155935287, -0.0010338918073102832, -0.07207781076431274, 0.11819473654031754, 0.28092771768569946, 0.16295409202575684, -0.04216770827770233, 0.16411957144737244], [-0.1662946492433548, -0.057582248002290726, -0.1283983588218689, -0.2892594635486603, -0.14420446753501892, 0.0889991819858551, -0.046410590410232544, 0.16552425920963287, 0.02680077776312828, 0.04230539873242378, -0.05373398959636688, -0.11375289410352707, 0.18702243268489838, 0.13881860673427582, -0.03976387530565262, -0.208491250872612], [-0.12908758223056793, -0.09797442704439163, 0.02836868353188038, 0.15361356735229492, -0.07563400268554688, -0.1197827011346817, -0.0005138956476002932, -0.015986964106559753, 0.006983438041061163, -0.05585113912820816, -0.06625957787036896, 0.18143054842948914, -0.015276760794222355, -0.16422317922115326, -0.12614800035953522, 0.04700774699449539], [0.1316128820180893, 0.11084030568599701, -0.05184179171919823, -0.12120677530765533, -0.21373426914215088, 0.2926531136035919, -0.18340536952018738, -0.024477360770106316, -0.17963552474975586, -0.10006192326545715, 0.16062065958976746, -0.35814520716667175, -0.0472966730594635, 0.0846562385559082, 0.0334799587726593, 0.24774491786956787], [0.2846624553203583, -0.09988736361265182, 0.16212840378284454, 0.02543245628476143, -0.06283628195524216, -0.034108154475688934, -0.09038248658180237, 0.15719668567180634, 0.0347307063639164, 0.14475765824317932, 0.15868034958839417, -0.03282366320490837, 0.04444282874464989, 0.17303141951560974, 0.03844672441482544, -0.13044427335262299], [-0.05503097176551819, 0.06587322801351547, -0.051931899040937424, -0.10509704053401947, -0.10114450007677078, -0.026572465896606445, 0.09194966405630112, 0.1942172348499298, -0.019468970596790314, -0.029410328716039658, -0.08743013441562653, -0.05120786651968956, 0.12169504910707474, 0.035916268825531006, -0.10132955014705658, 0.09151572734117508], [-0.03312290459871292, -0.07851900160312653, -0.02672976441681385, -0.02731592394411564, 0.051426444202661514, -0.1730523556470871, 0.009808102622628212, -0.050212983042001724, -0.1422528624534607, -0.05808944255113602, -0.11162615567445755, -0.053758688271045685, 0.2934953570365906, 0.15719342231750488, -0.16146501898765564, 0.12496708333492279], [0.31414172053337097, 0.09414587914943695, -0.30789586901664734, -0.048596009612083435, 0.028763268142938614, 0.24322889745235443, -0.0022273592185229063, -0.1632814109325409, -0.18657255172729492, -0.015075895003974438, -0.0536106713116169, -0.10964872688055038, -0.00753794377669692, 0.33530452847480774, 0.2305910438299179, -0.11057916283607483], [0.07952867448329926, -0.07646343857049942, -0.02251642569899559, -0.24833925068378448, 0.2166273593902588, -0.11836036294698715, -0.1122010126709938, 0.040208373218774796, -0.01074034720659256, -0.3454316556453705, -0.1457066833972931, -0.4789685308933258, -0.041706688702106476, 0.1838107705116272, -0.16225725412368774, -0.28869909048080444], [0.0965554490685463, -0.338803231716156, 0.05801761895418167, 0.1906038224697113, 0.14322371780872345, 0.1541638821363449, -0.02622588723897934, -0.1478407233953476, 0.07594191282987595, -0.10811638087034225, 0.13874369859695435, 0.07820248603820801, 0.11387376487255096, 0.10795079916715622, -0.029228603467345238, -0.09886658936738968]], "layer_2_biases": [0.04682256653904915, 0.0390908382833004, 0.03659781441092491, 0.06443694233894348, -0.00299471546895802, -0.032715167850255966, -0.03440021350979805, -0.0354602076113224, -0.0368790403008461, 0.025355177000164986, -0.025847073644399643, -0.009025497362017632, 0.02035537175834179, -0.013135289773344994, -0.05544409900903702, 0.03637790307402611], "layer_2_weights": [[0.21590442955493927, -0.23225609958171844, -0.11893683671951294, -0.12171494215726852, -0.0642143189907074, -0.15487545728683472, 0.05985889956355095, -0.1033930703997612, 0.11958234757184982, -0.03985333815217018, -0.2653513550758362, 0.0370732843875885, 0.08560265600681305, 0.10501780360937119, -0.020848073065280914, -0.12347441911697388], [0.033837150782346725, 0.24015751481056213, 0.14484962821006775, 0.06965737789869308, 0.1310877501964569, 0.05229993537068367, -0.059772927314043045, 0.10820101201534271, 0.018566299229860306, 0.06364207714796066, 0.2107613980770111, 0.014900651760399342, -0.0933314710855484, -0.07323271781206131, 0.09727839380502701, 0.06398671120405197], [0.04413408041000366, -0.3026673197746277, 0.0002600008447188884, -0.11636718362569809, 0.04482379928231239, -0.1725054383277893, -0.2059377133846283, 0.06932903081178665, -0.03889429569244385, -0.10379806905984879, -0.14015400409698486, 0.16052193939685822, 0.048775698989629745, 0.012001322582364082, -0.11017026007175446, 0.03218502551317215], [0.0781497061252594, 0.2478308230638504, 0.11991950124502182, 0.094411201775074, 0.10075052082538605, -0.0977851077914238, -0.10549700260162354, 0.21961984038352966, 0.11057689040899277, 0.18691933155059814, -0.0856873020529747, -0.018485190346837044, -0.22836914658546448, 0.001112386817112565, 0.010636822320520878, 0.09555718302726746], [-0.08955976366996765, -0.06771227717399597, -0.09567182511091232, 0.0022099451161921024, 0.14336174726486206, 0.2813534140586853, -0.012219966389238834, -0.04957666993141174, 0.0518815778195858, -0.009648009203374386, 0.0037385534960776567, 0.051338158547878265, 0.13490654528141022, -0.32697027921676636, 0.11295059323310852, 0.020876895636320114], [-0.05835464224219322, 0.09966091811656952, 0.07277677953243256, 0.0004842946364078671, -0.15792518854141235, 0.1741071343421936, -0.03815643861889839, -0.1159844845533371, 0.0018074256367981434, -0.09017457813024521, -0.06670459359884262, -0.1429174840450287, -0.0758892223238945, -0.248277947306633, -0.09143476188182831, -0.08925933390855789], [-0.12065286189317703, -0.08941756188869476, 0.13930471241474152, -0.030818432569503784, -0.08831814676523209, -0.1191709116101265, 0.0485454797744751, -0.011555733159184456, -0.035864122211933136, 0.03151002153754234, -0.05180220678448677, -0.08975860476493835, -0.0788097009062767, 0.12207022309303284, 0.04153371602296829, -0.09720274060964584], [-0.1260230541229248, -0.04401041567325592, 0.001402391935698688, -0.4259902834892273, 0.144350066781044, 0.06533074378967285, 0.11845528334379196, -0.0006138793542049825, -0.04509894922375679, -0.2779201865196228, -0.29049110412597656, 0.0542861633002758, 0.13246497511863708, -0.3468700051307678, 0.07235703617334366, 0.1815057098865509], [0.154443621635437, -0.09428209066390991, -0.12577013671398163, 0.20205488801002502, -0.1419103741645813, 0.1627683788537979, 0.09977690130472183, 0.07906661927700043, 0.1440444439649582, 0.005834824405610561, -0.053664933890104294, -0.18472030758857727, 0.02835266850888729, -0.10043316334486008, -0.08700389415025711, 0.007967423647642136], [0.26011037826538086, 0.024017198011279106, 0.15662911534309387, -0.04452972859144211, -0.0165726225823164, 0.28840750455856323, 0.004064103122800589, 0.044508080929517746, 0.15654677152633667, -0.029099101200699806, 0.009837095625698566, 0.19709545373916626, 0.029230602085590363, -0.19098907709121704, -0.03395049273967743, 0.18709637224674225], [0.22250577807426453, -0.1730860024690628, 0.09655527025461197, 0.07525668293237686, -0.005565060302615166, -0.0010598605731502175, 0.14682430028915405, -0.015443582087755203, 0.23728907108306885, -0.023860592395067215, 0.03683648258447647, 0.017963342368602753, -0.021162889897823334, 0.32537227869033813, -0.3013443052768707, 0.14308594167232513], [0.11643972247838974, 0.3356575071811676, -0.12353698909282684, 0.003467230824753642, 0.016701942309737206, -0.08341899514198303, -0.06011059135198593, 0.039352308958768845, -0.2506949007511139, 0.19885386526584625, -0.02165049873292446, -0.04213373363018036, 0.05517679080367088, -0.0587683767080307, 0.10612542182207108, 0.027279136702418327], [-0.0039609079249203205, -0.06517863273620605, 0.013224142603576183, 0.20044830441474915, 0.2472711205482483, 0.048458874225616455, -0.06234099715948105, 0.05755585432052612, 0.13219526410102844, 0.04896204546093941, 0.08128508180379868, -0.04741637408733368, 0.09346050024032593, 0.07171616703271866, 0.12306403368711472, -0.1923721879720688], [0.19023217260837555, -0.08178956806659698, 0.005028409883379936, 0.07394848763942719, -0.007492554374039173, 0.20764298737049103, 0.015041191130876541, -0.17815737426280975, 0.0876435935497284, 0.16810579597949982, -0.0729462206363678, -0.18327660858631134, -0.3367377817630768, -0.19831699132919312, 0.060185786336660385, 0.21688102185726166], [-0.009188328869640827, 0.07601827383041382, -0.015510674566030502, -0.01697416417300701, 0.0479184128344059, 0.3275742530822754, 0.09530697762966156, -0.003042190568521619, 0.21488428115844727, -0.14012351632118225, 0.059836287051439285, -0.10996170341968536, -0.27152639627456665, 0.11012648791074753, 0.22384896874427795, -0.029576817527413368], [-0.010755639523267746, -0.08760727941989899, 0.14475040137767792, 0.19220677018165588, 0.16609357297420502, -0.16322585940361023, 0.11499715596437454, -0.14553190767765045, -0.041745953261852264, -0.04863494262099266, -0.07775170356035233, -0.2561167776584625, -0.2133040428161621, 0.12200865149497986, 0.028200389817357063, -0.09454623609781265]], "layer_3_biases": [-0.01952972263097763, 0.04807308316230774, 0.04355420172214508, 0.022129075601696968, -0.04443999007344246, -0.048471320420503616, -0.031529489904642105, -0.05138089507818222, -0.02159157767891884, 0.022250009700655937, -0.07038304954767227, -0.019108453765511513, 0.04269931837916374, -0.03653549775481224, -0.03238946944475174, -0.008604462258517742], "layer_3_weights": [[-0.1433422863483429, -0.039106547832489014, 0.35958680510520935, -0.07052334398031235, -0.19626982510089874, 0.15992291271686554, 0.07902052998542786, 0.029098931699991226, -0.0752013623714447, 0.23831763863563538, 0.12779675424098969, 0.11698726564645767, 0.18424800038337708, 0.16172538697719574, 0.0884457379579544, 0.08432944864034653], [0.1577564775943756, 0.05668264999985695, -0.007516857236623764, 0.10813780128955841, -0.04275089129805565, -0.36187806725502014, -0.033736683428287506, 0.023542946204543114, 0.00751465791836381, -0.014818763360381126, -0.3621406853199005, -0.30662405490875244, -0.0466107539832592, 0.10640440881252289, -0.08242601156234741, -0.19209353625774384], [-0.15736550092697144, 0.17336919903755188, -0.005523324478417635, 0.0001721997105050832, 0.04934799298644066, 0.10043340921401978, 0.022624675184488297, 0.050316330045461655, 0.05873040482401848, 0.12091761827468872, 0.04143330082297325, -0.09492024034261703, 0.09997405111789703, -0.024017302319407463, 0.11348897218704224, -0.15816627442836761], [-0.01210954412817955, -0.2419363409280777, -0.00048133774544112384, 0.04642808064818382, -0.09012659639120102, 0.08474895358085632, 0.016827164217829704, -0.18411824107170105, 0.007527245208621025, -0.2089749425649643, 0.0007489336421713233, 0.0711907222867012, 0.011208755895495415, -0.09337808191776276, -0.01843566633760929, 0.024631263688206673], [-0.05793612822890282, 0.06453242152929306, -0.03966137021780014, 0.10029134899377823, -0.04678386449813843, 0.10992031544446945, -0.16608703136444092, -0.1062474399805069, 0.17640051245689392, 0.24884337186813354, 0.35889145731925964, -0.021805239841341972, -0.0392325185239315, 0.16294586658477783, -0.08438138663768768, 0.016999835148453712], [0.12469862401485443, 0.09844893962144852, -0.1313270628452301, -0.2071245163679123, 0.05983217805624008, 0.10687653720378876, 0.2628489136695862, 0.051325298845767975, -0.11628957837820053, 0.09776763617992401, 0.08134183287620544, 0.09374714642763138, -0.15709680318832397, -0.2942042648792267, 0.08586975187063217, 0.13762782514095306], [-0.14067888259887695, 0.0009722629329189658, 0.10535352677106857, 0.07860032469034195, 0.25188565254211426, -0.11655936390161514, 0.14635919034481049, 0.13881193101406097, -0.19689953327178955, -0.04821548983454704, -0.14961828291416168, -0.24258798360824585, 0.04804135486483574, 0.0069378456100821495, 0.046044789254665375, 0.05664556846022606], [-0.07781369984149933, 0.02221480756998062, 0.08629637956619263, -0.08609424531459808, -0.06906716525554657, -0.15732303261756897, 0.1168999969959259, -0.294232577085495, -0.05577285960316658, -0.18288196623325348, -0.1511947065591812, 0.05410083383321762, 0.016528524458408356, 0.08183103054761887, 0.03425901010632515, 0.13749809563159943], [-0.01423315517604351, 0.06952712684869766, -0.12105709314346313, -0.07507380098104477, 0.10021422058343887, 0.7901751399040222, -0.11066003888845444, 0.1372690051794052, -0.12472705543041229, -0.029883982613682747, 0.06587626785039902, 0.09524523466825485, -0.1124839037656784, 0.14788882434368134, 0.02685311809182167, 0.11463083326816559], [0.08174140751361847, 0.03168470412492752, 0.07469386607408524, -0.16879159212112427, 0.08711687475442886, -0.09528034925460815, 0.16473710536956787, -0.14438319206237793, 0.1473761647939682, 0.13810674846172333, -0.015428044833242893, 0.024793867021799088, 0.05549871549010277, 0.050170429050922394, 0.03135363757610321, 0.10991708189249039], [-0.07122282683849335, -0.057260219007730484, 0.036937516182661057, 0.13675683736801147, 0.018580244854092598, -0.027354765683412552, 0.17608065903186798, 0.06923258304595947, 0.2768714129924774, 0.060781773179769516, -0.06170707195997238, 0.1402592808008194, -0.019891027361154556, -0.10386954247951508, -0.04976695403456688, -0.07033197581768036], [0.2583908438682556, 0.16826282441616058, 0.14397868514060974, -0.07751752436161041, -0.018081700429320335, -0.12422642111778259, -0.10708250850439072, -0.11716260761022568, -0.15990954637527466, -0.06359254568815231, -0.1046028733253479, -0.03118439018726349, 0.2187509834766388, -0.09611961245536804, -0.03418754041194916, 0.24204714596271515], [-0.23534445464611053, -0.029050998389720917, 0.07591138780117035, -0.09974638372659683, 0.011477195657789707, 0.16988299787044525, -0.019054291769862175, 0.0005236069555394351, -0.03337419033050537, 0.11635182052850723, 0.26886850595474243, -0.06032084673643112, 0.008716256357729435, -0.0011494654463604093, 0.09185217320919037, -0.16679371893405914], [-0.049806613475084305, -0.5879920125007629, -0.14592349529266357, -0.0722668468952179, -0.06402502954006195, 0.14776894450187683, 0.1450757086277008, -0.021985715255141258, 0.15601743757724762, -0.36380335688591003, 0.07849441468715668, -0.07955006510019302, -0.21870127320289612, -0.07493329793214798, 0.0962730273604393, -0.10596846044063568], [-0.09400913864374161, 0.10637271404266357, 0.10014720261096954, -0.12083902955055237, 0.08774467557668686, 0.1019187718629837, 0.004688221495598555, 0.0050602382980287075, -0.07074319571256638, -0.11435215920209885, 0.15863195061683655, 0.03463166952133179, -0.05675272271037102, 0.1846878081560135, -0.18825557827949524, -0.035206567496061325], [-0.05514170601963997, -0.07422780245542526, -0.09488101303577423, 0.14936381578445435, 0.052389755845069885, 0.143452987074852, -0.01074717752635479, -0.11798733472824097, 0.08216160535812378, -0.057730719447135925, 0.23149219155311584, 0.23029597103595734, 0.08469878137111664, -0.14401017129421234, -0.007030573207885027, 0.10658404976129532]], "layer_4_biases": [-0.011713188141584396, 0.033769454807043076, 0.02061476744711399, 0.003761935979127884, -0.04735778272151947, -0.025819716975092888, -0.03207056224346161, 0.006456106435507536, -0.03175441920757294, 0.04754263907670975, -0.022144589573144913, -0.032941244542598724, 0.033425889909267426, -0.015145019628107548, -0.03681692108511925, 0.03251250088214874], "layer_4_weights": [[-0.021746331825852394, -0.056191977113485336, -0.03565410152077675, 0.10397107899188995, 0.019775206223130226, 0.17151802778244019, -0.034979816526174545, 0.19443346560001373, -0.22765237092971802, 0.11187461763620377, -0.0014439050573855639, -0.04260987415909767, 0.10343502461910248, -0.031013449653983116, -0.11095511168241501, 0.04691376909613609], [0.14701595902442932, 0.039813678711652756, -0.03898174688220024, 0.1576833426952362, -0.1635242998600006, -0.08101066946983337, -0.026720819994807243, 0.00526389991864562, -0.08134656399488449, 0.04265991970896721, 0.07272803038358688, 0.05326399207115173, -0.08376017212867737, -0.15331895649433136, -0.03413418307900429, 0.020519796758890152], [0.004731988999992609, 0.17614628374576569, -0.10408207774162292, -0.09205729514360428, 0.15974001586437225, 0.2823115289211273, -0.3199775815010071, 0.09843172132968903, -0.11948482692241669, 0.005150948651134968, 0.22656504809856415, -0.12031621485948563, 0.18395854532718658, 0.018798019737005234, 0.0788969025015831, 0.1398026943206787], [-0.21530257165431976, -0.03903396800160408, 0.05504738911986351, 0.2130981683731079, -0.0038688932545483112, 0.05370921269059181, 0.01873067021369934, -0.12074121087789536, -0.07777313143014908, 0.1367618590593338, 0.12320784479379654, 0.030608564615249634, 0.10248073935508728, -0.051497071981430054, -0.10018476098775864, -0.13495180010795593], [0.15461035072803497, 0.02074786275625229, 0.008919673040509224, 0.05793695151805878, -0.10803075134754181, 0.2138601392507553, 0.08752260357141495, -0.09125305712223053, -0.12630902230739594, 0.025482764467597008, -0.027005136013031006, 0.003747605951502919, -0.016684258356690407, -0.03283339738845825, 0.057159919291734695, -0.14644379913806915], [-0.10078568011522293, -0.1075252816081047, 0.13514938950538635, -0.18988540768623352, 0.19329075515270233, 0.05234527587890625, 0.08356554806232452, 0.22968080639839172, -0.12131243199110031, -0.19650177657604218, -0.16469715535640717, -0.16625279188156128, -0.1497524529695511, 0.17622382938861847, 0.020738525316119194, -0.15922804176807404], [0.06750594079494476, -0.017777899280190468, 0.1137368232011795, -0.07996176928281784, -0.2818997800350189, 0.025769921019673347, -0.2056596577167511, -0.10930176079273224, -0.15049822628498077, -0.059990834444761276, 0.06442294269800186, -0.10995373129844666, -0.09964172542095184, 0.11380347609519958, 0.10196925699710846, 0.10405018925666809], [0.1822260022163391, 0.01900615729391575, 0.13628651201725006, -0.08711648732423782, -0.14693963527679443, 0.09690587967634201, -0.08800463378429413, -0.010245687328279018, 0.13844725489616394, -0.12363918870687485, -0.1296442747116089, -0.13437128067016602, -0.03999294340610504, 0.11054205894470215, 0.13342253863811493, -0.025494853034615517], [0.012580383569002151, -0.1479804366827011, -0.24884428083896637, -0.10144703090190887, 0.5561904311180115, 0.013640373013913631, 0.14411576092243195, -0.10629700869321823, -0.026155313476920128, 0.030722172930836678, 0.0879657194018364, -0.001424317480996251, -0.04378722608089447, -0.08362751454114914, -0.021343830972909927, -0.08527574688196182], [-0.061800770461559296, -0.2487678825855255, -0.017317920923233032, 0.06492438167333603, -0.3319563865661621, 0.0988045409321785, -0.0949077382683754, -0.05227910354733467, 0.1335136592388153, 0.020703108981251717, -0.020381644368171692, 0.009727703407406807, 0.1779763102531433, 0.2165537178516388, 0.08214028179645538, -0.13355639576911926], [0.07578716427087784, 0.3563714623451233, -0.03510482981801033, 1.6029670177886146e-06, -0.047035589814186096, 0.12415699660778046, 0.1286473423242569, -0.48567330837249756, 0.1364453285932541, 0.07665734738111496, 0.34720855951309204, 0.15544036030769348, 0.08753307163715363, -0.025442568585276604, 0.018207455053925514, -0.26325616240501404], [-0.1896168291568756, 0.07721322029829025, 0.0823366641998291, -0.11196339130401611, -0.12468086183071136, 0.008523602969944477, 0.0014277148293331265, -0.03721851110458374, -0.038380857557058334, 0.04865659773349762, 0.051081813871860504, -0.06137686222791672, 0.08101598918437958, -0.003670979291200638, 0.02061416581273079, -0.08674906939268112], [-0.00685063935816288, 0.012473289854824543, -0.018430527299642563, 0.060422513633966446, 0.07202647626399994, -0.12709380686283112, -0.2762623131275177, -0.15991419553756714, 0.0737186148762703, 0.06262540817260742, 0.004409954883158207, -0.005325388628989458, -0.014990681782364845, 0.028567330911755562, -0.0804864764213562, -0.0784708708524704], [-0.021644407883286476, -0.17301519215106964, -0.26444676518440247, 0.15690810978412628, 0.2251082956790924, 0.19529733061790466, 0.08494111150503159, 0.0688939318060875, -0.038592688739299774, 0.2852356433868408, 0.20760098099708557, 0.07813458889722824, -0.07526394724845886, -0.21019317209720612, 0.19512613117694855, 0.07320347428321838], [0.09712417423725128, -0.05498050898313522, -0.0074520958587527275, 0.03085389919579029, -0.0781828984618187, -0.058290041983127594, -0.1547863930463791, 0.043140966445207596, 0.12863071262836456, -0.01438833400607109, 0.15222972631454468, -0.11899872124195099, 0.008070124313235283, -0.09257054328918457, 0.021039150655269623, -0.015646087005734444], [0.1266765296459198, 0.14133717119693756, -0.09167693555355072, -0.01945332996547222, 0.0247895997017622, -0.05266881361603737, 0.12887191772460938, -0.005106579512357712, -0.024630829691886902, 0.009368840605020523, 0.14955228567123413, -0.042736176401376724, 0.005535088945180178, 0.23800420761108398, -0.08431415259838104, -0.1571963131427765]], "output_biases": [0.018280990421772003, 0.03775942325592041], "output_weights": [[0.4628556966781616, -0.039944376796483994], [0.21494066715240479, 0.2706877589225769], [0.00799921527504921, 0.2720353603363037], [-0.4676108956336975, 0.21141979098320007], [-0.39566975831985474, -0.05084722116589546], [0.38150671124458313, -0.16673485934734344], [0.10752657055854797, -0.597703218460083], [-0.6361111402511597, -0.05304140970110893], [0.41964536905288696, -0.3216504454612732], [-0.17471188306808472, 0.40985968708992004], [0.349151611328125, -0.12148243188858032], [-0.05644701048731804, -0.22930169105529785], [-0.010693739168345928, 0.33165329694747925], [-0.12625490128993988, -0.03052467107772827], [-0.1496562361717224, -0.697169303894043], [0.28625425696372986, 0.2559872567653656]]}, "hk_disentangled_rnn/~update_latents/update_net_2": {"input_biases": [0.04269077628850937, 0.004031668417155743, -0.0787026584148407, -0.049165721982717514, 0.04192100837826729, -0.03570161387324333, 0.030754636973142624, -0.03130115568637848, 0.008024269714951515, -0.02505708672106266, 0.0383492186665535, 0.052257049828767776, -0.012107787653803825, -0.05857953801751137, 0.018099237233400345, -0.038295477628707886], "input_weights": [[-0.33251744508743286, 0.8009474873542786, 0.26810717582702637, 0.4277878403663635, -0.1308380365371704, 0.5473811030387878, 0.3745526969432831, 0.515834629535675, 0.6502072215080261, 1.1171573400497437, -0.45071130990982056, -0.31514981389045715, 0.0238377433270216, 0.28703051805496216, -0.5193533897399902, -0.21590977907180786], [-0.08268050104379654, -0.2069079428911209, -0.21055659651756287, 0.05332373455166817, -0.4269571602344513, 0.0521254800260067, -0.10087277740240097, 0.10673357546329498, -0.37223535776138306, 0.12509877979755402, 0.9315034747123718, -0.11241389065980911, 0.9276078343391418, 0.6202818751335144, 0.3352736234664917, 0.16975224018096924], [-0.12293089926242828, -0.3462578058242798, -0.3919874131679535, -0.7351441979408264, 0.20531870424747467, -0.439996600151062, 0.07751405984163284, 0.3645055592060089, 0.2130773365497589, 0.5331425666809082, -0.08687015622854233, -0.808415949344635, 0.22612671554088593, 0.2988916337490082, -0.008546114899218082, 0.07640490680932999], [-0.9164260625839233, 0.07551940530538559, -0.5692464709281921, -0.3758273422718048, 0.09825801104307175, 0.13265378773212433, -0.2628977298736572, -0.031244570389389992, -0.06495535373687744, 0.13200461864471436, -0.31181061267852783, -0.0668485015630722, -0.491460382938385, 0.01500065065920353, 0.45228147506713867, 0.10116241127252579], [0.6553423404693604, -0.1475721299648285, -0.9072557091712952, 0.3081054091453552, -0.015463897958397865, 0.06323284655809402, -0.09571828693151474, 0.8081411719322205, 0.03415248915553093, -0.2593613564968109, -0.22918713092803955, 0.43465402722358704, -0.18592582643032074, 0.26100292801856995, 0.09280906617641449, 0.18608108162879944], [0.4488736689090729, -0.013602572493255138, -0.2579076886177063, -0.36357927322387695, -0.17133693397045135, -0.05287746340036392, 0.2807091772556305, 0.2602563500404358, 0.138490691781044, -0.5016933679580688, 0.5364201068878174, 0.4290951192378998, -0.1188630759716034, -0.17047341167926788, -0.08609486371278763, 0.14653125405311584], [0.7163116931915283, -0.429901659488678, -0.1947154402732849, -0.1779908686876297, -0.6270292401313782, -0.14671944081783295, -0.04329010099172592, 0.04253540188074112, 0.7226868867874146, -0.10261114686727524, -0.5631251335144043, 0.6787727475166321, 0.18154926598072052, 0.28268036246299744, -0.4053683578968048, -0.4450913369655609]], "layer_0_biases": [-0.03089013323187828, -0.005441560409963131, -0.07412101328372955, -0.0026353744324296713, -0.25146186351776123, -0.10412903875112534, 0.003744888585060835, -0.03209255635738373, 0.008252599276602268, -0.029190465807914734, 0.05927314609289169, 0.054281312972307205, -0.005441231187433004, 0.014511460438370705, 0.05732947215437889, -0.03950704261660576], "layer_0_weights": [[-0.02271437458693981, -0.03001990355551243, 0.036770667880773544, -0.0025857817381620407, -0.06433716416358948, 0.012171341106295586, -0.05768508464097977, -0.19055034220218658, 0.022797496989369392, 0.046105239540338516, 0.188054621219635, 0.1023043692111969, -0.2586335837841034, 0.062178220599889755, -0.11104489862918854, -0.02151346020400524], [-0.1400262415409088, 0.15991365909576416, 0.043424248695373535, 0.18901005387306213, 0.09619642794132233, 0.046639520674943924, 0.15838107466697693, -0.19631262123584747, -0.07843459397554398, -0.13956427574157715, 0.003198856022208929, -0.16678373515605927, 0.019163018092513084, -0.10258162766695023, 0.023979177698493004, -0.028250841423869133], [0.08794396370649338, -0.03126591816544533, 0.11805999279022217, -0.07190866023302078, 0.12918229401111603, 0.06880521029233932, 0.10861510783433914, 0.3151441514492035, 0.24074788391590118, -0.1393696814775467, -0.1246752142906189, 0.09928884357213974, -0.23749563097953796, 0.16159147024154663, 0.06857755780220032, -0.06768840551376343], [0.11449319869279861, -0.1295606940984726, 0.14122124016284943, 0.18200866878032684, 0.13064171373844147, 0.3806227743625641, 0.08461315929889679, -0.02997836470603943, -0.12721669673919678, -0.05573892593383789, -0.13632166385650635, -0.10707952082157135, -0.13104276359081268, -0.004969553090631962, -0.018234051764011383, -0.008568434044718742], [0.12018989771604538, -0.136266827583313, -0.12673716247081757, 0.045792389661073685, 0.04680607467889786, -0.1781482696533203, -0.09193336218595505, -0.12149642407894135, 0.008905834518373013, -0.10289923846721649, -0.19090698659420013, 0.011119771748781204, 0.06773640960454941, 0.0905686467885971, 0.020871631801128387, -0.17172396183013916], [-0.0055641429498791695, -0.08135085552930832, 0.23757916688919067, -0.025193000212311745, 0.10601712018251419, -0.09630179405212402, -0.2394053339958191, -0.029322292655706406, -0.14557237923145294, -0.028908252716064453, -0.12585103511810303, -0.09243345260620117, -0.031086359173059464, 0.2065024971961975, -0.003915698733180761, 0.14201918244361877], [0.07392589002847672, 0.03853045776486397, -0.07766865193843842, -0.2049582600593567, -0.09363245964050293, 0.0032397350296378136, 0.21237292885780334, 0.043398287147283554, -0.2042689174413681, 0.13747403025627136, -0.10386980324983597, -0.207357719540596, 0.09715831279754639, -0.4182593524456024, 0.041413210332393646, -0.13078776001930237], [-0.2430010437965393, -0.03730948269367218, -0.0579732321202755, 0.03327948972582817, -0.09899672120809555, -0.0044884756207466125, 0.08309017866849899, 0.11444345861673355, -0.2093924731016159, -0.11013243347406387, -0.1683543473482132, 0.12673203647136688, 0.12396121770143509, -0.06851932406425476, -0.06624068319797516, -0.05294550210237503], [0.04260138049721718, 0.2037457823753357, 0.09529634565114975, -0.05325065553188324, 0.08653515577316284, 0.18154844641685486, -0.12031645327806473, 0.1267891228199005, -0.053431201726198196, 0.18506905436515808, 0.1108177974820137, -0.14287069439888, -0.007897463627159595, -0.044380784034729004, -0.2701617479324341, -0.06619446724653244], [0.01176479272544384, 0.03062432073056698, -0.07695779949426651, -0.029832156375050545, -0.14420434832572937, 0.14552155137062073, 0.13405652344226837, -0.007754046935588121, 0.006049657240509987, 0.07453522831201553, -0.15013574063777924, -0.06976382434368134, -0.1876143366098404, -0.03388326242566109, 0.026441583409905434, -0.13043096661567688], [-0.07170180231332779, 0.13907814025878906, -0.169669970870018, 0.08392848074436188, -0.3146515190601349, -0.14334385097026825, 0.04331427812576294, 0.059379175305366516, -0.04336943104863167, 0.05464591085910797, 0.34492987394332886, 0.12552034854888916, 0.023287400603294373, -0.10642468929290771, 0.08954553306102753, -0.06017356738448143], [-0.01236032322049141, -0.16003967821598053, -0.14572618901729584, -0.10084303468465805, 0.027694879099726677, -0.08714420348405838, -0.09798721224069595, -0.10044731944799423, 0.05229872465133667, -0.10686909407377243, 0.12900356948375702, 0.2220858484506607, -0.07373562455177307, -0.15633167326450348, -0.10109028965234756, 0.030371740460395813], [0.23986586928367615, 0.08031880855560303, -0.06130833923816681, -0.1879892200231552, -0.267217755317688, -0.010994608514010906, -0.15604738891124725, -0.09706644713878632, 0.10261339694261551, 0.05372684448957443, -0.22566522657871246, -0.22777551412582397, 0.0913080945611, 0.1778092086315155, -0.11068092286586761, 0.09530607610940933], [-0.11101600527763367, 0.04349357634782791, 0.10356225818395615, -0.09244238585233688, -0.210671067237854, -0.1528732180595398, 0.13897429406642914, 0.008236960507929325, -0.001979600405320525, -0.059069469571113586, -0.0742388516664505, 0.04522165656089783, 0.15200570225715637, 0.18050938844680786, -0.10265236347913742, 0.057809315621852875], [0.0035576687660068274, -0.15931075811386108, -0.1760452836751938, -0.015564805828034878, -0.054857950657606125, -0.052674371749162674, 0.06975511461496353, 0.04367038235068321, 0.001126338029280305, 0.14600390195846558, 0.03358609229326248, 0.16781161725521088, 0.03290535509586334, 0.19363310933113098, 0.12393171340227127, 0.13815978169441223], [-0.2911475598812103, -0.0990801453590393, 0.17979788780212402, 0.07637480646371841, -0.0909457877278328, 0.03401172161102295, -0.04652005806565285, -0.0038682559970766306, -0.3120953142642975, -0.13273952901363373, 0.10741045325994492, 0.2628973722457886, -0.19385141134262085, -0.022637248039245605, -0.04805115982890129, -0.1175110712647438]], "layer_1_biases": [-0.015542575158178806, 0.0596400611102581, 0.016247771680355072, -0.04985196143388748, -0.04480704292654991, 0.006424601189792156, 0.19312173128128052, -0.031941015273332596, -0.009992178529500961, -0.04429372772574425, 0.07362314313650131, -0.02365589141845703, 0.003080662339925766, -0.013240098021924496, 0.026748379692435265, -0.021082745864987373], "layer_1_weights": [[0.061634600162506104, -0.19972354173660278, 0.2568552792072296, -0.008989715948700905, 0.04220666363835335, -0.04501526802778244, 0.03319445624947548, -0.1373743861913681, 0.2502654492855072, -0.09336318075656891, 0.12994271516799927, 0.22214379906654358, -0.04060729965567589, -0.102521613240242, 0.017944224178791046, -0.32275938987731934], [-0.24213513731956482, 0.07947907596826553, -0.5082367658615112, 0.22918635606765747, -0.22907698154449463, 0.0849587619304657, 0.1387275755405426, -0.01288237702101469, 0.01965165324509144, -0.08192808926105499, -0.3662448823451996, 0.00031366353505291045, -0.14451390504837036, 0.06444472819566727, -0.03336159884929657, -0.0800812765955925], [-0.025798935443162918, 0.08696004748344421, -0.09015264362096786, 0.09244490414857864, 0.06945294141769409, -0.12466110289096832, 0.3473871052265167, 0.03717722371220589, 0.19439645111560822, 0.023404978215694427, -0.13728763163089752, 0.0023219564463943243, -0.007218083832412958, -0.15259256958961487, 0.057851407676935196, -0.08324044942855835], [-0.06290752440690994, 0.24475857615470886, -0.5649744868278503, 0.16802561283111572, 0.0812949687242508, 0.004177293740212917, 0.2996893525123596, 0.014869805425405502, 0.22505998611450195, -0.05669675022363663, -0.13661594688892365, 0.22722439467906952, 0.02002083696424961, 0.12968136370182037, 0.07281456142663956, 0.10938520729541779], [-0.014253432862460613, 0.5067191123962402, 0.42295658588409424, -0.051804281771183014, 0.05526542291045189, -0.024636780843138695, 0.11143039911985397, -0.06874360889196396, -0.11073404550552368, -0.15551762282848358, -0.07223504781723022, -0.05862853303551674, -0.006663619540631771, -0.09175931662321091, -0.1538790613412857, 0.1688842922449112], [-0.031943947076797485, 0.2645094096660614, -0.6203967332839966, 0.17228183150291443, 0.46013104915618896, 0.1271006315946579, 0.434418648481369, 0.050076019018888474, -0.0050573935732245445, 0.20098981261253357, 0.009125933982431889, -0.13837996125221252, 0.059640996158123016, -0.015515711158514023, -0.09639570862054825, 0.25500354170799255], [0.024110805243253708, 0.07509161531925201, -0.22469103336334229, 0.06407792866230011, 0.01472014095634222, 0.15844081342220306, 0.18465271592140198, -0.0536869540810585, 0.16493825614452362, -0.046615637838840485, -0.03815622255206108, -0.007818088866770267, 0.10104586184024811, -0.12168769538402557, 0.10232333093881607, -0.05066947266459465], [-0.014117492362856865, -0.0030386047437787056, 0.05303782597184181, 0.23847106099128723, -0.17796115577220917, 0.19614286720752716, -0.13233819603919983, -0.07795586436986923, -0.2837803065776825, 0.22857052087783813, -0.022475799545645714, -0.21549905836582184, -0.04678130894899368, 0.0783400759100914, -0.020863167941570282, -0.040552474558353424], [-0.01658891886472702, 0.08583169430494308, -0.1021086573600769, -0.1366216391324997, -0.05878971144556999, 0.09321454167366028, 0.18805502355098724, -0.12743422389030457, -0.14964579045772552, -0.059379931539297104, -0.011093721725046635, -0.1610552817583084, -0.03393644466996193, -0.012387281283736229, -0.11803355813026428, -0.1315009742975235], [0.049012575298547745, -0.02563920058310032, -0.14459505677223206, 0.14968030154705048, 0.2064792513847351, 0.26374542713165283, -0.2367965579032898, 0.012540556490421295, 0.06833998113870621, 0.04937232285737991, -0.1154799535870552, 0.04495398700237274, 0.11256859451532364, 0.0531865730881691, -0.1500522345304489, -0.1707489937543869], [-0.0649559497833252, 0.007306950632482767, -0.22147445380687714, 0.1403118520975113, -0.012477146461606026, -0.13391171395778656, -0.08478820323944092, 0.02870994247496128, 0.11184632033109665, -0.1913641095161438, 0.1455007642507553, 0.07343197613954544, -0.13022024929523468, -0.016949929296970367, 0.1736730933189392, -0.11507858335971832], [0.059297628700733185, 0.008576937951147556, -0.1259363740682602, 0.04505693539977074, 0.025305211544036865, -0.1342039257287979, -0.08966071158647537, -0.016618207097053528, -0.11225555837154388, -0.06246306374669075, 0.17949120700359344, 0.035182252526283264, -0.09948623925447464, 0.053418923169374466, 0.2117541879415512, 0.029348187148571014], [0.02246210165321827, -0.17337124049663544, -0.11780669540166855, -0.07259401679039001, 0.018329601734876633, -0.07502099126577377, -0.020534858107566833, 0.15400102734565735, 0.027692751958966255, 0.029157176613807678, 0.047039370983839035, 0.061271753162145615, 0.14568807184696198, 0.035750195384025574, 0.08076821267604828, 0.03245692327618599], [0.06256880611181259, -0.1543334275484085, -0.23002053797245026, -0.00244925613515079, 0.05181023105978966, 0.021224981173872948, -0.10703357309103012, 0.012536478228867054, 0.1853032112121582, 0.07391589879989624, -0.16069954633712769, -0.10715797543525696, 0.07205067574977875, 0.007693505845963955, 0.2591484487056732, 0.052820511162281036], [-0.07323938608169556, -0.12824849784374237, -0.1435951590538025, 0.10563964396715164, 0.019939929246902466, 0.08936221897602081, 0.05881347507238388, 0.07584822177886963, 0.06267646700143814, 0.07188348472118378, 0.1927746683359146, 0.0905870571732521, 0.07881693542003632, 0.0026875468902289867, 0.14654441177845, 0.03495997190475464], [0.10686421394348145, -0.09245570003986359, 0.06289466470479965, -0.12666164338588715, -0.059387002140283585, 0.002916808007284999, -0.3285566568374634, 0.033738456666469574, 0.08869130909442902, -0.14212331175804138, 0.1441437304019928, 0.1944773644208908, 0.21166114509105682, -0.007184331305325031, 0.06798521429300308, -0.0448208786547184]], "layer_2_biases": [-0.02862069383263588, 0.025384459644556046, -0.15337611734867096, -0.03106813319027424, -0.06692425161600113, -0.01429053209722042, 0.036130063235759735, -0.04631039872765541, 0.03177519142627716, -0.027930554002523422, 0.010342507623136044, 0.05617178976535797, -0.04584313929080963, 0.03162822127342224, 0.08247783035039902, -0.0278389360755682], "layer_2_weights": [[0.013486022129654884, 0.17977744340896606, -0.23324403166770935, -0.18799324333667755, -0.316025048494339, -0.12403825670480728, -0.05604841187596321, -0.16112536191940308, 0.02872791886329651, 0.19053952395915985, 0.33368024230003357, 0.14334480464458466, -0.026906300336122513, 0.03226599469780922, -0.06531810015439987, 0.022288799285888672], [-0.06475124508142471, -0.12318386137485504, -0.03136546164751053, -0.1652868390083313, -0.03792916238307953, -0.056080412119627, 0.058362968266010284, 0.14371949434280396, 0.027420463040471077, 0.17386958003044128, -0.25820133090019226, -0.05481242761015892, 0.2358725666999817, -0.11753223836421967, -0.10842074453830719, -0.048806436359882355], [0.006696763448417187, 0.18113984167575836, 0.12271665781736374, 0.09512551128864288, 0.14122483134269714, 0.02807074598968029, -0.06227865070104599, -0.012849136255681515, -0.11343361437320709, 0.008112726733088493, 0.1328658163547516, -0.006605315022170544, 0.06702064722776413, 0.021374864503741264, 0.21352045238018036, 0.2449623942375183], [-0.10114346444606781, -0.044011395424604416, 0.19953933358192444, 0.15471379458904266, -0.014547864906489849, 0.3163628578186035, 0.056365322321653366, 0.17842957377433777, -0.2330349087715149, 0.20977550745010376, 0.13714158535003662, 0.022533942013978958, 0.02557971328496933, 0.06166426092386246, 0.0043278587982058525, -0.075638547539711], [0.32190901041030884, 0.08989617973566055, 0.184072807431221, -0.12436869740486145, -0.011807708069682121, -0.18944372236728668, 0.07955015450716019, -0.10654719918966293, 0.021082082763314247, 0.06016596779227257, -0.05607112497091293, 0.13139784336090088, -0.08424142748117447, -0.06819793581962585, 0.04180357977747917, -0.23304404318332672], [-0.33907485008239746, 0.02404124289751053, 0.06708300113677979, -0.02532489411532879, 0.07362423092126846, 0.3111027479171753, 0.03518562391400337, -0.11196696013212204, -0.011127292178571224, 0.00968249887228012, -0.06039535254240036, 0.09280651062726974, -0.12224392592906952, 0.08860572427511215, 0.04702701047062874, 0.0029411620926111937], [-0.0371582917869091, -0.004841853864490986, -0.08066222071647644, -0.17822425067424774, 0.1651865839958191, -0.20114119350910187, -0.02034774236381054, 0.30252349376678467, -0.022058799862861633, -0.1441875398159027, -0.01767062023282051, 0.056090109050273895, 0.4040547311306, -0.018932895734906197, -0.1282780021429062, -0.07672640681266785], [0.0861530527472496, -0.006161672528833151, -0.32927194237709045, 0.004548340104520321, 0.12420560419559479, 0.1813819408416748, 0.04404609277844429, 0.2262607216835022, 0.09699823707342148, 0.08147735148668289, 0.010156089439988136, 0.05933992192149162, -0.05040492117404938, 0.25048908591270447, -0.21820485591888428, -0.03969576954841614], [0.14253844320774078, 0.056053340435028076, -0.2085801064968109, 0.1254045069217682, -0.13286192715168, 0.1991884857416153, -0.2555910348892212, 0.08534208685159683, 0.15397585928440094, 0.04232143983244896, 0.10199154168367386, -0.1807154417037964, -0.12528495490550995, 0.06888041645288467, 0.10976830124855042, 0.05857014283537865], [-0.014726879075169563, 0.030145466327667236, -0.21612201631069183, -0.0036522115115076303, 0.14338934421539307, -0.029484381899237633, 0.04219299927353859, -0.03835960850119591, -0.036944933235645294, 0.03554956242442131, -0.12931586802005768, 0.10673364996910095, -0.00567964231595397, -0.01792115718126297, -0.08966563642024994, -0.08555225282907486], [-0.11514449864625931, 0.020828688517212868, 0.10273635387420654, -0.12087701261043549, -0.05932774767279625, 0.011863543651998043, 0.1637413501739502, -0.12444867938756943, 0.11922550201416016, -0.11690809577703476, 0.06864707916975021, 0.2328231930732727, -0.02259788289666176, 0.10668184608221054, 0.003433197271078825, 0.019446998834609985], [0.14547960460186005, -0.12766492366790771, 0.1154748946428299, -0.07338371872901917, -0.08420037478208542, 0.006651827599853277, -0.19573794305324554, 0.024246348068118095, -0.09762647747993469, 0.03921512886881828, -0.1799742877483368, -0.07460033148527145, 0.025203829631209373, 0.08193700760602951, -0.017880665138363838, 0.12023130059242249], [0.154880091547966, 0.12373721599578857, -0.1386685073375702, 0.008564514108002186, -0.02898332290351391, -0.11242566257715225, -0.022065941244363785, 0.01171598769724369, 0.04114134982228279, 0.20838160812854767, 0.0136195607483387, 0.2777886986732483, 0.08286070823669434, -0.006439838092774153, 0.18156498670578003, 0.07216014713048935], [-0.005183958914130926, -0.2916189730167389, 0.12022103369235992, -0.09086538851261139, -0.12422151863574982, 0.12956193089485168, 0.06956184655427933, 0.03101293183863163, 0.12609584629535675, -0.026350777596235275, -0.006004315800964832, 0.10469380021095276, -0.12033899128437042, -0.05489898845553398, 0.15549640357494354, 0.011660137213766575], [-0.12917424738407135, -0.026944121345877647, -0.10714885592460632, -0.08145325630903244, 0.0712786391377449, -0.006488782819360495, 0.001603072276338935, -0.044076308608055115, -0.040161438286304474, 0.05180782452225685, -0.23895616829395294, 0.02948310598731041, 0.0015452458756044507, 0.163638174533844, 0.17115041613578796, -0.06550348550081253], [-0.15576580166816711, 0.09736374020576477, 0.1917637139558792, -0.08481451869010925, -0.15291674435138702, 0.018128858879208565, 0.015999507158994675, 0.32183653116226196, -0.08852249383926392, -0.24921484291553497, -0.08421020209789276, -0.11876855790615082, -0.060838326811790466, 0.1432528793811798, -0.14225506782531738, -0.1913699209690094]], "layer_3_biases": [-0.05057958886027336, 0.051729027181863785, -0.04307437688112259, -0.03991683945059776, -0.05157581716775894, -0.02894543670117855, 0.07562975585460663, -0.024455202743411064, 0.02900434285402298, -0.09083331376314163, 0.01576613448560238, 0.08408591151237488, 0.01769636943936348, 0.005613063462078571, 0.07319694012403488, -0.007776380516588688], "layer_3_weights": [[0.01769557036459446, -0.07177568227052689, 0.010598118416965008, -0.1316910982131958, -0.08785676211118698, -0.14365340769290924, 0.05497580021619797, 0.018106838688254356, -0.09882082790136337, 0.14046166837215424, 0.06130203232169151, -0.09678329527378082, -0.039443619549274445, 0.23089802265167236, 0.3039838671684265, -0.19226834177970886], [-0.0006069717928767204, 0.0034428725484758615, -0.019423585385084152, 0.2396395355463028, -0.017488138750195503, -0.08742114901542664, 0.1024923026561737, 0.018836406990885735, 0.014332073740661144, -0.02023479714989662, 0.1457972377538681, -0.07732539623975754, 0.17048344016075134, -0.14983294904232025, 0.10350406914949417, 0.20312999188899994], [0.059889499098062515, -0.20259758830070496, -0.0955064594745636, 0.1525326371192932, -0.10022594779729843, -0.005790627561509609, 0.1405702531337738, 0.04811429977416992, 0.03585001081228256, 0.24119652807712555, 0.15615220367908478, 0.017163122072815895, 0.1934296190738678, -0.1503242403268814, -0.4280260503292084, -0.1429254412651062], [0.11031368374824524, -0.20685486495494843, 0.014107995666563511, -0.11352325975894928, 0.07342444360256195, 0.011217555031180382, 0.05585107207298279, -0.13258136808872223, 0.07218116521835327, 0.05994299054145813, 0.057721540331840515, -0.030781233683228493, 0.28388407826423645, 0.025950735434889793, -0.14938269555568695, -0.28568315505981445], [0.05098595470190048, 0.05556102842092514, -0.05416439101099968, -0.14730113744735718, -0.06593434512615204, 0.23777127265930176, -0.1028478741645813, 0.007670335937291384, -0.028667708858847618, -0.1721160113811493, -0.2877141535282135, -0.039789024740457535, -0.17868544161319733, -0.41775667667388916, 0.10080042481422424, 0.06047864630818367], [0.03709579259157181, 0.02683173306286335, 0.0743890106678009, 0.2715304493904114, -0.0842123031616211, -0.13436514139175415, 0.24790340662002563, -0.1105853021144867, -0.16401417553424835, -0.045065026730298996, -0.0027054466772824526, -0.30249932408332825, -0.3159732520580292, -0.02206302434206009, -0.10690782219171524, 0.09669143706560135], [0.0010431339032948017, 0.09304552525281906, -0.06681856513023376, 0.10086686909198761, -0.32065820693969727, 0.055697858333587646, 0.17586883902549744, -0.12115462124347687, 0.07851114869117737, -0.116510309278965, 0.02353278361260891, 0.01255661342293024, -0.0502675361931324, -0.17659449577331543, 0.0988907516002655, 0.045118335634469986], [0.0014771820278838277, -0.16048018634319305, -0.05586879327893257, 0.193816140294075, 0.13829824328422546, 0.05592164397239685, 0.048647381365299225, 0.1995319277048111, -0.03671357408165932, -0.06934104114770889, -0.06399469077587128, 0.1375793218612671, -0.2369740605354309, -0.11031839996576309, -0.19190150499343872, 0.2131984382867813], [-0.05905284360051155, 0.037644222378730774, 0.10049223899841309, 0.03852945938706398, 0.008759409189224243, -0.09947041422128677, -0.1825607717037201, 0.06274080276489258, 0.00567975826561451, -0.006658647209405899, 0.04625784233212471, 0.0955609455704689, -0.2749559283256531, 0.09748091548681259, -0.18945558369159698, 0.07206039875745773], [0.13843461871147156, 0.0573766864836216, -0.009440449066460133, 0.027054863050580025, 0.12561604380607605, 0.2831350862979889, -0.03637463599443436, 0.06451786309480667, 0.13628660142421722, -0.1173439621925354, -0.01846151240170002, -0.03276795148849487, -0.07642337679862976, -0.0043840049766004086, -0.18670715391635895, -0.06191340833902359], [0.049338117241859436, 0.3073027729988098, 0.05022403225302696, -0.041016798466444016, 0.08064105361700058, -0.015912635251879692, -0.07001402974128723, -0.005980967544019222, 0.02062194049358368, 0.06033945456147194, -0.07145380973815918, -0.04332266375422478, 0.12359800934791565, 0.008877070620656013, 0.2035161405801773, -0.03679439425468445], [-0.04014446213841438, 0.02484825812280178, 0.2067287564277649, -0.025084620341658592, 0.16243597865104675, -0.02636253461241722, 0.10006359964609146, 0.009048320353031158, 0.1672794371843338, 0.03526042401790619, 0.07441314309835434, 0.09924096614122391, 0.07065775990486145, 0.05978751182556152, 0.05880313366651535, -0.10733664780855179], [0.14661608636379242, -0.06651882082223892, -0.03014582209289074, -0.0448327474296093, -0.26255664229393005, -0.009806111454963684, -0.1432468593120575, 0.2117043137550354, 0.14237871766090393, -0.2613285481929779, -0.07656441628932953, 0.15129786729812622, -0.04727090895175934, 0.12110032886266708, 0.04249584674835205, -0.009642275050282478], [0.23350271582603455, -0.061493732035160065, -0.0034967060200870037, 0.06895498931407928, -0.1251005232334137, -0.1408424973487854, -0.08056485652923584, 0.013987642712891102, -0.024001458659768105, 0.07233110815286636, -0.0236048623919487, 0.12440875917673111, -0.2960143983364105, 0.0719836875796318, 0.014705437235534191, -0.013386648148298264], [0.09065684676170349, 0.15484334528446198, 0.16418905556201935, 0.019044626504182816, 0.08022946864366531, -0.21001386642456055, 0.05176433548331261, -0.09522150456905365, 0.07086188346147537, -0.03909019008278847, -0.12701931595802307, 0.28297773003578186, 0.16239850223064423, -0.09304402023553848, -0.0615488663315773, -0.05584840849041939], [-0.213799849152565, 0.04674215242266655, 0.1396663933992386, -0.07539580017328262, -0.051716841757297516, -0.055000510066747665, 0.10950680077075958, -0.19559095799922943, -0.01092639658600092, 0.024448176845908165, 0.08837515860795975, -0.002209148369729519, -0.11029082536697388, -0.056439030915498734, 0.4228460192680359, -0.20655173063278198]], "layer_4_biases": [0.045877717435359955, -0.015483793802559376, -0.0357070192694664, -0.0209999680519104, -0.04962506517767906, 0.09808969497680664, 0.14830049872398376, -0.040409039705991745, -0.0009099323069676757, 0.09967681765556335, 0.03600124642252922, 0.0524338074028492, 0.3096458613872528, 0.05540361627936363, 0.07643159478902817, -0.03164412081241608], "layer_4_weights": [[-0.028839027509093285, -0.10539957135915756, 0.14408250153064728, -0.026186717674136162, -0.3075409531593323, -0.20872695744037628, -0.16368483006954193, 0.05533521994948387, -0.05261741951107979, -0.26928040385246277, 0.034928128123283386, 0.2766241431236267, -0.3458951413631439, 0.1704501062631607, 0.005323873367160559, -0.14692792296409607], [0.07510486990213394, -0.1333809643983841, -0.0579816997051239, 0.018544677644968033, -0.16372226178646088, -0.18793755769729614, -0.07356668263673782, -0.01039300486445427, -0.04715902358293533, 0.003635106608271599, 0.03092605248093605, 0.12313468754291534, 0.010542568750679493, 0.13653841614723206, -0.11840695142745972, -0.10425115376710892], [-0.09234512597322464, 0.26234111189842224, 0.2399391382932663, 0.00608883798122406, 0.04928166791796684, 0.020924514159560204, -0.06586574763059616, 0.12443012744188309, -0.0006656725308857858, 0.1440940946340561, 0.3520820736885071, -0.06447222828865051, 0.1743689775466919, -0.059387627989053726, -0.07720325142145157, -0.03512509539723396], [0.20678311586380005, -0.21706397831439972, -0.21288838982582092, 0.1947096586227417, -0.11775579303503036, -0.211684450507164, 0.2134343981742859, 0.1416226476430893, -0.16822828352451324, -0.3954285979270935, -0.08725940436124802, -0.06000453606247902, 0.04693217575550079, -0.14880803227424622, -0.1684630960226059, 0.10154695063829422], [0.10930420458316803, 0.1548752635717392, 0.2852773070335388, -0.00496948417276144, 0.10380034893751144, 0.17101600766181946, 0.008148976601660252, 0.021117089316248894, 0.10059130936861038, 0.0594187006354332, 0.09287163615226746, 0.23097023367881775, -0.0740358978509903, -0.019057396799325943, -0.032223135232925415, 0.038003887981176376], [0.2799597978591919, 0.12563201785087585, -0.571841835975647, 0.01846255734562874, 0.09851542860269547, 0.08043763786554337, -0.09739714860916138, -0.07539469003677368, 0.1302585005760193, 0.22533473372459412, 0.015830378979444504, -0.04881445690989494, 0.013421017676591873, -0.002555905608460307, -0.026712436228990555, 0.24337182939052582], [0.3309464156627655, 0.16609978675842285, -0.15541449189186096, 0.05353030189871788, -0.26933547854423523, -0.28039848804473877, 0.1910671591758728, 0.19679071009159088, -0.018223842605948448, 0.12412877380847931, 0.0024321754463016987, -0.12960107624530792, 0.11969897150993347, -0.05035584792494774, -0.023102404549717903, 0.07756979018449783], [-0.04130222275853157, -0.09362930059432983, -0.5546790957450867, -0.08157742768526077, 0.2501089870929718, -0.14339762926101685, 0.0937003493309021, 0.10027814656496048, -0.0022002272307872772, -0.8649861216545105, 0.19422845542430878, -0.07543563097715378, 0.07971026003360748, 0.205954909324646, 0.10230764001607895, 0.10288996994495392], [-0.10190518945455551, -0.015442837961018085, -0.04125092551112175, -0.12979567050933838, -0.0008087423630058765, -0.053476087749004364, -0.058298707008361816, 0.08098681271076202, 0.06977733969688416, 0.21255247294902802, 0.22331449389457703, -0.20628754794597626, 0.03947549685835838, 0.09946252405643463, 0.17159199714660645, 0.06582421809434891], [0.05290981009602547, 0.05423802137374878, -0.26130250096321106, 0.18400661647319794, 0.06461149454116821, 0.01157798245549202, -0.12088020890951157, 