{"hk_disentangled_rnn": {"choice_net_multipliers": [0.002666642190888524, 1.8032722473144531, 0.0024834461510181427, -0.0019860630854964256, 0.00042936415411531925], "choice_net_sigma_params": [0.9970452189445496, 0.00511518819257617, 0.985741913318634, 0.9946174025535583, 0.9957331418991089], "latent_inits": [0.1779118776321411, -0.0065531255677342415, -2.0726706981658936, 1.5662962198257446, 0.050644271075725555], "latent_multipliers": [1.0, 1.0, 1.0, 1.0, 1.0], "latent_sigma_params": [0.002480577677488327, 0.0019235333893448114, 0.04480227082967758, 0.008034066297113895, 0.0022146953269839287], "update_net_latent_multipliers": [[0.7476096749305725, 2.1526217460632324, -0.009115134365856647, 1.974329948425293, 1.6014457941055298], [1.951189398765564, 1.3861780166625977, 0.0018567309016361833, 1.8316916227340698, 0.12007163465023041], [0.01096506416797638, 1.1500838994979858, -0.01330224983394146, 0.008171815425157547, 1.2308849096298218], [-0.007996325381100178, 1.6955277919769287, -0.003994322847574949, 1.3432008028030396, 1.736754298210144], [0.6036707758903503, 1.9513351917266846, -0.013120966032147408, 1.974291205406189, 1.5652194023132324]], "update_net_latent_sigma_params": [[0.9700153470039368, 0.07422225922346115, 0.991226315498352, 0.6959639191627502, 0.8009586930274963], [0.49560466408729553, 0.0065977261401712894, 0.9974915981292725, 0.37376904487609863, 0.9930536150932312], [0.999646008014679, 0.08106616139411926, 0.993404746055603, 0.9967443943023682, 0.0809929147362709], [0.9985392093658447, 0.1185617595911026, 0.9945998787879944, 0.09490436315536499, 0.30715468525886536], [0.9814561605453491, 0.03955186530947685, 0.9993417263031006, 0.7007123827934265, 0.31951427459716797]], "update_net_obs_multipliers": [[1.3869656324386597, 1.4471009969711304, 1.3272619247436523, 1.0534656047821045, 1.2377592325210571], [1.3742542266845703, 1.7476366758346558, 1.2312448024749756, 1.3808130025863647, 1.0432929992675781]], "update_net_obs_sigma_params": [[0.16673913598060608, 0.01003270410001278, 0.04589231312274933, 0.5503031611442566, 0.03878738358616829], [0.27081605792045593, 0.033098626881837845, 0.1650954931974411, 0.2227589637041092, 0.18447063863277435]]}, "hk_disentangled_rnn/~predict_targets/choice_net": {"input_biases": [-0.02631974220275879, -0.006208102218806744, 0.0029473465401679277, -0.0687609612941742], "input_weights": [[-0.21838386356830597, -0.05212455242872238, -0.7119462490081787, 0.4248127341270447], [-0.5322754979133606, -1.4607264995574951, 0.5763131380081177, 1.6137135028839111], [0.5548699498176575, -0.1899317353963852, -0.14105819165706635, 0.28354036808013916], [0.8133686780929565, -0.20965726673603058, 0.6866214871406555, -0.41308075189590454], [-0.3430192768573761, -0.12877070903778076, -0.3703063130378723, -0.2934970557689667]], "output_biases": [0.008454977534711361, -0.008454986847937107], "output_weights": [[-0.14521072804927826, 0.6650562286376953], [-0.5906497240066528, 1.294381856918335], [0.3431567847728729, -0.478375107049942], [0.30663472414016724, -0.4289109706878662]]}, "hk_disentangled_rnn/~update_latents/update_net": {"input_biases": [0.08171164244413376, -0.09128763526678085, -0.058840855956077576, 0.12294836342334747, -0.05704681575298309, -0.03600846230983734, 0.057596173137426376, -0.09682954102754593, -0.13337154686450958, -0.09034902602434158, 0.17034503817558289, -0.14695459604263306, 0.11120050400495529, -0.08147961646318436, 0.12260869890451431, 0.42998024821281433], "input_weights": [[-0.4184246361255646, 1.1594287157058716, 0.186049684882164, -0.751331627368927, -0.36906254291534424, 0.6044275164604187, 0.351818710565567, 0.17360807955265045, 0.37171119451522827, 0.048471804708242416, 0.4078969359397888, 0.4522768259048462, -0.11157140135765076, 0.6302921772003174, -0.4154292643070221, 0.03089926205575466], [-0.8555252552032471, -0.09218347072601318, -0.37967124581336975, -0.21520769596099854, 0.07538558542728424, 0.11834980547428131, -0.12534703314304352, -0.7056912779808044, -0.43511247634887695, 0.03435751050710678, -0.3148893713951111, -0.46245306730270386, 0.001821592333726585, -0.04008074849843979, -0.13595998287200928, 0.6671395897865295], [0.23624859750270844, 0.08876964449882507, -0.1845514178276062, -0.17493008077144623, 0.5279180407524109, -0.3151301145553589, 0.4487651288509369, -0.185025155544281, -0.3048025071620941, 0.2618812024593353, 0.029801180586218834, -0.07052773982286453, 0.012025212869048119, 0.554275393486023, -0.14367757737636566, 0.037892770022153854], [-0.27092596888542175, 0.01475497242063284, 0.026461724191904068, -0.8218395709991455, 0.11769362539052963, 0.36499762535095215, 0.7822274565696716, -0.44198736548423767, 0.0015993693377822638, -0.2098993957042694, -0.09512947499752045, -0.582764744758606, -0.5559597611427307, 0.47325098514556885, 0.23629234731197357, -0.3608277440071106], [-0.03947542607784271, -0.4711361825466156, -0.3169906735420227, -0.05663353204727173, -0.0565827377140522, -0.7381641864776611, 0.270757257938385, 0.5790333151817322, 0.3041281998157501, -0.1099170669913292, -0.1648794263601303, 0.11819669604301453, 0.3735838532447815, 0.19292250275611877, -0.22989991307258606, 0.21989493072032928], [-0.24552708864212036, -0.16491790115833282, -0.07388269156217575, 0.24284552037715912, -0.3665575087070465, 0.43573129177093506, 0.649095892906189, 0.039991989731788635, 0.14323820173740387, -0.03773326054215431, 0.7727294564247131, 0.190133735537529, -0.31111958622932434, -0.14682291448116302, -0.3845950663089752, -0.22016990184783936], [0.3977437913417816, 0.08358284831047058, 0.05044505372643471, 0.07362724095582962, 0.4743076264858246, -0.0726013109087944, 0.133478581905365, 0.2047041356563568, -0.3099626302719116, 0.13128012418746948, 0.3483838140964508, 0.46664735674858093, -0.13812007009983063, -0.4392726719379425, -0.019785190001130104, 0.21237480640411377]], "layer_0_biases": [0.09521050751209259, -0.009604338556528091, -0.05739888176321983, 0.15926462411880493, -0.004197574686259031, 0.05573076382279396, 0.07943879067897797, -0.04391071945428848, -0.1205940768122673, -0.0922580435872078, 0.1977410465478897, -0.016335004940629005, 0.13027171790599823, -0.012379196472465992, -0.028065422549843788, 0.3414040803909302], "layer_0_weights": [[0.00033850164618343115, 8.49219286465086e-05, -0.00021559373999480158, 0.0006847742479294538, 5.36030574949109e-06, -0.0003144396760035306, 0.0003925185010302812, 4.156368231633678e-05, 0.00013679763651452959, 8.269240788649768e-05, 0.0002510338672436774, 0.0001580507232574746, 0.0002560053253546357, -2.9128399546607397e-05, -0.0001426941598765552, 0.00018597689631860703], [0.0008834441541694105, -0.00011491879558889195, -0.00016655077342875302, -0.0003818392870016396, 0.00012499428703449667, -0.0003122894268017262, 2.4232116629718803e-05, 0.00013184829731471837, -0.00011328160326229408, -0.00022605789126828313, -0.00027339390362612903, 0.0002762027143035084, -0.0002267482632305473, 0.00021362231927923858, -2.76842820312595e-05, -0.00034714056528173387], [7.571158494101837e-05, 1.901475843624212e-05, -1.114372571464628e-05, -0.0006571325939148664, 7.398804882541299e-05, -9.603832950233482e-06, -0.00021628547983709723, 4.681541759055108e-05, 1.1711731673358372e-07, -4.2370244045741856e-05, -0.0001474207965657115, 8.529398473910987e-05, -0.00013563805259764194, 4.3281390389893204e-05, 1.1099248695245478e-05, -0.00019368351786397398], [0.0010825245408341289, 2.1773401385871693e-05, 0.00012464543397072703, 0.0010595510248094797, 5.842732662131311e-06, -0.0007946724072098732, 0.0007551240851171315, 9.627732652006671e-05, 0.00011443415132816881, -0.00015559598978143185, 0.0004455595917534083, -6.735635543009266e-05, 0.0003993771388195455, 8.024450653465465e-05, -0.00011439021909609437, 0.0005538338446058333], [-0.001169816474430263, 7.189012103481218e-05, -0.00015873005031608045, 7.354479748755693e-05, -3.783810598179116e-06, 0.0004077418998349458, 4.305462061893195e-05, 0.00010415359429316595, 0.00021699081116821617, -3.710542296175845e-05, 7.254179945448413e-05, 0.00016543467063456774, 6.33945528534241e-05, 9.636971662985161e-05, -0.00017245144408661872, 8.123068255372345e-05], [-0.0006397391553036869, -3.36702614731621e-05, 4.296579209039919e-05, -0.0007419410394504666, -4.239776899339631e-05, 0.0007912263972684741, -0.0005326652899384499, 9.523551852907985e-06, -0.00011635350529104471, 0.00011363164230715483, -0.00025846538483165205, -7.442511559929699e-05, -0.00022918028116691858, -0.00013942999066784978, 0.00013179016241338104, -0.0002708108222577721], [-0.001119338208809495, 2.9777447707601823e-05, 8.850930316839367e-05, -0.0010805233614519238, -7.287210610229522e-05, 0.0012421734863892198, -0.0007422910421155393, -0.00014350174751598388, -0.00014088187890592963, -0.00012689013965427876, -5.5910597438924015e-05, -4.1787650843616575e-05, 1.4016803106642328e-05, -9.719702211441472e-05, 8.756718307267874e-05, -9.859424608293921e-05], [0.0006880785804241896, 2.095904346788302e-05, 0.00012170973786851391, 0.0020251914393156767, 4.4701460865326226e-05, -0.000568784773349762, 0.0006708000437356532, 1.1309264664305374e-05, 0.0001724590256344527, -1.9183582480764017e-05, 0.00012956454884260893, -9.547378431307152e-05, 0.00014910295431036502, 0.00011527869355631992, 3.140049011562951e-05, -6.778375245630741e-05], [0.00040869033546186984, 1.852001105362433e-06, 0.00018077740969602019, 0.00019211533071938902, 6.744513666490093e-05, -0.0002443582925479859, 4.186438673059456e-05, 2.451905129419174e-05, 0.00012302958930376917, -1.653708386584185e-05, -0.00017220551671925932, -0.0002035107318079099, -0.00015113639528863132, 2.3188553313957527e-05, -1.670904748607427e-05, -0.0002834493643604219], [0.0008500446565449238, 0.00012750951282214373, -3.1583214877173305e-05, 0.0018936515552923083, 0.00010250879131490365, -0.000779832829721272, 0.00011844179971376434, 9.375923400511965e-05, 0.00033641277696006, -1.2558463822642807e-05, 0.000146383375977166, 0.00017785241652745754, 0.0001446212118025869, 0.000150717532960698, -0.0001663219154579565, 8.711715781828389e-05], [0.0010135021293535829, -6.649317947449163e-05, 0.00012300864909775555, 0.0001383136841468513, 3.3335461921524256e-05, -0.00034369967761449516, -0.00012065032206010073, 0.00013440250768326223, -0.00014834327157586813, 8.653193071950227e-05, 0.0001019489936879836, -0.00011833509779535234, 0.00013703994045499712, 5.9437188610900193e-05, 0.00012259153299964964, 8.23220398160629e-05], [0.0007712140213698149, 3.3351825550198555e-06, -0.0001373083796352148, 0.0018917977577075362, 0.00011857694335049018, -0.0005049908650107682, 0.0007957458728924394, 7.025505328783765e-05, -0.00010316498082829639, 0.00015624583465978503, 4.593881749315187e-05, -0.00016538785712327808, 7.123713294276968e-05, 0.00011959690891671926, 9.34500276343897e-05, -4.492922471399652e-06], [0.0017046346329152584, 0.0002557839034125209, 3.966704389313236e-05, 0.0031620715744793415, 6.485568155767396e-05, -0.001721295528113842, -4.92573126393836e-05, 2.6521127438172698e-05, 0.00037899764720350504, 6.822655268479139e-05, -0.00021601570188067853, 0.0001797989389160648, -0.0002929468173533678, 7.833827112335712e-05, 4.812381666852161e-05, 4.5911281631560996e-05], [0.0005926051526330411, -0.00022436412109527737, -0.00016466499073430896, -0.00045369542203843594, -3.504077540128492e-05, -0.0003866316401399672, -0.0002811746671795845, 5.9765734476968646e-05, -0.00015752982289995998, 0.00016744436288718134, -0.0002702413185033947, 5.231309842201881e-05, -0.0002264163049403578, 3.2092495985125424e-06, 0.0001369044475723058, -0.00039065658347681165], [-0.00109871756285429, -9.45606007007882e-05, -1.1058914424211252e-06, -0.0007780021405778825, -4.277235348126851e-05, 0.000588027061894536, -1.953619357664138e-05, -0.00010945811663987115, 0.00025183401885442436, -8.422091195825487e-05, -3.382752038305625e-05, 0.00016655931540299207, -5.853762922924943e-05, -0.0002068697940558195, -0.00016199347737710923, 8.846216587699018e-06], [0.0003021643788088113, -0.0001327104400843382, 6.761796248611063e-05, 0.00012834098015446216, 0.0001590015017427504, -0.0002319289487786591, -2.1516076230909675e-05, 0.00015473847452085465, -0.00014691178512293845, -5.7068518799496815e-06, 0.0001917272893479094, -0.00017043852130882442, 9.151766425929964e-05, -6.525023491121829e-05, 9.290005982620642e-05, 0.0004976462223567069]], "layer_1_biases": [-0.015707314014434814, -0.008539381437003613, -0.004859485663473606, 0.1486838459968567, -0.005126687698066235, -0.004460539668798447, 0.10210450738668442, -0.006760545540601015, -0.022647181525826454, -0.017332257702946663, 0.20014509558677673, -0.017251186072826385, 0.11778224259614944, -0.0134784746915102, 0.1177646666765213, 0.3437413275241852], "layer_1_weights": [[-1.4937189916963689e-05, 0.00010879946785280481, -1.1678832379402593e-05, 0.0007060467614792287, 2.3960741600603797e-05, 0.00014551605272572488, 0.0003222160448785871, 2.1737938368460163e-05, 0.0001664252340560779, 9.523561311652884e-05, 0.00029799866024404764, 0.000203178366064094, 0.00030256714671850204, 5.594341564574279e-05, 0.00040239631198346615, 0.00026941773830913007], [-3.407915937714279e-05, -0.00012260890798643231, 1.3513838894141372e-05, -0.00040474042179994285, 9.217279148288071e-05, 0.00013942040095571429, 9.093947301153094e-05, 0.00012945011258125305, -0.00010731154179666191, -0.00022700295085087419, -0.00024594494607299566, 0.0002771532745100558, -0.00020504352869465947, 0.0002096448151860386, -9.182189387502149e-05, -0.00032196688698604703], [-4.357633588369936e-05, 2.0215020413161255e-05, 1.0389946965005947e-06, -0.0006646468536928296, 7.428860408253968e-05, -0.00010981038940371946, -0.0002208985242759809, 4.705164974438958e-05, 2.1682392343791435e-06, -4.2379902879474685e-05, -0.0001413700811099261, 8.187419007299468e-05, -0.00013007456436753273, 4.3947544327238575e-05, -0.0002758001210168004, -0.00018994254060089588], [3.921320603694767e-05, 7.541820377809927e-05, -3.0990937375463545e-05, 0.0011087885359302163, 5.379082358558662e-05, 0.0002535168023314327, 0.0006221695221029222, -3.654992178780958e-05, 0.00011214904952794313, -0.00012547655205707997, 0.0004581118992064148, 1.4654391634394415e-05, 0.00041494646575301886, 0.000123141537187621, 0.0006092548137530684, 0.0005778769846074283], [-9.995702566811815e-05, 7.230716437334195e-05, -3.076889697695151e-05, 8.418344077654183e-05, 1.12907332550094e-06, 0.00015240848006214947, 2.068761932605412e-05, 0.00011336291208863258, 0.0002090197813231498, -3.742004628293216e-05, 5.964172669337131e-05, 0.0001677804975770414, 5.353609230951406e-05, 0.0001513744064141065, 3.242502498324029e-05, 7.0425849116873e-05], [7.632981578353792e-05, -3.079088855884038e-05, 3.577626921469346e-05, -0.000733856693841517, 1.784495179890655e-05, -0.00030809312011115253, -0.0005087472382001579, -3.208850102964789e-05, -0.00013012861018069088, 0.00012830480409320444, -0.00024908894556574523, -3.6425088183023036e-05, -0.0002228139783255756, -9.701206727186218e-05, -0.00042231162660755217, -0.0002705751685425639], [9.023878374136984e-05, -2.2292908397503197e-05, 3.067134093726054e-05, -0.0010086804395541549, -3.912717511411756e-05, -9.81849298113957e-05, -0.0007060422794893384, -9.03886029846035e-05, -8.89731600182131e-05, -0.00014439303777180612, -2.2929067199584097e-05, -3.458906212472357e-05, 3.828966509900056e-05, -0.0001791280519682914, -0.000597106060013175, -2.4313872927450575e-05], [-8.135299140121788e-05, 3.1668525480199605e-05, 5.363124273571884e-06, 0.002017756924033165, 3.4451091778464615e-05, 0.00010439712787047029, 0.000675397866871208, 3.781578698180965e-06, 0.00013815936108585447, -1.7513717466499656e-05, 0.0001345832133665681, -9.535295976093039e-05, 0.00015242032532114536, 0.000115309412649367, 0.0016573446337133646, -6.556065636686981e-05], [4.666565018851543e-06, 7.883819307608064e-06, 2.2480511688627303e-05, 0.00018350951722823083, 6.583295908058062e-05, 3.8303791370708495e-05, 4.5539603888755664e-05, 2.486197445250582e-05, 0.00012182738282717764, -1.64134271471994e-05, -0.0001628987374715507, -0.00020395209139678627, -0.00014357632608152926, 2.2921616618987173e-05, 2.6892645109910518e-05, -0.00027664616936817765], [-9.068447980098426e-05, 0.00011406614066800103, -1.1366661965439562e-05, 0.001887282240204513, 0.00010254793596686795, 8.269875979749486e-05, 0.00011976388486800715, 9.547087393002585e-05, 0.0003350751649122685, -1.131540830101585e-05, 0.000150597290485166, 0.00018147050286643207, 0.00014643292524851859, 0.0001521336380392313, 0.0013409361708909273, 8.792087464826182e-05], [-3.489507662379765e-06, -8.29980563139543e-05, 3.704680420923978e-05, -2.01556904357858e-05, 0.00011215500853722915, -8.266249642474577e-05, -9.18806399567984e-05, 1.3903476428822614e-05, -0.0001254757953574881, 0.00013854887220077217, 0.00014113438373897225, -2.5076182282646187e-05, 0.0001675239036558196, 0.0001105049013858661, 0.00012453329691197723, 0.00015067005006130785], [-0.00010582721006358042, 5.571018846239895e-06, 2.442808727209922e-05, 0.0018829370383173227, 0.00012758596858475357, 6.890461372677237e-05, 0.0008209157967939973, 7.3276947659906e-05, -0.00010309421486454085, 0.0001576060603838414, 5.8438767155166715e-05, -0.00016513561422470957, 8.09998091426678e-05, 0.0001238235126947984, 0.0010511277941986918, 5.265138497634325e-06], [5.838064680574462e-05, 0.0003111249243374914, -6.561415375472279e-06, 0.002327941358089447, 2.395066258031875e-05, 0.0001732881210045889, -0.00013660230615641922, -6.96238421369344e-05, 0.00036490638740360737, 6.725929415551946e-05, -0.00015576720761600882, -7.317376002902165e-05, -0.0002699910255614668, -1.1406700650695711e-05, 0.001169662456959486, 0.00010265817400068045], [-3.5541328543331474e-05, -0.00022361258743330836, 3.611126885516569e-05, -0.00046659185318276286, -2.3946078727021813e-05, -0.00024044368183240294, -0.0002483593416400254, 3.180235580657609e-05, -0.00015736553177703172, 0.00016771409718785435, -0.0002542302827350795, 5.343216616893187e-05, -0.0002144691243302077, 7.294717306649545e-06, -0.00016074035374913365, -0.0003768980095628649], [0.00018294010078534484, -9.830646740738302e-05, -3.278336225776002e-05, -0.0007676646346226335, -4.115574847673997e-05, -5.813234383822419e-05, -3.0039622288313694e-05, -0.0001111996389226988, 0.00025203314726240933, -8.570730278734118e-05, -4.7011901187943295e-05, 0.00016645906725898385, -6.818800466135144e-05, -0.0002069579204544425, -0.0005385755212046206, -1.688325141913083e-06], [0.00012068329670000821, -0.00010129428119398654, 1.969159893633332e-05, -4.063187225256115e-05, -7.170090975705534e-05, -0.00010200435644946992, -0.00011288939276710153, -0.00011144969175802544, -0.00019819331646431237, 1.1956713933614083e-05, 0.0003971300320699811, -4.104381878278218e-05, 0.00030494722886942327, -0.00012105034693377092, 0.00018950796220451593, 0.0007959664217196405]], "layer_2_biases": [-0.007828816771507263, -0.10452551394701004, -0.0015715494519099593, 0.1272367388010025, -0.004817882552742958, -0.007870307192206383, 0.16775912046432495, -0.09739752858877182, -0.1558322310447693, -0.03941820561885834, 0.18469025194644928, -0.017039930447936058, -0.021067839115858078, -0.10750357806682587, 0.10552851855754852, 0.26042553782463074], "layer_2_weights": [[-1.866586899268441e-05, 0.00017685256898403168, -4.939079644827871e-06, 0.0007143958937376738, 1.3839773600921035e-05, 2.0377314285724424e-05, 0.0002979143464472145, 2.5910816475516185e-05, 0.00016935363237280399, 9.589475666871294e-05, 0.0002859514206647873, 0.00020340221817605197, -0.00028116267640143633, 5.8595382142812014e-05, 0.0004118500801268965, 0.00025957985781133175], [-3.579162512323819e-05, -0.00016029966354835778, 2.174808031440989e-07, -0.00042369929724372923, 0.00012181495549157262, -5.897564551560208e-05, 0.00014923297567293048, 0.0001364729250781238, -0.00011224845366086811, -0.00022784035536460578, -0.0002223985065938905, 0.0002778256603050977, 2.297136052220594e-05, 0.00017391015717294067, -0.00011489433381939307, -0.0003018412971869111], [-4.3911557440878823e-05, 2.209777267125901e-05, 2.6796708425536053e-06, -0.000670490087941289, 9.092717664316297e-05, 4.101343438378535e-05, -0.0002249838871648535, 4.7265319153666496e-05, 2.8511726668511983e-06, -4.2391286115162075e-05, -0.0001364976924378425, 8.089589391602203e-05, -0.00013426133955363184, 4.438606629264541e-05, -0.00028284938889555633, -0.0001871326967375353], [6.847659824416041e-05, 0.00011497532977955416, -3.6769397411262617e-06, 0.0011839373037219048, 3.06420806737151e-05, 9.044709258887451e-06, 0.00027404812863096595, -0.000190788516192697, 0.00023683987092226744, -9.726893767947331e-05, 0.00047223258297890425, 9.08271103980951e-05, -0.00018751742027234286, -7.773232937324792e-05, 0.0006512385443784297, 0.0006007285555824637], [-9.698717622086406e-05, 4.1331008105771616e-05, -1.5539465039182687e-06, 9.32519615162164e-05, -7.714445018791594e-06, -2.683520688151475e-05, -6.868540936011414e-08, 0.00011158340203110129, 0.00021780903625767678, -3.865679900627583e-05, 4.84150841657538e-05, 0.00016948586562648416, -0.00026115617947652936, 0.00020562238933052868, 4.299287684261799e-05, 6.149721593828872e-05], [4.112187525606714e-05, -3.5769979149335995e-05, 1.0529867040531826e-06, -0.0007450836128555238, 2.5081635612878017e-05, 4.952385643264279e-05, -0.0004729052889160812, -3.8065896660555154e-05, -0.000130771441035904, 0.00013206174480728805, -0.00023515234352089465, -3.4784519812092185e-05, 0.00020195217803120613, -0.00013363416655920446, -0.0004342209140304476, -0.00025879056192934513], [0.00015823404828552157, -2.6218240236630663e-05, -1.141529764936422e-06, -0.0009500581654720008, -9.032691195898224e-06, -5.9223806601949036e-05, -0.0006351498886942863, -7.175368955358863e-05, -3.741396722034551e-05, -0.00015680950309615582, 1.6401441826019436e-05, -5.5325312132481486e-05, 6.594676960958168e-06, -0.00015263439854606986, -0.0005692487466149032, 6.38576311757788e-05], [-4.640904444386251e-05, 8.375105244340375e-05, 3.593702558646328e-06, 0.0020141543354839087, 6.033916724845767e-05, 2.8106007448513992e-05, 0.0006780334515497088, 1.247822365257889e-05, 0.00017057046352420002, -1.588089799042791e-05, 0.0001382531045237556, -9.389641490997747e-05, 8.426361455349252e-05, 0.0001016220121528022, 0.001646874356083572, -6.442040466936305e-05], [4.366632765595568e-06, 5.278718163026497e-05, 2.6651634925656253e-06, 0.0001755972480168566, 9.190912533085793e-05, 3.818530240096152e-05, 4.533989340416156e-05, 2.4896824470488355e-05, 0.00012096627324353904, -1.617894486116711e-05, -0.0001548206782899797, -0.0002046556182904169, 0.0002260516193928197, 2.2767135305912234e-05, 1.601667099748738e-05, -0.0002709438558667898], [-8.711669215699658e-05, 0.00014016048226039857, 2.749817440417246e-06, 0.001885390724055469, 9.867917833616957e-05, 3.553096757968888e-05, 0.00011833586177090183, 9.70494220382534e-05, 0.0003354290092829615, -1.0041990208264906e-05, 0.00015394877118524164, 0.00018167875532526523, -1.0796525202749763e-05, 0.00014881532115396112, 0.0013348652282729745, 8.868128497852013e-05], [4.397115117171779e-05, -0.0001079359499271959, -3.333395625304547e-06, -0.00011863387044286355, 8.173569949576631e-05, -2.308156035724096e-05, -0.00012908711505588144, 1.0084309906233102e-05, -0.00014049714081920683, 0.00019445492944214493, 0.00018104244372807443, 0.00011456612992333248, 0.00017852568998932838, -3.0197910746210255e-05, 4.780107701662928e-05, 0.00022028751845937222], [-0.00011966907186433673, 1.960408189916052e-05, -1.4064820561543456e-06, 0.0018763314001262188, 0.00012491122470237315, -2.695712828426622e-05, 0.0008410061127506196, 7.327921048272401e-05, -0.00010255430242978036, 0.00015887559857219458, 6.851693615317345e-05, -0.00016492209397256374, 0.00014899046800564975, 0.00012941229215357453, 0.001037011737935245, 1.2332593541941606e-05], [0.00013915223826188594, 4.104288018424995e-05, 1.1892481779796071e-05, 0.0014062917325645685, -4.200145122013055e-05, -9.74816703092074e-06, -1.6857433365657926e-05, -0.00011895072384504601, 5.24987444805447e-05, 6.341097468975931e-05, -7.477506733266637e-05, -0.00022752750373911113, -0.00023658483405597508, 1.3002675586903933e-05, 0.0009174245642498136, 0.00016925671661738306], [-3.88640291930642e-05, -0.00019241425616201013, 1.792469333850022e-06, -0.00047733436804264784, -1.1733091923815664e-05, 1.2887949196738191e-05, -0.00021785924036521465, 2.7994305128231645e-05, -0.00015853422519285232, 0.0001684430753812194, -0.0002403764083283022, 5.43309397471603e-05, 0.00016246912127826363, 1.6211435649893247e-05, -0.0001745977788232267, -0.0003656390472315252], [9.181701898341998e-05, -4.287685078452341e-05, 2.833981511685124e-07, -0.0013337441487237811, -9.28018125705421e-05, -2.2357460693456233e-05, -0.000323408778058365, -0.0001869021070888266, 8.805590186966583e-05, -6.0205125919310376e-05, -4.791477840626612e-05, 0.00015097162395250052, -0.00016519548080395907, -0.0001921079820021987, -0.0007174921920523047, 6.968351954128593e-06], [0.00010016137093771249, 2.903132326537161e-06, 7.223248303489527e-06, -0.00010901191126322374, -6.809415208408609e-05, 2.5556776108714985e-06, -0.00014226352504920214, -0.00011487467418191954, -7.022904173936695e-05, 6.547302473336458e-05, 0.0005365573451854289, 0.0001877280737971887, 0.00025918398750945926, -0.00012288436118979007, 0.00010340679727960378, 0.0010061799548566341]], "layer_3_biases": [-0.01464251521974802, -0.006547010038048029, -0.003316500224173069, 0.09671328961849213, -0.005046376027166843, -0.0037322980351746082, 0.08659541606903076, -0.008060255087912083, -0.020066438242793083, -0.11286107450723648, 0.17761027812957764, -0.016733180731534958, 0.16088519990444183, -0.013043228536844254, 0.13732285797595978, 0.3646981716156006], "layer_3_weights": [[-1.7307311281911097e-05, 0.0001100490553653799, -5.383351890486665e-06, 0.0007236317615024745, 1.0676541933207773e-05, 9.662355296313763e-05, 0.00026754182181321084, 2.3609352865605615e-05, 0.0001656022941460833, 9.676859190221876e-05, 0.0002719431940931827, 0.00020277942530810833, 0.0002788176934700459, 5.969494304736145e-05, 0.00042141854646615684, 0.00024842473794706166], [-2.6946025172946975e-05, -0.0001281879813177511, 5.24639006016514e-07, -0.00044495321344584227, 0.00014651607489213347, 0.00013526678958442062, 0.0002257609012303874, 0.0001242170255864039, -0.00010634837235556915, -0.00022854004055261612, -0.0001949146535480395, 0.0002784442331176251, -0.00016132938617374748, 0.00019981767400167882, -0.00013999266957398504, -0.0002789574791677296], [-4.4514126784633845e-05, 1.895050263556186e-05, 2.8960962481505703e-06, -0.0006376599194481969, 8.411029557464644e-05, -9.719658555695787e-05, -0.0002269827964482829, 4.77655376016628e-05, 2.5536483008181676e-06, -4.2389710870338604e-05, -0.00013031008711550385, 6.022138040862046e-05, -0.00011950078624067828, 4.505943434196524e-05, -0.00027764320839196444, -0.0001837337331380695], [-0.00012588754179887474, 0.00018813506176229566, -4.031856860819971e-06, 0.0013101306976750493, 5.51151470062905e-06, -0.00021503496100194752, 0.00014034175546839833, -8.285095827886835e-05, 0.00011602706217672676, -7.25690697436221e-05, 0.0004799553717020899, 0.0001452895812690258, 0.0004382670158520341, -5.873956615687348e-05, 0.0006987478118389845, 0.0006141957710497081], [-9.31315153138712e-05, 8.709831308806315e-05, -1.8936869992103311e-06, 0.00010343385656597093, -8.048740710364655e-06, 0.0001127100404119119, -2.6654150133254007e-05, 0.00011845042172353715, 0.00021109078079462051, -3.7980571505613625e-05, 3.51932794728782e-05, 0.00017078561359085143, 3.240526348236017e-05, 0.00019846073701046407, 5.417281499831006e-05, 5.1222868933109567e-05], [3.9100741560105234e-05, -4.0718132368056104e-05, 1.3115004549035802e-06, -0.0007575047784484923, 4.871089186053723e-05, -0.00031691393814980984, -0.0004285040486138314, -4.331460877438076e-05, -0.00012988215894438326, 0.00012856263492722064, -0.0002188447251683101, -3.05373287119437e-05, -0.0001973077596630901, -0.00010351092350902036, -0.0004463576478883624, -0.0002452032931614667], [0.00016512807633262128, -0.00011241580796195194, -1.0861775763260084e-06, -0.0008881828980520368, -5.888558371225372e-05, 5.2444611355895177e-05, -0.0005753596196882427, -0.00014960902626626194, -7.394763815682381e-05, -0.00013169556041248143, 8.195485861506313e-05, -5.1751339924521744e-06, 0.00011889846791746095, -5.397998756961897e-05, -0.0005266891093924642, 0.00020105218573007733], [-4.786883800989017e-05, 4.099328725715168e-05, 3.826259217021288e-06, 0.0020039298105984926, 6.74441980663687e-05, 0.0001035538298310712, 0.0006834387895651162, 2.7783557925431523e-06, 0.00013251326163299382, -1.4259980162023567e-05, 0.00014276590081863105, -9.287638386012986e-05, 0.00015777084627188742, 0.00010959692008327693, 0.0016345526091754436, -6.338324601529166e-05], [5.560395948123187e-06, -9.350501386506949e-06, 3.0282481020549312e-06, 0.00016791994858067483, 7.220073894131929e-05, 5.095878441352397e-05, 5.055539804743603e-05, 2.5307565010734834e-05, 0.00011942834680667147, -1.620465081941802e-05, -0.00014556969108525664, -0.00020579161355271935, -0.00012827782484237105, 2.2086151147959754e-05, 3.656460421552765e-06, -0.0002650408714544028], [-8.706296648597345e-05, 9.893097740132362e-05, 2.905856717916322e-06, 0.0018817955860868096, 9.853293158812448e-05, 8.551408973289654e-05, 0.00011842369713122025, 9.855162352323532e-05, 0.0003341913688927889, -8.768119187152479e-06, 0.00015800677647348493, 0.00018234743038192391, 0.0001495841861469671, 0.00015046310727484524, 0.0013273131335154176, 8.94290060386993e-05], [1.0710398782975972e-05, -0.00011395167530281469, -3.2499190183443716e-06, -0.0001939531066454947, -4.5669210521737114e-05, 5.619293369818479e-05, -0.00012207940744701773, -2.6817531761480495e-05, -0.0001404900976922363, 0.0002421271929051727, 0.00022073413128964603, 0.00020375287567730993, 0.00023350463015958667, -8.82601088960655e-05, -8.81715095601976e-06, 0.00028417131397873163], [-0.0001191697156173177, 1.0067842595162801e-05, -1.177185936285241e-06, 0.0018678357591852546, 0.00012911563680972904, 6.948500958969817e-05, 0.0008670894894748926, 7.58603127906099e-05, -0.00010248162288917229, 0.0001602961274329573, 8.072263153735548e-05, -0.00016462134954053909, 9.904468606691808e-05, 0.00012802357377950102, 0.0010198792442679405, 2.0748726456076838e-05], [0.00011231776443310082, 2.612483331176918e-05, 1.1939299838559236e-05, 0.001403650501742959, -4.247643664712086e-05, 0.0001196183220599778, -3.226887429264025e-06, -0.00011827868729596958, 5.320099808159284e-05, 6.412354559870437e-05, -6.471851520473137e-05, -0.00022742175497114658, -0.0002013515040744096, 1.2554736713354941e-05, 0.0009091419633477926, 0.00017471704632043839], [-5.1399172662058845e-05, -0.0002197985741076991, 2.0783377294719685e-06, -0.0004891365533694625, -1.586005964782089e-05, -0.0002429064188618213, -0.0001770318194758147, -1.767895810189657e-05, -0.0001578200317453593, 0.00016799646255094558, -0.00022441899636760354, 5.410571975517087e-05, -0.00018975493730977178, 2.0637080524466e-05, -0.00018945668125525117, -0.00035312442923896015], [4.6920198656152934e-05, 2.92798868031241e-05, 3.834373885069908e-08, -0.0020205150358378887, -9.980863251257688e-05, -0.00011068452295148745, -0.0006491796229965985, -0.00010322593880118802, -0.00015450266073457897, -3.7712015910074115e-05, -5.1987135520903394e-05, 0.00018492000526748598, -7.048322731861845e-05, -9.70178734860383e-05, -0.0009447541669942439, 1.0378249498899095e-05], [8.87606292963028e-05, 0.00010213915084023029, 3.8084872358012944e-06, -0.00014602676674257964, -7.75968364905566e-05, -3.899212970281951e-05, -0.00013487014803104103, -8.104060543701053e-05, 7.980015652719885e-05, 0.00013739198038820177, 0.0006185497040860355, 0.0002224074414698407, 0.0005395524203777313, -0.00016256800154224038, 5.1408067520242184e-05, 0.0011167119955644011]], "layer_4_biases": [0.121177539229393, -0.012117964215576649, -0.0012125634821131825, -0.03853096812963486, -0.007923695258796215, -0.06040307879447937, 0.10831397771835327, -0.004481641575694084, -0.024233054369688034, -0.09588153660297394, 0.1574496477842331, -0.018726568669080734, 0.319930762052536, -0.005426815710961819, 0.1277403086423874, 0.4482022821903229], "layer_4_weights": [[0.00031612368184141815, 0.00014131177158560604, -1.0107046364282724e-05, 8.112118666758761e-05, 3.779965118155815e-05, -4.9776554078562185e-05, 0.0002453074848745018, 1.5933972463244572e-05, 0.00016787067579571158, 9.66359002632089e-05, 0.0002616161073092371, 0.0002054733777185902, 0.00026992405764758587, 4.975818592356518e-05, 0.00042838952504098415, 0.00024071235384326428], [0.0006607857067137957, -0.00011832171730929986, 1.3750053540206864e-06, -0.000231508442084305, 1.2830848390876781e-05, 0.0001855551527114585, 0.00028407687204889953, 0.00012869166675955057, -0.00010625147115206346, -0.00022970732243265957, -0.00017389302956871688, 0.0002793956082314253, -0.00014397902123164386, 0.00018255460599903017, -0.00016044591029640287, -0.0002629618684295565], [4.754021574626677e-05, 1.3731398212257773e-05, 6.3507263803330716e-06, 2.2944075226405403e-06, 9.781681001186371e-05, -7.137624197639525e-05, -0.00022332515800371766, 4.824994539376348e-05, 2.3329353098233696e-06, -4.2322684748796746e-05, -0.00012480703298933804, 4.4853284634882584e-05, -0.00011442813411122188, 4.5738357584923506e-05, -0.0002752646687440574, -0.00018096232088282704], [0.0002319131453987211, 0.00020335725275799632, -4.96086613566149e-06, -4.4938293285667896e-05, 1.2472860362322535e-05, -0.00023885040718596429, 0.00013337019481696188, 3.363426003488712e-05, -6.947059591766447e-05, -5.481317202793434e-05, 0.0004813293053302914, 0.00014146722969599068, 0.00044111069291830063, 0.00011653406545519829, 0.0007391984690912068, 0.0006179601768963039], [-0.0010099783539772034, 0.000134173795231618, -5.10220525029581e-06, 2.7412183044361882e-05, 2.89395175059326e-05, 0.0001596426300238818, -4.5196869905339554e-05, 0.0001227908069267869, 0.00021416238450910896, -3.85232524422463e-05, 2.517937718948815e-05, 0.00017417356139048934, 2.4014230803004466e-05, 5.013241388951428e-05, 6.310695607680827e-05, 4.4080541556468233e-05], [-0.0008967422763817012, -4.7538003855152056e-05, 2.772181687760167e-06, -0.00015755365893710405, 4.245067248120904e-05, -0.00030750379664823413, -0.0003950732934754342, -6.124518404249102e-05, -0.0001301728916587308, 0.0001290980144403875, -0.00020692702673841268, -3.188314076396637e-05, -0.00018807755259331316, -9.67136220424436e-05, -0.0004556056228466332, -0.00023610779317095876], [-0.0007460953784175217, -0.0001282351149711758, 1.3835274330631364e-06, -0.00022495783923659474, -6.563612987520173e-05, 3.329689207021147e-05, -0.0005392406019382179, -7.251373608596623e-05, -0.00010379851300967857, -8.902272384148091e-05, 0.00012024265015497804, 2.1570554963545874e-05, 0.00014682118489872664, -3.5396271414356306e-05, -0.0005155213875696063, 0.00027466288884170353], [0.0006634227465838194, 4.034988160128705e-05, 6.698776360281045e-06, -4.5533619413618e-05, 6.686808774247766e-05, 0.00010409368405817077, 0.000688247149810195, 3.155171498292475e-06, 0.00014121165440883487, -1.3639762983075343e-05, 0.00014770349662285298, -8.193416579160839e-05, 0.00016219072858802974, 0.00010770159860840067, 0.0016193912597373128, -6.161489000078291e-05], [0.00032990830368362367, 3.994220242020674e-05, 6.673250481981086e-06, 0.00019396224524825811, 0.00010547530837357044, 3.307705628685653e-05, 4.525030090007931e-05, 2.5503439246676862e-05, 0.0001188496098620817, -1.5863970475038514e-05, -0.00013736210530623794, -0.0002067731402348727, -0.00012109251838410273, 2.1526422642637044e-05, -7.6970582085778e-06, -0.00025987165281549096], [0.0008310009143315256, 0.00013444444630295038, 5.896007223782362e-06, 2.406042767688632e-05, 0.00010277130786562338, 0.00012684008106589317, 0.00012108141527278349, 9.630776912672445e-05, 0.00033349712612107396, -8.340704880538397e-06, 0.00016139248327817768, 0.00018690865545067936, 0.0001517908531241119, 0.00018164774519391358, 0.001322362688370049, 8.937987877288833e-05], [-0.00027861015405505896, -7.69487232901156e-05, 3.0609572831963305e-07, -0.0002564550086390227, -7.95745654613711e-05, -0.00010035243758466095, -0.00010924367234110832, -8.276772132376209e-05, -8.111750503303483e-05, 0.00028439817833714187, 0.00025306359748356044, 0.00023654551478102803, 0.0002595036057755351, -5.249086825642735e-05, -5.1205293857492507e-05, 0.0003375014348421246], [0.0007068415870890021, 1.5680989235988818e-05, 8.789983780843613e-07, 6.254215259104967e-05, 0.00013095090980641544, 7.47122394386679e-05, 0.000887261179741472, 7.72972489357926e-05, -0.00010203633428318426, 0.00016076902102213353, 9.100198076339439e-05, -0.0001643103314563632, 0.00010754614049801603, 0.00012344277638476342, 0.0010043911170214415, 2.7239113478572108e-05], [0.0008197944844141603, -0.000253268372034654, 1.5068356333358679e-05, 0.00017136406677309424, 1.245698058482958e-06, 8.822992094792426e-05, 0.0002151343651348725, -2.68348230747506e-07, -0.000249181262915954, 5.488832539413124e-05, 7.998698129085824e-05, -0.0001732392265694216, -6.237459456315264e-05, 0.00020701115136034787, 0.0006807496538385749, 0.0003183507651556283], [0.00036010780604556203, -0.00021556801220867783, 3.736085545824608e-06, -0.00016845307254698128, -1.585931022418663e-05, -0.0002023982524406165, -0.00014529387408401817, -4.669406189350411e-05, -0.0001592644111951813, 0.00016859162133187056, -0.00021214653679635376, 5.311824133968912e-05, -0.00018029604689218104, 2.270031109219417e-05, -0.00020078929082956165, -0.00034412514651194215], [-0.0005971024511381984, 1.4855940207780804e-05, -1.986287088584504e-06, -0.00010025742813013494, -0.0001072384329745546, -6.147328531369567e-05, -0.0007485484820790589, -6.460965960286558e-05, -0.00020931019389536232, -9.129256795858964e-06, -4.065726898261346e-05, 0.00023443184909410775, -5.971394421067089e-05, -7.569938316009939e-05, -0.0013921437785029411, 3.362646384630352e-05], [-0.0003615406167227775, 0.00013710134953726083, 1.0881001799134538e-05, -0.0002595404221210629, -9.334136120742187e-05, -0.0002219814050476998, -0.00014089452452026308, -0.0001563980767969042, 0.00015540607273578644, 0.00026563735445961356, 0.0007128014112822711, 0.00027761064120568335, 0.000632250274065882, -0.00011024424020433798, 1.3168592886358965e-05, 0.0012355376966297626]], "output_biases": [-1.3216139078140259, -0.09309804439544678], "output_weights": [[0.13572756946086884, -0.2803243398666382], [-0.09963163733482361, 0.829663872718811], [0.2165992707014084, 0.053410086780786514], [-0.25520992279052734, -1.4280345439910889], [-0.011853164061903954, 0.18536703288555145], [-0.27609819173812866, 0.3624502718448639], [0.01723371259868145, -0.07930025458335876], [-0.10518088191747665, 0.2569359242916107], [0.14373698830604553, 0.7056766748428345], [0.119130440056324, 0.026974588632583618], [-0.4568583071231842, -0.14242221415042877], [0.5548059344291687, 0.8306697607040405], [-0.38590115308761597, -0.1256374567747116], [-0.11822596192359924, 0.3754650056362152], [-0.2375568449497223, -0.49424317479133606], [-0.8778426647186279, -0.10948526114225388]]}, "hk_disentangled_rnn/~update_latents/update_net_1": {"input_biases": [0.00992151815444231, -0.012672267854213715, 0.05941653624176979, 0.013010487891733646, -0.06277602910995483, 0.013877036981284618, -0.026470519602298737, -0.09536530077457428, 0.05430035665631294, -0.010585007257759571, 0.047437019646167755, -0.03851288929581642, 0.003226332599297166, -0.10961607843637466, -0.02211770974099636, 0.029353566467761993], "input_weights": [[0.4605065882205963, -0.13510705530643463, -0.1794872283935547, -0.17779475450515747, 1.186523675918579, 0.22096486389636993, 0.028783302754163742, 0.8275186419487, 0.02184530720114708, 1.113914966583252, -0.36539560556411743, 0.22867944836616516, -0.36533722281455994, 0.3796581029891968, 0.16158461570739746, 0.4125581979751587], [-0.3657612204551697, 0.6200020909309387, -0.33280229568481445, -0.37714463472366333, -0.6743862628936768, -0.8060478568077087, 0.2483181208372116, -0.16816432774066925, -0.353304386138916, 0.3223748207092285, -0.613551676273346, -0.1439124345779419, -0.22145844995975494, 0.9230735898017883, 0.2760172188282013, 0.31063351035118103], [0.8590787053108215, -0.23017925024032593, 0.13913603127002716, -0.22198885679244995, -0.7066320776939392, 0.3140999674797058, 0.12917111814022064, 0.27719253301620483, -0.5777603983879089, 0.2851376235485077, 0.23917557299137115, -0.3710060715675354, -1.0507985353469849, -0.10195396095514297, -0.3760269284248352, -0.26238930225372314], [0.3320585787296295, -0.5863847136497498, -0.5300721526145935, 0.4729110300540924, 0.15507949888706207, 0.9644753932952881, -0.23649361729621887, -0.6943483948707581, -0.5683844685554504, 0.008614709600806236, -0.10916163772344589, -0.6113474369049072, -0.06366540491580963, -0.20745614171028137, -0.152533620595932, -0.03638989105820656], [0.3646705150604248, -0.5673131346702576, -0.07287261635065079, 0.5840966105461121, -0.23600271344184875, -0.49913865327835083, -0.49586158990859985, 0.04182557761669159, 0.6861875653266907, -0.08731517195701599, -0.16282589733600616, 0.3504120111465454, 0.13110807538032532, 0.5629871487617493, 0.2969542145729065, 0.6021941304206848], [-0.4006674289703369, -0.1500740498304367, -0.05352869629859924, -0.3228139281272888, -0.41998904943466187, 0.40894815325737, -0.41034549474716187, 0.5050240159034729, -0.24239639937877655, -0.005140889436006546, 0.31911033391952515, 0.7833601236343384, 0.09422240406274796, -0.0912252739071846, -0.12522836029529572, -0.06749933212995529], [-0.7620497345924377, 0.09332515299320221, -0.627038836479187, -0.5730663537979126, -0.5325345993041992, 0.5015624165534973, -0.453681617975235, -0.14384225010871887, -0.18234337866306305, 0.3231005370616913, -1.2550522089004517, 0.1681111752986908, -0.6946274042129517, 0.03660140559077263, -0.04726410284638405, -0.10774556547403336]], "layer_0_biases": [0.14031508564949036, 0.03145448863506317, -0.027793701738119125, -0.05709721893072128, -0.16438531875610352, 0.055147092789411545, -0.007248401641845703, -0.02586517296731472, -0.07243362069129944, 0.08234719932079315, 0.06429176777601242, -0.06702256202697754, -0.026551682502031326, -0.14297336339950562, -0.005162838846445084, -0.05322537571191788], "layer_0_weights": [[0.0019537603948265314, -0.012485930696129799, -0.006789226084947586, -0.012219388969242573, 4.823597555514425e-05, 0.0014752919087186456, -0.007222453132271767, 0.01684143766760826, -0.00485364580526948, 0.010333379730582237, 0.0008252593106590211, -0.00436725839972496, -0.011181337758898735, 5.089394221613475e-07, -0.004008195362985134, -0.005513564217835665], [-0.002097814343869686, 0.006156584247946739, 0.0013384284684434533, 0.00013251158816274256, -0.00012129632523283362, -0.00532101234421134, 0.004840067122131586, -0.0021562559995800257, 0.002007722156122327, -0.0029502036049962044, -0.0009980195900425315, 0.003027227707207203, 0.009916642680764198, -0.0001139834348578006, 0.017077812924981117, -0.0006615100428462029], [-0.00019465695368126035, 0.0025484603829681873, -0.0019857597071677446, -0.011158202774822712, -1.4689589988847729e-05, 0.0017010396113619208, 0.00825327355414629, 0.003263297723606229, -0.005991189740598202, 0.010078469291329384, 0.0002432602341286838, -0.005278971046209335, 0.0006999907200224698, -5.79194093006663e-05, 0.011805803515017033, -0.00382795836776495], [0.0017580084968358278, -0.0020849998109042645, -0.007738159503787756, -0.000928782916162163, 0.00010054485755972564, 0.007336027454584837, 0.002117442898452282, 0.008601267822086811, -0.0022499696351587772, 0.0026470771990716457, 0.0010865222429856658, -0.0023071186151355505, -0.012642858549952507, 5.3315052355173975e-05, -0.015126578509807587, 0.0009965446079149842], [-0.0003529961686581373, -0.008003142662346363, 0.007077511865645647, -0.007658073212951422, -1.1105183148174547e-05, -0.003825005143880844, -0.0036912295036017895, -0.001498103141784668, 0.006205166224390268, 0.016453983262181282, -0.0010177105432376266, 0.006522143259644508, -0.029968488961458206, -8.859100489644334e-05, 0.0007607077131979167, 0.01591857150197029], [0.0010171994799748063, -0.007622227538377047, 0.01803748309612274, 0.0061466810293495655, 0.00022113007435109466, 0.002451178850606084, -0.0034692557528615, -0.011540498584508896, 6.308587035164237e-05, 0.002025817520916462, 0.0006542021292261779, -0.00041161628905683756, -0.011159053072333336, 0.00026815017918124795, -0.008883535861968994, 0.002900767372921109], [-0.0009970723185688257, -0.0008290742989629507, 8.33643844089238e-06, -0.006518279202282429, -6.424731691367924e-05, -0.002284605521708727, 0.004038823302835226, 0.006307029630988836, -0.0015451706713065505, 0.005099891219288111, -0.0004681155551224947, 0.0003405920579098165, -0.00010509324056329206, -7.846992230042815e-05, 0.01225346326828003, -0.002061443170532584], [-0.0007552988827228546, -0.007343188393861055, 9.501212480245158e-05, -0.01375507190823555, -0.00014931686746422201, -0.004910602234303951, -0.007173056714236736, -0.0061411079950630665, -0.00037003002944402397, 0.010665551759302616, -0.0010060847271233797, -0.0015767154982313514, 0.0011505571892485023, -0.00011998292029602453, 0.013600779697299004, 0.0075387065298855305], [0.0004767943755723536, 0.010571182705461979, -0.0077293976210057735, -0.0009683601092547178, -8.035873906919733e-05, -0.0017467308789491653, 0.0024926161859184504, 0.003969238605350256, 0.00017736050358507782, 0.003971992060542107, -6.366825255099684e-05, 3.1027662771521136e-05, -0.004002362489700317, -0.00019599025836214423, -0.005132179241627455, -0.002167916391044855], [-0.0008847673307172954, -0.010743698105216026, 0.0024239986669272184, -0.00234903278760612, -2.6533616619417444e-05, -0.008867683820426464, -0.016255415976047516, -0.00010434554133098572, 0.007168537937104702, 0.00028859818121418357, -0.001124146394431591, 0.006382717750966549, -0.004318769555538893, -1.1446762073319405e-05, 0.002627045614644885, 0.006607851944863796], [0.0007341337623074651, -0.007873589172959328, -0.002185304183512926, -0.018897848203778267, -3.887273487634957e-05, 0.01141358632594347, 0.012402473017573357, -0.0009417156688869, -0.012718355283141136, 0.017472224310040474, 0.0007326240884140134, -0.012562175281345844, -0.004834442399442196, -3.868555722874589e-05, 0.010710329748690128, 0.005700720939785242], [-0.0006069070659577847, 0.0010887915268540382, -0.0010875377338379622, -0.004001200199127197, -0.00010795317939482629, -3.2201045542024076e-05, -0.001361563801765442, -0.014556430280208588, -0.00011634314432740211, 0.0035568461753427982, -0.0008973156218416989, -0.0029241316951811314, 0.005361449904739857, -0.00015459080168511719, 0.0027206637896597385, 0.010861748829483986], [-0.00010357232531532645, 0.002263805828988552, -0.003915494307875633, -0.00346590718254447, 2.998386889885296e-06, 0.009019223973155022, 0.012189295142889023, -0.006861086003482342, -0.001561025739647448, 0.00570534635335207, -1.5082538993738126e-05, -0.002183066215366125, -0.009285041131079197, -2.044526809186209e-05, 7.358496077358723e-05, 0.014437349513173103], [-0.0006653089076280594, -0.004018270876258612, -0.013614987954497337, -0.000127130959299393, -0.00011116820678580552, -0.0035183012951165438, -0.011057673022150993, 0.005608803126960993, 0.005162970162928104, -0.006676648743450642, -0.0010979286162182689, 0.004088044632226229, 0.006166902370750904, -9.438642155146226e-05, -0.0037903734482824802, 0.0061428542248904705], [-0.0003764904395211488, 0.0011215480044484138, -0.005520308390259743, 0.0006991042755544186, -0.0001240358833456412, -0.0014552948996424675, -0.002609691582620144, 0.001348199788480997, 0.003128647105768323, -0.0012859663693234324, -0.0006566801457665861, 0.002792737912386656, -0.0011805015383288264, -0.00015302262909244746, -0.0033359152730554342, 0.004696542862802744], [0.00013611509348265827, -0.004079506266862154, -0.009330550208687782, -0.0011092325439676642, -0.00010495187598280609, -0.0007624885183759034, -0.007825277745723724, 0.0034386783372610807, 0.003861004952341318, -0.0017027297290042043, -0.000453788205049932, 0.0027832938358187675, -0.0037500131875276566, -0.00013095328176859766, -0.00614804495126009, 0.007329904939979315]], "layer_1_biases": [0.08790034055709839, 0.016621651127934456, 0.048503246158361435, 0.010455508716404438, -0.013310994952917099, -0.023599015548825264, -0.009896483272314072, -0.018266472965478897, -0.0013173092156648636, -0.05306708812713623, 0.05010022222995758, 0.023577379062771797, 0.038114067167043686, -0.04942452907562256, -0.13918261229991913, 0.024296846240758896], "layer_1_weights": [[0.001202003681100905, -0.012123504653573036, -0.0028052120469510555, -0.006452171131968498, 3.9965052565094084e-05, -1.6237458112300374e-05, -2.60753404290881e-05, 7.44484123060829e-06, 0.009471428580582142, 0.015167745761573315, 0.0002951194765046239, -0.004942687693983316, 0.005019047297537327, -1.4962258319428656e-05, 0.005951643921434879, -0.015075148083269596], [-0.001842151628807187, 0.000414153968449682, -0.010404692031443119, 0.001941362745128572, -0.00011439663649071008, -0.00014050869503989816, -0.0001336605491815135, -0.00016935067833401263, 6.915732228662819e-05, -0.01489698514342308, -0.0008791589643806219, -0.001334367087110877, -0.007555801887065172, -0.0001305459882132709, -0.0016682782443240285, 0.008378433994948864], [-0.00016322411829605699, 0.0006212342414073646, -0.005463237874209881, 0.0002601599844638258, -7.790066592860967e-05, -0.00025346808251924813, -0.00046406808542087674, -0.00015926304331514984, 0.006265593692660332, 0.00031897021108306944, -0.0002523951116017997, 0.0013187271542847157, -0.0007127794669941068, -5.5028962378855795e-05, -0.019862007349729538, -0.00198487751185894], [0.0013162842951714993, 0.0006457652780227363, 0.004349932074546814, -0.0004066682595293969, 7.696074317209423e-05, 7.295700925169513e-05, 4.884025838691741e-05, 8.85942718014121e-05, -7.652358181076124e-05, 0.008535085245966911, 0.0006409116322174668, 0.0066131772473454475, 0.0018005837919190526, 5.3562180255539715e-05, -0.0011875004274770617, -0.010174818336963654], [-0.0005851556779816747, -0.016564026474952698, -0.003590185660868883, -0.018447667360305786, -1.520649493613746e-05, 3.214997559553012e-05, -3.896459475072334e-06, -6.323670822894201e-05, -0.012238182127475739, -0.006844272371381521, -0.0008921043481677771, -0.002769279992207885, 0.019084732979536057, -8.619328582426533e-05, 0.01966164819896221, 0.0013954101596027613], [0.0007696140673942864, -0.005111275240778923, 0.015338490717113018, -0.005571237299591303, 0.00020769010006915778, 0.00029158464167267084, 0.0003058914444409311, 0.0002853898622561246, -0.003674050560221076, 0.010587302967905998, 0.000546838331501931, -0.0002926322049461305, 0.02010420709848404, 0.00027477717958390713, 0.007947524078190327, -0.001567841973155737], [-0.0010201894911006093, -0.007470239885151386, -0.011136440560221672, -0.003837354015558958, -5.772742224507965e-05, -8.801942021818832e-05, -6.77661519148387e-05, -0.00011736364831449464, 0.0046052527613937855, -0.0062471372075378895, -0.0003929987142328173, -0.0011195220286026597, -0.000696641334798187, -9.616895840736106e-05, 0.001406135968863964, -0.002566930605098605], [-0.00039277467294596136, -0.00424548564478755, -0.00596315274015069, -0.008719122968614101, -0.00011740256013581529, -0.00010135665797861293, -7.179272506618872e-05, -0.00012349191820248961, 3.7297217204468325e-05, -8.09513803687878e-05, -0.0005737039027735591, -0.011264840140938759, 0.0038966669235378504, -0.00011251877731410787, 0.001391471247188747, 0.002473405795171857], [0.0008132989751175046, 0.00787672121077776, 0.002105606719851494, 0.004936280660331249, -0.00010268156620441005, -0.00022117835760582238, -0.00020624710305128247, -0.00018185042426921427, -0.003376984503120184, -0.0037762713618576527, -3.0453378712991253e-05, 0.0045567168854177, -0.007307023741304874, -0.00018065115727949888, -0.016232090070843697, 0.005749406758695841], [-0.0010309031931683421, -0.01117183268070221, -0.004677680786699057, -0.008886328898370266, -1.234303545061266e-05, 1.6591340681770816e-05, -4.630468993127579e-06, -1.707557385088876e-05, -0.003979002591222525, -0.001917908899486065, -0.0009212589939124882, -0.012821920216083527, 0.004240400157868862, -2.2996489860815927e-05, 0.025492137297987938, 0.0031419063452631235], [0.0003396289248485118, -0.002079043770208955, -0.006099206395447254, -0.00851370021700859, -5.3541003580903634e-05, -7.0847941969987e-05, -8.052303019212559e-05, -9.30278401938267e-05, 0.0067445808090269566, 0.008897732011973858, -6.122569175204262e-05, 0.002845891984179616, 0.010649307630956173, -8.080048428382725e-05, -0.01742459274828434, -0.014348501339554787], [-0.00023078604135662317, 0.01000297348946333, 0.002115471987053752, -0.0004911524010822177, -0.00013436225708574057, -0.000165518416906707, -0.00031380707514472306, -0.00016363448230549693, -0.006558422930538654, -0.0017641757149249315, -0.0007649314939044416, -0.0037054603453725576, 0.0009565803338773549, -0.0001372090046061203, -0.008562267757952213, 0.007781060412526131], [-0.00010540801304159686, 0.005895667243748903, -0.0016609003068879247, -0.004934418946504593, -8.812926353130024e-06, 2.6526655346970074e-05, -9.758810847415589e-06, -6.652734555245843e-06, -0.008509691804647446, -0.006410947069525719, -0.00040535107837058604, 0.008329462260007858, 0.004218383226543665, -4.866264862357639e-05, -0.007398654241114855, -0.0022632929030805826], [-0.0006782968412153423, 0.0001494370080763474, -0.007821419276297092, -0.0010352758690714836, -8.242994226748124e-05, -4.021099357487401e-06, -2.6566689484752715e-05, -5.135458195582032e-05, -0.0028370588552206755, -0.002841400448232889, -0.000680876022670418, -0.006891895085573196, -0.010080267675220966, -0.00010535443288972601, 0.020355863496661186, -0.0006724415579810739], [-0.0004403273924253881, 0.0013024964137002826, -0.0030290347058326006, -0.00043120721238665283, -0.00011858078505611047, -0.00010875054431380704, -0.000147620405186899, -0.0001535923802293837, -0.003971763886511326, -0.0049509513191878796, -0.0005864085978828371, -0.0004811005783267319, -0.003932174760848284, -0.0001758610742399469, 0.0060158055275678635, 0.0025446214713156223], [-3.398471017135307e-05, 0.00016314875392708927, -0.002031463198363781, -0.0031681556720286608, -6.449584907386452e-05, 4.13536736232345e-06, -3.6613524571293965e-05, -6.532650877488777e-05, -0.004571607336401939, 0.00015255789912771434, -0.0004160543030593544, -0.0037421348970383406, -0.0036119220312684774, -0.00013100264186505228, 0.013012018986046314, -0.0016913899453356862]], "layer_2_biases": [0.12126050144433975, 0.019528828561306, 0.02398475632071495, 0.02417362853884697, -0.018718115985393524, -0.04805731400847435, -0.09260613471269608, -0.025191690772771835, 0.03184295445680618, -0.042014915496110916, -0.08084622025489807, -0.04819730669260025, 0.0023957649245858192, -0.021654419600963593, -0.13946934044361115, 0.058488886803388596], "layer_2_weights": [[0.0008130044443532825, -0.009995341300964355, 0.0005649749655276537, -0.014553183689713478, 8.000907882887986e-07, -0.002992649795487523, -0.007742922753095627, -2.3502154363086447e-05, -0.000747094803955406, -0.008305426687002182, -4.906225512968376e-05, 0.0017327836249023676, -0.004807089455425739, 0.009681900031864643, 0.0016839472809806466, 0.0006371769704855978], [-0.0016118583735078573, 0.005739670246839523, 0.0006456183036789298, 0.001503708423115313, -0.00010436206503072754, 0.001918700523674488, 0.004146879073232412, -0.00016224310093093663, -0.00021257663320284337, 0.008216788060963154, -0.0001388677628710866, 0.0016895855078473687, 0.001938910805620253, -0.002366427332162857, 0.008800704963505268, 0.000386678846552968], [-0.0002948388864751905, 0.0005753172445110977, 0.0009486859780736268, -0.0017853403696790338, -3.178267434122972e-05, -0.004164019133895636, -0.006902068853378296, -0.00013502463116310537, -0.00054064771393314, -0.004925242159515619, -0.00014736571756657213, 2.5028524760273285e-05, -0.002766024088487029, 0.001271945657208562, -0.012297093868255615, 0.0008839189540594816], [0.0010114983888342977, 0.002320506377145648, 0.0005779695347882807, -0.0003934690321329981, 7.929462299216539e-05, -0.001942356931976974, -0.015153400599956512, 8.658004662720487e-05, -0.0013427410740405321, 0.0013069548876956105, 7.322747842408717e-05, -0.007020042277872562, -0.0024021612480282784, 0.004783229902386665, -0.008949820883572102, 0.0003438662679400295], [-0.00085684924852103, -0.009435264393687248, -0.0007499772473238409, -0.01467091590166092, -4.0723007259657606e-05, 0.004750970285385847, 0.007880131714046001, -7.002287748036906e-05, 0.000554633850697428, -0.024487705901265144, -2.9937020372017287e-05, -0.01686379499733448, 0.01519414409995079, -0.0007132382015697658, 0.017170343548059464, -0.000510126817971468], [0.0007550018490292132, -0.007393342442810535, -0.0006746607250533998, 0.001955226296558976, 0.00020669095101766288, -1.7190914149978198e-05, -0.0011521027190610766, 0.00026910335873253644, 8.731855632504448e-05, -0.013213747180998325, 0.0002400869270786643, 0.0010271742939949036, 0.01863047480583191, -0.005863311234861612, -0.01003116462379694, 6.852590740891173e-05], [-0.0010025235824286938, 0.00021713439491577446, -0.0002015188947552815, -0.00735585717484355, -7.953021849971265e-05, 0.00040325327427126467, -0.002749806037172675, -0.00012008097110083327, 0.00031206864514388144, 0.0009063914185389876, -0.00011947423627134413, 0.0011515001533553004, 0.0019995716866105795, 0.0027035290841013193, 0.010140029713511467, -0.00024188950192183256], [-0.0003583475772757083, -0.00979732908308506, -0.0011095504742115736, -0.009083585813641548, -0.00013044026854913682, -0.001009643543511629, 0.01970987394452095, -0.00013083902013022453, 0.001792981754988432, -0.017259443178772926, -0.00011763765360228717, 0.0005597540293820202, -0.007493756711483002, -0.0023135454393923283, 0.00811398308724165, -0.0006455752882175148], [0.0005979178240522742, 0.00228177011013031, 0.0007497267797589302, 0.0032340344041585922, -8.455433999188244e-05, -0.0005141539149917662, -0.002925800159573555, -0.0001780915481504053, 7.33090128051117e-05, -0.0039023871067911386, -0.00015612872084602714, -0.008814403787255287, -0.005808610934764147, 0.0026232218369841576, -0.010362734086811543, 0.0002016257931245491], [-0.0009496869170106947, -0.009730302728712559, -0.0002755484892986715, -0.010906737297773361, -1.5895826436462812e-05, 0.004358325153589249, 0.02194715477526188, -2.1818288587382995e-05, 0.0005633585387840867, -0.008502387441694736, -1.6680594853824005e-05, -0.00022411732061300427, 0.0005776878097094595, 0.0005758159677498043, 0.02401077188551426, -5.534926458494738e-05], [0.00015421159332618117, -0.0005419479566626251, 0.0009919835720211267, -0.006558658089488745, -9.700416558189318e-05, -0.008660132996737957, -0.01612963154911995, -0.00012240717478562146, -0.001997600309550762, -0.008311912417411804, -0.00011179885041201487, -0.0005336512695066631, -0.003326133359223604, -0.0010476759634912014, -0.017261477187275887, 0.0013909389963373542], [-0.00011121217539766803, -0.000425412057666108, 0.00030338624492287636, 0.004990764427930117, -3.398986518732272e-05, -0.0019450366962701082, 0.013825391419231892, -0.00014236918650567532, -6.74076218274422e-05, -0.008331582881510258, -9.078541188500822e-05, -0.0031790011562407017, -0.008274270221590996, -0.007230461575090885, -0.006747653242200613, 0.0004467846592888236], [-0.0002134961396222934, 0.008573905564844608, 0.000830682460218668, 0.0036892793141305447, -4.477735637919977e-05, -0.0015347335720434785, -0.010012436658143997, -1.4353066944750026e-05, -0.0017756960587576032, -0.00017988648323807865, 3.4220097404613625e-06, -0.0126612838357687, 1.9217470253352076e-05, -0.004476506263017654, -0.009356952272355556, 0.0006845418829470873], [-0.0006100195460021496, 0.0006227828562259674, 0.00015627765969838947, -0.0043644048273563385, -0.00010753858077805489, 0.0030413116328418255, 0.013780354522168636, -5.7282912166556343e-05, -0.0003537670418154448, 0.009344123303890228, -6.090906754252501e-05, 0.0002062894927803427, -0.015036281198263168, 0.003726244904100895, 0.02474226988852024, -0.0001715650432743132], [-0.00039518665289506316, 0.0005373031017370522, -0.00012391315249260515, -0.0008786995895206928, -8.472597983200103e-05, 0.0024394516367465258, 0.005218180827796459, -0.00014884817937854677, 0.00010925815877271816, 0.0023037760984152555, -0.00011008392175426707, -0.0046648322604596615, -0.004291498102247715, 0.000986186321824789, 0.011229495517909527, -0.0003646193363238126], [-0.00010666537855286151, -0.0007497452897951007, 0.0004947269335389137, -0.003180277766659856, -0.00010340499284211546, 0.00200302223674953, 0.009569911286234856, -7.046115933917463e-05, -0.0006765354773961008, 0.0005866585997864604, -5.1933518989244476e-05, -0.004625971429049969, -0.009848111309111118, 0.002179497852921486, 0.013738480396568775, 0.00021148956147953868]], "layer_3_biases": [0.33525702357292175, -0.005671625025570393, 0.03159797564148903, -0.11624128371477127, -0.013948223553597927, 0.026812409982085228, 0.06164649501442909, -0.0741199404001236, 0.03808431699872017, -0.02663276344537735, 0.008407019078731537, -0.032608140259981155, 0.03470014035701752, 0.028186606243252754, -0.033800117671489716, 0.014604803174734116], "layer_3_weights": [[0.00027288784622214735, 0.011465969495475292, 0.0014086643932387233, -0.012180057354271412, -3.3656069717835635e-05, -0.0034748937468975782, -0.005098698195070028, -4.124582846998237e-05, -0.0014542661374434829, 0.01995418220758438, 0.0012221636716276407, -5.22117770742625e-05, 0.001996409147977829, -0.0008036758517846465, 0.006761491764336824, -0.008552944287657738], [-0.0010386283975094557, -0.008595467545092106, 0.0007861820049583912, 0.007294817827641964, -0.00011406471458030865, -0.002204500138759613, -0.002340101869776845, -0.000148557432112284, -0.0005797684425488114, -0.01127985306084156, -0.005452158395200968, -0.00015586278459522873, 0.0009602308855392039, -0.0001347471261397004, -0.0011694261338561773, 0.009571732021868229], [-0.00020188532653264701, 0.0017775691812857985, 0.0003906066413037479, -0.003496636403724551, -7.010510307736695e-05, 0.00038462114753201604, -0.007044503465294838, -0.00011301586346235126, 0.00013346040213946253, 0.003848280059173703, -0.0038081540260463953, -0.0002990253269672394, -4.5284283260116354e-05, -0.0001618603419046849, 0.005121041554957628, 0.003156171180307865], [0.0005223916377872229, 0.0035867022816091776, 0.000914038042537868, 0.002117529744282365, 6.924173794686794e-05, 0.006173291709274054, -0.011149192228913307, 7.919743802631274e-05, -0.0016449142713099718, 0.010315102525055408, 0.004510269500315189, 5.770781353930943e-05, 0.0010098498314619064, -0.0004379042366053909, 0.004292849451303482, -0.0003088062512688339], [-0.00034416234120726585, 0.000971697096247226, -0.0003774731303565204, 0.01971655897796154, -4.169277599430643e-05, 0.00039170958916656673, -0.005005317740142345, -6.218253838596866e-05, 2.4805674911476672e-05, 0.005105210933834314, -0.004200865514576435, -2.1817746528540738e-05, 0.0003406192408874631, -0.0007720112917013466, -0.03277542069554329, -0.006861701142042875], [0.00042133586248382926, 0.0016993919853121042, -0.0007845780928619206, -0.008291855454444885, 0.00022814152180217206, 0.00094262370839715, 0.009616957977414131, 0.00025456908042542636, 0.0002736925089266151, 0.007937951013445854, 0.0013097180053591728, 0.0003264700062572956, 8.731511479709297e-05, -1.6465226508444175e-05, -0.013129291124641895, -0.01266021840274334], [-0.0006858444539830089, -0.003514642361551523, -0.0005842606769874692, 0.0009597970056347549, -0.0001014780136756599, -0.0017974601360037923, -0.005197014659643173, -0.00011180539877386764, 0.000654112605843693, 0.0025794808752834797, -0.0038730166852474213, -8.503470598952845e-05, -0.0005094492225907743, 7.509282295359299e-05, 0.0017733915010467172, 0.0033173169940710068], [6.3877560023684055e-06, 0.007822031155228615, -0.0006628977134823799, -0.0028797551058232784, -0.00012070721277268603, -0.009791229851543903, 0.01198448147624731, -0.00012535728455986828, 0.0015308995498344302, -0.003455339465290308, -0.0054435040801763535, -0.00010225918231299147, -0.0008218045113608241, 0.00018542639736551791, -0.004350284580141306, -0.007996273227036], [0.0005600042641162872, 0.0031947484239935875, 0.001239742268808186, 0.010102521628141403, -0.00011444353003753349, 0.004930274561047554, -0.011725828051567078, -0.00018680829089134932, -0.0006646025576628745, -0.0015321682440117002, -0.0007762137684039772, -0.0002620429440867156, 0.00040317466482520103, -0.0003550810506567359, -0.006698669865727425, 0.0070077418349683285], [-0.00044508514110930264, 0.002446971135213971, 0.00094062858261168, 0.0016334194224327803, -1.355942731606774e-05, -0.010436167940497398, 0.011139752343297005, -2.0532161215669475e-05, -0.0007334293914027512, -0.0018301710952073336, -0.002997709671035409, -9.427265467820689e-06, 0.0017530900659039617, -0.000597122882027179, -0.01574944704771042, -0.007045526523143053], [-0.00031594419851899147, 0.006302219349890947, 0.0012243988458067179, -0.008488898165524006, -0.00011339294724166393, -0.000254825281444937, -0.009783132001757622, -0.00011167412594659254, -0.0019957430195063353, 0.0122985215857625, -0.003043816424906254, -9.125428914558142e-05, 0.0020704877097159624, -0.00037368424818851054, 0.016323840245604515, -0.0038515457417815924], [9.229370334651321e-05, 0.006423089187592268, -9.719363879412413e-05, 0.004149181302636862, -3.205073517165147e-05, -0.00426653865724802, 0.009868687018752098, -0.00012298217916395515, 0.0005390755832195282, -0.011551683768630028, -0.002441289834678173, -0.00024623743956908584, -0.0005383004317991436, 0.00017919891979545355, -0.0006436711410060525, -0.001964881783351302], [-0.00018018105765804648, -0.004517856985330582, 0.0012660406064242125, 0.015264388173818588, -3.488100628601387e-05, 0.005666408222168684, -0.013167865574359894, -1.3621897778648417e-05, -0.0022692654747515917, -0.0022329031489789486, -0.0009379828698001802, -3.389281118870713e-06, 0.0017132690409198403, -0.0004131621099077165, -0.00015550227544736117, 0.005073048174381256], [-0.0001979164662770927, 0.002737846691161394, -0.0003675213665701449, 0.005599147640168667, -9.562601189827546e-05, -0.006290053483098745, 0.0071654110215604305, -6.087278961786069e-05, 0.0004096859775017947, -0.008035983890295029, 0.002605091081932187, -2.5467455998295918e-05, -0.0006347459857352078, 0.0001518161443527788, 0.006906474009156227, 4.772790634888224e-05], [-4.855931911151856e-05, -0.0003537667216733098, -0.0007619655807502568, 0.008860916830599308, -9.963179036276415e-05, -0.0010681264102458954, 0.0003288683947175741, -0.00013504458183888346, 0.0008381882798857987, -0.00546681322157383, 0.0004341365129221231, -0.000137336493935436, -0.0012123574269935489, 0.00015677402552682906, -0.0029144955333322287, 0.00130241340957582], [0.0001613118511158973, 0.0035224228631705046, -7.29570965631865e-05, 0.007670970167964697, -7.490139250876382e-05, -0.0037908644881099463, 0.0034896107390522957, -5.647333091474138e-05, 0.00010824740456882864, -0.0030293602030724287, 0.0016986143309623003, -1.6479876649100333e-05, -0.00033135045669041574, -5.42680973012466e-05, -0.0010336622362956405, -0.001257026568055153]], "layer_4_biases": [0.3191971480846405, -0.03310758247971535, -0.005686899181455374, -0.018027763813734055, -0.03765267878770828, 0.06265458464622498, -0.10476274788379669, -0.1581365466117859, -0.03966324403882027, 0.007775953039526939, 0.016129978001117706, 0.0039380998350679874, -0.027746688574552536, 0.02338382974267006, -0.03606761619448662, 0.029057858511805534], "layer_4_weights": [[-0.0005406144773587584, 0.014399158768355846, 0.00982612557709217, -0.00809845793992281, -5.1282324420753866e-05, -0.001466927700676024, -0.02340618520975113, -6.603791553061455e-05, -0.0031765317544341087, -0.006840623915195465, -0.004749621730297804, -0.0064702630043029785, 0.013479380868375301, -0.0008154894458130002, 0.0013597368961200118, -0.004477694630622864], [-0.0001033390944940038, -0.01126416027545929, -0.010506544262170792, 0.010450673289597034, -0.0001011812491924502, -0.0003713971527758986, 0.01299244724214077, -0.00012236073962412775, 0.007615820970386267, 0.011802881956100464, -0.0011860461672767997, -0.0008982960716821253, -0.000990871456451714, -0.0003060570452362299, 0.015498937107622623, 0.0023114157374948263], [-0.00021962614846415818, 0.0043195635080337524, -0.003002926940098405, 0.0010165339335799217, -5.510807386599481e-05, 0.00023256942222360522, -0.012500390410423279, -0.00010278519039275125, 0.007572697009891272, 0.007117416709661484, 0.0005902713164687157, -0.002089031506329775, 0.003504940075799823, -0.00011351899593137205, 0.011242956854403019, 0.0010429603280499578], [-0.0003095158317591995, 0.00999287236481905, 0.00616599153727293, -0.0014819939387962222, 5.3467061661649495e-05, -0.0012578364694491029, -0.013071880675852299, 6.24290551058948e-05, -0.010620560497045517, -0.0045299525372684, 0.002548160497099161, 0.002133765956386924, 0.003052022773772478, -0.00047214527148753405, -0.017903150990605354, 0.005170868244022131], [-0.00019018900638911873, 0.0092619638890028, -0.017685364931821823, -0.009870658628642559, -5.9195226640440524e-05, -4.3037776777055115e-05, 0.004481705371290445, -3.994536746176891e-05, 0.01128392294049263, -0.01649395190179348, -0.00023945608700159937, 0.0005957187386229634, 0.0023075067438185215, -0.00012029560457449406, -0.011088607832789421, -0.008312775753438473], [0.00026712738326750696, -0.003743310458958149, 0.0033334216568619013, -0.014732209034264088, 0.00021600269246846437, 0.0003520780010148883, -0.0013568097492679954, 0.00024705956457182765, -0.00579109275713563, -0.017536673694849014, 0.0018523805774748325, 0.005318035837262869, -0.011214597150683403, 0.00041404549847356975, -0.021442998200654984, -0.007339967414736748], [-0.00016583495016675442, -0.00530420383438468, -0.009091085754334927, 0.002128703985363245, -8.829561556922272e-05, 0.00020211255468893796, 0.0024830761831253767, -9.79630567599088e-05, 0.005294629372656345, 0.0025628323201090097, -0.0018781991675496101, -0.0028648769948631525, 0.002826407551765442, -3.205097164027393e-05, 0.0114026740193367, -0.003587165614590049], [4.669010013458319e-05, 0.0067800479009747505, -0.004940108861774206, -0.005700042471289635, -0.00010829482198460028, 0.00048193958355113864, 0.0005325129604898393, -0.00011291953705949709, 0.012153157964348793, 0.0005580118740908802, -0.0049563138745725155, -0.006358576938509941, 0.011392905376851559, 4.7936260671122e-05, 0.01809769682586193, -0.007992268539965153], [3.153277430101298e-05, 0.014401914551854134, 0.001144573325291276, 0.00417518662288785, -0.00014675756392534822, -0.0008731335401535034, -0.0089278444647789, -0.0001902038202388212, 0.008519155904650688, 0.010497466661036015, 0.0019622573163360357, -0.0008443121332675219, 0.0027038087137043476, -0.0005115988315083086, -0.007699107751250267, 0.006751760374754667], [-0.00018599332543089986, 0.0031709533650428057, -0.0008689655223861337, -0.0037878979928791523, -8.241780051321257e-06, -0.0009434225503355265, 0.007406241726130247, -8.19482283986872e-06, 0.006212701555341482, -0.006108869798481464, -0.007860329002141953, -0.006598592735826969, 0.007188336458057165, -0.0005311191780492663, 0.010443422012031078, -0.007709689904004335], [-0.0006421674625016749, 0.0035493390168994665, -0.0034597478806972504, -0.005597449839115143, -9.956906433217227e-05, -0.001155983074568212, -0.012049746699631214, -0.0001056332330335863, -0.007746807765215635, -0.0035960408858954906, 0.0012158617610111833, 0.0002549921628087759, 0.012248175218701363, -0.0005591734079644084, 0.0046055554412305355, -0.0005365181714296341], [9.667177801020443e-05, 0.004422060213983059, -0.0022506797686219215, -0.001162114436738193, -3.891484811902046e-05, 0.00017864453548099846, 0.007189576048403978, -9.735512867337093e-05, 0.002210603328421712, 0.004922554828226566, 0.00010598482913337648, 0.00019033685384783894, 0.006356379948556423, -9.394156222697347e-05, 0.009332873858511448, -0.00023520896502304822], [0.00010249133629258722, 0.00034894028794951737, -0.010804442688822746, 0.0018427401082590222, -2.5726823878358118e-05, -0.00037218318902887404, 0.006582938134670258, -1.0753526112239342e-05, -0.006949585396796465, -0.0019907208625227213, 0.004762241616845131, 0.006046047899872065, 0.0010694378288462758, -0.0001962508395081386, -0.00510347681120038, 0.00597273139283061], [-0.00013964364188723266, 0.0028160216752439737, 0.0005698032327927649, 0.005373338237404823, -9.388512989971787e-05, -8.812812302494422e-05, 0.010349499061703682, -7.778951112413779e-05, -0.004325243644416332, 0.001515603275038302, -0.004865992348641157, -0.004131253808736801, 0.012158914469182491, -0.00021459597337525338, 0.016360992565751076, 0.0003633582091424614], [6.229442806215957e-05, 0.0014661021996289492, -0.003270925022661686, 0.0021379883401095867, -0.00011366810213075951, 0.0008396214689128101, 0.008019066415727139, -0.00012822277494706213, 5.209375376580283e-05, -0.000804644136223942, -0.0010035645682364702, -0.00029728852678090334, 0.004254312254488468, 0.0002372078160988167, 0.009088181890547276, 0.00038332759868353605], [-1.5212484640869661e-06, 0.007724801078438759, 0.0009956005960702896, 0.0008872635080479085, -7.196821388788521e-05, 5.563754712056834e-06, 0.004412291571497917, -6.142305937828496e-05, -0.0025469267275184393, -0.0015735452761873603, -0.002760575618594885, -0.0017628782661631703, 0.009125933051109314, -0.00015937631542328745, 0.008589196018874645, 0.0013461948838084936]], "output_biases": [0.8936971426010132, 0.01401892863214016], "output_weights": [[1.1381030082702637, -0.03586597368121147], [1.1310216188430786, 0.3410296142101288], [0.4327397644519806, 0.29159921407699585], [-1.296034574508667, 0.2989576458930969], [0.9826331734657288, -0.08250706642866135], [0.3135298490524292, -0.19313989579677582], [0.7700684070587158, -0.6922428607940674], [0.7648608684539795, -0.10819505155086517], [0.5376240611076355, -0.3468756675720215], [0.9129543900489807, 0.47149282693862915], [-0.5242884755134583, -0.12275034189224243], [0.55299311876297, -0.25473135709762573], [-0.3433617651462555, 0.38743653893470764], [0.0010813612025231123, -0.08076357841491699], [0.3636907935142517, -0.9406110048294067], [0.592396080493927, 0.2817816436290741]]}, "hk_disentangled_rnn/~update_latents/update_net_2": {"input_biases": [0.0005389983998611569, 0.04566880315542221, -0.11974295973777771, -0.11024259030818939, 0.210640087723732, -0.08602721244096756, 0.032485995441675186, -0.08426522463560104, -0.07059912383556366, -0.07870064675807953, 0.06883777678012848, 0.09773385524749756, -0.27166345715522766, -0.041244469583034515, 0.05433594807982445, -0.0966433510184288], "input_weights": [[-0.3469318747520447, 0.6965017914772034, 0.48225244879722595, 0.5861059427261353, -0.10106322169303894, 0.7768154740333557, 0.22938774526119232, 0.7014109492301941, 0.8633235692977905, 1.286344051361084, -0.6801083087921143, -0.548424243927002, 0.006743195001035929, 0.09952899813652039, -0.7407237887382507, -0.007389146834611893], [-0.09168708324432373, -0.20929402112960815, -0.2537762224674225, 0.02385849319398403, -0.45456424355506897, 0.043024975806474686, -0.010950028896331787, 0.09575924277305603, -0.42864394187927246, 0.1509382128715515, 0.9185797572135925, -0.09362401813268661, 0.7965424060821533, 0.5981897711753845, 0.3274940252304077, 0.17066510021686554], [-0.13742125034332275, -0.31704121828079224, -0.30374616384506226, -0.721041202545166, 0.5372621417045593, -0.44924262166023254, -0.15197180211544037, 0.34398478269577026, 0.18771381676197052, 0.4320698082447052, -0.0545785091817379, -0.7833872437477112, 0.0532258115708828, 0.39025238156318665, 0.027209114283323288, 0.010183517821133137], [-0.8805128335952759, 0.023605303838849068, -0.4174210727214813, -0.3684369921684265, 0.07864265888929367, 0.15864646434783936, -0.31475260853767395, 0.01239381730556488, 0.023541027680039406, 0.17290224134922028, -0.3404064178466797, -0.07771116495132446, -0.48054882884025574, -0.05897512659430504, 0.3973362445831299, 0.1769678145647049], [0.5084969997406006, -0.04399992525577545, -0.8906294107437134, 0.23849131166934967, 0.23860178887844086, -0.08170367777347565, -0.18581262230873108, 0.6941676139831543, 0.04395844787359238, -0.4789939522743225, -0.07697505503892899, 0.517300546169281, -0.24767251312732697, 0.3958228528499603, 0.2273847907781601, 0.026118194684386253], [0.4400465488433838, -0.018688496202230453, -0.11991094052791595, -0.3414144814014435, -0.11375468224287033, -0.036266520619392395, 0.27789828181266785, 0.28503382205963135, 0.22716347873210907, -0.4792978763580322, 0.5210902094841003, 0.4029047191143036, -0.18806321918964386, -0.22867190837860107, -0.11871503293514252, 0.20405694842338562], [0.7074853777885437, -0.4158255457878113, -0.10712483525276184, -0.17865608632564545, -0.680641233921051, -0.13590653240680695, -0.23178763687610626, 0.04493078961968422, 1.0069797039031982, -0.11293614655733109, -0.549288272857666, 0.6826378703117371, 0.047756727784872055, 0.32450804114341736, -0.3969501852989197, -0.45216572284698486]], "layer_0_biases": [-0.02460348606109619, -0.013203631155192852, -0.016624469310045242, -0.031588807702064514, -0.1243586465716362, -0.03085356205701828, 0.041743963956832886, -0.022628746926784515, -0.11072999984025955, -0.031943611800670624, 0.08767860382795334, 0.10523339360952377, -0.15595673024654388, -0.0054543400183320045, 0.09677417576313019, -0.06854225695133209], "layer_0_weights": [[7.499210914829746e-05, -7.559511141153052e-05, 0.00010941368964267895, 9.065983613254502e-05, 1.026319841912482e-05, -0.00015758939844090492, -0.00039804866537451744, -0.0001626777957426384, -2.4955639673862606e-05, -5.31342857357231e-06, 0.000292223587166518, 0.00016625740681774914, -2.359338577662129e-05, -0.00010266292520100251, 0.00023360043996945024, -0.0001986289134947583], [-0.0001353161787847057, 0.00013144475815352052, -0.00018034552340395749, -0.00014937185915187, -0.00016163184773176908, 0.00020395350293256342, 0.0007722598384134471, 0.00023902504472061992, 3.056567220482975e-05, 7.840619218768552e-05, -7.861178164603189e-05, 7.991914026206359e-05, -2.6739218810689636e-05, 0.00015878131671343, -7.290859116437787e-07, 0.0004350903909653425], [-0.0002052488998742774, 0.0002509098849259317, -0.00016912995488382876, -5.227962901699357e-05, 4.794454071088694e-05, -0.0002970800269395113, 0.0002834884508047253, -0.0003061317838728428, 4.3758918764069676e-05, -0.0002193277468904853, 2.5230852770619094e-05, -7.081408693920821e-05, -4.665205324272392e-06, 0.00021025484602432698, 1.106040053855395e-05, 8.526346937287599e-05], [-0.00018170835392083973, 0.00017333324649371207, -0.00018189202819485217, -0.00010812564141815528, -8.046380389714614e-05, 0.00014350008859764785, 0.0007228240137919784, 0.00020926322031300515, 5.70781048736535e-05, -6.257180939428508e-05, -8.257152330770623e-06, 0.00016463933570776135, -1.3069371561869048e-05, 0.00016749603673815727, 0.00011939836986130103, 0.00042821449460461736], [4.9966129154199734e-05, -4.856666055275127e-05, 6.260339432628825e-05, 5.720034096157178e-05, 1.2438594239938539e-05, -0.00027466341271065176, 0.0002427823783364147, -0.0003017507551703602, -9.706203854875639e-05, -1.7221953385160305e-05, -0.0001488746056566015, -0.0001507109118392691, -5.332356886356138e-05, -3.940401802537963e-05, -0.00017747470701579005, -0.0003177883627358824], [-2.298890467500314e-05, 1.5946325220284052e-05, -0.00012728032015729696, -0.00010739327262854204, -0.00019032163254451007, 0.00033063700539059937, 0.0006170193664729595, 0.0003687565040308982, 3.7716705264756456e-05, 0.00024179757747333497, -3.8246726035140455e-05, 9.60975157795474e-05, -1.9054381482419558e-05, 9.551660332363099e-05, 3.090698010055348e-05, 0.0005320811760611832], [-5.6412296544294804e-05, 5.7009852753253654e-05, -0.0001079839639714919, -4.6792669309070334e-05, 1.663972761889454e-05, -6.398560071829706e-05, -0.00044206803431734443, 2.7357173166819848e-05, -3.7067362427478656e-05, -0.00010625235154293478, -7.161103712860495e-05, -6.216949986992404e-05, -7.824668136890978e-05, 9.651607251726091e-05, -6.984992796787992e-05, 0.00024548883084207773], [7.76190518081421e-06, -1.1896643627551384e-05, -0.0001193907592096366, -0.00010517388000153005, -0.00014259039016906172, 0.00029027473647147417, -0.0002305744419572875, 0.000330962473526597, 4.301416265661828e-05, 0.00022774553508497775, -0.00015411617641802877, -6.317070801742375e-05, -4.169017847743817e-05, 7.592241308884695e-05, -0.00011382020602468401, 0.00046633376041427255], [-0.00015324141713790596, 0.00015606044325977564, -9.678114292910323e-05, -0.00012914753460790962, -0.00013769602810498327, -6.282475078478456e-05, -6.149341788841411e-05, 0.00014380214270204306, -1.9763969248742796e-05, -0.00020952716295141727, 0.0002785894030239433, 0.0001627778256079182, -4.332302705734037e-05, 0.00012376270024105906, 0.0002578251587692648, 0.0004140535311307758], [0.00028723699506372213, -0.0002859729283954948, 0.00025590238510631025, 0.00023742417397443205, 3.581692362786271e-05, 0.00037045477074570954, -0.00010697502148104832, 0.00039394418126903474, -9.011550719151273e-05, 0.0003359086695127189, -0.0003936186258215457, -0.0002341986255487427, 0.00016772991511970758, -0.00025828101206570864, -0.00031071077683009207, 0.00047899631317704916], [0.00012319625238887966, -0.0001238447439391166, 0.00014915474457666278, 0.00016973161837086082, -4.9851456424221396e-05, 0.00013284554006531835, -0.0002822217356879264, 0.00012973521370440722, 1.9514234736561775e-05, 6.831430800957605e-05, -0.00015851747593842447, -0.00014809815911576152, 2.8079557523597032e-05, -0.00013488600961863995, -0.00016397111176047474, 7.337802526308224e-05], [0.00015851068019401282, -0.00015058524149935693, 0.00018948213255498558, 0.00014401126827578992, 0.0001055484390235506, -0.00016219764074776322, -4.639971302822232e-05, -0.0001903343218145892, -2.43494869209826e-05, -7.253505464177579e-05, 0.0006675609620288014, 0.0006281349924392998, -5.823467290611006e-06, -0.0001560606760904193, 0.0006384716252796352, -0.0002850741730071604], [0.0001598053058842197, -0.00015030910435598344, 0.00015660683857277036, 5.720628593053334e-08, -5.833664181409404e-05, 0.00021378649398684502, -0.0005496514495462179, 0.00019766998593695462, 9.088514343602583e-05, 0.00016132593736983836, -0.00030136542045511305, -0.00021994658163748682, 6.894316175021231e-05, -9.823138680076227e-05, -0.00026186491595581174, 0.00017237564316019416], [0.00019146755221299827, -0.0001880937779787928, 0.0002163277385989204, 0.00011541316052898765, -3.115800427622162e-05, 0.00019717217946890742, -0.0007335030240938067, 0.0001934272877406329, 6.538266461575404e-05, 0.00017973048670683056, -0.00031790765933692455, -0.00023849256103858352, -2.326502180949319e-05, -0.00019156935741193593, -0.00028481753543019295, 0.00022172958415467292], [0.0001415983133483678, -0.00014231335080694407, 0.00010973889584420249, 0.00026087742298841476, 0.00010878111061174423, 0.0002693947171792388, 7.028065738268197e-05, 8.579962013754994e-05, 1.303470980928978e-05, 0.00021877579274587333, -7.4314734774816316e-06, 0.0002286072849528864, 4.4722190068569034e-05, -0.00012718838115688413, 1.057661029335577e-05, -0.00032748308149166405], [2.696860428841319e-05, -2.1936213670414872e-05, 1.7481304894317873e-05, -2.019452267632005e-06, 4.314381294534542e-05, 1.0558518624748103e-05, -0.0011691602412611246, -5.1651968533406034e-05, -2.0110648620175198e-05, 0.00012687484559137374, 0.0005672235856764019, -6.379652040777728e-05, 3.7223223898763536e-06, 6.677554665657226e-06, 0.0005121260765008628, -7.548091525677592e-05]], "layer_1_biases": [-0.05299754440784454, 0.1139533519744873, -0.016016311943531036, -0.044787272810935974, -0.02825203537940979, -0.02239851839840412, 0.2773090898990631, -0.02198639139533043, -0.06811900436878204, -0.030953269451856613, 0.10228942334651947, -0.004792218096554279, -0.10505824536085129, -0.012200400233268738, 0.0650184154510498, -0.020015466958284378], "layer_1_weights": [[7.488406845368445e-05, 0.00024143165501300246, 0.00010959768405882642, 9.05668202904053e-05, -6.7400719672150444e-06, -0.00015682016965001822, -0.00040615114266984165, -0.00016263918951153755, -2.4750730517553166e-05, -5.738014806411229e-06, 0.00028976070461794734, -0.00010617802763590589, -2.3345968656940386e-05, -0.00010373396071372554, 0.00023362861247733235, -0.00019911550043616444], [-0.0001355392741970718, -1.7253712940146215e-05, -0.000180809831363149, -0.0001492194423917681, -0.0001252792135346681, 0.00020365338423289359, 0.0007797784637659788, 0.00023879615764599293, 3.073802145081572e-05, 7.759910658933222e-05, -7.660638220841065e-05, 9.352252527605742e-05, -2.662573206180241e-05, 0.00015904266911093146, -1.9609281025623204e-06, 0.00043543026549741626], [-0.00020476538338698447, -1.5030403119453695e-05, -0.00016881416377145797, -5.102685099700466e-05, 8.351152246177662e-06, -0.00029883955721743405, 0.00028195325285196304, -0.000307436945149675, 4.3814408854814246e-05, -0.00021941760496702045, 2.4054344976320863e-05, 3.7737609090982005e-05, -4.731199624075089e-06, 0.00020514652715064585, 7.764243491692469e-06, 0.00012054279795847833], [-0.00018207600805908442, 0.00012127155787311494, -0.00018221340724267066, -0.00010801618918776512, -0.0001381103356834501, 0.0001435370068065822, 0.0007286249310709536, 0.00020887854043394327, 5.707054151571356e-05, -6.388466863427311e-05, -5.280221557768527e-06, 9.701846283860505e-05, -1.2955923921253998e-05, 0.0001675288804108277, 0.00011932635243283585, 0.0004275660030543804], [4.895070378552191e-05, -0.00014594286039937288, 6.303705595200881e-05, 5.5515938583994284e-05, -9.702524948806968e-06, -0.0002759447961580008, 0.00023922570107970387, -0.00030239496845752, -9.704202966531739e-05, -1.8600398107082583e-05, -0.00014947981981094927, -0.00020425172988325357, -5.318727562553249e-05, -3.941998875234276e-05, -0.0001761106395861134, -0.00029473687754943967], [-2.3692846298217773e-05, 1.561402996230754e-06, -0.00012751846225000918, -0.00010726717300713062, 4.161427932558581e-05, 0.00033015309600159526, 0.0006281877285800874, 0.00036855501821264625, 3.6588120565284044e-05, 0.00024156234576366842, -3.437486520851962e-05, 0.00013908433902543038, -1.917071858770214e-05, 9.612898429622874e-05, 3.0332972528412938e-05, 0.0005240103346295655], [-5.721464549424127e-05, -0.0001121393361245282, -2.860381209757179e-05, -6.523153570014983e-05, 1.4284395547292661e-05, 0.00012805468577425927, -0.0001237559481523931, 0.00019006624643225223, 4.137010910199024e-05, -4.479836570681073e-05, -0.0001117411011364311, -1.8933444152935408e-05, -8.186136255972087e-05, 3.016505615960341e-05, -0.00010942657536361367, 0.000299929321045056], [7.249419468280394e-06, -0.00012336942018009722, -0.00011973372602369636, -0.00010494258458493277, 7.07615545252338e-05, 0.0002900712424889207, -0.00021963837207295, 0.0003307510050944984, 4.169108433416113e-05, 0.0002276003360748291, -0.00015033531235530972, 0.00011050455941585824, -4.1579827666282654e-05, 7.687784091103822e-05, -0.00011420677765272558, 0.00046559367910958827], [-0.00015333792543970048, 0.00020670289814006537, -9.755667997524142e-05, -0.00013027319801039994, 8.665731729706749e-05, -5.39663560630288e-05, -5.912988490308635e-05, 0.00014298174937721342, -1.9732007785933092e-05, -0.00020993204088881612, 0.0002789445861708373, -1.2452125702111516e-05, -4.3262411054456607e-05, 0.00012353368219919503, 0.00025511273997835815, 0.00041494512697681785], [0.00028762142756022513, -0.0003517376317176968, 0.0002565179893281311, 0.00023711961694061756, 6.838014087406918e-06, 0.0003691370948217809, -8.505178266204894e-05, 0.0003940780006814748, -9.044720354722813e-05, 0.0003356442612130195, -0.0003869718057103455, -0.00013097049668431282, 0.00016738437989261, -0.00025878468295559287, -0.00031256943475455046, 0.00046667084097862244], [0.00011229927622480318, -0.00017401632794644684, 0.00014581393043044955, 0.00015308243746403605, -0.00010017429303843528, 0.00014835385081823915, -0.0002862789260689169, 0.0001389745739288628, -4.086564149474725e-05, 9.199764463119209e-05, -0.00018957433348987252, -0.000170900093507953, 3.2784402719698846e-05, -0.00012687481648754328, -0.00018781766993924975, 9.152570419246331e-05], [0.00018988800002261996, 0.0008465794380754232, 0.00017877621576189995, 0.00014627304335590452, -4.692003585660132e-06, 0.0001673771912464872, 5.933335614827229e-06, -4.4395317672751844e-05, 8.680894825374708e-05, 0.0002095264062518254, 0.0008860410307534039, -0.00020709101227112114, -1.7879821825772524e-05, -0.0001490846334490925, 0.000875733676366508, -0.00023818037880118936], [0.00015907867054920644, -0.0002636870485730469, 0.00015362835256382823, -1.2694480346908676e-06, -8.243728370871395e-05, 0.00021286642004270107, -0.0005378737696446478, 0.0001977173233171925, 9.186860552290455e-05, 0.00016073677397798747, -0.0002971309295389801, 4.928452835883945e-05, 6.868600030429661e-05, -9.535733261145651e-05, -0.00026098857051692903, 0.00016886353841982782], [0.0001917008776217699, -0.0002955176751129329, 0.0002165935147786513, 0.00011504126450745389, -5.890641477890313e-05, 0.0001970076555153355, -0.0007194836507551372, 0.00019334862008690834, 6.636513717239723e-05, 0.00017937323718797415, -0.0003129511314909905, -3.8013376979506575e-06, -2.1662677681888454e-05, -0.00019186273857485503, -0.0002835736086126417, 0.00022148720745462924], [0.00015622469072695822, -0.0001473183510825038, 0.00013958560884930193, 0.0002004248817684129, -3.8733061956008896e-05, 0.00024581083562225103, 4.1972270992118865e-05, 8.615265687694773e-05, -7.12683367964928e-06, 0.00027198545285500586, -0.00017232926620636135, -2.4770253730821423e-05, 4.1078688809648156e-05, -0.00014762565842829645, -0.00016597045760136098, -0.0002862916444428265], [2.4812623450998217e-05, 0.00045353369205258787, 1.735302430461161e-05, -3.9499036574852653e-07, 7.6085848377260845e-06, 1.5103574696695432e-05, -0.0011681400937959552, -5.2043837058590725e-05, -1.8443335648044012e-05, 0.00012873114610556513, 0.0005784538807347417, 6.248308181966422e-06, 3.951415692426963e-06, 7.506115252908785e-06, 0.000516601197887212, -7.536361226812005e-05]], "layer_2_biases": [-0.01495165005326271, -0.028226787224411964, -0.20942631363868713, -0.07179714739322662, -0.028161222115159035, -0.021682191640138626, 0.07876154780387878, -0.021582145243883133, -0.003639256814494729, -0.028610682114958763, 0.1613471359014511, 0.10790126770734787, -0.08708921074867249, 0.06274110078811646, 0.10685557126998901, -0.02000489830970764], "layer_2_weights": [[7.438318425556645e-05, 3.816936441580765e-05, 0.00010931182623608038, 9.05391716514714e-05, 5.412109203462023e-06, -0.00015671832079533488, -0.00041268006316386163, -0.00016270206833723933, 1.5180523405433632e-05, -7.138655291782925e-06, 0.0002865888236556202, 0.00017844578542280942, -2.3411066649714485e-05, 0.00022526232351083308, 0.00023234455147758126, -0.0001995599886868149], [6.929745268280385e-06, 5.766180038335733e-05, -8.254118438344449e-05, -8.230937964981422e-05, -0.000169506820384413, 0.0002671564870979637, 0.0009485084447078407, 0.0003200342762283981, -4.503279706113972e-05, 0.00022642005933448672, -0.00019282137509435415, -8.368552516913041e-05, -2.9139921025489457e-05, -0.00011773003643611446, -0.0001274264941457659, 0.00047786146751604974], [-0.00020365264208521694, 8.865878044161946e-05, -0.0001689992641331628, -4.981087477062829e-05, -3.5044107789872214e-05, -0.00029896528576500714, 0.00027853099163621664, -0.00030724555836059153, -3.3510277717141435e-05, -0.00021951855160295963, 2.255471372336615e-05, -6.802489951951429e-05, -4.697906206274638e-06, -2.031945768976584e-05, 4.303416972106788e-06, 0.00011679487943183631], [-0.00018257224292028695, -0.00016639191017020494, -0.0001822871417971328, -0.00010791263048304245, -0.00012342139962129295, 0.00014234063564799726, 0.0007310045184567571, 0.00020835363829974085, -9.52002446865663e-05, -6.5603744587861e-05, -1.7375884908688022e-06, 0.0001585435529705137, -1.2875378160970286e-05, 0.00015356444055214524, 0.00012088198855053633, 0.00042760634096339345], [4.86160242871847e-05, 0.00014863743854220957, 6.336134538287297e-05, 5.5147858802229166e-05, 2.1067096895421855e-05, -0.0002761119685601443, 0.00023305237118620425, -0.00030253935256041586, -2.458286689943634e-05, -1.882907235994935e-05, -0.00015200432972051203, -0.00014235980052035302, -5.3015824960311875e-05, -0.00015963056648615748, -0.00017749314429238439, -0.0003020470612682402], [-2.3990274712559767e-05, 7.489583367714658e-05, -0.00012781917757820338, -0.00010707495675887913, -8.498881652485579e-05, 0.0003299737290944904, 0.0006375291268341243, 0.00036838941741734743, -5.045990474172868e-05, 0.00024133049009833485, -2.970296009152662e-05, 8.542592695448548e-05, -1.9105540559394285e-05, 3.060320159420371e-05, 3.155670128762722e-05, 0.0005261587211862206], [0.00018033146625384688, -5.3067135013407096e-05, 0.0001716745609883219, 0.00010047636897070333, 2.2225816792342812e-05, 0.00025927164824679494, -0.0001563524710945785, 0.00027273327577859163, 3.322309203213081e-05, 0.0001994289632420987, -0.00017372153524775058, -0.00015609903493896127, -8.472835179418325e-05, -0.00016352999955415726, -0.00016379648877773434, 0.00030100889853201807], [6.8194167397450656e-06, 4.0891433172873803e-07, -0.00012003796291537583, -0.00010466721141710877, -0.00010683981963666156, 0.00028989146812818944, -0.00021085226035211235, 0.0003305188729427755, -4.364151391200721e-05, 0.00022745097521692514, -0.00014595578250009567, -7.393020496238023e-05, -4.146383798797615e-05, -0.0001021212519844994, -0.00011269884998910129, 0.0004661101847887039], [-0.00015352228365372866, -0.00014026404824107885, -9.816747478907928e-05, -0.00013106594269629568, -0.0001272654189961031, -5.4651278333039954e-05, -5.879095260752365e-05, 0.00014208900392986834, -3.6974910472054034e-05, -0.00021021210704930127, 0.00027911426150240004, 0.00016576862253714353, -4.3240208469796926e-05, 0.0002145458129234612, 0.00025236880173906684, 0.0004161641700193286], [0.000288058741716668, -8.256931323558092e-06, 0.00025697171804495156, 0.0002368370769545436, 5.933955981163308e-05, 0.00036954262759536505, -6.3228806538973e-05, 0.000394240312743932, 6.90627857693471e-05, 0.0003353586362209171, -0.0003781306149903685, -0.0002599649887997657, 0.00016678219253662974, -0.0003184374945703894, -0.0003105006762780249, 0.00046952138654887676], [0.00012763298582285643, 3.569397085811943e-05, 0.00015688984422013164, 0.00014069168537389487, 1.168155995401321e-05, 0.0001533741015009582, -0.00027947028866037726, 0.00013720151036977768, 3.313847992103547e-05, 0.00011163021554239094, -0.00020979394321329892, -0.0001932889863383025, 3.955388456233777e-05, -0.00019564612011890858, -0.00020529345783870667, 0.00011160127905895934], [0.0001900241186376661, 6.396441312972456e-05, 0.00017929135356098413, 0.00014641156303696334, -5.340780262486078e-05, 0.00016740635328460485, 8.519190259903553e-07, -4.509688005782664e-05, 4.8430549213662744e-05, 0.0002093455259455368, 0.0008839448564685881, 0.0010324063478037715, -1.7928345187101513e-05, 0.0008612818201072514, 0.0008761506178416312, -0.00023734895512461662], [0.00015863918815739453, -0.0001546327257528901, 0.00015240287757478654, -1.9998785774077987e-06, -4.060125138494186e-05, 0.00021297957573551685, -0.0005254298448562622, 0.00019781959417741746, 3.6750596336787567e-05, 0.00016024726210162044, -0.00029197210096754134, -0.00023327252711169422, 6.832739018136635e-05, -0.0002553346275817603, -0.0002583728637546301, 0.0001698503619991243], [0.0001919469068525359, 2.057577330560889e-05, 0.0002169383515138179, 0.00011461164831416681, -3.02368189295521e-05, 0.00019692852220032364, -0.0007039910415187478, 0.0001932748855324462, 4.930739669362083e-05, 0.00017897780344355851, -0.0003070436941925436, -0.00025474850554019213, -2.0415218386915512e-05, -0.00028352817753329873, -0.0002800793154165149, 0.00022192172764334828], [0.00018369400640949607, 2.3854101527831517e-05, 0.00015497948334086686, 0.0001866411475930363, 0.0001153920020442456, 3.655834007076919e-05, 2.043025779130403e-05, -4.193306085653603e-05, 3.2700369047233835e-05, 0.0002559980202931911, -0.00023161638819146901, -0.0001785633066901937, 3.814459705608897e-05, -0.00021032568474765867, -0.00021989888045936823, -0.00025034885038621724], [2.4046030375757255e-05, 6.206678335729521e-06, 1.7411961380275898e-05, 3.8668176216560823e-08, -1.749734474287834e-05, 1.6194266208913177e-05, -0.0011679769959300756, -5.396868073148653e-05, 7.327228559006471e-06, 0.0001290780637646094, 0.0005829266156069934, -8.891993638826534e-05, 3.966130861954298e-06, 0.0003949477104470134, 0.0005185822956264019, -7.742921297904104e-05]], "layer_3_biases": [-0.025858301669359207, 0.09972497075796127, -0.07151437550783157, -0.03569074720144272, -0.04350068420171738, -0.021233635023236275, 0.14186382293701172, -0.02193351648747921, -0.0048189545050263405, -0.12081354856491089, 0.0694766715168953, 0.15026192367076874, -0.0662345439195633, 0.09648105502128601, 0.12074074894189835, -0.015571686439216137], "layer_3_weights": [[7.44355347706005e-05, 0.0002294675214216113, 0.00010969311551889405, 9.043548197951168e-05, -6.9488005465245806e-06, -0.0001567469589645043, -0.00042088996269740164, -0.00016268140461761504, -1.1805864232883323e-05, -6.990369456616463e-06, 0.0002829056465998292, 0.00017986549937631935, -2.3172038709162734e-05, 0.000219545720028691, 0.00022925244411453605, -0.0002022864209720865], [7.100371021806495e-06, -0.00012160049664089456, -8.261964831035584e-05, -8.183233148884028e-05, -1.5019066267996095e-05, 0.0002665555221028626, 0.0009566277149133384, 0.00031971800490282476, 9.629772102925926e-05, 0.00022590301523450762, -0.00020322467025835067, -8.352281292900443e-05, -2.9039701985311694e-05, -0.00010775891860248521, -0.00012204817176098004, 0.0003912154061254114], [-0.00019830914970953017, -1.223150047735544e-05, -0.00017041360842995346, -5.833662726217881e-05, -6.927975482540205e-05, -0.00030123553005978465, 0.00027175937430001795, -0.00030608990346081555, 3.9351332816295326e-05, -0.0002192547544836998, 2.324083834537305e-05, -6.402911094482988e-05, -4.838920176553074e-06, -1.8649478079169057e-05, 3.837214990198845e-06, 0.00017674517584964633], [-0.00018337271467316896, 0.00013701675925403833, -0.00018237796030007303, -0.0001077330598491244, -0.00014244292106013745, 0.00013952258450444788, 0.0007322840392589569, 0.00020750125986523926, 5.2775092626689e-05, -6.838381523266435e-05, 3.080732540183817e-06, 0.00016040445188991725, -1.2741108548652846e-05, 0.0001602663251105696, 0.000124619560665451, 0.0004226449818816036], [4.870977136306465e-05, -0.00015505201008636504, 6.382892752299085e-05, 5.478264210978523e-05, 1.4085273505770601e-05, -0.00027626685914583504, 0.0002256632869830355, -0.0003026895865332335, -4.9083428166341037e-05, -1.9090315618086606e-05, -0.0001552260509924963, -0.0001422736095264554, -5.281973790260963e-05, -0.00016434051212854683, -0.00018013788212556392, -0.00025100461789406836], [-2.4509425202268176e-05, 1.958931352419313e-05, -0.00012811175838578492, -0.00010680183186195791, 9.346171282231808e-06, 0.0003299001546110958, 0.0006487000500783324, 0.00036838382948189974, 7.385620847344398e-05, 0.00024110174854286015, -2.4299022697960027e-05, 8.573880768381059e-05, -1.907412843138445e-05, 3.7771671486552805e-05, 3.492751784506254e-05, 0.0004353024996817112], [0.0001730361400404945, -0.00017306304653175175, 0.00016496611351612955, 0.00018271640874445438, -7.47019803384319e-05, 