{"hk_disentangled_rnn": {"choice_net_multipliers": [0.17420336604118347, 1.780603289604187, 1.0488901138305664, 1.0798403024673462, -0.002757519483566284], "choice_net_sigma_params": [0.9965782165527344, 0.004734332207590342, 0.8134313225746155, 0.8564797043800354, 0.9951521158218384], "latent_inits": [0.14466959238052368, -0.026039913296699524, -1.519805908203125, 1.1724529266357422, 0.04010237753391266], "latent_multipliers": [1.0, 1.0, 1.0, 1.0, 1.0], "latent_sigma_params": [0.0033311829902231693, 0.0024594920687377453, 0.03576284646987915, 0.006772378459572792, 0.002258619526401162], "update_net_latent_multipliers": [[1.309977650642395, 2.0763614177703857, 0.08332503587007523, 1.6009877920150757, 1.356166958808899], [1.1819806098937988, 1.26594877243042, 0.46405282616615295, 1.3596138954162598, 0.9055184721946716], [0.5762326121330261, 1.2170382738113403, -0.018962180241942406, 0.30760324001312256, 1.2175827026367188], [0.6661630868911743, 1.7282333374023438, 0.49297401309013367, 1.2364397048950195, 1.4703863859176636], [0.8117991089820862, 1.8227479457855225, 0.36739736795425415, 1.7267149686813354, 1.3145216703414917]], "update_net_latent_sigma_params": [[0.5959804654121399, 0.06808138638734818, 0.9971863627433777, 0.5034860968589783, 0.8618443608283997], [0.8609023690223694, 0.006443137302994728, 0.9942631721496582, 0.16320611536502838, 0.9744052290916443], [0.9821096062660217, 0.06979822367429733, 0.9945958256721497, 0.9725845456123352, 0.06113588064908981], [0.9629707336425781, 0.10534215718507767, 0.9936427474021912, 0.040346529334783554, 0.28095394372940063], [0.9332341551780701, 0.03871624916791916, 0.9932027459144592, 0.5062487721443176, 0.14864857494831085]], "update_net_obs_multipliers": [[1.2780438661575317, 1.4134804010391235, 1.2977635860443115, 1.0721896886825562, 1.1886893510818481], [1.4016166925430298, 1.572367787361145, 1.1822859048843384, 1.3971534967422485, 0.9856921434402466]], "update_net_obs_sigma_params": [[0.17056944966316223, 0.00957468431442976, 0.040810856968164444, 0.22511033713817596, 0.037779610604047775], [0.2831270098686218, 0.027347225695848465, 0.1567848175764084, 0.23379819095134735, 0.16092811524868011]]}, "hk_disentangled_rnn/~predict_targets/choice_net": {"input_biases": [-0.03994384780526161, -0.019742701202630997, 0.016538569703698158, -0.05553273856639862], "input_weights": [[-0.22096841037273407, -0.05376400426030159, -0.7129301428794861, 0.4269171953201294], [-0.5465362071990967, -1.475139856338501, 0.5909090042114258, 1.6286488771438599], [0.5519301891326904, -0.19411228597164154, -0.1370764672756195, 0.28805097937583923], [0.8130480051040649, -0.21268059313297272, 0.6914838552474976, -0.4106171727180481], [-0.34643787145614624, -0.1307986080646515, -0.36985230445861816, -0.291902631521225]], "output_biases": [0.022141214460134506, -0.022141210734844208], "output_weights": [[-0.16586783528327942, 0.6857122182846069], [-0.6081078052520752, 1.3118484020233154], [0.36444970965385437, -0.49966728687286377], [0.32002758979797363, -0.44230398535728455]]}, "hk_disentangled_rnn/~update_latents/update_net": {"input_biases": [0.03645583242177963, -0.05161764472723007, -0.0012883023591712117, 0.07564621418714523, -0.036764852702617645, 0.0024769154842942953, 0.061522167176008224, -0.07008792459964752, -0.08783680200576782, -0.05023513734340668, 0.13941703736782074, -0.09921187162399292, 0.08479321002960205, -0.03949461504817009, 0.07473435997962952, 0.40892335772514343], "input_weights": [[-0.22731778025627136, 1.0322551727294922, 0.20076073706150055, -0.6704923510551453, -0.5461843609809875, 0.43461254239082336, 0.5380568504333496, -0.04016801714897156, 0.29262641072273254, 0.06914311647415161, 0.4515998065471649, 0.3974092900753021, -0.0728742703795433, 0.4325426518917084, -0.36058422923088074, 0.05665009468793869], [-0.8446927666664124, -0.10191243141889572, -0.36193493008613586, -0.21208494901657104, 0.06460744142532349, 0.10365233570337296, -0.10190660506486893, -0.7306833863258362, -0.44093653559684753, 0.03110077790915966, -0.3570765554904938, -0.4571308493614197, -0.0275272186845541, -0.05213344469666481, -0.1358601301908493, 0.640582263469696], [0.1770167350769043, 0.15104806423187256, -0.19470107555389404, -0.24422889947891235, 0.5732478499412537, -0.25923484563827515, 0.4137880504131317, -0.11810141056776047, -0.2375779002904892, 0.32301414012908936, 0.03334353491663933, -0.004533454775810242, 0.023134713992476463, 0.6202778816223145, -0.21687710285186768, 0.055988818407058716], [-0.27737098932266235, 0.009969339706003666, -0.02385868690907955, -0.7972284555435181, 0.15137888491153717, 0.37657520174980164, 0.7419728636741638, -0.45475441217422485, -0.027371063828468323, -0.30116820335388184, -0.07648354023694992, -0.6282306909561157, -0.5398534536361694, 0.46922117471694946, 0.2904045581817627, -0.3340240716934204], [-0.031928326934576035, -0.4611942768096924, -0.31996724009513855, -0.0799531638622284, -0.01221375446766615, -0.7449312806129456, 0.2038901299238205, 0.584427535533905, 0.3231171667575836, -0.11861583590507507, -0.18083789944648743, 0.133096382021904, 0.36285004019737244, 0.1883743852376938, -0.242243230342865, 0.209999218583107], [-0.24768687784671783, -0.1626160740852356, -0.050550106912851334, 0.23101375997066498, -0.372009813785553, 0.43329155445098877, 0.6692326068878174, 0.03661778196692467, 0.15861406922340393, -0.020058946684002876, 0.7573463320732117, 0.21087393164634705, -0.33304479718208313, -0.14689823985099792, -0.4050450026988983, -0.23707155883312225], [0.4640672206878662, 0.0409107469022274, 0.031003573909401894, 0.11515279114246368, 0.46122851967811584, -0.12770313024520874, 0.13771556317806244, 0.16393828392028809, -0.3546413779258728, 0.13255977630615234, 0.34627124667167664, 0.4390466511249542, -0.1365240067243576, -0.49442026019096375, 0.015382186509668827, 0.20710110664367676]], "layer_0_biases": [0.052731748670339584, -0.0017436053603887558, -0.01282444316893816, 0.11255361884832382, -0.002274662721902132, 0.0929659977555275, 0.07623640447854996, -0.018774637952446938, -0.07540097087621689, -0.05084725841879845, 0.16432765126228333, -0.004038744606077671, 0.10339818149805069, -0.0022174904588609934, -0.032062828540802, 0.31542065739631653], "layer_0_weights": [[0.0003742120461538434, -1.2067745046806522e-05, -1.1008664841938298e-06, 0.00058726966381073, -3.174088988089352e-06, -0.0005186686757951975, 9.86617524176836e-05, -2.3080972823663615e-05, -6.232316081877798e-05, -1.0310998732165899e-05, -6.659539940301329e-05, -4.438240466697607e-06, -0.000505870848428458, -4.299922238715226e-06, -5.9686655731638893e-05, -0.0007583645638078451], [-0.0007522805826738477, 2.629904520290438e-05, -5.545477688428946e-05, -0.0012961035827174783, 1.1631011147983372e-05, 0.000855602091178298, -0.0004822655755560845, 1.4021499737282284e-05, 2.584523372206604e-06, 0.00010183543781749904, -0.0006452060770243406, 2.7237869289820082e-05, -0.0003588290128391236, 1.4339304470922798e-05, 8.577066182624549e-06, -0.0004639041144400835], [-1.8376504158368334e-05, 1.4855936569801997e-06, 6.518538430100307e-05, -0.00020808407862205058, -6.385934057107079e-07, 7.5060570452478714e-06, 3.630184073699638e-05, 1.0313845450582448e-05, 6.128494715085253e-05, 7.681710121687502e-05, -0.00013588633737526834, 5.682546088792151e-06, -9.064805635716766e-05, -3.709563543452532e-06, -0.00013410602696239948, -0.00010429082612972707], [0.0004010602133348584, -5.127676558913663e-06, 1.2185150808363687e-05, 0.0007535404292866588, -3.6330877719592536e-06, -0.00048035307554528117, 0.00010715197277022526, 9.54980896494817e-06, 7.316566916415468e-05, -0.00011144884774694219, 0.0003257257048971951, -6.895837032061536e-06, 0.00021118059521541, -6.60169553157175e-06, -3.330600884510204e-05, 0.0001448096736567095], [0.000330176146235317, -1.7008518625516444e-05, -8.042637637117878e-05, 0.0009749174932949245, -5.133576451044064e-06, -0.0006020375294610858, 0.00026144750881940126, -5.570941721089184e-05, 3.648990605142899e-05, -6.314275378827006e-05, 0.0003442471497692168, -1.618069836695213e-05, 0.00017730040417518467, 5.624426080430567e-07, -5.657901056110859e-05, 0.00011131415521958843], [-0.0005491870688274503, 1.3951511391496751e-05, -8.833388164930511e-06, -0.0007164716953411698, 6.155636583571322e-06, 0.0009198393090628088, -0.00019547621195670217, -3.556518549885368e-06, 3.1657455110689625e-05, 7.02728284522891e-05, -0.0003193803713656962, 9.126767508860212e-06, -0.00012712806346826255, 6.372721145453397e-06, 3.3098229323513806e-05, -0.0002448357699904591], [-0.0003554362338036299, 8.163721759046894e-06, -2.219658563262783e-05, -0.0006698495126329362, 3.3509722925373353e-06, 0.00042203039629384875, -9.09413502085954e-05, -2.2024289137334563e-05, -2.7401170882512815e-05, 2.3497532311012037e-05, -0.00029837488546036184, 5.791763669549255e-06, -0.00017448565631639212, 5.8724635891849175e-06, 5.109957328386372e-06, -0.00016589996812399477], [0.0004356105637270957, -4.869484200753504e-06, -5.532729119295254e-06, 0.00014128930342849344, -2.548759084675112e-06, -0.0005062499549239874, 7.826130604371428e-05, -5.6596716603962705e-05, 3.794923395616934e-05, -2.0458694507397013e-06, -8.467510269838385e-06, -1.514534346824803e-06, -0.00018634162552189082, -5.225114364293404e-06, -2.8083872166462243e-05, -3.313391061965376e-05], [0.0004380775208119303, -8.981247674455517e-07, -1.5117709153855685e-05, -0.00045161685557104647, -3.0781893656239845e-06, -0.00024396060325670987, 1.3716622788706445e-06, -0.00010078031482407823, 4.001870547654107e-05, 2.2208309019333683e-05, -0.00031260572723113, -2.2816152522864286e-06, -0.0002730433479882777, -3.897530859831022e-06, 8.775698006502353e-06, -0.00020037390640936792], [-0.0003398933622520417, 1.2126834008086007e-05, 6.760965334251523e-07, -0.0008804358076304197, 8.054497811826877e-06, 0.00047573467600159347, -0.0002732772845774889, -4.239432200847659e-06, -0.0001355011627310887, 7.592268229927868e-05, -0.00021662577637471259, 1.5247982446453534e-05, -8.218556467909366e-05, 1.0632696103130002e-05, -5.927091115154326e-05, -0.00020359059271868318], [-0.00038097662036307156, 1.4221282981452532e-05, 8.76055346452631e-05, -0.0007551165181212127, 4.679033281718148e-06, 0.0005864594131708145, -0.0002055931108770892, 3.41986924468074e-05, 4.501239163801074e-05, 4.1034534660866484e-05, -0.0003603484947234392, 1.2192451322334819e-05, -0.0002116733230650425, 3.212798219465185e-06, 3.6491950595518574e-05, -0.00022878049639984965], [-0.0002802307135425508, 1.2793182577297557e-05, 8.427251304965466e-05, -0.0012372673954814672, 4.453999281395227e-06, 0.00046188535634428263, -0.00012128469097660854, 2.2953065126785077e-05, -7.15016431058757e-05, 2.219629777755472e-06, -0.00045065346057526767, 1.3996585948916618e-05, -0.0003000351134687662, 3.1960730666469317e-06, -2.6828334739548154e-05, -0.00025135010946542025], [-4.8969748604577035e-05, 5.220552452556149e-07, -1.4147351066640113e-05, -0.00017999006377067417, 2.8666588605119614e-06, -0.00012660662468988448, -0.0002681334735825658, 2.840986053342931e-05, 9.55744235398015e-06, -2.145887992810458e-05, -0.00044290212099440396, 1.1630529115791433e-05, -0.00045302475336939096, 1.8266779306941316e-06, -1.0438979188620578e-05, -0.0005236223805695772], [-0.000589064322412014, 1.319832790613873e-05, -1.2538772352854721e-05, -0.0008372619631700218, 1.0816091162269004e-05, 0.0005189621588215232, -0.0002407206775387749, -2.4352773834834807e-05, -6.643264350714162e-05, 9.05842080101138e-06, -0.0004373936099000275, 1.1720707334461622e-05, -0.00029027252458035946, 1.5004839042376261e-05, 4.7220386477420107e-05, -0.00037090727710165083], [0.0007919211057014763, -1.4351992831507232e-05, -4.5437016524374485e-05, 0.001323576900176704, -9.201815373671707e-06, -0.0007491284050047398, 0.00020376942120492458, 5.352290463633835e-05, -0.00010161934915231541, -1.6476962628075853e-05, 0.00046191035653464496, -1.0513270353840198e-05, 0.00023522161063738167, -2.0699153537862003e-05, 2.465448051225394e-05, 0.00028686498990282416], [-1.6550875443499535e-05, 2.6790410174726276e-06, -2.97099268209422e-05, -7.129510777303949e-06, 8.115030709632265e-07, -4.5246897570905276e-06, -4.6869547077221796e-05, 6.427842890843749e-05, -2.3039343432174064e-05, 1.4372270925377961e-05, -0.00022560733486898243, 4.3654827095451765e-06, 5.8980258472729474e-05, 2.010759317272459e-06, 1.694180724598482e-07, -0.0003279978991486132]], "layer_1_biases": [-0.013722487725317478, -0.0017799065681174397, 0.022610154002904892, 0.10278770327568054, -0.002614648314192891, -0.0013414466520771384, 0.09149866551160812, -0.0014347994001582265, -0.003286209888756275, -0.0029861379880458117, 0.16161306202411652, -0.004480817820876837, 0.08359580487012863, -0.0030003956053406, 0.07209911942481995, 0.3128969669342041], "layer_1_weights": [[-8.082679414656013e-07, -1.2588802746904548e-05, 0.0003920661401934922, 0.0006328715826384723, -3.114682158411597e-06, -6.617935014219256e-06, 8.61378139234148e-05, -3.693127382575767e-06, -9.858748853730503e-06, 5.584282007475849e-06, -0.00010579833906376734, -3.5680386645253748e-06, -0.0005268640234135091, -4.0833119783201255e-06, 0.0004912173608317971, -0.0008232764666900039], [-1.1664561498037074e-05, 2.697246236493811e-05, -4.659975820686668e-05, -0.0013227852759882808, 1.1508455827424768e-05, 1.0022619790106546e-05, -0.00047277301200665534, 1.6697826140443794e-05, 2.062073144770693e-05, -9.917840543494094e-06, -0.0006145878578536212, 2.7164753191755153e-05, -0.00035972983459942043, 1.4817410374234896e-05, -0.0009580291225574911, -0.00044966928544454277], [2.4416174710495397e-05, 7.376471700126785e-08, 6.409933121176437e-05, -0.00021058596030343324, -6.753043635399081e-07, 1.1242649122777948e-07, 3.9451206248486415e-05, -3.4724362194538116e-06, -2.151332409994211e-06, 2.617054633446969e-05, -0.00013130225124768913, 5.95383517065784e-06, -9.158698230748996e-05, -4.701661964645609e-06, -0.00017307678353972733, -0.00010197004303336143], [1.1076293731093756e-06, -6.273218787100632e-06, 1.4643269423686434e-05, 0.000770950922742486, -4.411866939335596e-06, -9.092112122743856e-06, 0.0001321683666901663, -8.117902325466275e-06, -1.350631737295771e-05, 9.087318176170811e-06, 0.0002947730536106974, -6.88664113113191e-06, 0.00018401596753392369, -9.036903065862134e-06, 0.0005245620268397033, 0.00010490488057257608], [-1.9165395315212663e-06, -1.7062146071111783e-05, 2.3221173250931315e-05, 0.0009879383724182844, -4.8641722969478e-06, -5.146598596184049e-06, 0.0002589214127510786, 1.4259120462156716e-06, 2.869268200811348e-06, 1.3077087714918889e-05, 0.00033035705564543605, -1.610998879186809e-05, 0.00017947086598724127, 1.7276074686378706e-06, 0.0007204021094366908, 0.0001033317603287287], [-3.1815119427847094e-07, 1.215202883031452e-05, -0.00018471704970579594, -0.0006629439885728061, 5.521558705368079e-06, 9.120642062043771e-06, -0.00017770407430361956, 4.3305763028911315e-06, 3.805490223385277e-06, -5.451324796013068e-06, -0.00031443359330296516, 9.137753295362927e-06, -0.00014904704585205764, 6.738900538039161e-06, -0.00048349046846851707, -0.0002509391924832016], [-7.198227194749052e-06, 8.175511538865976e-06, -0.00030965066980570555, -0.0006594554288312793, 2.7939706797042163e-06, 3.2593718515272485e-06, -9.070608211914077e-05, 4.596006419887999e-06, 2.667314220161643e-06, -1.6604868505964987e-05, -0.0003083501651417464, 5.959386726317462e-06, -0.0002001448010560125, 5.600053555099294e-06, -0.00048659424646757543, -0.00019562122179195285], [-1.0356212669648812e-06, -5.456658982438967e-06, 0.0006393635412678123, 0.00014668400399386883, -2.456568154229899e-06, -9.050287189893425e-06, 7.515415200032294e-05, -7.970759725139942e-06, -5.965160198684316e-06, 2.9255568279040745e-06, -9.759130080055911e-06, -1.5668121022827108e-06, -0.0001880568452179432, -6.3866746131679974e-06, 0.00012112899275962263, -3.751011536223814e-05], [1.758538383000996e-05, -1.5714246046627522e-06, 0.00025744520826265216, -0.0004517135675996542, -3.2822256343933986e-06, -6.334613772196462e-06, 2.531405698391609e-06, 2.1109928027840397e-08, 2.4902703898987966e-06, 1.738320207778088e-07, -0.00031146907713264227, -2.065308990495396e-06, -0.00027381759718991816, -1.5882935713307234e-06, -0.0003234631149098277, -0.00020001076336484402], [-1.4756401469639968e-05, 1.1691713552863803e-05, -0.00010311374353477731, -0.0008807568810880184, 8.074887773545925e-06, 5.191184754949063e-06, -0.00027633027639240026, 8.32125897431979e-06, 1.8531063687987626e-05, 1.3616426258522552e-05, -0.00021614420984406024, 1.4960829503252171e-05, -8.27051917440258e-05, 1.0721690159698483e-05, -0.0005836236523464322, -0.0002023869164986536], [-1.9409999367780983e-05, 1.2555311514006462e-05, -6.424882303690538e-05, -0.0006381311104632914, 4.660495960706612e-06, 5.159472038940294e-06, -0.0002083524304907769, 1.652216042202781e-06, 6.747015959263081e-07, -1.3386962564254645e-05, -0.0003581019409466535, 1.2918639185954817e-05, -0.00024478090927004814, 3.802503897532006e-06, -0.0005036172806285322, -0.00025314511731266975], [-1.630777114769444e-05, 1.235790659848135e-05, 4.448570325621404e-05, -0.0012389076873660088, 4.472037289815489e-06, 3.96516770706512e-06, -9.911716188071296e-05, 3.920862582162954e-06, 1.261799752683146e-06, 3.7321871786843985e-05, -0.0004448515537660569, 1.3540976397052873e-05, -0.0003018813149537891, 4.058349986735266e-06, -0.0009195930324494839, -0.00024882008437998593], [2.501204562577186e-06, 5.137825155543396e-06, 0.00028239411767572165, -0.00027130122180096805, 1.980851493499358e-06, -3.699237595355953e-06, -0.0002869153977371752, 1.875635803116893e-06, 1.0160871397602023e-06, -9.769017196958885e-06, -0.0005688504897989333, 1.0433359420858324e-05, -0.0004960442311130464, 1.6445089840999572e-06, -0.0005940253031440079, -0.0006141819758340716], [-7.321755674638553e-06, 1.3103084711474366e-05, -5.331710053724237e-05, -0.0008442181278951466, 8.454017915937584e-06, 7.2514785642852075e-06, -0.00023352191783487797, 1.1950009138672613e-05, 2.193564796471037e-05, -1.5353709386545233e-05, -0.0004296607512515038, 1.1255161552981008e-05, -0.00029109584284015, 1.4212048881745432e-05, -0.00066807382972911, -0.0003667593700811267], [-4.943213571095839e-05, -1.434288151358487e-05, 0.00021678970369976014, 0.0013270245399326086, -9.07914545678068e-06, -1.2047018572047818e-05, 0.00020102404232602566, -1.9499839254422113e-05, -1.7935988580575213e-05, -4.863234789809212e-05, 0.00045811550808139145, -1.0917717190750409e-05, 0.00023544691794086248, -2.430739732517395e-05, 0.001032868749462068, 0.0002833217440638691], [1.3649404536408838e-05, 2.8937952833985037e-07, 0.00014011205348651856, 0.00024785043206065893, -1.7708683230921451e-07, -1.0203424380961224e-06, -5.279615652398206e-05, 3.072728702591121e-07, 2.3666509605391184e-06, 1.1777665349654853e-05, -0.00032455925247631967, 4.199555405648425e-06, -8.504922880092636e-05, 4.3922153736275504e-07, 7.377954898402095e-05, -0.0005820171791128814]], "layer_2_biases": [-0.02835354022681713, -0.06727387756109238, 0.04064933583140373, 0.0820193663239479, -0.0024815176147967577, 0.020716380327939987, 0.14971616864204407, -0.06742742657661438, -0.11245547235012054, -0.0013711670180782676, 0.14097146689891815, -0.004724916070699692, -0.022134141996502876, -0.0741332396864891, 0.061161965131759644, 0.22476598620414734], "layer_2_weights": [[-7.463755991921062e-06, 4.049291601404548e-05, 0.0003920572926290333, 0.0006357653765007854, -3.621285713961697e-06, -0.0005686161457560956, 8.491930202580988e-05, 1.9660066755022854e-05, -5.953117579338141e-05, 8.949996299634222e-06, -0.00010404010390629992, -3.380082262083306e-06, -1.8880435163737275e-05, 1.0624345122778323e-05, 0.0004931361181661487, -0.0008296816959045827], [5.6897970353020355e-05, 2.5676214136183262e-05, -2.685372055566404e-05, -0.001346046687103808, 1.1549226655915845e-05, 0.0008757026516832411, -0.00046501029282808304, 9.712598694022745e-05, 6.311166998784756e-06, -1.0784794540086295e-05, -0.0005891705513931811, 2.7285692340228707e-05, 6.709631270496175e-05, 2.2127689589979127e-05, -0.0009871376678347588, -0.0004365459317341447], [-1.1963026736339089e-05, 1.3776935702480841e-05, 6.796239176765084e-05, -0.0001776683930074796, -9.670785630078171e-07, 2.9603622806462226e-06, 2.66695878963219e-05, -5.84500448894687e-05, 6.186950486153364e-05, 3.712637408170849e-05, -0.00011184562754351646, 5.568315373238875e-06, -2.648308509378694e-05, -2.759412927844096e-05, -0.000147528582601808, -5.996971231070347e-05], [-2.732008942984976e-05, 4.582203837344423e-05, 2.505172960809432e-05, 0.0007603210979141295, -4.931230250804219e-06, -0.0004192350897938013, 0.00017218571156263351, 8.366656402358785e-06, -0.00010302889859303832, -2.535118710511597e-07, 0.00026525845169089735, -7.223264219646808e-06, -4.6802786528132856e-05, 8.161105711224081e-07, 0.0005156073602847755, 6.692449824186042e-05], [2.6713569241110235e-05, 1.2331012840149924e-05, 1.903657721413765e-05, 0.0009982240153476596, -5.198343387746718e-06, -0.000605390639975667, 0.00025700952392071486, -7.561707752756774e-05, 4.016628008685075e-05, 1.9963126760558225e-05, 0.0003181774518452585, -1.601769145054277e-05, -3.0080758733674884e-05, 1.6406489521614276e-05, 0.0007318627904169261, 9.486893395660445e-05], [7.862128768465482e-06, -2.02294577320572e-05, -0.00017846257833298296, -0.0006741333636455238, 5.425154085969552e-06, 0.0008989870548248291, -0.00017405427934136242, 5.6383476476185024e-05, -4.673840157920495e-05, -1.914516724355053e-05, -0.0003000845026690513, 9.209607014781795e-06, 1.0461479178047739e-05, -1.3244257388578262e-05, -0.0004965484258718789, -0.00024158139422070235], [-2.6950071969622513e-06, -5.698948007193394e-05, -0.0003002552839461714, -0.0006383773870766163, 2.1660600850736955e-06, 0.00020203387248329818, -9.570614929543808e-05, 3.360167829669081e-05, -8.062934648478404e-05, -4.74668740935158e-06, -0.0003146041708532721, 6.832916369603481e-06, 1.5781379261170514e-05, -1.5353542039520107e-05, -0.000484419462736696, -0.00022179950610734522], [-2.1958751403872157e-06, 4.835248182644136e-05, 0.0006465922924689949, 0.0001518423669040203, -2.656296828718041e-06, -0.0005126113537698984, 7.116911729099229e-05, -8.198242721846327e-05, -7.459735206793994e-05, 2.4910386287047004e-07, -1.2552364751172718e-05, -1.4967024526413297e-06, 7.997039688234509e-07, 1.926193908730056e-05, 0.00012523418990895152, -4.337451537139714e-05], [1.0373682016506791e-05, 6.645140274486039e-06, 0.0002587050257716328, -0.00045173082617111504, -2.1981368263368495e-06, -0.00023661012528464198, 6.526861852762522e-06, -3.3581502520974027e-06, 4.768698272528127e-05, -5.670623067999259e-06, -0.0003107782395090908, -2.2006111066730227e-06, -8.39090280351229e-05, -9.798553946893662e-06, -0.00032351838308386505, -0.00020012106688227504], [2.1938971258350648e-05, -5.2405273891054094e-05, -0.00010077682964038104, -0.0008805913385003805, 9.517922990198713e-06, 0.0004750230291392654, -0.00027921568835154176, -4.9627135012997314e-05, -0.00012412747310008854, -3.074132337133051e-06, -0.00021629863476846367, 1.5226480172714218e-05, 1.9403576061449712e-06, 1.324637469224399e-05, -0.0005822617677040398, -0.00020145018061157316], [-8.011798854568042e-06, -2.0096143998671323e-05, -4.948170681018382e-05, -0.000546648574527353, 4.291145614843117e-06, 0.0003542485646903515, -0.0002088557812385261, 8.916495426092297e-05, 1.306551530433353e-05, -2.243939343316015e-05, -0.00034851121017709374, 1.313596931140637e-05, 3.062860560021363e-05, 4.848284334002528e-06, -0.00044715116382576525, -0.00027199031319469213], [-2.3265096388058737e-05, 7.75994558352977e-05, 4.822029222850688e-05, -0.0012422417057678103, 4.402108061185572e-06, 0.0004663800064008683, -9.597698226571083e-05, -0.00012585610966198146, 8.903264824766666e-05, -3.888843878030457e-07, -0.0004405448562465608, 1.2541584510472603e-05, -9.696505003375933e-06, 3.3792017347877845e-05, -0.0009201730717904866, -0.00024699154892005026], [-4.9082955229096115e-05, 0.00015050556976348162, 0.00029560545226559043, -0.00018570743850432336, 1.4877234661980765e-06, -0.00018883812299463898, -0.00010296674008714035, 3.953577470383607e-05, 0.00010181746620219201, -9.73668647930026e-06, -0.0006637111655436456, 9.091430001717526e-06, 1.4667076357000042e-05, 0.00010096950427396223, -0.00018635216110851616, -0.0006792191416025162], [3.249775545555167e-05, -4.446107050171122e-05, -5.124398012412712e-05, -0.0008507154998369515, 7.151656063797418e-06, 0.0005183579633012414, -0.00022575435286853462, 1.7691399989416823e-05, -9.983542986446992e-05, 1.2950121117683011e-06, -0.00042327475966885686, 1.1152927982038818e-05, 1.95588254428003e-05, -3.5476517950883135e-05, -0.0006745234131813049, -0.00036259612534195185], [-2.0926168872392736e-05, -4.8684064495319035e-06, 0.00020103633869439363, 0.0014962108107283711, -9.479575055593159e-06, -0.0007534862961620092, 0.0002455704379826784, 5.4672393162036315e-05, 2.2836205971543677e-05, -2.1459871277329512e-05, 0.0004324939218349755, -1.3100810974719934e-05, -3.299163290648721e-05, 5.4372314480133355e-05, 0.0010964077664539218, 0.00022967065160628408], [6.125136860646307e-05, -5.2620489441324025e-05, 0.00017004010442178696, 0.00046001499867998064, -2.0877538986496802e-07, -0.00021634300355799496, -4.611584881786257e-05, -8.06982734502526e-06, -1.5867950423853472e-05, -6.755034974048613e-06, -0.0002935249649453908, 3.528706201905152e-06, 3.3125361369457096e-05, -5.451905963127501e-05, 0.00023231160594150424, -0.0007162520778365433]], "layer_3_biases": [-0.005502317100763321, -0.000977761810645461, 0.03083845041692257, 0.05212777480483055, -0.0024810011964291334, -0.0011030244641005993, 0.06080134958028793, -0.0022199165541678667, -0.0032610318157821894, -0.08127634972333908, 0.12853512167930603, -0.005018124356865883, 0.1099291443824768, -0.0030704697128385305, 0.09431791305541992, 0.3240487575531006], "layer_3_weights": [[-1.8566019207355566e-05, -1.2582257113535888e-05, 0.0003895446425303817, 0.0006423657760024071, -3.6841411201748997e-06, 9.530427632853389e-06, 8.56409824336879e-05, -3.3276380690949736e-06, -5.46779256183072e-06, 6.07999879775889e-07, -9.918439172906801e-05, -3.838265001832042e-06, -0.0005438191583380103, -4.957370947522577e-06, 0.0004948203568346798, -0.0008384300163015723], [-1.624955257284455e-05, 2.7651049094856717e-05, -4.483916654862696e-06, -0.001374768908135593, 1.1562781764951069e-05, 0.00124581647105515, -0.00045466996380127966, 1.3785108421870973e-05, 2.0747151211253367e-05, 0.000137213573907502, -0.0005588605999946594, 2.7572210456128232e-05, -0.00035439550993032753, 1.627243182156235e-05, -0.0010183186968788505, -0.00041856858297251165], [1.8399267673885333e-06, 1.4332050568555132e-06, 7.517325138906017e-05, -0.00014615757390856743, -1.3501504554369603e-06, 0.00019534523016773164, -1.833013811847195e-05, -4.602584340318572e-06, -3.055690967812552e-06, 2.853559453797061e-05, -9.121912444243208e-05, 5.3056310207466595e-06, -8.1663514720276e-05, -4.3256700337224174e-06, -0.00011819950304925442, -1.773085205059033e-05], [2.1293967620295007e-06, -1.0388934242655523e-05, 3.585919694160111e-05, 0.0007281582802534103, -5.803205112897558e-06, -0.000388090469641611, 0.0002081075363093987, -8.483664714731276e-06, -1.4935724720999133e-05, -1.7376958567183465e-05, 0.00023373521980829537, -7.6220076152822e-06, 0.00013431202387437224, -9.866008440440055e-06, 0.0004996638162992895, 2.8060285330866463e-05], [4.114763669349486e-06, -1.7126747479778714e-05, 1.376908130623633e-05, 0.0010118025820702314, -5.154886366653955e-06, -0.000205000294954516, 0.0002543881710153073, 1.7392495692547527e-06, 3.368346142451628e-06, -8.53148740134202e-05, 0.0003041948366444558, -1.5926787455100566e-05, 0.0001782948529580608, 1.995094635276473e-06, 0.0007447055540978909, 8.475513459416106e-05], [1.9448316379566677e-07, 1.1650607120827772e-05, -0.00016974682512227446, -0.0006640973151661456, 5.120658897794783e-06, 0.00023329025134444237, -0.00016791728558018804, 5.4374822866520844e-06, 6.190959538798779e-06, 7.118937355699018e-05, -0.0002886419533751905, 9.35000480239978e-06, -0.00015411961067002267, 6.818814654252492e-06, -0.000497682427521795, -0.00024465794558636844], [-1.804572093533352e-05, 8.246845936810132e-06, -0.00020570347260218114, -0.0005792199517600238, 1.9674430404847953e-06, 0.00031668387237004936, -0.0001085394251276739, 3.799152636929648e-06, 3.268861973992898e-06, 7.67126475693658e-05, -0.0003069864178542048, 7.935062967590056e-06, -0.0002549120399635285, 5.540904567169491e-06, -0.00045655135181732476, -0.00024183517962228507], [1.2564326823394367e-07, -5.9561507441685535e-06, 0.0006262690294533968, 0.00016137410420924425, -2.7328894702804973e-06, -0.00028067853418178856, 6.605970702366903e-05, -6.531084636662854e-06, -5.417405645857798e-06, -1.783437437552493e-05, -1.4323131836135872e-05, -1.5047448869154323e-06, -0.00019381508172955364, -8.95600715011824e-06, 0.00012947180948685855, -4.9198737542610615e-05], [-6.277213742578169e-06, -9.06458467397897e-07, 0.0002617667196318507, -0.0004495302855502814, -2.5471347271377454e-06, 8.762300421949476e-05, 2.2174705009092577e-05, 1.403269607180846e-07, 3.2179798381548608e-06, 1.842472374846693e-05, -0.00030937211704440415, -2.16980970435543e-06, -0.000275614409474656, -8.6670631560537e-08, -0.0003238098288420588, -0.0001985876588150859], [-1.2093991244910285e-05, 1.1787838047894184e-05, -9.890180081129074e-05, -0.0008809434366412461, 8.781234100752044e-06, 0.0005462085246108472, -0.0002879743988160044, 8.924926987674553e-06, 1.873510700534098e-05, 8.352916484000161e-05, -0.00021639131591655314, 1.532571877760347e-05, -8.388647256651893e-05, 2.2005493519827724e-05, -0.0005815271288156509, -0.000200692520593293], [-6.876612587802811e-06, 1.0027644748333842e-05, -2.5089047994697466e-05, -0.0004889584961347282, 3.9908854887471534e-06, 0.0005385002004913986, -0.00020431549637578428, 3.603423238018877e-06, 4.184995759715093e-06, -4.4374758090270916e-07, -0.00033316362532787025, 1.3285383829497732e-05, -0.0002880286774598062, 4.275733772374224e-06, -0.0004149005108047277, -0.0002860251406673342], [-2.828732795023825e-05, 1.1210461707378272e-05, 5.168233110453002e-05, -0.00124741334002465, 4.346618879935704e-06, 0.000469233316835016, -9.978891466744244e-05, 4.3352542888897005e-06, 1.4707036370964488e-06, 9.876600961433724e-05, -0.00043489609379321337, 1.1268866728642024e-05, -0.00030555095872841775, 7.2639995778445154e-06, -0.0009198657353408635, -0.00024282770755235106], [-3.582841600291431e-05, 7.518744382650766e-07, 0.00029590821941383183, -0.00018613875727169216, 1.5136247384361923e-06, 0.0005591007065959275, -0.00010371260577812791, 2.520959242247045e-06, 1.1126623576274142e-05, 1.976297454575615e-07, -0.0006628933479078114, 9.153810424322728e-06, -0.0005295220180414617, 2.8977713100175606e-06, -0.00018517294665798545, -0.0006775670917704701], [4.149949290876975e-06, 1.3036620657658204e-05, -5.0007547542918473e-05, -0.0008637900464236736, 7.425108833558625e-06, 0.0009567051311023533, -0.00021975555864628404, 1.3327220585779287e-05, 2.387782842561137e-05, 5.3628729801857844e-05, -0.0004154608759563416, 1.118408818001626e-05, -0.0002917415404226631, 1.660248926782515e-05, -0.0006816448294557631, -0.0003567341191228479], [1.606029582035262e-05, -1.7650458175921813e-05, 0.0001970608573174104, 0.001604363787919283, -9.865342690318357e-06, -0.0007770105148665607, 0.0002937979297712445, -2.1408803149824962e-05, -2.165543264709413e-05, 7.004843610047828e-06, 0.00040789524791762233, -1.4004362128616776e-05, 0.00018381382687948644, -2.77141898550326e-05, 0.001106089330278337, 0.00017884877161122859], [5.91879825151409e-06, -4.3561744860198814e-06, 0.0001855354057624936, 0.0005857061478309333, -4.7603049324607127e-07, 7.627926243003458e-05, -2.8988588383072056e-05, -2.782766841846751e-06, -2.7308872176945442e-06, -4.779985101777129e-05, -0.0002415967610431835, 2.8712579478451516e-06, -0.0004063515516463667, -3.1353642953035887e-06, 0.00032054231269285083, -0.0007543108658865094]], "layer_4_biases": [0.08793751150369644, -0.0040953196585178375, 0.02464386448264122, -0.0020030513405799866, -0.003550235414877534, -0.02984016202390194, 0.07753627747297287, -0.000430832093115896, -0.004490718711167574, -0.07086155563592911, 0.10495134443044662, -0.005437707062810659, 0.2629478871822357, -0.0005518753314390779, 0.08507108688354492, 0.4039725065231323], "layer_4_weights": [[0.0004140946548432112, -1.201227496494539e-05, 0.00038220066926442087, 2.2185927264217753e-06, -2.238967454104568e-06, -3.33484640577808e-05, 8.688895468367264e-05, -3.1166232474788558e-06, -1.2043419701512903e-05, 1.2220011740282644e-05, -9.721020614961162e-05, -1.0449115279698162e-06, -0.0005478312377817929, -4.786999852512963e-06, 0.0004953573225066066, -0.000845192582346499], [-0.0007611962500959635, 2.6782017812365666e-05, 1.4865323464618996e-05, -3.073818515986204e-05, 1.1201795132365078e-05, 4.765126868733205e-05, -0.0004447571118362248, 1.4330775229609571e-05, 2.1222167561063543e-05, 8.088129106909037e-05, -0.0005337021430023015, 2.776745350274723e-05, -0.0003548246459104121, 2.0476907593547367e-05, -0.0010441829217597842, -0.00040558393811807036], [2.2111205908004194e-05, 2.6865368454309646e-06, 7.877488678786904e-05, 7.609272415720625e-06, 1.1223067986065871e-07, -5.986876203678548e-05, -3.782848943956196e-05, -6.007383490214124e-06, -3.418846972635947e-06, 3.8829784898553044e-05, -6.83069447404705e-05, 4.987621196050895e-06, -7.548423309344798e-05, -4.77356798000983e-06, -0.00010096082405652851, 2.4643715732963756e-05], [0.00042069770279340446, -1.2222168152220547e-05, 4.3500283936737105e-05, -1.1463406735856552e-05, -7.012380592641421e-06, 3.017388007720001e-05, 0.00022241381520871073, -8.850780432112515e-06, -1.5701773008913733e-05, -4.736297341878526e-05, 0.00020330795086920261, -8.157034244504757e-06, 0.00011613437527557835, -1.0057911822514143e-05, 0.0004857741005253047, -9.931117347150575e-06], [0.00034342549042776227, -1.673941733315587e-05, 9.342829798697494e-06, 8.67337530507939e-06, -3.64488732884638e-06, -5.557061012950726e-05, 0.0002517154789529741, 1.138207949225034e-06, 2.5374258711963193e-06, 7.124873263819609e-06, 0.0002927851164713502, -1.5511330275330693e-05, 0.00017839742940850556, -1.7880385030366597e-06, 0.0007545450353063643, 7.748473581159487e-05], [-0.0005322016077116132, 1.1551570423762314e-05, -0.00017003330867737532, -4.3924015358243196e-07, 4.955026270181406e-06, 3.1811207463761093e-06, -0.00016433691780548543, 5.624231562251225e-06, 5.575064278673381e-06, 2.040920480794739e-05, -0.0002748877159319818, 9.367546226712875e-06, -0.0001539081713417545, 7.1927729550225195e-06, -0.0005096704117022455, -0.0002355493779759854], [-0.00010217339877272025, 7.180683951446554e-06, -0.0001434558507753536, 4.712063855549786e-06, 1.3824356983604957e-06, -1.558432813908439e-05, -0.00011183449532836676, 1.7123006728070322e-06, 2.980871386171202e-06, 9.048193169292063e-05, -0.00030881466227583587, 6.773981112928595e-06, -0.0002718312607612461, 1.3188932825869415e-06, -0.0004670777125284076, -0.00026228209026157856], [0.0004562431131489575, -5.9429412431200035e-06, 0.0005300559569150209, 1.0865402146009728e-05, -2.7119513106299564e-06, -6.280795787461102e-05, 6.234576721908525e-05, -6.867346201033797e-06, -6.85113218423794e-06, -1.8452534277457744e-05, -1.5825557056814432e-05, -1.2698949376499513e-06, -0.00019625703862402588, -1.0163605111301877e-05, 0.00013222164125181735, -5.456467988551594e-05], [0.00042400849633850157, -7.733401616860647e-06, 0.00026890472508966923, -2.724787293573172e-07, -1.8844327769329539e-06, -4.7084253310458735e-05, 2.0075005522812717e-05, 8.829410802491111e-08, 1.9721846911124885e-06, -8.517096830473747e-06, -0.000309030496282503, -1.5383203617602703e-06, -0.00027708421112038195, -1.9748588329093764e-06, -0.0003244267136324197, -0.0001993313926504925], [-0.0003315277281217277, 1.6650825273245573e-05, -9.597418102202937e-05, -1.9689558030222543e-05, 7.4405379564268515e-06, -0.00010926988034043461, -0.00029078868101350963, 1.0042906978924293e-05, 2.0059082089574076e-05, 1.4687587281514425e-05, -0.0002154121466446668, 1.0628368727338966e-05, -8.426405838690698e-05, 9.144858267973177e-06, -0.0005819438374601305, -0.00019814704137388617], [-0.00017848175775725394, 9.99042094917968e-06, 1.8102543890563538e-06, 9.913735084410291e-06, 3.4355516618234105e-06, 1.7267548173549585e-05, -0.0001961190573638305, 2.73224713964737e-06, 3.3956794140976854e-06, 1.7890175513457507e-05, -0.00031946462695486844, 1.3256310921860859e-05, -0.0003042840980924666, 2.8565279990289127e-06, -0.0003899808507412672, -0.00030131233506835997], [-0.00026976564549840987, 9.905827027978376e-06, 5.474273348227143e-05, -1.4385565009433776e-05, 2.197496314693126e-06, 5.046211981607485e-07, -9.58567761699669e-05, 3.837783879134804e-06, 1.4703987289976794e-05, -8.345022251887713e-06, -0.00042979398858733475, -2.719330609579629e-07, -0.0003068907535634935, 4.5337819756241515e-06, -0.0009214723249897361, -0.00024003123689908534], [0.00017023246618919075, 1.4949505384720396e-06, 0.00028098461916670203, 8.887983312888537e-06, 6.086968369345414e-07, 3.8673493691021577e-05, -8.476345828967169e-05, -3.7703324551330297e-07, -9.223221240972634e-06, -1.3594294614449609e-05, -0.0006692673196084797, 5.942259576841025e-06, -0.0005406752461567521, -1.3972256738270517e-06, -0.00019372330280020833, -0.0007511142757721245], [-0.0006002786103636026, 1.3287592082633637e-05, -4.5074379158904776e-05, -3.4928209061035886e-05, 7.3291412263643e-06, 1.0803906661749352e-05, -0.00020895937632303685, 1.2022327609884087e-05, 2.2340840587276034e-05, 8.368410635739565e-05, -0.00040853244718164206, 1.2245738616911694e-05, -0.0002930745540652424, 1.63030836120015e-05, -0.0006870023207738996, -0.0003525658685248345], [0.0005408627912402153, -2.9224711397546344e-05, 0.00020367233082652092, 2.5986850232584402e-05, -1.2612113096110988e-05, 3.447023482294753e-05, 0.0003110792313236743, -1.0952263437502552e-05, -2.2164897018228658e-05, -2.6830752176465467e-05, 0.0003759999817702919, -1.1684316632454284e-05, 0.00014910753816366196, -1.3123603821441066e-05, 0.0009509444935247302, 0.00012129628885304555], [0.00020291190594434738, -4.44428496848559e-06, 0.00018480369180906564, -2.098366564950993e-07, -1.5950508895912208e-06, 3.127508534817025e-05, 4.444236310519045e-06, -1.9756396341108484e-06, -3.892084805556806e-06, -4.790115326613886e-06, -0.00014000055671203882, 2.2905801415618043e-06, -0.0004991733585484326, -2.362498207730823e-06, 0.00046709668822586536, -0.0007325574406422675]], "output_biases": [-1.3015111684799194, -0.057164035737514496], "output_weights": [[0.165929913520813, -0.18266451358795166], [-0.11395703256130219, 0.6897658705711365], [0.24457968771457672, -0.03269881755113602], [-0.2403247207403183, -0.5219533443450928], [-0.006613568868488073, 0.2666289508342743], [-0.30494850873947144, 0.2802920639514923], [-0.045939575880765915, -0.10113134980201721], [-0.09530662000179291, 0.22897589206695557], [0.13354602456092834, 0.4405258893966675], [0.12542939186096191, 0.011158924549818039], [-0.5000765323638916, -0.15027247369289398], [0.5527562499046326, 0.631554126739502], [-0.4143628180027008, -0.08093710243701935], [-0.1464405059814453, 0.2841986119747162], [-0.25130391120910645, -0.36518046259880066], [-0.8865704536437988, -0.08104374259710312]]}, "hk_disentangled_rnn/~update_latents/update_net_1": {"input_biases": [0.05604694411158562, -0.004821982700377703, 0.06072644144296646, 0.010809257626533508, -0.03873388096690178, 0.004035170655697584, -0.024632617831230164, -0.08115088194608688, 0.04514095559716225, -0.003242223523557186, 0.050041478127241135, -0.03322890028357506, 0.0018742133397608995, -0.08366990089416504, -0.021567251533269882, 0.039755865931510925], "input_weights": [[0.48417583107948303, -0.12247958034276962, -0.16979092359542847, -0.18096023797988892, 1.1322771310806274, 0.20868276059627533, 0.031057951971888542, 0.8217943906784058, 0.018074218183755875, 1.1086279153823853, -0.3525817096233368, 0.230758935213089, -0.36696916818618774, 0.3768191933631897, 0.16017428040504456, 0.410971999168396], [-0.2561202943325043, 0.6241530776023865, -0.31971386075019836, -0.3735399842262268, -0.6314086318016052, -0.7931826114654541, 0.24852758646011353, -0.16035619378089905, -0.34816256165504456, 0.32282698154449463, -0.5832704305648804, -0.14027278125286102, -0.21816879510879517, 0.8927246332168579, 0.27417677640914917, 0.31394892930984497], [0.7689874172210693, -0.2178708016872406, 0.13631142675876617, -0.23002253472805023, -0.6327690482139587, 0.3389345705509186, 0.12831814587116241, 0.27766987681388855, -0.5915096998214722, 0.2954600155353546, 0.20837365090847015, -0.375179648399353, -1.0460519790649414, -0.1111392080783844, -0.3808629810810089, -0.26498326659202576], [0.1855059415102005, -0.5408203601837158, -0.4869135320186615, 0.45760631561279297, 0.003958234563469887, 0.8523000478744507, -0.24019497632980347, -0.6800229549407959, -0.5327097177505493, -0.002101047895848751, -0.1280156970024109, -0.5974552631378174, -0.05628957971930504, -0.22879578173160553, -0.15797492861747742, -0.03723658621311188], [0.2402152270078659, -0.5698882937431335, -0.0788876861333847, 0.5873531699180603, -0.22286851704120636, -0.49889370799064636, -0.4983043074607849, 0.025094565004110336, 0.6907528042793274, -0.09137525409460068, -0.16914992034435272, 0.3468886613845825, 0.14023734629154205, 0.549522876739502, 0.2977927029132843, 0.5980739593505859], [-0.3410685658454895, -0.1436767578125, -0.04501904174685478, -0.32757648825645447, -0.40866947174072266, 0.40421196818351746, -0.4042312800884247, 0.5000590682029724, -0.2337515950202942, -0.009891942143440247, 0.32206204533576965, 0.7928152084350586, 0.08851983398199081, -0.09795297682285309, -0.12307848036289215, -0.0718611553311348], [-0.7222662568092346, 0.07639610022306442, -0.6411109566688538, -0.5671907067298889, -0.5261526703834534, 0.5143641829490662, -0.45337602496147156, -0.13745182752609253, -0.1859922856092453, 0.3204091489315033, -1.2364258766174316, 0.16256284713745117, -0.6974289417266846, 0.034977976232767105, -0.04681024327874184, -0.11562693119049072]], "layer_0_biases": [0.17657315731048584, 0.04648684337735176, -0.014673721045255661, -0.05666179209947586, -0.14720046520233154, 0.03845107927918434, -0.0052370852790772915, -0.0382649227976799, -0.0682724267244339, 0.06970832496881485, 0.0676083043217659, -0.05901756137609482, 5.1623005674628075e-06, -0.12161178141832352, -0.0025523127987980843, -0.049727048724889755], "layer_0_weights": [[0.0021167609374970198, -0.011686745099723339, -0.009123875759541988, -0.010797124356031418, 8.691948460182175e-05, 0.005604500882327557, -0.007815737277269363, -0.0026536802761256695, -0.003412593388929963, 0.008788974024355412, 0.0012677288614213467, -0.004201394040137529, -0.009971837513148785, 9.961210889741778e-05, -0.006315286736935377, -0.0050767529755830765], [-0.002789742313325405, 0.0009502081666141748, 0.0011211473029106855, -0.00034469334059394896, -8.532281754014548e-06, -0.005009488668292761, 0.005585359875112772, 0.002201848430559039, 0.0020370003767311573, -0.00213689380325377, -0.001259620999917388, 0.0031889542005956173, 0.007479382678866386, 1.4507574633171316e-05, 0.021599261090159416, -0.0004678728000726551], [0.0005138848209753633, -1.6616102584521286e-05, -0.004812501836568117, -0.01144978404045105, -6.22844381723553e-05, 0.003296043025329709, 0.0020087151788175106, -0.0035368483513593674, -0.007318538147956133, 0.009255822747945786, 0.0005079058464616537, -0.0059862700290977955, 0.00010268473852192983, -3.3045929740183055e-05, 0.01440687756985426, -0.004904028028249741], [0.002190118655562401, 0.001851363922469318, -0.007372915279120207, -0.0014562684809789062, 3.0489474738715217e-05, 0.006007363088428974, 0.0018069165525957942, -0.0013545184629037976, -0.002001040382310748, 0.0026945031713694334, 0.0011831768788397312, -0.0020325658842921257, -0.007962356321513653, 4.555288796836976e-06, -0.019908590242266655, -9.24476989894174e-05], [-0.00017923724954016507, -0.008446880616247654, 0.0077394465915858746, -0.013636701740324497, 0.0001518229692010209, -0.003499607788398862, -0.00687793456017971, 0.004306081682443619, 0.00616120221093297, 0.017715783789753914, -0.00033340524532832205, 0.006429148372262716, -0.024633413180708885, 8.35348546388559e-05, -0.001564585487358272, 0.013270659372210503], [0.0011284066131338477, -0.003034100169315934, 0.021373528987169266, 0.003676017513498664, -3.363473297213204e-05, 0.0012942986795678735, -0.0015187530079856515, -0.0006633594748564065, 0.00016676544328220189, 0.0029422894585877657, 0.0005070235929451883, -0.0006764139398001134, -0.004423259757459164, -6.61776794004254e-05, -0.011417229659855366, 0.003971956204622984], [-0.0012024383759126067, -0.003963514231145382, -0.0006769960164092481, -0.006764608900994062, 4.126494241063483e-05, -0.000544007692951709, 0.0034686163999140263, 0.00032492104219272733, -0.00042065608431585133, 0.005387678276747465, -0.0004658660036511719, 0.0002423363330308348, 0.0004193037166260183, 5.09089877596125e-05, 0.01311597041785717, -0.003111951518803835], [-0.00010906367242569104, -0.009693250991404057, -0.0020908922888338566, -0.013248052448034286, 3.0529394280165434e-05, -0.002892692806199193, -0.009587856009602547, -0.0011591481743380427, -0.00036494576488621533, 0.008507322520017624, -0.00014613958774134517, -0.0017152451910078526, -0.00879488606005907, 2.0604640667443164e-05, 0.01422166544944048, 0.007851867005228996], [0.0008732232381589711, 0.009618198499083519, -0.00816090777516365, -0.0024245402310043573, 6.343552377074957e-05, -0.000624152016825974, -0.0073070647194981575, 0.0009992907289415598, -0.0021498827263712883, 0.0036861272528767586, 0.00010980291699524969, 0.0008080229163169861, -0.002121129771694541, 3.740443935384974e-05, -0.00299015361815691, -0.0032048416323959827], [-0.0006243797834031284, -0.013254270888864994, -0.00017814457532949746, -0.0017576295649632812, 8.23105001472868e-05, -0.005234079901129007, -0.012608839198946953, 0.004057754762470722, 0.008554195985198021, -7.284169259946793e-05, -0.00015818557585589588, 0.006651062518358231, -0.010728966444730759, 6.77419375278987e-05, -0.0004905725945718586, 0.00661597540602088], [0.0008709138492122293, -0.005659005604684353, -0.0029393339063972235, -0.018950337544083595, -3.9583264879183844e-05, 0.00811301451176405, 0.012258237227797508, -0.007489786483347416, -0.011628872714936733, 0.016395367681980133, 0.0004980321391485631, -0.011255807243287563, -0.0068939547054469585, -9.545136708766222e-05, 0.008332943543791771, 0.005497791338711977], [-0.00038462772499769926, 0.001098551438190043, -0.001712391502223909, -0.004711386281996965, -0.00011938725219806656, -0.0033507803454995155, -0.002268068725243211, -0.001202166429720819, -0.00025833622203208506, 0.0016797137213870883, -0.0007287036278285086, -0.0014457812067121267, -0.0035998127423226833, -0.0001240094134118408, 0.008310245350003242, 0.012553621083498001], [-0.0006022255402058363, 0.004068809095770121, -0.0011907134903594851, -0.006614453159272671, 2.29119868890848e-05, 0.0016045633237808943, 0.014191260561347008, -0.0009999547619372606, -0.0011955806985497475, 0.006960882805287838, -0.0004695524403359741, -0.0014858708018437028, -0.008745018392801285, -2.6043520847451873e-05, -0.001320909010246396, 0.014645046554505825], [-0.0009329409804195166, -0.005092849489301443, -0.015000653453171253, 0.0025970980059355497, 3.292681140010245e-05, -0.0033935829997062683, -0.004219392314553261, 0.0027221008203923702, 0.006727555301040411, -0.007607955951243639, -0.000714036519639194, 0.004724723286926746, -0.0029804487712681293, 7.743779133306816e-05, -0.003946883138269186, 0.00530328880995512], [-0.0005769208073616028, 0.0006843768060207367, -0.005905189085751772, 0.0005101908463984728, 4.2956104152835906e-05, -0.0022705073934048414, -0.0013327798806130886, 0.002108815358951688, 0.0036317105405032635, -0.0014051827602088451, -0.00046761977137066424, 0.0033116342965513468, -0.0034277301747351885, 6.256793858483434e-05, -0.003045993158593774, 0.004395509138703346], [0.00011806670954683796, -0.0038473939057439566, -0.011027485132217407, -0.00032801288762129843, 6.694248440908268e-05, -0.000997854396700859, -0.004532966297119856, 0.0019809540826827288, 0.004992127884179354, -0.0023298582527786493, -1.1736544365703594e-05, 0.003408468095585704, -0.008658974431455135, 9.316450450569391e-05, -0.00862338300794363, 0.007074965164065361]], "layer_1_biases": [0.11984962224960327, 0.020567597821354866, 0.05647869035601616, 0.004042255226522684, -0.0018493211828172207, -0.030650444328784943, -0.009226989932358265, -0.00996171310544014, 0.01138293370604515, -0.058207917958498, 0.05385342240333557, 0.020615143701434135, 0.038554370403289795, -0.030809827148914337, -0.1186164990067482, 0.018543411046266556], "layer_1_weights": [[0.0011426543351262808, -0.014298238791525364, -0.003861432196572423, -0.00728342030197382, -0.0010544754331931472, 8.700141188455746e-05, 7.491839642170817e-05, 6.508679507533088e-05, 0.009179675951600075, 0.009524316526949406, 0.0005220872117206454, -0.006332344375550747, 0.005578865297138691, 8.259712194558233e-05, 0.006022685207426548, -0.022383300587534904], [-0.0022594379261136055, 0.0008819185313768685, -0.0026021695230156183, 0.006728541571646929, -0.002667366061359644, -2.7945257897954434e-05, 4.567211362882517e-05, -1.1787739822466392e-05, 0.0007457270985469222, -0.015555552206933498, -0.0008162576705217361, 0.0008190806256607175, -0.008758952841162682, 4.388965407997603e-06, -0.0012466575717553496, 0.011845095083117485], [0.0003629096900112927, 0.00022879464086145163, -0.0004968588473275304, 0.000747884449083358, -0.0007048476254567504, -3.961818583775312e-05, -6.518344162032008e-05, 8.416465675509244e-07, 0.00789994653314352, 0.0038992303889244795, -0.00012338282249402255, 0.0017321993364021182, 0.000502878101542592, -3.7583311495836824e-05, -0.017499316483736038, -0.0063269357196986675], [0.0014493531780317426, -0.0013598339864984155, 0.0011174343526363373, -0.0007420877809636295, 0.0017145911697298288, 1.3170777492632624e-05, -6.203693919815123e-05, -1.13608848550939e-05, 0.0006750838947482407, 0.002535879611968994, 0.0005863438127562404, 0.007154986262321472, 0.0026570798363536596, 7.70145277328993e-07, -0.0013455088483169675, -0.01279291883111], [-0.0004294136888347566, -0.01778087019920349, -0.015479986555874348, -0.010977343656122684, -7.0017913458286785e-06, 0.00011988477490376681, 9.589058754500002e-05, 6.51029113214463e-05, -0.004316859878599644, -0.015089669264853, -9.227742702933028e-05, -0.00300236395560205, 0.021654320880770683, 6.457934796344489e-05, 0.015770047903060913, -0.0020953346975147724], [0.0007466903771273792, -0.004740877076983452, 0.00520284054800868, -0.006032442674040794, 0.0023829739075154066, 2.788844722090289e-05, -0.000127447274280712, 7.197128979896661e-06, -0.0005192480166442692, 0.01445238571614027, 4.353596978035057e-06, -0.0015000718412920833, 0.01892402395606041, -5.427441647043452e-05, 0.003384182695299387, -0.0022745493333786726], [-0.0011518808314576745, -0.007680860813707113, -0.0033175416756421328, 0.002733042696490884, -0.0022652551997452974, 2.078719080600422e-05, 5.12400729348883e-05, 1.7019430742948316e-05, 0.006755979731678963, -0.009732170030474663, -0.00025068706599995494, 6.376182864187285e-05, -0.0024924518074840307, 4.0364775486523286e-05, 0.0011714802822098136, -0.004017951432615519], [-0.00011922476551262662, -0.0021336989011615515, -0.009821641258895397, -0.010489113628864288, -0.002190458122640848, 2.1887137336307205e-05, 9.663521632319316e-05, 3.4799180866684765e-05, -0.004317369312047958, 0.00845092162489891, -0.00021729530999436975, -0.013369232416152954, 0.00810994952917099, 1.9378077922738157e-05, 0.00201507774181664, 0.00024282150843646377], [0.0011938863899558783, 0.00711032235994935, -0.0010880042100325227, 0.0010230782208964229, 0.0018190902192145586, 4.0492534481018083e-07, 0.0001818332530092448, 9.989764294004999e-06, -0.0019228175515308976, -0.007057284004986286, 0.0002167915808968246, 0.004394441843032837, -0.0004927370464429259, 1.7028041838784702e-05, -0.012226776219904423, 0.004524447489529848], [-0.0008575349347665906, -0.011585370637476444, -0.010316083207726479, -0.008978254161775112, -0.001750700525008142, 6.71146044624038e-05, 7.31004256522283e-05, 5.6956985645229e-05, -0.003647503210231662, -0.0046054827980697155, 4.056304896948859e-05, -0.014028873294591904, 0.005260177422314882, 4.86116114188917e-05, 0.021711379289627075, 0.0007514145690947771], [9.567652887199074e-05, -0.003038689959794283, -0.0029124468564987183, -0.004441566299647093, -0.0010434333235025406, -6.460172880906612e-05, -0.00015732826432213187, -2.5220215320587158e-05, 0.0051321000792086124, 0.01782449334859848, -0.0004832669801544398, 0.003671138547360897, 0.010108348913490772, -5.145272007212043e-05, -0.015837199985980988, -0.018216930329799652], [-0.0001060525537468493, 0.011093142442405224, -0.005125666968524456, -0.005943420343101025, -3.857812407659367e-05, -9.135832806350663e-05, -5.7807286793831736e-05, -1.7787047909223475e-05, -0.011929264292120934, 0.008148133754730225, -0.000632271752692759, -0.005105657037347555, 0.002450755797326565, -8.341565262526274e-05, -0.006190324667841196, 0.011036566458642483], [-0.0007520343060605228, 0.0046919845044612885, -0.0057504065334796906, 1.4521760022034869e-05, 0.0012583513744175434, -3.4139244235120714e-05, -0.00013290481001604348, -3.464836481725797e-05, -0.00936613418161869, -0.005402242764830589, -0.0006140008918009698, 0.010658728890120983, 0.005800357088446617, -3.3936321415239945e-05, -0.005533743649721146, 0.0018742004176601768], [-0.0008545274613425136, -0.00017285881040152162, -0.0072349370457232, -0.0019912670832127333, -0.002159522380679846, 2.243465860374272e-05, 6.344602297758684e-05, 2.398301148787141e-05, -0.00780212739482522, -0.007668275386095047, -0.00017402740195393562, -0.0067680589854717255, -0.011229553259909153, 4.996115603717044e-05, 0.017685797065496445, 0.002398840617388487], [-0.0005562963197007775, 0.0009859835263341665, -0.004611332900822163, -0.00019079910998698324, -0.00037393232923932374, 4.003580761491321e-05, 7.707811892032623e-05, 1.0990124792442657e-05, -0.006064472254365683, -0.007819471880793571, -0.00023234088439494371, -0.00021848281903658062, -0.0035376837477087975, 4.463863297132775e-05, 0.0063013238832354546, 0.004473977256566286], [-0.00013365164340939373, -0.0013181387912482023, -0.00746308546513319, -0.00479584326967597, -0.0007566993590444326, 4.6216417104005814e-05, 6.569559627678245e-05, 2.5723760700202547e-05, -0.007976348511874676, -0.003252835711464286, 5.763614171883091e-05, -0.003807804547250271, -0.0018085280898958445, 7.174985512392595e-05, 0.012594698928296566, -0.0003354499058332294]], "layer_2_biases": [0.14050082862377167, 0.02118667960166931, 0.026067938655614853, 0.004480293486267328, -0.013159169815480709, -0.045554134994745255, -0.08506710827350616, -0.02063373103737831, 0.02674233540892601, -0.029585735872387886, -0.07487471401691437, -0.03525153174996376, -0.0014155830722302198, -0.01660206913948059, -0.12454003840684891, 0.06349965929985046], "layer_2_weights": [[0.0008401065715588629, -0.011964027769863605, -5.80604792048689e-05, -0.008068799041211605, 4.4922508095623925e-05, -0.0020852151792496443, -0.00534832663834095, 5.5737807997502387e-05, 8.143417653627694e-05, -0.014192321337759495, 8.643518958706409e-05, 0.0025504466611891985, -0.005482728127390146, 0.00711834104731679, 0.005666780285537243, 0.00021283399837557226], [-0.0018954825354740024, 0.008269882760941982, 0.00034476150176487863, 0.006524207536131144, -2.2108224584371783e-05, 0.0015940162120386958, 0.003919499460607767, -4.278562755644089e-06, -2.4694205421837978e-05, 0.009890084154903889, -6.080471393943299e-06, 0.0020373903680592775, 0.00016190441965591162, -0.0015670598950237036, 0.006603281944990158, -0.0002171858650399372], [0.00037050494574941695, 0.0014633600367233157, 0.0006923056789673865, 0.00037796239485032856, -2.0347001736809034e-06, -0.004946849774569273, -0.009223705157637596, 5.0125017878599465e-06, 1.9229390090913512e-05, -0.004990302491933107, -3.73147486243397e-05, 0.0007765808841213584, -0.00684311892837286, 0.002242162125185132, -0.011575773358345032, 0.0004388263332657516], [0.0010203494457527995, 0.0006119537283666432, 0.0007377150468528271, -0.0006275116465985775, 5.309007065079641e-06, -0.0018284667748957872, -0.014310335740447044, -1.1761295354517642e-05, -0.0014579910784959793, -0.0006000872235745192, 9.757352017913945e-06, -0.005828563589602709, -0.0009603908401913941, 0.006624449044466019, -0.006700120400637388, 0.000773143139667809], [-0.0005795256583951414, -0.010197194293141365, -0.0025166368577629328, -0.009834839962422848, 6.820653652539477e-05, 0.005339258350431919, 0.006055449601262808, 5.172137389308773e-05, 0.0026524460408836603, -0.023449625819921494, 9.428409248357639e-05, -0.01631179265677929, 0.015484984964132309, 0.0011998721165582538, 0.016648374497890472, -0.001824491540901363], [0.0005911887856200337, -0.010108260437846184, 0.0003527715161908418, -0.005372511688619852, 2.306072201463394e-05, -3.2205483080360864e-07, -0.002781870076432824, 4.2110713138754363e-07, -0.000957159383688122, -0.011987556703388691, -2.0911238607368432e-05, -0.0004285067261662334, 0.02347644977271557, -0.00691186124458909, -0.011497879400849342, 0.0011584600433707237], [-0.0009323558188043535, 0.0005962725263088942, -0.0007768940995447338, 0.002130799228325486, 3.157856554025784e-06, 0.0003261567617300898, -0.0007772659882903099, 1.924487150972709e-05, 0.0009094150154851377, -0.0004996858187951148, 4.518433706834912e-05, 0.0015563976485282183, 0.0018918149871751666, 0.0032146931625902653, 0.0110106710344553, -0.0008922222768887877], [-6.75215051160194e-05, -0.00901887658983469, -0.0009499206789769232, -0.010160795412957668, 2.6716943466453813e-05, -0.0005756121827289462, 0.018492113798856735, 2.1695930627174675e-05, 0.0016842004843056202, -0.015327000059187412, 1.2489412256400101e-05, 0.0002786359691526741, -0.01179739460349083, -0.004857893101871014, 0.003055148757994175, -0.0005979026318527758], [0.0009643486700952053, 0.004205016884952784, 0.000909988593775779, 0.0015344020212069154, 9.272359420720022e-06, -8.9006767666433e-05, -0.0053054229356348515, 7.672405445191544e-06, 0.00020756780577357858, -0.001917012850753963, 2.9584405638161115e-05, -0.00951901264488697, -0.01119514275342226, 0.004196228925138712, -0.008060924708843231, 0.00031402119202539325], [-0.000746650795917958, -0.010557734407484531, -0.001330588012933731, -0.00883622094988823, 4.8755595344118774e-05, 0.005299771670252085, 0.02030636928975582, 4.519847789197229e-05, 0.0013965038815513253, -0.010553117841482162, 4.941400038660504e-05, -0.0003220187791157514, 0.0009308510925620794, -0.0017606596229597926, 0.02308262512087822, -0.0009149445686489344], [-0.00018910659127868712, -0.00243187602609396, 0.0014920631656423211, -0.004999585449695587, -1.2747924301947933e-05, -0.008243444375693798, -0.013900844380259514, -2.3296273866435513e-05, -0.002403697930276394, -0.009437338449060917, -7.65968652558513e-05, 0.0013012278359383345, -0.0015092591056600213, 9.030994988279417e-05, -0.017072036862373352, 0.0018572334665805101], [-2.1938847567071207e-05, -0.00028990578721277416, 2.1070545699330978e-05, -0.005799134261906147, 1.2112679996789666e-06, -0.0010341467568650842, 0.013153957203030586, -2.1094181647640653e-05, 0.00018303838442079723, -0.0036900967825204134, -0.00015023913874756545, -0.0026446632109582424, -0.010462941601872444, -0.008095480501651764, -0.009610333479940891, 0.00015638174954801798], [-0.0009484686888754368, 0.009507284499704838, 0.0009882651502266526, 5.171994780539535e-05, -6.599986591027118e-06, -0.0016070307465270162, -0.010063299909234047, -2.9531822292483412e-05, -0.0021681692451238632, 0.002467139856889844, -5.279741162667051e-05, -0.010764386504888535, 0.0035209045745432377, -0.0006097768200561404, -0.008780858479440212, 0.0009063499164767563], [-0.0007479414925910532, 0.0006852227379567921, -0.0009158500470221043, -0.0023666960187256336, 5.521392267837655e-07, 0.003818771569058299, 0.01566837914288044, 2.056241464742925e-05, 0.0005211610114201903, 0.006593948695808649, 4.8361696826759726e-05, 0.0017103046411648393, -0.015224292874336243, 0.0024494954850524664, 0.02242804504930973, -0.0009869348723441362], [-0.0004271704819984734, 0.001126015093177557, -0.0005800184444524348, -0.0004775804409291595, 1.581353171786759e-05, 0.0027926538605242968, 0.0061125666834414005, 1.298192819376709e-05, 0.00045541932922787964, 0.0024907730985432863, 3.796498276642524e-05, -0.003814427647739649, -0.004640262108296156, 0.0015711667947471142, 0.010384373366832733, -0.0007174626807682216], [-0.0003357887617312372, -0.0009843631414696574, 0.0003955440188292414, -0.00440718699246645, 1.9442964912741445e-05, 0.0028629375156015158, 0.0092913918197155, 1.516811789770145e-05, -0.0009417518158443272, -0.00026344400248490274, 5.697331653209403e-05, -0.004040090832859278, -0.008678455837070942, 0.001798467943444848, 0.013888249173760414, 0.0003832310903817415]], "layer_3_biases": [0.331708699464798, 0.0009652443113736808, 0.03257633373141289, -0.08002416789531708, -0.015249841846525669, 0.03251954913139343, 0.06388434022665024, -0.07427511364221573, 0.03440916910767555, -0.02065899781882763, 0.01062068622559309, -0.03266283497214317, 0.036057550460100174, 0.03614870086312294, -0.025562183931469917, 0.027346089482307434], "layer_3_weights": [[0.0006477072602137923, 0.006666185334324837, 0.0010796909919008613, -0.0005172081873752177, 6.548428063979372e-05, -0.003976135980337858, -0.0016954428283497691, 7.367024227278307e-05, -0.0008697228040546179, 0.019362185150384903, 0.0022764115128666162, 3.636713881860487e-05, 0.001252145622856915, -0.0008307807729579508, 0.009413590654730797, -0.010595553554594517], [-0.0012677107006311417, -0.009477684274315834, 0.00076810218160972, 0.0013090955326333642, -1.4472804650722537e-05, -0.0020389403216540813, -0.0002168127102777362, -3.5516573007043917e-06, -0.0007085188990458846, -0.017072441056370735, -0.006229726132005453, 7.467511750292033e-06, 0.0011722679482772946, 4.259115485183429e-06, -0.0034857841674238443, 0.006503112614154816], [0.000609074195381254, -0.002056767465546727, 0.00010923478112090379, -0.0025712198112159967, -2.0482171748881228e-05, 0.0016165039269253612, -0.0079934261739254, -1.983872971322853e-05, 0.0006815769011154771, -5.8701145462691784e-05, -0.004326367285102606, -1.5676687326049432e-05, -0.0005303325015120208, 0.0003179069608449936, 0.007109839469194412, 0.000907853536773473], [0.0004205372533760965, 0.004158615134656429, 0.0009726943098939955, 0.003805733984336257, 1.9308160972286714e-06, 0.008712789043784142, -0.012068849988281727, -7.731032383162528e-06, -0.0016288042534142733, 0.01288578100502491, 0.005876490380614996, -3.335033397888765e-05, 0.0010842944029718637, -0.000550404074601829, 0.003352544503286481, -0.0005898896488361061], [-0.0002001658285735175, 0.0071764797903597355, -0.0020524037536233664, 0.01541496068239212, 8.70590956765227e-05, 0.0018134077545255423, -0.009455895982682705, 6.431950896512717e-05, 0.0019476673332974315, 0.014727067202329636, -0.00406936788931489, 6.0984300944255665e-05, -0.0016723412554711103, -0.0004545614938251674, -0.029228385537862778, -0.006252648774534464], [0.000274572113994509, 0.007879262790083885, 0.0002695253642741591, -0.007713604252785444, -6.808455054851947e-06, 0.0009232236770913005, 0.0072543141432106495, -9.820158084039576e-06, -0.000974025868345052, 0.01356459129601717, 0.0008177143172360957, -3.517554796417244e-05, 0.0014845089754089713, -0.000864581554196775, -0.013668756000697613, -0.004781561437994242], [-0.0004640092665795237, -0.006224385928362608, -0.0012566642835736275, -0.0003305618593003601, 3.6106084735365584e-05, -0.0013061950448900461, -0.0031647109426558018, 4.2963696614606306e-05, 0.0014001723611727357, -0.0011103689903393388, -0.003781875828281045, 3.810743146459572e-05, -0.0012351629557088017, 0.00036110225482843816, 0.002967225853353739, -0.0019793908577412367], [0.0003139821346849203, 0.006072306539863348, -0.0005686039221473038, 0.006855356507003307, 2.8398320864653215e-05, -0.012845794670283794, 0.005642562173306942, 2.133522320946213e-05, 0.0013734910171478987, -0.0004455255111679435, -0.006221145391464233, 5.5678730859654024e-05, -0.0010071215219795704, 0.00032453425228595734, -0.0039096251130104065, -0.007449038326740265], [0.0007018233882263303, 0.0027190924156457186, 0.0014406386762857437, 0.0037971194833517075, 3.672747334348969e-05, 0.007288103923201561, -0.013054710812866688, 3.745612411876209e-05, -0.0006073305266909301, 0.001655086292885244, -0.0009815957164391875, 7.126411219360307e-05, 0.0004353022377472371, -0.00022998488566372544, -0.009623538702726364, 0.004558505490422249], [-0.0003793838550336659, 0.004733151290565729, 3.264300539740361e-05, 0.00731790903955698, 5.273658825899474e-05, -0.012879600748419762, 0.01082252711057663, 4.1719638829817995e-05, -0.00013459761976264417, 0.005991071928292513, -0.0017205836484208703, 2.7963680622633547e-05, 0.0007306020706892014, -0.0003377702087163925, -0.013783364556729794, -0.007307757623493671], [-0.00030497147236019373, 0.0033179521560668945, 0.0017523820279166102, 0.00422449829056859, -3.348724567331374e-05, 0.00017195394320879132, -0.012194657698273659, -6.197072798386216e-05, -0.002488654339686036, 0.009173965081572533, -0.003284463891759515, -5.457962106447667e-05, 0.002484305528923869, -0.0007825730717740953, 0.015847086906433105, -0.004615038633346558], [0.0001364839554298669, 0.004903468769043684, -0.000305881752865389, 0.009138798341155052, -0.00014791532885283232, -0.005802488420158625, 0.006364048924297094, -0.00011840441584354267, 0.0006959915044717491, -0.00878878217190504, -0.0035648848861455917, -4.5156553824199364e-05, -0.000918904843274504, 0.0003832839720416814, -0.0029006500262767076, -0.0002536221290938556], [-0.0010594293707981706, -0.00022204781998880208, 0.0018115447601303458, 0.015022413805127144, -2.9784660000586882e-05, 0.007955079898238182, -0.017579007893800735, -5.394621621235274e-05, -0.0032520373351871967, -0.002909140894189477, -0.0011695316061377525, -5.856546340510249e-05, 0.00277995434589684, -0.0008217444410547614, -0.004201887641102076, 0.006568768993020058], [-0.0003945963107980788, -0.0008105894667096436, -0.0013170356396585703, 0.011609142646193504, 3.2474155887030065e-05, -0.007920010946691036, 0.0070113250985741615, 4.0309387259185314e-05, 0.0012867988552898169, -0.006539972499012947, 0.003932155668735504, 3.346057201270014e-05, -0.0017789659323170781, 0.0007142696995288134, 0.00996231846511364, -0.002693877788260579], [-0.00020417365885805339, -0.0012047071941196918, -0.0012387626338750124, 0.007186525035649538, 2.2769851057091728e-05, -0.0006802306161262095, 0.00011325384548399597, 3.753507189685479e-05, 0.0012285209959372878, -0.003541309852153063, 0.0007372886757366359, 3.6528312193695456e-05, -0.0016203465638682246, 0.00047622653073631227, -0.0031139389611780643, -0.0013472193386405706], [-0.0001704611349850893, 0.0035080700181424618, -0.00015476731641683728, 0.012503927573561668, 5.196861457079649e-05, -0.004523029550909996, 0.0018790478352457285, 5.3163781558396295e-05, -0.00011358830670360476, 0.00038721569580957294, 0.0028991587460041046, 1.8864820958697237e-05, -0.00027622777270153165, 0.00010462106001796201, -0.0007250944618135691, -0.002257312647998333]], "layer_4_biases": [0.30128780007362366, -0.012931909412145615, 0.0013121420051902533, -0.025420278310775757, -0.005924819502979517, 0.05984480679035187, -0.10098301619291306, -0.16282488405704498, -0.037302568554878235, 0.011423872783780098, 0.022614337503910065, 0.004486285615712404, -0.02625958062708378, 0.025222716853022575, -0.044947631657123566, 0.03087891824543476], "layer_4_weights": [[-0.00017556890088599175, 0.013431310653686523, 0.007426324766129255, -0.009630276821553707, 3.0235481972340494e-05, -0.0013046561507508159, -0.02375689521431923, 7.453953003278002e-05, -0.003916017711162567, -0.009088375605642796, -0.002650173846632242, -0.010482796467840672, 0.012861398048698902, -0.0007933271699585021, 0.0013889615656808019, -0.006503249518573284], [-7.824765634723008e-05, -0.012779268436133862, -0.011248313821852207, 0.015576028265058994, -6.511761966976337e-06, -0.00028896942967548966, 0.013560457155108452, -5.468119525176007e-06, 0.009579682722687721, 0.015062379650771618, -0.0013957873452454805, 0.0012681718217208982, -0.0010903783841058612, -0.00014195690164342523, 0.013433174230158329, 0.004632287193089724], [0.0004638003301806748, 0.003063456155359745, -0.0006970451795496047, 0.0014231953537091613, -4.631709543900797e-06, 0.0008063160930760205, -0.016928525641560555, -1.6960128050413914e-05, 0.01063680648803711, 0.009053239598870277, 0.001156170153990388, -0.002832920290529728, 0.00425359420478344, 0.00049698690418154, 0.009105868637561798, 0.0016938167391344905], [-0.00054101028945297, 0.011794179677963257, 0.006702737882733345, -0.004040026105940342, -1.0334785656596068e-05, -0.0012480935547500849, -0.014637214131653309, -2.937300905614393e-06, -0.012598628178238869, -0.008093471638858318, 0.0055578649044036865, 0.0016854595160111785, 0.0022704084403812885, -0.0005222941981628537, -0.019764192402362823, 0.004303140565752983], [0.0001439908373868093, -0.0053957123309373856, -0.015829656273126602, -0.011431025341153145, 1.8437791368342005e-05, 0.0009979887399822474, 0.005198308732360601, 8.082705608103424e-05, 0.01028316281735897, -0.019767431542277336, 0.0011831448646262288, -0.0014573698863387108, 0.0011102831922471523, 0.0002068887697532773, -0.006355712655931711, -0.01005619391798973], [-4.647601235774346e-05, -0.0038325691130012274, 0.0024685615207999945, -0.020893223583698273, -9.820707418839447e-06, -0.00020681081514339894, -0.0010971324518322945, -2.1001396817155182e-06, -0.005971834529191256, -0.021742867305874825, 0.0009755546925589442, 0.004525784868746996, -0.01234457641839981, -5.483552013174631e-05, -0.023452982306480408, -0.010218636132776737], [6.0974944062763825e-05, -0.008281158283352852, -0.008060517720878124, 0.004966292064636946, 1.2028224318783032e-06, 0.0006319883395917714, 0.001135622151196003, 3.948857556679286e-05, 0.004544071853160858, 0.0029615340754389763, -0.0009709843434393406, -0.0043861158192157745, 0.0027941858861595392, 0.00021163368364796042, 0.012015795335173607, -0.001987629570066929], [0.00030791471363045275, 0.005226658657193184, -0.0032991254702210426, -0.0055138529278337955, 1.575208625581581e-05, 0.0005463773850351572, -0.0016522880177944899, 2.1364168787840754e-05, 0.014061186462640762, 0.003418618580326438, -0.008693997748196125, -0.009224014356732368, 0.010639576241374016, 8.331787103088573e-05, 0.018722407519817352, -0.008356725797057152], [0.000277526123682037, 0.008835885673761368, 0.002752032596617937, 0.0050990767776966095, 2.900046638387721e-05, -0.0007724172901362181, -0.009259081445634365, 3.832570291706361e-05, 0.010826770216226578, 0.011841760016977787, 0.004445869009941816, 0.0023109614849090576, 0.0034306682646274567, -0.0003471189411357045, -0.010332107543945312, 0.005911181680858135], [-7.080661453073844e-05, -0.000849942967761308, -7.622838165843859e-05, -0.005025357007980347, 2.6071116735693067e-05, -0.0005157492123544216, 0.00868520699441433, 4.6384811867028475e-05, 0.005174456164240837, -0.008270546793937683, -0.008632717654109001, -0.009502370841801167, 0.004617209546267986, -0.00041692281956784427, 0.009789775125682354, -0.009192381985485554], [-0.0009012734517455101, 0.01029607281088829, -0.002682742662727833, -0.007455573417246342, -2.440570096950978e-05, -0.0013545751571655273, -0.015676140785217285, -3.4043823688989505e-05, -0.005855669733136892, -0.004620083142071962, 0.00025014669517986476, -0.0026127605233341455, 0.01220462005585432, -0.0007342447643168271, 0.0013312115333974361, -0.000379038363462314], [0.0001688693300820887, 0.005672819446772337, -0.0033617683220654726, -0.0022457223385572433, 1.2563547898025718e-05, 0.00031800681608729064, 0.00828500185161829, -0.00014007065328769386, 0.0065978276543319225, 0.005682565271854401, -0.0042137643322348595, 0.001353343715891242, 0.005858696531504393, 8.254896965809166e-05, 0.011385343968868256, -0.0014806237304583192], [-0.0007090999861247838, 5.834367038914934e-05, -0.010267507284879684, 0.001676240237429738, -1.8630706108524464e-05, -0.0009759014355950058, 0.008242519572377205, -4.5103013690095395e-05, -0.006511901039630175, -0.005113007966428995, 0.0054893107153475285, 0.008212053216993809, -0.00012962995970156044, -0.00047718259156681597, -0.008656943216919899, 0.006821818649768829], [-0.00015264136891346425, 0.004830848891288042, -0.0008544768206775188, 0.007944365963339806, 1.8498689314583316e-05, 0.0003654181491583586, 0.012468574568629265, 3.9805272535886616e-05, -0.006323720328509808, 0.003272946458309889, -0.005307225976139307, -0.0056665195152163506, 0.010566316545009613, 4.9693767323333304e-06, 0.019964847713708878, 0.0008357907645404339], [0.0001715155376587063, 1.905299723148346e-05, -0.0037722308188676834, 0.004038821440190077, 1.850915032264311e-05, 0.0010716298129409552, 0.010861384682357311, 3.717941581271589e-05, -7.628155435668305e-05, -0.00013653875794261694, -0.0005376972840167582, 9.998072346206754e-05, 0.0034217420034110546, 0.00042962259612977505, 0.009393744170665741, 0.00043314704089425504], [-0.0001238337717950344, 0.0088633568957448, 0.0007297709817066789, 0.0013360759476199746, 1.021002753986977e-05, 3.7434071487041365e-07, 0.00790624599903822, 5.511367635335773e-05, -0.004076369572430849, -0.0034330247435718775, -0.002779136411845684, -0.0023323448840528727, 0.00819383841007948, -7.921495853224769e-05, 0.00836824718862772, 0.0004934982862323523]], "output_biases": [0.6412124633789062, 0.015103859826922417], "output_weights": [[0.9898574948310852, -0.048109736293554306], [1.0645323991775513, 0.3331144154071808], [0.23282720148563385, 0.29787784814834595], [-1.2110521793365479, 0.2821060121059418], [0.9676434397697449, -0.08332519978284836], [0.3110484182834625, -0.19626058638095856], [0.860863447189331, -0.6830862760543823], [0.6115289926528931, -0.10597970336675644], [0.37857726216316223, -0.35780203342437744], [0.7441949248313904, 0.46268367767333984], [-0.26220136880874634, -0.13585099577903748], [0.2545284926891327, -0.24450676143169403], [-0.281678706407547, 0.3774605691432953], [0.04721216484904289, -0.08955983072519302], [0.4844258725643158, -0.9141592383384705], [0.5514490604400635, 0.2786640226840973]]}, "hk_disentangled_rnn/~update_latents/update_net_2": {"input_biases": [0.010045679286122322, 0.037429627031087875, -0.1040283739566803, -0.07360876351594925, 0.06223660707473755, -0.05982071906328201, 0.06077399104833603, -0.05895692855119705, -0.03621658310294151, -0.05140010267496109, 0.05443577095866203, 0.07571092993021011, -0.041353750973939896, -0.048067688941955566, 0.04108047857880592, -0.07499377429485321], "input_weights": [[-0.3852856755256653, 0.7367594242095947, 0.45670825242996216, 0.5857763290405273, -0.11554290354251862, 0.7608899474143982, 0.40138760209083557, 0.6836845278739929, 0.9430073499679565, 1.2710068225860596, -0.6496034264564514, -0.5357137322425842, 0.04339885711669922, 0.13937807083129883, -0.7121812105178833, -0.030573351308703423], [-0.09246057271957397, -0.2082333117723465, -0.254675030708313, 0.051655568182468414, -0.6092057228088379, 0.05897311866283417, 0.07695896923542023, 0.11159610748291016, -0.4234826862812042, 0.17239053547382355, 0.9139735102653503, -0.10561605542898178, 1.0021560192108154, 0.6006365418434143, 0.32413655519485474, 0.1832159459590912], [-0.14513257145881653, -0.3146899938583374, -0.31235724687576294, -0.7413418889045715, 0.5525692701339722, -0.4560658633708954, -0.1578287035226822, 0.34013089537620544, 0.19415336847305298, 0.42833849787712097, -0.04927529767155647, -0.7992101311683655, 0.05206906422972679, 0.3984028398990631, 0.03349494934082031, 0.005688339471817017], [-0.8851364254951477, 0.020357368513941765, -0.42126619815826416, -0.37032556533813477, 0.0815412625670433, 0.16464343667030334, -0.3107781708240509, 0.01828186586499214, 0.02858947031199932, 0.1797025352716446, -0.3471771776676178, -0.08443110436201096, -0.49419158697128296, -0.06618361175060272, 0.3952956795692444, 0.18455460667610168], [0.5088566541671753, -0.03928421437740326, -0.9067325592041016, 0.23045212030410767, 0.2541593015193939, -0.09047535806894302, -0.20188356935977936, 0.6879798769950867, 0.04790392890572548, -0.4951818287372589, -0.068708136677742, 0.5435806512832642, -0.262325644493103, 0.4078015387058258, 0.2381371110677719, 0.01759607344865799], [0.4431220591068268, -0.017701711505651474, -0.1223004162311554, -0.35315975546836853, -0.10090911388397217, -0.03916946053504944, 0.2685902416706085, 0.28311747312545776, 0.24054017663002014, -0.4868764877319336, 0.5250829458236694, 0.41884225606918335, -0.20452988147735596, -0.22688992321491241, -0.11564705520868301, 0.2030925154685974], [0.7269048690795898, -0.42899084091186523, -0.0950540229678154, -0.16951984167099, -0.6880773901939392, -0.12505078315734863, -0.23993001878261566, 0.056544531136751175, 1.1130884885787964, -0.10454502701759338, -0.5624538660049438, 0.6891334056854248, 0.035646963864564896, 0.31429246068000793, -0.4133314788341522, -0.4461691975593567]], "layer_0_biases": [-0.014086664654314518, -0.001742425374686718, -0.0034343216102570295, -0.003431246615946293, -0.24905745685100555, -0.009835649281740189, 0.06268434226512909, -0.004643043968826532, -0.07632393389940262, -0.007633902132511139, 0.07262025773525238, 0.08552006632089615, -0.01101772766560316, -0.003241556230932474, 0.08358194679021835, -0.04717284068465233], "layer_0_weights": [[-3.0341854653670453e-05, 1.99973819690058e-05, -1.558954500069376e-05, -2.3220412913360633e-05, 4.2019742977572605e-05, 1.4657873180112801e-05, 0.0005889678723178804, 1.4456455573963467e-05, -9.319377568317577e-06, -1.5243001143971924e-05, -0.00023783235519658774, -0.00017285390640608966, -4.29189094575122e-06, 6.634153396589682e-05, -0.000225983647396788, -0.00012018501729471609], [1.4997506696090568e-05, 8.826314115140121e-06, 1.3110202417010441e-06, 4.56794623460155e-06, -4.669803729484556e-06, 6.875117833260447e-06, -0.0003110612160526216, 8.509996405337006e-06, -1.441152926417999e-05, -1.7550220945850015e-05, -0.0003067131619900465, -0.00021554724662564695, 1.2634203585548676e-06, 0.0001407377712894231, -0.00031381408916786313, 3.299207673990168e-05], [3.508109875838272e-05, 1.3540095096686855e-05, -3.328458433315973e-06, 1.2800336662621703e-05, 6.589752501895418e-06, -7.346401162067195e-06, -0.00017932301852852106, -5.744019745179685e-06, 1.3555309124058113e-06, 1.5152232663240284e-05, -8.098752732621506e-05, 6.713270704494789e-05, -5.789151146018412e-06, -1.643324321776163e-05, -4.3860032747033983e-05, 9.691220475360751e-05], [-4.230545528116636e-05, 8.426626664004289e-06, 3.2766174626885913e-06, 2.342755465178925e-07, 3.401809954084456e-05, -3.434526831824769e-07, -0.00037382784648798406, 4.706021172751207e-06, 1.896017784019932e-05, -2.7936839614994824e-05, -0.00016885570948943496, -0.00014584475138690323, -1.9741220967262052e-05, 0.0001796047727111727, -0.00020616587426047772, -9.56929725361988e-05], [8.303280992549844e-06, -2.6579364202916622e-05, 1.9696462913998403e-05, 1.8939068468171172e-05, -1.0727742846938781e-05, 3.2214767998084426e-05, -0.00037743343273177743, 2.197728827013634e-05, -5.067226447863504e-05, 6.947417205083184e-06, -0.00016759328718762845, -0.00022537936456501484, 1.3991406376590021e-05, -2.1122083126101643e-05, -0.0001861411437857896, 5.013694681110792e-05], [2.0443263565539382e-05, 9.62540798354894e-06, -1.9039719063584926e-06, -2.085431697196327e-05, 1.578967749082949e-05, -5.4187730711419135e-06, -0.000430207175668329, -2.2193137283466058e-06, 2.888626340791234e-06, -1.8112965335603803e-05, -2.1361707695177756e-05, 3.999354157713242e-05, -9.527758265903685e-06, -4.7341882236651145e-06, 1.1162185728608165e-05, -1.5204009287117515e-05], [5.322727247403236e-06, 2.01667189685395e-05, -2.706015720832511e-06, 1.5550278931186767e-06, 1.6562513565077097e-06, 9.742069778440055e-06, -0.00018572251428849995, 9.27728797250893e-06, 2.4190089789044578e-06, -1.7678690710454248e-05, -0.00019522069487720728, -0.00012391325435601175, -3.1698418752057478e-06, 7.652994099771604e-06, -0.00016522826626896858, -3.6536657717078924e-05], [-7.992884638952091e-05, 9.618085641704965e-06, -2.428732295811642e-05, -4.006321250926703e-05, 1.457794314774219e-05, -4.569999873638153e-05, -0.00015528251242358238, 2.5412167815375142e-05, 3.5107996154692955e-06, -8.986980537883937e-05, -0.00018998542509507388, -0.00014687443035654724, -3.6330502553028055e-06, 3.919140362995677e-05, -0.00015339023957494646, -0.0002298990439157933], [-5.3511608712142333e-05, 3.12373049382586e-05, -1.982644789677579e-05, -2.3509484890382737e-05, 5.915521251154132e-05, -1.8780934624373913e-05, 0.0003470570081844926, -1.3989575563755352e-05, 2.981817306135781e-05, -2.4166460207197815e-05, 0.00021558889420703053, 0.00033928765333257616, -4.091532900929451e-05, 0.00018720320076681674, 0.0003026665362995118, -0.0001855414593592286], [-6.7842943280993495e-06, 1.3672381101059727e-05, -2.8235826903255656e-06, 1.5054265531944111e-05, -1.2841310308431275e-05, -9.98395262286067e-06, -0.0007913846056908369, -1.0232021850242745e-05, 2.3076329398463713e-06, -2.2065796656534076e-05, 5.536331809707917e-05, 0.00017174317326862365, 7.85691099736141e-06, -2.5450332032050937e-05, 0.00013357988791540265, -4.830313991988078e-05], [2.3723653157503577e-06, -1.1468929415059392e-06, 1.279017305932939e-05, -2.0804379801120376e-06, -2.9472594178514555e-06, -3.8529938137799036e-06, -0.0002207038487540558, 1.901237919810228e-05, -7.100014045136049e-06, -1.8075686966767535e-05, -5.072692147223279e-05, -8.413117757299915e-05, 1.4379054846358486e-05, -3.7810217179412575e-08, -0.00010423119965707883, 2.4325403501279652e-05], [1.681809408182744e-05, 1.2695718396571465e-05, -1.4196134543453809e-05, -7.0183809839363676e-06, -8.74421402841108e-06, -2.1045602807134856e-06, 0.0007441064226441085, 1.4031543571491056e-07, -8.249729944509454e-06, -1.3471553756971844e-05, -4.568551230477169e-05, 8.354166493518278e-05, 3.0683090699312743e-06, -7.686679055041168e-06, -3.4060967664117925e-06, -5.009221058571711e-05], [2.076395276162657e-06, 6.1419536905304994e-06, 1.6024306148665346e-07, -7.5440752880240325e-06, 1.1364964848326053e-05, -6.660221060883487e-06, -0.00024014644441194832, -1.0998358447977807e-05, 8.279320127257961e-07, -3.552088401193032e-06, 0.00010038277832791209, 9.27440996747464e-05, -6.267979188123718e-06, 3.0527015042025596e-05, 8.276141306851059e-05, -3.7974790757289156e-05], [-4.8834299377631396e-05, 1.1340844139340334e-05, -4.13532106904313e-05, -2.428055631753523e-05, -2.6988141144101974e-06, -1.8901118892244995e-05, -0.000267680297838524, -5.313349902280606e-06, 6.304817361524329e-05, -5.014143607695587e-05, 0.00011429417645558715, 0.00015256364713422954, -9.358228453493211e-06, 5.1407128921709955e-05, 0.00013332419621292502, -4.643537613446824e-05], [1.9747685655602254e-05, -1.3453140127239749e-05, 1.020158379105851e-05, 8.497796443407424e-06, 2.1779100279673003e-05, 4.943800377077423e-06, 0.00018382500275038183, 2.659675828908803e-06, -6.159456825116649e-05, 1.7515481886221096e-05, 7.021395867923275e-05, -6.147075328044593e-05, 2.7753343601943925e-05, -2.0754356228280813e-05, 2.2566751795238815e-05, 9.374033834319562e-05], [-1.715561666060239e-06, -1.1377082955732476e-05, 1.1742428796424065e-05, 8.173906280717347e-06, -2.2052247004467063e-05, 1.874643930932507e-05, 0.00016876106383278966, -3.2552977700106567e-06, -9.928610467113685e-08, 3.8177349779289216e-05, -0.00033400271786376834, -0.0003459035942796618, 2.0827522462241177e-07, -9.043202589964494e-05, -0.00033533136593177915, 3.810707130469382e-05]], "layer_1_biases": [-0.04090440645813942, 0.10316329449415207, -0.002673499519005418, -0.015141800045967102, -0.0017218554858118296, -0.004222489893436432, 0.28990083932876587, -0.004548052791506052, -0.035250309854745865, -0.007642447017133236, 0.08648093789815903, -0.021916566416621208, -0.006655913311988115, -0.021407784894108772, 0.05115368217229843, -0.006372799631208181], "layer_1_weights": [[-1.2973731827514712e-05, -0.0002418538642814383, -1.5895739124971442e-05, -3.6514516978058964e-05, -3.4959368804265978e-06, 1.3447081073536538e-05, 0.0005900465184822679, 1.4532531167787965e-05, 3.668051249405835e-06, -1.5554283891106024e-05, -0.0002402770332992077, 2.9148306566639803e-05, -1.872770008048974e-05, 1.5719851944595575e-05, -0.0002269160031573847, 1.448583134333603e-05], [-1.5222273759718519e-05, -0.00028382361051626503, 6.008695436321432e-06, -1.0166143511014525e-05, 1.2170985428383574e-06, 6.928868515387876e-06, -0.00031259056413546205, 8.481156328343786e-06, 2.501956441847142e-05, -1.676174179010559e-05, -0.0003049744409509003, -2.6344359866925515e-05, -7.538469617429655e-07, -8.262087249022443e-06, -0.00031426004716195166, 1.3882966413802933e-05], [-6.615780876018107e-05, -4.93714542244561e-05, 2.3961873012012802e-05, 1.811547190300189e-05, 2.4863104499672772e-06, -5.895844424230745e-06, -0.00013868731912225485, -6.272497557802126e-06, -1.4230182614483056e-06, 1.967856405826751e-05, -8.300971239805222e-05, 0.00015737686771899462, 7.378016562142875e-06, -1.9702885765582323e-05, -4.5150522055337206e-05, 1.09774885004299e-06], [-0.00023851242440287024, -0.00019704671285580844, 1.4379322976765252e-07, 6.669997105746006e-07, 2.1591383756458526e-06, 2.248671307825134e-06, -0.0002436502109048888, 4.628413080354221e-06, 3.4907141071016667e-06, -3.181542342645116e-05, -0.00016723322914913297, 1.2596181477420032e-05, -8.983672159956768e-06, 3.330467006890103e-05, -0.0002064826840069145, 1.045013777911663e-05], [2.172276799683459e-05, -0.00012520141899585724, 1.8165723304264247e-05, 1.8279421055922285e-05, -8.805186553217936e-06, 2.171643791371025e-05, -0.00038185337325558066, 2.2023206838639453e-05, -9.075504749489482e-06, 4.2018532440124545e-06, -0.00017474610649514943, -3.522939732647501e-05, 1.839799551817123e-05, -1.7466551071265712e-05, -0.00018858085968531668, 1.4743614883627743e-05], [-0.00012326410796958953, -8.554146006645169e-06, -3.660901711555198e-06, -5.300267275742954e-06, -6.618376460210129e-07, -3.2504970022273483e-06, -0.0001670411875238642, -2.218475628978922e-06, 4.340518717071973e-05, -1.95668289961759e-05, -1.77778274519369e-05, 1.693096783128567e-05, 3.422036911615578e-07, 3.244547770009376e-05, 1.162470562121598e-05, -8.252516749962524e-07], [-1.661146234255284e-05, -0.00015332642942667007, -4.3751114731094276e-07, -5.316208444128279e-06, 3.056286914215889e-06, 7.465332146239234e-06, -0.00021609784744214267, 7.874808034102898e-06, 1.6845201571413781e-06, -1.807860280678142e-05, -0.00016899679030757397, -5.599159521807451e-06, -3.134811947802518e-07, 4.409523626236478e-06, -0.00013733365631196648, 8.930047442845535e-06], [-0.00018376093066763133, -0.0001392230624333024, -5.134684033691883e-05, -4.384288695291616e-05, 3.225037801257713e-07, 1.7902721083373763e-05, -0.00015661612269468606, 2.543908340157941e-05, 4.021937911602436e-06, -6.364000000758097e-05, -0.00018637740868143737, 2.7229318220634013e-05, -6.7189475885243155e-06, 4.1091876482823864e-05, -0.0001528426946606487, 2.3953743948368356e-05], [-0.0002714333531912416, 0.00028291286434978247, -3.3308667752862675e-06, -2.0180927094770595e-05, 8.613146746938583e-06, -1.4669032680103555e-05, 0.00035048642894253135, -1.3982682503410615e-05, 3.920396466128295e-06, -3.054852277273312e-05, 0.00021373291383497417, 3.362899224157445e-05, -3.5871273666998604e-06, 1.6301028153975494e-05, 0.00030080467695370317, -1.014178451441694e-05], [2.208433761552442e-05, 7.422355702146888e-05, -2.2687854652758688e-05, -4.416088813741226e-06, 4.545971478364663e-06, -8.786955731920898e-06, -0.0007667934405617416, -1.02570329545415e-05, -3.0006385713932104e-05, -2.2578020434593782e-05, 6.278523505898193e-05, 0.00015367673768196255, -4.797741439688252e-06, 1.911407889565453e-05, 0.00013516152102965862, -9.231176591129042e-06], [1.3597600627690554e-06, -0.00012439797865226865, -3.0167311706463806e-06, -2.6212183001916856e-06, 1.9542745576472953e-05, 2.0856052742601605e-06, -0.00019045188673771918, 1.7314785509370267e-05, -1.5482233720831573e-05, -1.7005362678901292e-05, -4.5858920202590525e-05, -8.136398719216231e-07, -1.1358811207173858e-05, 6.299425422184868e-06, -9.367809980176389e-05, 3.649470454547554e-05], [7.423968781949952e-05, -9.9869845143985e-05, -1.049822202503492e-07, 7.019873009994626e-06, -6.2054059526417404e-06, -2.9886136871937197e-06, 0.0008121337159536779, -1.0520152500248514e-06, -4.584990620060125e-06, -1.4080287655815482e-05, -3.8854337617522106e-05, 1.3190613572078291e-05, -2.760228016995825e-05, -1.6901026356208604e-06, 4.694753442890942e-05, 2.756623871391639e-06], [-3.959393143304624e-05, 2.546861651353538e-05, -1.6725072100598481e-06, -3.9687797652732115e-06, 3.407700660318369e-06, -8.449004781141412e-06, -0.00024001508427318186, -1.0962144187942613e-05, 1.4238788992315676e-07, -2.4315074824698968e-06, 0.000111493791337125, -2.0070197933819145e-05, -2.814447043419932e-06, 2.1628769900416955e-05, 8.869739394867793e-05, -1.3906514141126536e-05], [-6.87726351316087e-05, 0.00010654169454937801, -2.2853164409752935e-05, -6.318377563729882e-05, 3.1169765861704946e-06, -6.281037258304423e-06, -0.0002647101937327534, -5.066558514954522e-06, 1.5760864471303648e-06, -4.784257180290297e-05, 0.00012076138955308124, 3.816400931100361e-05, -4.817371518583968e-06, 3.315901994938031e-05, 0.00013615842908620834, -1.5541460015811026e-05], [0.00027184889768250287, 4.5783766836393625e-05, 1.5122369632081245e-06, 1.0064869456982706e-05, -6.30971726423013e-06, 2.7977991976513295e-06, 1.4084193935559597e-05, 2.5395211196155287e-06, -1.7757509340299293e-05, 2.9316917789401487e-05, 6.972395931370556e-05, -5.77004138904158e-05, -7.331800020438095e-07, -1.7588034097570926e-05, 4.373917545308359e-05, -1.6822068573674187e-06], [7.274970994330943e-05, -0.00030406753649003804, 1.0533719432714861e-05, 7.519160135416314e-06, -5.199448423809372e-06, -2.169660092476988e-06, 0.00010228790051769465, -7.291653787433461e-07, -1.2267229067219887e-05, 3.5579403629526496e-05, -0.0003349131147842854, -6.563205715792719e-06, -1.1346925248290063e-06, -1.4677425497211516e-05, -0.00033654258004389703, 2.2118201741250232e-05]], "layer_2_biases": [-0.0037174271419644356, -0.01650540716946125, -0.1903299242258072, -0.041584182530641556, -0.0019201113609597087, -0.00401335721835494, 0.08176030218601227, -0.004490720108151436, 0.030105726793408394, -0.006513846106827259, 0.14468476176261902, 0.09282476454973221, -0.006062001921236515, 0.05074756592512131, 0.09194404631853104, -0.005807500798255205], "layer_2_weights": [[-2.1903317247051746e-05, 6.102372572058812e-05, -2.3086204237188213e-05, -3.137987732770853e-05, -3.3764474665076705e-06, 1.3677591596206184e-05, 0.0005894576315768063, 1.4702123735332862e-05, -6.914470577612519e-05, -1.536219679110218e-05, -0.00024243332154583186, -0.00017126808234024793, -1.4082465895626228e-05, -0.00024361477699130774, -0.00022753146186005324, 1.5257490304065868e-05], [2.221541762992274e-05, 3.3756630728021264e-05, -3.0063354643061757e-05, -1.573379813635256e-05, 1.3993059155836818e-06, 6.391446277120849e-06, -0.0005390940350480378, 7.9793053373578e-06, -2.10871257877443e-05, -2.0393386876094155e-05, -0.00020824125385843217, -0.00017557934916112572, -8.524700206180569e-06, -0.0002178349532186985, -0.00019603699911385775, 1.2396010788506828e-05], [1.5943965991027653e-05, -4.731965236715041e-05, 9.102900548896287e-06, -3.823649603873491e-05, 2.285234131704783e-06, -6.096956440160284e-06, -0.00017892802134156227, -6.294577815424418e-06, 5.195802805246785e-05, 2.3191430955193937e-05, -8.519526454620063e-05, 6.782230047974735e-05, -1.00994031981827e-06, -3.4775050153257325e-05, -4.657918543671258e-05, 6.489936481557379e-07], [2.8673975975834765e-06, 0.00021496428234968334, 4.922516836813884e-06, -3.200551145710051e-05, 2.530297251723823e-06, 2.5078377348108916e-06, -0.00038117478834465146, 4.416590854816604e-06, -1.112931568059139e-05, -2.0247893189662136e-05, -0.00016549495921935886, -0.00014779354387428612, -1.1539371371327434e-05, -0.0002221251343144104, -0.00020662839233409613, 1.1833422831841744e-05], [-1.918929910971201e-06, -2.107445106958039e-05, -1.251251705980394e-05, 2.8142672817921266e-05, -9.689297257864382e-06, 2.2046080630389042e-05, -0.0003836821124423295, 2.2540803911397234e-05, 5.3891366405878216e-05, 3.492254109005444e-05, -0.00018248810374643654, -0.00021979644952807575, 1.6641670299577527e-05, -0.00018802969134412706, -0.00019307149341329932, 1.8498472854844294e-05], [-6.196777576406021e-06, 0.00012028841592837125, -6.933252734597772e-05, -4.1974835767177865e-05, 1.9445176349108806e-06, -3.1888228022580734e-06, -0.0005890109459869564, -2.272880692544277e-06, -5.416011845227331e-05, -1.6156107449205592e-05, -1.3803147339785937e-05, 3.695553823490627e-05, -7.612804324708122e-07, -4.469743089430267e-06, 1.2686670743278228e-05, -8.588923492425238e-07], [-1.024786524794763e-05, 7.786907190165948e-06, -3.328861203044653e-05, 4.5156657506595366e-06, 3.2627119708195096e-06, 4.222896222927375e-06, -0.00010603749251458794, 4.481978976400569e-06, 2.6333607820561156e-05, -2.5613042453187518e-05, -3.334048233227804e-05, -2.3815153326722793e-05, -3.996174200437963e-06, -7.325028127525002e-05, -3.817180549958721e-05, 4.070015165780205e-06], [-6.600297638215125e-05, 0.00018409403855912387, -1.975992927327752e-05, -7.721862493781373e-05, 3.6734121522385976e-07, 2.013127777900081e-05, -0.0001497300690971315, 2.729241896304302e-05, -8.117815741570666e-05, -8.512657950632274e-05, -0.00018233791342936456, -0.00015105366765055805, -5.310975666361628e-06, -0.00016108484123833477, -0.00015171720588114113, 2.6287685614079237e-05], [-2.969445449707564e-05, 0.00027971010422334075, -2.8855403797933832e-05, -0.00013232142373453826, 9.068428880709689e-06, -1.4742542589374352e-05, 0.00035526364808902144, -1.4087732779444195e-05, 0.0003477098362054676, -5.822764433105476e-05, 0.0002122926089214161, 0.00033691851422190666, -3.3640899346210063e-06, 0.00027424542349763215, 0.0002989185450132936, -1.1868444744322915e-05], [-5.11294201714918e-05, -2.605990994197782e-05, -1.0986952474922873e-05, -7.386317156488076e-05, 4.981274742021924e-06, -8.840409464028198e-06, -0.0007964483229443431, -1.0280589776812121e-05, 0.00014616981206927449, -2.3367330868495628e-05, 7.10551903466694e-05, 0.00015743098629172891, -2.0036452497151913e-06, 0.00010256125096930191, 0.00013827558723278344, -1.0135600859939586e-05], [1.0213511814072262e-05, 8.821600204100832e-06, 1.718504063319415e-05, -1.0647085218806751e-05, 1.8587106751510873e-05, 9.358195711683948e-06, -0.00015631847782060504, 1.7987078535952605e-05, 1.3510073586076032e-05, -2.723151192185469e-05, -3.470635783742182e-05, -8.285992225864902e-05, 1.6941743524512276e-05, -8.601152512710541e-05, -7.823940541129559e-05, 4.453922520042397e-05], [8.51304048410384e-06, 0.00010583108087303117, -1.4810011634835973e-05, -1.7143494233096135e-06, -5.135439096193295e-06, -3.019749328814214e-06, 0.0008073492790572345, -9.741379471961409e-07, -8.564519521314651e-05, -1.2391910786391236e-05, -3.975614527007565e-05, 0.0001258453557966277, -2.1199493858148344e-05, -1.0661405212886166e-05, 4.7363730118377134e-05, 2.761858922895044e-06], [1.460318003410066e-06, 4.335639096098021e-05, 2.1222701889200835e-06, -5.8892696870316286e-06, 3.1854940516495844e-06, -8.297088243125472e-06, -0.00023973853967618197, -1.0795440175570548e-05, 0.00010975181794492528, -3.282457782916026e-06, 0.0001237210090039298, 7.83000941737555e-05, -9.363057870359626e-06, 7.391647523036227e-05, 9.675906039774418e-05, -1.5867730326135643e-05], [-5.105592208565213e-05, 2.074366420856677e-05, -1.56276801135391e-05, -5.58236388314981e-05, 2.8319489047134994e-06, -6.4193859543593135e-06, -0.0002617301943246275, -5.42735369890579e-06, 4.416417141328566e-05, -4.060129140270874e-05, 0.00012791622430086136, 0.00014624901814386249, -4.992438789486187e-06, 0.000143768877023831, 0.00014025336713530123, -1.350915954390075e-05], [1.9789142243098468e-05, -0.00025613975594751537, 1.7136797396233305e-05, 0.00013060560740996152, -5.958032488706522e-06, 2.6863106086238986e-06, -6.720810779370368e-05, 2.4229723294411087e-06, -0.0002614418917801231, 2.8041542464052327e-05, 4.9401332944398746e-05, -1.087108444153273e-06, 2.2879541575093754e-05, 5.9256031818222255e-05, 4.014803926111199e-05, -1.3166426242605667e-06], [8.248318408732302e-06, -7.670629565836862e-05, 9.710309313959442e-06, 5.6179338571382686e-05, -6.578559919034888e-08, -3.888493665726855e-06, 0.00016806657367851585, 1.8388462194707245e-05, 3.354250293341465e-05, 1.6991263009913382e-06, -0.000334910728270188, -0.0003544611972756684, 2.0563837097142823e-05, -0.00033341412199661136, -0.0003361238050274551, 3.0685103411087766e-05]], "layer_3_biases": [-0.01095549575984478, 0.08523587882518768, -0.050900183618068695, -0.010048937052488327, -0.0016711860662326217, -0.004102769307792187, 0.13299375772476196, -0.005020812153816223, 0.013418829068541527, -0.09896914660930634, 0.05177154019474983, 0.1356576681137085, -0.007988589815795422, 0.08212827891111374, 0.10431592166423798, -0.002993880771100521], "layer_3_weights": [[-2.18644599954132e-05, -0.0002516063686925918, -7.193977944552898e-05, -2.8737007596646436e-05, 2.6668230930226855e-05, 1.4088290299696382e-05, 0.0005832451279275119, 1.5790961697348393e-05, -7.590981113025919e-05, -7.417541928589344e-05, -0.0002420611708657816, -0.00016865991347003728, -5.7350089264218695e-06, -0.00024302760721184313, -0.0002243825583718717, 0.001222874503582716], [-1.702937879599631e-05, -0.000185168202733621, -2.1752257453044876e-05, -6.4660721363907214e-06, -5.7523720897734165e-05, 5.979288289381657e-06, -0.0005356137990020216, 7.242981155286543e-06, -3.1324503652285784e-05, -2.6610416171024553e-05, -0.00019053902360610664, -0.00017537985695526004, 2.7395722099754494e-06, -0.0002027192822424695, -0.0001839698088588193, 0.0035865961108356714], [2.5038791136466898e-05, -5.720193075831048e-05, 3.0418312235269696e-05, 2.306851456523873e-05, 9.018684067996219e-06, -7.275784810190089e-06, -0.00017812450823839754, -8.039422937144991e-06, 3.326399746583775e-05, 3.107820884906687e-05, -8.040314423851669e-05, 6.606146780541167e-05, 1.0049426890645918e-07, -3.1524159567197785e-05, -4.395263022161089e-05, 0.0020372371654957533], [-2.492644171070424e-06, -0.00019457298913039267, -8.374707249458879e-05, -1.9958290067734197e-05, 2.7845933800563216e-05, 1.2590564892889233e-06, -0.00038946804124861956, 2.706301984289894e-06, -1.394340506521985e-05, -0.00018706121772993356, -0.00015815799997653812, -0.00014905008720234036, -1.0343299436499365e-05, -0.00021668232511729002, -0.0002037914382526651, 0.0015422466676682234], [1.9561603039619513e-05, -0.00015687385166529566, 8.995642133413639e-07, 3.2124521567311604e-06, -2.0043051335960627e-05, 2.2536463802680373e-05, -0.00040032443939708173, 2.332818621653132e-05, 3.5140801628585905e-05, 3.4068241802742705e-05, -0.00017548985488247126, -0.000216521235415712, 1.2799794603779446e-05, -0.00018649917910806835, -0.00018457727856002748, 0.004546626470983028], [-3.5051737086178036e-06, -3.8894503973097017e-07, -0.0001348077057627961, -4.162308187005692e-07, 3.234628093196079e-05, -3.6504200124909403e-06, -0.000430301355663687, -2.896895239246078e-06, -5.773943121312186e-05, -4.121081292396411e-05, -4.70609984404291e-06, 3.498297883197665e-05, -8.327878276759293e-06, 4.718172931461595e-06, 1.724060894048307e-05, 0.0011569090420380235], [-1.3310660506249405e-05, 