{"hk_disentangled_rnn": {"choice_net_multipliers": [-0.00107840565033257, 1.8480099439620972, -0.0007307939231395721, -0.0009123024065047503, 0.0010435490403324366], "choice_net_sigma_params": [0.9941697120666504, 0.005912408698350191, 0.9948171377182007, 0.9916658997535706, 0.9972841143608093], "latent_inits": [0.18860842287540436, -0.0028142465744167566, -2.9376018047332764, 1.7301241159439087, -0.010872327722609043], "latent_multipliers": [1.0, 1.0, 1.0, 1.0, 1.0], "latent_sigma_params": [0.0028897656593471766, 0.002372648799791932, 0.05563192814588547, 0.007493699435144663, 0.0018229151610285044], "update_net_latent_multipliers": [[0.7706085443496704, 2.315568685531616, 0.01310857106000185, 2.044473171234131, 0.17270061373710632], [2.386221408843994, 1.539821743965149, 0.006531538441777229, 2.1641554832458496, 0.0403689481317997], [0.009427267126739025, 1.0157644748687744, -0.007348948623985052, 0.00525903794914484, 1.1257195472717285], [-0.5246540307998657, 1.6840932369232178, 0.0013329583453014493, 1.4353628158569336, 1.6373612880706787], [-0.0070975348353385925, 2.5028727054595947, 0.004860117565840483, 2.1191091537475586, 0.8476753830909729]], "update_net_latent_sigma_params": [[0.9360344409942627, 0.060439396649599075, 0.9967964291572571, 0.7363813519477844, 0.9923763275146484], [0.32248973846435547, 0.006581953261047602, 0.9958621263504028, 0.6757645010948181, 0.9942590594291687], [0.9942322969436646, 0.08868028968572617, 0.9950293302536011, 0.99860018491745, 0.0931968167424202], [0.924405038356781, 0.12020870298147202, 0.9970153570175171, 0.2221222072839737, 0.28385666012763977], [0.9975548386573792, 0.038135599344968796, 0.9972371459007263, 0.7847362160682678, 0.9813265800476074]], "update_net_obs_multipliers": [[1.3943524360656738, 1.476557731628418, 1.3428250551223755, 0.016234392300248146, 1.2881194353103638], [1.3466887474060059, 1.8589296340942383, 1.2787213325500488, 1.401889443397522, 1.1172982454299927]], "update_net_obs_sigma_params": [[0.13773351907730103, 0.010581517592072487, 0.05304282531142235, 0.9968215227127075, 0.04064707085490227], [0.3240463137626648, 0.03193563595414162, 0.19354017078876495, 0.2156732827425003, 0.19725920259952545]]}, "hk_disentangled_rnn/~predict_targets/choice_net": {"input_biases": [-0.018509913235902786, 0.0017065888969227672, -0.004759522620588541, -0.07628775388002396], "input_weights": [[-0.21505358815193176, -0.04989302158355713, -0.7105872631072998, 0.42173683643341064], [-0.5289624929428101, -1.4580341577529907, 0.5730178952217102, 1.6101458072662354], [0.5547850131988525, -0.18680109083652496, -0.14319655299186707, 0.2799490690231323], [0.8097383975982666, -0.208872988820076, 0.6827192306518555, -0.4128166437149048], [-0.3409421443939209, -0.12859220802783966, -0.3685356676578522, -0.2929942309856415]], "output_biases": [0.0003516737779136747, -0.00035169385955668986], "output_weights": [[-0.13129808008670807, 0.6511446237564087], [-0.5835059881210327, 1.2872382402420044], [0.3314441442489624, -0.4666626751422882], [0.3012135922908783, -0.423490047454834]]}, "hk_disentangled_rnn/~update_latents/update_net": {"input_biases": [0.10133008658885956, -0.0989287868142128, -0.08563318103551865, 0.1320045441389084, -0.023593759164214134, -0.04670720919966698, -0.03958754613995552, -0.07774165272712708, -0.14389389753341675, -0.07014959305524826, 0.16079606115818024, -0.1620221585035324, 0.10974811762571335, -0.09746718406677246, 0.13829673826694489, 0.43827560544013977], "input_weights": [[-0.2881856858730316, 1.1743037700653076, 0.1652870774269104, -0.7727410793304443, -0.12028516083955765, 0.5745571851730347, 0.19439131021499634, 0.13637296855449677, 0.37776243686676025, 0.002664379309862852, 0.3798280954360962, 0.45779988169670105, -0.13854530453681946, 0.5365819334983826, -0.4113902151584625, 0.017384810373187065], [-0.8483432531356812, -0.07954864948987961, -0.32155075669288635, -0.23333580791950226, 0.12002553790807724, 0.11790979653596878, -0.2452460527420044, -0.668524980545044, -0.41698479652404785, 0.13566267490386963, -0.3719959855079651, -0.437182754278183, -0.037539105862379074, -0.037663910537958145, -0.1552029401063919, 0.6344044208526611], [0.22741352021694183, 0.09474244713783264, -0.19860173761844635, -0.19200746715068817, 0.5589654445648193, -0.3096802532672882, 0.5131850242614746, -0.21116212010383606, -0.2978428900241852, 0.13633854687213898, 0.00751297315582633, -0.07138421386480331, -0.02410869486629963, 0.5530521273612976, -0.13215383887290955, 0.031093187630176544], [-0.26024511456489563, 0.019114792346954346, 0.09462671726942062, -0.8369059562683105, 0.05735703185200691, 0.3492670953273773, 0.6641985774040222, -0.413607656955719, 0.04149765893816948, -0.0707130879163742, -0.11678481847047806, -0.515975832939148, -0.5661245584487915, 0.47394388914108276, 0.15364223718643188, -0.3922722041606903], [-0.04361435025930405, -0.4641532599925995, -0.29674047231674194, -0.06129433959722519, -0.08255012333393097, -0.7316293120384216, 0.24307884275913239, 0.5753340125083923, 0.3095984160900116, -0.08620037883520126, -0.16082900762557983, 0.12190833687782288, 0.36915168166160583, 0.1989954710006714, -0.23701485991477966, 0.2173282504081726], [-0.26250481605529785, -0.1487748622894287, -0.09309592097997665, 0.2401316612958908, -0.35238897800445557, 0.45715442299842834, 0.6118028163909912, 0.054013941437006, 0.14420336484909058, -0.06270633637905121, 0.8011841773986816, 0.17695769667625427, -0.2668120563030243, -0.12127435207366943, -0.3744404911994934, -0.18793080747127533], [0.36508190631866455, 0.1036173477768898, 0.05580023303627968, 0.050906892865896225, 0.4683101177215576, -0.05024675652384758, 0.13821320235729218, 0.2171013057231903, -0.2863551676273346, 0.11687912046909332, 0.345284640789032, 0.4800271987915039, -0.14314895868301392, -0.4126816987991333, -0.03603212535381317, 0.21449162065982819]], "layer_0_biases": [0.1093524619936943, -0.015777049586176872, -0.09317541867494583, 0.16712063550949097, -0.02853378839790821, 0.04853009805083275, -0.0014808651758357882, -0.029099391773343086, -0.13031530380249023, -0.09323977679014206, 0.19418282806873322, -0.03102479688823223, 0.12490586936473846, -0.024843497201800346, -0.014327318407595158, 0.35717687010765076], "layer_0_weights": [[0.00029653104138560593, -8.71834927238524e-05, 2.394155308138579e-05, 0.00031700730323791504, 0.00011289693065918982, -0.0003877563576679677, -1.1139823072880972e-06, 0.00017783725343178958, -2.4024380763876252e-05, -2.4493780074408278e-05, -0.00025347768678329885, 4.689953857450746e-05, -0.00021990718960296363, -0.00017567446047905833, 0.0002328241098439321, -0.0005368589772842824], [0.0003227802226319909, 0.00015421828720718622, -9.878516721073538e-05, 2.75817874353379e-05, -4.5140528527554125e-05, 0.0001932413288159296, -3.251006774007692e-06, 4.552331301965751e-05, -3.076450593653135e-05, 0.00010972683230647817, 7.312865636777133e-05, -0.00020403173402883112, 4.444364458322525e-05, 9.543993655825034e-05, 8.714311115909368e-05, 0.00018675684987101704], [-5.052364031143952e-06, 0.000141092503326945, -3.483364707790315e-05, 0.00046774069778621197, 7.147628639359027e-05, -0.000418560957768932, 4.981548613613995e-07, 0.00013803796900901943, 0.0002162124146707356, -0.00012737815268337727, -0.00030021145357750356, 2.7695094104274176e-05, -0.00024393755302298814, 0.00011295748117845505, 6.56488336971961e-05, -0.00026558287208899856], [-0.00021418106916826218, 8.471884211758152e-05, -7.53069034544751e-05, 0.0003103318449575454, 7.55410801502876e-05, 0.0001554688933538273, -2.4743553694861475e-06, 5.024837446399033e-05, 0.00014100439148023725, -3.877586277667433e-05, -0.0004298670100979507, 0.00022065176744945347, -0.0003381360729690641, -0.0003009673673659563, -5.629676525131799e-05, -0.0010872100247070193], [0.0004478315240703523, 0.00023086665896698833, 0.00010006917727878317, -0.0002456603688187897, -1.8964879927807488e-05, 1.5509085642406717e-05, 1.994940248550847e-06, 1.8590051695355214e-05, 0.00021597370505332947, 5.531526039703749e-05, 0.00015852946671657264, -7.869986438890919e-05, 0.0002802429662551731, 8.155419345712289e-05, -0.00016193151532206684, -0.0002657893346622586], [-0.00035340263275429606, 0.0001457237231079489, -2.5217965230694972e-05, -0.00027683458756655455, -9.697795758256689e-05, 0.00025577686028555036, 2.568775414601987e-07, -0.0002264357899548486, 8.396479825023562e-05, -3.8786303775850683e-05, 5.554868039325811e-05, -0.00017077768279705197, 2.6937223083223216e-05, -4.7763216571183875e-05, 2.9324417027964955e-06, 0.00036564035690389574], [-0.0007063958328217268, 0.0002934168733190745, 0.00010791724344016984, 0.0005339295021258295, -9.948606020770967e-05, 0.00016877907910384238, 3.3786335507102194e-08, -0.0002292217977810651, 0.00012185942614451051, -1.9423321646172553e-05, 0.0009958725422620773, -7.980629561643582e-06, 0.0011027248110622168, -0.0002597309648990631, 0.00018462023581378162, 0.00016495230374857783], [-2.757704714895226e-05, -4.8185182095039636e-05, -6.690686859656125e-05, 0.0005295558949001133, 9.65366416494362e-05, -0.0001799552410375327, -8.189882123588177e-07, -0.00011501040717121214, -0.00028141250368207693, -0.00012401184358168393, -1.2365727343421895e-05, -0.00012995069846510887, 2.9392875148914754e-05, -0.00027160983881913126, -8.96108103916049e-05, -0.0002855605271179229], [7.272812945302576e-05, 7.980727968970314e-05, 6.329108873615041e-05, 0.0004498425987549126, 0.00010131959425052628, -9.675361798144877e-05, -1.0788443205456133e-06, 6.629880954278633e-05, 1.2467032775020925e-06, -9.987872908823192e-05, 0.00011221547902096063, 3.076840948779136e-05, 8.807708945823833e-05, 7.353097316808999e-05, 5.417795910034329e-05, 0.000264166941633448], [5.861900353920646e-05, 0.00012357164814602584, 1.1263197848165873e-05, -0.000375710689695552, 4.615786747308448e-05, -0.0001233064685948193, -4.4436819734983146e-07, 6.261473026825115e-05, 1.0427810366309131e-06, 2.3108977984520607e-05, 0.00017807394033297896, -3.9247297536348924e-05, 0.000162627620738931, 5.641444295179099e-05, -3.971916885348037e-05, 0.00011455152707640082], [-0.00035080176894553006, 6.014864266035147e-05, 3.544688661349937e-05, -0.00011945443111471832, 6.407012278941693e-06, 0.00018255393661092967, -5.428144504548982e-06, 1.7869881048682146e-05, 0.00014171919610816985, -3.3628126402618363e-05, -0.00025093453587032855, -9.642259101383388e-05, -0.00021260936046019197, -2.0916519133606926e-05, -0.00015860344865359366, -0.0002646050415933132], [-0.00018228789849672467, 4.502266529016197e-05, 0.0001712850935291499, 0.00020830568973906338, 0.00012452187365852296, -0.0002939530531875789, -9.330166790277872e-07, -0.00025533122243359685, -7.771532546030357e-05, -5.368065831135027e-05, -0.0002754039305727929, -9.938436414813623e-05, -0.0002631214156281203, -0.00021454133093357086, -6.810654303990304e-05, -0.0003373426152393222], [0.00023855382460169494, -0.00024822549312375486, -6.98226285749115e-05, -0.00046110645052976906, 4.7948225983418524e-05, 0.00029378425097092986, -2.5473193545622053e-06, 0.00017326005036011338, -0.00022785876353736967, -6.720587407471612e-05, 4.467624603421427e-05, -7.905592065071687e-05, -1.5795814761077054e-05, 0.00015602243365719914, -0.00014454039046540856, -0.00015536305727437139], [-0.00021817207743879408, 0.00021555816056206822, -2.8073500288883224e-05, -2.8276650482439436e-05, -0.00010884165385505185, 0.00036691140849143267, -2.4628570827189833e-06, -0.00013416391448117793, -1.2372749552014284e-05, -2.071865128527861e-05, 3.626840771175921e-05, -0.00016237632371485233, -7.305777216970455e-06, -0.00015449126658495516, 2.0985973606002517e-05, 0.00045936217065900564], [0.00037870887899771333, 0.00016211660113185644, -6.103954365244135e-05, 0.00021478089911397547, -3.5670895158546045e-05, -0.0002799484063871205, 4.592088316712761e-06, -5.816822886117734e-05, -7.260686834342778e-05, 2.9837858164682984e-05, 0.00019190774764865637, 0.00010921049397438765, 0.00015817268285900354, -5.106367825646885e-05, 0.00013115655747242272, 0.00022851968242321163], [-0.000297736085485667, -1.4615502550441306e-05, 0.00011798600462498143, -0.0003915769630111754, -8.767205872572958e-05, 0.00053021201165393, 3.8059835105741513e-07, -5.55348242414766e-06, -5.017308649257757e-05, -0.00010807075159391388, 0.00011360635835444555, -0.00010001587361330166, 0.00014938718231860548, 0.0001405315415468067, -1.703069210634567e-05, -2.4914965251809917e-05]], "layer_1_biases": [-0.00635805819183588, -0.012768319807946682, -0.023268429562449455, 0.15543828904628754, -0.029142778366804123, -0.03642290085554123, 0.035523440688848495, -0.01821972243487835, -0.030467666685581207, -0.025638388469815254, 0.20838229358196259, -0.03102877177298069, 0.12124215811491013, -0.022049378603696823, 0.1287873387336731, 0.3670174777507782], "layer_1_weights": [[-0.00018267253472004086, -0.00015147533849813044, 1.7439173461752944e-05, 0.00018538722360972315, 0.00013655025395564735, 6.704306724714115e-05, -2.3556489395559765e-05, 0.0001838301686802879, -0.00016358356515411288, 6.427615971915657e-06, -0.00024185700749512762, 3.385053787496872e-05, -0.000194125619600527, 5.253938797977753e-05, 2.4461043722112663e-05, -0.0004904112429358065], [-0.00010219361865893006, 0.00015430105850100517, -9.942043107002974e-05, 5.760241947427858e-06, -4.630041075870395e-05, 2.77235776593443e-05, -0.00036673215799964964, 4.4753312977263704e-05, -3.120606561424211e-05, 0.00010985076369252056, 9.904114995151758e-05, -0.00020397474872879684, 6.859330460429192e-05, 9.688646241556853e-05, 7.634041685378179e-05, 0.00021381356054916978], [-0.0001369637029711157, 0.00014230723900254816, -3.437188206589781e-05, 0.0004689648048952222, 7.343034667428583e-05, 6.882985326228663e-05, 5.8584246289683506e-05, 0.00013913091970607638, 0.0002161514712497592, -0.00012801957200281322, -0.0002989995409734547, 2.9047816497040913e-05, -0.00024352640321012586, 0.00011073447967646644, 0.0005011807661503553, -0.00026488772709853947], [-0.0001743996690493077, -7.487605034839362e-05, -2.340616993024014e-05, 0.00015106024511624128, 0.00010555383778410032, -0.0002967018517665565, -0.00022478446771856397, 0.00020912979380227625, 8.637303835712373e-05, -1.4645397641288582e-05, -0.00043299965909682214, 0.0002217401925008744, -0.0003302190452814102, -0.0001475629978813231, -0.00015500142762903124, -0.0010734269162639976], [-2.0921670511597767e-05, 0.00023135595256462693, 0.00010001402552006766, -0.0002474832581356168, -1.807387889130041e-05, -5.174942998564802e-05, 0.0001594402128830552, 1.933021667355206e-05, 0.00021639341139234602, 5.439941742224619e-05, 0.0001563678088132292, -7.9949306382332e-05, 0.00028075429145246744, 8.216190326493233e-05, 0.0006836298853158951, -0.0002678446180652827], [0.00018095177074428648, 0.00012963649351149797, -2.1687168555217795e-05, -0.00031421647872775793, -0.00010131567978532985, 3.867672785418108e-05, -1.2815659829357173e-05, -0.0002307855902472511, 7.727115735178813e-05, -2.575478720245883e-05, 5.9296209656167775e-05, -0.00017243585898540914, 2.3535369109595194e-05, 9.324640268459916e-05, -2.006111026275903e-05, 0.0003652204177342355], [0.00023320667969528586, 0.00028820292209275067, 0.0001074340907507576, 0.0005058416281826794, -0.00010807975922944024, -2.1303945686668158e-05, -4.673074363381602e-05, -0.0002276171144330874, 0.00012781197438016534, -1.9608287402661517e-05, 0.0010066012619063258, -6.535723059641896e-06, 0.0011102593271061778, -0.00025547423865646124, 0.00012715309276245534, 0.00016667293675709516], [0.00010091492731589824, -4.795397398993373e-05, -6.653874152107164e-05, 0.000529406126588583, 9.861090074991807e-05, -8.965589950094e-05, -5.0531434681033716e-06, -0.00011591772636165842, -0.0002811746671795845, -0.00012515611888375133, -9.760567081684712e-06, -0.00013109497376717627, 3.7710589822381735e-05, -0.0002715269511099905, 0.0005854001501575112, -0.000283810164546594], [-6.499164010165259e-05, 7.280896534211934e-05, 6.286281131906435e-05, 0.00043854452087543905, 9.609528206055984e-05, -4.1630999476183206e-05, -9.503428009338677e-05, 6.756979564670473e-05, 6.8405693127715494e-06, -9.942506585502997e-05, 0.00011812204320449382, 3.4516928280936554e-05, 9.277338540414348e-05, 7.470431592082605e-05, 0.00019104909733869135, 0.00026996529777534306], [-7.14447523932904e-05, 0.00011938258103327826, 1.067685388989048e-05, -0.0003855902759823948, 4.755760892294347e-05, 1.7720385585562326e-05, -6.198749906616285e-05, 6.61488447804004e-05, 4.316025297157466e-06, 2.4463546651531942e-05, 0.00017936406948138028, -3.7435005651786923e-05, 0.00016445625806227326, 5.40788569196593e-05, -7.999813533388078e-05, 0.0001141486645792611], [0.0001317462301813066, 0.00022282767167780548, 8.987624460132793e-05, -0.00026440946385264397, -0.00011359923519194126, -8.207559585571289e-05, -0.00012881432485301048, -0.00015723484102636576, 0.00013486345415003598, -5.25974428455811e-05, -0.0002401981473667547, -7.498888589907438e-05, -0.00020991082419641316, -0.00016197726654354483, -0.00018430444470141083, -0.00023477774811908603], [0.00021899746207054704, 4.5359436626313254e-05, 0.00017102048150263727, 0.0002003459958359599, 0.00013949896674603224, -1.6338723071385175e-05, 4.5486201997846365e-05, -0.0002557328552938998, -7.768013892928138e-05, -5.5073931434890255e-05, -0.0002637021243572235, -9.940539894159883e-05, -0.0002484984288457781, -0.00021339017257560045, -0.00035391427809372544, -0.0003269891894888133], [-0.0001573888148413971, -0.00026431024889461696, -4.893158620689064e-05, -0.0007179451058618724, 5.4463067499455065e-05, 0.0001989319862332195, -0.00024003251746762544, 0.00017332550487481058, -0.00016243619029410183, -9.956205758498982e-05, 4.6747736632823944e-05, 0.00011365906539140269, 2.279451655340381e-05, 0.00013678551476914436, 9.227229747921228e-05, -0.0001793540286598727], [0.00012867938494309783, 0.00021600336185656488, -2.8534699595184065e-05, -3.827467662631534e-05, -0.00010825824574567378, -0.00015972793335095048, -0.00039719860069453716, -0.00013475297600962222, -1.2526756108854897e-05, -1.9662380509544164e-05, 4.644868022296578e-05, -0.000162321055540815, -3.1206725452648243e-06, -0.0001549209118820727, -6.336534715956077e-05, 0.00047107008867897093], [7.655595982214436e-05, 0.00016170743037946522, -6.08682275924366e-05, 0.0002231612306786701, -3.26869121636264e-05, 0.00016891007544472814, 0.0004113025206606835, -5.738607433158904e-05, -7.30561077944003e-05, 2.9695984267164022e-05, 0.00018133634875994176, 0.0001092005695682019, 0.00014958158135414124, -5.0626917072804645e-05, 0.0003067197394557297, 0.00021888161427341402], [-0.00020621430303435773, -3.5717330320039764e-05, 2.66350634774426e-05, -0.0005584022728726268, 5.805198452435434e-05, 5.223862171988003e-05, 5.184256679058308e-06, 0.00016301916912198067, -4.361071842140518e-05, -1.9380215235287324e-05, 3.054726403206587e-05, -4.1834911826299503e-05, 6.465335900429636e-05, 3.194174496456981e-05, -0.000383572478312999, -3.56750279024709e-05]], "layer_2_biases": [-0.03131180629134178, -0.10738252848386765, -0.019051946699619293, 0.13300207257270813, -0.029770679771900177, -0.005646293517202139, 0.11770771443843842, -0.08741309493780136, -0.16192813217639923, -0.05568581819534302, 0.20456336438655853, -0.02993430569767952, -0.03843076899647713, -0.11244544386863708, 0.11423584818840027, 0.29089149832725525], "layer_2_weights": [[-0.00018287039711140096, -0.00015161206829361618, 1.973854159587063e-05, 0.00019015859288629144, 0.0001408028183504939, 6.685906555503607e-05, -2.303815563209355e-05, 0.0001841092889662832, -0.00016365885676350445, 6.9984748733986635e-06, -0.0002467880549374968, 3.3774980693124235e-05, 3.799829210038297e-05, 5.228684676694684e-05, 2.4757533537922427e-05, -0.0004952987073920667], [-9.967394726118073e-05, 0.000154379871673882, -0.00010181204561376944, -1.1994890883215703e-05, -5.061204865342006e-05, 2.870387106668204e-05, -0.0003852141962852329, 4.419371907715686e-05, -3.159386324114166e-05, 0.00010999751975759864, 0.00012178850738564506, -0.00020393279555719346, 0.00010032114369096234, 9.829492046264932e-05, 5.36991392436903e-05, 0.00023627332120668143], [-0.00013709711492992938, 0.0001425346126779914, -3.4205513657070696e-05, 0.00046776043018326163, 7.416056178044528e-05, 6.89057051204145e-05, 5.098021210869774e-05, 0.00013979921641293913, 0.0002163141471100971, -0.00012792694906238467, -0.00029773180722258985, 2.9626207833644003e-05, 3.7047334444650915e-06, 0.00011035308125428855, 0.0005025403224863112, -0.00026442448142915964], [-0.00019016579608432949, -0.00020009491709060967, 3.6255929444450885e-05, -6.09981689194683e-05, 7.691993232583627e-05, -0.0001969120348803699, -0.00010850388207472861, 0.00019664944557007402, 2.3389182388200425e-05, 2.3310249162022956e-05, -0.0004345273191574961, 0.00021915712568443269, -0.00013932792353443801, 0.0002084750885842368, -0.00022326031466946006, -0.001056989305652678], [-2.0404155293363146e-05, 0.0002318390179425478, 9.990491525968537e-05, -0.0002494875225238502, -8.16806459624786e-06, -5.210299786995165e-05, 0.00017057987861335278, 2.0050232706125826e-05, 0.00021678490156773478, 5.357030386221595e-05, 0.00015453685773536563, -8.121550490614027e-05, 2.7942571250605397e-05, 8.276904554804787e-05, 0.0006832111976109445, -0.00026939797680824995], [0.0001814711868064478, 0.00012953065743204206, -2.168908940802794e-05, -0.00032329440000467, -0.0001525405386928469, 3.8079517253208905e-05, -1.83142092282651e-05, -0.0002328457630937919, 7.762623863527551e-05, -2.435209898976609e-05, 7.022833597147837e-05, -0.0001723736640997231, 3.277420182712376e-05, 9.228311682818457e-05, -2.4985998607007787e-05, 0.0003762199776247144], [0.0001816375443013385, 0.00023751355183776468, 0.00010303907038178295, 0.0002776614564936608, -0.00014136692334432155, 8.883027476258576e-05, 1.27526272990508e-05, -0.0001923579111462459, 0.0002017646620515734, -2.9536444344557822e-05, 0.0010910710552707314, 1.360250826110132e-05, 4.155998976784758e-05, -0.00018614296277519315, 0.00020035736088175327, 0.0001880634663393721], [0.00010253675282001495, -4.781160896527581e-05, -6.597241008421406e-05, 0.0005299679469317198, 0.00014758024190086871, -8.956572855822742e-05, -6.7065793700749055e-06, -0.00011657042341539636, -0.00028106936952099204, -0.00012631379649974406, -8.528580110578332e-06, -0.0001321540039498359, -0.00011752466525649652, -0.0002713767171371728, 0.000581389176659286, -0.00028338321135379374], [-6.425958417821676e-05, 7.100713264662772e-05, 6.361656414810568e-05, 0.000432968488894403, 9.21899190871045e-05, -4.153590998612344e-05, -0.00010157751239603385, 6.786096491850913e-05, 7.955572073115036e-06, -9.917767602019012e-05, 0.00012308923760429025, 3.5307981306687e-05, -0.00014264597848523408, 7.47608210076578e-05, 0.0001874394656624645, 0.0002747294493019581], [-7.180503598647192e-05, 0.00011824414832517505, 1.0809309969772585e-05, -0.00038798170862719417, 4.786744830198586e-05, 1.8222226572106592e-05, -5.805794717161916e-05, 6.78228898323141e-05, 5.319651791069191e-06, 2.5321382054244168e-05, 0.00018046224431600422, -3.732713594217785e-05, 9.278340257878881e-06, 5.3353829571278766e-05, -7.655061199329793e-05, 0.00011384145909687504], [0.00017540366388857365, 0.00017631915397942066, 0.00014940075925551355, -0.00046348368050530553, -9.933032561093569e-05, -0.0002342062653042376, -0.00012289572623558342, -0.00016570650041103363, -6.593165744561702e-05, -7.812307740096003e-05, -0.00022373221872840077, -5.273102215141989e-05, 9.350134496344253e-05, 0.00014258685405366123, -0.00023799242626409978, -0.0001949737488757819], [0.00021972418471705168, 4.56364250567276e-05, 0.00017024508269969374, 0.00019474848522804677, 0.00011769551201723516, -1.6194337149499916e-05, 4.2643252527341247e-05, -0.0002561168803367764, -7.771427772240713e-05, -5.6308919738512486e-05, -0.00025458860909566283, -9.946094360202551e-05, -3.756792921194574e-06, -0.00021233418374322355, -0.0003676556225400418, -0.0003193617449142039], [-2.5961287974496372e-05, -0.00011571811774047092, -7.553780596936122e-05, -0.0006002857116982341, 4.826901204069145e-05, 0.00023048606817610562, -0.00012590402911882848, 8.824850374367088e-05, 2.8902933991048485e-05, -0.00010615943756420165, 3.300071693956852e-05, 5.0480330173741095e-06, -4.764746336149983e-05, 9.764302376424894e-05, -0.0001348500809399411, -0.00021651161659974605], [0.00012876730761490762, 0.0002163866301998496, -2.895778561651241e-05, -4.655965676647611e-05, -0.00010711501818150282, -0.0001600442483322695, -0.00039553249371238053, -0.0001354251435259357, -1.2660420907195657e-05, -1.850519038271159e-05, 5.576469993684441e-05, -0.000162287091370672, 8.390596485696733e-05, -0.00015525356866419315, -7.017741882009432e-05, 0.0004812349216081202], [6.986474909354001e-05, 0.00017019752704072744, -4.6052446123212576e-05, 0.0005420221132226288, -4.749171785078943e-05, 0.00018945785996038467, 0.00026441621594130993, -1.8852135326596908e-05, 9.620725904824212e-05, 3.969839963247068e-05, 0.00016811874229460955, -4.665421147365123e-05, -7.761216693324968e-06, -3.094216481258627e-06, 0.0003639503847807646, 0.00021804150310344994], [-3.623501106631011e-05, -0.00011876954522449523, 9.273142495658249e-05, -0.0007032749126665294, 0.00011764806549763307, 1.4277795344241895e-05, -5.920828698435798e-05, 5.7370460126549006e-05, -9.164848597720265e-05, -2.7443948056316003e-05, -1.1570412425498944e-05, -0.00018620422633830458, -3.0140143280732445e-05, -6.247698183869943e-05, -0.0004485347308218479, 2.218781446572393e-06]], "layer_3_biases": [-0.01446874812245369, -0.007275204639881849, -0.01906197890639305, 0.1015382930636406, -0.026976309716701508, -0.03184466436505318, 0.057618699967861176, -0.02500840276479721, -0.02427312359213829, -0.1383548229932785, 0.21021345257759094, -0.02863951586186886, 0.18944509327411652, -0.013902004808187485, 0.1448710560798645, 0.40303778648376465], "layer_3_weights": [[-0.00018323538824915886, -0.00015116576105356216, 2.1815476429765113e-05, 0.00019556513871066272, 0.00013961494551040232, 6.59984361846e-05, -2.4941733499872498e-05, -4.704953244072385e-05, -0.00016307883197441697, 7.380668193945894e-06, -0.00025223512784577906, 3.35484764946159e-05, -0.00019551841251086444, 5.134664024808444e-05, 2.3236752895172685e-05, -0.0005006256978958845], [-9.701523958938196e-05, 0.00015371745394077152, -0.00010216306691290811, -3.101541369687766e-05, -4.832415288547054e-05, 3.0606122891185805e-05, -0.00042720616329461336, -0.0005789209390059114, -3.2342148188035935e-05, 0.00011003002873621881, 0.0001487420086050406, -0.00020411024161148816, 0.00012016293476335704, 9.985062206396833e-05, 3.235152325942181e-05, 0.0002621136954985559], [-0.00013718275295104831, 0.00014266395010054111, -3.4052318369504064e-05, 0.0004657867830246687, 7.490761345252395e-05, 6.884708272991702e-05, 4.2351308366050944e-05, -6.855982792330906e-05, 0.00021651203860528767, -0.0001277421833947301, -0.0002960756828542799, 3.0181330657796934e-05, -0.00024283920356538147, 0.00011019119119737297, 0.0005021410761401057, -0.0002639290178194642], [-8.924273424781859e-05, -9.22706094570458e-05, 5.215978671913035e-05, -0.0003226659318897873, 9.057634451892227e-05, -0.00015637475007679313, 1.0905220733548049e-05, 0.0004994324408471584, -0.00016975235485006124, 3.644284515758045e-05, -0.00043805994209833443, 0.00024513574317097664, -0.00032350781839340925, 0.00019260577391833067, -0.0002630412927828729, -0.0010442829225212336], [-1.9845758288283832e-05, 0.00023233707179315388, 9.985182259697467e-05, -0.00025162569363601506, -7.992811333679128e-06, -5.246474393061362e-05, 0.0001813611015677452, -0.0005185749614611268, 0.00021714433387387544, 5.2657880587503314e-05, 0.0001524646213511005, -8.250747487181798e-05, 0.00028039474273100495, 8.339197665918618e-05, 0.0006824077572673559, -0.000271113240160048], [0.00018104407354258, 0.0001295436086365953, -2.1906054826104082e-05, -0.00033345859264954925, -0.00015109010564628989, 3.808021210716106e-05, -2.272867459396366e-05, 0.00029301687027327716, 7.779950101394206e-05, -2.2917205569683574e-05, 8.315676677739248e-05, -0.0001723143068375066, 3.555787407094613e-05, 9.202015644405037e-05, -2.7858177418238483e-05, 0.0003889008366968483], [0.00016989713185466826, 0.00012406462337821722, 9.703293471829966e-05, -0.00021204014774411917, -0.00011836070189019665, 0.00029376946622505784, 2.5000726964208297e-05, -0.00035273536923341453, 0.00025648216251283884, -1.4220526281860657e-05, 0.0012690165312960744, 0.0001620715338503942, 0.0013371894601732492, 0.00015647428517695516, 0.0003696800849866122, 0.00020596336980815977], [0.00010248155012959614, -4.7352634283015504e-05, -6.596001185243949e-05, 0.0005311339045874774, 0.00014796854520682245, -8.896561485016719e-05, -7.146185907913605e-06, 0.00011365107638994232, -0.00028036488220095634, -0.00012743867409881204, -6.7449541347741615e-06, -0.0001334088301518932, 4.755935515277088e-05, -0.0002715922018978745, 0.0005725697847083211, -0.0002826527052093297], [-6.303634290816262e-05, 6.233189924387261e-05, 6.298736116150394e-05, 0.0004189464671071619, 0.0001019855189952068, -4.1274783143308014e-05, -0.00011120282579213381, -2.127223888237495e-05, 1.4358888620336074e-05, -9.868562483461574e-05, 0.0001289331412408501, 3.9968439523363486e-05, 0.00010130774171557277, 7.626684237038717e-05, 0.00018253910820931196, 0.000279841769952327], [-7.297199044842273e-05, 0.00011612379603320733, 1.0641084372764453e-05, -0.0003937524452339858, 4.864756920142099e-05, 1.939309004228562e-05, -5.583730307989754e-05, -0.0002047477464657277, 7.408632427541306e-06, 2.6364597943029366e-05, 0.00018203284707851708, -3.6470908526098356e-05, 0.0001666042662691325, 5.194401819608174e-05, -7.117945642676204e-05, 0.00011333090515108779], [-0.00010800201562233269, -5.8755183999892324e-05, 0.00016367535863537341, -0.0006292397738434374, -8.017932123038918e-05, 1.829970278777182e-05, -0.0002517106186132878, 0.0008480082615278661, -6.944066262803972e-05, -6.127252709120512e-05, -0.00019971466099377722, -8.933991921367124e-05, -0.00018732582975644618, 0.0002810594451148063, -0.0003054570115637034, -0.00014775768795516342], [0.00021885130263399333, 4.5934961235616356e-05, 0.00017000127991195768, 0.0001873973960755393, 0.00010781666060211137, -1.6034082364058122e-05, 3.999008913524449e-05, 0.0003133743884973228, -7.768765499349684e-05, -5.7620301959104836e-05, -0.00024348865554202348, -9.948014485416934e-05, -0.0002242827758891508, -0.00021126461797393858, -0.0003847410262096673, -0.00031006280914880335], [-2.5996270778705366e-05, -0.0001164143905043602, -7.552067108917981e-05, -0.0006036977283656597, 4.671921851695515e-05, 0.00023011519806459546, -0.0001206568704219535, 0.0002871986653190106, 2.847090581781231e-05, -0.0001061970106093213, 3.4261804103152826e-05, 4.718993295682594e-06, 3.635773828136735e-05, 9.750277968123555e-05, -0.0001371649996144697, -0.0002136755210813135], [0.00012928379874210805, 0.00021659722551703453, -2.9352097044466063e-05, -5.507789319381118e-05, -0.00010610951721901074, -0.00015965945203788579, -0.00039167574141174555, -0.0006499674054794014, -1.3857144949724898e-05, -1.7657614080235362e-05, 6.657051562797278e-05, -0.0001626381854293868, 9.437842891202308e-06, -0.0001545597187941894, -7.583637489005923e-05, 0.000492661667522043], [-6.373674295900855e-06, 7.771937089273706e-05, -5.6332326494157314e-05, 0.0003737033111974597, 2.4494049284840003e-05, 5.769802373833954e-05, 0.0001304336474277079, -3.8799698813818395e-05, 0.0002018631639657542, 5.921631236560643e-05, 0.00015473809617105871, 1.640452683204785e-05, 0.00012017449626000598, 0.00016974021855276078, 0.00030942127341404557, 0.00021433350048027933], [-3.5451663279673085e-05, -0.00018879101844504476, 0.00017056959040928632, -0.0008050377364270389, 0.00022845463536214083, -2.11519691220019e-05, -3.876842311001383e-05, 0.00042806612327694893, -0.0001826696388889104, -4.239181726006791e-05, -1.5592742784065194e-05, -0.00023673821124248207, -5.602638793789083e-06, -5.0550450396258384e-05, -0.0005056777154095471, 6.263448449317366e-05]], "layer_4_biases": [0.11911428719758987, -0.012368095107376575, -0.036691199988126755, -0.03420790284872055, -0.0047874716110527515, -0.054163914173841476, 0.09137167781591415, -0.023741411045193672, -0.02808397077023983, -0.12241429835557938, 0.1972847580909729, -0.030387504026293755, 0.35701000690460205, -0.00429194001480937, 0.13510926067829132, 0.4914289116859436], "layer_4_weights": [[0.0005293399444781244, -0.00015095964772626758, 2.2987289412412792e-05, -7.188590825535357e-05, 0.00014012637257110327, 6.541446055052802e-05, -2.43954509642208e-05, 0.00018238638585899025, -0.0001627513993298635, 8.033694939513225e-06, -0.00025533378357067704, 3.339367322041653e-05, -0.00019704022270161659, 5.2910098020220175e-05, 2.3712756956228986e-05, -0.0005034008645452559], [0.0002079480909742415, 0.0001539950753794983, -0.00010151050810236484, 0.00015304888074751943, -4.305342008592561e-05, 3.1012965337140486e-05, -0.0004767713544424623, 4.3081970943603665e-05, -3.268072759965435e-05, 0.0001101223097066395, 0.00016995033365674317, -0.00020395993487909436, 0.00014100864063948393, 0.00010300173744326457, 1.6835734641063027e-05, 0.00028184085385873914], [-8.898452506400645e-06, 0.00014279286551754922, -3.3956646802835166e-05, -0.00016738373960833997, 7.583673868793994e-05, 6.88222426106222e-05, 3.2746502256486565e-05, 0.00014083126734476537, 0.00021652335999533534, -0.00012728339061141014, -0.0002946452295873314, 3.063978147110902e-05, -0.00024268713605124503, 0.00011066684237448499, 0.0005019023665226996, -0.0002637620491441339], [0.00035878390190191567, 0.00021375378128141165, 2.498202957212925e-05, -8.725594670977443e-05, 4.652143979910761e-05, -0.0001164990826509893, 5.527057874132879e-05, 8.336143218912184e-05, -3.2554653444094583e-05, 2.2963147785048932e-05, -0.00044115548371337354, 0.00021726408158428967, -0.0003233865136280656, 7.571560854557902e-05, -0.00026454718317836523, -0.0010354907717555761], [0.00045617230352945626, 0.00023271606187336147, 9.97444658423774e-05, 0.0002138845156878233, -3.2390723845310276e-06, -5.266281368676573e-05, 0.0001857935421867296, 2.1079824364278466e-05, 0.00021706470579374582, 5.1713388529606164e-05, 0.00015085379709489644, -8.360023639397696e-05, 0.00027971385861746967, 8.714832802070305e-05, 0.0006802926654927433, -0.00027185463113710284], [-0.0002764234668575227, 0.00012944657646585256, -2.2167343558976427e-05, 0.00016950970166362822, -0.00015134923160076141, 3.7546007661148906e-05, -3.102859409409575e-05, -0.00019742385484278202, 7.807706424500793e-05, -2.3849212084314786e-05, 9.179439803119749e-05, -0.0001721580047160387, 4.15346585214138e-05, 9.180082270177081e-05, -3.211146031389944e-05, 0.0003975669387727976], [0.0001156341313617304, 0.00010965077672153711, 9.958820737665519e-05, 4.931590592605062e-05, -0.00015472098311875015, 0.0003242004313506186, -3.486905188765377e-05, -0.00010050868877442554, 0.0001441884960513562, -2.732926805038005e-05, 0.001321447896771133, 0.00017021081293933094, 0.001385602867230773, 0.00024289227440021932, 0.0003571278939489275, 0.00021665479289367795], [-2.0654375475714915e-05, -4.7330780944321305e-05, -6.568709068233147e-05, -3.487465073703788e-05, 0.00014906514843460172, -8.909311145544052e-05, -5.863967544428306e-06, -0.0001230355992447585, -0.0002801731461659074, -0.000127256746054627, -4.559536591841606e-06, -0.00013371456589084119, 5.0162758270744234e-05, -0.0002717767492868006, 0.0005650876555591822, -0.00028197746723890305], [5.459498061100021e-05, 6.099602614995092e-05, 6.278059299802408e-05, -1.5665804312448017e-05, 0.00010693857620935887, -4.128891305299476e-05, -0.0001219727419083938, 6.97433206369169e-05, 1.5111896573216654e-05, -9.826750465435907e-05, 0.00013384349585976452, 4.063747837790288e-05, 0.00010507921979296952, 7.636668306076899e-05, 0.00017670085071586072, 0.0002842895337380469], [7.125629781512544e-05, 0.00011155062384204939, 9.394104381499346e-06, -0.0001454027951695025, 5.057309681433253e-05, 2.267496893182397e-05, -5.4730207921238616e-05, 7.346508209593594e-05, 1.2533505469036754e-05, 2.7599324312177487e-05, 0.0001835191942518577, -3.306114740553312e-05, 0.0001690297940513119, 4.910386633127928e-05, -6.22719744569622e-05, 0.00011263830674579367], [-8.562597940908745e-05, -3.730809476110153e-05, 0.00012799541582353413, 0.00011096409434685484, 1.953321770997718e-05, 0.0003398411790840328, -0.00014921085676178336, 0.00015628538676537573, -5.354227323550731e-05, 1.585913560120389e-05, -0.0001762358588166535, -0.00016509239503648132, -0.00017132761422544718, 7.863198698032647e-05, -0.0003737504011951387, -9.865312313195318e-05], [-0.00019541104848030955, 4.614701174432412e-05, 0.00017016471247188747, -3.130046388832852e-05, 0.00010852902050828561, -1.5882427760516293e-05, 3.7215319025563076e-05, -0.0002573604870121926, -7.72835046518594e-05, -5.8180081396130845e-05, -0.0002331340656382963, -9.93199209915474e-05, -0.00021532557730097324, -0.0002104288141708821, -0.00039818816003389657, -0.0003020098665729165], [0.00024270176072604954, -3.2287272915709764e-05, -7.038599869702011e-05, 9.111912368098274e-05, -7.738602289464325e-05, 9.941745702235494e-06, 0.000167540623806417, 1.742029417073354e-05, -2.7268353733234107e-05, -0.00011426590936025605, 3.951776761823567e-06, 9.748134471010417e-05, 2.7450607376522385e-05, 0.00014025589916855097, -0.00029630825156345963, -0.000254616083111614], [-0.0002619731239974499, 0.00021681477664969862, -2.9910026569268666e-05, 5.6178178056143224e-05, -0.00010618785745464265, -0.0001599037932464853, -0.00037913338746875525, -0.00013585180568043143, -1.398317272105487e-05, -1.8269853171659634e-05, 7.445494702551514e-05, -0.00016248843166977167, 1.4642863789049443e-05, -0.0001564693811815232, -8.035668724915013e-05, 0.000501369999255985], [0.00023276872525457293, -7.245974120451137e-05, -6.773639324819669e-05, 8.244831406045705e-05, -9.370087354909629e-05, 9.542977750243153e-06, 1.92178413271904e-05, 0.0001912841689772904, 0.00028471602126955986, 8.756571332924068e-05, 0.00014874778571538627, -2.4564211344113573e-05, 0.00011241056927246973, 0.00023784425866324455, -3.406450923648663e-05, 0.00022522824292536825], [-0.0005056762602180243, -0.00013220075925346464, 8.463435369776562e-05, -4.507134508457966e-05, 0.00010354349069530144, -4.850739424000494e-05, 1.3358126125240233e-06, -3.746420770767145e-05, -0.0001984046248253435, 0.0001293539971811697, -1.743021698530356e-06, -9.365328151034191e-05, -5.406575382949086e-06, -6.863702583359554e-05, -0.0005675835418514907, 0.00016936715110205114]], "output_biases": [-1.362608790397644, -0.09447531402111053], "output_weights": [[0.0895213782787323, -0.28811079263687134], [-0.09833616018295288, 0.8827763199806213], [0.21412773430347443, 0.0830683633685112], [-0.27209100127220154, -1.5274231433868408], [-0.005917460657656193, 0.14305144548416138], [-0.2503645718097687, 0.3884226083755493], [0.012653068639338017, -0.044718824326992035], [-0.11868055909872055, 0.2561693489551544], [0.1463421881198883, 0.7783479690551758], [0.09028349071741104, 0.03626351058483124], [-0.4244432747364044, -0.12252635508775711], [0.541734516620636, 0.8644670844078064], [-0.359526127576828, -0.1141163632273674], [-0.09864117205142975, 0.4160163104534149], [-0.21362599730491638, -0.48404768109321594], [-0.8746903538703918, -0.10411249846220016]]}, "hk_disentangled_rnn/~update_latents/update_net_1": {"input_biases": [-0.014586287550628185, -0.02356802299618721, 0.05909920856356621, 0.014263976365327835, -0.1009298712015152, 0.027401911094784737, -0.02768668532371521, -0.11181338131427765, 0.06837119162082672, -0.021400829777121544, 0.04961417615413666, -0.04014110192656517, 0.004618276841938496, -0.14738452434539795, -0.021321425214409828, 0.014582391828298569], "input_weights": [[0.44849058985710144, -0.14806878566741943, -0.18653687834739685, -0.17263510823249817, 1.2484689950942993, 0.23411907255649567, 0.025016600266098976, 0.8300660848617554, 0.0260348841547966, 1.1198052167892456, -0.37955206632614136, 0.223053440451622, -0.36209824681282043, 0.37637799978256226, 0.1618499755859375, 0.41198450326919556], [-0.5582453608512878, 0.6166532039642334, -0.34230977296829224, -0.38144341111183167, -0.7232219576835632, -0.8184118866920471, 0.24790789186954498, -0.1745814085006714, -0.3547896444797516, 0.3215022683143616, -0.6428266167640686, -0.14468979835510254, -0.22210665047168732, 0.9584577083587646, 0.27782586216926575, 0.30680903792381287], [1.0451821088790894, -0.24258804321289062, 0.13820429146289825, -0.214592844247818, -0.8102411031723022, 0.29004669189453125, 0.1282716989517212, 0.27577584981918335, -0.563406765460968, 0.2753303050994873, 0.26826784014701843, -0.3646983802318573, -1.0549949407577515, -0.09855710715055466, -0.37128379940986633, -0.26124826073646545], [0.45073962211608887, -0.6240159869194031, -0.5833548903465271, 0.4828323721885681, 0.33611416816711426, 1.082346796989441, -0.2308729737997055, -0.7166946530342102, -0.6029212474822998, 0.015382394194602966, -0.13890604674816132, -0.6263695955276489, -0.0774025246500969, -0.176993727684021, -0.14569158852100372, -0.039864420890808105], [0.49894848465919495, -0.5650874376296997, -0.07292570173740387, 0.5786125063896179, -0.27553606033325195, -0.49815884232521057, -0.49198848009109497, 0.05535437911748886, 0.6809874773025513, -0.08678402751684189, -0.1678006500005722, 0.35643666982650757, 0.11791296303272247, 0.5850748419761658, 0.2973707914352417, 0.6025750041007996], [-0.5386614203453064, -0.15347927808761597, -0.054786987602710724, -0.31964370608329773, -0.45899295806884766, 0.40547946095466614, -0.4159961938858032, 0.5138813257217407, -0.2484365999698639, -0.0037163863889873028, 0.33898937702178955, 0.7779275178909302, 0.10406149923801422, -0.08469019830226898, -0.12704679369926453, -0.06330530345439911], [-0.8556511402130127, 0.10296258330345154, -0.6140608191490173, -0.5732256770133972, -0.5449799299240112, 0.49450060725212097, -0.4572694003582001, -0.16094912588596344, -0.17998231947422028, 0.3283790946006775, -1.2962476015090942, 0.16493281722068787, -0.6938562393188477, 0.040440719574689865, -0.04942825064063072, -0.09703738242387772]], "layer_0_biases": [0.11496537923812866, 0.00239731976762414, -0.04104610159993172, -0.046409446746110916, -0.1926480382680893, 0.0479721799492836, -0.00228870939463377, -0.027008354663848877, -0.06534850597381592, 0.09358169883489609, 0.06632247567176819, -0.06179771199822426, -0.037109557539224625, -0.17303511500358582, -0.02323211543262005, -0.06365934014320374], "layer_0_weights": [[0.0007995430496521294, -0.013988109305500984, -0.006032620556652546, -0.013364110141992569, -5.3410698455991223e-05, 0.0008663802873343229, -0.005468128714710474, 0.018370458856225014, -0.005036455113440752, 0.00930923130363226, 0.0004750153748318553, 0.007568653207272291, -0.01350395753979683, -9.011346992338076e-05, -0.0029002015944570303, -0.0041316598653793335], [-0.0011256560683250427, 0.00307828257791698, -0.0018783812411129475, -0.000886325491592288, 2.789540303638205e-05, -0.0012520372401922941, 0.004944814369082451, -0.00032642882433719933, 0.001109374570660293, -0.002825196133926511, -0.0003160953929182142, -0.0020936033688485622, 0.007904833182692528, 3.590342021198012e-05, 0.013486465439200401, -0.00014875535271130502], [-0.00047289434587582946, -0.00037068341043777764, -0.001255952985957265, -0.010266678407788277, -5.092238279758021e-05, 0.002296878257766366, 0.009018288925290108, 0.0011775221209973097, -0.00592705886811018, 0.009646815247833729, 0.00042151231900788844, -0.005484898574650288, -0.0007257597171701491, -8.590444849687628e-06, 0.013569987379014492, -0.002028572605922818], [0.0005606472841463983, -0.0013244665460661054, -0.00817228015512228, -0.00026685139164328575, -1.9352128219907172e-05, 0.004354787990450859, 0.004436700139194727, 0.005961163900792599, -0.0010014158906415105, 0.002218866255134344, 0.00045013974886387587, 0.006696815136820078, -0.011182360351085663, -5.8925681514665484e-05, -0.011553029529750347, 0.0013874259311705828], [-0.0002932957431767136, -0.013439913280308247, 5.6198565289378166e-05, 0.001435831654816866, 0.00013102458615321666, -0.0038829504046589136, -0.00789237767457962, -0.002002071589231491, 0.006400676444172859, 0.015342282131314278, -0.0009262943640351295, 0.007958320900797844, -0.030553940683603287, 9.018085256684572e-05, 0.007936114445328712, 0.018062753602862358], [0.0009409188642166555, -0.002282459521666169, 0.014268877916038036, 0.011163316667079926, 0.00013156903150957078, 0.001288886764086783, -0.004689892288297415, -0.00825032964348793, -6.813948857598007e-05, 0.0017853573663160205, 1.1757528227462899e-05, -0.0007251003989949822, -0.009432756341993809, 0.0001702898443909362, -0.0078637870028615, -0.00012978560698684305], [-0.0009289123700000346, -0.004294885788112879, -0.004010280128568411, -0.006441409699618816, 5.930034603807144e-05, 0.0005412385216914117, 0.005043766461312771, 0.006355086341500282, -0.001851145294494927, 0.004295262508094311, -0.00033587502548471093, 0.0015419981209561229, -0.0020538277458399534, 7.819194252078887e-06, 0.010583602823317051, 0.00104383600410074], [-0.00023939785023685545, -0.00811068993061781, 0.008614986203610897, -0.012346970848739147, -1.7324366126558743e-05, -0.005607390310615301, -0.011183748953044415, -0.0072761173360049725, -0.0012995818397030234, 0.011439117603003979, -0.000168868456967175, -0.00926956720650196, 0.0004016921448055655, 2.989542917930521e-05, 0.015284035354852676, 0.009751415811479092], [0.0003774892829824239, 0.004207715857774019, -0.006742363795638084, -0.0009985044598579407, -5.442100882646628e-05, -0.0020821767393499613, 0.0013665481237694621, 0.000978854252025485, 0.0023235150147229433, 0.00468656187877059, 0.0001500774669693783, 0.000789795012678951, -0.0035486503038555384, -4.140274540986866e-05, 0.0001287537015741691, -0.003010842716321349], [-0.0003014950780197978, -0.011481325142085552, 0.0031709629110991955, -0.002133839763700962, 2.97016158583574e-05, -0.008264943026006222, -0.019615964964032173, 0.0010798191651701927, 0.0058120666071772575, -0.0003669043944682926, -0.0007605094579048455, 0.003045568009838462, -0.003911927342414856, 4.4846779928775504e-05, 0.004976253490895033, 0.007885511964559555], [-0.00037479461752809584, -0.004360046237707138, 0.003823475679382682, -0.01649785414338112, -1.025416986522032e-05, 0.008784037083387375, 0.015552695840597153, -0.0035658639390021563, -0.01185340341180563, 0.01788398250937462, 0.0007615669746883214, -0.009031051769852638, -0.005857405252754688, -9.443260205443949e-05, 0.009693147614598274, 0.009061276912689209], [-5.1382223318796605e-05, 0.0030709095299243927, 0.008195312693715096, -0.0023104683496057987, -8.807489211903885e-05, -0.0026033122558146715, -0.0049246372655034065, -0.014635952189564705, 0.000216278072912246, 0.004654710181057453, 3.091065809712745e-05, -0.010973933152854443, 0.005920864176005125, -6.147025851532817e-05, 0.004053131211549044, 0.008989267982542515], [-0.0005585359176620841, 0.0038169913459569216, -0.003263795282691717, 0.0003339894756209105, 5.216919362283079e-06, 0.005937293171882629, 0.013094180263578892, -0.008316666819155216, -0.0009488524519838393, 0.006413296330720186, 0.00018108607036992908, -0.0020099494140595198, -0.008062837645411491, -4.1648938349680975e-05, 0.0001997360959649086, 0.01358973328024149], [-0.000597058329731226, -0.004061092156916857, -0.007179570384323597, -0.0038364643696695566, -7.627755985595286e-05, -0.004402159247547388, -0.011611989699304104, 0.004840067587792873, 0.0048888130113482475, -0.007415735628455877, -0.0007143242401070893, 0.004694665782153606, 0.006027575582265854, -8.92658790689893e-05, -0.007166566327214241, 0.008670632727444172], [-0.0002043290442088619, -0.00034289894392713904, -0.004819849971681833, 3.349084363435395e-05, -4.601267573889345e-05, -0.0018652656581252813, -0.003097879933193326, 0.000630452879704535, 0.0033708487171679735, -0.0013058811891824007, -0.00029165580053813756, 0.0028786459006369114, -0.0011585569009184837, -8.315599552588537e-05, -0.003293024841696024, 0.004979508928954601], [-8.346665708813816e-05, -0.0038704173639416695, -0.005345259793102741, -0.002089339541271329, -7.524206739617512e-05, -0.002851917175576091, -0.008679544553160667, 0.0019747570622712374, 0.004177045542746782, -0.002056918805465102, -0.00021963931794743985, 0.004081021063029766, -0.00276018469594419, -9.967468940885738e-05, -0.005643616430461407, 0.008099936880171299]], "layer_1_biases": [0.06713829189538956, 0.01932624541223049, 0.04359375312924385, 0.0012279434595257044, -0.03266225755214691, -0.013279907405376434, -0.00949156004935503, -0.026099001988768578, -0.002921526087448001, -0.05472831428050995, 0.050343096256256104, 0.027325456961989403, 0.028125522658228874, -0.07548689842224121, -0.16412656009197235, 0.022351132705807686], "layer_1_weights": [[0.0005336554604582489, -0.009706909768283367, -0.0020376183092594147, -0.006219679955393076, -6.565782678080723e-05, -9.161708294413984e-05, -0.00010969558206852525, -8.653342956677079e-05, 0.00911709014326334, 0.016881708055734634, -3.612511864048429e-05, -0.004477625712752342, 0.004160044249147177, -9.086648060474545e-05, -0.0012245293473824859, -0.015620589256286621], [-0.001074557309038937, -0.002836628118529916, -0.00950444396585226, -0.0002706488303374499, 3.013783134520054e-05, -5.788645921711577e-06, 2.3454544134438038e-05, 1.3328182831173763e-05, -0.0008228516671806574, -0.012844090349972248, -0.0001948130375239998, -0.0006034345715306699, -0.007319869473576546, 3.170828495058231e-05, 0.0013793611433357, 0.008979173377156258], [-0.000671649759169668, -0.0004910944844596088, -0.004129153676331043, -0.0020619849674403667, -3.5836874303640798e-06, -0.00012544344644993544, -2.478903297742363e-06, -6.16257093497552e-05, 0.01160516683012247, -9.32075345190242e-05, -0.00017464612028561532, 0.0035718162544071674, -0.0037433630786836147, -2.789207428577356e-06, -0.017259715124964714, -0.002200216520577669], [0.0005707744276151061, 0.00409499928355217, 0.00334374513477087, 0.0008406683919019997, -3.0127512218314223e-05, -2.260883957205806e-05, -2.407812098681461e-05, -2.7571215468924493e-05, -0.0030295350588858128, 0.00641629146412015, 0.00012022537703160197, 0.005882826168090105, 0.0003660612856037915, -5.4056374210631475e-05, -0.0048459856770932674, -0.007253278978168964], [-0.00048724000225774944, -0.014767077751457691, -0.0034367572516202927, -0.018335893750190735, 0.00010973550524795428, 8.701988554093987e-05, -4.368747795524541e-06, 8.200811134884134e-05, -0.01412039902061224, -0.00636996328830719, -0.000593604811001569, -0.0026761654298752546, 0.01743520051240921, 8.230466482928023e-05, 0.020807402208447456, -6.14987438893877e-05], [0.0006545037613250315, -0.004907663911581039, 0.014404742047190666, -0.0032746128272265196, 0.00014827853010501713, 0.00012504753249231726, -2.7040934583055787e-05, 0.00011971664935117587, -0.004861326888203621, 0.011511729098856449, -0.00014510094479192048, -0.0006759395473636687, 0.022296365350484848, 0.0001732103992253542, 0.007946230471134186, -0.004650404676795006], [-0.0010174751514568925, -0.009153038263320923, -0.010900822468101978, -0.005875472445040941, 3.950754035031423e-05, -5.302570934873074e-05, -8.093428186839446e-05, -3.148755422444083e-05, 0.0010770640801638365, -0.005861125886440277, -0.00021351214672904462, -0.0009542182669974864, 0.0003700292145367712, 2.991828012000042e-07, 0.0023391854483634233, -0.0016774716787040234], [-0.0006219868082553148, -0.004652535077184439, -0.00482794689014554, -0.00884981919080019, 2.5312474463135004e-06, 1.0540594303165562e-05, 1.9069799236604013e-05, 3.4342374419793487e-05, 0.008182966150343418, -0.001989152282476425, -8.344151137862355e-05, -0.009060878306627274, 0.004730366636067629, 2.7804651836049743e-05, 0.0009014377137646079, -0.004488814156502485], [0.0006577615858986974, 0.00799305085092783, 0.0036949433851987123, 0.0028575260657817125, -5.358907947083935e-05, 3.746189031517133e-05, 0.00015796124353073537, 2.3033198885968886e-05, 0.004865150433033705, -0.002678680932149291, 0.00023025763221085072, 0.005899451207369566, -0.014854582957923412, -4.0944069041870534e-05, -0.012307113036513329, 0.009158534929156303], [-0.0006156042218208313, -0.010713176801800728, -0.004973545670509338, -0.007914206944406033, 2.5109962734859437e-05, 7.226384695968591e-06, -1.4760087651666254e-05, 1.9767527192016132e-05, -0.00561492471024394, -0.002795247361063957, -0.00039424863643944263, -0.01321982592344284, 0.005496002733707428, 3.3540036383783445e-05, 0.02374497801065445, -5.014784983359277e-05], [-0.0007712335791438818, 0.00033237566822208464, -0.006154538597911596, -0.006838245317339897, -7.724233910266776e-06, -0.00013604511332232505, -0.00016538925410714, -0.00012633991718757898, 0.010812859050929546, 0.005311452317982912, -0.000512456230353564, 0.0054120286367833614, 0.013473550789058208, -9.090144885703921e-05, -0.024912433698773384, -0.0195592250674963], [-0.00017686192586552352, 0.009887565858662128, 0.003174564801156521, 0.0007723007001914084, -6.70571462251246e-05, 2.4064065655693412e-05, 0.00018277174967806786, 1.0263202966598328e-05, 0.003905930556356907, -0.0042618559673428535, -4.9635404138825834e-05, -0.0010199114913120866, 0.0003202921652700752, -4.828048258787021e-05, -0.008375917561352253, 0.0010944980895146728], [-0.00030885456362739205, 0.00890607014298439, -0.0024333596229553223, -0.001189894275739789, -2.994689111801563e-06, -8.182720193872228e-06, -2.144511199730914e-05, -1.4657473911938723e-05, -0.006956765428185463, -0.008112176321446896, -0.0003657235065475106, 0.008969781920313835, 0.0033816269133239985, -3.637190820882097e-05, -0.011572093702852726, -0.003110990859568119], [-0.0003619912895374, 0.001964560244232416, -0.008712026290595531, 0.0010747939813882113, -7.765225745970383e-05, -6.416356336558238e-05, -7.823240594007075e-05, -4.8870275350054726e-05, -0.008560506626963615, -0.007278733886778355, -0.0002774130553007126, -0.008354686200618744, -0.00543036125600338, -9.056685667019337e-05, 0.016574596986174583, -0.0019432042026892304], [1.9424947822699323e-05, 0.0021468657068908215, -0.0033891601487994194, 6.147872045403346e-05, -6.575561565114185e-05, -3.253324393881485e-05, 2.5871704565361142e-05, -3.64409206667915e-05, -0.005610970314592123, -0.005178335588425398, -0.00017865709378384054, -0.0009954656707122922, -0.0037293231580406427, -8.7313586845994e-05, 0.00484054908156395, 0.0019908540416508913], [1.2079955922672525e-05, 0.002844527130946517, -0.002806949894875288, -0.0009364052093587816, -8.814191824058071e-05, -3.333742279210128e-05, -2.9229226129245944e-05, -4.443603029358201e-05, -0.0062944479286670685, -0.0033088780473917723, -0.0001814269635360688, -0.004276924300938845, -0.002574187470600009, -0.00010469432163517922, 0.009234417229890823, -0.0019115287577733397]], "layer_2_biases": [0.10539031773805618, 0.013374431990087032, 0.022134216502308846, 0.013516619801521301, -0.030812783166766167, -0.040021978318691254, -0.08294645696878433, -0.028653057292103767, 0.04044163227081299, -0.06143103167414665, -0.08442804962396622, -0.06118616461753845, 0.002176059875637293, -0.014665784314274788, -0.15584541857242584, 0.050625674426555634], "layer_2_weights": [[0.00029751856345683336, -0.009004571475088596, -0.0002656029537320137, -0.01299887802451849, -7.585209823446348e-05, 0.007677158340811729, -0.01159441377967596, -8.43190064188093e-05, -0.00032617643591947854, -0.0055668530985713005, -6.74243492539972e-05, 0.00027666587266139686, -0.012869668193161488, 0.008298881351947784, -0.004343572538346052, 2.8680100513156503e-05], [-0.0009854361414909363, 0.003726991591975093, 0.0010327561758458614, -0.0005193283432163298, 3.561412086128257e-05, 0.0012922895839437842, 0.0017047631554305553, 9.623960977478418e-06, -0.00013571008457802236, 0.002625276567414403, 3.791602921410231e-06, 0.00359765300527215, 0.005128775257617235, 2.6671556042856537e-05, 0.007212488446384668, 0.0005417374195531011], [-0.0008495424408465624, -1.2726967725029681e-05, 0.0001923130766954273, -0.0029836574103683233, 1.8477850971976295e-05, -0.0035004301462322474, -0.004154009744524956, -4.814374915440567e-05, 3.3776232157833874e-05, -0.00591896940022707, -7.647134771104902e-05, -0.00028388359351083636, 0.0031188707798719406, 0.0007413292187266052, -0.014368201605975628, 0.0003666133852675557], [0.0005108456825837493, 0.0030593036208301783, -0.00023218206479214132, 0.0012274399632588029, -3.368018951732665e-05, 0.0012956365244463086, -0.014464909210801125, -2.6944808269036002e-05, -0.0007803908083587885, 0.0035967729054391384, -4.768529106513597e-05, -0.008662879467010498, -0.0075931428000330925, 0.0021650411654263735, -0.008361163549125195, -4.541482121567242e-05], [-0.0007272567017935216, -0.009240248240530491, -0.00036503400770016015, -0.012196908704936504, 0.0001063060772139579, -0.004225501324981451, 0.006313210353255272, 6.731429311912507e-05, -5.23370508744847e-05, -0.024799998849630356, 8.373679884243757e-05, -0.018184741958975792, 0.008717376738786697, -0.0015971905086189508, 0.01869138330221176, -0.0003185868263244629], [0.0005513527430593967, -0.00675677414983511, -8.045802678680047e-05, 0.0026392675936222076, 0.0001500329963164404, -0.0003234542964491993, 0.0035108409356325865, 0.0001339553127763793, -0.0009127387311309576, -0.01186011265963316, 0.00015252783487085253, 0.0017122430726885796, 0.013476306572556496, -0.00403403677046299, -0.009615972638130188, 0.0007226084126159549], [-0.0011266795918345451, -0.0008996539399959147, -8.755010640015826e-05, -0.007966844365000725, 3.667066266643815e-05, 0.005165672395378351, -0.0069348192773759365, -3.9277743780985475e-05, 0.00046560901682823896, -0.003020704723894596, -3.217142148059793e-05, 0.0013699033297598362, 0.00024073923123069108, 0.0033460522536188364, 0.008735353127121925, -0.00024123665934894234], [-0.0004900863277725875, -0.00797408726066351, -0.0006769152241759002, -0.007948938757181168, 9.966313882614486e-06, -0.010733875446021557, 0.01819498836994171, 3.0279110433184542e-05, 0.0014166210312396288, -0.014681611210107803, 1.9232060367357917e-05, 0.0001260298304259777, -0.0031650930177420378, -0.0030251918360590935, 0.009727261029183865, -0.0006884992471896112], [0.0007993908366188407, 0.0005902397679165006, 6.3170059547701385e-06, 0.002095357049256563, -4.6406315959757194e-05, -0.006163571961224079, 0.0030787179712206125, 8.712050657777581e-06, 0.0003980143810622394, -0.0017938686069101095, -2.574321479187347e-05, -0.0093008391559124, 0.0031316771637648344, -0.00025439276942051947, -0.013469567522406578, -0.00032021006336435676], [-0.000770989281591028, -0.00835242960602045, 0.00014538980030920357, -0.009335357695817947, 1.9763754607993178e-05, -0.00016537074407096952, 0.017780058085918427, 1.678215448919218e-05, 0.0005429488373920321, -0.007553341798484325, 2.791633778542746e-05, 0.0003805967280641198, -0.003699365071952343, 0.0001398812310071662, 0.026330657303333282, -0.0002503889554645866], [-0.0007922594086267054, 0.0017132479697465897, 0.0009444974712096155, -0.004032114055007696, 7.96713720774278e-07, -0.007054958492517471, -0.018560485914349556, -0.00011658997391350567, -0.0020126989111304283, -0.009903843514621258, -0.000116230636194814, -0.0032449932768940926, -0.0054802242666482925, -0.0011249376693740487, -0.016347350552678108, 0.0016096052713692188], [0.00020649164798669517, 0.0010800654999911785, 0.00010037255560746416, 0.005705439485609531, -4.960536170983687e-05, -0.014886703342199326, 0.01477381307631731, 2.2352234736899845e-05, 0.00018346980505157262, -0.004681113176047802, -1.1147688383061904e-05, -0.003746893722563982, -0.0014037267537787557, -0.006701419595628977, -0.003738818224519491, 2.909113209170755e-05], [-0.00031037948792800307, 0.009463462047278881, 0.0006237245979718864, 0.005230362061411142, 1.2701232662948314e-05, -0.009304637089371681, -0.011309107765555382, -1.3066539395367727e-05, -0.0014304558280855417, -0.000629425689112395, -4.145224374951795e-05, -0.01457541435956955, -0.0025929135736078024, -0.0040949443355202675, -0.0051330868154764175, 0.0006971663678996265], [-0.0004759808361995965, 0.002896730788052082, 0.0003212681913282722, -0.002515811240300536, -0.00011260731116635725, 0.0016336021944880486, 0.005228106398135424, -5.790313662146218e-05, -7.031942368485034e-05, 0.011717134155333042, -7.913036097306758e-05, -0.0013845677021890879, -0.02119976095855236, 0.002359248697757721, 0.027868708595633507, -0.00033765597618184984], [0.00014927262964192778, 0.001083818613551557, -2.6339204850955866e-05, -0.00042773608583956957, -3.6349520087242126e-05, -0.0006577200838364661, 0.0034007099457085133, -4.419066681293771e-05, 0.0001662328577367589, 0.002583369379863143, -4.4995285861659795e-05, -0.0051402440294623375, -0.005766736343502998, 0.00027845753356814384, 0.012885295785963535, -0.0004023087094537914], [-7.185158028732985e-05, 0.0018028052290901542, 0.0007294905371963978, -0.0008727419190108776, -9.927144856192172e-05, -0.0024110169615596533, 0.005707025062292814, -4.557110514724627e-05, -0.0008033616468310356, 0.003670729463919997, -5.5541131587233394e-05, -0.00663096085190773, -0.014737722463905811, 0.00041155467624776065, 0.014236349612474442, 0.00028263984131626785]], "layer_3_biases": [0.35456013679504395, 0.020036112517118454, 0.03065376728773117, -0.1226971447467804, -0.014184808358550072, 0.02503993548452854, 0.062293216586112976, -0.07161115109920502, 0.04473796859383583, -0.03508704900741577, -0.030592994764447212, -0.029138794168829918, 0.03208598122000694, 0.01748085767030716, -0.030849292874336243, 0.009694572538137436], "layer_3_weights": [[7.737746273051016e-06, 0.017931358888745308, 0.0004418507742229849, -0.014025934971868992, -9.418003173777834e-05, -0.004721939563751221, -0.005203319247812033, -8.664708002470434e-05, -0.0009053996182046831, 0.020740734413266182, 0.004468533676117659, -9.548231901135296e-05, 0.0010627825977280736, -0.0005576733383350074, 0.00721811642870307, -0.008923993445932865], [-0.0006009630160406232, -0.010807146318256855, 0.0010716760298237205, 0.006532496307045221, 3.5262319215689786e-06, -1.6743133528507315e-05, -0.0021136889699846506, 9.31721933739027e-06, -0.00041074337786994874, -0.004490322433412075, -0.004134263377636671, 1.2246906408108771e-05, 0.001046797027811408, -1.7525981093058363e-05, -0.00012360663095023483, 0.00839496124535799], [-0.00021609824034385383, 0.003035970963537693, -0.0003591474087443203, -0.00227911164984107, -3.122405905742198e-05, 2.476215740898624e-05, -0.005651331506669521, -4.616681326297112e-05, 0.0007410511025227606, 0.005296895280480385, -0.003243714338168502, -0.00010945236135739833, -0.0007802981417626143, 0.00032893448951654136, 0.005173472687602043, 0.0006026446353644133], [0.00021244051458779722, 0.0037214579060673714, -7.49820756027475e-05, 0.0032975911162793636, -2.6257557692588307e-05, 0.0049250624142587185, -0.010172626003623009, -2.3035476260702126e-05, -0.0008953460492193699, 0.008372748270630836, 0.007855633273720741, -4.2415766074554995e-05, 0.00015887377958279103, -0.0002165465266443789, 0.003825344378128648, 0.0004035689344163984], [-0.0002893701894208789, -0.006434376817196608, -0.0001190170441986993, 0.022077912464737892, 9.723495168145746e-05, 0.0005852357717230916, -0.008474222384393215, 6.961589679121971e-05, -0.000520042609423399, 0.009907159022986889, 0.0021601144690066576, 4.7752044338267297e-05, 0.0005009297165088356, -0.0006684605032205582, -0.030872676521539688, -0.004834653809666634], [0.000421560718677938, 0.003206250723451376, -0.0008806459372863173, -0.007669009733945131, 0.00017839980137068778, 0.0021848042961210012, 0.010380182415246964, 0.00014265776553656906, 0.00012345709546934813, 0.0048631783574819565, -0.004269994329661131, 6.90621673129499e-05, -6.305989518295974e-05, -0.00034722150303423405, -0.01129194162786007, -0.010300526395440102], [-0.0006383767467923462, -0.004061262123286724, -0.0001931700826389715, 0.001811457914300263, -2.8458300221245736e-05, -0.0012656566686928272, -0.0032520678360015154, -4.000398621428758e-05, 0.0005278727621771395, 0.005138728301972151, -0.0030193179845809937, -5.5529748351546004e-05, -0.0004226879100315273, 0.00013270888302940875, 0.002219555899500847, 0.0013906523818150163], [5.8187550166621804e-05, 0.008748466148972511, -0.00034141389187425375, -0.0032717573922127485, -1.1712892046489287e-05, -0.009337657131254673, 0.011308874003589153, 1.9969744244008325e-05, 0.0012898837449029088, -0.008166122250258923, -0.006192323751747608, 4.664633161155507e-05, -0.000736512360163033, 0.00022622708638664335, -0.006096851080656052, -0.00853215903043747], [0.000535984116140753, -0.0002806749544106424, 0.0005597895360551775, 0.01062292605638504, -3.3996315323747694e-05, 0.0025611233431845903, -0.014401746913790703, 2.6992579478246626e-06, -0.0004334037657827139, 0.004255003295838833, 0.005618753843009472, 0.00011863593681482598, 4.981357415090315e-05, 9.327346924692392e-05, -0.0035496267955750227, 0.005771763622760773], [-0.0002635702840052545, 0.0013174032792448997, 0.0011058029485866427, 0.0010651691118255258, 1.5117649127205368e-05, -0.00946821365505457, 0.009803161025047302, 1.1638158866844606e-05, -0.0005418694927357137, -0.003202292835339904, -0.0016850640531629324, 1.2803968729713233e-07, 0.0016216030344367027, -0.0006437238189391792, -0.014429718255996704, -0.00579494284465909], [-0.0004623988934326917, 0.01355922780930996, 0.0012610414996743202, -0.0072527239099144936, -6.360965926432982e-05, 2.4329379812115803e-05, -0.0072026033885777, -0.00011699093010975048, -0.0020171997603029013, 0.0037634114269167185, -0.005272720009088516, -0.0001465259410906583, 0.0022565501276403666, -0.0002823000540956855, 0.01361528318375349, -0.005601020995527506], [0.0006284626433625817, 0.0043185316026210785, -0.00047869380796328187, 0.0031091992277652025, -1.4172626833897084e-05, -0.0026450592558830976, 0.007554148323833942, 2.178383329010103e-05, 0.0010166041320189834, -0.01657850481569767, -0.0029960956890136003, 8.271766273537651e-05, -0.0010124266846105456, 0.00044296917621977627, -0.002576879458501935, -0.003203671658411622], [-0.00020537132513709366, -0.005293530877679586, 0.0011227919021621346, 0.01563016138970852, 1.8859354895539582e-06, 0.005801591090857983, -0.012522720731794834, -6.140444838820258e-06, -0.0018912609666585922, -0.005147875286638737, 0.0023689966183155775, -3.201727304258384e-05, 0.0015673134475946426, -0.0002884856949094683, -0.0012205262901261449, 0.005079968366771936], [-0.0003992056881543249, 0.00044126357533968985, 3.3861659176182e-05, 0.004455098416656256, -9.484417387284338e-05, -0.005932600703090429, 0.006315081845968962, -6.122040213085711e-05, 0.00039433379424735904, -0.011698883958160877, 0.0053418828174471855, -5.9322654124116525e-05, -0.00043270696187391877, 4.525127587839961e-05, 0.004221712704747915, 0.0002224771014880389], [0.0001423389185220003, -0.0021338765509426594, -0.0006925230263732374, 0.008495002053678036, -4.634964352590032e-05, -0.0009015274117700756, 0.00041498910286463797, -4.432419882505201e-05, 0.0009094761335290968, -0.004034796729683876, 0.0037013422697782516, -6.874925020383671e-07, -0.0012847291072830558, 0.00021423169528134167, -0.002785789780318737, 0.0008919827523641288], [3.1843778742768336e-06, 0.0011502179550006986, 7.399509922834113e-05, 0.0075264303013682365, -6.132882845122367e-05, -0.0038517036009579897, 0.00248439097777009, -3.924488919437863e-05, 2.2493939468404278e-05, -0.005371446255594492, 0.005465356633067131, -7.006396117503755e-06, -0.00015392513887491077, -9.315321949543431e-05, -0.0024565437342971563, -0.0003751645272132009]], "layer_4_biases": [0.3563033640384674, -0.022060437127947807, -0.01136303786188364, -0.016498656943440437, -0.02606886439025402, 0.06728984415531158, -0.1065855324268341, -0.14992088079452515, -0.0745898187160492, 0.005727171897888184, 0.009870253503322601, 0.0007684704032726586, -0.023548027500510216, 0.021710772067308426, -0.018857140094041824, 0.02931223064661026], "layer_4_weights": [[-0.0005328070255927742, 0.01320974063128233, 0.012210124172270298, -0.009147717617452145, -6.718658551108092e-05, -0.0010534048778936267, -0.024983499199151993, -5.838537617819384e-05, -0.0019053875003010035, -0.007562684826552868, -0.005342673975974321, -0.010474969632923603, 0.01305345818400383, -0.00051462760893628, -0.0010623547714203596, -0.003568182233721018], [-7.575542258564383e-05, -0.005064237397164106, -0.010516589507460594, 0.00982724130153656, 9.365634468849748e-06, -0.0004908289993181825, 0.008389697410166264, 4.2037199818878435e-06, 0.009140247479081154, 0.009698000736534595, 0.0018755148630589247, -0.0021618332248181105, 0.0005698062595911324, -0.0002560756402090192, 0.015360970050096512, 0.00010958355414913967], [0.0001638229878153652, 0.0042275236919522285, -0.0035574219655245543, 0.002848767675459385, 1.816305120883044e-05, 0.0007976863416843116, -0.011130127124488354, -3.0410796171054244e-05, 0.006573115009814501, 0.0038717889692634344, 0.0020814002491533756, -0.002116799121722579, 0.003345733741298318, 0.0002778711204882711, 0.012954646721482277, 2.9104976420057938e-05], [-0.00021507410565391183, 0.006794091779738665, 0.006372849456965923, 0.0006464126636274159, -3.246887354180217e-05, -0.0008043238194659352, -0.008750565350055695, -2.555071478127502e-05, -0.01081809587776661, -0.003581200260668993, -1.734387296892237e-05, 0.004631880670785904, 0.0023451854940503836, -0.00023926082940306515, -0.01905028335750103, 0.0068277535028755665], [-0.00020821653015445918, 0.0060316529124975204, -0.01992221362888813, -0.0114167220890522, 7.214625657070428e-05, -0.00018575246213003993, 0.005269589833915234, 7.677100074943155e-05, 0.006267771124839783, -0.015857158228754997, -0.004891269374638796, 0.0009336770162917674, 0.0012979074381291866, -0.00018623654614202678, -0.014638896100223064, -0.007133190520107746], [0.00023373372096102685, -0.005338137503713369, 0.0037918647285550833, -0.019461730495095253, 0.00018235118477605283, 0.00012447086919564754, -0.000542818452231586, 0.00017234859114978462, -0.0094814607873559, -0.015738027170300484, -0.0011631675297394395, 0.005406709387898445, -0.012008956633508205, 0.0001807186345104128, -0.026552647352218628, -0.005922258365899324], [-0.0001051787257893011, -0.004598434083163738, -0.009946641512215137, 0.0020404623355716467, -2.805140866257716e-05, 4.6471450332319364e-05, -0.0008052858174778521, -3.7606328987749293e-05, 0.008243592455983162, 0.0015001674182713032, -0.00047536782221868634, -0.004854551516473293, 0.003848401363939047, -0.00011703367636073381, 0.015205027535557747, -0.0041143218986690044], [6.860389112262055e-05, 0.005235451739281416, -0.006026039365679026, -0.0008711772388778627, -3.775528966798447e-06, 0.0003548842796590179, -0.00024546796339564025, 5.432633770396933e-06, 0.013008182868361473, -0.0016560970107093453, 0.00023812772997189313, -0.00897431280463934, 0.010909438133239746, 2.143039455404505e-05, 0.02056395635008812, -0.008101952262222767], [6.098307858337648e-05, 0.014270184561610222, 0.0008723383070901036, 0.005430128891021013, -3.9834107155911624e-05, -0.0005603731260634959, -0.006785083096474409, -2.0629091523005627e-05, 0.002720063319429755, 0.007307837717235088, -0.0007031222921796143, 0.0012341791298240423, 0.001171112759038806, -0.0001336830173386261, -0.0032006443943828344, 0.006259526126086712], [-0.0001229924091603607, 0.0013284384040161967, -0.002025635913014412, -0.004908382426947355, 1.5128722225199454e-05, -0.0009656667825765908, 0.006093362811952829, 9.777339982974809e-06, 0.00997522659599781, -0.0048270453698933125, -0.0055861822329461575, -0.010334903374314308, 0.006005130708217621, -0.0005240589962340891, 0.00783468782901764, -0.008312937803566456], [-0.00010973885946441442, -0.0004427497915457934, -0.005602986551821232, 0.0019708184991031885, -6.779700197512284e-05, -0.0007703130831941962, -0.011114554479718208, -0.00010107566777151078, -0.005415839143097401, -0.003745574736967683, 0.007781940512359142, 0.0007574919145554304, 0.012759216129779816, -0.00031779930577613413, 0.005764794535934925, -0.00011092230124631897], [0.0006155419978313148, 0.003470060182735324, -0.0028202850371599197, 0.004109859932214022, -1.7651358575676568e-05, 0.0005485886940732598, 0.007320505101233721, 2.5944425942725502e-05, 0.0016646902076900005, 0.002638348378241062, 0.004063217900693417, 0.0019193063490092754, 0.0031015879940241575, 0.0002384551044087857, 0.007320154458284378, -0.00023001563386060297], [0.0002615485864225775, -0.0018879486015066504, -0.011029576882719994, 0.007994712330400944, 1.0444542795085e-06, -0.00020776060409843922, 0.008674624375998974, 3.214891250991059e-07, -0.008897644467651844, 0.00027982983738183975, 0.005903581157326698, 0.010455827228724957, 6.928227230673656e-05, -0.0001001394703052938, -0.006367753259837627, 0.00753425806760788], [-0.00029486816492863, 0.0009533130214549601, 0.0011518480023369193, 0.009228544309735298, -9.498876170255244e-05, -0.00021945382468402386, 0.009857766330242157, -7.345496851485223e-05, 0.002181138377636671, 0.0024557786528021097, -0.0016739271814003587, -0.005037326365709305, 0.011208646930754185, -0.00026721443282440305, 0.014493145048618317, 0.0015208604745566845], [4.012439967482351e-05, 0.0013534590834751725, -0.0041902391240000725, 0.0038255543913692236, -6.853149534435943e-05, 0.0008139781421050429, 0.006881858687847853, -5.5132997658802196e-05, 0.002043906133621931, -0.00106194824911654, -0.0001834592840168625, 0.00010171015310334042, 0.003239652141928673, 0.00020998172112740576, 0.009900216944515705, 0.0010585568379610777], [-0.00011203071335330606, 0.00527186319231987, 0.0009410298080183566, 0.004993670620024204, -6.758813105989248e-05, 3.979496250394732e-05, 0.00621303403750062, -4.5071177737554535e-05, 6.802117422921583e-05, -0.000918869161978364, -0.0013025312218815088, -0.0017743658972904086, 0.007711289916187525, -0.00011745905794668943, 0.006854741834104061, 0.002228950150310993]], "output_biases": [1.2070362567901611, 0.011158954352140427], "output_weights": [[1.1915620565414429, -0.019973332062363625], [1.292876124382019, 0.3532784879207611], [0.6725185513496399, 0.2861121594905853], [-1.4474576711654663, 0.31543973088264465], [0.8944566249847412, -0.07934508472681046], [0.19545955955982208, -0.19084477424621582], [0.7983438968658447, -0.7014406323432922], [0.8779738545417786, -0.1118401288986206], [0.6107989549636841, -0.3337365984916687], [1.1570042371749878, 0.4812609851360321], [-0.6721480488777161, -0.10935841500759125], [0.8007487058639526, -0.27245184779167175], [-0.27502676844596863, 0.3954622447490692], [0.03662966936826706, -0.06631200760602951], [0.24765338003635406, -0.9761614203453064], [0.5949086546897888, 0.28588560223579407]]}, "hk_disentangled_rnn/~update_latents/update_net_2": {"input_biases": [-0.007276044227182865, 0.05192745104432106, -0.1370411217212677, -0.15115344524383545, 0.3399922847747803, -0.11610101908445358, 0.004399416968226433, -0.11326252669095993, -0.10415425151586533, -0.11168912053108215, 0.0841313824057579, 0.12481033802032471, -0.47890982031822205, -0.03532698377966881, 0.07000726461410522, -0.12141810357570648], "input_weights": [[-0.31691908836364746, 0.664312481880188, 0.49553486704826355, 0.5746471881866455, -0.08243323117494583, 0.7791112065315247, 0.07625056803226471, 0.7056567072868347, 0.840237557888031, 1.2878985404968262, -0.6992713809013367, -0.5466203093528748, -0.023503350093960762, 0.06952568143606186, -0.7561129927635193, 0.0022456441074609756], [-0.08089309930801392, -0.22114446759223938, -0.2517438232898712, 0.0010956795886158943, -0.3622226417064667, 0.03134038299322128, -0.07291007786989212, 0.08509793132543564, -0.44219478964805603, 0.1359240710735321, 0.9154964089393616, -0.0834473967552185, 0.5576464533805847, 0.5856152176856995, 0.3250676393508911, 0.16388268768787384], [-0.12690980732440948, -0.32148945331573486, -0.2892906367778778, -0.6984926462173462, 0.5148935914039612, -0.4399356544017792, -0.15579594671726227, 0.348977655172348, 0.1812635064125061, 0.4339487552642822, -0.06201186403632164, -0.7642428874969482, 0.049845609813928604, 0.378091961145401, 0.019215961918234825, 0.016599377617239952], [-0.8619856834411621, 0.01948527805507183, -0.3973624110221863, -0.35680514574050903, 0.08874338865280151, 0.16320061683654785, -0.3244899809360504, 0.01627166010439396, 0.031921617686748505, 0.1686258614063263, -0.34402212500572205, -0.08249320089817047, -0.46724414825439453, -0.06255467981100082, 0.38605186343193054, 0.17788846790790558], [0.5096442103385925, -0.05118658021092415, -0.8581862449645996, 0.24441781640052795, 0.23433303833007812, -0.07006651908159256, -0.19491854310035706, 0.7006027102470398, 0.06016992777585983, -0.47214969992637634, -0.0862715095281601, 0.48568323254585266, -0.23843081295490265, 0.38321027159690857, 0.21329282224178314, 0.03501144424080849], [0.43348002433776855, -0.02016807347536087, -0.1192578449845314, -0.3276892900466919, -0.126705139875412, -0.033085525035858154, 0.28751057386398315, 0.28731271624565125, 0.21280354261398315, -0.4665643870830536, 0.5171241760253906, 0.38729727268218994, -0.16094917058944702, -0.22880502045154572, -0.11968567222356796, 0.20554012060165405], [0.683836817741394, -0.39794856309890747, -0.1129787266254425, -0.18965083360671997, -0.6413959860801697, -0.14829224348068237, -0.22924770414829254, 0.030860289931297302, 0.928631067276001, -0.12612298130989075, -0.5347157120704651, 0.6704941391944885, 0.04099266976118088, 0.3344848155975342, -0.3775939345359802, -0.4583256244659424]], "layer_0_biases": [-0.03438233956694603, -0.004913424141705036, -0.03495560958981514, -0.07009892910718918, -0.0145639693364501, -0.059973008930683136, 0.01967056840658188, -0.05076637864112854, -0.14354577660560608, -0.06334514915943146, 0.10391433537006378, 0.1292753964662552, -0.32599449157714844, -0.02459684945642948, 0.11116111278533936, -0.09299451857805252], "layer_0_weights": [[8.47179617267102e-05, -6.406455941032618e-05, 0.0002495033259037882, 4.026708484161645e-05, 3.1920855690259486e-05, 0.00018103717593476176, 0.00023102271370589733, 0.00023603792942594737, -3.097100125160068e-05, 0.00017503676644992083, 0.0001922637311508879, 3.31977462337818e-05, 4.2557043343549594e-05, -4.3713384911825415e-06, 0.00013957383634988219, 0.00018332885520067066], [-0.0002155712281819433, 0.00021201376512181014, -0.0002837340289261192, -0.00021496316185221076, -3.4199099900433794e-05, -0.0002256135776406154, -0.00018155078578274697, -0.0002853681507986039, 3.778042446356267e-05, -0.00019619711383711547, 6.874859536765143e-05, 0.0001454640441806987, -0.00010642004781402647, 0.00013765388575848192, 7.139711669879034e-05, -0.0002174390247091651], [5.324198355083354e-05, -8.640635496703908e-05, 8.12613288871944e-05, 5.6170771131291986e-05, 7.044192898320034e-06, -6.857678272353951e-06, -0.00027163862250745296, -2.237778426206205e-05, 3.318605376989581e-05, 0.000147897211718373, 0.0006116387085057795, 0.0007804941851645708, -5.224140841164626e-05, -8.022991823963821e-05, 0.0008484491263516247, -0.00019465223886072636], [-7.87804601714015e-05, 7.400401955237612e-05, -0.00013645114086102694, -7.316541450563818e-05, -6.0790011048084125e-05, -0.00023797070025466383, -0.0001378906745230779, -0.0002230906393378973, 4.476590038393624e-05, -0.0003696995263453573, 4.799614180228673e-05, 8.767802501097322e-05, -0.0001205702283186838, 6.135562580311671e-05, 6.843800656497478e-05, -0.00036742279189638793], [7.999929948709905e-06, -1.3069859051029198e-05, -8.437749784206972e-05, 2.68046587734716e-05, -7.9236866440624e-05, 2.455833600834012e-05, -0.0008567230543121696, -1.6582680473220535e-07, 4.562686808640137e-05, -2.0903375116176903e-05, -6.327281153062358e-05, -0.0002360063517699018, -6.466288323281333e-05, -1.1126833669550251e-05, -4.227704630466178e-05, 0.0001314471010118723], [-0.00032803008798509836, 0.00033445385633967817, -0.00026068295119330287, -0.0003527871740516275, 2.859689629985951e-05, -0.00032413305598311126, -0.00012167623935965821, -0.0002467641606926918, -4.966361666447483e-05, -0.00020820133795496076, 1.0157205906580202e-05, 1.6833886547829024e-05, 2.670766116352752e-05, 0.0003695898049045354, 1.0960771760437638e-05, -0.00013370922533795238], [1.966259333130438e-05, -1.2920822882733773e-05, -0.00013383735495153815, 7.097974503267324e-06, -1.8660664864000864e-05, -1.5990516430974822e-06, -0.00019899655308108777, 2.0806162865483202e-05, 6.779363320674747e-05, -3.430189462960698e-05, 0.0011466818396002054, 0.00023901250096969306, 1.802717633836437e-05, -1.5818708561710082e-05, 0.00012958314619027078, 7.706900214543566e-05], [-0.00030600043828599155, 0.0003197113110218197, -0.00020121471607126296, -0.0003430305514484644, 1.588290797371883e-05, -0.0002556665276642889, -0.001192994648590684, -0.00018867476319428533, -8.462566620437428e-05, -0.00020701914036180824, 3.3268711376877036e-06, -9.621820208849385e-05, -4.4645530579146e-05, 0.00035663467133417726, -2.3420663637807593e-05, -8.452034671790898e-05], [1.206565593747655e-05, -4.842746056965552e-05, -0.00015069055370986462, 6.997583841439337e-05, -6.77369098411873e-05, -0.0004949757712893188, -0.0007714072708040476, -0.000520614325068891, -2.920159931818489e-05, -0.0003408633638173342, 6.206674152053893e-05, 5.602686542260926e-06, -5.036514630774036e-05, -9.795324149308726e-05, 0.0001184449065476656, -0.00034021222381852567], [-0.0003240509831812233, 0.00031349295750260353, -0.0003537766169756651, -0.00030137281282804906, 0.0003521609178278595, -9.588696411810815e-05, -0.0008793797460384667, -7.97523680375889e-05, -0.0002372979070059955, -0.00013475869491230696, -0.00015449663624167442, -3.954783096560277e-05, 5.0901187933050096e-05, 0.0002892446063924581, -6.871895311633125e-05, -5.592266097664833e-05], [-1.1335172530380078e-05, 2.74451267614495e-05, -0.00010286602628184482, -5.7337361795362085e-05, 1.3080319149594288e-05, -7.370728417299688e-05, 0.0003717182553373277, -6.19150887359865e-05, -7.5677744462154806e-06, -4.746161721413955e-06, 1.409408105246257e-05, 6.100107202655636e-05, 3.3567204809514806e-05, 4.5999106077943e-05, 1.2125413377361838e-05, -0.00010835097782546654], [0.00020374543964862823, -0.0001929646241478622, 0.00032900040969252586, 0.0001781016035238281, 5.399241126724519e-05, 0.00022836642165202647, 0.0006284426199272275, 0.00030964717734605074, 1.8008624465437606e-05, 9.941562893800437e-05, 0.0001488325506215915, -6.5260474002570845e-06, 0.00011424616241129115, -0.00011656917195068672, 0.00011161151633132249, 0.00013803508772980422], [1.323927517660195e-05, 4.78013703286706e-07, -4.4991320464760065e-05, -1.5096083188836928e-05, 7.859298784751445e-05, -1.9493028958095238e-05, 0.0006444190512411296, 2.7570149541134015e-05, -4.558050204650499e-05, -0.0001473651936976239, -7.979178189998493e-05, 0.0003452308592386544, -4.701368743553758e-05, -5.728122232540045e-06, 0.00020907775615341961, 8.98494035936892e-05], [-0.0001134810081566684, 0.00012059174332534894, -0.0001698013220448047, -0.00014969756011851132, 6.484894583991263e-06, -0.00010680015111574903, -0.00033242322388105094, -9.166634117718786e-05, -0.00019023621280211955, -0.00022535382595378906, -0.00010792533430503681, -8.226288628065959e-05, 2.562405825301539e-05, 0.0001476309116696939, -8.810363215161487e-05, -4.89265366923064e-05], [8.454702037852257e-05, -7.793421536916867e-05, 0.00012205186067149043, 7.434953295160085e-05, 7.200871186796576e-05, 0.0004987475113011897, 0.0007199576357379556, 0.00035945302806794643, -6.030470467521809e-05, 0.00047195772640407085, -0.00033561658347025514, -0.0005705959047190845, 8.944875298766419e-05, -3.363814175827429e-05, -0.0005087916506454349, 0.000359259604010731], [7.734614337095991e-05, -7.88961406215094e-05, 5.853245602338575e-05, 6.457525887526572e-05, 7.900125638116151e-06, -0.00018539854499977082, -0.0003764126158785075, -0.00010078478953801095, -7.243542313517537e-06, 2.0789138943655416e-05, -0.0010572049068287015, -0.00023588100157212466, -4.814456406165846e-05, -7.945080869831145e-05, -0.0008984364103525877, 8.351473297807388e-06]], "layer_1_biases": [-0.06490528583526611, 0.12450062483549118, -0.035447001457214355, -0.08074165880680084, -0.0259015541523695, -0.05049459636211395, 0.2629224359989166, -0.049212101846933365, -0.09998923540115356, -0.060662247240543365, 0.11956241726875305, -0.019949330016970634, -0.2432766705751419, -0.029109090566635132, 0.07979963719844818, -0.044109608978033066], "layer_1_weights": [[8.605574839748442e-05, 0.00015646651445422322, 0.0002505954762455076, 4.1010178392753005e-05, 4.8900936235440895e-05, 0.00018137748702429235, 0.00022958987392485142, 0.00023666772176511586, -3.052430474781431e-05, 0.00017402922094333917, 0.00018951593665406108, -5.133509148436133e-06, 4.1689192585181445e-05, -0.00016779442375991493, 0.00014028856821823865, 0.00018233366427011788], [-0.00021569589443970472, 7.917157199699432e-05, -0.00028352698427625, -0.0002146156766684726, -2.2002528567099944e-05, -0.00022546698164660484, -0.00018235165043734014, -0.0002852731558959931, 3.771806586883031e-05, -0.00019602925749495625, 7.087532139848918e-05, 4.759976945933886e-05, -0.00010573400504654273, 0.00015294204058591276, 6.932634278200567e-05, -0.00021725974511355162], [5.24027127539739e-05, 0.0009425609023310244, 7.996126805664971e-05, 5.6630051403772086e-05, -6.367745663737878e-05, -7.188308245531516e-06, -0.0002729730913415551, -2.2707597963744774e-05, 3.489342634566128e-05, 0.00014702403859701008, 0.0006073515396565199, -9.736880747368559e-05, -5.253606286714785e-05, -7.813997217454016e-05, 0.0008432161994278431, -0.0001935140899149701], [-7.832836854504421e-05, 0.00010223045683233067, -0.00013509555719792843, -7.231006020447239e-05, -4.719217395177111e-05, -0.0002387489512329921, -0.00014193181414157152, -0.0002228887315141037, 4.375721618998796e-05, -0.00037111027631908655, 4.9591195420362055e-05, -4.5344811951508746e-05, -0.00012011622311547399, 6.147651583887637e-05, 6.760593532817438e-05, -0.00036792902392335236], [8.606164556113072e-06, -5.463916181724926e-07, -8.421765232924372e-05, 2.6750010874820873e-05, -9.23192928894423e-05, 2.444763777020853e-05, -0.0008584306924603879, -2.4917568453020067e-07, 4.5523142034653574e-05, -2.0302650227677077e-05, -6.326712900772691e-05, -2.0879506337223575e-05, -6.521752948174253e-05, 5.228819281910546e-05, -4.242326758685522e-05, 0.00013222637062426656], [-0.00032946208375506103, 5.411075562733458e-06, -0.00026148519827984273, -0.0003529953246470541, 2.909221984737087e-05, -0.00032449100399389863, -0.00012068163778167218, -0.0002477719681337476, -4.853336213272996e-05, -0.0002076267555821687, 1.3916183888795786e-05, 0.00013053188740741462, 2.721820055739954e-05, 0.00035482272505760193, 8.743185389903374e-06, -0.00013354232942219824], [2.7106391371489735e-06, 0.0003242997045163065, -6.897555431351066e-05, 9.775156286195852e-06, -7.677960820728913e-05, 2.468111051712185e-05, -0.0002910353650804609, 3.485299748717807e-05, 2.1407880922197364e-05, -4.586225259117782e-05, 0.0010203312849625945, -3.056561399716884e-05, 2.1662159269908443e-05, -1.548274485685397e-05, 0.0006158464821055532, 0.00012803450226783752], [-0.00030732047162018716, -2.2714204533258453e-05, -0.00020206447516102344, -0.0003431676304899156, 2.7664083972922526e-05, -0.0002560585271567106, -0.0011893932241946459, -0.00018931149679701775, -8.36160616017878e-05, -0.00020656778360716999, 7.075138455547858e-06, 0.00016032331041060388, -4.36672089563217e-05, 0.0003510432434268296, -2.5896753868437372e-05, -8.473843627143651e-05], [1.4865930097585078e-05, 0.0002008003502851352, -0.0001511631562607363, 7.362324686255306e-05, -5.5150747357402e-05, -0.0004919376224279404, -0.0007684091106057167, -0.0005211271927691996, -2.949745612568222e-05, -0.0003355767985340208, 6.041906453901902e-05, -4.2760824726428837e-05, -5.0610506150405854e-05, -5.8540503232507035e-05, 0.00011229518713662401, -0.0003390936180949211], [-0.0003240846563130617, -7.488482515327632e-05, -0.00035457746707834303, -0.0003009596257470548, 0.00032429787097498775, -9.596948075341061e-05, -0.0008752676658332348, -7.984777766978368e-05, -0.0002366043336223811, -0.00013472764112520963, -0.00014786413521505892, 0.00018580960750114173, 5.0260052375961095e-05, 0.00029403180815279484, -7.345101766986772e-05, -5.541024074773304e-05], [-5.178231731406413e-05, 6.391790975612821e-06, -0.00014181368169374764, -2.5621568056521937e-05, 3.362384086358361e-05, -7.860356708988547e-05, 0.0002739981282502413, -9.487812349107116e-05, -0.00014164157619234174, -0.00011038358934456483, 2.0329047401901335e-05, 0.00012222747318446636, 3.8777106965426356e-05, 2.8905702492920682e-05, 4.800866463483544e-06, -8.772791625233367e-05], [5.818600038764998e-05, 3.512206967570819e-05, 5.89148148719687e-05, 5.578929994953796e-05, 5.546585452975705e-05, 0.00024385198776144534, 0.00026968904421664774, 0.00012633230653591454, 1.9366458218428306e-05, 0.0003135796869173646, 0.00024084742472041398, -1.0175348506891169e-05, 0.0001090509831556119, -2.3632448574062437e-05, 7.886912499088794e-05, 0.0003419459389988333], [1.9654660718515515e-05, 0.000300230662105605, -4.7082903620321304e-05, -1.2069588592567015e-05, 8.590379729866982e-05, -1.7504296920378692e-05, 0.0006351053016260266, 2.9960672691231593e-05, -3.8195739762159064e-05, -0.0001450454437872395, -8.297098975162953e-05, -5.756215841756784e-07, -4.713600719696842e-05, -5.991183115838794e-06, 0.0002129578060703352, 9.965394565369934e-05], [-0.00011380155046936125, -7.848240056773648e-05, -0.00016983968089334667, -0.00014943968562874943, 1.0494810339878313e-05, -0.00010689486225601286, -0.0003325508441776037, -9.167257667286322e-05, -0.00018971256213262677, -0.00022511096904054284, -0.00010343003668822348, 0.0002709006075747311, 2.691757799766492e-05, 0.00013800710439682007, -8.932984201237559e-05, -4.88822661282029e-05], [-0.0001587517763255164, -0.0006217229529283941, 0.00012678200437221676, -9.165621304418892e-05, 7.891284622019157e-05, 0.0003089206002186984, 0.000638719997368753, 0.0004592164186760783, 2.5981427825172432e-05, 0.0001160934625659138, -0.0004159024392720312, -2.2153519239509478e-05, 0.0001028219994623214, 0.00013410294195637107, -0.0005279338220134377, 0.00029220146825537086], [7.939651550259441e-05, -0.0008031464531086385, 6.0123591538285837e-05, 6.427434709621593e-05, 7.94353400124237e-06, -0.0001889808481791988, -0.0003764940774999559, -0.00010997312347171828, -1.2370162949082442e-05, 2.0149864212726243e-05, -0.0010896503226831555, -1.3617304830404464e-05, -4.808710582437925e-05, 8.209404768422246e-06, -0.0009124710923060775, -1.2559928563860012e-07]], "layer_2_biases": [-0.029272619634866714, -0.018158281221985817, -0.23013316094875336, -0.10482747852802277, -0.01750688999891281, -0.048615675419569016, 0.07462137937545776, -0.04776804521679878, -0.02782050333917141, -0.0563901923596859, 0.1798187643289566, 0.12533700466156006, -0.1926947832107544, 0.07595723867416382, 0.12300892919301987, -0.0437246710062027], "layer_2_weights": [[8.84083128767088e-05, -6.425068568205461e-05, 0.00025261289556510746, 4.260924833943136e-05, 3.249148721806705e-05, 0.00018209479458164424, 0.00022496204474009573, 0.0002378706558374688, -2.9884320611017756e-05, 0.00017222743190359324, 0.00018604189972393215, 3.789085167227313e-05, 4.0705032006371766e-05, 0.00011938434181502089, 0.0001390273100696504, 0.0001806118234526366], [-0.00031536241294816136, 0.00032815535087138414, -0.0002277838357258588, -0.0003482335596345365, -1.5806068404344842e-05, -0.00031791141373105347, -0.00025223588454537094, -0.0002542767906561494, -3.850758002954535e-05, -0.00018795838695950806, 5.9953683376079425e-05, 7.333828398259357e-05, -8.83344910107553e-05, 4.723872916656546e-05, 5.066132143838331e-05, -0.0001588269806234166], [5.15425817866344e-05, -8.267594239441678e-05, 7.86434393376112e-05, 5.71056516491808e-05, 7.72310795582598e-06, -7.529789399995934e-06, -0.000273287994787097, -2.304536974406801e-05, 3.665148688014597e-05, 0.00014617167471442372, 0.0006029911455698311, 0.0007726649637334049, -5.286628584144637e-05, 0.0008705686195753515, 0.0008379844366572797, -0.00019235871150158346], [-7.780612213537097e-05, 7.307413761736825e-05, -0.00013356901763472706, -7.136139902286232e-05, -6.092673720559105e-05, -0.00023967662127688527, -0.00014466154971159995, -0.00022267054009716958, 4.265789539203979e-05, -0.0003727218718267977, 5.144713941263035e-05, 8.188236097339541e-05, -0.00011964528675889596, 9.391958883497864e-05, 6.79659642628394e-05, -0.0003684888652060181], [9.498210602032486e-06, -1.1333925613143947e-05, -8.406881534028798e-05, 2.6660105504561216e-05, -7.95925734564662e-05, 2.4236564058810472e-05, -0.0008608751813881099, -4.045925265927508e-07, 4.520691072684713e-05, -1.9451348634902388e-05, -6.338987441267818e-05, -0.00022914820874575526, -6.583342474186793e-05, -5.470244104799349e-06, -4.315874684834853e-05, 0.00013351622328627855], [-0.00033076354884542525, 0.00033847655868157744, -0.00026211710064671934, -0.00035295539419166744, 2.874769597838167e-05, -0.000324777967762202, -0.00011634997645160183, -0.0002486174926161766, -4.746894774143584e-05, -0.00020710210083052516, 1.8281780285178684e-05, 8.031993274926208e-06, 2.780235809041187e-05, 1.1838648106277105e-06, 9.760682587511837e-06, -0.00013339157158043236], [-0.00014896142238285393, 0.00011561676365090534, -0.00023326717200689018, -7.848432142054662e-05, 6.922505417605862e-05, -0.00015267472190316767, 0.00021054604439996183, -0.00020211927767377347, 2.3002387024462223e-05, -0.00023293458798434585, 0.00017451407620683312, 0.0002187603386119008, 2.6174791855737567e-05, 0.00017831072909757495, 0.00016496119496878237, -0.000125781589304097], [-0.0003086475480813533, 0.00032253615790978074, -0.0002029047318501398, -0.0003431763907428831, 1.594479545019567e-05, -0.00025643163826316595, -0.0011828073766082525, -0.0001899274648167193, -8.25988536234945e-05, -0.00020611290528904647, 1.1413601896492764e-05, -0.00010581797687336802, -4.247182368999347e-05, -5.2476421842584386e-05, -2.4987853976199403e-05, -8.497145608998835e-05], [1.6744825188652612e-05, -5.1599356083897874e-05, -0.0001514937321189791, 7.605870632687584e-05, -6.826482422184199e-05, -0.0004897768958471715, -0.0007668525213375688, -0.0005214235279709101, -2.9580516638816334e-05, -0.0003318313101772219, 5.9272744692862034e-05, -1.4472076372840093e-06, -5.07117438246496e-05, 0.00014447276771534234, 0.00010841736366273835, -0.00033822059049271047], [-0.0003241156809963286, 0.000312193064019084, -0.0003554068098310381, -0.00030049539054743946, 0.0003511559625621885, -9.605364903109148e-05, -0.0008655465207993984, -7.993001054273918e-05, -0.0002357896009925753, -0.00013467756798490882, -0.0001401236222591251, -6.471075903391466e-05, 4.947943307342939e-05, -7.305934559553862e-05, -7.12825931259431e-05, -5.490043986355886e-05], [-0.0001378063316224143, 0.00011169222852913663, -0.00011520741827553138, -7.465844828402624e-05, 9.56583462539129e-05, -0.00011211961827939376, 0.00019014999270439148, -0.0001195794902741909, -0.00013002147898077965, -0.00014555049710907042, 3.284325066488236e-05, 2.416432835161686e-05, 4.335616540629417e-05, 2.1779112557851477e-06, 7.921786163933575e-06, -6.893234240124002e-05], [5.8088917285203934e-05, -5.811429946334101e-05, 5.8790345065062866e-05, 5.550253627006896e-05, 6.056748316041194e-05, 0.00024279333592858166, 0.00026825442910194397, 0.00012613486615009606, 1.941781010827981e-05, 0.0003137346066068858, 0.0002393227186985314, -0.000121435230539646, 0.00010871118138311431, -3.4925960790133104e-06, 7.990317681105807e-05, 0.0003424389869906008], [2.4110519007081166e-05, -7.959068170748651e-06, -4.873453508480452e-05, -9.4256811280502e-06, 8.303437061840668e-05, -1.5679619536967948e-05, 0.0006261647795327008, 3.204031600034796e-05, -3.2151725463336334e-05, -0.00014288743841461837, -8.601176523370668e-05, 0.0003291940956842154, -4.7410223487531766e-05, 0.00032706905039958656, 0.00021403763093985617, 0.00010697206744225696], [-0.00011415494373068213, 0.00012272276217117906, -0.00016987101116683334, -0.00014914292842149734, 6.33402760286117e-06, -0.00010700070561142638, -0.0003283947298768908, -9.167484677163884e-05, -0.00018911989172920585, -0.00022483873181045055, -9.816915553528816e-05, -9.407886682311073e-05, 2.8122711228206754e-05, -8.688845991855487e-05, -8.658797742100433e-05, -4.88481018692255e-05], [-8.353412704309449e-05, 0.0001445433299522847, 0.00010268135520163924, -8.287200034828857e-05, 4.123731923755258e-05, 0.0002480572438798845, 0.0005714551080018282, 0.00029323750641196966, -5.072356725577265e-05, 5.8906818594550714e-05, -0.00017434050096198916, -0.00018043706950265914, 0.00010855270375031978, -0.0002358777855988592, -0.0002001045213546604, 0.00018626576638780534], [8.047965820878744e-05, -7.50602557673119e-05, 6.025251423125155e-05, 6.349931936711073e-05, 7.894373084127437e-06, -0.0001896052563097328, -0.00037744559813290834, -0.00011477914085844532, -1.4903227565810084e-05, 1.878864895843435e-05, -0.0011042614933103323, -0.00022261611593421549, -4.7942572564352304e-05, -0.0007164470152929425, -0.00091842922847718, -4.165818154433509e-06]], "layer_3_biases": [-0.0430823415517807, 0.11604274064302444, -0.0937461107969284, -0.06517402827739716, -0.006864572409540415, -0.04676065221428871, 0.1500239223241806, -0.04686466604471207, -0.03377112001180649, -0.14626647531986237, 0.08940612524747849, 0.16624431312084198, -0.13292358815670013, 0.11293752491474152, 0.13905884325504303, -0.0387190505862236], "layer_3_weights": [[8.960248669609427e-05, 0.00014903349801898003, 0.00025356572587043047, 4.3158124753972515e-05, 3.266954081482254e-05, 0.0001823503989726305, 0.00021985832427162677, 0.0002384006220381707, -2.949186455225572e-05, 0.0001712260564090684, 0.00018219902995042503, 4.041284410050139e-05, 3.9471557101933286e-05, 0.00011633547546807677, 0.00013670844782609493, 0.00017970097542274743], [-0.00031625587143935263, 5.7075034419540316e-05, -0.00022790749790146947, -0.00034757881076075137, -1.6840282114571892e-05, -0.00031802180455997586, -0.00024430375196971, -0.0002546236210037023, -3.7616635381709784e-05, -0.00018758363148663193, 6.499652226921171e-05, 6.871696677990258e-05, -8.676041761646047e-05, 5.2261457312852144e-05, 5.388732097344473e-05, -0.0001586844737175852], [4.595270729623735e-05, 0.0009185845265164971, 7.031557470327243e-05, 6.0652411775663495e-05, 1.0958452548948117e-05, -9.73793248704169e-06, -0.00027405787841416895, -2.5560731955920346e-05, 4.738486313726753e-05, 0.00014150979404803365, 0.0005774413584731519, 0.0007541476516053081, -5.3125477279536426e-05, 0.0008502333657816052, 0.0008135631796903908, -0.00018504430772736669], [-7.713715604040772e-05, 0.00010892220598179847, -0.0001316388079430908, -7.0199828769546e-05, -6.128061795607209e-05, -0.00024095253320410848, -0.0001482638908782974, -0.00022243060811888427, 4.123897815588862e-05, -0.00037483914638869464, 5.377464185585268e-05, 7.93930230429396e-05, -0.00011906141298823059, 9.63805869105272e-05, 6.934319389984012e-05, -0.00036916101817041636], [1.0167586879106238e-05, -4.100700152775971e-06, -8.389785216422752e-05, 2.664582098077517e-05, -7.976659981068224e-05, 2.4105833290377632e-05, -0.0008630702504888177, -5.002502803108655e-07, 4.5127417251933366e-05, -1.875822272268124e-05, -6.349979230435565e-05, -0.00022430646640714258, -6.649556598858908e-05, -6.68947859594482e-06, -4.390162575873546e-05, 0.00013441796181723475], [-0.0003321334661450237, 1.7794995073927566e-05, -0.00026271806564182043, -0.00035273394314572215, 2.814069921441842e-05, -0.0003250476729590446, -0.00011067934974562377, -0.00024944014148786664, -4.632287163985893e-05, -0.0002065646112896502, 2.3678525394643657e-05, 3.543674893080606e-06, 2.8512731660157442e-05, 6.19194497630815e-06, 1.3084390047879424e-05, -0.00013321560982149094], [-0.0002457732043694705, 0.00014126993482932448, -0.00012191669520689175, -0.0002423525002086535, 