{"hk_disentangled_rnn": {"choice_net_multipliers": [0.0017016249476000667, 1.8422980308532715, 0.003212376032024622, -0.0018140332540497184, -0.00016195590433198959], "choice_net_sigma_params": [0.9904195666313171, 0.004731888882815838, 0.9933299422264099, 0.9964046478271484, 0.9957412481307983], "latent_inits": [0.17745789885520935, -0.0022092245053499937, -2.726202964782715, 1.741892695426941, -0.00024225788365583867], "latent_multipliers": [1.0, 1.0, 1.0, 1.0, 1.0], "latent_sigma_params": [0.0026131747290492058, 0.0023735458962619305, 0.05331913009285927, 0.007549621164798737, 0.0018106501083821058], "update_net_latent_multipliers": [[0.7111563086509705, 2.288278341293335, -0.01569250039756298, 2.0114333629608154, 0.40312066674232483], [2.321958065032959, 1.503997564315796, 0.026377899572253227, 2.1513922214508057, 0.057419225573539734], [0.015549120493233204, 1.047981858253479, -0.005623818840831518, 0.0016201622784137726, 1.1602140665054321], [-0.4292282462120056, 1.6712372303009033, 0.0003441425214987248, 1.4146045446395874, 1.656114935874939], [-0.011118645779788494, 2.444913387298584, 0.00945285614579916, 2.062972068786621, 1.387682557106018]], "update_net_latent_sigma_params": [[0.9452996253967285, 0.06168128922581673, 0.9981935620307922, 0.718472957611084, 0.983919084072113], [0.33702364563941956, 0.006484929006546736, 0.9921636581420898, 0.6294810771942139, 0.9924521446228027], [0.9937688112258911, 0.09029410034418106, 0.9955500960350037, 0.9987090826034546, 0.09237021952867508], [0.9552233219146729, 0.11883827298879623, 0.9950315952301025, 0.18413923680782318, 0.2917129099369049], [1.0012508630752563, 0.03664945811033249, 0.9965311884880066, 0.7822948098182678, 0.9510440826416016]], "update_net_obs_multipliers": [[1.3968349695205688, 1.46903395652771, 1.3390746116638184, 0.07361173629760742, 1.2783960103988647], [1.3561615943908691, 1.8358982801437378, 1.2693027257919312, 1.397026538848877, 1.1007572412490845]], "update_net_obs_sigma_params": [[0.13674679398536682, 0.011001651175320148, 0.050808943808078766, 0.995083212852478, 0.03890363872051239], [0.31291934847831726, 0.031236859038472176, 0.18424463272094727, 0.21223731338977814, 0.1931174099445343]]}, "hk_disentangled_rnn/~predict_targets/choice_net": {"input_biases": [-0.01902393437922001, 0.0011581057915464044, -0.004260664340108633, -0.07584166526794434], "input_weights": [[-0.21608306467533112, -0.05055008456110954, -0.7109043598175049, 0.4226335287094116], [-0.53524249792099, -1.4641599655151367, 0.5792936682701111, 1.616499900817871], [0.5544500350952148, -0.18795140087604523, -0.14230094850063324, 0.28121429681777954], [0.8108774423599243, -0.208875373005867, 0.6835605502128601, -0.4130956828594208], [-0.341168075799942, -0.12825974822044373, -0.36933308839797974, -0.29351571202278137]], "output_biases": [0.0009488004143349826, -0.0009488201467320323], "output_weights": [[-0.13927513360977173, 0.6591203808784485], [-0.5907548666000366, 1.2944860458374023], [0.3390750586986542, -0.47429361939430237], [0.3078244626522064, -0.4301007390022278]]}, "hk_disentangled_rnn/~update_latents/update_net": {"input_biases": [0.09942936152219772, -0.10002012550830841, -0.08137044310569763, 0.13251453638076782, -0.03369998559355736, -0.04710023105144501, -0.014353180304169655, -0.0864967554807663, -0.1442369520664215, -0.08366549760103226, 0.1626436412334442, -0.161362424492836, 0.1087551862001419, -0.09642919898033142, 0.13769689202308655, 0.43439972400665283], "input_weights": [[-0.33579838275909424, 1.177751064300537, 0.17069706320762634, -0.7713664174079895, -0.17241573333740234, 0.5861355066299438, 0.1926804780960083, 0.14917299151420593, 0.3797498643398285, 0.013614054769277573, 0.3858550190925598, 0.45838022232055664, -0.13325397670269012, 0.5699375867843628, -0.41481637954711914, 0.019862473011016846], [-0.8550902605056763, -0.0778796449303627, -0.33677685260772705, -0.23448801040649414, 0.114481620490551, 0.12211985886096954, -0.2167961746454239, -0.6740648746490479, -0.416278213262558, 0.10354045778512955, -0.3607577979564667, -0.4380861818790436, -0.0329517237842083, -0.03374086692929268, -0.1555393636226654, 0.6421048641204834], [0.22836001217365265, 0.09560541808605194, -0.1980748027563095, -0.19020313024520874, 0.557888925075531, -0.3094233572483063, 0.48603880405426025, -0.20312021672725677, -0.2967759668827057, 0.16918905079364777, 0.013199731707572937, -0.06892730295658112, -0.014882843941450119, 0.5556144714355469, -0.13798420131206512, 0.03295838087797165], [-0.2613922655582428, 0.016861259937286377, 0.08343347162008286, -0.8342640995979309, 0.06660814583301544, 0.35031256079673767, 0.7070207595825195, -0.4220343232154846, 0.03345111012458801, -0.102752685546875, -0.11544522643089294, -0.5289995670318604, -0.5676095485687256, 0.4720720946788788, 0.17114797234535217, -0.38833457231521606], [-0.04422392323613167, -0.46278315782546997, -0.2981356084346771, -0.06484640389680862, -0.0741276815533638, -0.7339021563529968, 0.2546069324016571, 0.5761173963546753, 0.3130687177181244, -0.08894798904657364, -0.16540074348449707, 0.1254408359527588, 0.3663952648639679, 0.19899587333202362, -0.2397739738225937, 0.2148289978504181], [-0.26627635955810547, -0.1458740234375, -0.09283192455768585, 0.23673950135707855, -0.3536075949668884, 0.45993390679359436, 0.614651083946228, 0.059969037771224976, 0.14779725670814514, -0.057467374950647354, 0.7996627688407898, 0.18046806752681732, -0.2736964225769043, -0.11991022527217865, -0.37887799739837646, -0.19013595581054688], [0.3724410831928253, 0.10207565873861313, 0.061662741005420685, 0.050718676298856735, 0.4794478416442871, -0.054100152105093, 0.13434994220733643, 0.2159079611301422, -0.2863522171974182, 0.12924708425998688, 0.3423645794391632, 0.4839384853839874, -0.14649328589439392, -0.4165782034397125, -0.0393233448266983, 0.21038492023944855]], "layer_0_biases": [0.10879191011190414, -0.017116248607635498, -0.08638662099838257, 0.16793498396873474, -0.03338715061545372, 0.04728823900222778, 0.020688429474830627, -0.03666358441114426, -0.13083355128765106, -0.10021743923425674, 0.19475394487380981, -0.030247848480939865, 0.12533867359161377, -0.02462642453610897, -0.01463135052472353, 0.3514598309993744], "layer_0_weights": [[-9.191800199914724e-05, -6.737891817465425e-05, -0.000118786352686584, -1.824235005187802e-05, -1.2049333690811181e-06, -7.721194560872391e-05, -0.0002904504945036024, 3.878711868310347e-05, -5.484639768837951e-05, -0.0001684800226939842, -0.0004016085003968328, -5.390231763158226e-06, -0.0003416285617277026, 0.00014673468831460923, 9.206129470840096e-05, -0.0008806316182017326], [-0.0006811426719650626, -0.00017311028204858303, -2.1871543140150607e-05, -0.00031794034293852746, -3.018904317286797e-05, 0.00021235184976831079, -0.00010702640429371968, -0.00013530498836189508, -6.390150520019233e-05, 2.028447670454625e-05, -0.00011429670848883688, -8.745387458475307e-05, -0.00010545711847953498, -3.337059752084315e-05, 4.125966370338574e-05, -3.611613647080958e-05], [-6.449175270972773e-05, -0.00011375436588423327, 0.00010357720020692796, 0.00012391166819725186, -1.1509422620292753e-05, -6.944064080016688e-05, -6.234612374100834e-05, -9.257716737920418e-05, -6.715601921314374e-05, 8.444303966825828e-05, 4.4846179662272334e-05, -3.208061343684676e-06, 6.111171387601644e-05, -5.904438148718327e-05, -7.472789729945362e-05, -0.0001439717598259449], [-6.869752542115748e-05, 1.988389340112917e-05, -2.637707621033769e-05, 0.00015737663488835096, 3.8484399738081265e-06, -7.470151467714459e-05, -0.0002513022336643189, 0.00016941744252108037, 2.0183384549454786e-05, -9.140621841652319e-05, 0.00015118128794711083, -6.123574712546542e-05, 9.969346865545958e-05, -0.00011177398118888959, -1.5373423593700863e-05, 0.00034637964563444257], [-3.774249489651993e-05, -5.781731670140289e-05, -4.710215580416843e-05, -0.0005975830717943609, -2.6606898245518096e-05, -0.000500825175549835, -2.4010125343920663e-05, 7.704144809395075e-05, 9.512562974123284e-05, -0.00010097340418724343, -0.0005314446170814335, 3.7013123801443726e-06, -0.0004509766004048288, 5.438184962258674e-05, 1.5732846804894507e-05, -0.0008254502317868173], [0.00034173289895989, 7.799675222486258e-05, -6.379235128406435e-05, 0.00024056861002463847, 2.114800281560747e-06, -0.0004204276774544269, 0.00011949852341786027, 7.064027158776298e-05, 1.709002572169993e-05, 6.461893644882366e-05, 4.255179737810977e-05, 6.457183917518705e-05, 5.0035378080792725e-05, -0.00024459135602228343, -1.8710152289713733e-05, 2.2831358364783227e-05], [0.00037155073368921876, 8.745327068027109e-05, -5.858725489815697e-05, -0.00042296023457311094, 1.639090260141529e-05, -6.961936742300168e-05, 0.000320276478305459, 8.811522275209427e-05, -8.395980330533348e-06, -6.738476076861843e-05, 0.00036292936420068145, 4.509637437877245e-05, 0.00044323058682493865, -0.00019493083527777344, -0.0001064706957549788, -0.00020272676192689687], [-0.0002101394784403965, -0.00014513185305986553, -8.01308051450178e-05, -3.853523958241567e-05, -4.619206265488174e-06, 0.00010080083302455023, -0.0002563739544712007, 0.00010366748756496236, -0.0001236959215020761, 4.774360058945604e-05, 0.00023837116896174848, -0.00020739251340273768, 0.00026668215286917984, -5.0301008741371334e-05, 6.353596836561337e-05, 2.7591340767685324e-05], [-0.00044140705722384155, -9.590747504262254e-05, -1.0031818419520278e-05, 0.00033537959097884595, -1.7140205272880848e-06, 0.00035732309333980083, -0.0001078868008335121, -0.0001117082210839726, -1.1615580660873093e-05, 4.619130049832165e-05, 0.0003397696709726006, -3.1225681595969945e-05, 0.00037039659218862653, -0.00010924362868536264, -2.882494663936086e-05, 0.0001698984415270388], [-0.00026588980108499527, 0.00016739190323278308, 0.00011383763194316998, -0.0006211692234501243, -1.8840046323020943e-05, 0.0003180426429025829, 8.498228271491826e-05, -0.00012213153240736574, -4.596626240527257e-05, -1.3278830010676757e-05, 4.9245983973378316e-05, 4.693935807154048e-06, 3.39161379088182e-05, -7.370117964455858e-05, 1.2012305887765251e-05, -6.429834320442751e-05], [-0.0005982995498925447, -0.0003061334718950093, -6.351462798193097e-05, 8.73220560606569e-05, -6.629015115322545e-05, 0.0002289253898197785, 0.00030117659480310977, -5.162466914043762e-05, -0.00013838292215950787, 0.00012171620619483292, 1.680176296758873e-06, -1.752113166730851e-05, 1.2986766705580521e-05, 2.8277256660658168e-06, 8.487109880661592e-05, 2.880922920667217e-06], [-0.00017420563381165266, -0.0002111154462909326, -2.8120855404267786e-06, -0.0001629867620067671, -1.1510797776281834e-05, 0.000107421466964297, -0.0003201015933882445, -6.843842857051641e-05, -0.00030750123551115394, -2.5834036932792515e-05, 3.7557580071734264e-05, -5.396736742113717e-05, 3.313491106382571e-05, -0.0001460898492950946, 0.00018310286395717412, 0.0001416054874425754], [-0.0006726864958181977, -0.00011644033656921238, 5.5694341426715255e-05, 2.38482443819521e-05, -2.1675170501112007e-05, 0.000550883065443486, -0.00011432219616835937, -0.00010818050213856623, -0.00010959786595776677, 8.055840589804575e-05, 0.000330785900587216, -0.00015166254888754338, 0.00029569343314506114, 0.00021954569092486054, 4.978911965736188e-05, 0.0005043251439929008], [0.00022582535166293383, 5.4620930313831195e-05, -6.438849231926724e-05, -0.0004735061665996909, -9.54563347477233e-06, 0.0005120066343806684, 0.00011164631723659113, 4.01227553084027e-05, -2.5969875423470512e-05, 6.14297459833324e-05, -3.711623139679432e-05, -1.9040524421143346e-05, 8.805993275018409e-06, 6.187651888467371e-05, 8.014119885046966e-06, -0.00015300149971153587], [0.0007078131311573088, 0.0002572354569565505, 2.7712940209312364e-05, 0.00022707186872139573, -1.5567284208373167e-05, -0.00043628469575196505, 4.750014340970665e-05, 0.0001093763712560758, 0.00015275864279828966, -0.00012103418703190982, -0.00024673360167071223, 1.715544749458786e-05, -0.00023135940136853606, 7.684339652769268e-05, -7.69985344959423e-05, -0.0003892721142619848], [-4.7684283345006406e-05, -5.734687147196382e-05, -7.448695669154404e-06, -0.0001737344719003886, -1.7265338101424277e-05, 7.066474063321948e-05, 9.92136774584651e-05, 3.6395679217093857e-06, -5.461683758767322e-05, 5.717108797398396e-05, 1.947233158716699e-06, -7.82598799560219e-05, -3.324874705867842e-05, -2.7425829102867283e-05, 9.763574780663475e-05, 0.0003158629697281867]], "layer_1_biases": [-0.005808438174426556, -0.014551258645951748, -0.015908468514680862, 0.15652412176132202, -0.032883740961551666, -0.0385855995118618, 0.05469449982047081, -0.024869704619050026, -0.03142499178647995, -0.02915983460843563, 0.2060285210609436, -0.030385905876755714, 0.12001462280750275, -0.022781437262892723, 0.12920792400836945, 0.3594605624675751], "layer_1_weights": [[5.303565558278933e-05, -5.6525750551372766e-05, -7.352248212555423e-05, -3.8701629819115624e-05, -8.867633027875854e-07, 0.00025895325234159827, -0.00018868189363274723, 0.00011793511657742783, -0.00010344455949962139, -0.00016055125161074102, -0.0004211324849165976, -1.3873687748855446e-05, -0.00035313997068442404, 0.0002310489071533084, -0.00016512349247932434, -0.000902995525393635], [5.185992631595582e-05, -0.00017234831466339529, -2.144286918337457e-05, -0.0003369836776982993, -2.7805755962617695e-05, -0.0001137883446062915, -8.681643521413207e-05, 3.0260351195465773e-05, -6.358862447086722e-05, 2.1741216187365353e-05, -9.180916822515428e-05, -8.702414925210178e-05, -8.5989355284255e-05, -3.351233681314625e-05, -0.00010938947525573894, -1.4224121514416765e-05], [9.457413398195058e-05, -0.00011298239405732602, 0.00010361465683672577, 0.0001325747143710032, -1.5638875993317924e-05, -0.00010458454926265404, -6.657327321590856e-05, -8.788483683019876e-05, -6.023888636264019e-05, 8.419354708166793e-05, 4.614368299371563e-05, -4.519510184763931e-06, 6.167296669445932e-05, -5.867433355888352e-05, 0.00021488753554876894, -0.00014190601359587163], [-0.0002051459305221215, -0.0001150274183601141, 1.0817954716912936e-05, 0.0002464933495502919, 7.495057730011467e-08, -0.0001167149530374445, -0.00019067585526499897, 0.00021375923824962229, 7.705221491960401e-07, -4.284297028789297e-05, 9.787679300643504e-05, -5.961221540928818e-05, 5.6169934396166354e-05, 6.996209413046017e-05, 0.00019093227456323802, 0.00027235521702095866], [-8.250351675087586e-05, -5.8277626521885395e-05, -4.778715447173454e-05, -0.000592651660554111, -2.067780587822199e-05, 2.2398979126592167e-05, -1.1840665138151962e-05, 7.545758126070723e-05, 9.67706655501388e-05, -0.00010044428199762478, -0.0005353346350602806, 3.3317128327325918e-06, -0.00045279640471562743, 5.480082836584188e-05, -0.00038056180346757174, -0.0008279510075226426], [-3.302424374851398e-05, 8.474537753500044e-05, -4.8816575144883245e-05, 0.0002447399019729346, 1.855059849731333e-06, -9.02435349416919e-05, 0.00019004353089258075, -0.0001778917503543198, -3.3927560707525117e-06, 7.625889702467248e-05, 3.183296576025896e-05, 6.899282743688673e-05, 3.68816836271435e-05, -0.00019495283777359873, 8.741554484004155e-05, -4.621168045559898e-06], [0.00012114365381421521, 9.544006024952978e-05, -5.878450974705629e-05, -0.0004019728221464902, 1.573601912241429e-05, -3.701067544170655e-05, 0.00035399451735429466, -9.12209870875813e-05, 5.9628155213431455e-06, -6.625908281421289e-05, 0.0003761151456274092, 2.5355380785185844e-05, 0.000451460771728307, -0.0001618558744667098, 0.0007552255410701036, -0.0001852478744694963], [-8.049971802392974e-05, -0.00014467454457189888, -8.000950765563175e-05, -3.967744123656303e-05, -2.5480997010163264e-06, -9.982114715967327e-05, -0.0002638629812281579, 9.292394679505378e-05, -0.0001237813849002123, 4.7841422201599926e-05, 0.00024161585315596312, -0.0002073087089229375, 0.00027338549261912704, -5.00830719829537e-05, -0.0003656210901681334, 2.9403207008726895e-05], [7.993462349986658e-05, -9.11325987544842e-05, -1.0619402019074187e-05, 0.00031927647069096565, -2.3565128230984556e-06, 0.00011953472130699083, -0.0001103078611777164, -0.00011696474393829703, -1.093773425964173e-05, 4.585466376738623e-05, 0.0003459781582932919, -3.0088531275396235e-05, 0.00037565361708402634, -0.00011116038513137028, 0.00042868926539085805, 0.00017429552099201828], [0.00011662521865218878, 0.00017075575306080282, 0.0001135626807808876, -0.0006154467700980604, -7.393897703877883e-06, -7.239449769258499e-05, 8.343582157976925e-05, -0.00011602897575357929, -4.664508378482424e-05, -1.5804424037924036e-05, 5.075701847090386e-05, 4.515869477472734e-06, 3.6451132473303005e-05, -7.250340422615409e-05, -0.00023501880059484392, -6.3039617089089e-05], [-4.8809357394929975e-05, -0.00012167311797384173, -2.0280989701859653e-05, 7.877176540205255e-05, -2.201777351729106e-05, -9.165837582258973e-06, 0.0002796412736643106, 6.1615755839738995e-06, -9.24674968700856e-05, 0.00010741042933659628, -4.1056788177229464e-05, -5.23479247931391e-05, -2.6974947104463354e-05, 9.95055670500733e-05, 2.1740941519965418e-05, -7.085135439410806e-05], [7.390976679744199e-05, -0.00021062383893877268, -3.000523975060787e-06, -0.0001689805940259248, -2.4797340302029625e-05, -4.9915091949515045e-05, -0.00033032329520210624, -7.441670459229499e-05, -0.0003084262425545603, -2.5517727408441715e-05, 4.683385122916661e-05, -5.402681199484505e-05, 4.501224248087965e-05, -0.000145058729685843, 5.69211806578096e-05, 0.00015053970855660737], [6.066530113457702e-05, -0.00012821810378227383, 8.476380025967956e-05, 7.029309472272871e-06, -1.57491049321834e-05, 0.00018279776850249618, 0.0001991144090425223, -6.970257527427748e-05, -0.00016550156578887254, 8.971679926617071e-05, 0.00025794547400437295, -0.0001770340750226751, 0.00023482648248318583, -6.733702321071178e-05, -0.0002713383291848004, 0.000408913881983608], [-4.232689389027655e-05, 5.483478889800608e-05, -6.387074972735718e-05, -0.0004822375194635242, 1.141117809311254e-05, -1.776481803972274e-05, 0.0001280413125641644, 2.0825587853323668e-05, -2.5960278435377404e-05, 6.18746635154821e-05, -2.7868136385222897e-05, -1.884509765659459e-05, 1.3729613783652894e-05, 6.191081047290936e-05, -0.00018539426673669368, -0.00014430128794629127], [-6.229030987014994e-05, 0.0002563906891737133, 2.7349804440746084e-05, 0.00023397036420647055, -1.697794141364284e-05, 7.806928624631837e-05, 4.5396373025141656e-05, 4.575299681164324e-05, 0.0001535042392788455, -0.00012082238390576094, -0.00025524687953293324, 1.718047133181244e-05, -0.00023964542197063565, 7.701903086854145e-05, -6.02858308411669e-05, -0.00039697031024843454], [-3.1940009648678824e-05, -4.380279642646201e-05, -0.00020318562746979296, -9.161903290078044e-05, -9.180537745123729e-06, 7.440425542881712e-05, 8.466591680189595e-05, 2.4553579351049848e-05, -5.651466562994756e-05, 5.72640128666535e-05, -1.890407111204695e-05, -7.946779805934057e-05, -5.27829397469759e-05, -1.5550509488093667e-05, -7.897298019088339e-06, 0.000219383931835182]], "layer_2_biases": [-0.029745379462838173, -0.1095879077911377, -0.011335366405546665, 0.134334996342659, -0.03441573679447174, -0.0086890934035182, 0.13327746093273163, -0.09332714229822159, -0.1633024960756302, -0.055439818650484085, 0.19926318526268005, -0.029404163360595703, -0.03917042165994644, -0.1140839010477066, 0.11509803682565689, 0.2815590500831604], "layer_2_weights": [[-0.00013838928134646267, -5.6843342463253066e-05, -0.00010832336556632072, -3.362870484124869e-05, -6.776978261768818e-05, 0.00025910651311278343, -0.0001881214411696419, -0.00012054800026817247, -0.00010344320617150515, -0.00015974444977473468, -0.0004277251136954874, -1.3771998965239618e-05, 2.015198151639197e-05, 0.0002303678629687056, -0.00016204878920689225, -0.0009071292588487267], [4.884634472546168e-05, -0.00017160821880679578, -4.420408913574647e-06, -0.00035282838507555425, -5.08631783304736e-05, -0.00011378663475625217, -5.611976666841656e-05, -0.00013769666838925332, -6.332556222332641e-05, 2.3053877157508396e-05, -7.249529153341427e-05, -8.664837514515966e-05, 4.709790118795354e-06, -3.329874743940309e-05, -0.00012684719695243984, 3.8051707633712795e-06], [8.950912888394669e-05, -0.00011281060142209753, 0.00010303100134478882, 0.00013396638678386807, -4.5255859731696546e-05, -0.00010460054909344763, -7.027522224234417e-05, -9.190646233037114e-05, -5.919400427956134e-05, 8.422468818025663e-05, 4.690949936048128e-05, -4.703542799688876e-06, 5.399774818215519e-05, -5.852328104083426e-05, 0.00021707313135266304, -0.00014064900460653007], [-2.5269004254369065e-05, -0.0001590553147252649, 1.9502154827932827e-05, 0.0003495318815112114, -5.258750024950132e-05, -0.0001100246372516267, 4.228168836561963e-05, -4.300234286347404e-05, -0.0001490879658376798, -2.5463657948421314e-05, 4.87734614580404e-05, -1.58390321303159e-05, 3.0581679311580956e-05, 4.9809528718469664e-05, 0.0001596427900949493, 0.00020569103071466088], [-8.07027390692383e-05, -5.871593748452142e-05, -8.13138103694655e-05, -0.0005883246194571257, -1.5184812582447194e-05, 2.2444424757850356e-05, 2.1087416826048866e-06, 7.825698412489146e-05, 9.827309258980677e-05, -9.995845175581053e-05, -0.0005387472920119762, 2.9893137707404094e-06, 1.9697228708537295e-05, 5.5128322856035084e-05, -0.0003791644994635135, -0.0008300191257148981], [0.00018548840307630599, 8.486523438477889e-05, -2.225854404969141e-05, 0.00023685455380473286, -3.849582208204083e-05, -9.043572936207056e-05, 0.00019496162713039666, 9.470854274695739e-05, -3.2149660000868607e-06, 7.657345122424886e-05, 4.038353290525265e-05, 6.920952728250995e-05, 6.929280061740428e-06, -0.0001937952038133517, 8.189304935513064e-05, 2.9930201890238095e-06], [0.00013534989557228982, 0.00017951858171727508, -5.709199103876017e-05, -0.00032434126478619874, 5.0288774218643084e-05, 3.888657010975294e-05, 0.0003925743221770972, -0.00017103651771321893, 5.7638168073026463e-05, -5.747212708229199e-05, 0.00038503322866745293, -1.1952899512834847e-05, -1.7513615603093058e-05, -0.0001074806132237427, 0.0005326679674908519, -0.00019048312969971448], [3.5948909498983994e-05, -0.00014445434499066323, -8.631140372017398e-05, -3.9943635783856735e-05, -8.765295206103474e-05, -9.991491242544726e-05, -0.00026944230194203556, 0.00010431186092318967, -0.0001237989345099777, 4.794262713403441e-05, 0.00024348279112018645, -0.00020711508113890886, 3.8924063119338825e-05, -4.98068293381948e-05, -0.0003666610864456743, 3.0027167667867616e-05], [0.00010850710532395169, -9.033078094944358e-05, -5.12486367370002e-05, 0.00031206270796246827, 5.470011274155695e-06, 0.00011960588744841516, -0.00011148559133289382, -0.00011259173334110528, -1.025264100462664e-05, 4.547601565718651e-05, 0.0003507218789309263, -2.988691267091781e-05, -1.0279590242134873e-05, -0.000111321838630829, 0.0004251721256878227, 0.00017736676090862602], [0.00011376319889677688, 0.00017155271780211478, 0.00011331127461744472, -0.0006130586261861026, 2.919593498518225e-06, -7.278926204890013e-05, 8.256766886916012e-05, -0.00012197629257570952, -4.689014167524874e-05, -1.6553132809349336e-05, 5.146165131009184e-05, 4.314540092309471e-06, 3.282581383245997e-05, -7.200804975582287e-05, -0.00023583746224176139, -6.255006155697629e-05], [1.55353427544469e-05, -7.185202412074432e-05, -6.859625955257798e-06, 6.573067366844043e-05, -1.7816346371546388e-05, 7.428505341522396e-05, 0.00041665005846880376, 7.846883090678602e-05, -2.219010093540419e-05, 7.321751036215574e-05, -8.194772817660123e-05, -5.6967997807078063e-05, -6.5488375184941106e-06, -0.00022361827723216265, -9.347127161163371e-07, -0.00014464283594861627], [0.00010573981853667647, -0.00021017968538217247, -9.051693268702365e-06, -0.00017332010611426085, -5.056727604824118e-05, -4.9912563554244116e-05, -0.0003381478018127382, -6.786375161027536e-05, -0.0003092695842497051, -2.525061609048862e-05, 5.4016694775782526e-05, -5.4062915296526626e-05, 1.0128045687451959e-05, -0.00014412146992981434, 4.560596062219702e-05, 0.00015709776198491454], [1.7894899428938515e-05, -7.326592458412051e-05, 8.928857278078794e-05, -9.336023504147306e-05, 1.872607936093118e-05, -6.710170418955386e-05, 0.00023419725766871125, -5.730973498430103e-06, -6.011538425809704e-05, 9.260709339287132e-05, 0.00019213731866329908, -0.00022622777032665908, 4.639817416318692e-05, -1.0910122000495903e-05, -7.015364826656878e-05, 0.0003163434157613665], [-3.596911847125739e-05, 5.500926272361539e-05, -2.3473088731407188e-05, -0.0004897430189885199, 2.796792978188023e-05, -1.675655039434787e-05, 0.0001393836282659322, 4.0614657336845994e-05, -2.595548539829906e-05, 6.224605749594048e-05, -1.9679682736750692e-05, -1.8662882212083787e-05, -1.3036247764830478e-05, 6.19092388660647e-05, -0.0001914678286993876, -0.00013700374984182417], [8.669433009345084e-05, 0.00023023232643026859, 3.3078242267947644e-05, 0.00021992839174345136, 1.454771336284466e-06, 0.00015026997425593436, 0.00015096343122422695, -6.404700980056077e-05, 0.0001831573899835348, -0.00011463221744634211, -0.00030032970244064927, 5.595971015281975e-05, 5.786070232716156e-06, -6.555725849466398e-05, -3.254018884035759e-05, -0.0004602789122145623], [-5.958056135568768e-06, -5.0246530008735135e-05, -4.064119639224373e-05, -4.1269031498814e-05, -2.144959580618888e-05, -3.0313681236293633e-06, 0.00013912217400502414, 7.404637290164828e-05, -5.425932977232151e-05, 0.00012223458907101303, -3.556413867045194e-05, -7.549022120656446e-05, -3.108974124188535e-05, -3.019996984221507e-05, -1.9506456737872213e-05, 0.00012651510769501328]], "layer_3_biases": [-0.011729341000318527, -0.00992425438016653, -0.01084532868117094, 0.10310975462198257, -0.03044111467897892, -0.03581490367650986, 0.06793378293514252, -0.006467214319854975, -0.026080969721078873, -0.13455665111541748, 0.20169295370578766, -0.028242211788892746, 0.18234381079673767, -0.016491563990712166, 0.14580227434635162, 0.3917631506919861], "layer_3_weights": [[5.3187624871497974e-05, -5.7878638472175226e-05, -0.00010592084436211735, -2.8112170184613205e-05, -6.897536513861269e-05, 0.00025872295373119414, -0.00018790928879752755, -0.00011938461102545261, -0.0001035061723086983, -0.0001589765161043033, -0.0004351578245405108, -1.3465769370668568e-05, -0.0003608164261095226, 0.00022950617130845785, -0.00016047513054218143, -0.0009115742286667228], [4.664480366045609e-05, -0.0001711753138806671, -5.221944775257725e-06, -0.0003710039600264281, -1.9131604858557694e-05, -0.0001136476785177365, -2.2954229280003347e-05, -0.00013973914610687643, -6.299790402408689e-05, 2.4475273676216602e-05, -4.99644193041604e-05, -8.62672968651168e-05, -4.628292299457826e-05, -3.265896884840913e-05, -0.00014420159277506173, 2.450890497129876e-05], [9.348701860290021e-05, -0.00011297080345684662, 0.00010288007615599781, 0.000134603789774701, -2.6885101760854013e-05, -0.00010459895565873012, -7.370419189101085e-05, -9.179047629004344e-05, -5.852598769706674e-05, 8.428675209870562e-05, 4.781721145263873e-05, -4.781200914294459e-06, 6.22689476585947e-05, -5.8363239077152684e-05, 0.00021876445680391043, -0.00013927204417996109], [1.7059823221643455e-05, 4.711201836471446e-05, 4.294368045520969e-05, 0.0004484175588004291, -9.15167256607674e-05, -0.00010952692537102848, 9.083993063541129e-05, -1.0146289241674822e-05, -0.00016133151075337082, -2.5893201382132247e-05, 4.996351435693214e-06, 1.7507001757621765e-05, -2.695920738915447e-05, -3.562401616363786e-05, 8.863659604685381e-05, 0.0001480422361055389], [-7.86459058872424e-05, -5.941642666584812e-05, -8.098762918962166e-05, -0.0005828708526678383, -1.2825850717490539e-05, 2.26551837840816e-05, 1.4739861398993526e-05, 7.892890425864607e-05, 0.00010096294136019424, -9.94405199890025e-05, -0.0005428394651971757, 2.5326037302875193e-06, -0.0004577173385769129, 5.5523829360026866e-05, -0.000378287659259513, -0.0008324009249918163], [-3.621315772761591e-05, 8.444316335953772e-05, -2.7464107915875502e-05, 0.00022824040206614882, -8.807505219010636e-05, -9.039737051352859e-05, 0.0002019237872445956, 0.00010216763621428981, -3.164068857586244e-06, 7.716441905358806e-05, 5.005330967833288e-05, 6.945883069420233e-05, 4.987180363968946e-05, -0.00019222010450903326, 7.777434802846983e-05, 1.1383808669052087e-05], [0.00011183689639437944, 9.370691259391606e-05, -5.683028939529322e-05, -0.00016343635797966272, 6.922926695551723e-05, 6.772636697860435e-05, 0.00030073561356402934, -0.00015823809371795505, 0.00017396007024217397, -2.3112204871722497e-05, 0.00036620674654841423, 0.00010821442265296355, 0.0004341848543845117, 4.981353413313627e-05, 5.794336902908981e-05, -0.00024949407088570297], [-7.851297414163128e-05, -0.00014309948892332613, -8.610410441178828e-05, -4.1469345887890086e-05, -6.447867781389505e-05, -0.00010017685417551547, -0.0002732125576585531, 0.0001026735408231616, -0.0001241835270775482, 4.803412957699038e-05, 0.0002463037380948663, -0.00020756523008458316, 0.00028208238654769957, -5.0029499107040465e-05, -0.0003689088625833392, 3.117993401247077e-05], [8.05508898338303e-05, -8.324353257194161e-05, -4.7233374061761424e-05, 0.00029282495961524546, -5.244911881163716e-05, 0.00011869219451909885, -0.00011384558456484228, -0.00011526141315698624, -9.329858585260808e-06, 4.516724948189221e-05, 0.0003568187530618161, -2.844240407284815e-05, 0.00038530962774530053, -0.00011369073035893962, 0.00042151915840804577, 0.00018122671463061124], [0.0001154656129074283, 0.00017291955009568483, 0.00011304187501082197, -0.0006093401461839676, 6.507663783850148e-06, -7.348872168222442e-05, 8.133271330734715e-05, -0.00012172498099971563, -4.726619954453781e-05, -1.7460797607782297e-05, 5.2409122872632e-05, 4.126648491364904e-06, 3.8995363865979016e-05, -7.129662117222324e-05, -0.00023679109290242195, -6.183852383401245e-05], [0.00018303343676961958, -3.4556469472590834e-05, -1.5213829101412557e-05, 4.570386590785347e-05, -3.3416574751754524e-06, -0.00020777010649908334, 0.00017238502914551646, -0.00012675892503466457, -5.318611874827184e-05, 3.87810287065804e-05, -0.00011534515942912549, -4.1502556996420026e-05, -9.60524776019156e-05, -1.568194966239389e-05, -1.789795896911528e-05, -0.00021120544988662004], [7.457751780748367e-05, -0.00020989261975046247, -8.605478797107935e-06, -0.00017887321882881224, 2.5423059923923574e-05, -4.9936945288209245e-05, -0.00034322284045629203, -6.718539952998981e-05, -0.0003102018963545561, -2.4986858988995664e-05, 6.268358993111178e-05, -5.4143860324984416e-05, 6.479695730376989e-05, -0.00014308452955447137, 3.178359838784672e-05, 0.0001648417819524184], [7.620475116709713e-06, -7.342754543060437e-05, 8.937394886743277e-05, -9.515860438114032e-05, 7.947934500407428e-05, -6.714656774420291e-05, 0.0002395713672740385, -9.274119292967953e-06, -6.059502629796043e-05, 9.179781773127615e-05, 0.00019651756156235933, -0.0002262287598568946, 0.00018345206626690924, -1.105463979911292e-05, -7.38940216251649e-05, 0.00032047583954408765], [-4.4044951209798455e-05, 5.585126200458035e-05, -2.7263613446848467e-05, -0.0004988718428649008, 4.445750528248027e-05, -1.5648003682144918e-05, 0.0001494460884714499, 3.9825063140597194e-05, -2.5993094823206775e-05, 6.257465429371223e-05, -1.019314004224725e-05, -1.8527704014559276e-05, 2.5997538614319637e-05, 6.29675414529629e-05, -0.00019666753360070288, -0.00012868661724496633], [5.354138556867838e-05, 0.00029979003011249006, 6.141599442344159e-05, 0.0002149614447262138, 0.00010420144826639444, 0.0001764718326739967, 0.00020188451162539423, -6.148332613520324e-05, 0.00024652155116200447, -9.846716420724988e-05, -0.000342275423463434, 9.953888365998864e-05, -0.0003234692267142236, 5.767375841969624e-05, 8.303310460178182e-05, -0.0005183721659705043], [2.5622788598411717e-05, -0.00011002077371813357, -1.8150436517316848e-05, -3.329660466988571e-05, -6.128305358288344e-06, 4.918049967272964e-07, 0.00015137490117922425, 3.4858083381550387e-05, -7.457737228833139e-05, 8.462301775580272e-05, -4.889672345598228e-05, -8.301078923977911e-05, -7.246158202178776e-05, -1.6155765479197726e-05, -2.449876228638459e-05, 4.778607763000764e-05]], "layer_4_biases": [0.12236164510250092, -0.015141389332711697, -0.029033919796347618, -0.03259344398975372, -0.00803887378424406, -0.05858161672949791, 0.09886707365512848, -0.02845478057861328, -0.029972685500979424, -0.11747554689645767, 0.18696755170822144, -0.030052034184336662, 0.3477674126625061, -0.007331675849854946, 0.13600946962833405, 0.4789516031742096], "layer_4_weights": [[-7.302406447706744e-05, -5.788980342913419e-05, -0.00011212965910090134, 3.767300222534686e-05, -7.823576015653089e-05, 0.0002586939372122288, -0.0001869492989499122, 4.632246418623254e-05, -0.00010357538121752441, -0.00015857549442443997, -0.00044001542846672237, -1.3275344826979563e-05, -0.00036405911669135094, 0.00022892111155670136, -0.0001582827972015366, -0.0009139704634435475], [-0.000703526777215302, -0.00017071745241992176, -1.078127297660103e-05, 0.00010511079744901508, 9.045209299074486e-05, -0.00011382620868971571, -2.7751682409871137e-06, 2.9498565709218383e-05, -6.271502934396267e-05, 2.5541547074681148e-05, -3.306991857243702e-05, -8.595520921517164e-05, -3.0807666917098686e-05, -3.12764968839474e-05, -0.00015938986325636506, 3.90631212212611e-05], [-5.7940647820942104e-05, -0.00011266156798228621, 0.00010327321797376499, 9.841483552008867e-05, -1.9331717339809984e-05, -0.00010459659097250551, -7.643849676242098e-05, -8.537945541320369e-05, -5.792416777694598e-05, 8.428800356341526e-05, 4.8747337132226676e-05, -4.790264028997626e-06, 6.259176007006317e-05, -5.825580592500046e-05, 0.0002197160938521847, -0.00013808118819724768], [-8.753799193073064e-05, -1.0202929843217134e-05, 5.41567278560251e-05, 0.0002978381817229092, -9.910991138895042e-06, -7.41945332265459e-05, 0.00010368302901042625, 0.00010919696796918288, 1.6357014828827232e-05, -3.082837429246865e-05, -2.8904447390232235e-05, -3.299615229934716e-07, -5.865936691407114e-05, 1.0530026202104636e-06, -2.0860690710833296e-05, 0.00010381160245742649], [-3.2902127713896334e-05, -6.0038044466637075e-05, -6.925509660504758e-05, -2.6552763301879168e-05, -2.078668785543414e-06, 2.2861382603878155e-05, 1.9577928469516337e-05, 1.3015773220104165e-05, 0.00010327536438126117, -9.904457692755386e-05, -0.0005460333777591586, 2.101942300214432e-06, -0.0004596899088937789, 5.565738320001401e-05, -0.0003770356997847557, -0.0008339371415786445], [0.00038870604475960135, 8.490159962093458e-05, 1.6857892433108645e-06, -6.451558147091419e-05, 7.408814417431131e-05, -9.056628914549947e-05, 0.00020609216880984604, -4.905139576294459e-06, -3.065652663281071e-06, 7.756741251796484e-05, 5.665728895110078e-05, 6.960192695260048e-05, 5.5357271776301786e-05, -0.0001912909938255325, 7.307095074793324e-05, 1.667742799327243e-05], [4.61328454548493e-06, 6.591926194232656e-06, 3.1849307561060414e-05, -7.248671408888185e-06, 9.452646190766245e-05, 7.91088750702329e-05, 0.0002782028168439865, 4.6731500333407894e-05, 0.00019276142120361328, -5.615681402559858e-06, 0.0003468549984972924, 0.00020685252093244344, 0.0004048449045512825, 8.073799108387902e-05, -9.741679241415113e-05, -0.0002736442838795483], [-0.00020902273536194116, -0.00014344773080665618, -8.210223313653842e-05, 0.0001386533840559423, -7.190073665697128e-05, -0.0001001126438495703, -0.0002747667895164341, -6.376772944349796e-05, -0.00012405692541506141, 4.786627323483117e-05, 0.00024943225434981287, -0.00020721722103189677, 0.0002852492907550186, -4.958658610121347e-05, -0.00037127817631699145, 3.24586799251847e-05], [-0.00043581469799391925, -8.359200728591532e-05, -3.139718683087267e-05, -3.899889998137951e-05, -6.529601523652673e-05, 0.0001189353788504377, -0.00011469589662738144, -8.047784649534151e-05, -8.48705258249538e-06, 4.489715865929611e-05, 0.00036165115307085216, -2.8277183446334675e-05, 0.0003892368695233017, -0.00011369033018127084, 0.0004173135384917259, 0.00018387194722890854], [-0.00026761851040646434, 0.00017557186947669834, 0.00011282675404800102, 4.109837391297333e-05, 1.5033253475849051e-05, -7.527390698669478e-05, 7.990084122866392e-05, -8.704748324817047e-05, -4.797034853254445e-05, -1.840387085394468e-05, 5.395693005993962e-05, 4.2019296415674035e-06, 4.0563380025560036e-05, -7.016470044618472e-05, -0.00023621827131137252, -6.059910447220318e-05], [3.259920413256623e-05, -5.0108104915125296e-05, -8.160695142578334e-05, 0.00013482682697940618, -0.0001782514009391889, 2.712256355152931e-05, 8.599559805588797e-05, 4.593740413838532e-06, -5.460171450977214e-05, 9.954139386536554e-06, -0.00014950530021451414, -6.539080641232431e-05, -0.00012663303641602397, 2.1762130927527323e-05, -3.0658884497825056e-05, -0.00027926923939958215], [-0.00019968440756201744, -0.00020968720491509885, -6.3304155446530785e-06, 5.807585330330767e-05, -6.398470577551052e-05, -5.016020804760046e-05, -0.00034535833401605487, -0.0001173035052488558, -0.0003105771611444652, -2.486340599716641e-05, 7.032051507849246e-05, -5.422869435278699e-05, 7.233826909214258e-05, -0.00014253173139877617, 1.9850920580211096e-05, 0.00017116163508035243], [-0.00023501270334236324, -0.00013378589937929064, 1.848033571150154e-05, 7.506312249461189e-05, 3.683557952172123e-05, 2.338204467378091e-05, 0.00010758644202724099, 3.672606544569135e-05, -0.0001750374212861061, 5.371195584302768e-05, 0.00012118075392208993, -7.6904303568881e-05, 0.00011387684935471043, 1.3882008715881966e-06, 2.6174904633080587e-05, 0.00020778646285180002], [0.0002498975663911551, 5.595296897809021e-05, -3.0530718504451215e-05, 3.843508966383524e-05, 5.551783033297397e-05, -1.4842647033219691e-05, 0.00014815510076005012, -8.567301119910553e-05, -2.596780177555047e-05, 6.316998769761994e-05, -3.6836681829299778e-06, -1.842750862124376e-05, 3.126778028672561e-05, 6.275012856349349e-05, -0.0002024632995016873, -0.00012348763993941247], [0.000309101800667122, 0.00012858073750976473, 8.303314098156989e-05, -0.00020247914653737098, 5.827515997225419e-05, 0.00011985607852693647, 0.0002783203381113708, 9.097297879634425e-05, 0.00021755635680165142, -7.372834079433233e-05, -0.00038709540967829525, 0.0001575839560246095, -0.0003663490351755172, 0.00014857105270493776, 0.00033068101038224995, -0.0005788367125205696], [-1.4553840628650505e-05, -0.00013935170136392117, -0.00013469760597217828, -1.8075647858495358e-06, 4.19828575104475e-05, 8.139859346556477e-06, 0.0001345808123005554, -1.1509245268825907e-05, -0.00011012219329131767, 1.708394665911328e-05, -7.797918806318194e-05, -5.1598042773548514e-05, -9.013438830152154e-05, -1.4674535123049282e-05, -2.0537099771900102e-05, -6.528099038405344e-05]], "output_biases": [-1.3500076532363892, -0.09695961326360703], "output_weights": [[0.1021825298666954, -0.30097147822380066], [-0.09808675944805145, 0.8759607076644897], [0.21589641273021698, 0.07936130464076996], [-0.2697676718235016, -1.5627789497375488], [-0.007373632397502661, 0.15437661111354828], [-0.2552519738674164, 0.3862748146057129], [0.021623579785227776, -0.056022096425294876], [-0.11694859713315964, 0.25674811005592346], [0.14610667526721954, 0.7755934000015259], [0.09634234011173248, 0.03938537836074829], [-0.43081584572792053, -0.1287682056427002], [0.5437991619110107, 0.8624164462089539], [-0.3668995499610901, -0.12066745012998581], [-0.1017279326915741, 0.41151076555252075], [-0.21772068738937378, -0.4941692352294922], [-0.873325765132904, -0.10734757035970688]]}, "hk_disentangled_rnn/~update_latents/update_net_1": {"input_biases": [-0.010167638771235943, -0.021762924268841743, 0.058447305113077164, 0.013284252025187016, -0.09136152267456055, 0.02474106289446354, -0.026731040328741074, -0.10685982555150986, 0.06557080894708633, -0.019369684159755707, 0.04991829767823219, -0.038953155279159546, 0.0035571197513490915, -0.13637226819992065, -0.02080310508608818, 0.01779027283191681], "input_weights": [[0.4444504976272583, -0.1451001763343811, -0.18505451083183289, -0.17379458248615265, 1.2334903478622437, 0.23122482001781464, 0.02589665725827217, 0.8291776776313782, 0.025059707462787628, 1.1183393001556396, -0.37623023986816406, 0.22440768778324127, -0.3628559708595276, 0.3768147826194763, 0.1617882400751114, 0.4121455252170563], [-0.49607735872268677, 0.6177183985710144, -0.33964499831199646, -0.38017135858535767, -0.713486909866333, -0.8163937330245972, 0.24777691066265106, -0.1731908619403839, -0.3541927635669708, 0.32160496711730957, -0.634790301322937, -0.14443261921405792, -0.22185702621936798, 0.9485514163970947, 0.2772374153137207, 0.3078170418739319], [0.9921732544898987, -0.2398754209280014, 0.13882161676883698, -0.21636340022087097, -0.7872536182403564, 0.29535722732543945, 0.12864789366722107, 0.2765803635120392, -0.5668758153915405, 0.27760788798332214, 0.262066513299942, -0.3659726679325104, -1.054223656654358, -0.09862954169511795, -0.37237444519996643, -0.26138806343078613], [0.424727201461792, -0.6168091297149658, -0.5704513788223267, 0.4817613661289215, 0.29690971970558167, 1.056656002998352, -0.232585608959198, -0.7115780115127563, -0.5944551825523376, 0.01389310508966446, -0.1287521868944168, -0.6239290237426758, -0.07396616041660309, -0.18890380859375, -0.14767251908779144, -0.039678607136011124], [0.46473515033721924, -0.5654336214065552, -0.07221409678459167, 0.5799545645713806, -0.26473861932754517, -0.49896329641342163, -0.49291372299194336, 0.05286663770675659, 0.682155966758728, -0.08652753382921219, -0.16523784399032593, 0.35482946038246155, 0.1211603507399559, 0.5797762870788574, 0.2971545159816742, 0.6028469204902649], [-0.4907228350639343, -0.15306922793388367, -0.054786719381809235, -0.3205587863922119, -0.4506429433822632, 0.40592750906944275, -0.4143310785293579, 0.5115463733673096, -0.2465900033712387, -0.004497293382883072, 0.3336031138896942, 0.7792565226554871, 0.10118497908115387, -0.08626210689544678, -0.12629178166389465, -0.06478282064199448], [-0.8453933596611023, 0.10148831456899643, -0.6177316308021545, -0.5739282965660095, -0.5408186912536621, 0.4968630075454712, -0.4564935266971588, -0.156476229429245, -0.18104755878448486, 0.3275144696235657, -1.2883508205413818, 0.1659519225358963, -0.6941395998001099, 0.03961295634508133, -0.048986174166202545, -0.09966105967760086]], "layer_0_biases": [0.12002488225698471, 0.003548227483406663, -0.03901304677128792, -0.04403619095683098, -0.18480512499809265, 0.049849219620227814, -0.003267525229603052, -0.0260158721357584, -0.06575267016887665, 0.09000544250011444, 0.0671178326010704, -0.05860919505357742, -0.03378109261393547, -0.16449597477912903, -0.022853512316942215, -0.06360568106174469], "layer_0_weights": [[0.0024726521223783493, -0.012596964836120605, -0.006889294367283583, -0.013136936351656914, 1.2608265933522489e-06, 0.0012485528131946921, -0.005148945841938257, 0.018527142703533173, -0.005111293401569128, 0.009759715758264065, 0.0008799618226476014, 0.008206118829548359, -0.013391044922173023, -3.493234544293955e-05, -0.0028250201139599085, -0.0036923536099493504], [-0.001279556192457676, 0.002896694466471672, -0.0014357238542288542, -0.0008899596286937594, -3.580742122721858e-05, -0.00224878522567451, 0.004297500476241112, -0.001987423049286008, 0.000960285309702158, -0.0032781725749373436, -0.0005610286607407033, -0.004047689028084278, 0.008492964319884777, -2.102830694639124e-05, 0.01366521418094635, -0.00011056697985623032], [0.0008276602602563798, 0.00014560723502654582, -5.320859781932086e-05, -0.011289248242974281, -4.964654362993315e-05, 0.002415854949504137, 0.00997021421790123, 0.0021343911066651344, -0.006512456573545933, 0.009536517783999443, 0.0008725374937057495, -0.003687435295432806, -0.0006057314458303154, -1.0390038369223475e-05, 0.01366785541176796, -0.0025209852028638124], [0.0008269529207609594, -0.001425430877134204, -0.007986088283360004, 5.746852025367843e-07, 5.938906724622939e-06, 0.004713138099759817, 0.004184767138212919, 0.007577927317470312, -0.0010219610994681716, 0.002449445892125368, 0.0005350577994249761, 0.007991882041096687, -0.01151991169899702, -2.766931902442593e-05, -0.01189525704830885, 0.0014783293008804321], [-0.0008095562807284296, -0.012424372136592865, 0.0007933679153211415, 0.0006709246663376689, 4.505424294620752e-05, -0.004323028959333897, -0.00857542734593153, -0.0018031976651400328, 0.006131114438176155, 0.015606583096086979, -0.0010399065213277936, 0.006466016173362732, -0.029674632474780083, 4.0533610444981605e-05, 0.008607997559010983, 0.017670029774308205], [0.0007332350360229611, -0.0025982740335166454, 0.014789948239922523, 0.010019454173743725, -3.355108492542058e-05, 0.001248542801477015, -0.005781888961791992, -0.008999478071928024, 0.0006463853642344475, 0.0020590312778949738, 5.601222437690012e-05, -0.0013597599463537335, -0.010095153003931046, 3.5579680002228997e-07, -0.00767644913867116, 0.0005205287015996873], [-0.0002168960782000795, -0.0037085290532559156, -0.003646089928224683, -0.006481688469648361, -6.558803579537198e-05, 0.00013346447667572647, 0.0047966670244932175, 0.00609956169500947, -0.0012094980338588357, 0.004177086520940065, -0.00024375611974392086, 0.0007670558406971395, -0.0018575048306956887, -6.0981372371315956e-05, 0.010775208473205566, 0.0008224225603044033], [-2.7834599677589722e-05, -0.007300397846847773, 0.007415054831653833, -0.012896448373794556, 5.105085074319504e-05, -0.00543914083391428, -0.009651620872318745, -0.006992539390921593, -0.0013675783993676305, 0.01175150740891695, -6.6909306042362e-05, -0.009969047270715237, 0.0003377144457772374, 6.984528590692207e-05, 0.015512281097471714, 0.008944590575993061], [-0.00013002328341826797, 0.004580255132168531, -0.006057337857782841, -0.00179482891689986, 0.00010024510265793651, -0.0018066103802993894, 0.002773613203316927, 0.0026702689938247204, 0.0006005982286296785, 0.0043172151781618595, 8.81529413163662e-05, 0.0033774548210203648, -0.0027740467339754105, 5.6166343711083755e-05, -0.00013715327077079564, -0.003946130163967609], [-0.0005150636425241828, -0.01065942645072937, 0.0022102135699242353, -0.001520420191809535, 2.1181969714234583e-05, -0.008574508130550385, -0.019873106852173805, 0.0008502609562128782, 0.006440720520913601, -9.818024409469217e-05, -0.0008173781097866595, 0.0004070364811923355, -0.003987591248005629, 2.600683546916116e-05, 0.004768896847963333, 0.007542291656136513], [0.00140291266143322, -0.004541667178273201, 0.0035198922269046307, -0.016950255259871483, 9.284503903472796e-06, 0.009240089915692806, 0.015961743891239166, -0.0028371044900268316, -0.010562199167907238, 0.018255870789289474, 0.0012656109174713492, -0.008198301307857037, -0.006787432357668877, 9.17472061701119e-06, 0.009451767429709435, 0.008956998586654663], [-0.0005866559804417193, 0.0026080929674208164, 0.007862463593482971, -0.0032763455528765917, 6.555626896442845e-05, -0.0021635217126458883, -0.0035454409662634134, -0.014830674044787884, -8.379572682315484e-05, 0.004784675315022469, 1.8791979528032243e-05, -0.011217032559216022, 0.005914687644690275, 0.00018854637164622545, 0.00475609116256237, 0.008662475273013115], [-0.0006516035064123571, 0.0030365365091711283, -0.0025723481085151434, 2.870210118999239e-05, 4.123121834709309e-05, 0.006012828554958105, 0.012997936457395554, -0.008347720839083195, -7.371512310783146e-06, 0.006536703556776047, 7.484273373847827e-05, -0.001752933138050139, -0.008206984028220177, 2.3414324914483586e-06, 0.0003431491204537451, 0.014001348987221718], [-0.0007859137840569019, -0.0037207419518381357, -0.008707500994205475, -0.002344825305044651, 1.7571457647136413e-05, -0.004303771536797285, -0.011326802894473076, 0.004898266866803169, 0.005943538621068001, -0.006918792612850666, -0.0008591344812884927, 0.002721970435231924, 0.0059241801500320435, 8.305463779834099e-06, -0.00681918254122138, 0.008224068209528923], [-0.0007974337786436081, -0.00039145350456237793, -0.004940326791256666, 0.0007719402201473713, 4.9791877245297655e-05, -0.0018540077144280076, -0.002915597753599286, 0.0011900352546945214, 0.0033227577805519104, -0.0012514159316197038, -0.0005438382504507899, 0.0022778091952204704, -0.0006303968257270753, 2.366898479522206e-05, -0.0031478379387408495, 0.0047414908185601234], [-0.0003974823630414903, -0.003914892207831144, -0.006315592676401138, -0.0011688901577144861, 7.845673826523125e-05, -0.0026037036441266537, -0.008456460200250149, 0.0027434066869318485, 0.004461159463971853, -0.0016714450903236866, -0.00034032075200229883, 0.0032016451004892588, -0.002624138258397579, 5.2354997023940086e-05, -0.005638582166284323, 0.007781399413943291]], "layer_1_biases": [0.0710720345377922, 0.020244605839252472, 0.04774675518274307, 0.0021319640800356865, -0.027188250795006752, -0.015497555024921894, -0.00885098334401846, -0.022880759090185165, -0.0024391571059823036, -0.053247738629579544, 0.051182880997657776, 0.026213858276605606, 0.03662730008363724, -0.06771418452262878, -0.1607322096824646, 0.023862136527895927], "layer_1_weights": [[0.0022238220553845167, -0.01037982851266861, -0.0020810598507523537, -0.005954151973128319, 4.435304617800284e-06, 5.4663687478750944e-05, 3.462713721091859e-06, -1.5431931387865916e-05, 0.008540560491383076, 0.01674877479672432, 0.0003355521766934544, -0.0037836632691323757, 0.00385860912501812, -2.08208330150228e-05, -0.0004129240696784109, -0.015766872093081474], [-0.0010507722618058324, -0.002239797031506896, -0.010148648172616959, 0.00010020330228144303, -6.29727728664875e-05, -5.697177766705863e-05, -4.568297299556434e-05, -5.8635519053495955e-06, -6.132101407274604e-05, -0.01319867093116045, -0.00042001152178272605, -0.0005031904438510537, -0.007017763797193766, -2.4716779080335982e-05, 0.0013181997928768396, 0.009591599926352501], [0.0010259209666401148, -0.0005814663600176573, -0.0040450021624565125, -0.000901340099517256, -7.876251765992492e-05, 3.7835518014617264e-05, 7.514328899560496e-05, 3.1745668820803985e-05, 0.011706037446856499, -0.00038933538598939776, 0.00019791052909567952, 0.004463184624910355, -0.002160598523914814, -2.9365839509409852e-05, -0.01784667931497097, -0.0018638994079083204], [0.0006530155660584569, 0.0035960483364760876, 0.0036925298627465963, 0.0005201396998018026, 1.3952380868431646e-05, 4.11547898693243e-06, 3.636028850451112e-06, -2.9639371859957464e-05, -0.0029873938765376806, 0.0068848710507154465, 0.00016411587421316653, 0.005960838869214058, 0.0001814932911656797, -2.4105207558022812e-05, -0.004118670709431171, -0.00787993986159563], [-0.0009183735819533467, -0.014938036911189556, -0.0035976499784737825, -0.017058497294783592, 6.252176535781473e-05, 6.0143618611618876e-05, 4.0265153074869886e-05, 5.0475657189963385e-05, -0.014472685754299164, -0.005723285023123026, -0.0005999438581056893, -0.0030046969186514616, 0.017416583374142647, 2.956658136099577e-05, 0.022076202556490898, 0.00035716997808776796], [0.00045120809227228165, -0.004626620095223188, 0.01532125473022461, -0.0038046701811254025, 8.491620064887684e-06, -1.594854620634578e-05, 4.390024969325168e-06, -1.778400292096194e-05, -0.005204222165048122, 0.012196259573101997, -4.117748176213354e-05, -0.0017168885096907616, 0.021314993500709534, 9.245227374776732e-06, 0.007995915599167347, -0.005078941583633423], [-0.00015034507669042796, -0.00887884572148323, -0.01142264623194933, -0.005344317760318518, -8.425291889579967e-05, -6.081787432776764e-05, -3.171014759573154e-05, -4.282808004063554e-05, 0.001423448440618813, -0.005554852541536093, -9.883440361591056e-05, -0.0005224464111961424, -0.0006296099745668471, -5.979118941468187e-05, 0.001968235010281205, -0.0012507770443335176], [3.275628114352003e-05, -0.005022889003157616, -0.005376433487981558, -0.007864038459956646, 5.207485082792118e-05, 6.585916707990691e-05, 6.358248356264085e-05, 8.321326458826661e-05, 0.007462284993380308, -0.0017969794571399689, 6.838052649982274e-05, -0.008768977597355843, 0.004266233649104834, 7.057627954054624e-05, 0.0006133338902145624, -0.004387526772916317], [0.00015817479288671166, 0.0073326025158166885, 0.004089472349733114, 0.0041971756145358086, 0.00012967141810804605, 0.00010052517609437928, 4.468695988180116e-05, 8.108490874292329e-05, 0.0048480164259672165, -0.003677027765661478, 0.00013257647515274584, 0.0071896095760166645, -0.01062888652086258, 6.965607462916523e-05, -0.011868258006870747, 0.009500421583652496], [-0.0006733819027431309, -0.01110168732702732, -0.005052525550127029, -0.007511545438319445, 1.3586879504146054e-05, 3.626074976637028e-05, 8.681831786816474e-06, 2.6397619876661338e-05, -0.0051026251167058945, -0.002429459011182189, -0.0004000625922344625, -0.013833137229084969, 0.004731949884444475, 2.3371027054963633e-05, 0.02412702888250351, 0.0003437622217461467], [0.0011721830815076828, 0.00019352510571479797, -0.006952205207198858, -0.006852233316749334, 8.270776561403181e-06, -1.4185905456542969e-05, 4.945396722177975e-05, 9.71158078755252e-06, 0.01065424270927906, 0.005749950651079416, -4.962478487868793e-05, 0.005297118332237005, 0.01193800289183855, 1.483681899117073e-05, -0.025340234860777855, -0.02051609195768833], [-0.00044958386570215225, 0.00971138570457697, 0.002830179175361991, 0.0011682667536661029, 7.508580893045291e-05, 0.00018518319120630622, 0.0001461608917452395, 0.00021672423463314772, 0.003545731771737337, -0.005453846883028746, -2.209106787631754e-05, -0.0014543724246323109, 0.0011316381860524416, 0.00017043955449480563, -0.0077728996984660625, 0.0011108450125902891], [-0.0005407282733358443, 0.00887182354927063, -0.0030001895502209663, -0.0014573343796655536, 5.21911533724051e-05, -1.2974689525435679e-05, 3.101467154920101e-05, -4.922891321257339e-07, -0.006745768245309591, -0.008359383791685104, -0.00048109458293765783, 0.008475049398839474, 0.003156363032758236, 7.9964902397478e-06, -0.010806838981807232, -0.0036346169654279947], [-0.0008431515307165682, 0.0014997647376731038, -0.009565296582877636, 0.00036046234890818596, -5.931250143476063e-06, 3.444924732320942e-05, -1.903209295051056e-06, 1.3870126167603303e-05, -0.008137177675962448, -0.005185756366699934, -0.0003542352351360023, -0.008314055390655994, -0.008396400138735771, 2.417191126369289e-06, 0.01663922891020775, -0.0018090950325131416], [-0.0007877937168814242, 0.0017340178601443768, -0.0037568144034594297, 1.0426494554849342e-05, 5.370410508476198e-05, 6.437048432417214e-05, 4.669249028665945e-05, 6.06682660873048e-05, -0.005376383662223816, -0.005289801396429539, -0.0003421125584281981, -0.0009134553838521242, -0.0039017456583678722, 3.162390203215182e-05, 0.005491354968398809, 0.0021951692178845406], [-0.0004896505270153284, 0.002356805605813861, -0.0031628143042325974, -0.001230307505466044, 7.473741425201297e-05, 9.366195445181802e-05, 5.733030047849752e-05, 5.867849540663883e-05, -0.006365797948092222, -0.0027947649359703064, -0.0002475607325322926, -0.004339963663369417, -0.003370310878381133, 3.856854164041579e-05, 0.010203246958553791, -0.0019083312945440412]], "layer_2_biases": [0.11248602718114853, 0.01546994037926197, 0.021988412365317345, 0.013235514052212238, -0.027372244745492935, -0.04119006171822548, -0.08392373472452164, -0.02643602341413498, 0.0389314629137516, -0.05927728861570358, -0.08267635852098465, -0.06045724079012871, 0.00619796896353364, -0.014967960305511951, -0.15439105033874512, 0.05213716998696327], "layer_2_weights": [[0.001741897314786911, -0.008919045329093933, -5.481916377902962e-05, -0.01247049868106842, 3.851692963507958e-05, 0.008692029863595963, -0.011336025781929493, -9.456224461246165e-07, -0.0002466665464453399, -0.0054611279629170895, 3.801795173785649e-05, -0.00029882515082135797, -0.008744376711547375, 0.009290317073464394, -0.002880156971514225, 9.11562456167303e-05], [-0.001005444210022688, 0.004169665742665529, 0.0008963383152149618, -0.0003388824115972966, -9.628417319618165e-05, 0.001157929189503193, 0.0024427652824670076, -6.987369488342665e-06, -7.193392229964957e-05, 0.0022369150537997484, -5.074857108411379e-05, 0.004042170941829681, 0.005058055277913809, -0.001205680426210165, 0.008233125321567059, 0.0004756244597956538], [0.001362385111860931, -1.64589800988324e-05, 0.00035425310488790274, -0.0029800469055771828, -7.456346065737307e-05, -0.0031221485696733, -0.004671777598559856, 4.438066025613807e-05, 1.0116212251887191e-05, -0.005293263588100672, 3.606631071306765e-05, -0.0015765037387609482, 0.0023888307623565197, 0.0009881573496386409, -0.01396707072854042, 0.00043678167276084423], [0.0005509202601388097, 0.0025865521747618914, -6.297619256656617e-05, 0.0009381407871842384, 1.7183837144330028e-06, 0.0021878923289477825, -0.014727604575455189, -3.248834764235653e-05, -0.0008946512243710458, 0.003635520813986659, -8.380715371458791e-06, -0.00904474314302206, -0.007299596909433603, 0.0034864326007664204, -0.008587618358433247, 9.644080273574218e-05], [-0.0009507897775620222, -0.008402576670050621, -0.0005102987051941454, -0.012224573642015457, 6.997848686296493e-05, -0.002593884477391839, 0.006278762593865395, 4.671270289691165e-05, 1.861327837104909e-05, -0.024561692029237747, 2.3135758965509012e-05, -0.0189873855561018, 0.011921287514269352, -0.0015524231130257249, 0.01879594661295414, -0.00030968929058872163], [0.0006055160192772746, -0.005941443145275116, -0.0002829267759807408, 0.002203695708885789, 2.710836815822404e-05, -0.0010732423979789019, 0.003297989023849368, -1.0502831173653249e-05, -0.0008304271032102406, -0.012451326474547386, -9.200930435326882e-06, 0.0013865019427612424, 0.016040842980146408, -0.004650560207664967, -0.010105753317475319, 0.000498648383654654], [-0.00030435455846600235, -0.00034169474383816123, -0.00021701311925426126, -0.007534267380833626, -8.600114961154759e-05, 0.0063938479870557785, -0.006801351439207792, -3.920680683222599e-05, 0.0006052236421965063, -0.003809095360338688, -7.606569124618545e-05, 0.0014796965988352895, 0.0014169691130518913, 0.0032298932783305645, 0.008668131195008755, -0.000333852949552238], [6.473706162068993e-05, -0.00881979987025261, -0.0007680831477046013, -0.00786503218114376, 6.922552711330354e-05, -0.010832447558641434, 0.018156832084059715, 8.657099533593282e-05, 0.0015654725721105933, -0.01336241327226162, 8.113226795103401e-05, 7.456309685949236e-05, -0.0025677646044641733, -0.0032064239494502544, 0.009666554629802704, -0.0007475625607185066], [0.0002299668121850118, 0.00010538963397266343, 0.00027405741275288165, 0.002098146826028824, 0.00012067738134646788, -0.006269004195928574, 0.0026817654725164175, 7.764665497234091e-05, 0.00023337233869824558, -7.328048377530649e-05, 9.569075336912647e-05, -0.009736092761158943, -0.0009305335697717965, 0.0011634177062660456, -0.012387080118060112, -6.046438647899777e-05], [-0.0005977021064609289, -0.008452849462628365, 2.2294414520729333e-05, -0.008672415278851986, 2.1397599994088523e-05, 0.0005000086966902018, 0.01841682381927967, 2.4390305043198168e-05, 0.0006372880307026207, -0.007455350831151009, 3.875973561662249e-05, 0.00043819056008942425, -0.0009370210464112461, 0.00016475065785925835, 0.026342172175645828, -0.0003150650591123849], [0.0011419362854212523, 0.0010737384436652064, 0.0006996365264058113, -0.00458788126707077, 4.923937012790702e-05, -0.006284598261117935, -0.01861896924674511, 2.0497524019447155e-05, -0.0016228619497269392, -0.009953456930816174, 1.0856247172341682e-05, -0.004130980931222439, -0.004330437630414963, -0.001295735826715827, -0.016902508214116096, 0.001346621080301702], [-0.000145108497235924, -0.0001894143788376823, 5.338109622243792e-05, 0.005244876258075237, 7.435572479153052e-05, -0.01640968769788742, 0.014701575972139835, 0.00022372006787918508, 0.00022133960737846792, -0.0032322967890650034, 0.00018340206588618457, -0.003954928368330002, -0.0036842799745500088, -0.007444384507834911, -0.003507818328216672, 5.559829332923982e-06], [-0.0005606623599305749, 0.009091665968298912, 0.0006374299409799278, 0.004725283943116665, 5.0952799938386306e-05, -0.009021828882396221, -0.011098908260464668, -2.5338786144857295e-06, -0.001531809801235795, -0.0005251022521406412, -8.016965693968814e-06, -0.015197512693703175, -0.003027194645255804, -0.004729777108877897, -0.005610213615000248, 0.0008164852042682469], [-0.0009432275546714664, 0.0014542583376169205, 0.0003607553953770548, -0.0022226162254810333, 1.4619432704421342e-06, 0.0022926307283341885, 0.005883661564439535, 1.102408623410156e-05, -6.0905382269993424e-05, 0.011380435898900032, 2.6623309167916887e-05, -0.000400655553676188, -0.01862487941980362, 0.00258525344543159, 0.027454953640699387, -0.0002668333472684026], [-0.0008640206069685519, 0.00022450204414781183, -9.108382801059633e-05, -0.000465962482849136, 7.155261118896306e-05, -0.0005695380386896431, 0.0037966989912092686, 5.8450437791179866e-05, 0.00020356927416287363, 0.0026790627744048834, 3.159960397169925e-05, -0.004763799253851175, -0.006028382573276758, 0.0006660259095951915, 0.013129416853189468, -0.000371863367035985], [-0.000703571829944849, 0.0005987121257930994, 0.0009151164558716118, -0.0008606451447121799, 0.00010226712038274854, -0.0019259528489783406, 0.0061879875138401985, 6.374213990056887e-05, -0.0009624608210287988, 0.003794416319578886, 7.383951015071943e-05, -0.005519789177924395, -0.012846042402088642, 0.0009883256861940026, 0.014356285333633423, 0.0005149342468939722]], "layer_3_biases": [0.350373238325119, 0.018050823360681534, 0.030313074588775635, -0.12128012627363205, -0.013538369908928871, 0.024899348616600037, 0.06408258527517319, -0.0710785835981369, 0.043749768286943436, -0.039878446608781815, -0.03324074670672417, -0.029274342581629753, 0.032005514949560165, 0.02157674916088581, -0.03119499422609806, 0.009829578921198845], "layer_3_weights": [[0.0006970163085497916, 0.01728619635105133, 0.00068706797901541, -0.013204865157604218, 5.1861279644072056e-05, -0.004099939949810505, -0.004931389354169369, 1.806072577892337e-05, -0.0009212379809468985, 0.0212098378688097, 0.005735567305237055, 3.318113522254862e-05, 0.0012222371296957135, -0.0005029341555200517, 0.007672968786209822, -0.009435047395527363], [-0.0005297375610098243, -0.01025718729943037, 0.0009535218705423176, 0.006298533640801907, -8.725527732167393e-05, -0.0002094315132126212, -0.0020110884215682745, -1.252055517397821e-05, -0.0003378641267772764, -0.006528275553137064, -0.004990754183381796, -2.5365297915413976e-05, 0.0009144817595370114, 1.822964350139955e-06, -0.000523204100318253, 0.00920102745294571], [0.0008567275363020599, 0.0027655032463371754, -0.00018418734543956816, -0.0019511490827426314, -9.003868512991176e-07, 0.0005490591283887625, -0.006453144364058971, 4.966834603692405e-05, 0.0006705530104227364, 0.004693929105997086, -0.002459091367200017, 8.27077092253603e-05, -0.0006693199393339455, 0.0002550057542975992, 0.0066767530515789986, 0.0012039291905239224], [0.0002501244598533958, 0.0039675356820225716, 0.00014620006550103426, 0.00322509347461164, 4.873350917478092e-06, 0.005129158031195402, -0.010255003347992897, -2.8817556085414253e-05, -0.0010981090599671006, 0.009444638155400753, 0.008603457361459732, -3.6038843518326757e-06, 0.0003940387978218496, -0.00028013926930725574, 0.003910141531378031, -4.41798374595237e-06], [-0.00040321226697415113, -0.005772781558334827, -0.00021976004063617438, 0.02166067436337471, 2.908107671828475e-05, 0.0002986650506500155, -0.008269790560007095, 4.527859709924087e-05, -0.0004472607688512653, 0.010206368751823902, 0.0016644077841192484, 6.3391009462066e-05, 0.0005181735614314675, -0.0005266671068966389, -0.031246617436408997, -0.0052114976570010185], [0.0002473463537171483, 0.0038471585139632225, -0.0011165740434080362, -0.0073868571780622005, 5.1421698117337655e-06, 0.0015732600586488843, 0.010663148947060108, -7.550264399469597e-06, 0.0002953001530840993, 0.0066957492381334305, -0.005229226313531399, -3.288685911684297e-05, -0.0003208990965504199, -0.000303287262795493, -0.012720412574708462, -0.011210578493773937], [-0.000217524342588149, -0.004005801863968372, -0.00029027313576079905, 0.0012113620759919286, -7.564935367554426e-05, -0.0011185890762135386, -0.003491448936983943, -3.333265703986399e-05, 0.0006326314760372043, 0.004742736462503672, -0.0027135349810123444, -2.36668511206517e-05, -0.00048273892025463283, 0.0002123643789673224, 0.002265228657051921, 0.0020595781970769167], [0.00020516970835160464, 0.008355222642421722, -0.0004272782534826547, -0.002760401926934719, 7.213330536615103e-05, -0.009156400337815285, 0.011274299584329128, 8.975545642897487e-05, 0.0014213211834430695, -0.00793630350381136, -0.005677137989550829, 6.40659563941881e-05, -0.0008033451158553362, 0.00036203660420142114, -0.003566728439182043, -0.00896248035132885], [0.0003282259567640722, -0.0008886461146175861, 0.0007894730661064386, 0.010443302802741528, 0.00012290620361454785, 0.003672901773825288, -0.014539642259478569, 8.58175553730689e-05, -0.0005625346093438566, 0.0020344832446426153, 0.006629697047173977, 0.00010353526886319742, 0.00023121463891584426, 4.743875251733698e-05, -0.0014606441836804152, 0.005564694292843342], [-0.0002459791430737823, 0.0015174541622400284, 0.0010310116922482848, 0.0010658224346116185, 2.5224506316590123e-05, -0.009334604255855083, 0.010191489942371845, 2.3349404727923684e-05, -0.0005029316525906324, -0.0028706768061965704, -0.001671983627602458, 1.13577043521218e-05, 0.001612693420611322, -0.000568414106965065, -0.0144352987408638, -0.00619250675663352], [0.0004454553418327123, 0.013729545287787914, 0.0009911272209137678, -0.007384543772786856, 5.399341171141714e-05, 0.00017730299441609532, -0.0068092504516243935, 2.9060853194096126e-05, -0.0016306506004184484, 0.005165882874280214, -0.0048100948333740234, 2.4502627638867125e-05, 0.0018466203473508358, -0.00010555062908679247, 0.014365684241056442, -0.005970545578747988], [0.00015959201846271753, 0.003760390914976597, -0.0005747691029682755, 0.003558735130354762, 0.0001109281147364527, -0.0029932644683867693, 0.0076340576633811, 0.00022465990332420915, 0.001126559334807098, -0.016841527074575424, -0.0034231666941195726, 0.00021475301764439791, -0.0011399632785469294, 0.0005219214945100248, -0.0004028012917842716, -0.0042306287214159966], [-0.00027295525069348514, -0.004511580336838961, 0.0011295669246464968, 0.015081753022968769, 2.995032446051482e-05, 0.005781515967100859, -0.012242903932929039, 2.638484829731169e-06, -0.0019857201259583235, -0.004743411671370268, 0.001959853805601597, 1.6372037862311117e-05, 0.0016503380611538887, -0.00026717918808571994, -0.0011512641794979572, 0.004947197157889605], [-0.00045598403085023165, 0.0003051683015655726, 2.6940182578982785e-05, 0.004116103984415531, 1.4557796930603217e-05, -0.006064439192414284, 0.006652551237493753, 1.2009517377009615e-05, 0.00041155130020342767, -0.010104821063578129, 0.0058524697087705135, 1.9671117115649395e-05, -0.000376687734387815, 0.0001537618663860485, 0.004804822616279125, 0.00022952845029067248], [-0.0004916416946798563, -0.0022284279111772776, -0.0006975600845180452, 0.008355701342225075, 4.6131590352160856e-05, -0.0008648845250718296, 0.0009693110478110611, 5.7382218074053526e-05, 0.0008988824556581676, -0.004024786874651909, 0.0038961642421782017, 5.887083170819096e-05, -0.0012352407211437821, 0.00029798029572702944, -0.002136834664270282, 0.000922827166505158], [-0.00033089594217017293, 0.0014676966238766909, 0.0002753606822807342, 0.007276048418134451, 9.79303295025602e-05, -0.0037909422535449266, 0.0030479265842586756, 7.058012852212414e-05, -0.0001524932886241004, -0.004592201206833124, 0.0059477584436535835, 9.025598410516977e-05, 7.691785140195861e-05, -5.2046802011318505e-05, -0.0017062586266547441, -0.0006247793789952993]], "layer_4_biases": [0.347051739692688, -0.02566346898674965, -0.009500226005911827, -0.016044404357671738, -0.027857834473252296, 0.06685370951890945, -0.1077030822634697, -0.15111351013183594, -0.06679246574640274, 0.006751717068254948, 0.012496411800384521, 0.0009520093444734812, -0.026322366669774055, 0.02288530021905899, -0.0194479301571846, 0.02990388683974743], "layer_4_weights": [[-0.0002089376503136009, 0.014290881343185902, 0.011937648989260197, -0.008446920663118362, 6.197448237799108e-05, -0.0010022044880315661, -0.02460615523159504, 6.499813753180206e-05, -0.0019159484654664993, -0.007628763560205698, -0.002212564228102565, -0.01109982468187809, 0.013390107080340385, -0.00039988767821341753, -0.00040543207433074713, -0.004699857905507088], [0.00011291650298517197, -0.008155666291713715, -0.011231832206249237, 0.009969677776098251, -5.078640242572874e-05, -0.0004916590405628085, 0.00990994181483984, -3.007444684044458e-05, 0.008197970688343048, 0.010540027171373367, -0.0007059283088892698, -0.0012465484905987978, 0.0013345463667064905, -0.0002886164584197104, 0.016228822991251945, 0.0011475112987682223], [0.0005090225022286177, 0.004253213293850422, -0.0034879157319664955, 0.0028213493060320616, 8.597301530244295e-06, 0.0007076518959365785, -0.011822673492133617, 5.751842036261223e-05, 0.005703756585717201, 0.005034936126321554, 0.0008828635909594595, -0.002259705914184451, 0.004053947515785694, 0.0002578004787210375, 0.012901701964437962, -0.00025323941372334957], [-0.00027576886350288987, 0.008474060334265232, 0.006696862168610096, -7.158389780670404e-05, -2.7609967219177634e-05, -0.0009409183985553682, -0.009730919264256954, -2.5992570954258554e-05, -0.009820536710321903, -0.0042281080968678, 0.0025353373493999243, 0.004178948700428009, 0.0018856943352147937, -0.00028969530831091106, -0.019700026139616966, 0.005843695718795061], [-0.0002375078183831647, 0.006991158239543438, -0.01939438097178936, -0.010946596972644329, 3.558292519301176e-05, -0.00014601189468521625, 0.0053611272014677525, 4.8960268031805754e-05, 0.0060499003157019615, -0.01609058305621147, 5.9789013903355226e-05, 0.00044615022488869727, 0.0011833561584353447, -9.534008131595328e-05, -0.0148019315674901, -0.007878988981246948], [-4.3384065065765753e-05, -0.004634360317140818, 0.004199901130050421, -0.01859748177230358, 1.4538652976625599e-05, 0.00029463725513778627, -0.0007356608984991908, -1.3573828709922964e-06, -0.008265005424618721, -0.01652379333972931, 0.0008685479406267405, 0.005063312593847513, -0.012889644131064415, 0.00024005556770134717, -0.026720872148871422, -0.0057748593389987946], [0.00016656628577038646, -0.00538018811494112, -0.010330752469599247, 0.001953450031578541, -3.7055342545500025e-05, 0.00019107227853965014, -3.6116391129326075e-05, -2.303400651726406e-05, 0.007527518086135387, 0.0016991954762488604, -0.0008722023922018707, -0.004620135296136141, 0.0040190620347857475, -1.6571020751143806e-05, 0.014877651818096638, -0.0036640155594795942], [0.00012986805813852698, 0.005130917765200138, -0.0060595013201236725, -0.0007217068341560662, 9.4812989118509e-05, 0.0004759143339470029, -0.00047602871200069785, 9.441688598599285e-05, 0.012012792751193047, -0.0012056900886818767, -0.00388526963070035, -0.009191231802105904, 0.012018977664411068, 0.0001204575237352401, 0.02066318318247795, -0.008682608604431152], [4.4243530282983556e-05, 0.013924045488238335, 0.0009640933130867779, 0.005079232156276703, 0.00012282130774110556, -0.0006197537295520306, -0.007162453141063452, 0.00010624986316543072, 0.002767590805888176, 0.008093303069472313, 0.0024875409435480833, 0.0013669341569766402, 0.0010000576730817556, -0.00013380948803387582, -0.002616042736917734, 0.004335608333349228], [-7.027598621789366e-05, 0.001316404901444912, -0.0018865697784349322, -0.004730594344437122, 3.568376268958673e-05, -0.0009623905061744153, 0.00676738889887929, 3.0194798455340788e-05, 0.00871929619461298, -0.005091875791549683, -0.00472206762060523, -0.01070852018892765, 0.006113850045949221, -0.000513253326062113, 0.007827496156096458, -0.008029535412788391], [0.0001527568674646318, 0.00043784594163298607, -0.005558727774769068, 0.0016579157672822475, 4.7013865696499124e-05, -0.000437569513451308, -0.01226047333329916, 3.985552757512778e-05, -0.005206981208175421, -0.003989759832620621, 0.0013754310784861445, 0.00022885642829351127, 0.01345937978476286, -8.986260945675895e-05, 0.00605838093906641, -0.000340897444402799], [0.00035840936470776796, 0.0027821415569633245, -0.003115688683465123, 0.004132443573325872, 0.0001462294749217108, 0.0006192399305291474, 0.007263865787535906, 0.0002092915092362091, 0.0016132901655510068, 0.002962366910651326, -0.0004955370095558465, 0.0019051299896091223, 0.004039084538817406, 0.00031718407990410924, 0.008293450810015202, -0.0011217917781323195], [0.00021900911815464497, -0.0015046674525365233, -0.011243719607591629, 0.0073577337898314, 1.5314913980546407e-05, -0.0002906671434175223, 0.008736436255276203, 8.053393685258925e-06, -0.008652080781757832, -0.00037908897502347827, 0.0036115478724241257, 0.010189619846642017, 0.00020844466052949429, -0.00010559120710240677, -0.00632987217977643, 0.00728018069639802], [-8.871396130416542e-05, 0.000980578945018351, 0.0005958034889772534, 0.008464362472295761, 1.6676429368089885e-05, -0.00017157166439574212, 0.0102126095443964, 1.9203602278139442e-05, 0.0019767601042985916, 0.002067683730274439, -0.0034511613193899393, -0.00513826310634613, 0.01135047897696495, -0.00018781036487780511, 0.014481686055660248, 0.0008065702277235687], [-5.656741268467158e-05, 0.0009790878975763917, -0.0045759710483253, 0.003601507982239127, 6.82731915730983e-05, 0.0008123742300085723, 0.007536748889833689, 6.733091140631586e-05, 0.0017758698668330908, -0.0013273562071844935, -0.0003622502845246345, 8.916217484511435e-05, 0.003156425664201379, 0.0002763819938991219, 0.010465437546372414, 4.479392373468727e-05], [-0.00014695733261760324, 0.005827861838042736, 0.0008544580778107047, 0.004690236411988735, 0.00010316251427866518, -0.00018649041885510087, 0.006449461914598942, 8.912032353691757e-05, -0.00015644369705114514, -0.0012491755187511444, -0.0015301938401535153, -0.002059679012745619, 0.007850529626011848, -0.0001506253465777263, 0.006918688770383596, 0.0013683638535439968]], "output_biases": [1.1378108263015747, 0.01120059471577406], "output_weights": [[1.1962242126464844, -0.02385813742876053], [1.2553731203079224, 0.3498670756816864], [0.6484479904174805, 0.2879597842693329], [-1.4127165079116821, 0.31187954545021057], [0.9150875806808472, -0.08010809868574142], [0.22002238035202026, -0.19178926944732666], [0.7918652892112732, -0.6997149586677551], [0.8619000911712646, -0.1109108254313469], [0.6018779873847961, -0.33636265993118286], [1.1057400703430176, 0.4790889620780945], [-0.6432476043701172, -0.11247242987155914], [0.7391581535339355, -0.2677276134490967], [-0.3053135573863983, 0.39394962787628174], [0.023608917370438576, -0.06972065567970276], [0.2614067494869232, -0.968669056892395], [0.5938040614128113, 0.2853560745716095]]}, "hk_disentangled_rnn/~update_latents/update_net_2": {"input_biases": [-0.0063716392032802105, 0.05132763460278511, -0.13400094211101532, -0.14215338230133057, 0.32200515270233154, -0.10966811329126358, 0.012496448121964931, -0.10698678344488144, -0.09753888100385666, -0.10395511239767075, 0.08129440248012543, 0.1193728819489479, -0.46986523270606995, -0.035793907940387726, 0.06700847297906876, -0.11617457866668701], "input_weights": [[-0.32440823316574097, 0.6722632050514221, 0.49181437492370605, 0.5769928693771362, -0.08594109863042831, 0.7783281207084656, 0.11659613996744156, 0.704522967338562, 0.8432371020317078, 1.2877715826034546, -0.6944850087165833, -0.5464887619018555, -0.021592216566205025, 0.07703611254692078, -0.75234055519104, -0.00015848745533730835], [-0.08493632823228836, -0.21689657866954803, -0.2537567913532257, 0.005237385630607605, -0.3756050169467926, 0.0328788198530674, -0.056648530066013336, 0.08647625893354416, -0.4407002329826355, 0.13875281810760498, 0.9175519943237305, -0.08439001441001892, 0.582779049873352, 0.5900681614875793, 0.326861709356308, 0.16431824862957], [-0.1313169002532959, -0.3190661370754242, -0.29598256945610046, -0.7051226496696472, 0.519252598285675, -0.4438204765319824, -0.1516091227531433, 0.34641724824905396, 0.1785421371459961, 0.4339125454425812, -0.05862344428896904, -0.7661985754966736, 0.054098065942525864, 0.38287314772605896, 0.023209230974316597, 0.013692744076251984], [-0.866823673248291, 0.020651431754231453, -0.40120449662208557, -0.3611566424369812, 0.09002159535884857, 0.16146577894687653, -0.3246268033981323, 0.014555101282894611, 0.030557123944163322, 0.16802269220352173, -0.3426523804664612, -0.08220496773719788, -0.476139634847641, -0.061241425573825836, 0.3891686499118805, 0.17692993581295013], [0.5084323287010193, -0.04836900532245636, -0.865749716758728, 0.2413882166147232, 0.24020114541053772, -0.07380236685276031, -0.19562746584415436, 0.6978833675384521, 0.05615270137786865, -0.47581252455711365, -0.08299070596694946, 0.4932132959365845, -0.24691779911518097, 0.38732728362083435, 0.21772313117980957, 0.03174898773431778], [0.43541693687438965, -0.02039487473666668, -0.1194310262799263, -0.329974502325058, -0.12686434388160706, -0.03323771432042122, 0.2880048155784607, 0.2875916361808777, 0.21690428256988525, -0.4673067629337311, 0.5175586938858032, 0.38969579339027405, -0.16591331362724304, -0.22933629155158997, -0.12042424827814102, 0.2056543231010437], [0.6908110976219177, -0.40336403250694275, -0.1092085987329483, -0.18617357313632965, -0.6504817605018616, -0.14401109516620636, -0.23333393037319183, 0.03525376319885254, 0.9463145136833191, -0.12324923276901245, -0.5393744111061096, 0.6715106964111328, 0.03894402086734772, 0.3310389220714569, -0.38353896141052246, -0.4558773636817932]], "layer_0_biases": [-0.03298703208565712, -0.006015638820827007, -0.03168642893433571, -0.061651527881622314, -0.03102194517850876, -0.05376778915524483, 0.027338864281773567, -0.0446961410343647, -0.13709314167499542, -0.055997200310230255, 0.10084177553653717, 0.12456433475017548, -0.3159179985523224, -0.02561897784471512, 0.10853461176156998, -0.08782483637332916], "layer_0_weights": [[5.106282333144918e-05, -5.274991781334393e-05, 5.254843199509196e-05, 4.2473220673855394e-05, -6.3347251852974296e-06, 2.051712181128096e-05, -0.0005025434657000005, 2.6292625989299268e-05, 9.893213427858427e-05, 7.69617545302026e-05, -3.420574103074614e-06, -6.262017268454656e-05, 0.0001115004561142996, -4.60915980511345e-05, -4.836918378714472e-05, -2.3512352527177427e-06], [7.19601530363434e-07, 5.953459549346007e-06, 3.3373977203154936e-05, -1.8958100554300472e-05, 4.803807314601727e-05, -1.635270928090904e-05, -6.657562335021794e-05, -6.168707477627322e-05, -5.455159771372564e-05, -4.9318725359626114e-05, 3.9532100345240906e-05, 0.00015280659135896713, -4.695127427112311e-05, 9.149524885287974e-06, 0.00013122368545737118, -0.00014026240387465805], [-0.0001889991544885561, 0.00013875984586775303, 3.18441707349848e-05, -0.00013388851948548108, 1.2433019946911372e-05, -6.350762123474851e-05, -0.00026119084213860333, -8.27127369120717e-05, -2.763841621344909e-05, -3.89786837331485e-05, -0.00032318272860720754, -0.0001412534766132012, -9.421324648428708e-05, 0.0001611686748219654, -0.00023879122454673052, 0.00015811671619303524], [3.7913221603957936e-05, -3.545543222571723e-05, 5.2736697398358956e-05, 9.25490094232373e-05, 5.829130168422125e-05, 2.80962649412686e-05, -0.0002477905945852399, 3.834064773400314e-05, -0.00016341512673534453, -3.45918997481931e-05, 0.00020466189016588032, 3.085565549554303e-05, -5.051225161878392e-05, -0.00011317295138724148, 0.00018623330106493086, -0.00011129072663607076], [9.061797754839063e-05, -8.112638897728175e-05, 0.00012669278657995164, 0.000100256125733722, -3.3927102776942775e-05, -2.3946171495481394e-05, -0.0002671336114872247, 3.293464033049531e-05, 2.1756313799414784e-06, -1.9755452740355395e-05, 8.988128683995456e-05, 0.00022234534844756126, -3.510464011924341e-05, -7.061547512421384e-05, 0.000432944914791733, 1.651132697588764e-05], [-1.790325768524781e-05, 2.5104523956542835e-05, 1.5480702131753787e-05, -3.267502324888483e-05, -8.846224955050275e-05, -6.393966032192111e-05, 0.00011604723840719089, -0.00010848650708794594, 0.00016947273979894817, -5.995114042889327e-05, 4.727324267150834e-05, 0.00013878234312869608, -1.5771518519613892e-05, 1.8969833035953343e-05, 0.00012427920592017472, -0.00013374644913710654], [-0.00015881920990068465, 0.00015324527339544147, -0.00018089762306772172, -0.00015637702017556876, 6.372242933139205e-05, -6.581772322533652e-05, 0.0005240603932179511, 6.0741138440789655e-05, 1.811905349313747e-05, -9.481408778810874e-05, 0.0005568009219132364, 0.00039715663297101855, -3.4830642107408494e-05, 0.00015901264850981534, 0.0005890610045753419, 0.0001303086755797267], [2.8088197723263875e-05, -2.0149525880697183e-05, 5.778994091087952e-05, 1.3051532732788473e-05, -6.142947677290067e-05, -4.050527059007436e-05, -0.00021257117623463273, -7.763649773551151e-05, 0.0001869810075731948, -4.300542514101835e-06, 0.00011911584442714229, 0.00017721405311021954, -3.446512346272357e-05, -3.0732790037291124e-05, 0.0001681436551734805, -6.89896332914941e-05], [0.00019615072233136743, -0.00019952164439018816, 0.00011414369510021061, 0.00017991237109526992, 7.239688420668244e-05, 0.00023793613945599645, -9.06319182831794e-05, 0.00020375539315864444, -0.00020974517974536866, -3.652998202596791e-05, -0.00038819003384560347, -0.0002955327508971095, -1.4896847460477147e-05, -0.00018076112610287964, -0.00034884439082816243, -0.00014136800018604845], [-6.72821943226154e-06, 1.430466363672167e-05, 2.8071506676496938e-05, -1.7671687601250596e-05, 0.0001315588888246566, -8.619354048278183e-05, -4.689411071012728e-05, -7.305763574549928e-05, 2.5385014623680036e-07, -0.00012784144200850278, -0.00017358263721689582, 9.717058674141299e-06, -3.191836367477663e-05, 6.249238140298985e-06, -6.456185656134039e-05, -5.171273005544208e-05], [-5.190802403376438e-05, 7.653938519069925e-05, 6.769216997781768e-05, -0.0001289950596401468, -0.00010155689960811287, 5.770240750280209e-05, 0.00010879732144530863, 4.795109634869732e-05, 8.04497321951203e-05, 4.183465716778301e-05, 0.00035129173193126917, 0.00019396223069634289, 0.00011325251398375258, 9.687672718428075e-05, 0.0002577562991064042, -1.537496814307815e-06], [1.1865321539517026e-05, -1.9532615624484606e-05, -2.617741483845748e-05, 3.8560163375223055e-05, -7.086672849254683e-05, -6.999047036515549e-05, 0.00011356256436556578, -3.923932308680378e-05, 4.647398600354791e-05, -5.288749889587052e-06, 7.513333548558876e-05, 2.3690421585342847e-05, 8.250211249105632e-05, -2.659771234903019e-05, 6.167173705762252e-05, -1.4309010111901443e-05], [-0.00012343346315901726, 0.00010891333658946678, -6.77218777127564e-05, -6.0540733102243394e-05, -7.180241664173082e-05, -6.638629565713927e-05, -2.267067065986339e-05, -8.104673906927928e-05, 3.427688170631882e-06, -0.00010343454778194427, -0.0002254717837786302, -7.048273255350068e-05, 1.0643195309967268e-05, 8.909991447580978e-05, -0.0003940829774364829, 2.6154013539780863e-05], [7.866917258070316e-06, 5.204944045544835e-06, 2.5308576368843205e-05, -3.327092053950764e-05, 4.478434129850939e-05, -4.004864604212344e-05, 1.6260151824099012e-05, -6.188623228808865e-05, 2.9020638976362534e-05, 6.499804294435307e-05, 9.11336755962111e-05, 5.030650208937004e-05, -4.324549081502482e-05, 2.322417640243657e-05, 7.445099618053064e-05, -9.346602382720448e-06], [-0.00020503433188423514, 0.00020213743846397847, -0.00019227735174354166, -0.000207348566618748, -6.532572297146544e-05, -0.00014069219469092786, 0.0002899607934523374, -0.00012041148147545755, 0.00019647704903036356, 1.6092297300929204e-05, 0.0002452727349009365, 3.2053780159913003e-05, 2.850375312846154e-05, 0.00020241136371623725, 0.00015286702546291053, 9.125954238697886e-05], [-2.24420873564668e-05, 1.1632680980255827e-05, -4.7263245505746454e-05, -9.37224740482634e-06, 1.4698002814839128e-05, -9.841675637289882e-05, -0.0006409464403986931, -0.00010148742876481265, -6.486746769951424e-06, -7.284421735676005e-05, 0.0008464459679089487, -0.0005108969053253531, -2.2488306058221497e-05, 2.7600452085607685e-05, -0.00020474112534429878, -0.00017437731730751693]], "layer_1_biases": [-0.06298337131738663, 0.12283498793840408, -0.03193821385502815, -0.07287968695163727, -0.006730891298502684, -0.04453112930059433, 0.26933351159095764, -0.04336031526327133, -0.09373845905065536, -0.053722482174634933, 0.11623244732618332, -0.02392248623073101, -0.23106509447097778, -0.030614035204052925, 0.07713361084461212, -0.03901761397719383], "layer_1_weights": [[5.109681296744384e-05, -5.5292937759077176e-05, 5.294103539199568e-05, 4.275064202374779e-05, -1.2626120224012993e-05, 2.060100086964667e-05, -0.0005026196013204753, 2.62516041402705e-05, 9.715121996123344e-05, 7.68556710681878e-05, -4.62264642919763e-06, 0.00011121909483335912, 0.00011157055268995464, 5.8000637181976344e-06, -4.7418794565601274e-05, -2.4960943392215995e-06], [6.259074893932848e-07, 0.00012273660104256123, 3.2889267458813265e-05, -1.9007773516932502e-05, 3.924033444491215e-05, -1.6389991287724115e-05, -6.515005952678621e-05, -6.175373709993437e-05, -5.301302007865161e-05, -4.938344864058308e-05, 4.0693448681849986e-05, -0.00017159101844299585, -4.605236244970001e-05, 1.4987933354859706e-05, 0.00012867942859884351, -0.00014040771930012852], [-0.00018943076429422945, -0.0002041641710093245, 3.141190973110497e-05, -0.00013337732525542378, 1.019643787003588e-05, -6.396056414814666e-05, -0.0002593832032289356, -8.238699228968471e-05, -2.76839746220503e-05, -3.9599399315193295e-05, -0.0003231610171496868, 0.00011507156159495935, -9.393671643920243e-05, -4.178528251941316e-05, -0.00024127551296260208, 0.0001582301629241556], [3.9224130887305364e-05, 0.00016508990665897727, 5.329297709977254e-05, 9.426163887837902e-05, 5.849051012773998e-05, 2.768922240647953e-05, -0.00024952899548225105, 3.854463284369558e-05, -0.0001626248558750376, -3.471774107310921e-05, 0.00020651385420933366, -7.097719208104536e-05, -4.986657222616486e-05, 1.085367102859891e-06, 0.00018340625683777034, -0.00011027325672330335], [9.075424168258905e-05, 0.00043494891724549234, 0.0001251823705388233, 9.930218220688403e-05, -3.600522904889658e-05, -2.3837361368350685e-05, -0.00026667676866054535, 3.324517820146866e-05, 2.807673581628478e-06, -1.902201256598346e-05, 8.638238796265796e-05, -9.069561201613396e-05, -3.486239438643679e-05, -8.935362529882696e-06, 0.0004304788599256426, 1.694176535238512e-05], [-1.782049730536528e-05, 0.00011915295181097463, 1.5526486095041037e-05, -3.2801581255625933e-05, -9.065764606930315e-05, -6.374797521857545e-05, 0.0001169140450656414, -0.00010834347631316632, 0.00016947169206105173, -5.984130984870717e-05, 4.986044586985372e-05, 1.8491263062969665e-06, -1.4638499123975635e-05, 2.2271628040471114e-05, 0.0001227377651957795, -0.0001340073358733207], [-0.00010012319398811087, 0.00040474123670719564, -0.00010070282587548718, -0.00010668781760614365, 8.743020589463413e-05, 0.00012866375618614256, 0.0005498178652487695, 0.00014274491695687175, -0.00011131768405903131, -3.774080323637463e-05, 0.0002769990242086351, 0.00014705497596878558, -3.4391985536785796e-05, -3.4700333344517276e-05, 0.00040524936048313975, -3.5475404729368165e-05], [2.827928437909577e-05, 0.00014634009858127683, 5.80726882617455e-05, 1.300684471061686e-05, -6.367887544911355e-05, -4.0305672882823274e-05, -0.00021094254043418914, -7.748851930955425e-05, 0.00018691133300308138, -4.26190672442317e-06, 0.00012179921759525314, -2.188285543525126e-05, -3.3362597605446354e-05, -2.0398097149154637e-06, 0.00016687407332938164, -6.917939754202962e-05], [0.00019559012434910983, -0.0003469684161245823, 0.00011201473535038531, 0.00017734113498590887, 7.233399810502306e-05, 0.00023848407727200538, -8.975755918072537e-05, 0.000205777061637491, -0.0002094692172249779, -3.9090034988475963e-05, -0.00038813348510302603, 0.0001732115779304877, -1.4302081581263337e-05, -6.408536137314513e-07, -0.00035209162160754204, -0.00013988760474603623], [-6.676507837255485e-06, -7.947938865981996e-05, 2.8274327632971108e-05, -1.7832277080742642e-05, 0.00013343033788260072, -8.61245789565146e-05, -4.0174840250983834e-05, -7.296357216546312e-05, -9.621195395936866e-09, -0.0001275990653084591, -0.0001683137525105849, -1.8745766283245757e-05, -3.342954732943326e-05, 3.6286975955590606e-05, -6.812271749367937e-05, -5.188885552342981e-05], [3.3487383916508406e-05, 0.0002067083987640217, 8.611274824943393e-05, -6.282629328779876e-05, -0.00011043329141102731, 6.284390110522509e-06, 0.00010950189607683569, -1.4073421539251285e-07, -2.2437114239437506e-05, 0.00013118046626914293, 0.00030439035617746413, 0.00012847197649534792, 0.00011440182424848899, -5.274263821775094e-05, 0.00022567655832972378, 5.294927632348845e-06], [-9.698836947791278e-05, 7.3281153163407e-05, -6.957309233257547e-05, -0.0001285918988287449, -3.915716661140323e-05, -0.00010119426588062197, -2.655922799021937e-05, -0.00010180128447245806, 0.00019273435464128852, 3.640410432126373e-05, 9.704483090899885e-05, -0.00015887143672443926, 8.66859991219826e-05, 1.6251835404546e-05, 8.133765368256718e-05, -4.484895907808095e-05], [-0.00012192941358080134, -0.0003708095755428076, -6.341418338706717e-05, -5.5477787100244313e-05, -7.219688995974138e-05, -6.802088319091126e-05, -1.926542608998716e-05, -8.14643717603758e-05, 7.669618753425311e-06, -0.0001031574938679114, -0.00023932546901050955, 4.334528057370335e-05, 1.0854227184609044e-05, 9.601775673218071e-05, -0.00040341835119761527, 2.8419861337170005e-05], [7.761280357954092e-06, 5.559476267080754e-05, 2.5376502890139818e-05, -3.346995072206482e-05, 4.395041105453856e-05, -3.986601950600743e-05, 1.938168134074658e-05, -6.171963468659669e-05, 2.884978130168747e-05, 6.497376307379454e-05, 9.462435264140368e-05, 3.0720031645614654e-05, -4.0840430301614106e-05, -3.098864544881508e-05, 7.420111796818674e-05, -9.410412530996837e-06], [-0.00011989793711109087, 0.00019151157175656408, -8.881443500285968e-05, 0.00022667236044071615, -4.584676571539603e-05, -0.00012389925541356206, 0.0001658949622651562, -0.00018022085714619607, 0.00020403414964675903, 1.418314150214428e-05, 0.0002541027788538486, -0.00022695076768286526, 2.5947414542315528e-05, 2.8855267373728566e-05, 0.00021491010556928813, -9.521681204205379e-05], [-1.7366322936140932e-05, -0.0003829257912002504, -4.7736433771206066e-05, -1.4792679394304287e-05, 1.464469914935762e-05, -0.00010083147208206356, -0.0006408957415260375, -9.850838978309184e-05, -4.164875917922473e-06, -7.36717483960092e-05, 0.0008334721205756068, 4.209383860143134e-06, -2.2606473066844046e-05, 1.3452316125039943e-05, -0.00023900863016024232, -0.00016829305968713015]], "layer_2_biases": [-0.026748832315206528, -0.020479056984186172, -0.2263442724943161, -0.09763982892036438, -0.029757145792245865, -0.04293050989508629, 0.07872363179922104, -0.04216711223125458, -0.021743293851614, -0.0499190129339695, 0.17618975043296814, 0.12219554930925369, -0.17695534229278564, 0.07366706430912018, 0.12001114338636398, -0.03871863707900047], "layer_2_weights": [[5.109093035571277e-05, -5.252582559478469e-05, 5.353609230951406e-05, 4.33105778938625e-05, -2.4442242647637613e-05, 2.0712044715764932e-05, -0.0005023006815463305, 2.6126415832550265e-05, 9.453796519665048e-05, 7.665220618946478e-05, -5.996746494929539e-06, -5.575688192038797e-05, 0.00011153238301631063, -5.516964301932603e-05, -4.770882151206024e-05, -2.7493638299347367e-06], [-3.181103602400981e-05, 3.500966340652667e-05, -1.9539535060175695e-05, -4.355907367425971e-05, -9.614720329409465e-05, -5.926500307396054e-05, 3.7437006540130824e-05, -0.0001085680050891824, 0.00016937546024564654, -4.810427708434872e-05, -6.452095112763345e-05, 9.423434676136822e-05, -4.7650672058807686e-05, 5.973633233224973e-05, 4.121290476177819e-05, -0.0001502415252616629], [-0.00018982445180881768, 0.00014189638022799045, 3.0982595490058884e-05, -0.00013282107829581946, 1.2153753232269082e-05, -6.441503501264378e-05, -0.000258307671174407, -8.204302139347419e-05, -2.771481558738742e-05, -4.015755985165015e-05, -0.0003231890150345862, -0.00014506588922813535, -9.35979260248132e-05, -0.0001999514497583732, -0.00024307574494741857, 0.000158363749505952], [4.083997191628441e-05, -3.793784708250314e-05, 5.3977379138814285e-05, 9.62600315688178e-05, 2.8605041734408587e-05, 2.7225598387303762e-05, -0.00025211821775883436, 3.8768124795751646e-05, -0.00016172620235010982, -3.486589776002802e-05, 0.00020874140318483114, 2.2740732674719766e-05, -4.9093549023382366e-05, 0.00013594642223324627, 0.00018251326400786638, -0.0001090463119908236], [9.073704859474674e-05, -8.106487075565383e-05, 0.0001245904859388247, 9.911689994623885e-05, -3.4596021578181535e-05, -2.3797902031219564e-05, -0.00026614812668412924, 3.327112426632084e-05, 2.948743713204749e-06, -1.8903827367466874e-05, 8.501520642312244e-05, 0.0002246127842226997, -3.456852209637873e-05, 0.00042809106525965035, 0.00042989366920664907, 1.69482191267889e-05], [-1.77673628058983e-05, 2.4815248252707534e-05, 1.545637314848136e-05, -3.297997318441048e-05, -8.554749365430325e-05, -6.360516272252426e-05, 0.0001171137482742779, -0.00010822909825947136, 0.00016941296053119004, -5.9773665270768106e-05, 5.279473407426849e-05, 0.0001292964443564415, -1.330633313045837e-05, 0.00012795765360351652, 0.00012320518726482987, -0.0001342484465567395], [-7.840947364456952e-05, 6.913646939210594e-05, -6.259646033868194e-05, -2.8390539227984846e-05, 6.768040475435555e-05, 2.8671831387327984e-05, -5.279727338347584e-05, 1.3139975862941355e-06, 0.0001151243777712807, -5.433312617242336e-05, 5.998305823595729e-06, 6.914418190717697e-05, -1.7606194887775928e-05, 3.64004990842659e-05, 3.2355517760152e-05, -0.0001155406134785153], [2.8459571694838814e-05, -2.0572744688251987e-05, 5.828779103467241e-05, 1.2920099834445864e-05, -9.325398423243314e-05, -4.012227145722136e-05, -0.0002099632256431505, -7.734371320111677e-05, 0.00018681389337871224, -4.240987891535042e-06, 0.00012487792992033064, 0.00016756917466409504, -3.203503001714125e-05, 0.0001594850473338738, 0.0001676311658229679, -6.936875433893874e-05], [0.00019520078785717487, -0.0001991306635318324, 0.0001103945542126894, 0.00017551728524267673, 1.2115080608054996e-05, 0.0002388322027400136, -8.902452827896923e-05, 0.0002071486960630864, -0.00020914844935759902, -4.089927097084001e-05, -0.0003880641597788781, -0.0002998606360051781, -1.3611253962153569e-05, -0.0003407106560189277, -0.00035406186361797154, -0.00013890961417928338], [-6.618773568334291e-06, 1.4181230653775856e-05, 2.8481948902481236e-05, -1.8005006495513953e-05, 0.00013446739467326552, -8.602620073361322e-05, -3.501663013594225e-05, -7.284658204298466e-05, -3.2193256060963904e-07, -0.00012734501797240227, -0.0001620907714823261, -5.142523605172755e-06, -3.524517160258256e-05, -5.456243525259197e-05, -6.711910100420937e-05, -5.206061905482784e-05], [8.804962271824479e-05, -7.595923671033233e-05, 3.401347203180194e-05, 2.043967106146738e-05, -6.40653379377909e-05, -3.095496504101902e-05, 0.00012441887520253658, -2.828762990247924e-05, -0.00011447348515503109, 0.00010861482587642968, 0.0002667017397470772, 0.0001548319705761969, 0.00010876039596041664, 0.00017494309577159584, 0.00019656840595416725, 1.0227388884231914e-05], [-9.648727427702397e-05, 9.719801892060786e-05, -6.893069803481922e-05, -0.000128378756926395, -5.443839108920656e-05, -0.00010116195335285738, -2.7863390641869046e-05, -0.0001018163820845075, 0.00019213170162402093, 3.645157266873866e-05, 9.58228119998239e-05, -5.379395588533953e-05, 8.620694279670715e-05, 5.3902589570498094e-05, 8.230594539782032e-05, -4.498450653045438e-05], [-0.00012079449516022578, 0.00010864216164918616, -5.977259934297763e-05, -5.2024424803676084e-05, -6.360971747199073e-05, -6.913505785632879e-05, -1.7838896383182146e-05, -8.16458195913583e-05, 7.732617632427718e-06, -0.00010267440666211769, -0.00024926059995777905, -6.171747372718528e-05, 1.1016210009984206e-05, -0.0003329355677124113, -0.00040982605423778296, 3.0357485229615122e-05], [7.64246578910388e-06, 5.204585249884985e-06, 2.5462721168878488e-05, -3.369363184901886e-05, 4.5315115130506456e-05, -3.9667578676017e-05, 2.2658603484160267e-05, -6.153492722660303e-05, 2.8595153708010912e-05, 6.494526314781979e-05, 9.879488789010793e-05, 4.237881876179017e-05, -3.826677129836753e-05, 5.7300585467601195e-05, 7.627787999808788e-05, -9.480997505306732e-06], [-0.00010118517820956185, 9.97891984297894e-05, -3.899919829564169e-05, 0.00016691541532054543, -3.4138531191274524e-05, -0.00022986138355918229, 0.00013501240755431354, -0.00024381437106058002, 0.0001335819106316194, -0.00013516128819901496, 0.00017464507254771888, 0.00016596875502727926, 2.5257333618355915e-05, 0.00017081784608308226, 0.0001592630142113194, 7.16994545655325e-05], [-1.4820530850556679e-05, 4.5543492888100445e-06, -4.806937795365229e-05, -1.699735912552569e-05, 3.314592322567478e-05, -0.00010189272143179551, -0.0006409951602108777, -9.700259397504851e-05, -2.7830717499455204e-06, -7.424879731843248e-05, 0.0008271920378319919, -0.0005274378345347941, -2.2702159185428172e-05, -0.0004661690618377179, -0.00025352375814691186, -0.00016435104771517217]], "layer_3_biases": [-0.03983937203884125, 0.11293195188045502, -0.08962206542491913, -0.058800242841243744, -0.01769193820655346, -0.041410669684410095, 0.151364266872406, -0.04156521335244179, -0.027927590534090996, -0.1403578817844391, 0.08541595935821533, 0.16341841220855713, -0.11240682005882263, 0.10984133183956146, 0.1355215460062027, -0.03381503000855446], "layer_3_weights": [[5.116258398629725e-05, -6.131983536761254e-05, 5.400196823757142e-05, 4.352206451585516e-05, -4.330529918661341e-06, 2.082245919154957e-05, -0.000501571164932102, 2.6120464099221863e-05, 9.250090079149231e-05, 7.656995876459405e-05, -7.933549568406306e-06, -5.2383282309165224e-05, 0.00011133315274491906, -5.7856799685396254e-05, -4.917637488688342e-05, -2.87306284008082e-06], [-3.18552010867279e-05, 5.1446106226649135e-05, -1.9799843357759528e-05, -4.381182952784002e-05, -3.8088935980340466e-05, -5.918341048527509e-05, 3.824257873930037e-05, -0.00010851195111172274, 0.00016919903282541782, -4.813109990209341e-05, -6.121853220975026e-05, 8.957191312219948e-05, -4.56675115856342e-05, 6.348404713207856e-05, 4.313711906434037e-05, -0.00015044747851788998], [-0.00019126100232824683, -0.00020510000467766076, 2.7668418624671176e-05, -0.00012827376485802233, 1.1632094356173184e-05, -6.734831549692899e-05, -0.0002550145727582276, -7.905604434199631e-05, -3.0291830626083538e-05, -4.216195520712063e-05, -0.0003209062269888818, -0.00015082333993632346, -9.320016397396103e-05, -0.00020127744937781245, -0.0002444694109726697, 0.00015827261086087674], [4.3082745833089575e-05, 0.00017218173888977617, 5.5000629799906164e-05, 9.894835238810629e-05, 5.760548447142355e-05, 2.663574559846893e-05, -0.000255794933764264, 3.904283948941156e-05, -0.0001605788856977597, -3.506365101202391e-05, 0.00021170474065002054, 1.7934984498424456e-05, -4.7996036300901324e-05, 0.0001383028138661757, 0.0001831746194511652, -0.00010735842806752771], [9.08521469682455e-05, 0.00043235585326328874, 0.00012344878632575274, 9.825108281802386e-05, -3.468623253866099e-05, -2.3714588678558357e-05, -0.0002652483235578984, 3.3521646400913596e-05, 3.558096523192944e-06, -1.8273443856742233e-05, 8.200785669032484e-05, 0.00022677899687550962, -3.4215536288684234e-05, 0.0004265472525730729, 0.0004275473183952272, 1.7315389413852245e-05], [-1.772419454937335e-05, 0.00012811234046239406, 1.530734334664885e-05, -3.319932511658408e-05, -9.008699998958036e-05, -6.348250462906435e-05, 0.00011745180381694809, -0.00010812270193127915, 0.00016931204299908131, -5.97287253185641e-05, 5.6394546845695004e-05, 0.0001246366009581834, -1.1481253750389442e-05, 0.00013189292803872377, 0.00012523957411758602, -0.00013449757534544915], [-5.9696925745811313e-05, 1.2905508810945321e-05, -8.214245099225082e-06, -7.934081077110022e-05, 8.016482024686411e-05, -2.4491873773513362e-05, 9.793507342692465e-05, -6.030468284734525e-05, 0.00012918324500788003, 