{"hk_disentangled_rnn": {"choice_net_multipliers": [-0.00037831522058695555, 1.8008370399475098, 0.13728640973567963, 0.01022765226662159, 0.0018867288017645478], "choice_net_sigma_params": [0.9972822666168213, 0.004454891197383404, 0.9969450831413269, 0.9896349310874939, 0.9965455532073975], "latent_inits": [0.20122851431369781, -0.007880298420786858, -1.8802855014801025, 1.487031102180481, 0.06723279505968094], "latent_multipliers": [1.0, 1.0, 1.0, 1.0, 1.0], "latent_sigma_params": [0.0027747084386646748, 0.0023034894838929176, 0.04256385192275047, 0.008463222533464432, 0.0023989728651940823], "update_net_latent_multipliers": [[1.0332450866699219, 2.1495227813720703, -0.006769474130123854, 1.9538060426712036, 1.5138651132583618], [1.6674232482910156, 1.3482800722122192, -0.028023196384310722, 1.677451729774475, 0.22230041027069092], [0.021236075088381767, 1.1856216192245483, -0.008687125518918037, 0.028610916808247566, 1.2331063747406006], [0.03884820267558098, 1.7171369791030884, 0.0002795719774439931, 1.3073759078979492, 1.7181882858276367], [0.7548940181732178, 1.906492829322815, 0.00196453626267612, 1.9223508834838867, 1.4711663722991943]], "update_net_latent_sigma_params": [[0.9632250666618347, 0.07242677360773087, 0.9926746487617493, 0.6385213732719421, 0.8205183744430542], [0.6653304696083069, 0.007317204028367996, 0.9974961280822754, 0.26621246337890625, 0.9910730123519897], [0.9997770190238953, 0.07821070402860641, 0.9951439499855042, 0.9878823161125183, 0.07669202983379364], [0.9988627433776855, 0.12062206119298935, 0.9988101124763489, 0.07290562987327576, 0.30207589268684387], [0.9533278346061707, 0.04016529396176338, 0.9916603565216064, 0.6497364640235901, 0.24851274490356445]], "update_net_obs_multipliers": [[1.3663060665130615, 1.43686044216156, 1.3193812370300293, 1.0768249034881592, 1.2245506048202515], [1.3863353729248047, 1.6936352252960205, 1.2170145511627197, 1.3816264867782593, 1.022832989692688]], "update_net_obs_sigma_params": [[0.1744447499513626, 0.010083846747875214, 0.04290568828582764, 0.3782292306423187, 0.03892212361097336], [0.2658231854438782, 0.031553786247968674, 0.1575566530227661, 0.21894603967666626, 0.18154305219650269]]}, "hk_disentangled_rnn/~predict_targets/choice_net": {"input_biases": [-0.029351964592933655, -0.009274582378566265, 0.005953736137598753, -0.06579672545194626], "input_weights": [[-0.2185630053281784, -0.05189420282840729, -0.7131288647651672, 0.42478176951408386], [-0.5421563386917114, -1.4704949855804443, 0.586195707321167, 1.6236573457717896], [0.554114043712616, -0.19129788875579834, -0.13976529240608215, 0.2849664092063904], [0.8126418590545654, -0.21153096854686737, 0.6891629695892334, -0.4114316403865814], [-0.34400707483291626, -0.12926256656646729, -0.37038108706474304, -0.2931572496891022]], "output_biases": [0.011575805954635143, -0.011575842276215553], "output_weights": [[-0.15712258219718933, 0.6769670844078064], [-0.6014425158500671, 1.3051804304122925], [0.3551778495311737, -0.4903961718082428], [0.31568217277526855, -0.4379584491252899]]}, "hk_disentangled_rnn/~update_latents/update_net": {"input_biases": [0.07203801721334457, -0.08332473784685135, -0.031161943450570107, 0.11313003301620483, -0.05635756254196167, -0.028745204210281372, 0.07001025974750519, -0.09351924806833267, -0.12403935939073563, -0.07958169281482697, 0.16392295062541962, -0.13587772846221924, 0.10526182502508163, -0.07261782139539719, 0.11164333671331406, 0.4239688515663147], "input_weights": [[-0.415584534406662, 1.1314404010772705, 0.18788625299930573, -0.731782853603363, -0.43017974495887756, 0.6016652584075928, 0.42671525478363037, 0.13452064990997314, 0.35561802983283997, 0.05440990626811981, 0.4204707741737366, 0.44071558117866516, -0.09867191314697266, 0.5946447253227234, -0.4048319160938263, 0.039497558027505875], [-0.8381977081298828, -0.11194473505020142, -0.3703329861164093, -0.19225329160690308, 0.05418328940868378, 0.10041026026010513, -0.0919671282172203, -0.7297611832618713, -0.45651623606681824, 0.03298404812812805, -0.3196812570095062, -0.4845287501811981, -0.003667342010885477, -0.05882912501692772, -0.11426881700754166, 0.6568281054496765], [0.22991295158863068, 0.09577203541994095, -0.18093359470367432, -0.18196092545986176, 0.5304656624794006, -0.3094431161880493, 0.44797393679618835, -0.17377062141895294, -0.2978212535381317, 0.2891883850097656, 0.032690685242414474, -0.06204720959067345, 0.01729375682771206, 0.5625465512275696, -0.15389184653759003, 0.03978348895907402], [-0.2759058177471161, 0.012322709895670414, 0.0008187689236365259, -0.8073351383209229, 0.1315033882856369, 0.3732655644416809, 0.774441659450531, -0.44737207889556885, -0.01581258326768875, -0.24932432174682617, -0.0801684707403183, -0.6099748015403748, -0.5439143180847168, 0.47381168603897095, 0.266584187746048, -0.34410566091537476], [-0.039908166974782944, -0.46692314743995667, -0.32031527161598206, -0.06359019130468369, -0.04210521653294563, -0.7379969358444214, 0.2511964738368988, 0.5824655294418335, 0.3094869554042816, -0.11206325888633728, -0.1675947606563568, 0.1218571588397026, 0.372455894947052, 0.1945190727710724, -0.23348313570022583, 0.21904747188091278], [-0.22955763339996338, -0.17710211873054504, -0.059641025960445404, 0.24882946908473969, -0.37720534205436707, 0.4184868633747101, 0.6673253774642944, 0.023285163566470146, 0.1390942931175232, -0.025224192067980766, 0.7600241303443909, 0.19487068057060242, -0.32597893476486206, -0.16304084658622742, -0.38695505261421204, -0.23560887575149536], [0.42714929580688477, 0.061860036104917526, 0.044047292321920395, 0.09475448727607727, 0.46441322565078735, -0.09866224229335785, 0.1416810005903244, 0.18345868587493896, -0.3309037685394287, 0.1320367306470871, 0.3483146131038666, 0.45265308022499084, -0.1377929151058197, -0.46541741490364075, -0.002781129442155361, 0.20940770208835602]], "layer_0_biases": [0.08659543842077255, -0.005417098756879568, -0.03211420774459839, 0.1496802568435669, -0.0038863939698785543, 0.06243431195616722, 0.08813407272100449, -0.03993348404765129, -0.1113947257399559, -0.07890750467777252, 0.19013632833957672, -0.009364514611661434, 0.12453410029411316, -0.006998314522206783, -0.003657583612948656, 0.33376020193099976], "layer_0_weights": [[-0.0003332971828058362, -5.3474905143957585e-05, 0.00018767188885249197, -2.6903046091319993e-05, 9.926188795361668e-06, 0.0005170282674953341, 6.394941738108173e-05, -2.4082572053885087e-05, 7.935350004117936e-05, 1.1562531653908081e-05, 2.1946299966657534e-05, -7.048550469335169e-05, 4.771749081555754e-05, 2.597360435174778e-05, -3.277780706412159e-05, -3.252879832871258e-05], [2.4535711418138817e-05, -3.7918613088550046e-05, -0.00013538793427869678, -0.0006144236540421844, -9.638118172006216e-06, -3.6142573662800714e-05, -0.0002694255963433534, 5.907902595936321e-05, 3.188105984008871e-05, 4.017427272628993e-05, -0.00024208739341702312, 0.00010143890540348366, -0.00019844165944959968, 2.327448601135984e-05, -4.216843080939725e-05, -0.00026729240198619664], [-7.001710764598101e-05, -1.3897309145249892e-05, 4.021976928925142e-05, -0.0004237284592818469, 1.479172169638332e-06, 0.000301576335914433, 0.00010128083522431552, -2.44105849560583e-05, -3.630424907896668e-05, 1.766091190802399e-05, 7.625184662174433e-05, -7.685124001000077e-05, 9.36352662392892e-05, -6.995769217610359e-05, -3.0169347155606374e-05, 6.365492481563706e-06], [6.717140786349773e-05, -4.633421212929534e-06, -4.896102473139763e-05, 0.0004110268782824278, -3.435408189034206e-06, 0.00010225259757135063, 0.00015008843911346048, -9.574510477250442e-05, 0.00013157892681192607, 0.00015553711273241788, 0.00025798799470067024, 2.1696843759855255e-05, 0.0002149675419786945, 4.673307194025256e-05, -0.00011333364091115072, 0.0003438107087276876], [-0.0003156527818646282, -1.759765473252628e-05, -6.510216189781204e-05, 8.568953489884734e-05, -1.8109318261849694e-05, 0.0004002178320661187, 8.180287113646045e-05, -4.0098322642734274e-05, 9.473646787228063e-05, -4.005096798209706e-06, 5.565787068917416e-05, 3.177217990923964e-07, 3.474947516224347e-05, 2.0427694835234433e-05, -8.397766941925511e-05, 0.00010180591198150069], [3.33634925482329e-05, 5.1363458624109626e-05, 4.7728091885801405e-05, -0.00039297965122386813, -2.984903403557837e-05, -0.00010290480713592842, -0.0001569850865053013, -1.0961720136037911e-06, -0.00013633402704726905, -8.249878010246903e-05, -0.0001624592550797388, -1.9490307749947533e-05, -0.00011948373867198825, -2.254849641758483e-05, 0.00011074442591052502, -0.00022621093376073986], [0.0001389784156344831, -1.88373051059898e-05, -0.00022215957869775593, -0.0005465985741466284, -2.1102590835653245e-05, -0.0003774846263695508, -0.00011548478505574167, 8.892803452908993e-05, -5.171554585103877e-05, 5.125826646690257e-05, -0.00047258983249776065, -3.157445462420583e-05, -0.00046376168029382825, -3.72152790077962e-05, 4.677091055782512e-05, -0.0005058262613601983], [-8.835206972435117e-05, -2.0710749595309608e-05, 0.0001987190480576828, -0.0004139668890275061, -2.6240000806865282e-05, 9.770858014235273e-05, 9.096349822357297e-05, -8.808739221422002e-05, 8.662144682602957e-05, 9.184327791444957e-05, -9.748718002811074e-05, -4.0520812035538256e-05, -9.80687327682972e-05, -5.0746541091939434e-05, -0.00024466411559842527, -0.0001510573347331956], [7.664263830520213e-05, 7.989212463144213e-06, 6.9195702963043e-05, -0.00015216415340546519, -2.5127117623924278e-05, 1.7214519175468013e-05, -1.1037220247089863e-05, -9.059596050065011e-05, -0.00019637598597910255, 2.3205451725516468e-05, -5.5957916629267856e-05, -8.973458170657977e-05, -3.066137287532911e-05, -9.013737144414335e-05, -1.617258385522291e-05, -0.00011783147056121379], [-3.4318909456487745e-05, 3.335495057399385e-05, 7.428614935633959e-06, 0.00010418812598800287, 2.981877696583979e-05, -3.797132012550719e-05, -7.311035119528242e-07, 7.09401729181991e-06, 0.00011456407810328528, -3.793684300035238e-05, -0.00018521634046919644, 3.256055788369849e-05, -0.0002610054798424244, -6.8162848947395105e-06, -0.00016578026406932622, 8.757100295042619e-05], [0.00019659903773572296, -4.885819726041518e-05, 8.09213743195869e-05, -0.00045554153621196747, -1.2619898370758165e-05, -0.00018327853467781097, -0.00028504402143880725, -2.9119128157617524e-05, -1.3338668395590503e-05, 6.577225121873198e-06, -0.0002741346543189138, -7.547101267846301e-05, -0.00025921373162418604, 5.590312503045425e-05, 2.778594716801308e-05, -0.0003050774394068867], [-9.335741924587637e-05, -0.00016692333156242967, 8.099776459857821e-05, -0.000476445653475821, 2.8154636311228387e-05, 9.962188050849363e-05, -0.00017125885642599314, -9.47653370531043e-06, 6.365322042256594e-05, 0.00013915973249822855, -0.00012832877109758556, -1.9941831851610914e-05, -0.00011022620310541242, 6.166817183839157e-05, -3.7172914744587615e-05, -0.0001027499747578986], [4.3119711335748434e-05, 5.3250205382937565e-05, -2.603134635137394e-05, 0.0002974335802718997, -2.019994644797407e-05, -0.00011091174383182079, 0.0002634907723404467, -2.8926460799993947e-06, 7.065107638482004e-05, -5.9815458371303976e-05, -0.000320820021443069, 3.989335527876392e-05, -0.00039895865484140813, -0.00012445583706721663, -0.00012157847231719643, -9.922698518494144e-05], [0.00018756469944491982, 2.8461419788072817e-05, 7.138725777622312e-05, -7.322088094952051e-06, 1.7203296010848135e-05, -0.00040395339601673186, -0.00013046605454292148, 2.2554328097612597e-05, 1.2191348105261568e-05, -7.084257231326774e-05, -6.647884583799168e-05, 7.998443152246182e-07, -5.181660526432097e-05, 2.4714383471291512e-05, 4.971641465090215e-05, -0.00010665811714716256], [-0.0001932956074597314, -4.2444800783414394e-05, -0.00010023568756878376, 4.97910036756366e-07, -2.6390109269414097e-05, 0.00023602164583280683, 0.00024286788539029658, -3.184503293596208e-05, -4.917704063700512e-05, -1.7791551726986654e-05, 1.9983861420769244e-05, -4.571997487801127e-05, 3.6372937756823376e-05, -2.530420351831708e-05, 2.4278180717374198e-05, -4.444289152161218e-05], [0.0003285216516815126, -2.0918945665471256e-05, -5.184002293390222e-05, 0.00040330819319933653, 1.4351156096381601e-05, -0.00043777134851552546, -0.00022859216551296413, 0.00013141117233317345, -0.0001140660751843825, -5.0299495342187583e-05, -0.0008009534794837236, -6.39198551652953e-05, -0.0009672483429312706, -2.8414069674909115e-05, -3.923588519683108e-05, -0.0010163794504478574]], "layer_1_biases": [-0.02185896411538124, -0.004925412125885487, -0.0041293129324913025, 0.13936178386211395, -0.00434525404125452, -0.002803113078698516, 0.10731973499059677, -0.004492791369557381, -0.014658072032034397, -0.007193275261670351, 0.19030754268169403, -0.010151706635951996, 0.10955522954463959, -0.00823324453085661, 0.1076994389295578, 0.33448174595832825], "layer_1_weights": [[-2.145501275663264e-05, -5.754081212216988e-05, -5.139674158272101e-06, 5.752599008701509e-06, 1.1241782885917928e-05, -1.9115537725156173e-05, 7.293407543329522e-05, -1.4938054846425075e-05, 6.279049557633698e-05, 1.2070275261066854e-05, -3.4293568660359597e-06, -0.00012108920782338828, 2.4165214199456386e-05, 2.571394907135982e-05, -6.745295831933618e-05, -6.783378194086254e-05], [1.1054289643652737e-05, -5.706672163796611e-05, 1.2691522499608254e-07, -0.0006293951882980764, -1.329558108409401e-05, -4.294893369660713e-05, -0.00025413103867322206, 1.066738332156092e-05, -2.1381334590842016e-05, 3.7785583117511123e-05, -0.00022613987675867975, 0.00010484125959919766, -0.0001833949499996379, 2.744778430496808e-05, -0.00024694163585081697, -0.00025237383670173585], [1.9647184672066942e-05, -2.1777024812763557e-05, 9.357337944493338e-07, -0.00042560716974548995, 7.614160040247953e-07, 1.347894885839196e-05, 0.00010417882003821433, -3.631428626249544e-05, 3.700400338857435e-05, 1.8184378859587014e-05, 7.925851969048381e-05, -7.9848148743622e-05, 9.674589819042012e-05, -7.971796730998904e-05, -0.000130795146105811, 8.606344636064023e-06], [0.00010211409971816465, -2.0843919628532603e-05, -1.0208035519099212e-06, 0.00047238098341040313, 1.0648954230418894e-05, 2.516738277336117e-05, 0.0001228746259585023, -2.210419188486412e-05, 0.00011125933087896556, 0.00015414475637953728, 0.00019899698963854462, 1.9678011085488833e-05, 0.00015938718570396304, 2.1108588043716736e-05, 0.0002388224093010649, 0.0002584741450846195], [-6.539512105518952e-05, -1.7629743524594232e-05, -1.575445253365615e-06, 9.277961362386122e-05, -1.2726163731713314e-05, -2.4843220671755262e-05, 8.046768925851211e-05, 2.2757257056582603e-07, 4.3024228943977505e-05, -4.800427177542588e-06, 4.8467172746313736e-05, 1.9917779354727827e-06, 2.884167588490527e-05, 1.4239926713344175e-05, 1.768712536431849e-05, 9.556446457281709e-05], [2.614355253172107e-05, 4.93282595925848e-06, 1.701967107692326e-06, -0.0003636891196947545, 2.0646726625273004e-05, -5.120856440044008e-05, -0.0001517536729807034, 2.284879701619502e-05, 5.1304981752764434e-05, -8.328042167704552e-05, -0.0001855488371802494, -1.3265555026009679e-05, -0.00014274254499468952, -4.62187199445907e-05, -0.00021001588902436197, -0.00026846048422157764], [-5.702783710148651e-06, -1.2599503861565609e-05, 6.458054031099891e-06, -0.0004925064858980477, -2.424468448225525e-07, 9.106775905820541e-06, -0.00015059283759910613, -3.389270432307967e-06, -0.00013003811181988567, 2.5787130653043278e-05, -0.0004985738196410239, -5.15722313139122e-05, -0.0004921287181787193, -5.7613997341832146e-05, -0.00037115710438229144, -0.0005635804263874888], [-1.2453883755370043e-05, -3.4505130315665156e-05, 2.8257700250833295e-06, -0.00041474084719084203, -2.514609877835028e-05, -6.473124358308269e-06, 8.92236566869542e-05, 1.0049107913800981e-05, 1.9235189029132016e-05, 9.220743959303945e-05, -9.510885865893215e-05, -4.022600478492677e-05, -9.309119923273101e-05, 6.741938136656245e-07, -0.00036923467996530235, -0.00014966650633141398], [8.808368147583678e-05, 1.1042992809962016e-05, 4.297311306800111e-07, -0.0001560356904519722, -2.2179885490913875e-05, 1.2315230378590059e-05, -1.9323882952448912e-05, -8.754268492339179e-05, -0.0001479246566304937, 9.365828191221226e-06, -5.093121581012383e-05, -7.792676478857175e-05, -2.6823914595297538e-05, -0.00015156593872234225, -3.379011832294054e-05, -0.00011385977268218994], [9.509079063718673e-06, -3.332663618493825e-05, 4.317564162192866e-06, 0.00010359453153796494, 2.9557633752119727e-05, -5.043276178184897e-05, -3.0492280984617537e-06, 9.128065357799642e-06, 9.71121626207605e-05, -3.80285746359732e-05, -0.0001828743697842583, 4.1306906496174634e-05, -0.0002565954637248069, -4.625007932190783e-06, -0.000428157567512244, 8.951940253609791e-05], [-6.570068944711238e-05, -1.5994932255125605e-05, 6.4045980252558365e-06, -0.00035058482899330556, -1.8909469872596674e-05, 7.80137997935526e-06, -0.0002881099353544414, 6.956100696697831e-05, -6.519947055494413e-05, 1.8973898477270268e-05, -0.0003307449514977634, -9.744220005813986e-05, -0.00031371161458082497, -1.852961190706992e-06, -0.00023828934354241937, -0.00040654870099388063], [1.1937960152863525e-05, -0.00016091286670416594, 1.8125695078197168e-06, -0.00048252425040118396, 1.4050150639377534e-05, -0.00011035769421141595, -0.00018275098409503698, -3.9786573324818164e-05, 3.758571983780712e-05, 0.00013995144399814308, -0.00012138140300521627, -1.9574976249714382e-05, -0.00010142479004571214, 5.473449346027337e-05, -0.00023960787802934647, -9.69695029198192e-05], [-1.6980482541839592e-05, 6.504544580820948e-05, -3.373022082087118e-06, 0.0007960390648804605, 9.4168572104536e-06, 3.466107227723114e-05, -2.5507284590275958e-05, -4.2496485548326746e-06, 8.351257565664127e-05, -5.2724190027220175e-05, -0.00046356106759049, 7.541679224232212e-05, -0.0005291517009027302, -6.18971316725947e-05, -3.4665634302655235e-05, -0.00035911158192902803], [-9.825380686834251e-08, 2.80656386166811e-05, 1.769557457009796e-06, -1.5530547898379155e-05, 1.2246394362591673e-05, 7.38476519472897e-05, -0.0001294250541832298, -3.614407432905864e-06, -9.913478606904391e-06, -7.083127275109291e-05, -5.787724512629211e-05, -1.0525712241360452e-05, -4.527343844529241e-05, 2.5426959837204777e-05, 6.906240014359355e-05, -9.928004874382168e-05], [-1.2141441402491182e-05, -5.181812957744114e-05, -4.153093414061004e-06, 6.426973868656205e-06, -2.5952949727070518e-05, -1.4732519957760815e-05, 0.000250623474130407, -1.5823881767573766e-05, -4.804875425179489e-05, -1.7989197658607736e-05, 1.2904965842608362e-05, -4.499490023590624e-05, 2.9275384804350324e-05, -1.8225373423774727e-05, -3.164133886457421e-05, -5.033009438193403e-05], [3.8097619835752994e-05, 4.398719102027826e-05, 1.2218298252264503e-05, 0.00042993223178200424, 1.632998464629054e-05, 1.5169848666118924e-05, -9.574464638717473e-05, 3.639757778728381e-05, 7.666641613468528e-05, -4.936548793921247e-05, -0.0006767953163944185, -3.385768650332466e-05, -0.0008220506133511662, 6.917866267031059e-05, 0.00023337994934991002, -0.0009388377075083554]], "layer_2_biases": [-0.014462579041719437, -0.0974598154425621, 0.022460786625742912, 0.11815379559993744, -0.0038769885431975126, -0.0007537798373959959, 0.169539675116539, -0.09287766367197037, -0.14732439815998077, -0.03328217938542366, 0.17266078293323517, -0.010196013376116753, -0.011491085402667522, -0.10058263689279556, 0.09599887579679489, 0.24962370097637177], "layer_2_weights": [[9.772238990990445e-05, 3.7022044125478715e-05, -0.00017327973910141736, 1.1165964679094031e-05, -1.2790643268090207e-05, 3.875038601108827e-06, 7.150154851842672e-05, -1.5497711501666345e-05, 3.9124657632783055e-05, 3.0043496735743247e-05, -9.037597010319587e-06, -0.00012457228149287403, 5.8816563978325576e-05, -2.7794289053417742e-05, -6.243954703677446e-05, -7.191776239778847e-05], [-4.103896571905352e-05, -2.6384670945844846e-06, 2.0342955394880846e-05, -0.0006431352230720222, -1.0209856554865837e-05, -2.1604196263069753e-06, -0.00023929073358885944, 5.7875775382854044e-05, 3.220558210159652e-05, 3.2535175705561414e-05, -0.0002110617351718247, 0.00010504076635697857, -7.323617319343612e-05, 0.00010308933269698173, -0.00026252446696162224, -0.00023956663790158927], [7.432069105561823e-05, -0.00010965785622829571, -6.32233131909743e-05, -0.00042626383947208524, 2.8350771117402473e-06, -3.4995728128706105e-06, 9.291168680647388e-05, -2.3106622393243015e-05, -3.6366021959111094e-05, 2.440228854538873e-05, 8.114461525110528e-05, -8.000561501830816e-05, -8.43070592964068e-05, -7.764375186525285e-05, -0.00013128262071404606, 1.0202571502304636e-05], [0.00017866732378024608, -0.00010477717296453193, -1.986514871532563e-05, 0.0005296543822623789, 1.1956791240663733e-05, 2.844626806108863e-06, 8.363588131032884e-05, 2.46708750637481e-05, -3.201694926247001e-05, 0.0001402057969244197, 0.00014238464063964784, -1.154570963990409e-05, -2.749405030044727e-05, 8.037937732296996e-06, 0.00025135939358733594, 0.00017967706662602723], [-0.00010285670578014106, 4.286826879251748e-05, -2.1656071112374775e-05, 9.93721405393444e-05, -2.1530762751353905e-05, 9.427890290680807e-06, 7.907485269242898e-05, -4.125527630094439e-05, 9.408871119376272e-05, -3.142963396385312e-05, 4.160948810749687e-05, 2.5486881440883735e-06, -1.3993507309351116e-05, 0.0001059357455233112, 2.42345777223818e-05, 9.004781168187037e-05], [-1.0253897016809788e-05, -0.00013682007556781173, 5.3070787544129416e-05, -0.00037119394983164966, 2.2867980078444816e-05, -1.3323766552275629e-06, -0.00014714452845510095, 4.23959681938868e-05, -8.158646960509941e-05, -1.6071640857262537e-05, -0.00017773489526007324, -1.0618918167892843e-05, 2.9693892429349944e-05, 0.00010331929661333561, -0.00021751211897935718, -0.0002618337166495621], [-0.00024721852969378233, -0.00015040731523185968, 0.0005322164506651461, -0.00043304936843924224, 1.4836845366517082e-05, -4.266278210707242e-06, -0.00017032123287208378, 0.00020787116955034435, -0.00014692798140458763, -0.00015205881209112704, -0.0005260708858259022, -6.046914859325625e-05, -2.5984634703490883e-05, 0.00017628722707740963, -0.00034497512388043106, -0.0006294224294833839], [0.00011396397167118266, 1.5179615729721263e-05, 7.670610648347065e-05, -0.00041537825018167496, -2.7245185265201144e-05, -6.99548218108248e-06, 8.748326945351437e-05, -8.873861224856228e-05, 8.752526628086343e-05, 9.207108087139204e-05, -9.325615246780217e-05, -4.0472379623679444e-05, -0.00017567041504662484, -0.00011204178736079484, -0.00037201697705313563, -0.0001489867572672665], [0.00012747733853757381, -0.00032515358179807663, -1.3318269338924438e-05, -0.00016029516700655222, -4.967462155036628e-05, -1.2308790246606804e-05, -2.6511726900935173e-05, -9.065678750630468e-05, -0.00019927951507270336, 1.9726719528989634e-06, -4.655361408367753e-05, -8.83914326550439e-05, -2.6624227757565677e-05, -0.00011715965229086578, -3.832712900475599e-05, -0.00011086992890341207], [7.855845069570933e-06, 1.0195125469181221e-05, 0.00028694956563413143, 0.00010267371544614434, 6.687741461064434e-06, -2.8161925911263097e-06, -4.774039553012699e-06, 6.746472990926122e-06, 0.0001144164998549968, -3.76702519133687e-05, -0.00018122897017747164, 3.683452450786717e-05, -0.00010695397213567048, 3.244804611313157e-05, -0.00043096597073599696, 9.027963824337348e-05], [-6.630930147366598e-05, -1.2600508853211068e-05, 0.000366722495527938, -0.00026836624601855874, 9.702412171463948e-06, -3.6850863125437172e-06, -0.00024383152776863426, 0.0001684974558884278, 9.63051297730999e-06, 3.2509080483578146e-05, -0.0003812017384916544, -6.0277405282249674e-05, 3.4536154998932034e-05, 0.0001479588681831956, -0.00021325988927856088, -0.0005050129839219153], [7.746140181552619e-05, 4.144299236941151e-05, 2.722426870604977e-05, -0.00048793116002343595, 1.7953509086510167e-05, -9.968991889763856e-07, -0.00019346113549545407, -9.75068542174995e-06, 6.504165503429249e-05, 0.00014149534399621189, -0.0001149540621554479, -2.2230613467399962e-05, 8.875306230038404e-05, -6.025167749612592e-05, -0.0002484843716956675, -9.223470988217741e-05], [6.939442391740158e-05, 0.00011093274224549532, 0.0005927607417106628, 0.0007523712702095509, 5.0701501095318235e-06, 9.051236702362075e-07, -0.00021718969219364226, 7.23355115042068e-05, 0.00011462037946330383, 6.023662717780098e-05, -0.0005443474510684609, 4.670353882829659e-05, -0.0002567139745224267, -5.898074232391082e-05, 0.00022901999182067811, -0.0005458508967421949], [-4.5918786781840026e-05, 9.650475112721324e-05, 5.8637473557610065e-05, -2.3132723072194494e-05, 1.1655127309495583e-05, -1.2099259947717655e-05, -0.00012832241191063076, 7.891820860095322e-05, 1.2965083442395553e-05, -4.113453542231582e-05, -4.973794784746133e-05, -1.8829290638677776e-05, 8.705635991645977e-05, 9.92910354398191e-05, 6.0429065342759714e-05, -9.28962035686709e-05], [-4.648507820093073e-05, -1.4006007404532284e-05, -6.443537859013304e-05, -2.499068432371132e-05, -1.658994187891949e-05, 1.0210692380496766e-05, 0.00020623407908715308, 1.7319431208306924e-05, -0.00011643107427516952, -3.936067150789313e-05, -4.108272696612403e-05, 7.703616574872285e-06, -1.7317153833573684e-05, -1.0289719512002193e-06, -2.2346770492731594e-05, -0.00012442066508810967], [6.25208267592825e-05, -2.6279292796971276e-05, 0.0011021808022633195, 0.0004759815346915275, -3.6900810300721787e-06, -1.0352101526223123e-05, -1.3940413055024692e-06, -5.501694977283478e-05, 2.6132165658054873e-05, -1.583577727615193e-06, -0.0006400296115316451, 3.3502459700684994e-05, -4.200700277579017e-05, -2.4228829715866596e-05, 0.0002453792258165777, -0.0009491375531069934]], "layer_3_biases": [-0.01919836737215519, -0.0036020870320498943, 0.017862001433968544, 0.08785954862833023, -0.0038498258218169212, -0.002589093754068017, 0.08458765596151352, -0.005472782999277115, -0.012932139448821545, -0.09994517266750336, 0.16320104897022247, -0.010207700543105602, 0.14696146547794342, -0.008568385615944862, 0.12823641300201416, 0.3522146940231323], "layer_3_weights": [[5.9808840887853876e-05, -5.855527342646383e-05, -0.00017956295050680637, 1.722854358376935e-05, -1.7385098544764332e-05, -1.233830516866874e-05, 7.000449841143563e-05, -9.650609172240365e-06, 6.281657260842621e-05, 9.532888725516386e-06, -1.5435023669851944e-05, -0.00011561011342564598, 1.8560802345746197e-05, -2.028741073445417e-05, -5.7304474466945976e-05, -7.650285260751843e-05], [1.8464394088368863e-05, -7.473808364011347e-05, 3.687033677124418e-05, -0.0006588642718270421, -7.869225555623416e-06, -1.814841562008951e-05, -0.00022205698769539595, 3.08788257825654e-05, -2.3761083866702393e-05, 4.1130351746687666e-05, -0.00019344907195772976, 0.00010278135596308857, -0.00015307772264350206, 3.805826781899668e-05, -0.00027992919785901904, -0.00022463547065854073], [7.47304002288729e-05, -1.256519590242533e-05, -5.5323485867120326e-05, -0.0003947810037061572, 4.329800049163168e-06, -1.0459854138389346e-06, 0.0001215667580254376, -5.464795322041027e-05, 5.2042923925910145e-05, 2.0916671928716823e-05, 9.2626731202472e-05, -7.570635352749377e-05, 0.00010703937005018815, -7.397866284009069e-05, -0.00012267041893210262, 3.490517337922938e-05], [-1.0700095117499586e-05, 1.811657966754865e-05, 1.1449701560195535e-05, 0.0005814300966449082, 8.103334039333276e-06, 5.8661542425397784e-05, 1.348217119812034e-05, 4.417630407260731e-06, -4.855595761910081e-06, 0.00015288419672288, 8.993359369924292e-05, -5.850355955772102e-05, 5.9101057559018955e-05, -1.2351387340459041e-05, 0.000255839666351676, 0.00010978023783536628], [-4.967105633113533e-05, -1.9888118913513608e-05, -3.059855225728825e-05, 0.00010678834223654121, -2.1689011191483587e-05, -2.504342955944594e-05, 7.750319491606206e-05, 1.0167544814976281e-06, 5.908253660891205e-05, -3.8939201658649836e-06, 3.3689193514874205e-05, 2.384790604992304e-06, 1.6039331967476755e-05, 1.0965351066261064e-05, 3.1217539799399674e-05, 8.376337063964456e-05], [-7.613506022607908e-05, -3.1521312848781236e-06, 6.278602813836187e-05, -0.00037946237716823816, 2.6276635253452696e-05, 7.914454727142584e-06, -0.00014130461204331368, -3.255729825468734e-05, 8.224286284530535e-05, -8.433562470600009e-05, -0.00016874840366654098, -3.5531388675735798e-06, -0.000128739804495126, -4.52755339210853e-05, -0.00022542581427842379, -0.0002542897709645331], [-0.0001646309538045898, 1.2673900528170634e-05, 0.000612397852819413, -0.0003425338654778898, 1.9017010117750033e-06, 7.523999101977097e-06, -0.00016609078738838434, -5.9503257944015786e-05, 7.330899097723886e-05, 1.931143742694985e-05, -0.0005586325423792005, -4.031908974866383e-05, -0.0005575873656198382, -8.990058267954737e-05, -0.0003058339934796095, -0.0007184736896306276], [9.213492012349889e-05, -5.1233877456979826e-05, 7.845647633075714e-05, -0.0004162789264228195, -2.745896199485287e-05, -6.95710041327402e-05, 8.553110819775611e-05, 2.7252806830802e-05, 1.1959228686464485e-05, 9.284226689487696e-05, -9.037937707034871e-05, -4.0330902265850455e-05, -8.458476804662496e-05, 3.5688444768311456e-05, -0.00037362644798122346, -0.0001474523014621809], [0.0001235603995155543, 8.963403161033057e-06, -8.077819074969739e-06, -0.00016432016855105758, -4.09681633755099e-05, 5.024924030294642e-05, -3.514596028253436e-05, -8.19383276393637e-05, -0.00014253557310439646, 2.2535536118084565e-05, -4.090814763912931e-05, -9.118883463088423e-05, -1.9053937649005093e-05, -0.00015237295883707702, -4.296958286431618e-05, -0.00010677493264665827], [1.2349433745839633e-05, -6.644536188105121e-05, 0.00028681449475698173, 0.0001016996247926727, 3.7416405120893614e-06, -5.2925923228031024e-05, -7.126003310986562e-06, 1.734045690682251e-05, 8.271551632788032e-05, -3.8168705941643566e-05, -0.00017918918456416577, 3.495515920803882e-05, -0.00025038988678716123, 2.1907893824391067e-05, -0.00043432353413663805, 9.143630450125784e-05], [-1.5474282918148674e-05, 3.4615022741490975e-05, 0.00043773773359134793, -0.00021200206538196653, 2.6077425445691915e-06, 1.1945385267608799e-05, -0.00018779918900690973, -4.489086859393865e-05, 2.493983083695639e-05, 1.1701601579261478e-05, -0.00042121316073462367, -2.373807546973694e-05, -0.0004001546185463667, -7.787047070451081e-05, -0.00019935621821787208, -0.0005912362248636782], [6.902237510075793e-05, -0.00012721361417789012, 3.4993870940525085e-05, -0.0004941831575706601, 1.3955958593214746e-06, -8.326020906679332e-05, -0.00020578350813593715, -5.076604429632425e-05, 3.881592783727683e-05, 0.00014153473603073508, -0.00010739574645413086, -2.5434870622120798e-05, -8.525492012267932e-05, -3.232767994632013e-05, -0.00025901146000251174, -8.665138739161193e-05], [-2.5056719096028246e-05, 5.637999129248783e-05, 0.000591965508647263, 0.0007504377281293273, 5.2589371080102865e-06, 3.5345423384569585e-05, -0.00021876701794099063, 5.8455618273001164e-05, 0.00011745910887839273, -5.043886267230846e-05, -0.000541365472599864, 4.670493581215851e-05, -0.0006102152983658016, -7.034547161310911e-05, 0.00022497632016893476, -0.0005428600707091391], [-1.7805921743274666e-05, 2.7079053324996494e-05, 6.786404992453754e-05, -3.161719359923154e-05, 1.2837062058679294e-05, 5.5120915931183845e-05, -0.0001268120831809938, -4.69723545393208e-06, -4.39132381870877e-05, -7.265348540386185e-05, -4.010058910353109e-05, -1.639051697566174e-05, -3.1499490432906896e-05, -9.03047839528881e-06, 5.093947402201593e-05, -8.525781595380977e-05], [-8.644016634207219e-05, -0.00013496133033186197, -3.094686326221563e-05, -3.207478948752396e-05, -6.6897687247546855e-06, -9.534586570225656e-05, 0.00013867324742022902, 2.7969173970632255e-05, -5.4843891120981425e-05, -1.9196093489881605e-05, -9.303644037572667e-05, 7.519805512856692e-05, -6.986658263485879e-05, 7.562780956504866e-05, 3.7622055515385e-06, -0.00019286168389953673], [-0.00012127665831940249, 5.7222528994316235e-05, 0.0010764027247205377, 0.00050331064267084, 6.993092938500922e-06, 7.3780947786872275e-06, 4.929980786982924e-05, 6.835597741883248e-05, -6.163602665765211e-05, 1.8679595086723566e-05, -0.000636299722827971, 8.837338828016073e-05, -0.0007221056730486453, 9.166002564597875e-05, 0.00024855384253896773, -0.0009733805782161653]], "layer_4_biases": [0.11593714356422424, -0.008179722353816032, 0.013490776531398296, -0.005662943702191114, -0.005866155494004488, -0.056244391947984695, 0.10399065911769867, -0.0026070219464600086, -0.01675664447247982, -0.08335983008146286, 0.14161893725395203, -0.01160566508769989, 0.30411770939826965, -0.002913524629548192, 0.11873163282871246, 0.4346321225166321], "layer_4_weights": [[-0.0002624669286888093, -0.00012118263839511201, -0.0001840987242758274, 0.00019319340935908258, 8.43113684823038e-06, -0.0001246855390490964, 6.914546247571707e-05, 1.9263514332124032e-05, 5.7695644500199705e-05, 8.645715752209071e-06, -2.0074459825991653e-05, -0.00016158705693669617, 1.714525387797039e-05, 1.5533816622337326e-05, -5.341496580513194e-05, -7.936121983220801e-05], [-6.146306259324774e-05, -4.114705734536983e-05, 5.135309766046703e-05, 0.0001281157456105575, -2.0608740669558756e-05, 4.8942842113319784e-05, -0.0002085800952045247, 2.8587979613803327e-05, -1.6822292309370823e-05, 4.1210936615243554e-05, -0.00017968201427720487, 0.00010194278002018109, -0.0001416795130353421, 1.694174534350168e-05, -0.0002939144615083933, -0.0002143940655514598], [1.5719505199740524e-06, -2.5860108507913537e-05, -5.1226037612650543e-05, -6.56351403449662e-05, -1.2274448408788885e-06, -1.873940709629096e-05, 0.00011511612683534622, -1.760793020366691e-05, 6.103600026108325e-05, 2.2603024262934923e-05, 0.00010817341535585001, -5.820521982968785e-05, 0.00011859733785968274, -5.9570418670773506e-05, -0.00010876882151933387, 6.326868606265634e-05], [0.00021736655617132783, 2.504494295862969e-05, 3.5644199670059606e-05, 3.811861097346991e-05, 2.929231641246588e-06, 3.1393428798764944e-05, -6.479615694843233e-05, 2.97587121167453e-05, -2.3781985873938538e-05, 0.00015149236423894763, 4.62920252175536e-05, -0.00011675361747620627, 2.136110379069578e-05, 2.8005257263430394e-05, 0.00024827217566780746, 5.3347077482612804e-05], [-0.0003061557363253087, -3.311959881102666e-05, -3.780318365897983e-05, 0.00017976276285480708, 1.1544180779310409e-05, 0.00016642440459690988, 7.68996324040927e-05, 8.007140422705561e-06, 8.704807987669483e-05, -8.03708826424554e-06, 2.7566818971536122e-05, -1.1953774219364277e-06, 1.1194858416274656e-05, 8.310674274980556e-06, 3.6982379242544994e-05, 7.946219557197765e-05], [3.5030047001782805e-05, -4.140553301112959e-06, 7.040316995698959e-05, -0.0001349063531961292, 2.3973954739631154e-05, 0.00010725700849434361, -0.00013701707939617336, -3.5260225558886304e-05, 7.094748434610665e-05, -8.466083818348125e-05, -0.00016189264715649188, -6.715188646921888e-06, -0.00012392274220474064, -4.836251900997013e-05, -0.0002315854944754392, -0.0002492189814802259], [0.00020792789291590452, -3.0575383789255284e-06, 0.0006544450880028307, 1.2161744962213561e-05, 2.687841515580658e-05, 8.037176303332672e-05, -0.0001530428125988692, 4.1949606384150684e-05, 8.297857857542112e-05, -1.5511184301431058e-06, -0.0005765351234003901, -5.731472992920317e-05, -0.0005765243549831212, 4.240891576046124e-05, -0.00029872116283513606, -0.0007661835988983512], [-9.319205128122121e-05, -5.0166549044661224e-05, 8.158212585840374e-05, -9.137381198343064e-07, -2.7467309337225743e-05, -5.3443305660039186e-05, 8.205596532206982e-05, 2.6433743187226355e-05, 2.6591524147079326e-05, 9.323459380539134e-05, -8.810974395601079e-05, -3.898785143974237e-05, -8.116957178572193e-05, 3.051094063266646e-05, -0.00037729699397459626, -0.00014668313087895513], [5.2458348363870755e-05, -1.2186666026536841e-05, -2.511516640879563e-06, 8.53030269354349e-06, -5.864745253347792e-05, -0.00011238695151405409, -4.2273175495211035e-05, -9.002087608678266e-05, -0.0001658973196754232, 2.114046765200328e-05, -3.658677087514661e-05, -0.00010631752957124263, -1.607050944585353e-05, -0.0001416291343048215, -4.815316424355842e-05, -0.00010429019312141463], [-3.659518188214861e-05, 0.00010448443208588287, 0.00028611504239961505, -8.655830606585369e-05, 2.4384871721849777e-05, -5.542226062971167e-05, -9.80123058980098e-06, -1.4054562598175835e-05, 0.00010348505747970194, -3.823062434094027e-05, -0.00017706149083096534, 0.00010095885954797268, -0.0002479382965248078, 2.612768548715394e-05, -0.00043644060497172177, 9.309500455856323e-05], [0.00026475335471332073, 2.8698917958536185e-05, 0.0005011772154830396, 0.00010345379268983379, 1.0871075573959388e-05, 0.0001013842920656316, -0.00013814256817568094, 3.493018084554933e-05, -1.0296976142853964e-05, 1.1374621863069478e-05, -0.00045842447434552014, -4.226707915222505e-06, -0.000435722031397745, 2.965857129311189e-05, -0.00018712175369728357, -0.0006731998291797936], [-0.00012168308603577316, 1.5277710190275684e-05, 4.295242251828313e-05, -0.00010111260053236037, 7.677227404201403e-05, 8.400085789617151e-05, -0.0002172319800592959, -3.138826650683768e-05, 6.023788591846824e-05, 0.00014291738625615835, -0.000101105535577517, -4.117700882488862e-05, -7.911331340437755e-05, 3.594411464291625e-05, -0.00026786408852785826, -8.256857108790427e-05], [0.0003303299890831113, -1.3310221902429475e-06, 0.000682071375194937, 8.195026020985097e-05, 1.960722147487104e-05, -0.0001044061646098271, -0.00023738534946460277, 2.4583900085417554e-05, 4.3239171645836905e-05, -5.025011705583893e-05, -0.0005923154531046748, -3.6725494283018634e-05, -0.000678478681948036, 1.801910730137024e-05, 0.00028840723098255694, -0.0007079883944243193], [0.00016217274242080748, 2.8197942810948007e-05, 7.595498755108565e-05, -6.044545443728566e-05, 1.2731446986435913e-05, 1.0466441381140612e-05, -0.00012564525241032243, 1.5950814486132003e-05, -1.0489844498806633e-05, -7.27996084606275e-05, -3.2724437915021554e-05, 7.143057700886857e-06, -2.6561525373836048e-05, 9.075641173694748e-06, 4.327736678533256e-05, -8.013892511371523e-05], [1.579403215146158e-05, -0.0001534639741294086, 1.347314719168935e-05, 5.8856054238276556e-05, -1.3678034520125948e-05, -8.320213237311691e-05, 0.00012152588169556111, 7.800827734172344e-05, 5.309949756338028e-06, -2.0333838619990274e-05, -0.00015350745525211096, -5.5038093705661595e-05, -0.00012503730249591172, 5.570527150666749e-07, 0.00011373303277650848, -0.0002699521719478071], [0.0004638791724573821, 8.628301293356344e-05, 0.0010229357285425067, -6.532901898026466e-05, -3.2977050068438984e-06, 0.0002187447971664369, 9.677206980995834e-05, 1.2738812984025571e-05, -3.802597348112613e-05, 1.9908158719772473e-05, -0.00063938123639673, 0.0001281831064261496, -0.0007066330290399492, 3.6278946936363354e-05, 0.000268341536866501, -0.0010021318448707461]], "output_biases": [-1.3118503093719482, -0.08624441176652908], "output_weights": [[0.15089519321918488, -0.24515490233898163], [-0.10518915206193924, 0.7959797382354736], [0.21909260749816895, 0.036059148609638214], [-0.24420471489429474, -1.0489367246627808], [-0.008657258935272694, 0.19971318542957306], [-0.2891610860824585, 0.3402952253818512], [-0.007290874142199755, -0.08785464614629745], [-0.10405091196298599, 0.2579096555709839], [0.13709573447704315, 0.6607207655906677], [0.12773065268993378, 0.018187610432505608], [-0.4705726206302643, -0.1455385386943817], [0.5559350252151489, 0.8014599680900574], [-0.384147047996521, -0.11689860373735428], [-0.13008497655391693, 0.3510550558567047], [-0.24214281141757965, -0.4728459119796753], [-0.875255286693573, -0.10623499006032944]]}, "hk_disentangled_rnn/~update_latents/update_net_1": {"input_biases": [0.02632991410791874, -0.010691598989069462, 0.05938347429037094, 0.012169050052762032, -0.05379242077469826, 0.011722559109330177, -0.02557384967803955, -0.09094139188528061, 0.05178965628147125, -0.008636921644210815, 0.04874065890908241, -0.03664248809218407, 0.0024873209185898304, -0.10127485543489456, -0.02167956531047821, 0.03224606439471245], "input_weights": [[0.4709630310535431, -0.13113917410373688, -0.17643631994724274, -0.17879261076450348, 1.1692404747009277, 0.2170286625623703, 0.029564635828137398, 0.8259056210517883, 0.02050873637199402, 1.1123226881027222, -0.3604280650615692, 0.22952409088611603, -0.36586493253707886, 0.3789811134338379, 0.16109777987003326, 0.4121623635292053], [-0.3290160894393921, 0.6204023957252502, -0.32947051525115967, -0.37598761916160583, -0.6605758666992188, -0.8018885850906372, 0.24867302179336548, -0.1662212610244751, -0.35143548250198364, 0.32191184163093567, -0.6038343906402588, -0.14233551919460297, -0.22072333097457886, 0.9138259291648865, 0.2758140563964844, 0.3112054467201233], [0.8297433853149414, -0.22686462104320526, 0.138640895485878, -0.22488752007484436, -0.6824319362640381, 0.3222406208515167, 0.129301518201828, 0.27883902192115784, -0.5815942883491516, 0.2880675196647644, 0.2311837524175644, -0.3715035021305084, -1.0500621795654297, -0.10476195812225342, -0.37726542353630066, -0.2636488676071167], [0.28316187858581543, -0.5737671852111816, -0.5168381333351135, 0.46987834572792053, 0.1101260855793953, 0.9304344654083252, -0.23815272748470306, -0.6913160085678101, -0.5577844977378845, 0.005835200659930706, -0.11313467472791672, -0.6078943014144897, -0.06017132103443146, -0.21450096368789673, -0.15443098545074463, -0.03570478782057762], [0.32458940148353577, -0.5680249929428101, -0.07422905415296555, 0.5854506492614746, -0.2306467592716217, -0.49977201223373413, -0.4968564212322235, 0.03703898936510086, 0.6875876188278198, -0.08820022642612457, -0.1641833484172821, 0.34909680485725403, 0.13436228036880493, 0.5588535666465759, 0.29709237813949585, 0.6016876697540283], [-0.3747098445892334, -0.14895717799663544, -0.05127383768558502, -0.3239538073539734, -0.41562533378601074, 0.4078259766101837, -0.40835002064704895, 0.5040648579597473, -0.24000366032123566, -0.006543396506458521, 0.32068854570388794, 0.7859859466552734, 0.09208511561155319, -0.09281880408525467, -0.12452659755945206, -0.06903882324695587], [-0.7471423745155334, 0.08957177400588989, -0.6307554841041565, -0.5718568563461304, -0.5319252014160156, 0.5048268437385559, -0.45351168513298035, -0.14199195802211761, -0.18355581164360046, 0.32233136892318726, -1.2491285800933838, 0.1662985235452652, -0.6952568888664246, 0.03502027317881584, -0.04725797474384308, -0.11028362810611725]], "layer_0_biases": [0.15285831689834595, 0.03343171626329422, -0.029200604185461998, -0.05736258625984192, -0.15780377388000488, 0.053114909678697586, -0.008108392357826233, -0.023372763767838478, -0.07259491831064224, 0.07866378128528595, 0.06581208109855652, -0.06636111438274384, -0.023556271567940712, -0.13632962107658386, -0.005154099781066179, -0.05374907702207565], "layer_0_weights": [[0.001990094780921936, -0.013555728830397129, -0.006909451447427273, -0.012384197674691677, 0.00010183537233388051, 0.0005886777071282268, -0.006185030099004507, 0.015096369199454784, -0.005248329136520624, 0.009950234554708004, 0.001015309477224946, -0.00483136810362339, -0.010061364620923996, 4.9206781113753095e-05, -0.004342151805758476, -0.0045456662774086], [-0.0020628771744668484, 0.004622121807187796, 0.001724322559311986, -9.706032142275944e-05, 6.013208258082159e-05, -0.004924658685922623, 0.004482840653508902, -0.0018428072798997164, 0.003472344484180212, -0.00338747282512486, -0.0009412483195774257, 0.003152839606627822, 0.009898507967591286, 5.408783908933401e-05, 0.01852804236114025, -0.00026371158310212195], [3.645630567916669e-05, -9.45659849094227e-05, -0.002149703213945031, -0.011362084187567234, 4.708568303612992e-05, 0.001663713133893907, 0.007211129181087017, 0.0037720906548202038, -0.0062166848219931126, 0.009437445551156998, 0.0005161020671948791, -0.005677655339241028, 0.001985931536182761, 1.3207978554419242e-05, 0.011733748950064182, -0.004436470568180084], [0.0018479437567293644, -0.0009773648343980312, -0.008138725534081459, -0.00048102717846632004, -5.69691437704023e-05, 0.006637018173933029, 0.0020532242488116026, 0.008694698102772236, -0.0023863494861871004, 0.003090348094701767, 0.0011659887386485934, -0.0021091890521347523, -0.012108409777283669, -4.224702206556685e-05, -0.016939131543040276, 0.0007491479045711458], [-0.0005443552508950233, -0.008646509610116482, 0.00784026738256216, -0.00990312546491623, -7.143524726416217e-06, -0.004094840958714485, -0.003014953574165702, -0.0010164686245843768, 0.007588823325932026, 0.01675589568912983, -0.00108717184048146, 0.007002450991421938, -0.027775568887591362, -1.367409549857257e-05, 0.00024138308071997017, 0.01541072502732277], [0.0008329412085004151, -0.00432281568646431, 0.019453980028629303, 0.004888665862381458, -7.101934170350432e-05, 0.0025209698360413313, -0.0022693490609526634, -0.011632800102233887, -0.0010043916990980506, 0.002912092488259077, 0.0005506829475052655, -0.0009384542354382575, -0.011945304460823536, -7.497131446143612e-05, -0.009035923518240452, 0.0030531114898622036], [-0.0008123632869683206, -0.00230355910025537, 0.0004624034045264125, -0.006811005529016256, 7.532448944402859e-05, -0.0025821749586611986, 0.004190471954643726, 0.005813645664602518, -0.00016740532009862363, 0.004715080372989178, -0.0002512532228138298, -0.00013663398567587137, 0.00025804011966101825, 3.385799936950207e-05, 0.012502482160925865, -0.0016469587571918964], [-0.0006949107628315687, -0.009056837297976017, -0.0004614632634911686, -0.014326907694339752, 5.611256347037852e-05, -0.004760731477290392, -0.0075315916910767555, -0.005678563378751278, -0.001594139146618545, 0.009904748760163784, -0.001075351145118475, -0.0017253232654184103, 0.0011946455342695117, 1.708690069790464e-05, 0.01441759243607521, 0.006863809190690517], [0.00044558930676430464, 0.006858242675662041, -0.008272327482700348, -0.0011045071296393871, -6.290905002970248e-05, -0.0011967206373810768, 0.0013501634821295738, 0.005239625461399555, 0.001771418028511107, 0.003984995186328888, -0.00015681628428865224, 0.0020119035616517067, -0.0020149429328739643, -4.191065818304196e-05, -0.004960828460752964, -0.002971985610201955], [-0.0008237992879003286, -0.01154408324509859, 0.002485249424353242, -0.0031609474681317806, 4.4424512452678755e-05, -0.008624287322163582, -0.014986931346356869, -0.0007935934117995203, 0.007299077231436968, 1.3152775864000432e-05, -0.0011453848564997315, 0.006567961070686579, -0.004969494882971048, 4.281926521798596e-05, 0.002183747012168169, 0.006879001390188932], [0.0006148391403257847, -0.00590130127966404, -0.003211839357391, -0.019184395670890808, 2.436230170133058e-05, 0.010256514884531498, 0.011329845525324345, -0.0004145015263929963, -0.013441271148622036, 0.017122525721788406, 0.0009139025351032615, -0.012768871150910854, -0.004906548652797937, -6.70713052386418e-05, 0.01007880549877882, 0.004800240509212017], [-0.001071326551027596, 0.0013152649626135826, -0.0025054856669157743, -0.004249615594744682, 0.00011142642324557528, 0.00022698077373206615, -0.002810720121487975, -0.012897144071757793, -0.000655698124319315, 0.0030783747788518667, -0.001203180872835219, -0.0009211241267621517, 0.0052160704508423805, 6.394187948899344e-05, 0.003930616192519665, 0.009798540733754635], [-0.00041295812116004527, 0.004980072844773531, -0.00417832937091589, -0.0033144394401460886, -0.00010621637920849025, 0.008199775591492653, 0.011444768868386745, -0.005353935062885284, -0.0011024107225239277, 0.006131657399237156, -0.00012713385513052344, -0.0012686947593465447, -0.009217318147420883, -7.195598300313577e-05, -0.0006805505254305899, 0.01387524139136076], [-0.0005898557137697935, -0.003761624451726675, -0.014062550850212574, 0.0006037582061253488, 5.2351359045132995e-05, -0.003972962964326143, -0.010561156086623669, 0.005137193948030472, 0.005128877237439156, -0.007185992784798145, -0.0011480477405712008, 0.004534984473139048, 0.005339897237718105, 8.231197716668248e-05, -0.0035635794047266245, 0.00612980080768466], [-0.0004717698029708117, 0.0008356558391824365, -0.005877734627574682, 0.0009541134350001812, -2.2984850147622637e-05, -0.001571335131302476, -0.0027200980111956596, 0.0017329478869214654, 0.0037228416185826063, -0.001371748629026115, -0.0007221826817840338, 0.0033933885861188173, -0.0009813257493078709, 1.6435415091109462e-05, -0.003499082988128066, 0.004547771066427231], [6.930047675268725e-05, -0.0038826533127576113, -0.010380127467215061, -0.0007310846704058349, -8.524502845830284e-06, -0.001037276815623045, -0.007750316988676786, 0.0035491713788360357, 0.003786268411204219, -0.0019013566197827458, -0.0005408341530710459, 0.0033552804961800575, -0.004087102133780718, 2.3766562662785873e-05, -0.006545137148350477, 0.007109544239938259]], "layer_1_biases": [0.09948748350143433, 0.01706026867032051, 0.05348869413137436, 0.017966829240322113, -0.010428901761770248, -0.025071434676647186, -0.009351598098874092, -0.01553002092987299, -0.0015063447644934058, -0.05211567506194115, 0.051799073815345764, 0.022821934893727303, 0.0396062508225441, -0.04347248375415802, -0.1348610520362854, 0.023679224774241447], "layer_1_weights": [[0.0013161965180188417, -0.011607055552303791, -0.005346929654479027, -0.004252417478710413, 9.770998076419346e-06, 5.251145194051787e-05, 2.037915874097962e-05, 4.544535477180034e-05, 0.009729097597301006, 0.014573657885193825, 0.0004157947259955108, -0.004049734678119421, 0.004760553129017353, 3.700436354847625e-05, 0.0055461786687374115, -0.01490883156657219], [-0.001728799776174128, 0.00011553390504559502, -0.006026775110512972, 0.002748019527643919, 1.5909046851447783e-05, 3.086702054133639e-05, 9.825286724662874e-06, 4.6523273340426385e-05, 0.00031742919236421585, -0.0160976592451334, -0.0006893444224260747, -0.0008326758397743106, -0.00926363654434681, 5.557481199502945e-05, -0.0014089442556723952, 0.008581573143601418], [9.664527169661596e-05, 0.0009466289193369448, -0.0003546694351825863, 0.0013417379232123494, -3.0862570383760612e-06, 7.961427036207169e-05, -7.362981705227867e-05, 0.00010492267756490037, 0.006857928819954395, 0.0016679692780598998, -3.542660124367103e-06, 0.0019875040743499994, -0.0017835457110777497, 1.3668212886841502e-05, -0.019479041919112206, -0.0019958498887717724], [0.0013491743011400104, -0.0001243489678017795, 0.002208341844379902, 0.0018405885202810168, -1.346798126178328e-05, -2.6186513423454016e-05, -9.735565981827676e-06, -3.430684228078462e-05, 0.000394783157389611, 0.006819859612733126, 0.0006518704467453063, 0.0067982301115989685, 0.0027577143628150225, -4.644025830202736e-05, -0.0009728560107760131, -0.010481597855687141], [-0.0006715799099765718, -0.016475826501846313, -0.00939103215932846, -0.0123488400131464, 7.87050521466881e-06, 1.2292285646253731e-05, 5.559189020232225e-08, 5.326696282281773e-06, -0.013282272964715958, -0.010117270983755589, -0.0009134369320236146, -0.003547677304595709, 0.01944557949900627, -1.8632010323926806e-05, 0.01918214000761509, 0.0014596895780414343], [0.0005628096405416727, -0.0044644600711762905, 0.007306879851967096, -0.00500240083783865, 1.1119678674731404e-05, -2.1833027858519927e-05, 9.401862189406529e-05, -8.363767119590193e-05, -0.005492789670825005, 0.012579875998198986, 0.0002799405774567276, -0.0009881738806143403, 0.022762125357985497, -0.00010055720485979691, 0.0069557554088532925, -0.0013413261622190475], [-0.0007487852708436549, -0.007395371329039335, -0.0089793736115098, -0.00017324372311122715, 9.91868455457734e-06, 4.887764225713909e-05, 5.2936855354346335e-05, 4.7256577090593055e-05, 0.005309072323143482, -0.006892331410199404, -9.754367783898488e-05, -0.0001540009252494201, -0.0020926075521856546, 4.0435927076032385e-05, 0.0015225405804812908, -0.0023686380591243505], [-0.00034309618058614433, -0.003575726877897978, -0.005033633206039667, -0.012819464318454266, 4.092200924787903e-06, 9.133404091699049e-06, -2.0300371033954434e-05, 2.003386543947272e-05, -0.0003429834032431245, 0.0014404603280127048, -0.0006563845672644675, -0.011563749983906746, 0.0034440772142261267, 2.7288595447316766e-05, 0.0013343687169253826, 0.0024048907216638327], [0.0008066994487307966, 0.007074413821101189, 0.005157157313078642, 0.00632611196488142, -3.2794250728329644e-05, -8.181783050531521e-05, -0.00018683304369915277, -3.614686647779308e-05, -0.003475725185126066, -0.004666061140596867, -7.492805161746219e-05, 0.004288414027541876, -0.008062208071351051, -3.4615673939697444e-05, -0.016701510176062584, 0.0056114885956048965], [-0.0009642261429689825, -0.01100947055965662, -0.00868087075650692, -0.009939565323293209, 1.8942784663522616e-05, 4.622481719707139e-05, 2.138465060852468e-05, 3.879052383126691e-05, -0.004646291956305504, -0.002716667950153351, -0.0009588985703885555, -0.01388409174978733, 0.004241705406457186, 3.3898868423420936e-05, 0.025228234007954597, 0.002868742449209094], [0.0001909237471409142, -0.0017015726771205664, -0.002451422158628702, -0.009034627117216587, -1.1797269507951569e-05, -2.1621366613544524e-05, 8.58302246342646e-06, -3.6623881896957755e-05, 0.0075026946142315865, 0.010849900543689728, 0.00012915965635329485, 0.0033763181418180466, 0.011019017547369003, -5.737859464716166e-05, -0.01576581411063671, -0.01408481877297163], [-0.0008352542063221335, 0.00973494816571474, 0.004327128175646067, -0.008103480562567711, -2.0910507373628207e-05, -1.4086283954384271e-05, -0.00015199971676338464, 4.6943940105848014e-05, -0.007523196749389172, -0.0018172641284763813, -0.001044549746438861, -0.005087641067802906, 0.0014911314938217402, 6.198296614456922e-05, -0.006679243873804808, 0.007921845652163029], [-0.0004717526026070118, 0.004706134088337421, -0.0014620106667280197, -0.0052005453035235405, -2.2593018002226017e-05, -6.879447755636647e-05, -2.4119453883031383e-05, -7.292312511708587e-05, -0.008526373654603958, -0.008247127756476402, -0.00040654122130945325, 0.008560627698898315, 0.005311335436999798, -8.214116678573191e-05, -0.005921785719692707, -0.0021443855948746204], [-0.0006514928536489606, -0.0005369288264773786, -0.00864650309085846, -0.0043991971760988235, -5.246269211056642e-06, 2.898879574786406e-05, 1.5572320990031585e-05, 6.563528586411849e-05, -0.0016523025697097182, -0.004167545586824417, -0.0007092970772646368, -0.006575960200279951, -0.010632587596774101, 9.095487621380016e-05, 0.020658398047089577, -0.0006956219440326095], [-0.0005385692347772419, 0.0006644450477324426, -0.0028303461149334908, -0.0011120261624455452, -1.6898615285754204e-05, -2.2827285647508688e-05, -6.936158024473116e-05, 5.315133421390783e-06, -0.0038499189540743828, -0.006635816767811775, -0.0005863644764758646, -0.0005014589987695217, -0.003906790632754564, 3.34892793034669e-05, 0.006484431214630604, 0.002618016442283988], [-0.00017169279453810304, -0.0007153581245802343, -0.0044671013019979, -0.0051569389179348946, -1.5349458408309147e-05, -2.269008655275684e-05, -1.669430457695853e-05, 6.5278618421871215e-06, -0.004374710842967033, -0.0014303760835900903, -0.0005087523604743183, -0.0037187340203672647, -0.002956883516162634, 2.7694226446328685e-05, 0.013685722835361958, -0.0018839604454115033]], "layer_2_biases": [0.12821824848651886, 0.021461497992277145, 0.02420356310904026, 0.019601402804255486, -0.015695301815867424, -0.04856158792972565, -0.09125354140996933, -0.023689035326242447, 0.030559750273823738, -0.03924902528524399, -0.07858777791261673, -0.045494195073843, 0.0003486103087197989, -0.020958729088306427, -0.13596254587173462, 0.0596468560397625], "layer_2_weights": [[0.0009685211698524654, -0.010244319215416908, 0.0005928302998654544, -0.01510612852871418, 5.867084473720752e-05, -0.0038491475861519575, -0.007157393731176853, 2.3610082280356437e-05, -0.0006520021706819534, -0.009128890000283718, 2.5556495529599488e-05, 0.002083040773868561, -0.004848996177315712, 0.009604178369045258, 0.003135277424007654, 0.0007003740756772459], [-0.0015290564624592662, 0.005573762580752373, 0.00024011007917579263, 0.001881697098724544, 6.669986760243773e-05, 0.0018997808219864964, 0.004349563270807266, 4.756471389555372e-05, 9.138454333879054e-05, 0.007541986647993326, 4.736284608952701e-05, 0.0023589455522596836, 0.0013021616032347083, -0.0015034046955406666, 0.008550689555704594, -5.989362034597434e-05], [1.2228880223119631e-05, 0.0006685691187158227, 0.0004689947236329317, -0.002062154933810234, -6.815573215135373e-06, -0.004697819706052542, -0.008619774132966995, 7.863752398407087e-05, 0.00011880521196871996, -0.005755427293479443, 1.4484366147371475e-05, -0.0002753369335550815, -0.004554377868771553, 0.0018675269093364477, -0.012442084029316902, 0.0003409759374335408], [0.0010158465011045337, 0.0014202211750671268, 0.0008833864121697843, -0.0010576240019872785, -5.315267844707705e-05, -0.0020047947764396667, -0.015450380742549896, -3.4171091101597995e-05, -0.0016115509206429124, 0.0015058080898597836, -4.2170475353486836e-05, -0.00697103887796402, -0.0015430182684212923, 0.005351553205400705, -0.008734975010156631, 0.0006833946681581438], [-0.0008793152519501746, -0.00803415197879076, -0.0005401594680733979, -0.014798649586737156, -1.739157050906215e-05, 0.005041728727519512, 0.008085740730166435, -4.13627549278317e-06, 0.0002896526420954615, -0.025493936613202095, -2.6511765099712647e-05, -0.01873602904379368, 0.015281250700354576, -0.0014662254834547639, 0.01689952053129673, -0.00019906673696823418], [0.0005979123525321484, -0.0054596951231360435, -0.00020110006153117865, 0.001312857260927558, -0.00012926409544888884, -0.0002866655995603651, -0.0010100867366418242, -9.114589192904532e-05, -0.000410240376368165, -0.01329041738063097, -6.758825475117192e-05, 0.0001563313271617517, 0.020091349259018898, -0.006749039050191641, -0.011039726436138153, 0.0005340329953469336], [-0.0007309115026146173, -0.00038281644810922444, -0.0005024741403758526, -0.007414970546960831, 8.952659845817834e-05, -0.000610831193625927, -0.0023091796319931746, 4.72621904918924e-05, 0.0005636771093122661, -5.9328558563720435e-05, 4.0540191548643634e-05, 0.0015009487979114056, 0.002063779393211007, 0.0034322687424719334, 0.010531043633818626, -0.0005475485813803971], [-0.00031011836836114526, -0.009020642377436161, -0.0008589181234128773, -0.007816004566848278, 5.1412345783319324e-05, -0.0009827968897297978, 0.019336799159646034, 1.7835967810242437e-05, 0.0015065951738506556, -0.01593930646777153, 1.3483277143677697e-05, 0.0008673406555317342, -0.009117682464420795, -0.00281103840097785, 0.006952796131372452, -0.0003871347871609032], [0.0006145851803012192, 0.0031827036291360855, 0.0008532043430022895, 0.0028970588464289904, -3.742516855709255e-05, 0.0013140799710527062, -0.004312903620302677, -2.2638712835032493e-05, 0.00017387936532031745, -0.004276490304619074, -3.0282071747933514e-05, -0.010188646614551544, -0.0075235385447740555, 0.002314572222530842, -0.00939114298671484, 0.00024239280901383609], [-0.0008708872483111918, -0.009188334457576275, -0.00010474252485437319, -0.010368052870035172, 2.0005849364679307e-05, 0.0046211061999201775, 0.02227366715669632, 2.748061524471268e-05, 0.00029234090470708907, -0.008664011023938656, 3.215803735656664e-05, -0.0005374112515710294, 0.0007139802910387516, 0.00020169281924609095, 0.023433353751897812, 0.00018169778923038393], [-9.388697071699426e-05, -0.002045792993158102, 0.0005774419405497611, -0.006480021867901087, 1.4371907127497252e-05, -0.009406914934515953, -0.015963077545166016, -3.136006853310391e-05, -0.001618755515664816, -0.007937918417155743, -7.678943802602589e-05, 0.0015161607880145311, -0.003560216398909688, -3.944794661947526e-05, -0.017093416303396225, 0.0010324235772714019], [-0.0007362450123764575, -0.0007003106293268502, 0.00026444351533427835, 0.00596950389444828, -1.644203075557016e-05, -5.6069104175549e-05, 0.014019535854458809, 2.6544101274339482e-05, -0.00011773923324653879, -0.00671222060918808, 2.3906106889626244e-06, -0.0022468410898, -0.009838083758950233, -0.007288153283298016, -0.007212450727820396, 0.0004360455204732716], [-0.0006453141686506569, 0.006849788129329681, 0.0007388858939521015, 0.003562833881005645, -0.00010132629540748894, -0.0016758013516664505, -0.01002143882215023, -7.40889590815641e-05, -0.001866935403086245, 0.00031307918834500015, -0.00010689359623938799, -0.011821857653558254, 0.0012297489447519183, -0.003822119440883398, -0.009464306756854057, 0.0006672920426353812], [-0.0006331896292977035, -0.0016185843851417303, 0.00017321213090326637, -0.0034773768857121468, 7.045250094961375e-05, 0.003357670968398452, 0.014873534440994263, 5.954813605058007e-05, -0.0005221290048211813, 0.01046039815992117, 6.146611121948808e-05, 0.001970266457647085, -0.014280131086707115, 0.0040739052928984165, 0.024140609428286552, -5.5034564866218716e-05], [-0.0005246138898655772, -0.000360361096682027, -0.00015672344306949526, -0.0006272465689107776, -4.2342264350736514e-05, 0.00285254861228168, 0.00611009169369936, 5.172840701561654e-06, 6.833930819993839e-05, 0.00264945556409657, 3.4126810533052776e-06, -0.00433444743975997, -0.004082871600985527, 0.0015111044049263, 0.011093433946371078, -0.00034621087252162397], [-0.00030062737641856074, -0.001972308149561286, 0.0006086839712224901, -0.0029749819077551365, -2.8547994588734582e-05, 0.0024761254899203777, 0.010276698507368565, -3.162444727422553e-06, -0.0009275443735532463, 0.001369565143249929, -9.152653547062073e-06, -0.0036266804672777653, -0.009343874640762806, 0.0024557888973504305, 0.013586918823421001, 0.00041824602521955967]], "layer_3_biases": [0.33366426825523376, -0.000320451392326504, 0.031439486891031265, -0.11689931154251099, -0.013438604772090912, 0.030193956568837166, 0.061443720012903214, -0.07427547872066498, 0.03722050413489342, -0.027644453570246696, 0.008764239959418774, -0.03247045353055, 0.03481089323759079, 0.03068418614566326, -0.033149056136608124, 0.016498133540153503], "layer_3_weights": [[0.0006524170748889446, 0.006640346720814705, 0.0014531583292409778, -0.007950513623654842, 3.4681244869716465e-05, -0.003018238116055727, -0.004658217076212168, 1.4887453289702535e-05, -0.0013555268524214625, 0.02178875543177128, 0.001014331472106278, 2.245515815957333e-06, 0.0019077357137575746, -0.0007917464827187359, 0.007837255485355854, -0.009909706190228462], [-0.0009915040573105216, -0.007365143392235041, 0.000363649072824046, 0.008489512838423252, 5.369680729927495e-05, -0.0022015543654561043, -0.0015905119944363832, 5.37898376933299e-05, -0.0002728057443164289, -0.011793293990194798, -0.004219312686473131, 2.1076381017337553e-05, 0.0006331811309792101, 1.571742359374184e-05, -0.0014366440009325743, 0.009937191382050514], [0.00016897435125429183, 0.00040972037822939456, -0.00010358837607782334, -0.002248898847028613, 1.7453839973313734e-05, 0.0012483119498938322, -0.00719434441998601, 7.310165528906509e-05, 0.0007986572454683483, 0.003758735256269574, -0.0038026703987270594, 5.937965397606604e-05, -0.000693384965416044, -0.00010161230602534488, 0.005556479562073946, 0.002703560283407569], [0.0004959396319463849, 0.0029544085264205933, 0.0011511238990351558, 0.0017796411411836743, -5.498692917171866e-05, 0.007103088311851025, -0.011317786760628223, -4.3326421291567385e-05, -0.001811475958675146, 0.011145208030939102, 0.004495709668844938, -2.5721414203871973e-05, 0.0012107322691008449, -0.000498310022521764, 0.004047539550811052, -0.0006466436316259205], [-0.00042482855496928096, 0.005097914487123489, -9.506787318969145e-05, 0.01816750504076481, -1.267897187062772e-05, 0.0003285033453721553, -0.004018292296677828, 2.8891554393339902e-06, -0.00020723690977320075, 0.0044200848788022995, -0.0037114392034709454, 7.990142876224127e-06, 0.0005572768277488649, -0.0006718308432027698, -0.031796060502529144, -0.006825262680649757], [0.0002456323418300599, 0.004153612069785595, -0.0002981238067150116, -0.011091797612607479, -0.00011702667688950896, 0.0006495744455605745, 0.00926561001688242, -9.547133959131315e-05, -0.0002597181883174926, 0.00743954349309206, 0.0012122605694457889, -6.244674750632839e-06, 0.0006314396159723401, -0.0002993317903019488, -0.013677453622221947, -0.013058572076261044], [-0.0004557666543405503, -0.00452708313241601, -0.0009541450999677181, 0.0044798958115279675, 8.213976980186999e-05, -0.0014572660438716412, -0.0041281674057245255, 6.061153544578701e-05, 0.0009825811721384525, 0.003204812528565526, -0.003523642895743251, 5.727327152271755e-05, -0.0008453731425106525, 0.00027879021945409477, 0.0024544044863432646, 0.0037446334026753902], [0.00013401388423517346, 0.007047856226563454, -0.0003927589859813452, -0.0012999154860153794, 4.9445927288616076e-05, -0.010845891200006008, 0.010403132997453213, 2.5574365281499922e-05, 0.001229328685440123, -0.0028017829172313213, -0.005705364514142275, -8.576930667913985e-06, -0.0005560411373153329, 0.00023379318008664995, -0.004696005489677191, -0.008014440536499023], [0.0005222889594733715, 0.005750027019530535, 0.001360831200145185, 0.006327774375677109, -2.921533268818166e-05, 0.006201498676091433, -0.011743872426450253, -2.4172193661797792e-05, -0.0005694084102287889, -0.003275857772678137, -0.000666160776745528, -0.00012731463357340544, 0.00041659321868792176, -0.00043372868094593287, -0.009018003940582275, 0.006708797533065081], [-0.00042262868373654783, 0.0029772764537483454, 0.0011060412507504225, 0.003908970858901739, 2.3747075829305686e-05, -0.012230804190039635, 0.010874182917177677, 2.9596905733342282e-05, -0.000979991047643125, -0.00046399340499192476, -0.0028194047044962645, 2.2313766748993658e-05, 0.0018619854236021638, -0.0006151556735858321, -0.014192584902048111, -0.007763945497572422], [-0.00018836860544979572, 0.002516897628083825, 0.0008278143941424787, -0.004863305017352104, 5.617073384200921e-06, -0.0003083623596467078, -0.010091925039887428, -2.6914724003290758e-05, -0.0016172869363799691, 0.013800443150103092, -0.003208956914022565, -2.250574470963329e-05, 0.0016590694431215525, -0.0002967907057609409, 0.01638108119368553, -0.0042282710783183575], [-0.000245895265834406, 0.0055626858957111835, -0.00018216273747384548, 0.001841353951022029, -1.1174788596690632e-05, -0.005295486655086279, 0.010025660507380962, 2.1188019672990777e-05, 0.0005722378264181316, -0.012582759372889996, -0.00279616960324347, 4.773505679622758e-06, -0.0005966644384898245, 0.00018057999841403216, -0.0021148112136870623, -0.002260963898152113], [-0.0005908445455133915, -0.001551078981719911, 0.001281356206163764, 0.01470964029431343, -0.00010250113700749353, 0.005920588504523039, -0.01332502719014883, -7.751421799184754e-05, -0.002457748167216778, -0.0026339429896324873, -0.0008931590127758682, -4.139510201639496e-05, 0.0019196303328499198, -0.00048192928079515696, -0.0011866773711517453, 0.005355397239327431], [-0.00018031330546364188, -0.0005575183313339949, -0.0003446699702180922, 0.008758245967328548, 6.0699996538460255e-05, -0.006914264988154173, 0.0069030886515975, 6.282598042162135e-05, 0.00027158332522958517, -0.005160222295671701, 0.0025452119298279285, 4.661352068069391e-05, -0.0005482248379848897, 0.00039099925197660923, 0.008703446015715599, 0.00026513836928643286], [-0.000208182682399638, -0.0002794193278532475, -0.0007499245111830533, 0.008440501987934113, -8.841083399602212e-06, -0.0009917626157402992, 0.0010776109993457794, 1.011122549243737e-05, 0.0007668265607208014, -0.005491151474416256, 0.00045764746027998626, 4.189868377579842e-06, -0.0011280940379947424, 0.0002998747513629496, -0.002487475983798504, 0.001511434675194323], [-1.6671854154992616e-06, 0.002633648691698909, 2.176173984480556e-05, 0.008410034701228142, -3.160007327096537e-05, -0.004045136738568544, 0.0036795162595808506, -5.0619796638784464e-06, -6.707373540848494e-05, -0.0016058044275268912, 0.0017918205121532083, 1.2284986041777302e-05, -0.00016840135504025966, 2.8142158043920062e-05, 0.0002153793175239116, -0.0016958191990852356]], "layer_4_biases": [0.31347256898880005, -0.035759974271059036, -0.0036567391362041235, -0.01914025843143463, -0.002237062668427825, 0.06211592257022858, -0.10261025279760361, -0.15930180251598358, -0.037506308406591415, 0.008372506126761436, 0.01886538229882717, 0.004765624646097422, -0.030354982241988182, 0.02438468113541603, -0.04158272221684456, 0.028104247525334358], "layer_4_weights": [[-0.00019659836834762245, 0.015123858116567135, 0.01093162689357996, -0.010274181142449379, -7.177206384767487e-07, -0.0014046509750187397, -0.023400558158755302, -6.823529929533834e-06, -0.0026250428054481745, -0.00700049614533782, -0.00434375274926424, -0.006541935261338949, 0.013162142597138882, -0.0007762319291941822, 0.0006231286679394543, -0.004909649956971407], [1.1370218999218196e-05, -0.012504026293754578, -0.013358873315155506, 0.012852510437369347, 6.938014848856255e-05, 6.008076070429524e-06, 0.013424534350633621, 5.8436555264052004e-05, 0.007526859641075134, 0.012271527200937271, -0.000461011630250141, -0.0004224114818498492, -0.002243622438982129, -6.870258948765695e-05, 0.014738712459802628, 0.001192992553114891], [8.490695472573861e-05, 0.0034972229041159153, -0.0026778336614370346, 0.0006659560604020953, 2.8532545911730267e-05, 0.0006247158162295818, -0.014129993505775928, 3.975315485149622e-05, 0.00780475465580821, 0.0080299386754632, 0.000148052436998114, -0.0016966048860922456, 0.0024481071159243584, 0.0001093903265427798, 0.008911791257560253, 0.0015421481803059578], [-0.0003619122435338795, 0.011804946698248386, 0.007845287211239338, -0.0025003980845212936, -5.3177915106061846e-05, -0.0014257091097533703, -0.013462229631841183, -5.1851347961928695e-05, -0.010308311320841312, -0.005119858309626579, 0.003054081229493022, 0.002257232554256916, 0.0033389281015843153, -0.0006000876892358065, -0.017930731177330017, 0.0053436714224517345], [-0.00027851469349116087, 0.009143156930804253, -0.019622065126895905, -0.010625950060784817, 1.8524101506045554e-06, -0.00021511198428925127, 0.0037295471411198378, -1.880818558674946e-06, 0.010339957661926746, -0.016404099762439728, 0.00011041535617550835, 0.0020160404965281487, 0.0021040893625468016, -0.0001905030949274078, -0.007861188612878323, -0.008232167921960354], [6.344172288663685e-05, -0.003926972858607769, 0.0031081235501915216, -0.01680001989006996, -0.00013635671348311007, 8.612852252554148e-05, -0.0015560424653813243, -0.00011788064148277044, -0.006357691716402769, -0.018684934824705124, 0.001628102851100266, 0.004618258681148291, -0.011297940276563168, 0.0002359405334573239, -0.021465599536895752, -0.007636990398168564], [-5.237253390077967e-06, -0.00628634262830019, -0.010230137966573238, 0.002969636581838131, 6.985614891164005e-05, 0.0004136894131079316, 0.0015834340592846274, 5.759575651609339e-05, 0.004562815651297569, 0.002671710215508938, -0.0013940910575911403, -0.0023664182517677546, 0.0025752370711416006, 0.00015029401401989162, 0.010897636413574219, -0.004564505070447922], [0.00013811721873935312, 0.006648572627454996, -0.005328136496245861, -0.006137056741863489, 4.4962875108467415e-05, 0.0003421619185246527, -0.00040813707164488733, 3.228434798074886e-05, 0.012194737792015076, 0.0017940094694495201, -0.006748438812792301, -0.006403570994734764, 0.012433539144694805, 5.1681050535989925e-05, 0.018350981175899506, -0.006173537578433752], [3.1133829907048494e-05, 0.013855104334652424, 0.002065852750092745, 0.0036320241633802652, -1.606148543942254e-05, -0.0008399530197493732, -0.009576271288096905, -2.22257076529786e-05, 0.009904908947646618, 0.011574702337384224, 0.002506527118384838, 0.0005653098342008889, 0.0013734825188294053, -0.0005040778778493404, -0.008682900108397007, 0.007657361216843128], [-0.0002351331786485389, 0.0030340917874127626, -0.0014488209271803498, -0.004535273648798466, 2.7415544536779635e-05, -0.001201918232254684, 0.007265823427587748, 2.9029764846200123e-05, 0.005226097535341978, -0.006729084998369217, -0.007829037494957447, -0.006546312943100929, 0.007443039212375879, -0.0006567692616954446, 0.01053161732852459, -0.0076633780263364315], [-0.00048182427417486906, 0.004564328119158745, -0.003412105841562152, -0.005568928550928831, -6.863926500955131e-06, -0.0008897524676285684, -0.012509572319686413, -2.809352554322686e-05, -0.0073779127560555935, -0.004133111331611872, 0.00014513875066768378, -0.00043621179065667093, 0.012830630876123905, -0.0003741890541277826, 0.0026499414816498756, -0.0001791706745279953], [-2.5920426196535118e-05, 0.003809019224718213, -0.0033622656483203173, -0.0007664375589229167, -2.0167779439361766e-05, 0.0001982333924388513, 0.008426081389188766, -5.6961375776154455e-06, 0.0026997800450772047, 0.005150229670107365, -0.0019431801047176123, 5.3593310440192e-05, 0.006535017862915993, -6.966430373722687e-05, 0.008777810260653496, 0.0013202200643718243], [-0.00019980434444732964, 0.0011754046427085996, -0.012114462442696095, 0.0033906104508787394, -7.118746725609526e-05, -0.00048195599811151624, 0.008661706931889057, -8.148992492351681e-05, -0.0073731429874897, -0.003156031481921673, 0.004925103858113289, 0.0061832149513065815, 0.0012779691023752093, -0.00027733336901292205, -0.005960458889603615, 0.005785311572253704], [-3.8993690395727754e-05, 0.0037037839647382498, 0.0006087427027523518, 0.006447860039770603, 6.257594941416755e-05, -0.00011693395208567381, 0.011758082546293736, 5.724911534343846e-05, -0.004151780158281326, 0.0015063927276059985, -0.004785393364727497, -0.004644258879125118, 0.01302030123770237, -0.00017529248725622892, 0.01753825508058071, 0.000417413713876158], [2.9070091841276735e-05, 0.0015907144406810403, -0.003244885941967368, 0.0027928294148296118, 3.4088707252522e-06, 0.0008395972545258701, 0.008895848877727985, 6.255511380004464e-06, 0.0001573809568071738, -0.0010019059991464019, -0.0008620886947028339, 4.287711999495514e-05, 0.004293229430913925, 0.00027481274446472526, 0.00933405477553606, 0.00047382607590407133], [-5.420318484539166e-05, 0.008597028441727161, 0.0012516988208517432, 0.0010352524695917964, -2.5250106773455627e-05, -0.0001020521012833342, 0.005853529088199139, -2.0089059034944512e-05, -0.0024338052608072758, -0.0021815509535372257, -0.002708837855607271, -0.0018032670486718416, 0.009600627236068249, -0.0002015978971030563, 0.008782172575592995, 0.0013542037922888994]], "output_biases": [0.8169553279876709, 0.0140451081097126], "output_weights": [[1.1057170629501343, -0.040287286043167114], [1.1020188331604004, 0.33826979994773865], [0.38017940521240234, 0.29292699694633484], [-1.2692939043045044, 0.29406240582466125], [0.9958723783493042, -0.0826173946261406], [0.32694223523139954, -0.1942077875137329], [0.783292293548584, -0.6895486116409302], [0.7142985463142395, -0.10684985667467117], [0.5089895725250244, -0.3499063551425934], [0.8639326691627502, 0.4690893590450287], [-0.4664542078971863, -0.12759554386138916], [0.47322332859039307, -0.251800000667572], [-0.34173908829689026, 0.3848421573638916], [0.0024124959018081427, -0.08365371078252792], [0.4167101979255676, -0.9324780702590942], [0.5804734230041504, 0.2813013792037964]]}, "hk_disentangled_rnn/~update_latents/update_net_2": {"input_biases": [0.003393992781639099, 0.04316573217511177, -0.11494886875152588, -0.09864014387130737, 0.15165100991725922, -0.07763958722352982, 0.04152914509177208, -0.07615762948989868, -0.0626741573214531, -0.0697353333234787, 0.0642247125506401, 0.09052405506372452, -0.16453862190246582, -0.043489523231983185, 0.050026360899209976, -0.08960598707199097], "input_weights": [[-0.35832345485687256, 0.7082155346870422, 0.47317278385162354, 0.5869263410568237, -0.11146432161331177, 0.7728567123413086, 0.2967285215854645, 0.6970778107643127, 0.8709288835525513, 1.283604383468628, -0.6716477274894714, -0.5453577041625977, 0.025169940665364265, 0.11071842908859253, -0.7328320145606995, -0.013208489865064621], [-0.09353413432836533, -0.20738178491592407, -0.25464364886283875, 0.031004363670945168, -0.5026291012763977, 0.046787142753601074, 0.012823989614844322, 0.09935759752988815, -0.42733508348464966, 0.15601617097854614, 0.9185506701469421, -0.09648559987545013, 0.8790472149848938, 0.6004710793495178, 0.3277585208415985, 0.17330718040466309], [-0.14209505915641785, -0.3144765794277191, -0.30754902958869934, -0.7305643558502197, 0.5431581735610962, -0.4532805383205414, -0.15325221419334412, 0.3408629894256592, 0.18954597413539886, 0.428713321685791, -0.051028430461883545, -0.7879172563552856, 0.05145944282412529, 0.39483141899108887, 0.031027063727378845, 0.006882844492793083], [-0.8824338316917419, 0.022509261965751648, -0.4174380898475647, -0.36897215247154236, 0.07980652153491974, 0.16080383956432343, -0.3168470859527588, 0.014288287609815598, 0.028777530416846275, 0.1746806800365448, -0.34244322776794434, -0.08099699765443802, -0.4850461184978485, -0.06092870980501175, 0.3966529965400696, 0.1795373111963272], [0.5097509622573853, -0.0433296300470829, -0.8963655233383179, 0.23849846422672272, 0.23992301523685455, -0.08319106698036194, -0.18599459528923035, 0.69375079870224, 0.04286327213048935, -0.4810766875743866, -0.07585600018501282, 0.5251601934432983, -0.2492956519126892, 0.39787420630455017, 0.22936208546161652, 0.025000646710395813], [0.4411168396472931, -0.018695442005991936, -0.12366300821304321, -0.34469977021217346, -0.1188156008720398, -0.03731288015842438, 0.28308072686195374, 0.28488561511039734, 0.22752691805362701, -0.47926056385040283, 0.5222980380058289, 0.40874436497688293, -0.18529462814331055, -0.22845710813999176, -0.11780786514282227, 0.20452384650707245], [0.7173598408699036, -0.42297595739364624, -0.097671277821064, -0.1746070832014084, -0.6755305528640747, -0.1297386884689331, -0.245162695646286, 0.05077008157968521, 1.0446878671646118, -0.11139845103025436, -0.5561362504959106, 0.6828296780586243, 0.03632038086652756, 0.31911295652389526, -0.4050845801830292, -0.4486221373081207]], "layer_0_biases": [-0.021308060735464096, -0.016052410006523132, -0.011547500267624855, -0.020681655034422874, -0.1739886850118637, -0.022749049589037895, 0.048593539744615555, -0.014866462908685207, -0.10261804610490799, -0.02336554042994976, 0.08284197747707367, 0.09878375381231308, -0.07403413206338882, -0.008145011030137539, 0.09254425764083862, -0.06159261614084244], "layer_0_weights": [[0.00016255209629889578, 1.018301827571122e-05, 0.00020245132327545434, 5.611641245195642e-05, -3.838569682557136e-05, -9.266738925362006e-05, -4.959083526046015e-05, -0.0001007569590001367, 3.4216973290313035e-05, 1.814909410313703e-05, 0.00015296089986804873, 3.173443838022649e-05, 5.919868272030726e-05, -3.781501072808169e-05, 9.97703245957382e-05, -9.158899774774909e-05], [-0.0001991077879210934, 0.00017275262507610023, -0.00022239417012315243, -0.00013249721087049693, 4.81558458886866e-07, 3.494606426102109e-05, 0.0010100927902385592, -3.7044883356429636e-05, -1.375463489239337e-05, 2.4735658371355385e-05, -3.7765039451187477e-05, 8.974262891570106e-05, 1.2380377256704378e-07, 0.00021362901316024363, 8.582377631682903e-05, -0.00017399962234776467], [-0.00016281462740153074, 0.00010911504068644717, -0.00010193092020926997, 3.0377979783224873e-05, 1.0823269803950097e-05, 3.930907405447215e-05, 4.801996692549437e-05, 1.0482955076440703e-05, -1.349319518340053e-05, -0.00010930836288025603, -7.043162622721866e-05, 0.00010277604451403022, -5.816397606395185e-05, 0.0001144065463449806, 2.620793793539633e-06, 1.7024467524606735e-06], [-0.00020510372996795923, 0.00018913498206529766, -0.00019912249990738928, -0.00010452891729073599, -6.116870281402953e-06, 4.107944550924003e-05, 0.001274332869797945, -3.7265930586727336e-05, 0.00010818785085575655, -1.3959804164187517e-05, -0.00013704509183298796, -0.00010218036186415702, -9.053881512954831e-06, 0.00017386930994689465, -5.128723933012225e-05, -0.00020391930593177676], [3.396797183086164e-05, -1.0958723578369245e-05, 7.627302693435922e-05, 9.477521234657615e-05, 3.596274837036617e-06, 7.592201291117817e-05, 0.0007623677956871688, 9.455515100853518e-05, 6.692231545457616e-05, 2.544871676946059e-05, 0.00019310461357235909, 0.0002221955801360309, -1.2443761988834012e-05, -4.4876171159558e-05, 0.00021466291218530387, 0.0001793901901692152], [-1.929534482769668e-05, 6.0117968132544775e-06, -0.0001793530973372981, -0.00020992949430365115, -9.565866639604792e-05, -9.397509711561725e-05, 0.0005777382175438106, -0.00014042570546735078, -4.377587538328953e-05, 2.3987606255104765e-05, -0.00022398259898182005, -3.310035390313715e-05, 5.086345140625781e-07, 8.472162880934775e-05, -9.986623626900837e-05, -0.00030947691993787885], [-0.00013886488159187138, 0.00013608124572783709, -8.867584256222472e-05, -5.554557719733566e-05, 4.602806075126864e-05, -9.485860573477112e-06, 0.0010084658861160278, -8.274369065475184e-06, -9.522002983430866e-06, -8.013760816538706e-05, 8.629509102320299e-05, 0.00014624715549871325, -2.7712605515262112e-05, 0.00011448583245510235, 0.00013504494563676417, -5.721893103327602e-05], [-3.631093568401411e-05, 1.2789138054358773e-05, -0.0001784059713827446, -0.00019299551786389202, -3.095283318543807e-05, -0.00010388880764367059, 0.00017827001283876598, -0.00017911371833179146, -1.9276740204077214e-05, 8.261892617156263e-06, -0.0001458664337405935, 0.00010863527859328315, -5.486141617438989e-06, 8.10870187706314e-05, -1.8074880472340737e-06, -0.00027123483596369624], [-0.00027487034094519913, 0.00012366846203804016, -0.00023021461674943566, -0.00016989477444440126, -6.601342465728521e-05, -1.4233063666324597e-05, 0.00019911771232727915, -0.0002152948873117566, -9.523433982394636e-05, -0.00013578888319898397, -0.00040000895387493074, -0.00021123896294739097, 1.8067161363433115e-05, 0.00022397389693651348, -0.00025267808814533055, -0.000423981313360855], [-4.858048487221822e-05, 5.399832662078552e-05, 7.987874596437905e-06, -2.0349611986603122e-06, -0.00013419480819720775, -0.00016143852553796023, 8.07782489573583e-05, -0.00010585095878923312, 3.146696326439269e-05, -9.569158282829449e-05, -0.00044429171248339117, -0.0001287507766392082, 0.0001537095376988873, 1.2576842891576234e-05, -0.00027544921613298357, -6.042457971489057e-05], [2.4022021534619853e-05, -1.6959102140390314e-05, -2.2833140974398702e-05, -3.1556781323160976e-05, -1.1945779988309368e-05, 0.00010991286399075761, 0.00018821477715391666, 0.00011795211321441457, 5.792429510620423e-05, 8.554114174330607e-05, 0.000298254715744406, 0.00013087713159620762, 6.626990216318518e-05, 2.7974536351393908e-05, 0.00017513018974568695, 5.267953747534193e-05], [0.0001556622883072123, -1.2093528312107082e-05, 0.00019269870244897902, 0.00011270745017100126, 2.9316126983758295e-06, -6.540258618770167e-05, -1.0496125469217077e-05, -4.743337194668129e-05, 9.149286483989272e-07, -9.616011084290221e-06, 8.814012107905e-05, -0.00020456085621844977, 1.7734046195982955e-05, -2.895000397984404e-05, -3.6587091017281637e-05, -8.497054659528658e-05], [-4.043543867737753e-06, 3.885556907334831e-06, -2.1345445929910056e-05, -2.243340168206487e-05, -1.2172711649327539e-05, -1.2554013665067032e-05, 8.96400524652563e-05, 8.821607480058447e-06, 5.533683724934235e-05, 2.4752265744609758e-05, -5.977598630124703e-05, -5.464538116939366e-05, -1.916103792609647e-05, 2.182230855396483e-05, -7.402777555398643e-05, 1.7063577615772374e-05], [-4.197216185275465e-05, 4.098752833670005e-05, -4.006276503787376e-05, -6.35573742329143e-05, 3.4566550311865285e-05, -3.20759900205303e-05, 2.951394890260417e-05, -4.118015931453556e-05, 4.44659854110796e-05, -4.207179881632328e-05, -0.00014251303218770772, -0.00010892677528318018, -1.2657895240408834e-05, 3.498306978144683e-05, -0.00013855354336556047, 5.45381881238427e-05], [0.00022597888892050833, -0.00022125081159174442, 0.00023427317501045763, 0.00010157984070247039, 2.3071925170370378e-05, -2.0234981548128417e-06, -0.0003753805940505117, 2.096250136673916e-05, 0.00014462103717960417, 0.00022581408848054707, 0.00012571025581564754, -3.936768916901201e-05, -7.240167178679258e-06, -0.0001989271549973637, 2.3583255824632943e-05, 0.00011384784011170268], [9.143757779384032e-05, -4.4209205952938646e-05, 4.9129474064102396e-05, 4.001315028290264e-05, 1.2247979611856863e-05, 0.00015093068941496313, -0.00040286409785039723, 0.00016155499906744808, 2.8340265998849645e-05, 5.384806718211621e-05, 0.0005481064436025918, 0.0001984015543712303, -3.9369350446349927e-08, -6.224821845535189e-05, 0.0004546573618426919, 4.2627969378372654e-05]], "layer_1_biases": [-0.04921221360564232, 0.11050891131162643, -0.010616853833198547, -0.03451366722583771, -0.01116081140935421, -0.014625396579504013, 0.28167247772216797, -0.014450148679316044, -0.05985063314437866, -0.022781776264309883, 0.09720131009817123, -0.010264362208545208, -0.044996704906225204, -0.015531275421380997, 0.06057580187916756, -0.013441351242363453], "layer_1_weights": [[0.00016508768021594733, 9.680043876869604e-05, 0.0001930620928760618, 5.589469219557941e-05, 8.045128197409213e-05, -0.00010405918146716431, -4.949900903739035e-05, -0.00010115459735970944, 3.498043224681169e-05, 1.964421790034976e-05, 0.0001508234126958996, -1.4950715922168456e-05, 7.441911293426529e-05, -0.0001551427849335596, 9.940458403434604e-05, -2.069710535579361e-05], [-0.00019826721108984202, 3.962952541769482e-05, -0.00023316890292335302, -0.00013283395674079657, -5.98749284108635e-06, 2.149371721316129e-05, 0.0010112249292433262, -3.441104126977734e-05, -8.705050277058035e-06, 2.391648740740493e-05, -3.6270452255848795e-05, 0.00010770115477498621, 3.6895780652912435e-08, 0.0002227553486591205, 8.445266576018184e-05, -0.00024042156292125583], [-0.00016773548850324005, -2.228005359938834e-05, -0.00020673735707532614, 4.431406705407426e-05, -2.6965099095832556e-05, 2.4876406314433552e-05, 4.68297912448179e-05, 1.560655982757453e-05, -1.371659709548112e-05, -0.00010858769383048639, -7.182161061791703e-05, 1.3007927918806672e-05, -5.669343227054924e-05, 0.00012882256123702973, 1.0437215536285294e-07, -0.00011654026457108557], [-0.00020561974088195711, -7.887824176577851e-05, -0.00019100545614492148, -0.00010459172335686162, -9.1473528300412e-05, 1.5294148397515528e-05, 0.001275643240660429, -3.5152246709913015e-05, -8.385100045416038e-06, -1.4536086382577196e-05, -0.00013504635717254132, 7.16140420990996e-05, -8.816750778350979e-06, 0.00018623846699483693, -5.223966218181886e-05, -0.00025530761922709644], [3.272455796832219e-05, 0.00020079391833860427, 7.90114572737366e-05, 9.668937855167314e-05, 2.9795479349559173e-05, 7.096508488757536e-05, 0.0007518267375417054, 9.510368545306846e-05, 6.763642159057781e-05, 2.6482133762328885e-05, 0.00018837288371287286, -2.8250231480342336e-05, -1.2499564945755992e-05, -9.618711919756606e-05, 0.0002121809811796993, -1.7478458175901324e-05], [-2.024739842454437e-05, -0.000124287762446329, -8.513475768268108e-05, -0.00020904690609313548, 2.351220609853044e-05, -0.00011195276601938531, 0.0005789565620943904, -0.0001401926128892228, -4.913283191854134e-05, 2.4000322810024954e-05, -0.00022103644732851535, 0.00014787714462727308, 7.243426125569385e-07, 0.0001059848364093341, -0.00010048006515717134, -0.00016544961545150727], [-0.00012740780948661268, 5.349950515665114e-05, -0.00013576698256656528, -5.574327951762825e-05, -4.649186666938476e-05, -1.9711100321728736e-05, 0.0003218691563233733, -3.2746589567977935e-05, -5.391130252974108e-05, -1.5279125364031643e-05, 3.887723505613394e-05, 4.625996734830551e-05, -3.853159068967216e-05, 0.00014066915900912136, 8.91761519596912e-05, -0.00011420881492085755], [-3.835139068542048e-05, -4.4162585254525766e-05, -0.0001802716142265126, -0.00019182120740879327, 4.428949614521116e-05, -0.00011538318358361721, 0.0001789049565559253, -0.00017893982294481248, 8.270657417597249e-06, 8.108178008114919e-06, -0.000142934950417839, 0.00012520128802862018, -5.667586265190039e-06, 0.00011281045590294525, -1.9946796783187892e-06, -0.00026229946524836123], [-0.0002748745901044458, -0.00027493349625729024, -0.00023973883071448654, -0.0001694706588750705, -4.410002293298021e-05, -9.789371688384563e-05, 0.00019832953694276512, -0.0002153277600882575, -9.429767669644207e-05, -0.00013838295126333833, -0.00040069461101666093, 9.370210318593308e-05, 1.8051488950732164e-05, 0.00023087671434041113, -0.00025581661611795425, -0.0002703186182770878], [-4.6892066166037694e-05, -0.00029433052986860275, 2.5084839307965012e-06, -1.8041836256088573e-06, -1.736935337248724e-05, -0.0001340334420092404, 8.925742440624163e-05, -0.00010731382644735277, 3.432470475672744e-05, -9.542361658532172e-05, -0.0004388479283079505, 1.9014491044799797e-05, 0.00015429288032464683, 7.163474492699606e-06, -0.0002757174661383033, -3.068860314670019e-05], [6.49308567517437e-05, 0.0001502477825852111, 3.20212020596955e-05, -4.0112256101565436e-05, -1.5056079973874148e-05, 9.787565795704722e-05, 0.0001749444054439664, 9.947524085873738e-05, 7.80435002525337e-05, 0.00010149590525543317, 0.00027898477856069803, 3.438791463850066e-05, 4.182297197985463e-05, -5.50563072465593e-06, 0.0001647952594794333, 2.4557051801821217e-05], [0.00017911598843056709, -0.0001486984983785078, 0.00021709119027946144, 7.668896432733163e-05, 8.157036791089922e-05, -5.2968978707212955e-05, -3.2843872759258375e-05, -6.632173608522862e-05, -4.8283127398462966e-05, 9.323660924565047e-05, -6.576921441592276e-05, 2.6449788492755033e-06, 3.0121127565507777e-05, -0.00014278723392635584, -0.0002441944379825145, -5.4977401305222884e-05], [-4.665966116590425e-06, -7.89375408203341e-05, -3.3619169698795304e-05, -2.1853604266652837e-05, -7.362114411080256e-05, -8.521288691554219e-06, 9.858029807219282e-05, 8.585354407841805e-06, 5.613125904346816e-05, 2.4797549485811032e-05, -5.4633790568914264e-05, 5.029180465498939e-05, -1.9903127395082265e-05, 2.6372728825663216e-05, -7.170544995460659e-05, -5.877027433598414e-06], [-4.212225758237764e-05, -0.00013882895291317254, -4.0008129872148857e-05, -6.412375660147518e-05, -4.2343337554484606e-05, -3.1882391340332106e-05, 3.746072979993187e-05, -4.108538996661082e-05, 4.430953777045943e-05, -4.1902007069438696e-05, -0.00013828922237735242, 0.00011417414498282596, -1.3083161320537329e-05, 3.1058661988936365e-05, -0.00013681249401997775, 6.806408055126667e-05], [0.00021876420942135155, 4.4931701268069446e-05, 0.00019732120563276112, 0.00010225970618193969, 0.0001268297783099115, -1.220668764290167e-05, -0.00033578791772015393, 2.352171031816397e-05, 3.6643457860918716e-05, 0.00017821828078012913, 0.0001305720506934449, -1.9440174582996406e-05, 6.965149623283651e-06, -0.00019972330483142287, 7.2904786065919325e-06, 0.0002727970713749528], [7.905853999545798e-05, 0.0004579370724968612, 4.072213778272271e-05, 4.3307194573571905e-05, 3.086639480898157e-05, 0.00015679269563406706, -0.0004018849867861718, 0.0001581959513714537, 8.461174002150074e-05, 5.7682409533299506e-05, 0.0005533691146411002, -8.057476225076243e-05, -1.7921078324434347e-05, -1.235994841408683e-05, 0.00045674413559027016, 4.998487202101387e-05]], "layer_2_biases": [-0.01064892765134573, -0.008109393529593945, -0.20358656346797943, -0.06228198856115341, -0.00943499244749546, -0.014185636304318905, 0.08017157018184662, -0.014287146739661694, -0.0030209345277398825, -0.02090115286409855, 0.15597084164619446, 0.10304051637649536, -0.03992897644639015, 0.05875715985894203, 0.10205772519111633, -0.013458127155900002], "layer_2_weights": [[0.000156927781063132, -0.00015950242232065648, 0.0001841532066464424, 5.578063792199828e-05, 8.293235441669822e-05, -0.00010340358130633831, -4.990103479940444e-05, -0.00010189686872763559, -1.2176609516245662e-06, 1.822042031562887e-05, 0.00014825492689851671, 4.208290920360014e-05, 7.400476897601038e-05, 8.024440467124805e-05, 9.803431748878211e-05, -2.883508932427503e-05], [-2.6353800421929918e-05, 2.3516357032349333e-05, -0.00021228195691946894, -0.0002003089030040428, 5.832971964991884e-06, -8.324353984789923e-05, 0.0015609870897606015, -0.00011062654084526002, -1.2902863090857863e-05, 2.0833338567172177e-05, -0.00013651885092258453, 4.7839446779107675e-05, 2.4263399609480985e-06, -7.786828064126894e-06, -8.131342838169076e-06, -0.00019894985598511994], [-0.0001510997099103406, 0.00015579395403619856, -0.00021774778724648058, 4.578122388920747e-05, -3.640462091425434e-05, 2.716287417570129e-05, 4.4811255065724254e-05, 1.570010499563068e-05, -9.8711616374203e-06, -0.00010753814422059804, -7.336067210417241e-05, 0.00010317644046153873, -5.659163070959039e-05, 1.5182293964244309e-06, -2.5765671125554945e-06, -0.00011240199091844261], [-0.00020537459931802005, 0.00019907239766325802, -0.00019450935360509902, -0.00010463624494150281, -8.82214299053885e-05, 1.261217585124541e-05, 0.0012752627953886986, -3.0394136047107168e-05, -1.5460118447663262e-05, -1.4202405509422533e-05, -0.00013269811461213976, -0.0001065643664333038, -8.660389539727475e-06, -6.837787077529356e-05, -5.216060526436195e-05, -0.00027718229102902114], [2.5278575776610523e-05, -4.088116838829592e-05, 0.00010657422535587102, 9.674486500443891e-05, 3.2851065043359995e-05, 7.054521847749129e-05, 0.00074590346775949, 9.127689554588869e-05, 1.5575586758131976e-06, 2.570955257397145e-05, 0.00018481283041182905, 0.00022681230620946735, -1.2509130101534538e-05, 0.00020734919235110283, 0.00020996789680793881, 7.649017788935453e-06], [-1.3003523235965986e-05, 1.534116563561838e-05, -0.000230824327445589, -0.00021017459221184254, -8.556478860555217e-06, -0.00011215375707251951, 0.0005818898789584637, -0.00013943552039563656, -1.5085712220752612e-05, 2.479884642525576e-05, -0.0002176526904804632, -4.156991417403333e-05, 8.980263146440848e-07, -9.43037957767956e-05, -9.969980601454154e-05, -0.00019230069301556796], [-2.4192058845073916e-06, 1.7466020381107228e-06, -3.480009763734415e-05, -3.2018313504522666e-05, 3.019920040969737e-05, -9.282423707190901e-05, 0.0002481727278791368, -8.980101119959727e-05, -2.3368986603600206e-06, -2.0522946215351112e-05, 1.4456855751632247e-05, 4.1830495320027694e-05, 6.838505214545876e-06, 1.4588226804335136e-05, 2.6789917683345266e-05, -4.0503000491298735e-05], [-3.771461342694238e-05, 3.289401865913533e-05, -0.00017664185725152493, -0.0001930338330566883, -4.2843544179049786e-07, -0.00011639178410405293, 0.00018030701903626323, -0.00017894529446493834, -1.0429062967887148e-05, 8.919851097743958e-06, -0.0001395588624291122, 0.00010124156688107178, -5.428629265225027e-06, -8.441325007879641e-06, -8.930206263357832e-07, -0.0002647706132847816], [-0.0002547440817579627, 0.00027805796707980335, -0.000243413815042004, -0.0001694648090051487, -5.091572165838443e-05, -9.38159937504679e-05, 0.00019754443201236427, -0.000210154103115201, -1.1444289157225285e-05, -0.00014088796160649508, -0.00040144327795132995, -0.00020470234449021518, 1.8064210962620564e-05, -0.0002493690117262304, -0.000258761050645262, -0.0003542682679835707], [-4.7275480028474703e-05, 4.8003850679378957e-05, 2.377751343374257e-06, -6.796232696615334e-07, -2.3217171474243514e-05, -0.00013679396943189204, 9.865882020676509e-05, -0.0001087944328901358, -3.7949771467538085e-06, -9.513879922451451e-05, -0.0004325634508859366, -0.0001471355790272355, 0.00015411908680107445, -0.0002476269146427512, -0.00027357498765923083, -3.347136953379959e-05], [8.045462891459465e-05, -7.730184734100476e-05, 6.281490641413257e-05, -3.929459853679873e-05, -2.829618279065471e-05, 8.201802120311186e-05, 0.00015738216461613774, 7.30031169950962e-05, 7.376017947535729e-07, 8.720200276002288e-05, 0.00026455253828316927, 9.572279668645933e-05, 1.125162816606462e-05, 0.00012373371282592416, 0.0001591266191098839, 1.503200655861292e-05], [0.00018018535047303885, -0.0001670039928285405, 0.00021808771998621523, 7.550071313744411e-05, 0.0001277828123420477, -5.257528755464591e-05, -3.415828541619703e-05, -6.727185245836154e-05, -1.9423434878262924e-06, 9.603564103599638e-05, -6.710443267365918e-05, -0.0005073649226687849, 2.9986160370754078e-05, -0.0002202500036219135, -0.00024426725576631725, -6.81920355418697e-05], [-4.27071472586249e-06, 5.785991106677102e-06, -3.4558019251562655e-05, -2.1413092326838523e-05, -7.337390707107261e-05, -9.093138032767456e-06, 0.00010868599929381162, 7.864763574616518e-06, 8.829680950839247e-07, 2.4915292669902556e-05, -4.873830039286986e-05, -6.69664514134638e-05, -1.9996434275526553e-05, -7.792258111294359e-05, -6.771325570298359e-05, -1.4019479976923321e-06], [-4.185314173810184e-05, 4.249990888638422e-05, -3.911265230271965e-05, -6.413893424905837e-05, -5.38408812644775e-06, -3.176566679030657e-05, 4.627759335562587e-05, -4.092161179869436e-05, 3.819940957328072e-06, -4.1713672544574365e-05, -0.00013349560322239995, -0.00011999389244010672, -1.3508991287380923e-05, -0.0001349415397271514, -0.00013356146519072354, 6.367702007992193e-05], [6.673764437437057e-05, -0.00014801515499129891, 9.248885180568323e-05, 0.00015127204824239016, 0.00013206205039750785, 2.7134970878250897e-05, -0.0003217514604330063, 8.668968075653538e-05, 5.99151962887845e-06, 4.7737947170389816e-05, 0.0001371596154058352, -6.226899131434038e-05, 1.8395889128441922e-05, 9.166884410660714e-06, 8.698890269442927e-06, 0.0002656808355823159], [9.802867862163112e-05, -6.398839468602091e-05, 4.33240675192792e-05, 4.541594535112381e-05, 9.556578334013466e-06, 0.00015727248683106154, -0.0004014820442534983, 9.765853610588238e-05, 2.609897819638718e-06, 4.182417978881858e-05, 0.0005552368238568306, 0.00019866795628331602, 3.712931356858462e-05, 0.00039025413570925593, 0.00045756250619888306, 2.8557908080983907e-05]], "layer_3_biases": [-0.020860394462943077, 0.0949745923280716, -0.06520747393369675, -0.02712712436914444, -0.01162833534181118, -0.014069235883653164, 0.1397245079278946, -0.014921635389328003, -0.0015929237706586719, -0.11365604400634766, 0.06374701857566833, 0.1455741971731186, -0.03600196912884712, 0.0917196199297905, 0.11541928350925446, -0.010298109613358974], "layer_3_weights": [[0.00015762173279654235, 8.638193685328588e-05, 0.00018263631500303745, 5.606949343928136e-05, -3.8366510125342757e-05, -0.00010116824705619365, -5.102181603433564e-05, -0.00010732869850471616, 9.242516171070747e-06, 2.942506762337871e-05, 0.00014507974265143275, 4.529212674242444e-05, 7.347908831434324e-05, 7.582598482258618e-05, 9.536925790598616e-05, 4.4453834561863914e-05], [-2.4907190891099162e-05, -2.7841886549140327e-05, -0.00021237216424196959, -0.00019781276932917535, -9.90334683592664e-06, -7.857017772039399e-05, 0.0015581257175654173, -0.00010625638242345303, -2.699080141610466e-06, 2.1848509277333505e-05, -0.0001326290366705507, 4.72167412226554e-05, 3.5565371945267543e-06, -2.227663344456232e-06, -5.617343504127348e-06, 1.5541794482487603e-06], [-0.0001539578370284289, -2.383351602475159e-05, -0.00021339458180591464, 4.455894304555841e-05, 8.636064194433857e-06, 3.8231115468079224e-05, 4.2427098378539085e-05, 3.0686220270581543e-05, -3.169247429468669e-05, -0.00010622249101288617, -7.626164006069303e-05, 9.890139335766435e-05, -5.6411547120660543e-05, -1.7700431271805428e-06, -6.114526968303835e-06, -0.0001186378431157209], [-0.00020579836564138532, -6.797240348532796e-05, -0.00019426636572461575, -0.00010470168490428478, -6.504031716758618e-06, 2.8076210583094507e-05, 0.0012721859384328127, -7.387206096609589e-06, -1.6459296602988616e-05, -1.796690958144609e-05, -0.00012958519801031798, -0.00010492953879293054, 4.087173692823853e-06, -6.442873564083129e-05, -5.076614979770966e-05, -2.51266665145522e-05], [3.187582842656411e-05, 0.0001899336784845218, 0.00010746837506303564, 9.723121183924377e-05, 1.188760734294192e-06, 7.048415136523545e-05, 0.000738775182981044, 8.570973295718431e-05, 2.747437292782706e-06, 2.5415969503228553e-05, 0.00018044481112156063, 0.00022515900491271168, -1.2660988431889564e-05, 0.0002014760539168492, 0.00020628925994969904, -3.8599053368670866e-05], [-1.7721748008625582e-05, -0.00010985080734826624, -0.0002309121482539922, -0.0002061638660961762, -9.717928332975134e-05, -0.00010873653081944212, 0.0005839394871145487, -0.00013464804214891046, 1.6478154520882526e-06, 2.6555630029179156e-05, -0.00021331003517843783, -4.155047645326704e-05, -2.6605630409903824e-06, -8.831031300360337e-05, -9.710683661978692e-05, 1.3405952813627664e-05], 